const double network_weights[] = {

 // Description of following elements Weights_L1Node001
-0.0254595,
-0.07042065,
0.07023883,
0.01038336,
-0.03801645,
-0.03579653,
-0.08609886,
0.1050655,
-0.1303658,
-0.04185016,
-0.1188448,
0.1258971,
-0.1398728,
-0.08282041,
-0.04528439,
0.1190181,
-0.004881999,
-0.08845682,
-0.05535557,
0.1215457,
-0.150077,
-0.09927163,
0.0815018,
-0.09875876,
0.00223429,
-0.06276816,
0.1136203,
0.09847113,
0.1518453,
-0.03819006,
0.002464033,
0.0756449,
-0.03046661,
0.1313992,
-0.02201297,
-0.139352,
-0.1042435,
-0.04220561,
-0.1342883,
0.1045216,
0.1187141,
-0.134276,
-0.09056358,
-0.1256079,
0.02224396,
-0.01918066,
-0.1251687,
0.08393229,
0.07120931,
-0.1079955,
0.0352591,
0.09077646,
0.09748082,
-0.03999147,
0.0943472,
-0.1337324,
-0.1245786,
0.09302264,
0.01430136,
0.1202789,
-0.09532262,
0.1012036,
-0.1331359,
0.03044977,
-0.1339175,
-0.08111465,
-0.08532356,
-0.07328606,
0.03022318,
0.05933376,
0.128499,
0.04735838,
0.04068208,
-0.02989341,
-0.043274,
-0.01400653,
0.103174,
-0.03348077,
0.1186204,
0.0948073,
0.09809591,
0.1110769,
-0.04908738,
-0.1329459,
-0.07096885,
-0.1240249,
0.05214809,
0.1354357,
0.04758162,
-0.02546063,
-0.07865703,
-0.04535937,
0.06080253,
-0.003434628,
0.09752388,
-0.05176049,
-0.123569,
0.1009909,
-0.02231992,
-0.0739864,
0.03223454,
0.02347754,
0.140468,
-0.132911,
0.06679744,
0.1223748,
-0.0927883,
0.1210532,
0.0978993,
0.05051506,
0.0476934,
0.01081919,
-0.1071395,
0.03512033,
-0.03838129,
-0.01865015,
0.03018658,
0.1150566,
-0.1169189,
0.1478629,
0.108751,
-0.01777554,
0.1009476,
-0.06312052,
0.003328973,
0.07647855,
-0.0364295,
-0.07115016,
-0.07226522,
0.0251515,
-0.01731455,
-0.01629232,
0.1457194,
0.08869254,
-0.08783003,
0.1365484,
-0.1343805,
-0.1449139,
-0.08873961,
-0.06262113,
-0.04078201,
0.1065623,
0.1344749,
-0.1327828,
-0.0275257,
0.1362069,
-0.08436339,
-0.1377245,
-0.1500051,
-0.08524391,
0.05279675,
-0.1120662,
0.06220493,
-0.03504175,
-0.0419585,
0.1408187,
-0.1255472,
-0.07437873,
-0.02659983,
0.06207735,
0.07548658,
-0.1408079,
0.08564325,
-0.05571639,
-0.0260507,
-0.1254455,
-0.04585118,
-0.1128063,
-0.05956432,
0.135832,
0.08222909,
0.09780844,
-0.1172632,
-0.09031454,
0.02818763,
-0.1489494,
-0.06946184,
0.04897963,
-0.09109405,
0.05653536,
-0.1195452,
-0.01613514,
-0.1135319,
0.006019537,
-0.07403983,
-0.1035197,
-0.02383057,
0.01786631,
-0.06068061,
0.07171209,
-0.04865208,
-0.1385992,
-0.0279491,
-0.05412938,
-0.04313024,
-0.135699,
0.07564766,
-0.1279311,
-0.06315151,
-0.02539724,
0.0608151,
-0.08246579,
0.09101263,
0.07938751,
-0.04847608,
-0.08187599,
0.06355473,
-0.0284783,
0.1354568,
0.04678373,
-0.1207269,
0.08547708,
0.06011096,
-0.119395,
-0.08939172,
0.131954,
-0.08988976,
-0.1398671,
0.01290673,
-0.1508699,
0.02310355,
-0.01639567,
0.1054809,
0.02843677,
-0.1359809,
0.05710445,
-0.1130451,
0.1344015,
-0.1403379,
0.06254158,
0.08092158,
0.06123123,
-0.03203421,
0.1197924,
-0.009208817,
0.03518648,
-0.1124062,
0.1020527,
-0.0162029,
0.1283516,
0.08231245,
-0.08672753,
-0.1091926,
-0.117812,
-0.08379947,
-0.08465434,
-0.08464009,
-0.0161177,
-0.05792665,
0.09686494,
0.0265688,
0.1129957,
0.07168009,
0.06152048,
0.1078613,
-0.1114368,

 // Description of following elements Weights_L1Node002
-0.1130869,
-0.01295855,
-0.06407696,
0.05201474,
-0.08168388,
-0.08857556,
0.03344546,
0.0341904,
0.1506881,
0.1490913,
0.06783483,
0.09996554,
-0.04092653,
-0.107741,
0.08599196,
0.04457932,
0.149612,
0.08372278,
0.1432065,
-0.1078033,
0.06637863,
-0.06469408,
0.03137438,
-0.009700292,
0.02089307,
0.126435,
-0.02538032,
-0.1251778,
0.08141855,
-0.0389309,
-0.003499743,
-0.06305367,
0.03414814,
0.1062863,
0.04218965,
-0.0006468964,
0.1283505,
-0.04651882,
-0.1454829,
-0.1374963,
0.090151,
0.1433432,
0.07356174,
-0.06733941,
0.06516717,
-0.1223378,
0.1260193,
0.08665557,
-0.1059905,
-0.0240216,
0.1384578,
-0.09452246,
-0.06897351,
-0.1358353,
-0.1070209,
-0.1276904,
0.06438612,
-0.1308893,
0.007350481,
0.08467626,
-0.1304406,
0.04911469,
-0.0198269,
-0.03221138,
0.03177668,
0.1510828,
-0.1133007,
-0.09193269,
0.1180388,
-0.1338882,
-0.126856,
0.02612827,
-0.1406605,
-0.1206876,
-0.0306968,
0.01147958,
-0.08648749,
-0.03480363,
0.125958,
-0.04196773,
0.01269544,
-0.09654973,
-0.04824775,
0.1069311,
0.141346,
0.01116473,
0.1179937,
0.076014,
-0.1096656,
-0.1508045,
0.08866015,
0.004259705,
-0.08187497,
0.06198559,
0.04588866,
0.1120704,
-0.04633732,
-0.05155258,
-0.06277826,
-0.1481443,
-0.06706638,
0.1089244,
-0.1062072,
0.01598024,
-0.1336365,
0.1053914,
0.1408774,
-0.06054703,
-0.08121213,
0.1324471,
0.1041522,
0.08517039,
0.002313372,
0.02509584,
0.02631986,
-0.0241919,
0.1013945,
-0.1049471,
-0.118917,
0.007071854,
0.01607863,
-0.1023671,
-0.1067332,
-0.1338618,
-0.02054201,
-0.003088126,
-0.1506036,
-0.07262057,
-0.04791982,
-0.148108,
0.06113301,
0.1063103,
-0.02417773,
0.09466751,
0.1491342,
-0.02033779,
0.1406891,
-0.01971248,
-0.08905695,
-0.0905834,
0.07791878,
0.1352523,
0.1097327,
-0.02839937,
0.1374058,
-0.009362238,
0.06309707,
-0.002843756,
-0.0408953,
0.03463716,
0.04671087,
-0.08706629,
0.01787165,
0.138903,
0.1168173,
0.1434766,
0.04012284,
-0.02863983,
-0.01710805,
-0.1501328,
-0.05027837,
0.08205195,
0.04447605,
-0.01582239,
0.1340224,
0.145687,
-0.002380203,
-0.01775037,
0.0906089,
-0.1155246,
0.09965128,
0.0749718,
0.02642936,
-0.05997232,
0.02590131,
0.02279274,
-0.08935244,
-0.134821,
-0.08233205,
0.1488606,
0.09326714,
-0.1391178,
0.01290631,
-0.07162865,
0.002775,
0.02499529,
-0.1383278,
0.1144007,
-0.004885626,
-0.09308466,
0.1465221,
0.1225645,
0.03890672,
-0.03988968,
0.1303954,
0.1213095,
-0.1363579,
-0.1253828,
-0.07956617,
-0.05041428,
0.1078482,
-0.1476147,
-0.07352552,
0.06735216,
-0.1252627,
0.1101972,
-0.1014717,
-0.01474302,
-0.06582016,
0.01453107,
0.1435098,
-0.1069102,
0.1121189,
-0.003524877,
0.02767256,
-0.1511723,
-0.004396815,
0.07045441,
0.0112544,
0.1480983,
0.0004724315,
-0.1370675,
-0.1185782,
-0.008685593,
-0.1019395,
-0.01354006,
0.03557648,
-0.1172021,
-0.1270687,
-0.1464171,
-0.1256517,
-0.02614089,
-0.01764804,
0.1084347,
-0.07898375,
0.1045187,
-0.03809952,
-0.1464159,
0.07491952,
-0.1021475,
-0.1461305,
0.02597879,
0.09104751,
0.05528167,
-0.06145522,
0.01068002,
-0.09902182,
0.009819639,
-0.0876234,
0.05613003,
-0.03404472,
-0.08231331,
0.02287114,
-0.1123961,
-0.0654911,
-0.1289472,

 // Description of following elements Weights_L1Node003
-0.03368491,
0.1127765,
0.03401177,
-0.0405612,
0.04418471,
0.03563615,
-0.04940943,
-0.1018099,
0.1354542,
0.00303214,
0.1381139,
-0.009161339,
0.1317785,
0.08880103,
-0.001742441,
-0.148042,
-0.07908055,
-0.0189095,
0.1181036,
0.1257872,
0.03764191,
-0.009371919,
0.09867395,
-0.04181195,
0.05076177,
-0.0461811,
-0.1145277,
-0.01021952,
-0.1400067,
0.01422244,
0.1408827,
-0.09601243,
-0.1394117,
-0.01654699,
-0.0317371,
0.1431253,
0.05155179,
0.07006656,
-0.1188243,
-0.001532208,
0.1295036,
0.0523999,
-0.02332908,
-0.05514988,
0.1497024,
0.07744338,
-0.05310147,
-0.03707936,
0.0208272,
0.07073096,
-0.02741164,
0.03459666,
0.1436832,
0.1084175,
-0.03503985,
-0.06906234,
0.1018129,
-0.002360589,
-0.008905496,
-0.1079924,
-0.1216748,
-0.0599804,
0.1471673,
-0.1285549,
-0.07229044,
-0.04175358,
0.0436346,
-0.1228747,
-0.1446898,
-0.05732648,
0.1382638,
0.123376,
0.06952573,
0.04740105,
0.03537682,
-0.08717808,
0.06323707,
-0.0951307,
0.1198761,
-0.1345146,
-0.0538706,
0.107607,
-0.1151985,
0.07611575,
-0.008320182,
-0.06010692,
0.03114766,
-0.08755016,
0.05960156,
-0.06209258,
-0.09382258,
-0.05383005,
0.1319192,
0.0510244,
0.07652812,
0.1439227,
-0.02194477,
-0.06007988,
0.1079499,
-0.03133431,
0.071344,
0.04294936,
0.1111808,
-0.03327105,
0.150276,
-0.05637381,
-0.1399164,
-0.04693127,
0.1004957,
0.09799272,
-0.05244811,
0.126836,
0.039344,
-0.1303397,
0.05439994,
-0.04280313,
-0.1054777,
-0.1370976,
0.09557459,
0.1179381,
-0.1485427,
-0.07617303,
-0.1359399,
-0.04511322,
-0.03842067,
0.06093155,
-0.01781909,
0.1153906,
-0.09027725,
-0.1199205,
-0.08058407,
0.03363307,
0.02916544,
0.01066072,
0.04627347,
0.07874373,
-0.05909404,
-0.0626502,
0.00563239,
0.06705514,
0.1252314,
-0.05363428,
-0.08370239,
-0.1168555,
-0.05352558,
-0.1398342,
-0.05181905,
-0.1191251,
0.02588074,
0.1175265,
0.1213257,
0.01078134,
0.07767478,
-0.02535043,
-0.1448592,
-0.09127031,
-0.08322617,
0.01770671,
-0.1287224,
-0.02440419,
0.02363458,
0.1038108,
0.05307357,
0.09471641,
-0.1291135,
0.02162903,
-0.1199654,
0.06559668,
-0.05551948,
0.05740705,
0.1146271,
-0.1512276,
-0.0214798,
-0.04902927,
0.08697418,
0.08253117,
0.04823318,
-0.03329187,
-0.07977077,
-0.114874,
-0.08845276,
0.0372063,
0.028117,
0.1420215,
0.004517535,
0.1342772,
-0.0819004,
0.01799596,
-0.126633,
0.09878428,
-0.09879965,
0.01933766,
0.09543129,
0.1366865,
0.04553345,
-0.09173786,
-0.1270944,
-0.04060331,
0.1474456,
-0.06690426,
-0.08294871,
-0.1108295,
0.1222785,
-0.02104016,
0.01859944,
-0.1478226,
-0.006865221,
0.1016852,
-0.1345912,
-0.05465303,
-0.03475924,
0.0690349,
0.1422357,
0.1431438,
0.03850617,
0.1070268,
-0.06429841,
-0.03731732,
-0.08208798,
0.1472898,
-0.1499881,
0.05888594,
-0.03676315,
0.0651111,
-0.1133324,
-0.1285936,
0.02076796,
0.1203178,
0.03377312,
0.09318615,
-0.1418502,
0.03608278,
-0.04219788,
-0.1094446,
-0.1131253,
-0.1412411,
-0.0298728,
0.1440515,
0.1187516,
0.03043114,
-0.03127876,
-0.1464962,
0.08286782,
0.05926595,
-0.1399839,
0.07128298,
0.09477492,
-0.1324849,
-0.004076647,
0.1502428,
-0.03357745,
0.06140557,
-0.08682186,
-0.0001679132,
-0.1352695,
-0.141401,

 // Description of following elements Weights_L2Node001
-0.002315565,
-0.04441768,
-0.09421968,
0.04333916,
-0.03991968,
0.06125782,
-0.06912156,
-0.1029785,
0.05985038,
-0.01885305,
-0.004195419,
-0.05481504,
-0.02753763,
0.07372407,
0.08236552,
-0.0558381,
0.0426135,
-0.05013213,
-0.01281881,
-0.08741431,
-0.0434957,
0.100465,
-0.01803745,
0.09140472,
0.02739576,
0.04381315,
0.01181042,
-0.02561163,
-0.01000889,
0.08818438,
0.03874511,
-0.08285744,
-0.02816131,
0.07526859,
-0.04875377,
-0.01345055,
-0.03939714,
-0.08106652,
0.03031263,
0.04235721,
0.09311459,
0.06052306,
-0.0389585,
0.02312284,
-0.0777007,
-0.1070165,
-0.01716972,
0.08537202,
-0.07449169,
-0.04101608,
0.09978515,
0.1012991,
0.07681847,
0.08480852,
-0.03488693,
0.08115738,
-0.0499503,
0.0627626,
0.01281054,
-0.09479674,
0.0235658,
0.05606157,
0.09900188,
-0.0932574,
-0.06119075,
0.05359932,
0.03702255,
0.01449217,
-0.07617258,
0.1016541,
0.1065812,
-0.04256093,
-0.09661031,
0.09987801,
-0.01547064,
-0.06156317,
-0.04073433,
0.09407337,
0.1023777,
-0.0888844,
0.1008138,
0.02435657,
0.0652253,
0.09498622,
-0.09134655,
0.09748644,
-0.05583379,
-0.06122317,
-0.08454749,
0.00845994,
-0.05336908,
0.07263105,
-0.0869265,
0.0634838,
0.01327767,
-0.108118,
0.007178694,
-0.06231093,
0.01874519,
-0.008208576,
0.04083475,
-0.05513367,
0.09470789,
0.04050984,
0.09321236,
-0.01776837,
0.06796798,
-0.01297946,
0.05682755,
-0.1063556,
0.1071767,
-0.09200259,
-0.07153239,
0.003073659,
0.06041874,
-0.03057424,
-0.04473972,
-0.0753307,
0.08774435,
-0.04918916,
-0.03423266,
-0.09744947,
-0.06395057,
0.005128036,
-0.05687822,
0.01992449,
0.06776914,
-0.0245888,
0.0612448,
0.04655005,
0.1081976,
-0.1038584,
0.03446007,
0.007125988,
0.09899135,
0.04229248,
-0.00703376,
-0.0440379,
-0.01715677,
-0.02247587,
-0.08585468,
-0.004718399,
0.05978249,
-0.005882474,
-0.03917299,
-0.02442011,
0.04467103,
0.08604456,
0.05523176,
-0.0788812,
-0.08283676,
-0.08760048,
-0.04925944,
-0.09744063,
-0.0724661,
0.1016054,
-0.06979471,
-0.00848696,
0.04835968,
-0.001759403,
0.01331802,
0.05530588,
0.1013443,
-0.02356178,
0.0328649,
-0.09701987,
0.0850888,
0.08407237,
0.1065464,
-0.02515415,
-0.03393884,
0.04506975,
0.02486758,
0.07578388,
0.09592947,
0.1048162,
0.08716767,
-0.1014522,
-0.08945464,
-0.03023761,
-0.08451912,
-0.02177439,
0.0514995,
0.08080395,
-0.03768015,
0.0875071,
0.03211042,
-0.01787522,
0.07136434,
0.1059765,
-0.02619756,
-0.003161993,
0.02527929,
-0.01993262,
0.02695266,
0.02314941,
0.06609427,
0.01966911,
-0.04917911,
-0.007673645,
-0.01462793,
-0.03047682,
0.08910071,
-0.03313652,
0.008235614,
-0.0636997,
-0.0004258341,
-0.07286976,
0.004816074,
0.04646501,
-0.04389082,
0.02003337,
0.0744901,
0.08694416,
0.06055456,
-0.06091194,
0.02888914,
0.04604396,
-0.1075457,
0.02242528,
0.09573161,
-0.08939482,
-0.05941842,
0.09128308,
-0.06478173,
-0.04255065,
0.03881778,
-0.06167276,
-0.00913555,
0.003685235,
-0.01596241,
-0.002049742,
-0.06764694,
-0.08555865,
0.09543745,
-0.08036391,
-0.03586346,
0.06600743,
-0.07770395,
0.00957722,
0.07990438,
0.09575731,
-0.009043292,
-0.05130108,
-0.06837355,
0.04281718,
-0.08142123,
-0.07548615,
0.04373447,
-0.02141257,
-0.0542976,
-0.04452777,
0.007124688,
-0.07284472,
-0.1041043,
-0.1079819,

 // Description of following elements Weights_L2Node002
0.0001137935,
0.09039553,
0.09653424,
-0.03391639,
0.009165589,
-0.03257272,
0.0006778604,
-0.08885616,
-0.04824769,
-0.02631076,
0.06161467,
-0.07666087,
-0.02321703,
0.09271486,
-0.05436446,
0.05020913,
-0.04184738,
-0.005874533,
0.03430755,
0.03977165,
-0.01357571,
-0.1031682,
-0.01932199,
0.07368759,
0.0901374,
0.01731214,
0.07396933,
-0.03103065,
0.07609136,
0.08466837,
0.02775485,
-0.02182897,
-0.05391413,
0.1074498,
0.0297204,
0.05508387,
0.08222846,
-0.007966693,
-0.04882009,
-0.005621396,
-0.1017739,
-0.05877191,
0.008738375,
-0.021746,
0.05530895,
0.0718707,
0.012987,
0.01422427,
0.02131852,
0.01427977,
-0.004817462,
-0.03446442,
0.06748722,
0.06453557,
-0.04714549,
-0.06230992,
-0.05401838,
-0.06203837,
0.01160177,
0.005570169,
-0.0422527,
0.07227904,
-0.09102387,
-0.0214547,
0.08660334,
0.08111913,
-0.05949339,
-0.05752975,
0.09375916,
0.0325789,
-0.0475463,
-0.08275834,
0.04515006,
0.01653439,
-0.08061569,
-0.07255264,
0.04805125,
-0.1022335,
-0.05064722,
0.09993228,
-0.1029334,
0.06403168,
0.06153436,
-0.08721121,
0.04641283,
-0.09818877,
-0.09478761,
0.06261572,
0.05965554,
0.1055217,
0.09637748,
0.05042114,
0.09913918,
-0.08015393,
0.03643325,
-0.02596092,
0.008451321,
0.09467761,
0.08529257,
-0.05959737,
-0.08927993,
-0.06160689,
0.03915023,
-0.01456656,
-0.003186656,
0.0477104,
-0.03954811,
0.07284472,
0.06917534,
-0.04262675,
0.06799292,
-0.1025849,
0.07303921,
-0.00232176,
-0.08602304,
0.01707951,
-0.07537457,
0.09083617,
0.04914011,
-0.07669331,
-0.06327055,
-0.001717565,
-0.0450433,
0.03520609,
-0.08621768,
0.05843246,
-0.04447255,
-0.07333174,
-0.0527353,
0.1018901,
-0.06406292,
0.08774648,
-0.07332455,
-0.006213672,
0.09468445,
-0.07886266,
0.06175633,
0.03554596,
0.05004952,
-0.07019702,
-0.02847386,
0.04508071,
-0.0187922,
-0.05506658,
0.08275495,
0.04216823,
0.03898722,
-0.1015464,
0.03176264,
-0.09607094,
0.05150857,
0.1048998,
0.04387056,
0.05303086,
0.0171963,
0.09719671,
-0.08770636,
0.0898665,
-0.002178772,
-0.03612399,
0.07758278,
-0.1025655,
-0.06175208,
-0.003309639,
0.08633456,
0.0483438,
0.08002505,
-0.02014089,
-0.08772194,
-0.1018799,
0.003046276,
0.0001451196,
0.06222349,
0.06850039,
0.0498543,
0.05867601,
-0.03624536,
0.01899546,
0.06615685,
-0.0731092,
0.02072897,
0.09682281,
-0.01388662,
-0.05169995,
0.09398882,
-0.06963295,
0.1066203,
0.0480462,
0.006383048,
-0.04752866,
-0.0810901,
-0.07954613,
0.05337884,
-0.03430534,
-0.02789685,
-0.01965233,
0.07223386,
0.0257152,
-0.07125821,
-0.08874915,
-0.05525658,
-0.08878645,
-0.06991559,
-0.06857881,
-0.04414295,
0.0277837,
0.0570978,
0.002763141,
0.03999462,
-0.04151166,
-0.04498649,
-0.0251969,
-0.04176816,
-0.01896589,
-0.01067388,
-0.05818477,
0.09056028,
0.06946788,
0.09777799,
0.07133231,
-0.05721435,
0.02223865,
0.008787666,
0.06049509,
0.08163235,
-0.02862119,
0.06858332,
0.04551101,
0.04256346,
-0.05699713,
-0.07889089,
-0.04434595,
-0.08081741,
-0.02490578,
0.1005884,
-0.05919233,
-0.04709685,
0.04886835,
-0.0768159,
0.07478476,
0.05739666,
0.06725387,
0.08651397,
0.08359026,
-0.1048719,
0.01208735,
0.06032087,
-0.09108916,
-0.05583155,
-0.009650785,
-0.007535686,
0.08425459,
-0.04991956,
-0.08122118,
-0.05707081,
-0.05261591,

 // Description of following elements Weights_L2Node003
-0.09103271,
0.03682944,
0.00537965,
0.03981373,
-0.001845225,
-0.04710563,
0.005222372,
0.09197579,
0.05476923,
-0.0006818615,
0.08494642,
0.09020542,
-0.009732135,
-0.03760522,
-0.03533604,
-0.05270399,
-0.05738247,
-0.0303188,
-0.04689429,
0.1051478,
-0.001705695,
0.04130455,
-0.07482561,
-0.01227605,
-0.07349444,
-0.02134226,
0.02094021,
0.07464644,
0.08854041,
-0.07704272,
0.01305372,
-0.02418954,
-0.04274338,
0.0539718,
0.1029294,
-0.03106848,
0.001263135,
0.06396917,
0.04067767,
-0.0514318,
0.02736364,
-0.04627817,
-0.07993054,
0.05625433,
0.03056262,
0.003485982,
0.0426452,
-0.01243767,
-0.07014191,
0.09824143,
-0.1036066,
0.01576104,
0.1072492,
-0.07192881,
0.001140246,
-0.01962175,
0.09487168,
-0.001824509,
0.04388526,
-0.02951376,
-0.03253394,
0.09449755,
0.04860264,
0.07121799,
-0.002511762,
0.01464975,
0.04962761,
0.03617317,
-0.05430129,
-0.04327831,
-0.004288367,
0.09908682,
0.03169958,
0.03909966,
0.09579065,
0.1078208,
-0.01779792,
0.05753886,
-0.01144003,
0.037682,
-0.08779145,
0.04016158,
-0.04663973,
-0.05750569,
-0.05212543,
0.1016301,
0.06187352,
0.04462007,
0.1044261,
0.04139468,
-0.06400176,
0.002976306,
-0.0061209,
-0.006650244,
0.09703374,
0.02024397,
-0.07353138,
0.1009258,
0.02268713,
0.05956741,
0.01827111,
0.04191051,
0.0710782,
-0.06082872,
-0.05411654,
0.02026775,
-0.07175349,
0.03519129,
0.05010363,
-0.07752047,
-0.01715105,
-0.06210215,
-0.04726987,
0.04010918,
0.05688345,
-0.03139731,
0.02115341,
-0.07100435,
-0.05449637,
-0.09686264,
-0.07220464,
0.06369814,
-0.09473503,
-0.08782276,
-0.01428833,
-0.1057032,
-0.07103212,
0.1042204,
0.009419192,
0.08994599,
0.1024954,
-0.0817394,
-0.1070588,
-0.1051758,
0.1024388,
-0.03026182,
-0.01204593,
-0.01483934,
-0.06382145,
-0.006370899,
0.04139691,
-0.01162395,
-0.01786896,
-0.0583951,
0.07802765,
0.09526771,
-0.03975975,
0.1018857,
0.08405054,
0.06972782,
0.03131143,
0.07252857,
-0.09799396,
0.01978087,
0.1066101,
-0.05273297,
-0.08526405,
-0.05568131,
-0.0383552,
0.01258056,
-0.04409671,
0.04518032,
-0.01389498,
0.07495017,
-0.05432562,
0.06950898,
0.07050984,
-0.05302409,
0.05058487,
0.03547204,
0.06190724,
0.05495036,
0.1076752,
0.05854329,
0.08253834,
-0.03235607,
0.06708208,
0.1018279,
-0.05692564,
-0.01674326,
0.1074881,
0.02419965,
-0.1042489,
0.09920447,
-0.09638179,
0.1014441,
-0.01817688,
0.07599847,
0.08389295,
-0.003948776,
-0.08871473,
-0.001869495,
0.02754718,
0.0227749,
0.01719915,
0.03737575,
-0.02364617,
-0.0996029,
-0.08909754,
0.1063921,
-0.05133521,
-0.09880243,
0.05158354,
-0.03167744,
0.05691965,
0.06151158,
-0.1021284,
0.06568419,
0.08953454,
0.09857866,
0.09456866,
0.0835517,
0.07276682,
0.088934,
0.01473187,
0.08249784,
-0.06265307,
0.06187359,
-0.01742625,
0.02835898,
0.1071968,
-0.07733402,
-0.02839022,
-0.1046077,
0.003396944,
0.0254877,
-0.07642177,
-0.08499471,
0.09906096,
0.08681097,
0.06529742,
-0.08910349,
-0.1028017,
0.07247943,
-0.07635091,
0.09212005,
0.09384836,
-0.08506337,
0.08175545,
-0.02028026,
-0.07812648,
0.06424369,
-0.07947761,
-0.002554338,
0.05601542,
0.09887446,
0.0957676,
-0.03852841,
0.09180164,
0.02744622,
0.03132258,
0.02408908,
-0.0978846,
0.03827663,
0.1008812,
0.09182222,

 // Description of following elements Weights_L2Node004
-0.0181318,
-0.03854491,
-0.08137974,
0.05377131,
-0.03947769,
-0.1018597,
0.04973345,
0.03956858,
0.003134043,
0.06667851,
0.08559658,
0.106615,
-0.02067081,
-0.05669846,
-0.07859498,
-0.01450668,
0.07366095,
0.03975072,
-0.0424934,
-0.02767872,
-0.06970277,
-0.03057982,
-0.05287998,
-0.0250879,
-0.06577198,
-0.01134067,
-0.09037099,
-0.05167526,
-0.005933101,
-0.01455758,
-0.103826,
-0.07394143,
0.03499131,
0.01839835,
-0.069023,
-0.03263262,
0.02753196,
0.002585214,
0.0739768,
-0.08610962,
0.09989149,
-0.07491027,
0.0508693,
0.1066125,
-0.006547194,
-0.00776458,
0.02390233,
0.0995236,
-0.04720767,
0.09378553,
-0.05301252,
0.06109458,
-0.04155617,
-0.04953725,
-0.07650799,
0.1046399,
-0.0946654,
0.05346452,
-0.0426334,
0.04036272,
0.03130716,
-0.08258799,
-0.013937,
-0.04758123,
-0.08012773,
0.009548118,
-0.03657385,
-0.09433229,
-0.08929696,
-0.01959868,
0.05015142,
0.07461133,
-0.01986614,
0.04296002,
-0.01461484,
-0.061213,
0.04736169,
-0.01936776,
0.09050199,
0.03136212,
-0.02527776,
-0.03128406,
-0.07200434,
0.01656198,
0.04142004,
0.02329361,
0.0966561,
0.05572803,
-0.06315999,
0.02446501,
0.044349,
0.07660336,
-0.001845978,
0.07845712,
0.03965947,
-0.08184526,
0.09491421,
-0.1067572,
-0.0730666,
0.0284538,
-0.06366014,
0.03932596,
0.01090183,
0.06125797,
-0.04960803,
-0.05424175,
0.09428241,
-0.07578652,
-0.05992885,
0.01504799,
0.03654598,
-0.04637894,
0.005257442,
-0.06055005,
0.01420531,
-0.02927373,
-0.002139971,
-0.01312989,
0.09403934,
0.09633878,
0.0755425,
-0.08627689,
0.07037142,
-0.04599152,
0.005912184,
-0.08595815,
-0.01050925,
-0.0428871,
0.02512619,
-0.03061127,
0.02408887,
0.07646175,
0.07661652,
0.01007274,
0.03006385,
-0.03984827,
-0.09139038,
-0.105719,
0.02971891,
-0.004084511,
-0.09820911,
0.01093305,
-0.03403235,
-0.1038776,
0.03130383,
0.01073911,
-0.01842477,
0.06596711,
-0.0739205,
0.05459832,
-0.002732612,
-0.01724965,
0.0392391,
0.1070266,
0.1045889,
0.1078501,
0.004309562,
0.03564968,
0.0672212,
-0.05904962,
0.03705859,
0.004019475,
-0.05600154,
-0.0133455,
0.02655156,
0.03535191,
0.0331574,
0.09086406,
0.02319984,
-0.09591775,
-0.01834229,
-0.005842604,
-0.04699808,
-0.04953915,
0.01801139,
0.007658826,
-0.03049833,
0.01043552,
-0.08856779,
-0.04616495,
-0.001773724,
0.01297096,
-0.01704233,
0.002419726,
-0.02253339,
-0.07605567,
0.08326746,
-0.03146762,
0.01782409,
0.01913263,
0.0280815,
0.02267041,
0.04515752,
0.04794198,
-0.01894583,
-0.06807189,
-0.1030784,
-0.02038542,
0.07922541,
0.08116015,
0.06629129,
0.0100436,
0.04107378,
0.0387468,
0.06763972,
-0.0799778,
-0.07150857,
0.04366971,
-0.03214762,
0.02809668,
0.07140072,
-0.0524613,
0.07941939,
0.09766272,
-0.009631049,
-0.03762986,
-0.07409439,
0.06713792,
0.06631321,
0.04068305,
-0.0598007,
-0.03604373,
-0.09738033,
-0.0722825,
-0.02333211,
0.08512233,
0.03538611,
-0.03698238,
0.07028239,
-0.05581992,
0.08819818,
-0.04514604,
0.02667309,
0.06641497,
-0.1013279,
0.08212458,
0.1057728,
0.03232425,
-0.02626891,
0.05006984,
0.09092701,
-0.001002147,
-0.06911045,
-0.005756164,
-0.09279135,
0.09013214,
0.002554619,
-0.0531375,
-0.02066181,
0.09941199,
0.03401316,
0.05830764,
-0.08345331,
-0.0510971,
0.06738789,
0.05600674,

 // Description of following elements Weights_L2Node005
-0.01663055,
0.04105905,
0.040621,
-0.06868335,
-0.1056049,
-0.1021173,
-0.08628159,
0.07427437,
-0.08583838,
-0.038822,
0.04977735,
-0.02903605,
0.002205621,
-0.05221302,
0.01668846,
-0.007024682,
0.05002973,
-0.08553582,
0.1038621,
-0.01831992,
0.06383517,
-0.014969,
0.0672559,
-0.003311187,
0.008439267,
-0.1058829,
0.02278733,
-0.05852684,
0.04115221,
0.003680738,
-0.06574263,
0.07339733,
-0.08715086,
-0.04959899,
-0.01180048,
0.01598906,
-0.08501284,
-0.08433957,
-0.1047943,
-0.01614855,
-0.04319644,
-0.04936709,
0.03371761,
0.05761266,
0.0888854,
-0.004544124,
0.08097508,
-0.09026725,
0.03770086,
0.05193505,
-0.02490158,
0.03440833,
-0.1040427,
0.02128033,
-0.03584664,
-0.0835599,
0.03636632,
0.009321681,
-0.06984695,
-0.02253229,
-0.0016965,
-0.01344857,
0.02930777,
-0.07518575,
0.09294802,
0.08014318,
-0.05075144,
0.001959719,
-0.002068622,
-0.09926075,
-0.02064219,
-0.0263127,
-0.07212094,
0.07566934,
0.03307663,
0.004063448,
0.04784613,
-0.09066343,
0.09259672,
-0.1008875,
-0.05921412,
-3.357398e-05,
-0.077448,
-0.05365997,
0.08836724,
0.008162766,
0.07761768,
0.005034351,
0.07568181,
-0.05663708,
-0.08317697,
0.03186258,
-0.08496454,
-0.04643138,
-0.08694591,
-0.0462695,
0.08928605,
0.002994886,
-0.05091542,
-0.03410839,
-0.001858614,
0.06318792,
-0.05265441,
0.02569091,
0.1073913,
-0.1053244,
-0.008928135,
0.004523222,
0.08169123,
-0.07550398,
-0.06816047,
0.09306646,
0.0615224,
-0.07369336,
0.09455532,
-0.09409571,
-0.02586888,
0.04157733,
-0.1022182,
0.08386464,
0.09018875,
-0.01331653,
-0.05884754,
0.02363112,
0.09209275,
0.02936004,
-0.09638493,
0.1065599,
-0.04425039,
-0.05627194,
-0.02471012,
-0.05172064,
-0.05960494,
-0.02854777,
-0.07051471,
0.05804999,
0.01811975,
-0.04007006,
0.08753642,
0.0861823,
-0.01411906,
-0.09296037,
0.03138769,
0.07324908,
0.08741061,
0.02600705,
-0.0162388,
-0.1069765,
0.1017768,
0.006650511,
-0.03447877,
0.01989301,
0.08471641,
-0.01007491,
0.0420498,
0.08982344,
-0.08412901,
-0.05987834,
-0.002557811,
0.06457949,
-0.01275742,
-0.07153859,
0.08294383,
-0.1020295,
-0.03056997,
0.07885786,
0.05092468,
0.03377553,
-0.0008413183,
-0.08693953,
-0.05133162,
-0.007769208,
0.002570825,
0.02088908,
-0.006361561,
-0.01868947,
0.002854643,
-0.07430512,
-0.05578041,
-0.06589117,
0.04329795,
0.01029059,
-0.08630139,
-0.03301243,
0.08309943,
-0.08321714,
0.08004504,
0.04654643,
-0.071947,
0.08288316,
-0.0915266,
0.04396688,
0.0366997,
0.04072229,
0.1057763,
-0.09519055,
0.02633111,
-0.002865514,
-0.04227812,
-0.07664223,
0.09861986,
0.09969854,
0.08093768,
0.05414523,
-0.02600454,
0.02551743,
0.04555319,
-0.09563333,
0.01408328,
0.009753524,
0.1026088,
-0.08264358,
0.02913164,
-0.07632945,
-0.06184447,
-0.1007842,
0.05934467,
-0.05246666,
0.06185574,
0.0237523,
-0.1018488,
0.08870853,
-0.02727697,
-0.01862671,
0.09192286,
-0.00943927,
0.1012648,
-0.0654946,
0.06178734,
0.07323788,
0.05883173,
-0.02457548,
0.09706273,
0.00874082,
0.01018325,
-0.04398849,
0.05393464,
-0.08265364,
-0.0724573,
0.1064023,
-0.09367371,
0.05594453,
-0.01458375,
-0.07761635,
-0.09741295,
0.1008557,
-0.05881227,
-0.02444507,
-0.07621058,
0.01758672,
-0.01454967,
-0.08594441,
-0.1071411,
-0.02287009,
0.08248847,
-0.0448262,

 // Description of following elements Weights_L2Node006
0.04059454,
0.05156572,
0.08737855,
0.04781912,
0.03114906,
0.03840315,
0.05021287,
0.08630714,
0.0939132,
-0.01275684,
-0.03223219,
0.09328551,
0.0982871,
-0.09339215,
-0.03425918,
-0.1052733,
-0.02249306,
0.02275109,
-0.07662059,
-0.02030431,
-0.09190093,
0.02505464,
-0.03627839,
-0.08982227,
0.0543763,
0.05342007,
-0.05814531,
-0.04013772,
-0.073212,
-0.09909319,
0.01164644,
0.0371597,
0.1055583,
0.08631828,
-0.07609148,
-0.08910684,
-0.03191277,
0.07591985,
0.04400709,
-0.07294215,
-0.06540909,
0.09473143,
-0.05144535,
-0.09942926,
0.03222122,
-0.02452669,
0.04428505,
-0.09326707,
0.09332147,
-0.0530581,
0.03734689,
-0.05360272,
0.09622626,
-0.03759877,
0.09456114,
-0.0516429,
0.07410433,
0.03261071,
0.02912804,
-0.04370033,
0.03317469,
0.1037546,
0.04358292,
-0.03163277,
0.0520222,
-0.04436176,
-0.006464563,
0.05596069,
0.00881492,
0.06669978,
-0.07560835,
-0.0647767,
0.05722737,
-0.04390337,
-0.0005766884,
0.02817349,
-0.016403,
-0.06633524,
-0.09346187,
-0.08473245,
-0.01333004,
-0.02408682,
-0.05371979,
0.0307428,
0.03190564,
0.02644679,
-0.1017062,
-0.05438738,
0.04613799,
0.05054984,
0.08409882,
0.008425906,
-0.06677654,
0.05899626,
0.02562472,
0.09493716,
-0.001755588,
-0.03154556,
0.06803504,
-0.03870388,
0.1030958,
-0.02634091,
-0.08817329,
-0.1036986,
0.006332112,
-0.08727416,
0.08981393,
0.04840368,
-0.009089946,
-0.04960438,
0.07174217,
-0.09582738,
0.01197926,
0.02052252,
-0.04178512,
-0.02901986,
0.1068914,
0.02536927,
0.06856866,
0.02183678,
-0.09651295,
-0.09537084,
-0.01422313,
0.0405177,
0.03752898,
-0.03048131,
-0.001878907,
-0.07078838,
-0.08401812,
0.0160918,
-0.02781533,
-0.0308638,
-0.08759798,
0.1050007,
-0.01663501,
0.05749717,
0.05310436,
0.07927444,
0.06698513,
0.004680051,
-0.05279074,
0.08293307,
0.07532395,
-0.1037545,
-0.09525461,
0.04098066,
-0.05180782,
-0.103722,
0.01986071,
-0.0996801,
-0.08602123,
-0.0300539,
-0.1065356,
-0.007649336,
-0.08297486,
0.04731383,
0.0362788,
0.01281782,
0.01455553,
-0.007224975,
-0.02797662,
-0.1006653,
0.07899125,
0.09974361,
0.08876116,
0.05524739,
-0.04637342,
-0.03682951,
-0.006315876,
0.01498694,
0.02224274,
-0.056713,
0.01654088,
-0.02849613,
-0.04944662,
0.1051144,
0.03202567,
-0.02359373,
-0.08316655,
-0.04148822,
-0.09928958,
-0.0259286,
0.04843269,
0.05996289,
-0.08649848,
0.09091493,
0.0405198,
-0.08346796,
0.05604061,
0.05345641,
0.06878817,
0.02162191,
0.01469439,
0.07029935,
0.1008534,
-0.09787133,
-0.07320849,
0.07157771,
-0.1059898,
0.03412753,
0.07644194,
-0.02825138,
0.04800757,
-0.02444815,
0.09331165,
-0.006037377,
0.005302462,
-0.100572,
-0.06024898,
0.06671946,
-0.08428727,
-0.01284728,
0.03821525,
-0.008576593,
-0.1038319,
0.0412362,
-0.05906238,
-0.06112057,
-0.09091191,
0.008777638,
0.02038041,
-0.09214535,
-0.06880459,
-0.01892103,
-0.07192902,
0.08279212,
0.08886824,
-0.01501052,
-0.07994404,
0.001501222,
0.06404688,
0.02150043,
0.0390564,
-0.007185572,
0.04590622,
-0.04564006,
-0.1020773,
-0.0002498948,
-0.0659678,
0.1004208,
0.0569622,
0.02442056,
-0.02461717,
0.08907027,
0.007761932,
0.0540389,
-0.01994647,
-0.03439564,
0.05345501,
0.06604464,
-0.02295106,
0.05955892,
0.001678212,
-0.02289397,
-0.02537142,
0.08301493,

 // Description of following elements Weights_L2Node007
0.04988111,
0.05764456,
-0.002366767,
-0.01996301,
0.0810179,
-0.05464035,
-0.1045791,
-0.08715552,
0.06677163,
0.1042655,
-0.0009837587,
-0.01526344,
0.04245697,
-0.06094644,
-0.09174243,
-0.008511472,
-0.02507551,
-0.05608124,
0.05638757,
0.1006869,
-0.0877013,
0.06058002,
-0.06741182,
-0.1061993,
-0.01946882,
-0.0776552,
0.007092599,
0.01250535,
0.04188092,
0.0814862,
-0.1040022,
0.04039881,
0.1053153,
0.1051704,
-0.009508698,
-0.03290669,
0.1045539,
-0.00305922,
-0.04003327,
-0.02568093,
-0.1043538,
0.0007863039,
-0.0807586,
-0.04218094,
-0.05281488,
-0.107757,
0.05904405,
0.03503048,
-0.02209094,
0.0002275868,
0.02436803,
-0.07944215,
-0.04690526,
0.07304931,
0.07922643,
-0.09639755,
-0.00147559,
0.07147922,
0.09060469,
0.06521882,
0.1036591,
0.01547546,
-0.0944495,
-0.08953969,
0.10323,
-0.01110416,
0.08534033,
0.08902501,
0.09989915,
0.06020186,
0.09701671,
0.03877148,
0.04636692,
-0.07846269,
-0.09033184,
-0.08395556,
-0.02831569,
0.1007654,
-0.0297935,
0.09318297,
-0.08747231,
-0.08185443,
-0.002465545,
0.09147574,
-0.07906019,
-0.07699376,
-0.0360884,
-0.0097445,
-0.1064363,
-0.01984506,
-0.06909139,
0.08083316,
0.01058266,
0.07822743,
-0.0967519,
0.002389964,
-0.07668743,
-0.01328113,
-0.009686381,
-0.03937458,
0.09212692,
0.04795939,
0.02956654,
0.09651875,
0.04986745,
0.004747318,
0.0318789,
0.05109691,
0.08032583,
0.07947861,
-0.05870259,
-0.0430744,
-0.01950611,
-0.06661277,
-0.06613176,
-0.0758545,
0.07690375,
0.09324472,
0.06052823,
-0.07398131,
0.04961583,
-0.06635816,
-0.009053351,
0.07694782,
-0.07972689,
0.02465319,
0.02996695,
0.0545658,
-0.05268191,
0.01053452,
0.09483813,
0.09744244,
0.02284475,
0.06723997,
-0.04003097,
-0.04933442,
-0.01542735,
0.05353377,
-0.007581469,
0.1047328,
0.07548627,
-0.03856802,
-0.06958583,
0.07690842,
0.0780247,
-0.08551893,
0.05640559,
-0.07813445,
0.02318064,
0.06337385,
-0.06239893,
-0.1013139,
0.06569632,
-0.09974296,
0.05217797,
-0.0347887,
-0.01816686,
-0.06629514,
0.09679068,
-0.07890446,
-0.006630676,
0.07606707,
-0.05481435,
-0.01485327,
0.106999,
0.09258915,
-0.09893864,
0.01033083,
-0.1079297,
0.04866227,
0.02571425,
-0.02764071,
-0.04456587,
-0.09631478,
0.04345056,
0.08507989,
0.04893582,
0.01851591,
0.09790593,
-0.03014897,
-0.08849646,
-0.002832584,
-0.07240316,
-0.05254078,
-0.1078756,
0.05699547,
0.05711354,
-0.1048592,
-0.0814608,
-0.09083706,
-0.09134976,
0.01975513,
-0.0008383241,
-0.001528763,
0.03208601,
0.07377306,
-0.1045401,
0.07449099,
0.05886732,
-0.04565958,
0.04343846,
0.08942634,
0.09632304,
-0.05023522,
-0.07483313,
-0.02801671,
-0.06001256,
-0.1025674,
-0.06904826,
-0.05545834,
0.1076293,
0.03354425,
-0.0827414,
0.07031415,
0.05010446,
0.04641457,
0.01238805,
-0.02574947,
-0.03304859,
-0.08976811,
-0.06231746,
-0.08907686,
0.05619087,
-0.09317964,
0.01857127,
-0.04702695,
0.004689292,
0.1026825,
0.03988364,
-0.02132997,
-0.08556942,
-0.01842764,
0.01032721,
-0.05816426,
-0.1069477,
0.008906181,
0.08225016,
-0.02632271,
0.07068841,
-0.07518483,
0.02171222,
0.07325702,
-0.03847391,
-0.02036093,
-0.01850152,
0.01690761,
-0.08040367,
-0.08569947,
-0.07716382,
-0.01304335,
-0.006095537,
0.04042045,
-0.03045474,
-0.04125,
-0.09934255,
0.09689082,

 // Description of following elements Weights_L2Node008
-0.09209827,
0.09736367,
-0.05792409,
-0.08974831,
0.04947261,
0.05499242,
0.08555715,
0.0222852,
-0.003962136,
-0.03880913,
-0.007959627,
-0.009208746,
0.01940371,
0.05077877,
0.1081055,
0.07099218,
-0.047732,
0.07183153,
0.006107053,
-0.1066414,
0.05564336,
0.07590765,
-0.05952014,
-0.01086814,
0.08388799,
-0.08821739,
-0.0007848886,
-0.05875077,
-0.08427799,
-0.01077239,
-0.1013533,
-0.05765694,
-0.001859616,
-0.03372991,
0.01964763,
-0.05797246,
0.08445498,
0.01461073,
0.07152162,
-0.07191123,
-0.04027327,
0.01657805,
-0.08191086,
0.03644571,
-0.06916243,
-0.06972526,
0.0671619,
-0.09580894,
0.01802553,
0.04420638,
0.08749002,
-0.04557841,
0.07792274,
-0.01949878,
0.1078177,
0.02519435,
0.09962393,
-0.09985551,
-0.06921958,
-0.08420555,
-0.06792596,
0.08173247,
0.02493512,
0.055804,
0.009725329,
-0.06569047,
0.05643031,
-0.07095894,
0.07827988,
0.0717767,
0.05392141,
0.04789395,
0.004991498,
0.08924664,
-0.04743821,
-0.08427782,
-0.03151624,
-0.08274662,
0.02293464,
-0.03033591,
0.01626591,
0.02584371,
0.04781747,
0.01239034,
-0.01093068,
-0.03344473,
-0.09520847,
-0.01211491,
-0.06043108,
0.04866182,
0.05258495,
-0.05175097,
-0.1074025,
0.06185524,
0.105441,
0.0234909,
-0.03043595,
0.1005295,
0.08080504,
-0.01404367,
-0.07506789,
0.03277155,
-0.07350218,
-0.03907228,
-0.07602855,
-0.07335765,
-0.05367257,
-0.003785105,
-0.01556927,
0.08551227,
-0.0459928,
-0.04327984,
0.01403229,
0.05791314,
0.08799437,
-0.02899675,
-0.042019,
0.02247881,
-0.002334953,
-0.05533203,
0.08062913,
0.006782451,
0.0501541,
-0.02060362,
0.04806581,
0.04412652,
-0.04387128,
-0.09080712,
0.02579737,
-0.006848631,
0.09804268,
-0.03567246,
0.04191354,
-0.007620872,
-0.0533881,
-0.004951919,
0.02421892,
-0.01109274,
-0.08960772,
0.1023776,
-0.06524104,
-0.08883263,
0.009316565,
-0.07309494,
-0.1072196,
0.009945226,
0.02828837,
-0.02314224,
0.01461051,
-0.09022783,
0.0001990115,
-0.08961746,
-0.05369492,
-0.07079142,
-0.1011738,
0.08151273,
-0.09575007,
-0.007017165,
0.02324158,
-0.03080404,
-0.01163037,
0.0641349,
0.06793211,
-0.04265488,
-0.05480772,
-0.02395957,
-0.07268012,
0.0543869,
-0.09514114,
-0.08847816,
0.09524377,
0.01811492,
0.07750463,
-0.02591626,
-0.03023137,
-0.04501633,
-0.08971487,
0.03152196,
0.0937897,
0.009612735,
0.03680044,
0.09203932,
0.01616554,
0.08937331,
0.0925661,
-0.04596101,
0.09541311,
0.06810586,
0.0054561,
0.06919192,
0.04257012,
0.08108115,
0.01465962,
0.0386303,
-0.1020142,
0.05616671,
-0.0702736,
0.01296425,
0.006966017,
-0.04243296,
0.04331644,
0.09787588,
0.009695179,
-0.05215923,
-0.1036876,
0.05573362,
-0.1065498,
-0.05077215,
0.01083678,
-0.07825918,
-0.01168107,
-0.07754295,
0.08132736,
0.01085038,
0.01830564,
0.006668188,
0.07785485,
0.001554368,
0.05115405,
0.0773982,
-0.08351096,
-0.01445012,
-0.0465983,
0.07979763,
-0.09375698,
0.02411968,
-0.03370276,
-0.04986688,
0.01518372,
-0.07963491,
-0.07903069,
0.09418706,
-0.03558596,
-0.0654674,
-0.09275683,
0.08915314,
0.09893076,
-0.03045804,
-0.08744895,
0.0852031,
-0.02519168,
-0.07401692,
0.03071886,
-0.09993753,
-0.09377985,
0.008440699,
0.09055492,
-0.07215874,
-0.08127439,
-0.1052882,
0.05688979,
0.04822769,
0.07673834,
-0.05413589,
0.02487664,
-0.09772852,

 // Description of following elements Weights_L2Node009
-0.08383244,
-0.03287705,
-0.006073167,
-0.091034,
0.03941051,
0.005474857,
0.003435214,
0.09534724,
-0.07973336,
0.03264512,
0.07516819,
-0.03336286,
-0.09349863,
-0.1057676,
-0.1067831,
-0.04493054,
-0.0611279,
-0.04288948,
0.02065412,
0.01378992,
-0.0610557,
-0.0236892,
-0.03504737,
0.05323298,
-0.0283636,
-0.01662327,
0.0154662,
0.01907859,
-0.1020295,
-0.08852291,
0.0002211094,
0.09055442,
-0.05464273,
0.03311203,
-0.09413626,
-0.104716,
0.004349483,
0.03298438,
-0.02291622,
-0.02584312,
-0.02823129,
0.05480425,
0.02422704,
-0.05647539,
0.09207152,
-0.02557238,
-0.02739781,
-0.03685466,
0.08742185,
-0.007335955,
0.001775464,
0.0638107,
-0.0790031,
-0.0638703,
-0.06707882,
-0.1078437,
0.07746057,
-0.1060861,
-0.1063729,
0.07371722,
0.05846607,
0.07732736,
0.09384513,
-0.1049898,
-0.0671507,
0.04202473,
0.1033379,
0.01629441,
0.01350354,
0.09564694,
0.04034717,
-0.03655547,
-0.03462879,
0.09404418,
-0.04167837,
-0.09986082,
0.01467482,
0.03265984,
0.05167817,
0.0988077,
-0.04199005,
0.05609763,
-0.04734406,
0.08701596,
0.03693341,
-0.04513096,
-0.03821664,
0.04693247,
-0.06836646,
-0.01291941,
-0.02933301,
-0.06202757,
0.007263053,
0.07193888,
-0.00589006,
0.02865609,
-0.06560119,
0.1077226,
-0.1077471,
0.02496598,
0.07024951,
-0.01860531,
0.08580504,
0.002600857,
0.09995776,
0.02335436,
0.03596044,
0.0912476,
-0.01110918,
0.02885987,
-0.06245885,
0.01306471,
-0.08582111,
-0.04496212,
0.009529957,
-0.06909331,
-0.04848112,
-0.05789447,
0.01056936,
0.01235142,
0.02609173,
-0.1081109,
-0.06759682,
-0.005137844,
-0.1043221,
-0.005432597,
-0.0916708,
-0.05397689,
0.01757633,
-0.07555775,
-0.01943998,
0.08509474,
0.07673716,
0.009256805,
-0.008561042,
-0.07590826,
-0.002402313,
0.01496508,
-0.03432493,
-0.01777025,
-0.06998089,
0.07248129,
0.03806069,
-0.06810357,
0.02406097,
0.04441661,
-0.1021219,
0.004518341,
-0.05215194,
0.001778816,
0.1024597,
0.06889918,
0.07767414,
0.08587016,
-0.04340853,
0.08227785,
-0.05299788,
-0.06665189,
-0.0678491,
0.07818211,
-0.01199468,
-0.02455061,
0.0718814,
-0.06354629,
0.08612685,
-0.008767871,
-0.07286522,
-0.05006713,
0.004481866,
0.05896939,
-0.02438059,
-0.09863484,
0.1054056,
0.00498476,
0.0744096,
0.08483956,
0.04018122,
0.003863401,
-0.01256686,
-0.02595022,
-0.1013588,
-0.06151333,
-0.08978437,
0.06427565,
-0.02125972,
-0.0974725,
-0.0397314,
0.08037145,
0.09340212,
-0.016079,
0.07927494,
-0.004190912,
0.08840872,
-0.05401097,
0.005768641,
-0.05524568,
0.07327429,
0.005569295,
-0.03251842,
-0.05258257,
-0.07170085,
0.02148498,
0.06733169,
0.07554324,
0.07464542,
-0.05737353,
0.001793821,
0.03666638,
-0.0886071,
0.009309489,
-0.04373616,
-0.0255817,
0.007336661,
-0.01590766,
-0.05801588,
-0.1021003,
-0.1026179,
-0.04886524,
0.04210629,
-0.03680655,
0.05423247,
0.06401058,
-0.09661773,
-0.1062561,
0.04939041,
0.03559192,
0.01847375,
0.09072434,
-0.07202361,
0.1021832,
-0.06070687,
-0.09997212,
-0.05868158,
0.0449826,
-0.03190826,
0.04535545,
0.01920249,
-0.08470679,
0.03178818,
0.05003782,
0.0786741,
-0.1033498,
-0.07551715,
0.005454679,
-0.05920051,
0.07397231,
-0.01514829,
-0.04343326,
0.01670756,
-0.0336121,
0.07729519,
-0.04620919,
-0.01278393,
0.05767538,
-0.02532811,
-0.05655061,

 // Description of following elements Weights_L2Node010
-0.02296866,
-0.065854,
-0.01283852,
0.0256345,
-0.05805502,
0.08041765,
0.05010391,
-0.03898222,
0.06750162,
-0.008907997,
0.03809839,
-0.04594588,
0.049909,
0.05071044,
0.04501798,
-0.06290261,
-0.07119626,
0.007305108,
0.04521996,
-0.1080339,
-0.06690413,
0.05109847,
0.1072885,
-0.06557343,
-0.05783092,
-0.03568225,
-0.07815225,
-0.03539485,
0.01432106,
-0.008445184,
0.08477202,
-0.08283561,
-0.08526451,
-0.02340642,
0.04259614,
0.08411855,
-0.09824973,
-0.04499488,
0.09823942,
0.05650159,
-0.0961785,
-0.1020991,
0.09246358,
-0.02801803,
-0.1048251,
0.0007872697,
0.09724471,
0.09362563,
-0.09662534,
0.08975317,
0.0008126592,
-0.06678355,
0.02572845,
0.08125976,
-0.01734694,
0.09319127,
0.006572885,
0.07456424,
0.056401,
0.03224819,
0.09294399,
0.04299373,
-0.05882287,
0.04403901,
-0.05671764,
0.008732996,
-0.02657372,
0.02876988,
0.1055682,
0.05995713,
0.04695627,
0.07417945,
-0.05154711,
-0.0083824,
-0.02967831,
0.02533002,
-0.04125536,
0.02872098,
0.06041674,
0.08401273,
0.03871957,
-0.06183527,
-0.06565728,
-0.01935397,
0.05780321,
0.06207225,
0.02156308,
-0.07359895,
-0.06763422,
0.07775495,
0.003313066,
-0.006714829,
-0.1071109,
0.05577229,
0.002962874,
-0.01257811,
0.1027221,
-0.03240556,
-0.06544987,
-0.004634761,
0.08419786,
0.01295278,
-0.05431749,
-0.05088658,
0.01372224,
0.06347016,
-0.103668,
0.05129371,
-0.02140422,
0.04548056,
0.03054926,
0.03199811,
0.09931707,
0.003392359,
-0.1054719,
0.07114267,
0.02739566,
0.02346645,
0.04459931,
0.007590747,
-0.09501594,
0.01204245,
-0.09376931,
0.05455721,
-0.1005914,
0.09929456,
-0.02732022,
0.1075577,
0.05601694,
-0.0902068,
0.00275829,
0.07944405,
0.03449715,
-0.0933459,
0.09204584,
-0.09973247,
0.1062442,
0.04322193,
0.07837171,
-0.07180235,
0.04124555,
0.07544827,
-0.05856118,
-0.08121231,
-0.0971719,
0.03020618,
-0.09131984,
0.05860915,
0.01236918,
-0.08788769,
0.04946319,
-0.0172971,
0.03698955,
0.0663976,
0.08439054,
0.0364199,
0.07122117,
0.1013268,
0.05403384,
0.01756903,
0.09796362,
-0.06174086,
-0.06365481,
0.1050858,
0.003560919,
-0.05668326,
-0.02463345,
-0.06217451,
-0.04364904,
0.04071413,
0.02654866,
-0.08583343,
-0.04632177,
0.02194444,
0.07978006,
0.06834784,
-0.02708113,
-0.003686579,
0.06015054,
-0.06084032,
-0.07465719,
-0.05479715,
0.1033071,
0.008824597,
0.035647,
0.0374721,
0.02460212,
-0.09382591,
-0.008462571,
-0.03225791,
0.02278119,
0.02428308,
-0.04238764,
0.07341376,
-0.07082734,
-0.1070581,
-0.06127337,
0.007554607,
-0.03410641,
-0.07236875,
0.02421252,
-0.04657647,
-0.0427987,
0.0001555113,
0.006211617,
-0.1051871,
-0.08268499,
-0.07812682,
0.05674312,
-0.06344309,
0.0007607593,
-0.05764374,
0.03510242,
0.03070324,
0.0757058,
0.08095153,
0.09674148,
0.06680603,
-0.09164549,
-0.04329896,
-0.08546986,
0.04393024,
-0.01024038,
-0.03256143,
0.06611022,
-0.0958529,
-0.06749004,
-0.04772969,
0.05478743,
-0.02020218,
-0.03932014,
-0.01329867,
-0.03239837,
-0.008486011,
-0.01900837,
0.09680472,
0.09697107,
-0.008565863,
-0.028106,
-0.03534934,
-0.002503591,
0.07610849,
-0.09349909,
0.005680256,
-0.03706481,
-0.03418544,
0.05001587,
0.07213125,
0.04498106,
-0.07401267,
0.1032346,
0.01294655,
-0.006029278,
-0.0226695,
-0.08998954,
-0.04841659,

 // Description of following elements Weights_L2Node011
-0.02880129,
0.06433963,
-0.105693,
-0.05852381,
0.04050255,
-0.1003115,
0.06199658,
0.03485353,
0.05523045,
0.003821963,
0.1061604,
-0.06972958,
-0.01363415,
0.0282727,
0.03758874,
0.09039112,
0.08824848,
-0.09443548,
0.02971141,
-0.004093955,
-0.04600564,
0.04796487,
0.001058183,
0.03838564,
0.0654688,
0.03969205,
-0.08324806,
0.09908168,
-0.03560388,
-0.03934104,
0.03644836,
-0.07647321,
-0.04806353,
0.03451452,
0.009142392,
-0.04674483,
0.1030994,
0.01614677,
0.04918962,
0.08212294,
0.0350921,
0.004720064,
-0.05309473,
0.03760276,
0.07774768,
-0.005947266,
0.08931434,
-0.09472235,
-0.002693318,
0.0898649,
-0.002204699,
-0.003398752,
-0.04890183,
-0.08853194,
0.03592705,
-0.08106947,
-0.0846961,
-0.01236341,
0.01149911,
0.1001424,
0.01548245,
-0.09182258,
-0.02977568,
-0.1040352,
-0.007814457,
0.0987051,
0.1033966,
-0.07729821,
-0.04919348,
0.1019478,
0.05887141,
0.02291808,
0.07412814,
0.03866679,
0.09169222,
0.1027815,
-0.09567924,
-0.102542,
0.04541602,
0.03030388,
-0.006941727,
0.01237683,
-0.08782705,
0.06926139,
-0.02712077,
0.08925055,
0.07348076,
0.02011427,
-0.08748302,
-0.05665515,
-0.1032091,
-0.07490401,
0.082369,
-0.08249741,
0.07792895,
0.0791307,
0.0856191,
-0.1057225,
0.06410727,
-0.06881747,
-0.1012588,
-0.07293095,
0.01043035,
0.05810954,
0.06051613,
-0.03267724,
0.04508818,
-0.03667106,
0.02512782,
-0.008899605,
-0.06081241,
-0.01470986,
0.03017388,
0.07169251,
0.04519049,
-0.06933133,
0.0172998,
0.06016618,
0.05608493,
-0.05399178,
-0.03382534,
0.04995476,
-0.04605437,
-0.01214739,
0.07357578,
0.1047146,
0.0248015,
-0.07002897,
-0.09437605,
0.04020452,
-0.05847086,
0.0356178,
0.07452683,
0.05088896,
0.08649477,
-0.05537446,
0.08305703,
-0.09837393,
-0.001538101,
0.01741432,
0.09720033,
0.0285038,
-0.005947195,
-0.08192912,
-0.04769403,
0.0582864,
0.05429937,
-0.1043378,
0.07544295,
0.08711059,
0.03811356,
-0.0994634,
-0.0009918027,
0.0403959,
-0.1002705,
-0.05400249,
-0.03974084,
-0.07213784,
-0.008741216,
0.09046508,
-0.09764104,
-0.04721387,
0.06822862,
0.08511139,
0.06284655,
-0.1033516,
-0.09109973,
0.09112097,
0.003061365,
-0.09905885,
0.06292267,
0.04938798,
-0.08759852,
0.06267548,
0.0448513,
-0.02385587,
0.08793095,
-0.08068213,
-0.008586261,
0.005906916,
0.02469253,
-0.09704209,
-0.1035912,
-0.08411697,
0.01197276,
0.02274835,
0.0614972,
0.09845759,
-0.0661827,
-0.007214649,
0.08901033,
-0.01819551,
-0.04373154,
-0.05253319,
0.07185936,
0.0421182,
-0.1069155,
0.02969431,
0.06820223,
0.03492669,
-0.03573766,
0.09941085,
0.00765275,
0.01442794,
-0.08316816,
0.001930335,
0.0681937,
0.02863753,
-0.0800874,
0.007197269,
0.09766228,
-0.09136698,
-0.01369805,
0.06098143,
-0.0728241,
0.04175055,
-0.0141421,
0.06926113,
0.01178043,
0.06238543,
-0.05025154,
0.00633986,
0.03230549,
-0.06907892,
-0.06536418,
-0.07455468,
0.1051913,
-0.0540043,
-0.02757756,
-0.004477476,
-0.04234473,
0.04577499,
-0.006305222,
0.02743177,
-0.06315941,
-0.02346749,
-0.07121468,
0.01743602,
-0.04833197,
-0.08832496,
-0.05182377,
0.07300564,
0.05476764,
-0.02933051,
0.02157347,
-0.03404941,
-0.01375254,
-0.05234674,
-0.01470658,
-0.100549,
-0.09120795,
-0.03475871,
-0.06312491,
0.05265564,
-0.0003867759,
-0.09341951,

 // Description of following elements Weights_L2Node012
-0.02378125,
-0.05221262,
0.05524706,
0.08206213,
0.07983934,
-0.06224689,
-0.01180463,
-0.1034003,
0.05987481,
-0.02149619,
0.02670154,
0.1025271,
-0.02619268,
0.04261758,
-0.01032535,
-0.01223592,
-0.05547792,
-0.07193754,
0.03126751,
-0.1055089,
-0.1059004,
-0.01872386,
-0.0382194,
-0.03364184,
-0.05538701,
-0.0195173,
-0.09783885,
0.09703683,
-0.1002239,
0.007356839,
0.005136525,
-0.08948831,
-0.05807998,
-0.02522595,
-0.01629874,
0.05923996,
0.0764196,
0.09650712,
-0.08265495,
-0.06761079,
-0.08462739,
-0.009857737,
-0.06448137,
-0.04691253,
-0.03460682,
0.02389703,
0.03392041,
0.1038526,
-0.01651743,
0.07260823,
-0.06723169,
-0.02354861,
0.01344659,
0.09890862,
-0.09867965,
-0.09428117,
0.08840728,
0.04199533,
0.07670602,
0.05896931,
0.0991705,
-0.02540675,
-0.01708856,
-0.0517869,
-0.000544105,
-0.1061808,
0.08200583,
-0.03682573,
-0.06624877,
-0.04717765,
0.09744342,
0.03061108,
-0.04782792,
-0.04173603,
-0.01237648,
0.08478435,
-0.03781562,
-0.02716252,
0.05964328,
0.03408429,
-0.1069518,
-0.08929342,
-0.05418,
-0.05161224,
-0.08390464,
-0.001129355,
-0.006229265,
0.007819973,
0.09401845,
-0.09481004,
-0.08999994,
0.06538007,
0.00201928,
-0.02386045,
-0.08255009,
0.03361098,
-0.05176749,
0.004426868,
-0.1008797,
0.100168,
0.09360421,
0.004926259,
0.02759276,
0.07482052,
0.08128594,
-0.0965246,
-0.09282289,
-0.06594674,
0.009015076,
0.01002276,
-0.05155646,
-0.06292199,
0.05113885,
-0.02033054,
0.003353648,
0.04559172,
0.1064064,
-0.074488,
-0.005545183,
-0.004485825,
-0.01647299,
-0.002740819,
0.1070147,
-0.09063794,
-0.1052638,
0.1053387,
0.09746695,
0.06154876,
-0.0921758,
-0.01784238,
-0.03047608,
0.1053731,
0.09505607,
-0.1049113,
-0.005789084,
0.08620449,
-0.07714875,
-0.05505209,
-0.07979,
0.04396809,
-0.03679591,
-0.08584995,
-0.06033672,
0.07581363,
0.06237913,
-0.06805424,
-0.02276673,
-0.05204143,
0.02138391,
0.03633397,
-0.09170342,
-0.02323507,
-0.05811852,
0.09659861,
-0.03043735,
-0.04530932,
-0.0874806,
0.03138106,
-0.000840504,
-0.05056755,
0.05041767,
0.0972762,
0.100831,
0.07111232,
-0.06714281,
0.06159003,
-0.008719895,
-0.08110958,
-0.0253063,
-0.09365523,
0.08887708,
0.1029286,
0.04288503,
-0.05500114,
0.03798342,
-0.08878789,
0.1014027,
0.03567585,
-0.08374733,
-0.09033377,
-0.1004902,
0.0155827,
0.07352958,
0.05809893,
0.1081708,
0.02275613,
-0.02874402,
-0.104592,
-0.05727775,
0.0388134,
-0.01537008,
-0.07225211,
0.009254077,
0.01918495,
0.06746482,
-0.006016697,
0.09060138,
0.07869703,
0.004727864,
0.006265132,
0.03888133,
0.03933584,
-0.06732011,
-0.006007529,
0.02532163,
0.09221574,
-0.07228082,
0.07883334,
-0.04887359,
0.01601561,
-0.08123224,
0.003819052,
-0.09075011,
-0.02808752,
0.03769259,
-0.1025495,
0.03286332,
0.08501608,
-0.01077791,
0.07944409,
0.05423189,
-0.01122313,
0.0230907,
0.04335379,
-0.05770532,
-0.009941427,
-0.09792039,
0.0241039,
-0.1045531,
0.02691602,
-0.06617223,
0.001260735,
-0.004373698,
0.04558479,
0.04120777,
0.04894125,
-0.01276617,
-0.03710204,
0.01019824,
0.07759222,
0.08971521,
0.0272797,
0.003726306,
0.008114911,
-0.07339499,
-0.07832515,
0.02066678,
0.02315751,
0.03124374,
-0.09448218,
-0.09451552,
0.02248527,
-0.0198634,
-0.01324909,
-0.09105971,
-0.01999143,

 // Description of following elements Weights_L2Node013
-0.08380944,
0.1076271,
0.04457674,
-0.007481529,
-0.08216596,
0.05429282,
0.1007301,
0.07940057,
0.08222128,
-0.07065467,
-0.0459575,
0.07605936,
-0.008105964,
0.1076376,
-0.04739475,
-0.03070523,
0.05196303,
0.01009347,
0.01546883,
-0.09226362,
-0.09023134,
-0.06548978,
0.08591138,
0.03756621,
0.02324006,
-0.09707043,
0.001698616,
-0.04309415,
-0.05617426,
0.05975474,
0.08498169,
-0.09676328,
0.01226156,
-0.07548528,
0.1059446,
0.005674789,
0.007903546,
0.04600228,
0.06900781,
0.08099534,
0.02635132,
-0.1059568,
-0.06012998,
-0.09686144,
0.003129729,
0.08505146,
0.01723921,
0.02772315,
-0.07701283,
0.05382685,
-0.04748828,
0.07984326,
0.06541186,
-0.002516389,
0.102531,
0.005880658,
-0.06115044,
-0.06569137,
-0.1044227,
-0.033704,
0.07259481,
-0.04878643,
0.03411365,
-0.0714969,
-0.04446397,
-0.02801375,
0.03224409,
0.01467468,
0.002649403,
-0.09517215,
0.06015095,
-0.1017561,
0.03905261,
0.08503142,
-0.02792399,
0.02676555,
0.04171532,
0.06169968,
0.02866816,
0.04119819,
0.06551982,
-0.026893,
-0.09788819,
-0.08595303,
0.008767566,
0.07563323,
0.007029823,
0.08846653,
-0.0888422,
0.07879654,
0.07739054,
0.08289935,
-0.09215366,
-0.0341736,
-0.05884356,
0.07456692,
-0.07922075,
0.08255349,
-0.06632172,
0.07504617,
-0.06322397,
0.03692289,
-0.06139126,
-0.09423498,
-0.01534485,
-0.04263468,
0.01852522,
-0.05503904,
0.05197294,
-0.0599678,
-0.1081626,
-0.1076193,
0.09216643,
-0.09965952,
0.008026915,
-0.06676741,
-0.07282177,
0.04270476,
0.03652937,
0.06157315,
0.004774881,
0.06404664,
0.01690358,
0.003316012,
-0.02405833,
0.01735998,
-0.001530787,
0.01275886,
0.07677627,
0.0414523,
-0.09843912,
0.08683193,
-0.0532054,
0.01205847,
0.0245172,
0.06931899,
0.01050496,
-0.1025654,
0.07307567,
0.09975637,
0.07169779,
-0.02116481,
0.0006903812,
0.0330491,
0.04245539,
0.06056193,
0.08193376,
-0.0584542,
0.06503007,
0.0548238,
0.1044288,
-0.0842009,
0.04695241,
0.03608876,
-0.06971945,
-0.03146213,
-0.02385743,
0.01842057,
-0.06611919,
-0.07077002,
0.0904723,
-0.0314919,
-0.09350339,
-0.06572767,
0.0007673591,
-0.02321786,
0.08775156,
-0.05555847,
-0.05783193,
-0.1047749,
-0.0108206,
0.04233332,
0.04458887,
-0.008662447,
-0.08709123,
0.03231509,
0.02759317,
-0.07600243,
-0.06450383,
0.03522867,
-0.03692602,
-0.04753443,
-0.0191594,
0.0765484,
-0.0423205,
0.0562235,
0.01021808,
0.06014984,
0.06215055,
0.09608893,
-0.08386742,
0.07936946,
0.07571143,
-0.04435524,
-0.05772921,
-0.004934392,
-0.06688779,
0.08963072,
-0.03986751,
-0.08471123,
-0.01314608,
0.008200455,
-0.09760621,
0.01113591,
0.01979493,
-0.04866134,
-0.01766144,
-0.0001873229,
0.02449791,
0.07323951,
0.08582228,
-0.002880887,
-0.05396777,
-0.07532831,
0.02651158,
0.07765459,
0.08459898,
-0.07424403,
0.02094291,
0.07248294,
0.0671325,
0.06443797,
0.0819271,
-0.02133969,
0.07315381,
0.02728976,
-0.06343834,
-0.02675618,
0.04519822,
-0.1020272,
-0.04695703,
0.02648569,
-0.08589201,
-0.02817452,
0.000247599,
-0.03818129,
0.08562576,
0.04373227,
-0.0821529,
0.1071813,
0.09611168,
0.06222012,
0.02636502,
0.0975818,
-0.08420179,
0.08160476,
0.05803773,
0.04006974,
0.047469,
0.02300054,
-0.07891095,
0.01467185,
-0.03327095,
0.03859577,
-0.03483197,
-0.03716835,

 // Description of following elements Weights_L2Node014
-0.06181658,
-0.02775966,
-0.01275701,
-0.007139138,
-0.05094562,
0.08447146,
-0.0973399,
-0.01101101,
0.08562,
0.08903438,
-0.07365566,
0.0182626,
-0.01149382,
0.1024979,
0.05999651,
0.09871986,
-0.05694418,
-0.09445938,
-0.05862413,
0.06092948,
0.1006391,
-0.05960322,
0.08331492,
0.09674233,
-0.06773074,
0.02617583,
0.07849902,
-0.04139295,
-0.07101734,
0.04852785,
0.01864411,
-0.009468188,
-0.009997299,
-0.08263794,
-0.1081325,
0.08751774,
-0.07386845,
0.07492771,
-0.005047174,
-0.03982486,
-0.0808277,
0.03733111,
0.08987328,
-0.03411249,
-0.0640639,
0.01615826,
0.009152154,
-0.02654993,
-0.0895946,
-0.01747331,
0.0305893,
-0.0809752,
0.03973574,
0.07174972,
0.07686241,
0.02187741,
0.06563754,
0.04874247,
0.0435571,
0.0949049,
-0.06736276,
0.0875004,
0.09168006,
0.04865997,
-0.02725984,
0.04377311,
-0.06855898,
0.09527753,
-0.05897111,
0.02196044,
-0.1024879,
0.06079436,
-0.04351177,
-0.03153853,
-0.07559109,
-0.01158577,
0.07553555,
0.0870668,
-0.01651668,
-0.04940094,
0.04439754,
0.03867497,
0.0601177,
-0.02261108,
-0.1028157,
0.09949024,
-0.005870357,
0.0833107,
0.07956793,
0.07824616,
-0.02621542,
-0.02686782,
0.0250173,
0.03534791,
-0.04455077,
-0.08585193,
-0.1036914,
-0.07608285,
-0.03622635,
-0.1009342,
0.05038716,
-0.01230788,
-0.02071261,
-0.08824884,
0.07133953,
0.09248315,
0.06987749,
-0.08279306,
-0.07140354,
0.06374992,
-0.02615095,
0.08495297,
0.02780252,
-0.05472772,
0.06897962,
0.01029146,
-0.06438006,
0.07897739,
-0.06013365,
0.02191071,
-0.05490085,
0.08725644,
0.02967424,
-0.07698207,
-0.0576173,
0.06174659,
0.08031712,
0.0116592,
0.08612106,
0.0970666,
-0.0434527,
-0.0001092416,
-0.02302159,
0.09722253,
0.09517808,
0.05056308,
-0.03241655,
-0.03494408,
0.06256022,
0.06373475,
-0.03213036,
-0.0358878,
-0.02046897,
0.01289037,
0.0436138,
0.07077041,
-0.007107239,
-0.06906469,
0.1025537,
-0.05354214,
-0.007348746,
-0.1006042,
-0.07932259,
-0.0907339,
0.06166457,
-0.06926858,
-0.0376732,
-0.04428105,
-0.08588294,
0.09575663,
-0.06354161,
-0.01490576,
-0.09732843,
0.0380602,
-0.08429409,
-0.01429205,
0.07247472,
-0.08729979,
0.06157842,
-0.02116689,
0.03151494,
0.02396933,
-0.1051222,
0.01848196,
-0.01701464,
-0.1006016,
0.03448068,
0.06033406,
-0.07004049,
0.09095157,
-0.03757196,
-0.04715927,
0.04373974,
0.09501082,
0.07148001,
-0.009741844,
-0.02044285,
0.1058197,
-0.04787853,
-0.04331261,
-0.01431752,
-0.01302858,
-0.004486786,
-0.06721324,
-0.0005671266,
0.08167221,
-0.06728016,
-0.1068615,
-0.06142221,
0.009275606,
0.006293348,
0.05499739,
0.0313,
0.03950815,
0.04588684,
-0.004348306,
-0.04676969,
-0.08266059,
0.00772127,
0.01020224,
0.06986324,
0.04153783,
0.04505223,
-0.06852362,
-0.03864689,
-0.07322612,
0.05236688,
0.01444452,
0.05295555,
-0.04594992,
-0.08789543,
0.01774397,
-0.08980772,
0.05953432,
0.04579945,
-0.1037149,
-0.06284306,
0.03840549,
-0.01014756,
-0.001468609,
-0.03189607,
0.02422669,
-0.009338031,
-0.04440995,
0.07312282,
-0.03296857,
0.1017953,
-0.02111489,
0.005283072,
0.002242347,
0.01571756,
0.08517554,
-0.02708491,
0.1013268,
-0.03176446,
-0.06842832,
0.01408583,
0.04186491,
0.004247436,
0.04499217,
0.08782578,
0.08160653,
-0.0503129,
0.09103131,
-0.06725428,
-0.05665321,

 // Description of following elements Weights_L2Node015
0.008319547,
-0.07929854,
-0.05903984,
-0.05271289,
-0.03953625,
-0.07946129,
-0.07274617,
-0.04953269,
-0.03350833,
-0.0643073,
-0.09276854,
0.08086096,
-0.07537128,
0.06371471,
0.09664118,
-0.03216533,
-0.09549556,
0.09123292,
0.06000581,
-0.05430272,
0.006863887,
-0.09231864,
0.07612229,
0.0544124,
-0.07005861,
0.07062566,
-0.1009584,
-0.1043682,
0.04652458,
0.09187619,
0.01188262,
0.07119666,
-0.03100249,
-0.04183356,
0.03763605,
-0.09609277,
-0.03749696,
0.08298209,
-0.01925042,
0.0004688725,
-0.03090759,
0.105838,
-0.007600849,
0.09673904,
-0.08655177,
-0.03906521,
-0.02287827,
0.07330158,
-0.07355656,
-0.05776989,
-0.07278203,
0.01484956,
-0.07515949,
0.03694162,
0.08587311,
0.03785576,
0.03419703,
-0.01860728,
0.0336799,
-0.02207636,
0.01851765,
0.06749769,
0.03937396,
0.1014228,
-0.04544969,
-0.1048435,
-0.01945819,
0.07734028,
0.1045346,
0.06845341,
-0.06723713,
-0.09965106,
0.02293085,
0.04991371,
-0.09781221,
0.06326833,
-0.02267215,
-0.09530942,
0.02614021,
-0.07248826,
-0.0369522,
-0.04980859,
0.008895319,
0.07658395,
-0.01467688,
0.01689163,
-0.07870485,
0.01765435,
0.0370668,
0.07294945,
0.02909951,
-0.0623938,
0.08805344,
-0.02053664,
0.08414248,
0.01624896,
-0.1046354,
0.00874783,
0.07635144,
-0.06006287,
0.02966249,
0.04600362,
-0.03599843,
-0.097258,
-0.00880284,
0.07915693,
0.05972487,
-0.03420386,
0.05373699,
0.02701874,
0.04938401,
0.03683133,
-0.003209449,
0.01602143,
0.06503575,
-0.01090685,
-0.04849392,
0.04889583,
-0.02228209,
-0.02406728,
0.0229353,
-0.1042277,
0.04131472,
-0.007794424,
0.05826136,
-0.03573458,
-0.07316165,
0.01834024,
-0.05486267,
-0.0869499,
-0.01952464,
0.06997298,
-0.07274821,
-0.06372289,
-0.08713389,
0.05848518,
0.1049447,
-0.0126889,
-0.07997142,
-0.05520897,
0.07932019,
-0.09402407,
-0.09518937,
-0.05195736,
-0.01148267,
0.03792271,
-0.05163998,
0.04247351,
0.01202631,
-0.09894324,
-0.07218429,
0.01876623,
0.002032802,
0.1081161,
0.1036093,
0.05732716,
-0.05753903,
0.05129163,
0.03608828,
0.02646419,
0.07695784,
0.01045673,
0.08770277,
-0.1044083,
0.01859037,
-0.04738813,
0.0528031,
-0.061505,
-0.09721949,
-0.04723538,
-0.07934324,
-0.009339016,
-0.0599798,
0.01153338,
-0.09284855,
-0.08714518,
-0.03803608,
0.02789029,
0.05450011,
-0.01168107,
-0.05814641,
0.01466589,
-0.06216208,
-0.049399,
-0.07016853,
0.05967109,
-0.09052931,
0.01054959,
0.05024173,
0.03317905,
0.03313288,
0.04084755,
-0.08426632,
-0.03077673,
0.02185509,
-0.03292811,
0.06756252,
-0.08287256,
-0.01820015,
0.06382147,
0.08156288,
-0.0317805,
0.06821445,
-0.08158754,
-0.03290326,
-0.008532485,
-0.009663159,
-0.02465732,
-0.09477727,
-0.01716109,
0.1063405,
0.06680094,
0.01075394,
0.06641097,
-0.009607459,
0.01888043,
0.1079904,
0.05058992,
-0.007206232,
0.02520544,
-0.08030587,
0.08589891,
-0.07219789,
-0.06010013,
0.02778423,
-0.001249099,
-0.008426649,
-0.08581439,
-0.08918308,
0.08821742,
-0.02196025,
-0.1029593,
-0.007169511,
0.07757236,
0.07871486,
0.001181244,
-0.002623364,
-0.05698057,
0.1018697,
-0.07663396,
-0.08189911,
-0.04127451,
0.08219572,
-0.04763985,
0.02193291,
-0.0499333,
0.0895521,
0.02281592,
-0.07312939,
0.09094954,
-0.08510973,
-0.07717567,
0.03021808,
-0.05087673,
-0.1060959,
0.0763424,

 // Description of following elements Weights_L2Node016
-0.04152085,
0.08844885,
-0.009017495,
-0.03709951,
0.1063665,
0.06788328,
-0.04437063,
0.08138122,
-0.03963971,
0.09954579,
0.09279349,
-0.0008357729,
-0.001784084,
0.1065655,
-0.02276243,
0.09683745,
-0.08846415,
-0.02538603,
0.04990911,
0.05330149,
-0.07070951,
-0.02988677,
0.03493515,
0.02766237,
0.04865679,
0.0373696,
-0.09896625,
-0.04335257,
-0.002733794,
-0.03379078,
-0.09189383,
-0.0354629,
-0.08174151,
-0.07734893,
-0.02675374,
0.05599457,
0.07892413,
0.07721043,
-0.07945048,
0.07864209,
0.02041577,
0.01954224,
0.09049609,
-0.09614176,
0.0443138,
-0.00043767,
-0.02905301,
0.1078663,
0.09850948,
0.00288423,
0.03686701,
-0.1078439,
-0.001525417,
0.006768387,
-0.04202973,
0.07790712,
-0.093918,
0.007451835,
-0.1068872,
0.03507518,
0.008406824,
-0.01177975,
0.06151505,
-0.07348944,
-0.0747873,
0.06762398,
0.1034642,
-0.04651902,
0.03405754,
0.06641065,
0.06928944,
-0.0421887,
-0.09218673,
0.02546007,
-0.07877344,
0.06693455,
0.1034651,
0.08669481,
-0.06868503,
0.09137183,
-0.07868728,
-0.0988667,
0.03740988,
-0.08060583,
-0.06078027,
0.03439289,
-0.03841094,
0.0005366397,
0.00745304,
-0.00885645,
0.004044391,
0.01562451,
-0.02506285,
0.07709319,
-0.03125773,
0.07763726,
-0.0173074,
-0.05837003,
0.04834981,
-0.08799643,
-0.07507797,
0.08769929,
0.01596363,
0.03948089,
-0.09131243,
-0.03202733,
-0.03175627,
-0.08334112,
-0.001637306,
-0.01444417,
-0.05795933,
-0.06508332,
-0.05258267,
-0.0879081,
-0.04988502,
-0.06572061,
-0.01786227,
-0.1043608,
-0.06669368,
-0.05078713,
0.02091713,
-0.08303235,
-0.07496642,
-0.01711603,
-0.09870475,
-0.004825387,
0.0976726,
0.08477428,
0.08902036,
-0.0616909,
0.0271209,
-0.1050156,
0.06147368,
-0.1064194,
0.05653781,
-0.03654337,
-0.08561789,
0.08850803,
0.05893643,
-0.08134072,
0.09952438,
-0.03466311,
0.02344729,
0.01636679,
0.1052205,
0.105344,
-0.008792559,
-0.02679877,
-0.1013694,
0.04744029,
-0.05371961,
-0.02018642,
0.07052607,
0.0144907,
0.01648735,
-0.0423986,
-0.04556869,
-0.04949187,
0.04534899,
-0.05620783,
0.01298688,
-0.03766585,
-0.04802768,
-0.0507951,
0.0005345547,
0.01470108,
-0.08094964,
-0.09767286,
0.06780368,
-0.06463887,
0.04739451,
0.04005203,
-0.07276722,
0.07507592,
-0.005197504,
0.04525739,
-0.04393084,
-0.0591286,
0.08714941,
0.02599442,
-0.05796823,
0.02165063,
-0.07917292,
-0.09662899,
-0.06365561,
-0.05855538,
0.03045961,
-0.06069,
0.03660275,
0.03488487,
-0.04257015,
0.01447066,
0.03323964,
0.03587539,
0.0007435731,
-0.101448,
0.05701593,
0.06210294,
0.07013238,
-0.02536457,
-0.03169499,
-0.03669387,
0.04383175,
-0.02513759,
-0.1015122,
-0.009387237,
-0.04775801,
-0.03544671,
-0.09695502,
0.008657127,
-0.02577798,
0.1079154,
0.006412876,
0.08366657,
0.06832357,
-0.03795572,
-0.05062717,
-0.04810516,
0.05508836,
0.1036903,
0.03084351,
0.07626267,
0.0769116,
0.0127432,
-0.05345769,
-0.02671017,
0.009752114,
-0.09854969,
-0.03579019,
0.06551056,
-0.001393287,
-0.05222128,
-0.04661838,
0.06861591,
0.01977633,
-0.02297868,
-0.08424056,
0.1074926,
-0.1071056,
-0.05379694,
0.03688263,
0.02623838,
-0.01689079,
0.02820519,
-0.09973487,
-0.01170037,
-0.03719715,
0.06441054,
0.07699023,
0.09165732,
-0.04417945,
0.08716308,
-0.0876279,
-0.0227357,
0.03853871,
-0.07503675,

 // Description of following elements Weights_L2Node017
-0.09412349,
-0.08522263,
-0.08736886,
-0.02254067,
0.1050425,
0.0149289,
-0.0471391,
0.03650796,
0.02584149,
0.08995036,
-0.06334925,
-0.09721368,
0.04396354,
-0.07367212,
0.03703494,
-0.0934626,
-0.1018126,
0.07396226,
0.05497646,
-0.08708213,
-0.06311487,
-0.08942826,
0.07918456,
-0.1029296,
-0.05378774,
0.02503315,
-0.006844659,
0.05160566,
-0.06598721,
0.01044818,
-0.008851006,
0.1020553,
-0.03806138,
-0.06438718,
0.0145655,
-0.003652753,
-0.04494292,
-0.02053537,
0.0005972079,
0.06271708,
-0.08806001,
-0.06463045,
-0.1028895,
0.03926655,
0.05095496,
-0.075892,
-0.04115725,
-0.03641192,
-0.06785373,
0.04062068,
0.01399312,
0.009571085,
0.09386642,
-0.1014511,
0.03514013,
0.05957669,
0.03203132,
0.1049467,
0.09851621,
0.05428826,
-0.08729627,
-0.006696812,
-0.08570428,
-0.02767938,
-0.0931463,
0.08914468,
0.02163121,
0.1042052,
0.08936518,
7.961429e-05,
-0.09800261,
0.04201851,
-0.09222452,
0.007006221,
0.02842883,
0.07505764,
0.02677851,
-0.09185849,
-0.04335542,
0.0829716,
0.05054486,
0.0196213,
0.0276895,
0.05624486,
-0.05469818,
-0.06040617,
-0.04730706,
0.06007974,
-0.01772925,
-0.08479202,
-0.01855638,
0.08925007,
0.01383404,
0.06376784,
-0.04151518,
-0.08750986,
-0.09109726,
0.01282495,
-0.03049885,
0.06610351,
-0.09818327,
0.02768791,
-0.03486361,
-0.1068913,
0.09106839,
-0.0668777,
0.02076423,
0.0656954,
-0.05910282,
0.07845023,
0.08539209,
-0.05210995,
0.06558204,
-0.03371383,
-0.07729515,
0.06112633,
0.08249293,
0.07151381,
-0.02519459,
-0.06557568,
0.00264148,
-0.04810587,
-0.08592695,
-0.06717115,
-0.08020541,
-0.05615962,
0.01368373,
0.04942274,
0.05555149,
-0.07645735,
-0.08203764,
-0.07223519,
-0.01332966,
-0.04397064,
0.009217093,
0.09189315,
-0.05356891,
0.02156316,
-0.0560112,
-0.03482811,
0.03558715,
-0.09595331,
0.10591,
0.08746595,
0.06366514,
-0.0898952,
0.09271277,
0.01216379,
-0.04499321,
-0.1055336,
-0.01769017,
0.1081368,
0.03757272,
0.01079194,
0.05887995,
-0.03903812,
0.04098511,
-0.0292634,
-0.0923916,
0.09047528,
-0.0860053,
0.05379029,
0.06155102,
-0.03179682,
-0.1036725,
-0.1046976,
-0.03485902,
0.04773026,
0.08690526,
-0.005703723,
-0.09618473,
-0.01996879,
-0.0355599,
-0.04241292,
-0.04406229,
0.102065,
0.01630145,
-0.05686006,
0.08912798,
-0.1000776,
0.01234827,
0.03777346,
0.09364457,
0.1057596,
-0.07093005,
-0.1076078,
-0.08157812,
-0.07268452,
0.01551731,
0.01459645,
0.0557863,
-0.08433075,
0.05096107,
0.00717466,
-0.007778895,
0.02044391,
0.1046185,
-0.02918985,
-0.04861514,
-0.03724868,
0.08396501,
0.0597053,
-0.05809401,
0.03260974,
-0.1013553,
0.1028654,
-0.08339991,
-0.07742507,
0.04744464,
-0.03726044,
0.03852179,
-0.08622685,
0.01296195,
-0.08167238,
-0.05393076,
0.01519338,
-0.1063299,
-0.006827863,
-0.04459073,
-0.05210431,
0.004217287,
0.0002307525,
-0.09427606,
-0.003284228,
0.06912985,
0.0345684,
-0.06621814,
0.09934831,
0.09827963,
0.08809553,
-0.02574924,
0.03069855,
0.06935021,
-0.01797839,
0.0471594,
0.07194561,
0.03667542,
0.01234029,
0.09955296,
0.0854546,
-0.08098914,
-0.01012917,
-0.04257227,
-0.0807653,
-0.03887754,
-0.02827622,
0.0773034,
-0.06907972,
-0.08675613,
-0.1044353,
0.06448849,
-0.05271167,
-0.03034758,
0.06679862,
0.01434296,
0.06107127,

 // Description of following elements Weights_L2Node018
-0.002640222,
-0.01265137,
-0.03508568,
-0.09639256,
0.04164337,
-0.1044163,
-0.01701341,
0.08257029,
-0.1079326,
0.0001521556,
0.05516518,
0.03799846,
-0.06904349,
0.1073921,
0.08475385,
0.0424327,
-0.08616799,
0.08047038,
0.08841134,
0.08791924,
0.01453563,
-0.01986701,
-0.08646441,
0.009499706,
-0.01295016,
0.02826388,
-0.06181389,
0.03026966,
0.101416,
0.04269791,
0.08317416,
0.09241266,
0.09640154,
0.003871642,
-0.0696765,
0.06970938,
-0.09766406,
-0.08028995,
0.0935145,
-0.04743501,
0.09614956,
0.03991034,
0.037704,
-0.02669543,
0.07969601,
0.01267443,
-0.04257091,
0.07561251,
0.06160841,
0.1018939,
0.1035438,
0.02235811,
-0.1050213,
-0.05262551,
-0.04112527,
-0.0590437,
0.04818668,
0.03228939,
0.09300768,
0.009525398,
-0.01259044,
0.03036062,
-0.06058307,
-0.09753558,
-0.06268845,
0.07884944,
-0.08425517,
0.1006694,
-0.02085764,
-0.06876909,
0.01360479,
-0.01897388,
0.0624422,
-0.09157499,
-0.1023553,
0.07401311,
-0.08212531,
0.09800117,
0.02428556,
-0.0512008,
0.04253924,
0.005719894,
0.02792481,
0.02612029,
0.04765656,
-0.09847106,
0.06621493,
-0.02285291,
-0.0725267,
0.08601632,
0.08494414,
0.07470975,
0.02100402,
-0.01780937,
0.01234924,
0.009502393,
0.04730255,
-0.02754167,
-0.05625012,
0.03654751,
-0.1003119,
-0.02477169,
0.06128431,
-0.03388748,
0.01429329,
-0.03934751,
0.1067553,
-0.1023374,
-0.04924683,
0.0005060061,
-0.02821653,
-0.06020221,
-0.02459887,
0.06587559,
0.06162336,
0.033648,
-0.03086825,
-0.03485399,
-0.09684333,
0.07856189,
-0.09226403,
0.03996815,
0.01593201,
-0.01494925,
-0.002989688,
0.03865221,
-0.06425656,
-0.02851872,
0.05626855,
-0.08551972,
0.03012297,
0.05533011,
0.03165417,
0.03646337,
0.01998063,
0.05203033,
-0.007776813,
-0.0771674,
-0.03924893,
0.07531147,
0.03416856,
-0.02404132,
0.09028598,
0.005976186,
-0.0738492,
0.04178886,
0.06135921,
0.07500865,
-0.009246453,
-0.08899279,
-0.07888969,
0.01544078,
0.02674676,
0.04268513,
-0.01824474,
-0.0782164,
-0.04111548,
0.04597631,
-0.06225616,
0.05062022,
-0.02395814,
-0.1036843,
0.03265567,
0.02908937,
0.04729125,
0.06530202,
0.03915892,
-0.04828368,
0.03344122,
0.05732662,
-0.0450387,
0.06895533,
-0.09142578,
0.08852518,
0.1077496,
-0.01758063,
-0.05068192,
-0.05196911,
-0.03461625,
0.06247954,
0.02955653,
0.05352781,
0.08729278,
0.1082468,
0.1033191,
-0.005199881,
-0.004820566,
-0.09339887,
-0.04227663,
0.09160296,
0.04030753,
-0.04624963,
-0.01430999,
-0.02870694,
5.653683e-05,
-0.07412927,
-0.01135019,
0.08979427,
-0.08903384,
-0.0276862,
-0.09688491,
0.06979399,
0.06604546,
0.07427241,
0.0350808,
0.09981777,
0.02118281,
0.08192331,
-0.09690123,
-0.1032322,
-0.06382065,
0.01682847,
0.05872941,
0.0805601,
-0.0907468,
0.07578617,
0.09318994,
0.008146027,
-0.09685308,
0.08374499,
-0.07364488,
0.06403215,
-0.04172138,
0.03301372,
0.08103581,
-0.07677697,
0.079967,
0.0784368,
0.05359071,
0.03626604,
0.09346338,
-0.0231584,
-0.01210891,
-0.06118681,
0.06427785,
0.08011448,
0.04898045,
-0.0803109,
-0.08777723,
-0.08797335,
-0.06600162,
-0.01245576,
-0.0392878,
0.03122468,
0.05223822,
-0.03620058,
0.06866802,
-0.05348666,
0.02461165,
0.07719406,
-0.0694847,
0.0009804266,
0.04579411,
-0.05827918,
0.06665929,
0.01708191,

 // Description of following elements Weights_L2Node019
0.1035896,
0.08407582,
0.0571248,
0.08297843,
-0.03763485,
0.04830864,
-0.007969519,
0.05195428,
0.01326091,
-0.01914458,
-0.09517071,
8.296697e-05,
0.003394168,
0.003800493,
0.001360941,
-0.01681635,
0.03355301,
0.04782168,
0.03594557,
-0.001379366,
-0.08744275,
0.06711651,
-0.02263861,
-0.02769076,
-0.04008966,
-0.01950649,
0.003328571,
-0.04703856,
-0.005438589,
-0.1020605,
-0.0782059,
-0.082523,
0.002382543,
0.09502711,
-0.03103015,
0.09573973,
-0.04230004,
-0.0595584,
-0.0846946,
0.02259067,
0.01202305,
0.02267658,
0.06336626,
-0.1037229,
0.1058133,
-0.08944383,
0.08670539,
-0.0567036,
0.06695762,
0.02491833,
-0.04780233,
0.03267254,
0.08376258,
-0.02579304,
0.07980097,
0.0893959,
0.08900739,
0.08237907,
-0.06149493,
-0.1051774,
-0.0883318,
0.04749384,
-0.04148662,
-0.06212135,
-0.08289133,
-0.02959564,
-0.03619694,
0.02355286,
-0.1058907,
-0.08908505,
0.01190288,
0.1013566,
0.05725391,
-0.03278895,
0.09049868,
0.09678564,
-0.03630472,
-0.05356142,
-0.01110871,
0.05200292,
-0.08722009,
0.06103491,
-0.04964945,
-0.0804073,
0.09724326,
0.06899808,
-0.08086383,
0.05003908,
-0.05648408,
-0.08408426,
-0.05828538,
0.06872764,
-0.06560411,
0.08190057,
0.05636718,
0.08126,
-0.1024165,
-0.05686638,
-0.0194596,
-0.01915062,
-0.05681646,
0.08139729,
-0.08896559,
0.03590497,
-0.05465183,
-0.08394246,
0.02227445,
0.1015709,
0.05321931,
-0.08397553,
-0.07022316,
-0.03821353,
-0.08944508,
0.05740131,
0.003307204,
-0.07203872,
0.01746631,
-0.06199518,
-0.07456069,
0.02148741,
-0.04513861,
-0.003294538,
-0.0647875,
-0.08681195,
-0.04191561,
-0.06436688,
0.07512164,
0.04289063,
-0.03308471,
0.03477321,
-0.02503235,
0.009666653,
-0.07788486,
0.03532232,
-0.006476094,
-0.01331872,
0.060479,
-0.08459701,
0.04216488,
-0.09513275,
0.0176951,
-0.02724226,
-0.03050496,
0.04707589,
0.04284684,
0.06386068,
0.0183898,
-0.009734623,
-0.06736019,
-0.07239299,
0.08171587,
-0.01559871,
-0.01903778,
8.322966e-05,
0.01186734,
-0.01598076,
0.06358252,
-0.01770866,
-0.06077489,
0.03269504,
0.09327434,
-0.06491915,
0.06364097,
-0.02362444,
0.0003986506,
0.08949167,
-0.02046157,
0.0302407,
-0.02151412,
-0.0693593,
0.07932131,
0.08426465,
0.001968328,
-0.05881608,
0.09254744,
-0.06479334,
0.03715723,
-0.006425639,
0.07415611,
-0.1027418,
-0.01052525,
-0.01755848,
-0.09809306,
0.09222452,
0.1002922,
-0.05702635,
-0.02764135,
0.03453389,
-0.0420374,
0.09340826,
-0.0675679,
0.04598681,
-0.0857783,
-0.04063416,
0.0627571,
-0.07697432,
-0.04013728,
0.05766912,
-0.04338631,
0.02976358,
0.04910109,
0.04558006,
0.03572064,
-0.03367046,
0.05356199,
0.0603146,
0.03835095,
-0.06818372,
-0.04220785,
-0.04027431,
0.1078759,
0.06187553,
0.04340153,
0.07235263,
-0.02908807,
0.07137959,
0.057737,
0.03188043,
-0.1015629,
0.1081533,
0.05993369,
-0.03735638,
-0.09899003,
-0.008232329,
0.01577405,
0.005891961,
-0.05298129,
0.06704573,
0.05519705,
0.04510603,
0.06950486,
-0.03614436,
-0.002475799,
0.1041413,
0.09634253,
-0.07523175,
0.1070942,
0.02749771,
-0.09048173,
-0.01173447,
-0.0419892,
-0.01110806,
-0.04928486,
-0.05654695,
0.09889926,
0.07366458,
0.0827307,
0.09238603,
0.09813927,
-0.09471691,
0.088287,
0.07979782,
-0.1058606,
-0.05608536,
0.09309324,
-0.008622251,

 // Description of following elements Weights_L2Node020
-0.01131298,
-0.09276576,
0.0006301607,
-0.02581289,
-0.03265935,
-0.1068304,
0.0583999,
0.1019198,
-0.02910691,
-0.01410872,
0.08030105,
-0.08863409,
0.09932011,
0.005167094,
-0.03729892,
-0.001947097,
0.04528268,
-0.06691357,
0.01352763,
0.02547873,
-0.07532637,
0.09798619,
-0.06279895,
0.08148687,
-0.05793123,
-0.008946287,
0.08762517,
0.01872014,
-0.09963257,
-0.0481963,
-0.05382936,
-0.06173488,
0.03813374,
0.01154324,
-0.06434841,
0.105246,
-0.1020934,
0.03260231,
-0.08720292,
-0.02538351,
-0.03803337,
-0.08885743,
-0.04964308,
0.08613335,
0.03832861,
-0.0003898672,
-0.008497267,
0.01099324,
-0.03665961,
-0.06786992,
-0.08332212,
0.01859681,
-0.02937157,
-0.09194416,
-0.03667573,
0.02037855,
0.0003986861,
0.06090316,
0.07001726,
0.08599988,
0.01506467,
-0.09959359,
0.09904874,
0.08647034,
-0.07527013,
0.03597775,
-0.09576694,
0.07968931,
0.01478674,
-0.04092746,
-0.0858722,
-0.09673647,
0.1017732,
-0.08786219,
0.03375415,
-0.02796886,
0.01266117,
0.07564566,
0.06409524,
0.04833549,
0.01542584,
-0.02487081,
0.08166395,
0.05337949,
-0.09361377,
-0.09932343,
0.0761353,
0.01883161,
0.03485946,
0.01904788,
-0.05247656,
0.03907677,
0.08557356,
-0.02573633,
-0.04019673,
-0.07410012,
0.03700485,
0.00686723,
0.06731964,
0.003233509,
-0.06742353,
0.06030041,
0.08767457,
0.01379218,
0.02159993,
0.0259615,
0.03259227,
-0.07968178,
-0.05379191,
0.04132449,
-0.02570778,
0.01282445,
-0.06552142,
0.06165785,
0.02608729,
-0.05853333,
-0.08895151,
0.1043271,
0.03185384,
0.04884511,
0.02485064,
0.103125,
-0.05397264,
-0.047398,
0.01086864,
0.09867297,
-0.05372974,
0.008270196,
0.01793545,
-0.003534184,
-0.004015576,
-0.0451277,
-0.06893591,
-0.05786121,
-0.002522809,
0.03561771,
-0.09915229,
0.09754019,
-0.01175485,
-0.01506971,
0.05360168,
-0.0551948,
0.05257618,
-0.04663045,
-0.09496296,
0.02441433,
-0.0262943,
0.06901271,
-0.09727222,
0.0828635,
-0.09069806,
0.0728066,
0.04258707,
0.02237363,
0.002969744,
-0.05460243,
0.0442155,
0.01011605,
0.08261594,
-0.07912099,
0.07985239,
0.104115,
-0.02814991,
-0.06615504,
-0.003493088,
-0.01340925,
-0.07370064,
0.09169022,
-0.01734311,
0.03448133,
-0.01742036,
0.09428606,
0.04598524,
0.09798285,
0.08993009,
-0.06870236,
0.03648667,
-0.08735473,
0.1048283,
0.05276043,
-0.0620598,
0.02541571,
-0.03559399,
0.02871035,
0.003411468,
0.06211961,
0.0005651028,
-0.07263003,
0.001615616,
0.06989118,
-0.01541112,
-0.07411335,
0.0378651,
-0.04836086,
-0.02710962,
-0.02234449,
-0.07964919,
0.1009408,
0.09984384,
-0.1052199,
0.002027605,
-0.06601535,
0.07643112,
0.07640144,
0.0160857,
-0.03963012,
-0.0245185,
0.05733259,
0.03906513,
-0.08112417,
0.0259454,
0.04063087,
0.05635251,
-0.05907717,
-0.05969206,
-0.1050021,
0.01847449,
0.05039698,
0.0789285,
-0.09118282,
-0.01459169,
0.06598882,
0.002071068,
-0.02056962,
-0.00742727,
-0.02845505,
0.01343079,
0.01133468,
-0.06871384,
0.03743587,
0.03082921,
0.06848104,
-0.05088574,
0.06477166,
-0.04082464,
0.04661028,
0.08947305,
0.0440723,
-0.08944085,
0.001696959,
0.05979513,
0.0007037376,
-0.09558024,
0.03637215,
-0.01955521,
-0.1080262,
0.03773271,
-0.008360935,
0.09908652,
-0.02455598,
-0.05192341,
-0.06320276,
0.0291528,
-0.03153627,
-0.07894465,
-0.0613304,

 // Description of following elements Weights_L2Node021
0.02296983,
-0.01216729,
-0.004237662,
0.08378714,
-0.1055254,
0.01699386,
-0.09386863,
-0.04493651,
-0.002812468,
-0.07010023,
-0.0008543857,
0.02638031,
0.05022423,
0.1056239,
-0.02120868,
0.08325997,
-0.06703844,
0.03611248,
-0.002297272,
-0.006520425,
-0.0249288,
-0.07633092,
0.06868082,
-0.08437055,
0.06831542,
0.0693691,
-0.05018421,
-0.08729438,
0.01233696,
0.07178076,
0.0383153,
-0.05300498,
-0.0490482,
-0.04832355,
0.04899403,
0.05412467,
-0.03207434,
0.09823547,
0.09777746,
0.02163529,
0.04689568,
0.08590877,
-0.08352128,
-0.0141073,
0.07455356,
0.0280812,
0.06933575,
-0.09240907,
0.103872,
0.04757608,
0.1010026,
-0.03291654,
0.02120229,
-0.003632142,
0.07160691,
-0.09279534,
-0.007735235,
-0.06312676,
0.0430372,
0.05021626,
-0.09083226,
-0.0219119,
0.09147803,
-0.01375544,
-0.05687251,
-0.05870892,
-0.0494994,
0.06713083,
-0.01213881,
0.08879896,
-0.0118503,
-0.01859604,
0.0195688,
-0.01214497,
-0.09244372,
-0.01118426,
0.08827164,
0.0002554499,
-0.0722855,
-0.06659599,
0.006168518,
0.08967789,
-0.1005016,
-0.07279127,
-0.07451025,
-0.002510179,
-0.02575993,
0.05867409,
-0.07774062,
0.03687654,
0.01626159,
0.0690688,
0.02322987,
0.04996207,
0.0527775,
0.02582014,
-0.05454523,
-0.07689738,
-0.003115005,
-0.02494676,
-0.09793843,
-0.1010644,
0.02840185,
-0.04125762,
-0.06761525,
0.05755902,
0.02398388,
0.04762528,
0.02036598,
0.04823736,
0.08850563,
-0.08073992,
0.05629514,
-0.08906183,
0.03955841,
0.08857514,
-0.07487208,
0.09509566,
0.09559016,
-0.01375305,
-0.05501361,
-0.09278259,
0.07658792,
0.02051156,
0.01641216,
-0.03204522,
0.07894395,
-0.09358809,
-0.06472282,
0.08839598,
-0.06655163,
-0.07986063,
0.05954941,
0.04625802,
-0.006700519,
-0.03091198,
-0.07900531,
-0.08397857,
-0.003760458,
0.09221032,
-0.05928979,
-0.08888251,
0.001531065,
-0.04309217,
0.05953044,
-0.1066565,
-0.05388063,
0.03576953,
-0.06580532,
0.1068715,
0.05546507,
-0.03713787,
0.008923448,
-0.004687958,
-0.06132113,
0.06354502,
0.02992427,
0.05728119,
0.05192013,
-0.08072128,
0.03984265,
0.05353835,
-0.03072557,
-0.06698366,
0.01610537,
-0.05145282,
-0.02344099,
-0.03874557,
-0.04976546,
-0.1072362,
-0.04051828,
0.03487738,
0.001498867,
0.08186805,
-0.09177504,
0.1005441,
-0.07947685,
0.02098956,
-0.02627284,
-0.02205564,
0.062409,
0.008298615,
-0.01008985,
-0.1051723,
-0.03935073,
-0.04914395,
-0.02123605,
-0.05845868,
0.03971465,
-0.02933688,
-0.06654036,
-0.08214857,
0.03285116,
-0.04068723,
-0.09303764,
0.032467,
0.07553868,
-0.08631465,
-0.03413005,
-0.06243387,
-0.08850655,
-0.05355995,
-0.06343105,
0.02512642,
0.08483774,
0.04685454,
0.07907256,
0.07323301,
-0.1040167,
-0.03653706,
-0.09607396,
0.03737885,
-0.05670719,
-0.005426802,
-0.09632726,
0.07371628,
0.02162356,
-0.04774979,
0.1006849,
-0.08925823,
-0.09809923,
0.02546656,
0.1014343,
-0.08090137,
-0.02784173,
-0.04900252,
-0.08029746,
-0.02468461,
-0.04044484,
0.07677718,
0.06346982,
0.02679048,
0.01128405,
-0.05706426,
-0.05689155,
-0.04204857,
-0.05983356,
-0.07340938,
0.08453691,
0.05978853,
0.082152,
0.06506072,
-0.09019497,
-0.07296353,
-0.1025867,
-0.03844871,
-0.06393504,
0.005931989,
-0.100911,
-0.07413945,
0.02249083,
0.01714876,
0.008736327,
0.09877148,
0.02833894,
0.02167413,

 // Description of following elements Weights_L2Node022
-0.09787142,
-0.05939601,
-0.03068709,
0.05108323,
0.006058417,
0.04538662,
-0.0009444957,
0.06366745,
-0.06349307,
0.09566308,
0.03385983,
-0.05556683,
-0.04774487,
-0.08779749,
0.03904666,
0.09332604,
0.01577012,
0.08892692,
0.02986111,
0.1022172,
0.0297378,
0.06512947,
0.08213372,
0.09889752,
-0.04100997,
0.02260872,
-0.04887969,
-0.09243882,
-0.07680818,
-0.03777689,
0.01128535,
-0.06978971,
0.01210487,
0.03565304,
0.009475363,
0.08184772,
-0.09070533,
-0.1023671,
0.03403187,
-0.07131349,
-0.002940491,
0.01889293,
-0.04026786,
-0.0307014,
0.1023787,
-0.08324008,
0.08560571,
0.07458741,
-0.08193086,
-0.07531434,
0.05462833,
-0.0699892,
0.02085933,
-0.008799211,
0.06070693,
0.05800313,
0.01297635,
0.08005457,
-0.06036666,
0.06701876,
-0.07702644,
0.01618686,
-0.02516644,
0.03260681,
0.01021136,
-0.02535045,
-0.07518148,
-0.05914353,
-0.0401039,
-0.0846808,
-0.03258487,
-0.02740815,
-0.04591708,
0.09464791,
0.1045877,
0.0898134,
-0.05069125,
-0.09312715,
-0.03542312,
0.08322098,
-0.1064952,
-0.07634876,
-0.04579639,
-0.0795329,
-0.09937406,
0.08706713,
0.1006731,
-0.01639083,
-0.07483229,
0.105963,
0.04299564,
0.03988781,
-0.02243007,
0.1062797,
0.08875373,
-0.07661614,
-0.01424769,
-0.02002606,
0.09517969,
-0.02300328,
0.06470253,
-0.107671,
0.004585877,
0.04576689,
-0.06014459,
-0.04573951,
0.06572349,
0.08538841,
0.06746648,
0.0343325,
0.1054914,
0.03750867,
-0.06445812,
-0.07695328,
-0.06468539,
-0.086795,
0.02669855,
0.03888662,
-0.03900559,
-0.06878108,
0.0894639,
-0.08304989,
0.1027837,
-0.06348715,
0.09014788,
0.03660639,
-0.05964205,
-0.07553309,
0.04707872,
-0.08696682,
0.01309708,
0.00567387,
-0.06081137,
0.03615286,
-0.01036073,
-0.002084969,
-0.00698097,
0.059295,
-0.02974363,
0.04663302,
-0.07419026,
-0.0003063298,
-0.0656876,
-0.06860752,
0.03836201,
0.08596847,
0.02213961,
-0.05198861,
0.01784545,
-0.004988604,
0.07974333,
0.03805803,
0.0232598,
0.08232265,
0.0661922,
0.02144056,
-0.06818514,
0.0934743,
0.03459305,
0.04201822,
0.06585462,
-0.02605143,
-0.05415777,
-0.03713098,
0.1035383,
-0.05515356,
-0.0232248,
-0.1025207,
0.05963734,
-0.01203215,
-0.08294234,
0.1076205,
0.038753,
-0.01253249,
-0.07518527,
-0.04085021,
0.007337386,
-0.01482253,
0.08473754,
-0.07525774,
0.00173769,
0.04878326,
0.04923527,
0.06641778,
0.04157995,
0.009103365,
-0.07977423,
-0.01178855,
-0.001821088,
0.04305537,
0.00593332,
-0.05936015,
-0.005142148,
-0.09881756,
0.06787482,
-0.06499035,
0.005011509,
0.04944758,
-0.09564201,
-0.01709753,
-0.09102296,
0.002930159,
0.01428636,
-0.04467664,
0.07980083,
0.05113112,
0.03537695,
0.1000311,
0.08397896,
0.09275539,
0.04605072,
-0.09021913,
-0.05317524,
-0.03289076,
0.0858623,
0.04739647,
-0.05176406,
-0.08049144,
0.05611188,
0.06599163,
-0.0510952,
0.06494901,
-0.01525649,
0.08403771,
0.06028381,
-0.05091091,
-0.06297351,
-0.02685195,
0.06478615,
-0.05567347,
0.06037791,
-0.04788801,
0.003859759,
-0.05110474,
0.02571938,
-0.01820882,
-0.03930579,
-0.0431909,
-0.007942499,
0.06979438,
-0.0109755,
0.09910414,
-0.01116206,
-0.09327304,
-0.0668696,
0.01237604,
0.09679686,
0.0249041,
0.06792045,
0.01398202,
0.008193386,
-0.1063021,
-0.04573272,
0.03355144,
0.08049871,
0.04609918,

 // Description of following elements Weights_L2Node023
0.05067151,
0.0549606,
-0.09469792,
0.06028277,
-0.1046522,
-0.03258549,
0.03635027,
0.01787942,
0.06356943,
-0.09090633,
-0.09182288,
-0.000135983,
-0.07037818,
-0.08912529,
-0.06229725,
0.01134084,
-0.08904866,
-0.09177217,
0.09524012,
0.001752245,
0.1046503,
0.04744258,
0.04614833,
-0.04461794,
0.09635685,
-0.02040812,
-0.08672015,
-0.09954352,
-0.0227095,
0.0211876,
-0.1058697,
-0.04320475,
-0.03301975,
0.04074384,
-0.03533588,
-0.08079433,
0.007151832,
0.08752205,
-0.04704014,
0.005977016,
0.06382574,
-0.04231636,
-0.1050955,
0.05303795,
-0.04658938,
0.09266235,
-0.1070006,
-0.006099633,
-0.07843292,
-0.04639912,
0.008259953,
-0.03518055,
0.06791837,
0.005043992,
-0.06795936,
0.08237088,
-0.09621238,
0.008118558,
0.02846321,
0.08237544,
0.05502767,
-0.02728212,
0.07510191,
-0.00139551,
-0.07969785,
-0.0084407,
-0.08328247,
-0.04597031,
-0.02053548,
-0.09307943,
-0.02365978,
0.05736195,
0.09414513,
0.09498557,
-0.04111313,
0.03197646,
0.09075332,
0.03162611,
-0.06853402,
0.07577781,
0.10357,
-0.03790693,
-0.05317171,
0.01485678,
0.05043384,
0.0279976,
-0.1022975,
-0.04421379,
-0.08206774,
-0.07714118,
0.05042344,
-0.008417965,
0.007284455,
-0.045646,
0.07368991,
-0.07393677,
-0.1032892,
0.02151431,
0.03214184,
-0.002391844,
0.106794,
0.002838662,
-0.02534926,
0.009978385,
-0.09223013,
0.07207684,
-0.05328076,
-0.07139982,
-0.006188367,
-0.05809309,
-0.04226404,
-0.0004807667,
0.0743608,
0.07010609,
-0.09589382,
-0.07715254,
-0.05263911,
0.08433849,
-0.05446681,
-0.02753899,
-0.04144055,
-0.01609321,
-0.08071098,
0.05998737,
-0.06318821,
0.0629942,
0.07637805,
-0.1071532,
0.06998968,
-0.04687199,
-0.08444319,
-0.01761028,
-0.07351424,
-0.09623002,
0.0574664,
0.07812538,
0.06322526,
-0.04391265,
0.078724,
0.05028313,
-0.09507155,
0.03623192,
-0.09253547,
-0.08725184,
0.003517446,
0.05019926,
-0.04671936,
0.1049769,
0.01720049,
0.09468788,
-0.05658909,
0.0746716,
-0.01043233,
-0.09474032,
-0.09184784,
0.06222948,
-0.08501642,
0.1059906,
-0.0001492446,
0.05215774,
-0.03188837,
-0.09242557,
0.07006216,
-0.05587137,
-0.09602308,
-0.09558652,
0.04527698,
-0.01572391,
0.04290182,
0.07368633,
-0.02662223,
0.007107514,
0.05345918,
-0.02172352,
0.05753267,
-0.007083777,
0.08274987,
-0.04869778,
0.0462399,
-0.07940771,
-0.03392576,
0.004692071,
-0.03664505,
0.04216938,
0.07774024,
0.08953521,
0.08019877,
0.05854076,
0.05353812,
0.04420904,
0.02134057,
0.03880575,
-0.04336745,
0.008755823,
0.09236047,
0.04448155,
0.0587279,
0.01658189,
0.100216,
-0.1016052,
0.00617687,
-0.05027654,
-0.06647185,
-0.07060881,
-0.06842996,
-0.04419856,
-0.02650871,
0.02906973,
-0.0259784,
-0.007812849,
0.05536458,
-0.05291517,
0.03931343,
-0.09945543,
-0.009940756,
0.06430531,
0.01423875,
0.02325936,
0.05452767,
0.03773699,
0.05015272,
-0.02988801,
0.08558274,
0.1021362,
-0.1058101,
0.009815372,
0.04523403,
0.09287371,
-0.1008751,
0.08986183,
0.01690333,
-0.07784748,
-0.04136104,
-0.05457706,
-0.09801353,
-0.06525198,
-0.04370294,
0.1059947,
0.102494,
4.030345e-05,
0.0193851,
0.05029478,
0.1072797,
0.09786328,
-0.1072543,
0.08449885,
-0.05545034,
-0.08944289,
0.08606761,
0.08640107,
-0.05192624,
0.05318442,
-0.02200189,
0.04071765,
-0.1077461,
0.0737076,

 // Description of following elements Weights_L2Node024
0.06314921,
-0.04888457,
0.07523655,
-0.04290632,
-0.07742776,
0.04265752,
-0.06337442,
-0.06770154,
-0.02751279,
0.04653236,
-0.01634082,
-0.04355472,
0.03845067,
-0.03570382,
0.09702457,
-0.08341999,
0.08948539,
0.0913513,
-0.1052679,
-0.1009751,
0.006794491,
0.05145421,
0.04188558,
0.01003195,
-0.03787328,
0.01707527,
0.0860313,
0.08447004,
-0.04246864,
-0.05101456,
0.03629456,
-0.04158081,
0.02912281,
0.01305803,
-0.08666589,
-0.02567186,
0.01463932,
-0.09739115,
-0.004334304,
-0.10321,
-0.01303822,
-0.055783,
0.06742763,
-0.01313845,
0.08396202,
-0.08566387,
0.0945922,
-0.02738754,
-0.07328417,
-0.10505,
-0.02893641,
-0.01516903,
-0.01590102,
-0.104546,
-0.04166896,
-0.04973655,
0.07950634,
0.04721082,
-0.05846779,
-0.04029074,
0.1037076,
0.09559787,
0.05911209,
0.07169411,
-0.09618233,
-0.07744898,
0.0009282974,
0.03773504,
-0.07018082,
-0.02378085,
0.0906016,
0.1000949,
0.05630785,
-0.09244862,
-0.01666852,
-0.06973106,
-0.05195585,
-0.01803052,
-0.05789293,
-0.07121592,
-0.01414509,
-0.05953209,
0.09686583,
-0.02651824,
-0.03045822,
0.1063396,
-0.03769168,
0.08494139,
-0.0281551,
-0.1077319,
0.05649377,
-0.0158776,
-0.08006658,
0.07620914,
-0.006378926,
-0.1054408,
0.09504564,
-0.02655114,
0.07951847,
0.08072811,
-0.1035626,
0.08095488,
0.08017375,
-0.08504532,
0.09942788,
-0.01847244,
0.09031712,
0.0077477,
-0.05444373,
0.0610322,
0.02184184,
-0.06416474,
-0.02678406,
-0.09410081,
0.1055429,
0.003535779,
0.09650951,
-0.06127654,
0.04043072,
-0.007257945,
-0.05286308,
0.07292663,
-0.04518264,
-0.08312479,
-0.0254332,
-0.06219034,
0.001854349,
0.004340656,
0.09071971,
0.09638593,
0.09749074,
-0.0007695158,
0.01655076,
0.1061133,
0.01492885,
0.02468617,
-0.07577422,
-0.04177088,
0.04896529,
0.0138805,
-0.07670097,
0.01116431,
0.02711312,
0.03973077,
0.03758679,
-0.04462468,
-0.07748117,
0.1003171,
0.01527306,
-0.06388921,
-0.05113924,
-0.08860067,
0.03865153,
0.09558348,
-0.07508466,
0.03622336,
0.06097861,
0.08686338,
0.001983805,
-0.02519502,
0.05452656,
-0.01010168,
0.01524523,
-0.03822853,
-0.05013841,
0.04998436,
-0.1066795,
0.03210513,
-0.06397173,
0.03344883,
-0.04835337,
0.07763734,
-0.02354553,
0.04876282,
-0.0470831,
-0.02343481,
-0.04768644,
0.01423233,
-0.02663247,
-0.08023497,
-0.07521996,
0.04489889,
-0.05028505,
0.07256169,
-0.07129654,
0.03834197,
-0.05563344,
0.03190949,
-0.0358846,
-0.008289547,
0.04471214,
-0.03103546,
-0.04166063,
0.05214199,
0.06147556,
0.007713507,
-0.06194963,
-0.02522347,
0.02193219,
0.06682716,
-0.08767033,
0.0579661,
0.08085037,
0.07165809,
0.09030698,
-0.01966181,
0.08302739,
-0.004839928,
-0.1014719,
0.09911067,
0.0114538,
-0.04674826,
-0.02184541,
-0.03899541,
0.06149119,
-0.1070242,
0.05083863,
0.022945,
0.03591652,
0.07284202,
-0.08998819,
0.04222753,
-0.03399155,
0.05478587,
-0.07982022,
0.04783892,
-0.1028352,
-0.02065097,
0.07754406,
0.06960375,
-0.03603981,
0.03292403,
-0.02369668,
-0.01254147,
0.02189769,
0.1058437,
-0.09211038,
-0.03111048,
-0.06363755,
-0.02095685,
-0.03005121,
0.06209019,
0.009821693,
0.04540471,
0.005407449,
0.01818293,
-0.0605499,
0.03953201,
-0.03589908,
0.04102611,
0.1028627,
0.0445412,
0.02142861,
-0.07116445,
0.07426576,
-0.002166058,

 // Description of following elements Weights_L2Node025
-0.05204765,
-0.06408092,
0.09034323,
0.05933897,
0.06515003,
-0.08039305,
-0.03606935,
-0.03483499,
-0.05940655,
0.1075138,
-0.05897127,
-0.04931849,
-0.03281883,
-0.02872658,
0.008831521,
0.0105626,
-0.08519998,
-0.003165447,
-0.02701815,
0.0074318,
0.05671986,
0.01533298,
-0.07318091,
-0.06570743,
-0.1017003,
-0.00190842,
-0.0829133,
0.01161693,
-0.02834759,
-0.01866755,
-0.04213785,
-0.0282141,
-0.04510457,
0.08089221,
0.03097411,
0.05440524,
0.06900561,
0.06712523,
-0.0238594,
-0.09867702,
-0.1030279,
0.08051026,
0.0878994,
-0.03964313,
0.05649475,
0.03223941,
0.06992868,
0.0761062,
-0.04822058,
-0.08346357,
0.02366989,
-0.07443821,
-0.09671804,
-0.02695021,
0.09434869,
-0.06423571,
-0.01523513,
0.0007415843,
-0.06488929,
0.02761621,
-0.1041995,
0.06881424,
-0.03512174,
-0.06990182,
-0.04919737,
0.03850181,
-0.01134486,
0.08599885,
-0.04682709,
0.01256489,
-0.04376561,
0.096354,
0.05549051,
0.01646731,
-0.01385683,
0.06713849,
0.02637503,
-0.02994293,
-0.09556969,
0.05385826,
0.1080469,
0.01824751,
-0.06397122,
0.05771453,
0.1069455,
-0.03797113,
0.05209341,
0.05441066,
0.05092673,
0.03777961,
0.1061502,
-0.01301163,
0.04416928,
0.07995278,
-0.094356,
-0.06792331,
-0.10705,
0.07904945,
0.01309215,
-0.08888769,
-0.01644254,
-0.09721403,
-0.06465335,
-0.07699479,
-0.008532474,
0.06521423,
-0.08407328,
-0.02521362,
0.07428535,
-0.01437191,
0.106363,
-0.02957981,
0.0586798,
0.03652675,
-0.07789007,
-0.08733205,
0.1026389,
-0.07613692,
-0.03114581,
-0.07140735,
0.0591971,
0.0549053,
-0.06477173,
0.08369196,
-0.01297537,
-0.01326747,
0.03980891,
-0.0840817,
0.01165255,
0.1017757,
0.02235479,
0.03333048,
0.0365047,
-0.01426479,
0.002164498,
-0.0584612,
0.01112497,
0.01954643,
0.06775463,
0.0683995,
-0.06170966,
0.04374905,
0.08232528,
-0.05083064,
0.07410989,
0.06604209,
-0.02905051,
0.05023722,
0.01490901,
-0.03962722,
-0.03752644,
-0.02225571,
-0.08632451,
-0.0495331,
-0.1016304,
0.0350516,
0.08800016,
-0.02692043,
-0.05243273,
0.08132319,
0.05329697,
-0.05054982,
-0.02957875,
0.05943534,
0.07582294,
0.03640977,
-0.04836443,
-0.06175777,
0.007782765,
0.02992406,
-0.0995845,
0.0946873,
0.05839439,
-0.02303357,
0.02982373,
0.01396807,
-0.03208412,
-0.06172016,
0.1074186,
0.04429968,
0.005469268,
-0.01862346,
-0.06288049,
0.06609787,
-0.02084339,
-0.08597595,
0.08082613,
0.02508974,
0.02681552,
-0.04395526,
0.03982818,
-0.01628495,
0.04998897,
0.02878353,
0.08981179,
-0.05070557,
-0.1064818,
0.04933477,
0.06705931,
-0.02671641,
-0.03904498,
0.08515657,
-0.007001872,
0.09137841,
0.03730546,
-0.08125786,
-0.009603996,
-0.03525128,
0.06604058,
0.005666305,
-0.08711887,
-0.009840558,
0.09999252,
-0.01141879,
-0.07390666,
0.0180167,
0.09842105,
0.0751716,
-0.08957801,
0.07738487,
0.09584827,
0.1063716,
0.0672357,
-0.05456472,
-0.05059233,
-0.08541206,
-0.04554032,
-0.07332298,
0.05081271,
-0.01240228,
0.05229319,
0.1080733,
0.07030188,
0.01664178,
-0.001595326,
-0.05765954,
-0.07496962,
0.04723349,
0.02177311,
0.003065872,
0.07394956,
-0.04683646,
0.0002108871,
-0.08511577,
-0.03725728,
0.03393037,
0.08157424,
0.05674691,
0.06751832,
-0.004693652,
-0.0465856,
-0.01007649,
-0.0460423,
-0.03087756,
0.02448955,
-0.01850507,

 // Description of following elements Weights_L2Node026
0.09123111,
-0.03873767,
0.05434555,
-0.0637835,
-0.04250871,
-0.05008691,
0.04181642,
-0.07212891,
0.006833226,
-0.0646686,
-0.07422478,
0.05563023,
0.08979453,
-0.0606744,
-0.07172891,
0.06477515,
0.02411972,
0.05921319,
0.01166925,
-0.0446832,
0.01961607,
-0.07280955,
-0.02783589,
0.0870308,
-0.0193873,
0.07146984,
0.1025018,
0.01321729,
0.03980168,
0.009912606,
0.05392906,
0.03103716,
-0.07666523,
0.0731827,
-0.08007957,
0.04039113,
0.09532904,
-0.009665236,
-0.0841378,
-0.09491346,
0.05979652,
-0.1076656,
0.02311539,
-0.03098188,
-0.02282193,
-0.02238876,
-0.01746127,
0.07080592,
0.04894304,
0.08773565,
0.06119074,
-0.03747616,
-0.06459308,
0.03356048,
-0.08467382,
0.08356366,
0.01890278,
0.06090013,
0.02092116,
-0.07047439,
-0.09083262,
0.07117689,
-0.07502573,
-0.09494103,
0.01946033,
-0.007456745,
-0.008147583,
0.08862391,
-0.07373381,
0.0636486,
0.03739744,
0.09071517,
0.01336922,
-0.06465099,
-0.05302087,
0.02645723,
-0.02684388,
-0.03053779,
-0.1020501,
0.05788831,
-0.05685804,
0.03592122,
0.05379978,
0.04945851,
0.06804524,
0.05197944,
0.03128885,
-0.08681858,
0.108123,
-0.01773276,
-0.09180297,
0.05223279,
0.1081902,
0.01060215,
0.02016538,
-0.07482206,
0.02958564,
0.009975319,
-0.04667555,
0.03414861,
0.1070034,
0.002140745,
-0.06381776,
0.02867342,
0.03963914,
-0.009714996,
-0.08997091,
0.1061943,
-0.09973377,
0.05224762,
0.01882203,
0.09885912,
-0.02167861,
0.002953571,
0.06350995,
-0.02264396,
-0.07346944,
0.01503699,
0.02103682,
0.06946719,
0.1068204,
-0.03407545,
-0.1081187,
-0.09460289,
-0.007370125,
0.1054889,
-0.09969158,
-0.02888768,
-0.07144059,
0.07938409,
0.02991794,
0.08380339,
0.0573437,
-0.003187255,
-0.09342845,
0.003868546,
-0.02031577,
0.01768956,
0.1009713,
0.1001457,
0.1079062,
0.002928773,
0.04806529,
-0.07667907,
-0.06780052,
-0.05678864,
0.09085143,
-0.09057319,
0.04241673,
-0.06740206,
0.06864773,
-0.03802261,
0.06503889,
0.06840268,
-0.03961102,
-0.06424133,
-0.07329193,
0.08906251,
0.04487686,
-0.08212557,
0.03039374,
-0.07600458,
-0.09060769,
0.05299799,
-0.06648682,
-0.1081,
-0.1035698,
-0.02117479,
0.01972581,
-0.09804846,
-0.1075674,
0.0165364,
-0.03235778,
-0.07311378,
0.02668254,
0.01105052,
0.0756522,
-0.02134866,
-0.09655713,
0.1078513,
-0.09888761,
-0.08097886,
-0.009066253,
0.065455,
-0.0208392,
0.05516128,
-0.03468375,
-0.03378719,
0.02427842,
0.09539434,
-0.06989723,
-0.08280079,
-0.008937213,
0.1031402,
0.06354518,
-0.07425226,
0.06279281,
0.04702298,
-0.04208996,
-0.07716807,
0.1067148,
0.05912323,
0.002865768,
-0.02637254,
-0.05059563,
0.0209629,
-0.08489538,
0.03971603,
-0.06360102,
0.08408873,
0.02567605,
-0.1005341,
0.07565273,
-0.0779617,
-0.05829979,
-0.02693383,
-0.06428186,
0.03623541,
-0.08113108,
0.07303973,
0.04390765,
-0.04458245,
0.05477551,
0.07267011,
-0.04943935,
0.005363775,
-0.1060899,
0.05245316,
0.1012064,
0.1030776,
0.03540047,
-0.01737463,
-0.1064184,
-0.02967371,
0.04105919,
-0.02064663,
-0.056972,
0.09888806,
-0.05487408,
-0.1000106,
-0.05124577,
0.06648269,
0.06421869,
-0.08079283,
-0.0804721,
-0.09413246,
0.07143954,
0.0187504,
-0.0347889,
0.05579291,
0.0385645,
-0.04971222,
0.02460905,
-0.005151519,
-0.0647833,
0.01915981,

 // Description of following elements Weights_L2Node027
0.07791202,
0.05187196,
0.07542934,
0.003157244,
-0.03440231,
-0.06902242,
-0.09053655,
-0.007995719,
-0.08847561,
0.0193818,
0.07368544,
-0.09947333,
-0.02493071,
0.006474791,
0.03211737,
-0.08459902,
0.05580188,
-0.02293652,
-0.100607,
-0.09470547,
-0.1060901,
0.01643408,
0.05657457,
-0.08940373,
-0.09463269,
0.03034034,
0.08765993,
-0.01948035,
0.06098835,
0.001297753,
-0.05144053,
-0.02615399,
-0.005944896,
0.04758237,
0.01720609,
-0.007022211,
-0.05223066,
0.03103741,
-0.09996191,
-0.09512457,
0.05188687,
-0.1035287,
0.03228271,
0.08401427,
0.08655866,
-0.0445827,
0.06771997,
0.01461298,
0.09375735,
0.06462939,
-0.04835192,
0.1079153,
0.04909764,
-0.04620013,
0.01982157,
0.05393478,
-0.01077418,
-0.09935425,
0.09866018,
-0.003657592,
-0.09023903,
-0.09673218,
0.02833736,
-0.04224763,
0.0520109,
0.01362528,
0.04600046,
0.0315374,
-0.04181763,
0.00943532,
0.06441204,
0.03855343,
0.102603,
0.03469384,
-0.05487316,
-0.01065175,
-0.05370612,
0.05639961,
0.004808925,
-0.08473755,
0.04033491,
0.03519424,
0.08784603,
-0.002207126,
-0.007936938,
0.03538085,
0.09472348,
-0.03748474,
-0.1032275,
0.05912422,
-0.08987832,
0.007718211,
0.06459786,
0.01028929,
0.06556319,
-0.03992873,
-0.02240846,
-0.006351809,
-0.0510893,
0.06004524,
-0.001279725,
0.02747772,
0.002650358,
0.07458299,
0.06516862,
-0.0009368465,
0.07948735,
-0.000625593,
0.09998237,
-0.09248436,
-0.02653796,
0.01968539,
-0.06152001,
0.03819949,
0.03618006,
0.05518844,
0.06089024,
0.02507995,
0.06709733,
-0.04544815,
-0.05191783,
-0.09520952,
0.04804885,
-0.01167929,
-0.08143269,
0.04514547,
0.1043391,
-0.01316947,
-0.07108317,
-0.1065297,
-0.04823814,
-0.01143283,
-0.09952407,
-0.0958984,
-0.09875138,
0.03363856,
-0.101445,
0.07820924,
-0.06579765,
-0.05824189,
-0.08797338,
0.08995963,
-0.0729942,
-0.03172918,
-0.0906245,
0.0209107,
-0.02461503,
-0.006249268,
0.1053727,
-0.07279986,
0.09629049,
-0.008216069,
0.09572677,
-0.03669726,
0.08420795,
-0.101367,
0.04593297,
0.07710311,
-0.0456531,
0.0260852,
0.1039849,
0.001637211,
0.06745979,
0.04094409,
-0.1003198,
-0.08385736,
0.1054296,
-0.05204418,
-0.09271544,
-0.1048026,
-0.0001622825,
-0.06217181,
0.06554175,
0.01504506,
-0.0368463,
0.003501556,
-0.0187511,
0.009308994,
0.1016428,
-0.09204992,
-0.09803401,
-0.04870206,
0.02535833,
-0.02225845,
0.04478388,
-0.02436291,
-0.0810601,
-0.03117646,
0.07318414,
0.04741354,
0.01442947,
-0.04770013,
0.01847509,
-0.02399911,
-0.07075137,
-0.1030036,
0.0897637,
0.07496181,
0.08027255,
0.05463365,
0.02426576,
-0.06473013,
-0.05259139,
-0.1061773,
-0.03479384,
0.05399437,
-0.04728572,
-0.1074184,
-0.1016515,
0.04145055,
-0.04931924,
-0.08689134,
-0.02566264,
0.02887002,
-0.03441956,
0.028349,
0.03315662,
0.09021071,
0.04723937,
-0.0838009,
0.04005917,
-0.05676069,
0.0818854,
0.02805619,
-0.09601126,
0.04322599,
-0.01504575,
-0.05745872,
0.03544686,
0.01978557,
0.05532992,
-0.03746042,
0.05033674,
-0.1018931,
-0.08474465,
0.08191035,
-0.03714654,
0.1042565,
0.01995786,
-0.05206836,
-0.03197961,
-0.002727605,
-0.04834919,
0.06539938,
-0.05068113,
-0.06703992,
0.05266147,
0.03886998,
0.04349454,
-0.07275075,
-0.02483583,
0.02931877,
-0.07512695,
-0.0729071,
0.06739651,
0.06990211,

 // Description of following elements Weights_L2Node028
0.08174465,
-0.08249955,
0.03056564,
0.01351593,
0.07729539,
0.05362139,
-0.1015752,
0.07654497,
-0.006768852,
-0.003057149,
0.003419721,
-0.02414889,
-0.02505034,
-0.06391279,
-0.08470648,
0.04655784,
-0.1034231,
0.1077497,
-0.09181568,
-0.02331432,
-0.03636014,
0.03326459,
-0.001454202,
-0.1032048,
-0.09943452,
-0.02079661,
-0.006681746,
0.0982547,
-0.04568988,
0.03428751,
0.03618918,
-0.1060965,
0.04678469,
-0.006114623,
-0.08918227,
-0.009818357,
-0.02824268,
0.09648722,
-0.0550249,
0.06351879,
0.08741566,
0.08821458,
-0.05941458,
-0.03591053,
-0.1046032,
-0.01784569,
0.06846508,
0.07383691,
-0.09005418,
0.1017123,
-0.07552891,
0.05975542,
0.0005231511,
0.04875479,
0.06095272,
0.09788549,
0.02351108,
-0.04237208,
0.08561449,
-0.03078487,
-0.08261228,
-0.03005666,
-0.01372131,
0.0447137,
0.08541033,
-0.08446405,
0.0806014,
-0.0893467,
-0.06155397,
-0.10662,
-0.02276853,
0.03767275,
0.06269266,
0.004158066,
0.01202122,
-0.001399577,
0.09425592,
0.08481713,
0.01809248,
0.00316526,
-0.03238623,
-0.07166281,
0.03188243,
-0.07559456,
-0.0795839,
-0.08576696,
0.06941662,
-0.08509832,
-0.03022893,
0.05581767,
0.07966579,
-0.09164293,
0.01442158,
-0.03335325,
-0.07112058,
0.07096268,
0.02000348,
0.06821853,
-0.03432282,
0.08701487,
-0.0830638,
0.01981363,
0.03146753,
-0.09515468,
0.06782737,
0.0992893,
0.05601033,
-0.001753831,
0.02012442,
-0.02754063,
-0.07619738,
-0.04506897,
0.02964623,
-0.01097776,
0.07943123,
0.04192767,
0.02246875,
-0.02368948,
-0.006088877,
-0.04569605,
0.1027441,
-0.09067532,
-0.01558785,
-0.09059499,
0.07638661,
0.08311725,
-0.05926792,
-0.004576791,
0.0300136,
-0.02030943,
-0.08856189,
0.04360332,
0.06144163,
0.04006792,
0.04319469,
-0.03664024,
0.0375213,
0.06947232,
0.08318628,
0.06119926,
-0.007308397,
0.06236429,
-0.04890816,
-0.09366564,
0.1048663,
-0.007406817,
-0.07592273,
-0.0275606,
-0.02088568,
0.01270073,
0.06382655,
-0.05059975,
-0.02962743,
-0.08215226,
0.003714852,
0.06391523,
0.08732271,
-0.07782473,
-0.05919844,
-0.04186274,
0.000790998,
-0.06050192,
-0.02737607,
-0.02556591,
0.05112122,
0.06721254,
0.05438099,
-0.06439011,
-0.09699446,
0.1020232,
-0.1059144,
0.002460364,
-0.076762,
0.008116907,
0.08562843,
-0.009976696,
-0.07173266,
-0.02687795,
-0.05030867,
0.1052362,
0.08637715,
0.02828847,
-0.04106521,
0.01275939,
0.05936755,
-0.09046332,
0.04932312,
-0.0102494,
-0.07690363,
-0.08923064,
0.08594277,
-0.009952345,
0.08415926,
-0.02050245,
0.01111229,
-0.08953876,
0.0599921,
-0.08047485,
-0.08347237,
0.01409269,
0.1013619,
-0.01652764,
-0.0002379801,
0.06201526,
0.01819078,
-0.0065109,
-0.005827476,
-0.03476031,
0.02767219,
-0.08111025,
0.01249303,
0.09047171,
-0.03522101,
-0.03730472,
0.01658325,
0.04074331,
0.02729655,
0.09304661,
-0.03650722,
-0.01799747,
-0.03554755,
-0.05677219,
-0.02160237,
0.09827361,
-0.06641794,
0.02342614,
-0.07478923,
-0.05266995,
0.06486362,
-0.05764426,
-0.0281572,
-0.03952672,
0.08350839,
-0.1022055,
0.02818588,
-0.05795045,
0.0461083,
-0.09182286,
0.1018291,
-0.02075913,
0.07159557,
-0.04636599,
-0.1050057,
0.01646723,
-0.09579044,
0.02261977,
0.02537004,
0.06121436,
0.009747801,
