-0.0374802035303029
0.400812093314015
-0.273011186212427
-1.11928880954768
-0.563443914226772
0.426688795533248
-0.111095938000479
-0.988546128438514
0.0196996633766022
-1.10585630032246
0.0434988522313555
0.452373749521316
-1.12148312114101
-0.00589405670924725
-0.00753402595152063
1.86626598949291
0.0900770414711495
-0.436270009691665
0.0412738810213452
0.279966369127153
-0.638123612533157
-0.290833188607708
0.342625963407845
-0.956333585114905
-0.469612812911498
-0.0122764974628291
-0.960087716741161
-0.222276773716569
0.276714731095633
-0.196070764241734
-0.0299987765061758
-1.0285813203109
-0.385959997336758
-0.817137525473875
-0.336587042881006
-0.31683287515681
-1.42793634603628
1.92230039016561
0.268628787935151
0.166971483949193
-0.246942956128
-0.472683507643391
-1.30980093589851
-1.10349232554787
0.745251142531646
0.0948482394903722
-0.730187981809329
-0.886839237611956
0.839861839646462
0.256345812475773
0.380412836106337
0.206922005731854
-0.0230925067220963
1.51722372217099
0.105823290434573
-0.175671602582232
-0.553070909873049
-0.0078644799161781
0.686484973311066
0.534436869751584
0.646169015268796
0.0787184031705967
0.430668014597246
0.632202489271152
