0.864784207195887
0.346997904957191
0.706947174710366
-0.484027502261999
0.227133313189658
0.432575623771638
0.413873501245634
0.116101608132587
-0.472498702907301
0.364857649143617
-0.0615172211732575
0.168359281947531
-0.381713837942975
-0.778892411389084
0.290694542210148
0.800946329767291
0.0588297367462032
-1.02031821752362
-0.476715425113875
0.667071826659226
-0.29754231036313
0.465597323171359
0.389269204124962
0.41361056430282
0.0958446628141403
1.00362515532069
0.295024116030577
0.75505394293167
0.256706936621647
0.0590051924074361
0.118898391620381
-0.186755710080553
-0.0337265451919604
0.295565679867402
0.532007690223972
-0.269627308020555
0.918907600747045
0.472830384060114
0.766970665873085
-0.668458537134627
-0.449351359896542
-0.374335011946425
0.492873941208947
0.636438262985516
0.423444498746095
0.595647189501135
0.14727388989241
-0.73738521611899
0.239453057822401
0.671148447349863
0.646554325774207
-0.696514085716368
-0.232077647143695
-0.802097675110484
-0.748997773587412
-0.739194304335669
-0.138550788825843
-0.24801170087103
-0.386788071642004
-0.4466927928764
-0.302143031941496
-0.804589598910786
0.927387165834158
-0.631641291820245
