0.106445533993655
-0.58374169742304
0.0129213875701541
-0.810003635733832
1.19439909774947
-0.623969263656187
0.0633916324149905
-0.54957297666775
-0.167148384579049
1.06876706862543
-0.105851352681332
-0.107052496302483
-0.649070666838625
-0.210303642894593
0.0207154755894156
-1.633003246351
-0.318795424399013
0.310091029731945
-0.597066392422211
0.578384921287672
-0.745201459019396
0.333710564659114
-0.85585418585965
-0.307005370724487
-0.111546071590276
-0.0169926356733825
-0.185366253263229
-0.224209465204041
-0.0808431846353007
-0.778231322880783
-0.747943274596803
-0.904389393446773
-0.0218097271646405
0.0825849107056415
-0.432999057212298
0.154311887290071
0.000697310583607989
-1.43674163984839
-0.119363511293084
-0.068977680192025
-0.277136178665724
0.237408227518476
1.54181016823576
0.00513912159228344
-0.00706195792139346
1.04605914547511
-0.526876521059616
-0.458450081128009
0.891023223546062
0.738725188507709
-0.05796275745796
0.265703257606875
-0.0290283332825541
-1.10303053001634
-0.698761520512816
-0.382775029980601
1.04297181609872
-0.0887087582656988
0.23822334711177
0.668036934617042
0.145793071893184
0.725490355993072
0.456575936435143
0.897761387675839
