0.914052958920809
0.436300208052812
0.647885751878806
-0.0167776654286183
0.00997107837975011
-0.0409660850953335
0.324583286643607
-0.0878523843268278
0.443732919393576
0.748219971903393
0.298919546614109
-1.09668662023514
0.152019834575422
-0.776980416322476
-0.341236836529978
0.379871553107221
-0.359024919639795
0.0527251535286991
0.259787857525392
0.255131107326039
0.211613560972827
-0.828914989135959
0.626019156874397
0.0668391054522272
0.965221419217153
0.485513600794367
-0.28981801967128
-0.730343619582367
0.0581952007410682
-0.492776436471093
0.0586080353634663
-0.190841955125679
0.106491144533814
-0.440961903143992
-0.0211652715388751
0.396610288094843
-0.739128536576825
-0.968887724054708
0.335690561416149
-0.437632188299815
-0.403572474623247
0.626360573408196
-1.37848989201195
0.370223571024466
-0.0365318228094574
0.00755453992218958
-0.106879518869687
0.789724016559258
-0.460694237949703
0.687735609154476
0.404405356862019
-0.734771905034421
-0.128306861082353
-0.659851197075228
-0.454178387524187
0.782929420358288
0.598927234445009
0.479041909908158
-0.322496011247898
-0.11983690161259
0.239088441131459
-0.385189654195625
0.0483518052793663
0.124934876456624
