1.1691658403764,2.00754465139853,1.59233233142626,-1.80839366469804,1.27163442228209,-2.62021538862813,-2.42333893247541,0.982331401626436,2.68913058710198,1.33838191591949,-0.85402060404173,2.02739065115581,0.647733386324527,-1.39816101068331,-1.56583577607677,-1.33953904926772,1.77135437997089,-1.27046161975911,-1.63893786572055,0.386176107284096,0.769477021530327,-1.66149749485282,-0.209643724063428,-0.168776783582919,1.19251029281246,-6.22286160075232,0.53541662369581,-2.56581414577691,-0.322932436714938,0.393597531969833,-0.552548259573071,-0.566519067202292,-0.122322507327756,0.172553528637681,-0.164666620920575,0.153242504728568,0.348139281058923,0.290379710423309,0.358186423077666,-2.02653617513921,0.81385363339411,1.11326968503398,-0.525525237324464,1.00871358331075,1.91042018036025,-0.932868026684692,0.108913883840907,-1.43885197238234,-0.740960147716222,-1.01948750559802,1.55506786153791,2.71797413346003,-3.57122627025726,-1.01499641099996,-1.54326397732356,2.47788434746494,1.23782380277274,2.74068580895266,-1.57051178571853,1.81519137375678,1.54979819069907,2.05550316413821,2.28350732668422,-1.68456319290652
