const double network_biases_5[] = {

 // Description of following elements Bias_L1Node001
0.625880938255933,-0.673004106021527,-0.766085887047866,0.532025737269493,-0.562086204592642,-0.574655836224262,0.578078237355001,-0.399017174952008,-1.05807275281525,-0.238157275555522,-0.276403564156449,-0.130118341903702,-1.00048166031448,0.360883990212981,-0.345699005824458,-0.0959895697952608,-0.675794484701951,-0.522067205511888,0.105386696098033,-0.0878079620350543,-0.761449688789703,-1.02267785155338,-0.556336894350891,-1.12273279082747,-0.925380371498419,-0.888577838963982,0.10303975420308,-0.192460771136247,0.112042483881087,0.709708736040932,0.39195403268905,0.0842561990988144,0.0358093979282471,-0.714313099007572,1.04120002709676,0.18553877200128,0.299847646406348,-1.13986024660761,0.735187498330828,0.126014655518158,0.794332760283981,-0.228647203644149,-0.632215810035245,-1.02634004014899,-0.0626704289624135,-0.643379789224121,0.381181801557106,1.05283671419709,-1.0512777352822,-0.429625582267217,0.47668348381706,-0.333767482723929,-0.246090290625615,-0.790840881552734,-0.265181787350058,-0.950775579577112,-0.0264473046173601,0.582765995171388,0.607023743531239,-0.733756642420819,0.600608645565681,-0.0506115048756123,-0.260081233550555,-0.0144119077549352,

 // Description of following elements Bias_L2Node001
-0.624286806217066,0.313894084800208,-0.48802832941117,0.26879691900705,-0.629062887220528,-0.059780403542617,0.494220077400864,0.202541835099625,-0.437289944702466,0.354008777968226,-0.313016235706424,-0.786222096424888,0.299627422300304,0.795561382974453,0.746720211211272,-0.794204724461434,0.410823531430802,0.274180752513164,0.00533775316189969,-0.234817323011952,-0.356213473588542,0.566524864253767,-0.458999025902352,-0.321020123295539,0.121685204723467,0.202225040039224,-0.147761044997186,0.699727819905814,0.91173533768561,0.647744094647891,0.395229812024327,-0.786478356953955,-0.83645812517811,0.647087499199469,-0.370114300321739,0.707409563931893,0.00894387260284613,-0.900691462047902,-0.605427385808323,-0.724285910854695,-0.199110967815679,0.761169015261565,-0.830392232218852,0.774292014220617,0.866465734031146,-0.51514848196633,-0.979504556281001,-0.10248028548743,0.157880572352211,0.426611757365476,-0.35822859993968,-0.929372917652941,0.696618548992032,0.646538357251527,-0.343525497641286,0.496155076034193,-0.173300079758069,-0.0406864444110277,0.0906336062633406,-0.521174637252694,-0.760535575768822,0.166611599614753,0.339120334366874,-0.564908762453408,

 // Description of following elements Bias_L3Node001
-0.420062880302391,-0.254077820421947,-0.568525500821989,0.969816743420275,-0.998365019659494,0.355099885544475,-0.270492357517868,0.4014586206023,-0.744413969460717,-0.852623422838786,0.127391246953305,0.785962352040144,0.196142373505458,0.575525506860777,-0.910783721420301,0.207668471239924,-0.249714510804789,-0.751067226455301,-0.75761492137168,-0.927973106276303,-0.192527908474427,0.963794949130331,0.764216809345546,0.189626762388995,-0.196725237036178,-0.981637801614523,0.51835879952331,0.392650514230899,-0.924039629820554,0.442817668881977,0.622725091485043,-0.878519454082007,-0.0268006995630978,0.9768580179527,-0.220468230334549,0.418380387609801,-0.572629961833172,-0.0387905872787575,-0.896784013631994,-0.929833529024614,-0.0407162575461047,-0.410312896385784,-0.914396349066984,0.401238530236598,-0.395457753359527,0.563872166982934,-0.66416609304794,-0.965973471429724,0.551197796832314,-0.187879349632802,-0.0431531603965586,-0.507467599602005,-0.243269283092956,0.680189388304019,0.729091054137313,-0.515810319615767,0.393646632233858,-0.481104970688306,-0.123027881804732,-0.807498782070811,-0.390230093565342,0.924993717471291,-0.168136315821589,0.847174727285088,

 // Description of following elements Bias_L4Node001
-0.490389844051794,0.216884672913481,-0.0689079780187331,0.469935649005028,-0.609563673392545,0.111733286911259,-0.0819572906460984,0.944995741880742,-0.351580139183412,-0.595731734856283,0.134515068047253,-0.0323828808481337,-0.416372750084767,-0.19340756790207,0.00551676984033134,0.578607018129711,-0.814319581520045,-0.597030479175598,-0.956785036382237,0.35348052025435,0.470939746442961,-0.704933787446036,-0.377198605654306,-0.341488101506343,-0.632211682204138,0.377335288562613,0.127890041190412,0.0884138968662107,0.867100779207802,-0.927103662310136,0.322484437505601,0.550345897505672,0.291730808424389,0.969455254257506,0.909179015430156,0.490483360958716,-0.806806510879647,-0.0593616740929214,-0.796481262792482,-0.257586027286634,-0.855625308087534,0.822609645838249,0.198940475048767,0.960759388909743,0.814880147688297,0.00450955879823633,-0.909150593862229,0.399085197380793,-0.851933574729875,0.0651230680605033,0.259164868183033,0.704572131368182,0.256172122543487,-0.845782255404822,-0.410190772219286,0.766458803310886,0.46098389928987,0.180133613305937,0.248752515613313,0.519597715222004,-0.50540070637054,-0.554275088894854,-0.440770205774246,0.548627330586014,

 // Description of following elements Bias_L5Node001
0.250756047688475,0.387982480530945,-0.162658244915552,-0.712685575025466,-0.375134169245136,
};
