0.007124688
-0.04991956
-0.0978846
-0.08345331
-0.1071411
0.001678212
-0.03045474
0.07673834
-0.01278393
-0.006029278
-0.06312491
-0.0198634
-0.03327095
-0.0503129
0.03021808
-0.0876279
-0.03034758
0.04579411
-0.1058606
0.0291528
0.008736327
-0.04573272
-0.02200189
0.02142861
-0.0460423
0.02460905
-0.07512695
0.07585345
0.07195979
0.06870472
-0.02043333
-0.101578
0.06736098
-0.09225327
0.09937896
-0.01483162
0.05222683
0.0303233
0.101226
0.09882569
0.06269379
-0.09614009
-0.09571106
-0.01123044
0.01190967
-0.04256655
-0.07514849
0.01853586
0.04310688
-0.02051366
-0.03605766
-0.07982716
0.04502735
0.06276448
0.09912682
0.0199857
0.02715572
-0.05235333
-0.02824667
0.03109292
-0.06001205
0.07378466
-0.08520842
0.09191184
0.001326056
0.0849007
-0.09005311
0.06804708
0.04923919
0.09735104
0.06894235
-0.08594523
0.1040762
0.0101275
0.01179678
-0.08300889
0.09980548
0.08297226
0.03610748
0.02729853
0.0270236
-0.06716464
0.02225569
0.07370567
-0.07723053
-0.07713281
-0.05142705
-0.1009796
0.007885463
0.01644299
-0.08693205
0.04146235
-0.003097811
0.03951279
-0.06237757
-0.05938984
0.01145853
0.0848532
0.0552643
0.04367242
-0.05684647
-0.03075253
0.07626146
0.09452622
0.0834685
-0.06361087
0.06779033
0.1059657
0.04919864
0.02383518
0.007681967
0.04815679
-0.03833801
0.04827999
0.02663588
-0.01288402
0.009940108
0.008228572
0.02130517
-0.07791422
0.04722577
-0.07796174
-0.02855118
0.06173268
-0.06332424
0.01501609
0.06152973
0.02893409
0.08519407
0.07306885
-0.105306
-0.003016517
0.06180404
0.02412133
-0.03530855
0.02397185
0.008778031
-0.05859506
-0.09344191
0.07779787
-0.08833958
0.1077298
0.02797268
0.04324671
0.03614238
0.03440753
0.04025862
-0.09276473
0.0858574
-0.01831875
0.03121986
-0.09225601
0.04593271
0.08061354
0.04384907
-0.02959048
-0.07734033
0.05720589
-0.002018945
0.05549726
0.08025958
0.09901033
0.02260723
-0.03905454
0.02055125
-0.07055083
-0.05195673
0.04761523
0.05268579
-0.07393532
0.09767579
0.06997368
-0.0514608
-0.0357253
0.09842273
-0.0656522
0.03933393
-0.02375425
-0.02555379
0.03874812
0.1066896
0.04740744
0.03438311
0.05002767
0.05884064
0.04253416
-0.0874529
-0.07439879
-0.0526862
0.000389466
0.000569378
0.02687865
-0.1080088
-0.02405249
-0.04493853
0.06335878
-0.05951296
-0.05655231
0.01129177
0.02000295
-0.06658265
-0.03509488
0.01347762
0.05331335
-0.07505391
-0.07950043
0.002115931
-0.04135101
-0.02891951
-0.08396845
0.08667804
-0.02381821
0.04782454
0.04891102
0.06337366
-0.007503233
0.09716215
0.02958748
0.07844805
-0.09537893
0.03130833
-0.02497025
0.0687567
0.04589065
0.01904396
0.07489018
0.106438
-0.01764865
-0.1082068
0.005356441
0.05412379
0.04318107
-0.07413573
0.07798076
-0.102965
0.06686942
-0.03328518
-0.02814186
-0.04261784
0.08917149
-0.03154845
0.05069773
0.1011164
-0.08621824
-0.02695527
-0.09187852
-0.005572011
-0.07068692
-0.01878691
0.09787088
-0.1003647
0.08189076
0.1063716
-0.01565597
0.007109772
-0.09751325
