-0.0869265
0.09913918
-0.0061209
-0.001845978
-0.08496454
-0.06677654
0.01058266
-0.1074025
0.007263053
-0.1071109
0.082369
0.00201928
-0.09215366
0.0250173
0.08805344
-0.02506285
0.01383404
0.02100402
-0.06560411
0.08557356
0.02322987
-0.02243007
0.007284455
-0.08006658
0.04416928
0.1081902
0.06459786
0.01442158
0.001986197
-0.09168212
0.03501551
0.08756609
-0.1061463
0.05470416
-0.07164802
-0.07151976
0.01367131
-0.0414551
0.0646254
0.08706845
0.04488111
-0.05518848
0.05714503
-0.07253052
-0.07582884
0.09105004
0.04121825
-0.1048715
-0.01125707
0.06983139
0.03076651
0.004200309
0.009371575
-0.02728019
-0.04858403
0.04398615
0.06115638
0.04395387
-0.02783318
-0.02202867
-0.08586966
-0.08740994
0.08469454
0.08309231
-0.003667243
0.06594018
-0.08512112
0.02316014
0.05661025
-0.04396508
-0.05350765
0.09101348
-0.09783405
-0.09444083
0.03316059
0.03463923
-2.051422e-05
0.02455333
-0.04327035
0.06472447
0.01128923
0.08461483
0.04781497
-0.09810735
0.04754832
-0.05181284
0.06097392
0.03654187
-0.04712463
-0.02871916
0.0356841
-0.05184234
0.06699696
-0.05399213
0.1060637
0.07450989
-0.01963612
0.07334774
-0.1050261
0.007577123
-0.00817515
0.009486932
0.03084349
-0.003843656
-0.1062521
-0.08814568
-0.0001910484
-0.08369578
-0.06578346
-0.09029249
-0.1061397
0.03204695
0.004792218
-0.08197734
-0.06220491
0.02961877
-0.06213414
-0.04237591
0.0003269998
0.05234822
0.01505428
-0.07047588
0.01020355
-0.05343981
-0.04694928
0.07236522
0.09839012
-0.0333112
-0.06587829
0.068482
0.05516634
0.02298213
0.09496403
-0.07869106
-0.01753808
0.03025218
-0.01959628
-0.04401712
-0.0386589
0.1005534
-0.08122102
-0.02770231
0.1041487
-0.04023847
0.09257953
-0.06958251
-0.05565473
0.07666088
-0.002654664
0.009796465
-0.03869054
-0.05096464
-0.06305508
-0.008473156
0.05241182
0.06679671
-0.03269068
-0.02672569
-0.05306663
-0.05774577
0.08902872
-0.02159729
0.04409049
-0.01956426
0.04032302
0.01366271
-0.07143052
-0.0917232
0.05712645
0.00301141
-0.03664949
0.07095573
-0.01366115
0.09108842
-0.06965505
-0.03007939
0.0006200472
-0.08303171
0.09268706
0.04698804
-0.1050117
-0.08950292
-0.04693949
0.03738052
-0.05708153
0.03921805
0.03333778
-0.01244485
-0.08520839
-0.09070435
-0.1058348
0.05335235
-0.04127269
-0.02409046
0.08182432
0.07067762
0.006072867
0.04784327
-0.02802362
-0.09484058
-0.02670466
0.03792004
0.02387252
-0.01808098
0.1014848
-0.006401063
0.09829114
-0.0651383
-0.01680439
-0.06343435
-0.03247433
0.1031486
0.09774699
-0.09529041
0.1021877
-0.1076567
-0.0624349
0.0665259
0.01092076
0.01680454
0.06178438
0.06449705
-0.03225479
-0.0486003
0.01503803
-0.07062533
-0.06827889
-0.02000966
0.0745308
-0.03023057
0.03647715
0.04848765
0.02519386
0.04320277
0.03277543
-0.01438533
-0.03253274
0.0264546
-0.0430812
0.01132797
0.06659549
0.04597323
-0.08726489
-0.05318208
-0.05069844
0.04230836
0.004246441
0.07132224
-0.0340307
0.006198022
0.1046549
-0.008106666
-0.07933379
-0.0891938
-0.08461211
0.003922594
