0.02242528
0.07133231
0.02835898
0.04068305
0.0237523
0.008777638
-0.08976811
0.0773982
-0.03680655
-0.04329896
0.06238543
0.07944409
0.07248294
-0.04594992
0.02520544
0.1036903
-0.05210431
0.08374499
0.1081533
-0.09118282
-0.08925823
0.06599163
0.03773699
0.07284202
0.07738487
0.07303973
-0.0838009
-0.01799747
-0.04273234
0.005054004
0.07780758
0.03282644
0.04142575
-0.09628293
0.03869582
-0.06605943
0.02683063
-0.06076182
0.05613412
0.05267973
-0.04901272
-0.09882948
-0.03014434
-0.005573755
0.05239804
-0.04569241
-0.06180292
0.06587082
0.01290679
-0.01824791
0.1045127
0.08059756
-0.02309412
-0.02965847
-0.05976047
0.04945564
0.06827038
-0.1028436
-0.1027109
0.04796703
0.0809169
0.04654332
0.05596933
0.03820987
0.03580358
0.09960023
-0.06939947
-0.01089413
0.05642954
-0.09761617
-0.05341805
0.03487418
-0.06156674
-0.06791421
-0.02568336
0.03141291
-0.09216021
-0.0426725
-0.03562342
-0.05589902
0.03533904
-0.05773214
0.08732487
-0.1033358
0.09080225
-0.106397
-0.09674342
0.01546971
-0.03031767
0.04551363
-0.09588591
0.08313242
0.001611475
0.09270815
-0.09323105
5.01129e-05
-0.008670214
0.05959101
-0.04290972
0.04148603
-0.08262174
-0.1075824
0.06178131
-0.002392179
-0.0149616
-0.06460506
0.07765276
0.0913408
-0.08516667
-0.04410612
-0.08489878
-0.09306484
-0.09043644
0.06133271
0.01615247
-0.06335281
-0.04055926
0.0465633
0.04379464
-0.05968369
0.05798738
-0.1055103
0.05476246
-0.1077154
0.03123026
-0.09013244
0.04311528
0.01098749
-0.0987353
0.08983233
0.06283066
-0.09530241
0.09741364
0.05583314
0.08877894
-0.09751312
-0.08643067
0.04235739
-0.1055985
-0.09057815
0.08564094
0.04063295
-0.05190918
-0.08605728
0.03783175
-0.03760945
0.1038462
-0.06622362
-0.03356775
0.01228907
0.02958161
0.09884472
0.04739126
-0.07546921
-0.09502789
-0.08919495
-0.022638
-0.00485114
-0.0718767
0.04940379
0.08159427
0.01872756
-0.1006577
-0.06477444
-0.02500752
0.03293177
0.08535417
-0.05727747
0.06063893
-0.005580416
0.06890852
-0.04505661
0.06050239
-0.05318218
0.07900548
0.0009537221
-0.0648561
-0.005691013
-0.08619009
0.003571383
0.07766689
0.0547871
-0.04534954
-0.09197488
0.07173923
-0.05400212
0.08611246
-0.02714356
0.08438711
-0.0540798
0.07466847
0.06319445
-0.06271237
-0.07463787
-0.02605268
0.02417848
0.0930406
0.07400915
-0.007342356
-0.03198062
-0.05181717
-0.1076922
-0.03048509
0.07448772
0.09791248
-0.02428459
-0.04658803
-0.03665667
0.01194319
0.07645484
-0.01066859
-0.06689717
-0.04849266
0.07957611
-0.05077495
0.05204745
0.09868988
0.06896725
0.003592746
-0.0428153
-0.09733154
0.03673343
0.07214444
-0.01756706
-0.08044329
-0.09152623
0.004009865
0.01191383
0.09238171
-0.06858984
-0.01453977
-0.08045398
0.03752238
-0.03693634
0.03949255
-0.08871096
0.09678081
-0.02557001
-0.04909911
-0.09350084
0.0731178
0.0467733
0.06572349
-0.05685448
0.1075298
-0.04025979
-0.07369482
0.08695188
0.09474153
-0.02855262
-0.03903902
-0.10377
-0.06965916
-0.08583427
0.03455023
0.0994601
