0.06492922
-0.04232777
0.07767577
0.04482205
0.0700238
-0.08360334
0.02739855
-0.05789442
-0.09406559
0.09006237
0.0759355
0.07271031
-0.09321631
-0.06354859
-0.03381786
-0.04445039
0.02112732
0.1015765
-0.05754511
-0.01092849
-0.05658553
0.1070582
0.06390917
0.07469425
0.06124013
-0.04478506
0.1013789
0.1052931
-0.06424274
0.03991446
-0.01311734
-0.05447897
-0.01532942
0.05229454
-0.0933542
0.08684929
-0.02828384
0.006804381
0.08340615
0.01257174
-0.0660762
-0.007280103
0.047862
0.0067215
-0.02351064
0.05230072
-0.02202215
-0.04625118
0.06122059
-0.05688421
0.1051954
0.03901071
0.01558412
-0.09894796
-0.07454484
0.005342424
0.08741126
-0.08146852
-0.03772458
-0.08966218
-0.03312221
-0.08631878
0.02678527
0.1046949
0.03193437
0.04826669
-0.04409124
-0.004366587
-0.1069924
-0.004043623
0.09016582
0.04889955
0.008774406
0.09149088
0.1007055
-0.0992313
0.05270911
0.07000624
-0.08260631
0.02493527
-0.08459465
0.03704175
0.005940809
0.07323855
-0.06452533
-0.02313303
0.03940714
0.09240565
-0.02761353
0.08257502
-0.07432658
0.01233877
0.09774699
-0.1003383
-0.0186562
0.005323116
-0.07469081
-0.07368606
0.09408418
0.03233769
-0.08298621
0.03298274
-0.008094165
0.0610417
-0.05168117
-0.005755757
-0.05810243
-0.07627548
-0.05923959
0.09584767
-0.07652606
0.001621874
0.004448362
0.005677079
-0.01972405
-0.07412289
0.03693182
0.1028977
0.06885245
0.08128866
-0.07723848
0.07928728
0.03029078
0.03712771
0.06676427
0.06978495
-0.05225151
0.03332686
0.07847303
0.01616151
0.02864987
-0.04307751
-0.02481595
-0.0002520764
-0.06149525
-0.03195885
0.03822691
0.09158758
0.09685306
-0.01764982
0.1072252
0.08215848
0.0002491867
0.02225091
-0.1037534
0.07881598
-0.07476502
0.0553442
0.1056601
0.04251073
-0.09443128
0.02288558
0.1055699
-0.03980818
-0.05604588
-0.0674129
-0.008747965
-0.0619567
-0.04201724
-0.01947873
-0.0264809
0.08476523
0.101237
-0.04490667
-0.07773563
0.1063631
0.06284747
-0.07025647
-0.07628445
-0.1066865
-0.07727683
-0.09350579
0.05549632
0.03543534
-0.08980482
-0.0343455
-0.03480541
0.0001586839
-0.09067804
0.009158187
-0.03764409
-0.08454479
-0.0807163
-0.02087339
-0.0345206
-0.04360884
0.07975625
0.09772771
-0.005149991
0.009746933
-0.0659556
0.01083174
-0.07284597
0.09971078
-0.07340164
0.000746714
0.02130582
0.06974503
-0.02474437
0.05552769
0.04824774
0.1029929
0.03404679
0.03990221
0.0507841
-0.05475043
0.1061478
0.09640686
0.01160811
0.09209222
0.07491573
-0.0956057
0.009208346
-0.02341399
0.03703876
0.1027662
-0.06160858
-0.04845621
0.1032494
-0.04849266
-0.003467633
0.05968661
-0.04553935
0.07620649
0.09650985
0.02070549
0.03555391
-0.04999479
-0.09831349
0.07999314
-0.05588049
0.03538073
0.08051987
-0.07396293
0.02528271
0.06185848
0.03045261
-0.0358401
0.001117285
-0.05246451
-0.02558998
0.03286666
-0.104957
-0.08440893
-0.04299592
-0.04463644
0.04269231
-0.09839676
-0.007095378
-0.0104759
0.003539517
-0.0196685
0.04782454
0.04702908
-0.08035869
0.02646761
