-0.03955406
-0.03203414
-0.002103044
0.0194746
0.08210558
-0.03691206
0.02387174
0.06212716
0.0825131
-0.03978622
-0.09190454
-0.05204592
-0.08156268
0.1048325
0.03475808
0.05165329
-0.06037592
0.006629449
-0.04830026
0.0695725
-0.08880503
-0.05071465
-0.07481408
0.1058456
0.02623343
-0.01140826
-0.08259268
-0.009806751
0.03431049
0.09085518
-0.09249037
0.0503757
0.04724406
0.01611654
-0.09673952
0.05386626
0.005294353
-0.0960001
0.03843541
-0.09744665
0.0255121
-0.09581224
0.01047443
0.0151509
-0.09821501
0.02426591
0.01874825
-0.08238916
0.04672425
-0.05767663
0.0535416
-0.01672386
0.02826602
-0.02791042
0.0353359
0.003343551
0.03505613
0.06937049
0.05278208
0.05052958
0.03787728
-0.1031995
0.08340631
0.005174412
-0.04105802
-0.07365917
-0.0807365
-0.02260339
-0.09468992
-0.0306365
-0.01733429
-0.0660012
-0.04357065
0.03815746
0.03425223
0.05044792
0.01678472
0.01755708
0.02532727
-0.05034656
0.02771963
0.03324462
0.07583627
-0.1067753
0.03493881
0.1011347
-0.009426152
-0.05455338
-0.07856832
0.01237054
-0.03881134
0.07917016
0.04698804
-0.1047041
0.02846002
-0.02162232
-0.0512615
-0.05876161
-0.004083374
-0.03340222
-0.04687303
-0.02071601
0.0919108
-0.07368428
-0.07902738
-0.05178092
0.08979398
0.01713051
-0.09861931
-0.05544963
0.0505831
0.0003558598
0.05058802
-0.09907447
-0.02132664
-0.03315056
-0.04239947
0.05448397
0.08194208
-0.02039256
-0.03357247
-0.04382231
0.04633716
-0.05391129
-0.01267356
0.03355538
-0.009827346
-0.06743098
0.02635099
-0.007148582
-0.03276308
0.04430915
-0.08590656
-0.06709981
-0.07110206
0.08369728
-0.08404786
0.004727427
-0.0005998423
0.07317497
0.006971239
-0.05963885
-0.1027566
0.007192114
0.02955561
-0.004251657
0.02534386
0.03317373
0.0107882
0.02437126
0.0180652
0.07123484
0.004512109
0.03514227
0.04891047
-0.08730227
-0.1021961
0.000293265
-0.02228915
-0.00280361
-0.007012326
-0.01674624
0.08079466
0.05204776
0.08393764
0.01214083
0.01488221
-0.03154087
0.07215957
0.05051146
-0.06914421
-0.0786989
0.03369227
0.05027843
0.006876302
-0.0106478
0.02401773
0.0372351
-0.01311485
-0.006598685
0.09793699
0.02491282
0.04250287
0.05220963
-0.01246263
-0.01146653
-0.0601086
0.04170932
0.07179217
0.01557831
0.08588349
-0.03468122
-0.006434763
-0.06623743
0.03663889
-0.05086818
-0.05191806
-0.01606387
-0.03627574
-0.06008487
0.1073503
0.06974866
-0.02656334
-0.008126615
-0.1040368
-0.03991408
-0.09816904
0.06845222
-0.03914459
0.01261279
0.004002946
0.1006225
-0.005884605
-0.09040295
-0.04666569
-0.07150245
0.02010434
-0.07892027
-0.03090765
0.003571383
0.1008662
-0.05919609
0.04166166
-0.02237205
-0.01097953
-0.005372793
0.04010202
-0.04220467
-0.02948745
-0.005929234
-0.004242389
0.1027865
0.05973938
-0.07336842
0.1040846
-0.06855299
0.01905803
0.009235374
-0.1012456
-0.1024065
0.05844019
-0.0608297
-0.04966134
-0.05185599
-0.07205708
-0.1080001
0.05636779
0.1050488
0.003139594
0.01487282
-0.08946798
-0.04054366
0.03874812
0.005922541
-0.07505864
-0.007942699
