-0.0792041
0.03885894
0.1011803
-0.1023562
0.009021982
0.03125276
0.05230181
0.01923195
0.08739925
0.09228201
0.02750961
0.08819231
0.04285168
-0.1037792
-0.07084458
-0.01186262
-0.09973714
-0.07668126
0.04224167
0.02038464
-0.0001445844
0.05142965
-0.04299551
-0.03364326
0.04052652
-0.1008376
-0.01196312
-0.02376708
0.04590784
-0.01158196
-0.02511958
0.02657657
-0.1018046
-0.03078389
-0.01138146
0.06086607
-0.0383761
0.1011573
-0.02569566
-0.1054733
-0.01201777
0.02484769
-0.08867639
-0.05927552
0.0794431
-0.02253321
-0.06160516
0.02129382
0.02833712
0.08644992
0.03134666
-0.002033213
-0.08352599
-0.07996111
-0.0904977
0.08967759
0.0420379
0.008768446
0.02203541
-0.0630682
0.08605852
0.01313789
0.002181232
-0.08412319
0.0941533
-0.08936588
-0.06895499
0.02339441
-0.08864879
-0.06651302
-0.096319
0.07658687
0.06702466
0.05960935
-0.007190452
0.04174944
-0.05310421
0.04321964
0.08154964
0.02896878
-0.01890447
-0.008334085
-0.1041918
-0.09542757
-0.0857325
0.03940869
0.05807086
-0.06612555
-0.09702548
0.01401347
0.01934675
0.09307741
-0.08814568
-0.05720195
0.08869646
0.1054881
0.03374786
-0.01572913
0.07503355
-0.02731973
-0.0513722
-0.08194087
0.1071927
-0.03847108
0.02436966
-0.03998316
0.02172587
0.005399866
-0.01168863
-0.08227237
0.07659695
-0.01706687
-0.09773266
0.01555048
-0.08610614
-0.07447547
0.005523535
0.06137559
0.0535753
0.08738776
-0.06018879
-0.02222583
-0.07763819
-0.05863359
-0.02864476
-0.0568026
0.0169174
0.006712197
-0.03610045
-0.05834173
-0.01290572
-0.09258911
-0.0108588
0.02619995
-0.06830113
0.0995525
-0.0153333
0.08427949
0.04806164
0.1074592
0.08445607
-0.04984594
-0.04298336
0.05921674
0.0406663
-0.07853729
-0.04561151
-0.1066126
-0.05930013
-0.05550493
0.09807599
-0.09847571
0.06919421
0.06579713
-0.04209236
-0.03174943
-0.0154492
0.07050639
0.03446698
-0.07325292
0.07205602
0.08077639
-0.08088855
-0.08586357
0.04144695
-0.09607573
-0.02586309
-0.04811173
-0.006556094
0.09755246
0.0007309347
0.04315701
0.06235447
-0.07839758
-0.03963629
0.093618
0.04936645
0.08057583
-0.08861804
-0.03763862
-0.06568658
-0.00856883
-0.06337931
-0.07670993
0.0656565
-0.007365317
0.09916065
0.08811837
-0.03635374
-0.007179666
0.08843163
-0.06459943
0.04184191
-0.04003093
0.04777482
-0.02723183
0.05130668
-0.09428316
0.03494304
-0.01048093
0.005279791
0.0706417
0.1043335
-0.001383277
0.02504501
-0.02351707
-0.01451553
-0.03847132
0.03500187
0.03505753
0.003794796
-0.01017097
-0.00832369
-0.003510989
0.09890146
0.1071991
-0.05138299
0.06015396
0.09305938
-0.06460506
0.1069627
0.06219541
0.006226052
0.03590246
-0.08108207
-0.07640858
0.06766254
0.009230734
0.07882416
-0.07780547
-0.09155671
-0.06914023
-0.0632187
0.01715718
0.07270419
-0.09946798
-0.06390969
0.006846871
0.009229308
0.1062332
0.1072835
-0.05112279
-0.04224356
-0.04040479
0.0291074
-0.05424
-0.002179048
-0.02884408
-0.09974407
-0.02168602
0.02490497
0.03384398
-0.06361087
0.062218
-0.04867273
-0.0001629331
