0.07997974
-0.0581725
-0.01492064
0.1055675
-0.06994811
0.04674684
-0.1017036
-0.07423723
0.03425446
0.02328892
0.03445888
-0.01089563
-0.06555852
-0.06337614
-0.03282979
0.04422492
-0.08642121
0.01607737
0.07256638
-0.09576789
-0.0935607
-0.08335295
-0.09917512
-0.04630776
-0.05800578
0.09037042
-0.02714154
0.02694546
-0.002030701
0.04595307
0.0979643
-0.06688683
0.01929723
0.05310282
-0.03903544
0.04988331
0.02832341
0.08672702
-0.01833452
-0.04623348
0.09591238
-0.0374117
0.1076506
0.1022627
0.055669
-0.07443877
0.06762919
0.1035401
-0.02147755
-0.08433951
0.0109756
0.02977814
0.06301592
-0.09561147
-0.02851756
0.08324492
0.04136328
0.0149508
0.09514216
-0.04196538
0.06477119
-0.02336095
0.09636166
-0.05241703
0.01485577
0.08094175
0.03922043
-0.05425565
0.01919568
-0.02712621
0.1063828
0.04606739
-0.09557445
-0.01126567
0.05404966
-0.08755895
-0.04585656
-0.01023871
0.08144633
0.07393841
0.01644455
0.0607885
0.02663656
-0.0340631
-0.09613875
0.05825578
-0.02638803
-0.08624955
0.02526481
-0.05465956
0.104395
0.08894405
-0.00817515
-0.08730195
0.06694051
0.003127572
0.06643093
-0.1025952
0.03363509
-0.03257996
0.08589187
0.07605298
-0.07654091
-0.0537429
0.06183963
-0.009920382
0.06083421
0.06453616
-0.04803424
0.07878335
0.1081252
0.06575035
-0.07601766
0.01213793
-0.04562654
0.08178653
0.05687904
0.05486035
0.09727577
0.01521095
-0.08599515
0.02079501
0.0942101
0.100361
0.03363518
0.07637682
0.006174874
-0.07760824
0.05631257
0.04332716
-0.04741946
-0.01089735
0.07461104
-0.03197644
0.1000025
-0.07089908
-0.02397778
0.06664419
-0.04160358
-0.09111792
0.07307225
0.03312638
0.09712203
-0.06127749
0.02079176
-0.09113346
0.07173143
0.05158924
-0.03011613
-0.07300869
0.07769804
-0.1014665
-0.002177253
-0.06128005
-0.05129181
-0.09658401
-0.1048756
0.05516046
0.02664641
0.007220212
0.07013229
-0.05247873
0.06444336
0.04288253
-0.1059916
0.09756862
-0.02175701
-0.09962101
-0.0176503
-0.029722
0.03644786
0.008368289
0.08874653
0.06986738
-0.07348991
-0.0425387
-0.07408104
-0.03051312
-0.09541027
0.05581911
0.1075407
0.04324211
-0.04024876
-0.03443589
0.07129794
-0.06536724
-0.04904539
-0.02453697
0.02158037
-0.04812418
-0.1076473
0.06526757
-0.1066288
-0.0647947
0.007202461
-0.06347254
0.1002453
0.00129713
-0.09677307
0.09634101
-0.04213813
-0.002353082
0.0139096
0.08694094
0.04381185
0.02388027
-0.1017334
0.01198755
0.00733063
0.06219753
-0.0670259
0.0006442604
0.05596228
-0.0965672
-0.04679128
-0.01147638
0.04175802
-0.08439048
0.09713892
-0.08262174
-0.02345604
-0.03321894
-0.04553274
0.02470951
0.05677914
-0.05215948
-0.02130509
0.08934277
-0.09616401
0.09163073
-0.09696933
0.05645927
0.007112088
-0.1059778
0.08692216
-0.09411015
-0.04187424
0.08796821
-0.09961527
0.0402911
-0.05009674
-0.07011318
0.04561713
-0.02379658
-0.02296609
0.0106965
-0.001739453
0.01681241
-0.004331413
-0.08064252
0.0683291
-0.1015428
-0.05684647
-0.05429072
0.08598121
-0.0001630574
