0.01977665
0.08321965
0.0177326
0.04683398
0.04689054
-0.02616511
-0.07485324
-0.07415302
-0.008105727
-0.1006719
0.04903742
0.05453203
-0.01069758
-0.04614552
-0.07743818
-0.001363028
-0.02920457
0.06081157
-0.078067
0.05334939
0.02611135
0.08828159
0.04717178
-0.08280216
0.08025365
-0.09397291
-0.1079616
-0.041858
-0.0224473
-0.04635017
0.03227123
-0.05191158
0.1052316
0.03743603
0.03621032
0.06264746
-0.09322661
-0.05558896
0.002137206
0.07918231
0.1076882
0.02377963
-0.1032346
0.08782233
0.06221882
0.00185151
0.0551261
0.02403364
-0.01685445
-0.05486597
-0.06358644
-0.03821022
-0.03099757
-0.0199186
0.003118537
0.08850662
-0.08293471
-0.06927405
-0.006686841
-0.04067249
0.09352164
0.08178671
0.1059594
-0.06616937
0.06915379
0.02472712
-0.0573248
0.06324449
-0.01441253
-0.08017631
0.01520958
-0.08057564
-0.06107037
-0.006980927
-0.0022219
-0.06636913
-0.08224379
0.03801518
0.1061227
0.03403199
-0.05923366
0.07101277
-0.02756687
0.04275277
0.03138324
-0.1027689
-0.04379187
0.08782026
0.03425777
-0.0428712
0.01750222
-0.02800476
-0.07164802
-0.09928548
0.104437
0.01838018
0.02557658
-0.04762712
0.08708669
-0.01299573
-0.05570862
-0.09883782
-0.081861
-0.0005676709
0.04349754
-0.03830504
-0.105468
0.03264396
-0.06713697
0.004383679
0.09231821
-0.0070291
0.07965084
-0.01689949
0.08392141
-0.02782248
-0.07957768
-0.01529198
-0.02381541
0.1044717
0.1038311
-0.0416858
0.09350386
0.06484168
0.09470159
0.025825
-0.02861978
-0.0196377
0.04753923
0.02885659
0.01594052
0.06807618
-0.07656362
-0.05058077
-0.02717541
-0.08593997
0.05182616
-0.03766848
0.02065619
0.08484691
-0.04592133
0.05229306
-0.005073801
-0.01845774
0.07094797
0.005293122
-0.005143119
0.07811259
-0.07996446
-0.08128323
-0.0796383
0.03306338
0.1035392
0.01918986
-0.01791945
-0.1063129
0.0857024
0.1029024
0.1063948
0.09142627
-0.06881511
0.01344007
-1.208091e-05
0.07889683
-0.02844967
0.08736479
0.02496398
0.05891175
0.05013661
0.1025279
0.06309202
-0.00862587
0.05735774
0.1022133
-0.05282081
0.09001026
-0.03581234
-0.0689674
-0.01421619
0.05641579
0.09014425
0.0003868283
-0.02712322
0.05879841
-0.06716806
-0.004980848
0.01757169
0.0773701
0.0371213
-0.06637044
0.09385873
0.02141942
0.03331931
-0.02697047
-0.03722386
-0.1013003
-0.01332632
0.06952201
0.03297357
0.1070561
0.02162307
0.004042498
-0.09262013
0.03528026
-0.01946187
-0.05199673
0.05707745
0.08242656
0.0104705
-0.01050851
0.09423701
-0.09019364
-0.02856989
-0.1010799
-0.09829289
0.03043862
0.002205436
0.01337964
-0.04731764
0.03869582
0.0274667
0.04523794
0.02497761
-0.01091804
0.04925233
0.1049654
0.007464286
0.06059615
0.1064189
0.02957199
-0.0490877
0.02231744
0.0294536
0.08900269
0.02503729
0.09605627
-0.05288513
-0.06534034
-0.01215248
0.08166007
-0.0328245
-0.08497398
0.05731691
0.08579643
-0.06741079
0.03756872
0.003440243
0.07836737
-0.04370074
-0.04258747
-0.06038267
-0.07797822
0.09937896
0.03911899
0.0659899
0.007838873
