0.05491084
-0.01139251
-0.107886
-0.05405438
-0.002584361
0.0268653
-0.04793742
-0.03700021
-0.0837824
0.05824877
-0.006350819
0.02259725
0.01118101
0.0411005
0.004186636
-0.07691906
-0.02680683
-0.06397922
-0.1015203
-0.05943458
-0.05510878
-0.06946158
0.07067382
0.02208695
0.0448934
0.006631044
-0.02642794
-0.001674032
-0.03647066
0.03051013
0.09234729
0.03040623
0.02661388
0.05024288
0.0181565
0.08385123
0.03172065
-0.05146544
-0.08349685
0.09123097
-0.1014737
-0.03133316
0.0136989
-0.006521987
0.004927377
-0.009141149
0.04924397
0.03701913
0.10689
0.1017952
-0.009241658
-0.09173495
0.08274862
-0.06338406
0.1003161
0.09198017
-0.02356346
-0.1016491
0.03333731
0.06328623
0.09880143
0.01202064
0.03348175
-0.05994036
0.000210028
0.02746684
-0.03302982
0.01803144
-0.0748534
-0.09103896
0.01892072
-0.02973791
-0.06213945
-0.09309047
-0.004929869
0.04865911
-0.0545149
-0.06759886
-0.09702598
-0.01382066
-0.05845433
-0.01303972
0.05305254
-0.0617706
0.02434858
-0.03630501
-0.08457699
0.06866838
-0.09279012
0.02712692
0.06002403
-0.1054524
-0.05399213
0.1033347
0.0374237
-0.04264265
0.01560459
-0.05334472
-0.09599611
-0.06713696
-0.02368211
0.09141122
-0.06372192
-0.09554999
-0.02874321
0.07300665
0.1060083
-0.06480534
0.04757965
0.1051892
0.1023911
-0.08944897
-0.09240273
-0.006315743
0.03685591
-0.08321409
-0.1023196
-0.06878823
0.07348864
-0.07036775
-0.03655431
-0.02210584
0.03627653
-0.01547215
0.02013741
-0.0661346
-0.02733474
-0.02320794
0.002233099
0.06927034
-0.08953889
-0.06389672
0.05605806
0.08153644
0.08379164
0.09639835
0.06541543
0.08225516
-0.07672154
0.1017712
-0.01646234
-0.07358238
-0.07555409
0.01132262
-0.06759549
-0.04374533
0.04985587
0.09980775
0.02848566
-0.06267114
-0.07969725
-0.1002985
-0.03234449
-0.06818508
-0.1025315
0.03542173
-0.002005578
0.07240573
-0.09506282
-0.0350486
-0.01954951
-0.04030956
0.01329465
-0.009841766
0.05482347
0.0414869
0.04699837
-0.00368773
-0.006801297
0.0003412678
-0.02580648
0.08893333
0.03180704
0.07538615
0.03096122
-0.07513944
-0.08321384
-0.04046832
-0.03569772
0.04905484
0.05432089
-0.01040051
0.05197081
0.06899872
0.09977863
0.02773682
-0.09778225
-0.08495188
0.05768249
-0.040715
0.08583879
0.07037872
-0.06528781
0.08211861
-0.05474919
0.06716592
0.09287187
-0.07145067
-0.02666198
0.03225498
-0.005404968
-0.08496635
0.0415271
-0.04724721
0.03434835
0.07213755
0.02402263
-0.09409281
0.01461356
0.09844559
-0.03454252
0.06979429
-0.09161387
0.01359
0.09727296
4.506714e-05
-0.03361626
0.0009758341
0.006777432
0.09270815
-0.05564386
0.03298979
0.01808593
-0.0555168
-0.06844531
-0.09769131
0.0060624
0.03413815
-0.03681144
-0.07180603
-0.07243026
-0.09832265
-0.05864365
0.01663065
-0.0204306
-0.07288864
-0.02836875
0.02213057
0.1002164
0.1063509
-0.09310909
-0.05806157
-0.0485821
0.0671061
0.1030146
-0.1082265
-0.005978544
-0.005415341
-0.08025302
-0.02891411
-0.003338203
0.06574852
0.03951279
-0.1037164
-0.07938933
0.02973092
