-0.02938762
0.07269326
0.1007945
-0.01863345
0.007142242
-0.1013587
-0.107086
0.04508922
-0.07035847
0.03465628
0.05148596
-0.05912499
-0.03953137
-0.04580016
-0.01984958
-0.08894406
-0.03024464
0.06983791
-0.07730053
-0.07722487
0.06335083
0.06887281
0.07774737
0.03616079
0.06941731
0.05963441
-0.05479823
-0.004255918
0.008822899
-0.03703112
-0.03295112
0.02332435
0.08938017
-0.076701
0.02924875
0.0814469
0.008496743
0.05553724
-0.004259288
0.01091706
-0.03778007
-0.09763625
0.0596287
0.0468294
0.06272048
0.0750166
0.1020992
-0.05119834
-0.1043789
-0.08723287
-0.02523991
-0.1041595
0.05407491
-0.02478034
0.0001116158
0.08748992
-0.01121777
-0.03886137
-0.09288384
0.09142535
0.06155698
-0.06237309
0.04419661
-0.06197102
0.04234468
-0.1051921
0.07180276
0.06867969
0.07252675
0.05504543
0.06472241
-0.02348088
0.08319508
0.07656671
0.01808712
-0.04190962
0.01387288
0.0457321
-0.02142267
-0.06768197
0.009858851
0.09190193
0.01361854
0.1008332
-0.05788328
-0.03883489
-0.09972956
-0.09229519
-0.07508367
0.03255364
-0.03678503
-0.09315681
0.09496403
-0.0409743
0.0821326
-0.03953632
0.06199608
-0.09382979
-0.02279747
0.05619429
-0.02730578
-0.01448614
-0.07327952
0.1023863
-0.02144535
-0.05299271
0.07388465
0.1068366
-0.0176644
-0.006179031
0.08456509
0.0712212
0.01168308
0.05081043
0.06529076
-0.03790247
0.08457184
0.08299484
0.001408286
-0.06521667
0.02351743
-0.02334093
0.06254894
-0.005701533
-0.009638626
-0.09411085
-0.04066104
-0.1041939
-0.01764766
0.03343984
-0.06371816
-0.07302716
0.04230505
0.1043124
0.03203336
0.03022294
0.07354221
0.05540172
-0.03566937
0.06295568
-0.02336786
0.09178507
0.07587458
-0.0212258
-0.02026916
-0.07670787
-0.09670055
0.00555458
-0.08924417
0.07272165
-0.07532023
-0.0298999
-0.04969865
-0.037878
0.01994937
-0.03491922
-0.06490681
-0.0003329069
-0.03586059
0.07790834
0.02564629
0.1024238
-0.02706857
0.06828181
-0.07975355
-0.07473122
0.0557861
0.02469833
0.06232295
0.06667235
-0.06864983
-0.07145216
-0.05573124
-0.01428229
0.08191454
0.05547037
-0.02477841
0.04790216
-0.03440772
-0.08246437
-0.04549814
-0.04296662
0.07045162
-0.0002444463
0.008202613
0.003421882
-0.06932254
0.03763844
0.01006647
-0.07241388
-0.09512489
-0.07780638
0.1012328
0.0114172
0.02148746
4.063508e-05
-0.03645711
0.1023007
0.03757851
-0.08433038
0.04667323
0.08572058
0.1051658
0.07207849
0.05763133
-0.07568913
-0.0966552
0.007911595
0.05568868
-0.08295051
-0.03272545
0.05220995
0.0144012
-0.06109944
0.01645433
-0.02919665
0.08174532
-0.08132048
-0.0910316
0.09741364
0.02079281
-0.01919354
0.1069823
0.07510109
0.03471177
0.07129376
-0.04802347
-0.08183134
-0.0402169
-0.03053131
-0.06974313
0.09622408
-0.009095521
0.09928197
0.0874292
0.09214402
0.03557525
0.08079406
0.04663937
-0.02173468
-0.07771692
0.001289215
-0.03200939
0.01622565
0.05002742
-0.01012668
0.1038384
0.05974616
-0.0638824
-0.03965558
-0.06288652
0.07866199
0.06180404
-0.06100278
-0.04510982
0.08169401
