-0.07619698
-0.1018676
-0.07362867
-0.05131243
0.03089865
-0.1079133
0.009520344
-0.02674784
-0.1013832
0.07929219
0.09475788
0.01075587
-0.07525574
0.023237
0.06995212
0.077084
-0.03480929
0.009325465
0.08994145
-0.05974598
0.09628364
0.05626325
-0.05397103
-0.06360645
-0.07813524
0.04498553
0.07071563
0.03832908
0.09605222
0.07485715
0.09394733
0.01030374
-0.09470017
-0.06886827
-0.05440849
-0.0674945
-0.07336101
0.1062559
0.06924442
-0.001794178
-0.07984024
-0.08745093
0.07677405
0.06939724
-0.08333957
-0.09657588
0.01922687
-0.1070399
-0.03774785
0.03225998
0.09180469
-0.08522814
-0.03115501
0.01689166
-0.0397003
-0.03793072
-0.01145638
-0.008875901
-0.04353341
-0.05527546
0.009199752
-0.05081502
0.07627245
-0.07630998
0.09822312
-0.1066642
0.06714177
0.02280414
-0.03155382
0.02608642
0.01217438
0.01956892
0.01422422
-0.009323329
-0.05419382
0.02652072
0.0682767
0.1005567
0.09445234
0.0651831
0.02846948
-0.01117395
0.0410772
-0.09775528
0.01628977
-0.04552754
-0.03973113
0.04995862
0.04068504
0.0491483
0.002858676
-0.0003515773
0.0745308
0.06285729
0.09239977
0.08282737
0.09036642
0.02216427
0.01962553
0.0015573
0.06126314
0.03071695
0.04130148
0.08355656
-0.0533511
-0.0806229
-0.03100368
0.01995565
0.08340649
0.06449243
0.0874839
-0.02639017
0.06551205
-0.09451693
-0.08886437
-0.1006949
-0.03698689
-0.007922174
-0.0820403
0.08978947
0.07431576
-0.09985903
0.06153417
-0.04571665
0.05415967
-0.05987941
0.02038522
-0.06999689
-0.09118352
-0.06527927
0.03681668
0.07701606
-0.003705661
-0.05974936
-0.01141899
0.02915598
0.01148909
0.05172815
-0.04982233
0.02729161
0.03902013
-0.0802501
0.06624796
-0.05704524
0.1018729
-0.03163428
-0.07973239
0.04079045
-0.07071809
-0.001040507
0.001982922
0.06310601
0.02617355
0.08478656
0.03318832
0.04075089
0.0157908
-0.06283171
0.07574134
-0.1045275
-0.006665505
-0.02577535
-0.03587347
0.02560194
-0.04010508
0.01903483
-0.07017359
0.001375187
-0.06961136
-0.02125815
-0.01769431
0.09582704
0.0953781
0.05904547
-0.06385457
0.05676101
0.07722975
-0.04802599
0.0627246
-0.005009779
-0.04598544
-0.03582327
0.05106876
-0.01612597
0.08371583
-0.0251183
-0.009074437
-0.0008526164
-0.07543185
-0.02255837
0.007444336
-0.01283667
0.09948097
-0.03945019
0.05179311
-0.05909633
-0.02877812
0.04416162
0.005918037
0.06585976
0.001539324
0.06017921
-0.08463671
-0.1075864
-0.06584748
0.03213674
-0.01300071
-0.067365
-0.01913689
-0.09960218
0.0606225
0.06195924
-0.09890844
0.07474171
0.008029954
-0.05632145
-0.01904903
-0.07628254
0.06256343
0.09238171
-0.02969361
-0.07631228
-0.05426771
0.02160984
0.04622501
-0.06659422
-0.004945031
-0.0306308
-0.008504393
-0.05773029
-0.006493325
0.07382325
-0.09222068
-0.009887729
0.05881692
-0.0319215
-0.06822774
0.07916896
0.004756689
0.03854527
-0.04594727
-0.05460072
-0.04442732
0.05779587
0.0346412
-0.1030217
-0.06384519
-0.08833621
0.02190289
0.002076418
-0.09865023
0.09520584
-0.1082068
0.02110593
0.01885779
0.04954869
