-0.08939482
0.02223865
-0.07733402
-0.03604373
0.08870853
-0.09214535
-0.08907686
-0.01445012
0.06401058
0.04393024
0.00633986
-0.01122313
0.06443797
0.01774397
0.08589891
0.07626267
0.0002307525
0.06403215
-0.03735638
0.06598882
0.02546656
0.06494901
-0.02988801
0.04222753
0.1063716
-0.04458245
-0.05676069
-0.05677219
-0.0004912204
0.08769633
0.05098429
-0.09364568
0.07301619
-0.05679772
0.04523794
0.008599145
-0.07154027
-0.03205862
0.01927142
0.004505138
0.003823983
-0.001789073
-0.1063234
-0.06201033
0.08014638
0.0577416
0.04038467
-0.05097209
-0.0659172
0.08994602
0.02623269
-0.04853975
0.02346361
-0.07049169
0.03515687
0.02596506
-0.04250581
-0.07443218
-0.0003790205
0.0466685
-0.06668181
-0.08852629
0.05243526
0.01433329
-0.01875341
0.02419649
0.04175119
0.003503447
-0.06595796
-0.08075896
-0.07334321
-0.08503571
0.0949638
-0.1019379
-0.1039952
-0.1072947
0.05728347
-0.07412111
-0.0235967
-0.08291421
0.02789484
-0.01209886
-0.07128507
-0.03322594
-0.03428245
-0.06541879
0.01937167
-0.08351889
-0.1067509
0.09435726
0.01815058
-0.08259461
0.006188258
0.03298979
-0.04750402
0.1013603
0.0244227
-0.04793016
-0.09643527
0.02796257
-0.03321894
-0.01693279
-0.08682717
-0.03875168
0.04445153
0.06219541
0.042177
-0.05579375
-0.05148377
-0.08363872
0.07077144
-0.001183447
0.07817236
0.0885837
-0.003335492
0.06991277
0.00271132
0.02245143
-0.07331313
-0.01742776
-0.08787686
-0.1001473
0.06558108
-0.05130583
-0.08611998
0.0603836
0.03181655
-0.003975879
0.09123674
-0.0591424
0.03842888
-0.05387365
-0.01919354
0.04671796
0.07105831
0.01862083
0.0403133
0.0874953
0.01275998
0.0421944
0.08048239
-0.05135041
0.01784413
-0.02379894
0.09848794
0.05817883
-0.03687348
0.0913346
0.07272407
0.03446
-0.04582353
-0.01692721
-0.02659524
0.02543002
-0.07297917
0.05628843
-0.08603714
-0.05282475
-0.04201385
0.05139618
0.004145926
0.008638108
0.04240385
-0.1078599
-0.04432432
-0.06146305
0.01073142
-0.07795291
0.06392051
0.1006432
0.006644225
0.0925208
-0.02765119
0.008651467
-0.005525963
0.07596654
-0.008463656
-0.09625316
-0.08364732
-0.05919609
0.03307079
0.06663638
-0.1061178
-0.0885835
-0.06643777
0.03784224
0.09901397
0.05900466
0.007515565
0.01520951
-0.04775633
-0.01726593
0.07044534
0.02088849
0.004553699
-0.1043362
-0.02211
-0.03580231
-0.01790297
0.08270957
-0.08727014
-0.08128397
0.0882646
0.01062988
-0.09807635
-0.08169016
-0.01555686
0.09192754
-0.003486777
0.09451134
-0.104325
0.03727926
0.05968661
0.04215268
-0.08815746
0.04736091
0.01756857
-0.08483937
-0.06809042
-0.02257269
-0.1064791
-0.09741653
0.06677707
0.06573569
0.01941187
0.05971172
0.04628809
-0.09082909
-0.07631228
-0.06575469
-0.002952186
-0.02664095
0.0551547
-0.0294242
-0.05296214
0.05824533
-0.008672169
-0.02379368
0.09646125
0.1000378
0.105515
-0.103253
0.01514383
-0.02150003
-0.1071643
0.07325573
0.04956416
0.06345911
-0.04587219
0.04808066
0.05148583
-0.09211368
-0.09029551
0.005249405
0.04362497
-0.04364533
