-0.04917911
-0.07125821
-0.08909754
0.07922541
-0.04227812
-0.1059898
0.05886732
0.006966017
-0.03251842
-0.03410641
0.06820223
0.004727864
-0.03986751
-0.06142221
-0.01820015
0.07013238
-0.04861514
-0.08903384
-0.04338631
0.09984384
-0.03413005
-0.09564201
0.100216
0.02193219
0.06705931
-0.04208996
0.08027255
-0.08347237
0.1030946
0.02515617
0.05198196
0.05665077
-0.09849628
0.1022614
0.03297357
0.1052918
0.04790448
0.0768635
-0.006625619
0.07530238
0.009151925
0.07085411
-0.01296715
0.07612119
0.0008430896
0.09159817
-0.04905373
0.09148527
-0.05055468
-0.07597735
-0.03388704
0.08857378
0.05982563
-0.0301394
-0.03215687
0.06363373
0.08384734
0.07118249
-0.07334853
-0.001868467
-0.008743525
-0.08083113
0.04814715
-0.05172184
-0.1058758
-0.08081689
-0.003544579
0.00330339
0.02316036
0.09092239
-0.0417884
0.03158271
0.02460526
0.05387543
-0.09597848
-0.01280074
-0.04134766
0.1030795
-0.04666497
0.07620825
-0.03858802
0.08631948
0.04367595
0.005977286
0.07101795
0.02592508
-0.01897527
0.06541597
-0.07500426
-0.0389421
-0.1039738
-0.006515087
0.02861558
-0.02666198
0.03581681
-0.03815572
-0.09028446
-0.1020595
-0.09456103
0.03405538
-0.09677307
0.01318305
-0.07267182
0.09611192
-0.08376448
0.03494304
0.04453887
-0.01099897
-0.01741743
-0.009592368
-0.05969204
0.05825434
0.1082335
0.10007
0.07169178
-0.0006922167
-0.09393788
0.06956496
-0.06780447
-0.04810914
-0.001441543
0.06155256
-0.1036836
0.08362664
0.04533953
-0.08817037
-0.04922807
0.06870029
0.008056135
-0.06306635
0.0455137
-0.09746101
0.03757851
-0.03786753
0.04298815
0.1027008
0.03999968
-0.03994132
-0.07887402
-0.08495915
0.03230844
-0.03429428
-0.01954391
0.07381091
-0.09276315
0.01272924
-0.07171647
-0.08925648
0.02127222
-0.0953958
0.05873841
-0.01601876
-0.06110726
0.043087
-0.03423168
-0.01468156
-0.09346249
0.01668065
-0.004115033
-0.007269711
-0.05638202
0.003067507
0.07366493
-0.004207736
-0.03906588
0.03188946
0.07934916
0.1067694
0.08861062
-0.09415635
-0.08284123
-0.07357916
0.05966594
-0.09810795
0.05539531
0.0998432
-0.07503915
-0.1054668
-0.02007927
-0.03627574
0.0848977
0.04849673
0.02163419
0.08052319
-0.07055119
0.01716978
0.05726336
0.05550347
-0.05389015
0.005373319
0.08755566
-0.09384734
0.05844044
-0.09464006
-0.04187187
-0.06341584
-0.02891166
0.09608296
-0.06111261
0.05589597
-0.08777312
-0.01375268
0.02798589
0.03288504
0.003172559
0.07415216
0.06864805
0.05396827
-0.06043
0.01207329
0.05186847
-0.02836311
-0.02474437
-0.03380346
0.004261259
-0.01094567
-0.03132993
0.05124066
-0.01316757
-0.03145782
-0.04071004
0.04412698
0.0349833
-0.001340295
-0.09228732
-0.05629232
-0.06998748
0.05729286
0.005918037
-0.031704
0.06341811
-0.01744776
0.001122228
0.09355818
0.101738
-0.08014879
-0.02969792
0.07779577
0.09770183
0.07429375
-0.02184961
-0.01108342
0.01903207
-0.03665629
0.0008876086
0.002882241
0.07545862
0.008719581
0.05892738
0.01804657
-0.07076411
0.07519456
-0.02769993
0.09938018
-0.0787463
-0.01979453
