0.05696186
0.08092613
0.09752177
-0.07512113
-0.02602426
0.1057372
-0.03664049
0.00424353
-0.08221072
0.06195088
0.07306129
-0.06260094
0.0446475
-0.01284616
-0.04590245
0.0138791
0.01880035
0.002337724
0.03944885
-0.005171088
0.07750673
-0.03914245
-0.007984101
-0.04130237
0.02553853
0.05780083
0.06716555
0.05048949
0.08512514
-0.1075238
-0.03039671
0.09298062
0.001322085
-0.05389206
-0.07414675
-0.06668357
-0.06739
-0.03410601
-0.04393332
0.09272783
-0.02368446
0.02995847
0.09061444
-0.04079998
0.0158477
-0.03133627
-0.08115461
0.1044769
-0.02665535
-0.09885497
-0.07466375
-0.03002823
0.09186134
-0.04473083
0.03566633
-0.04755764
-0.08322603
0.0772372
-0.05256562
-0.0720584
0.003658569
-0.05236527
0.03672386
-0.075755
-0.007348971
-0.07008201
0.0759849
0.07590641
0.1061441
0.07555541
-0.09897873
0.008458056
0.03502125
0.04771197
0.02435969
0.08125288
0.05844472
0.1039103
-0.06359014
0.1059158
-0.04310155
0.1074535
0.01516303
-0.02409901
-0.001567818
-0.06803439
-0.06768678
0.07904541
0.03216059
0.1080912
-0.0539659
0.1068089
0.06178438
0.0085905
-0.0259948
0.08626954
-0.02175958
-0.09853839
-0.0998603
-0.02555498
0.1029124
-0.06461762
0.03498692
0.04598237
-0.1051193
-0.01253867
-0.04381296
0.0271621
-0.03477716
0.07069856
-0.04067045
0.04623584
-0.09343731
-0.1047324
0.05861278
0.03759618
-0.08158973
0.05861526
-0.08681896
-0.01123951
0.04009479
0.06305967
-0.05057677
-0.09658226
0.06382315
-0.0537312
-0.05956487
-0.0232883
-0.1050211
-0.06504328
-0.02690406
0.02134344
0.05387859
-0.07302292
-0.02489164
-0.09794257
0.05248294
0.0247936
0.1067367
0.06537271
0.07787687
0.03928487
-0.06744376
-0.01302493
-0.01439475
0.03831056
0.04379087
0.001445253
0.07241695
-0.06976788
-0.04876908
0.02838053
-0.02118313
0.03867171
0.09000611
-0.01151375
0.05037948
-0.04595058
0.05431367
-0.01907219
-0.1031517
-0.05741435
-0.09543663
-0.0240607
-0.009431178
-0.06339677
0.008638932
-0.02947936
-0.07549233
0.001056301
-0.0722742
0.04123966
0.05183255
-0.06074123
0.04839671
0.09511939
-0.05996413
0.06909
0.07000837
0.05353763
0.06717981
0.09418991
-0.09051918
0.09030308
0.09216654
0.04784946
-0.07770674
-0.03683585
0.03189184
-0.08768438
0.03014295
0.02502216
-0.04331625
-0.09845173
-0.05548328
-0.09673429
-0.05778486
0.03842072
-0.04071004
-0.1009845
0.05548663
-0.07525154
0.09178213
-0.03200366
0.05250014
0.1023254
0.009546502
-0.03354492
0.06689487
-0.03476938
0.08653785
0.06155089
-0.06328734
-0.09151861
-0.01500822
0.05282166
-0.07134215
0.05502417
-0.02408464
-0.09733154
-0.01172461
-0.1064791
-0.05889865
-0.0135827
0.06504515
0.05342607
-0.07240117
0.03966225
-0.06618637
0.07823122
-0.09341891
0.1019455
-0.05261097
0.08159496
-0.09039779
-0.05778691
0.000531027
0.09787882
0.004069537
0.04683577
0.03121479
0.002705863
-0.08521798
-0.03343664
0.04925915
0.03014961
0.07622524
0.09066178
-0.01031625
-0.02362763
-0.05942739
0.09116159
0.03130833
-0.02874601
0.08334664
0.02817396
