-0.1079819
-0.05261591
0.09182222
0.05600674
-0.0448262
0.08301493
0.09689082
-0.09772852
-0.05655061
-0.04841659
-0.09341951
-0.01999143
-0.03716835
-0.05665321
0.0763424
-0.07503675
0.06107127
0.01708191
-0.008622251
-0.0613304
0.02167413
0.04609918
0.0737076
-0.002166058
-0.01850507
0.01915981
0.06990211
0.01359298
-0.05983813
-0.0856569
-0.01372489
0.01536881
0.06608897
-0.1030196
0.007838873
-0.02906844
0.1052121
-0.000614267
-0.08728169
-0.0429823
0.08326685
-0.09489734
0.09869827
0.01128916
-0.04113652
0.07621389
-0.04568884
0.08956693
-0.05098777
0.09641203
-0.08693941
0.08783996
0.0683751
-0.04284944
-0.03585823
-0.01877981
0.05244715
0.07765965
-0.06271841
-0.04728376
0.0705181
0.09336984
-0.07993172
-0.07737358
0.007295091
-0.04200035
0.04568665
-0.07740334
0.04878511
-0.03503427
0.0878486
0.04905923
0.05340053
0.0784471
0.07585593
0.09696928
0.01596954
-0.006564518
0.003616713
0.07492948
0.06269715
-0.01945255
-0.06279462
-0.02253826
0.05831992
0.0603475
-0.009430326
0.002308889
-0.06396335
-0.09312669
0.0946715
0.08787552
-0.01128038
0.02973092
-0.038357
-0.08649725
-0.03829112
-0.1081108
0.03354594
0.03054662
-0.0001630574
0.06885915
0.0617546
0.07382765
0.07323696
-0.0001629331
0.03065982
-0.03863111
-0.04276293
0.05271336
0.07491674
-0.0005602908
-0.04488221
-0.05323015
0.07897178
0.01250524
0.01519229
-0.07624858
0.08794267
0.07271901
0.02938323
-0.0752592
0.06752308
0.04152527
0.06644537
0.1041198
-0.02033779
0.0360931
0.06213954
-0.03659623
0.09914292
-0.08343911
0.08169401
-0.08069707
0.09266075
-0.01382168
0.1050428
0.04218601
0.1045639
0.06023884
-0.02235589
-0.08082904
0.007488699
0.01610245
0.02823935
-0.01689429
-0.04070406
0.07628051
-0.01142043
0.03580147
-0.01979263
0.02908874
-0.05914966
0.07054514
-0.06922126
-0.06279402
-0.004907286
-0.09803112
-0.01338395
-0.05438441
0.0570058
-0.06143238
0.1012055
-0.009489517
0.1079955
-0.08922639
-0.04407316
-0.05939984
0.09315974
0.107121
-0.07144467
0.07834372
0.06730928
-0.09499747
0.09614027
0.0316617
-0.07592382
0.01814365
-0.09720689
-0.007942699
0.01044886
-0.09309945
-0.04652444
-0.01853021
0.1077226
0.0628712
-0.002543903
-0.02086805
0.03437548
-0.1048007
0.03257174
0.006172296
0.08256155
-0.01281769
-0.01668119
0.09476485
-0.08419782
0.01466755
-0.09905138
-0.05779066
0.05796846
-0.05974076
-0.08096174
0.030896
-0.0454958
0.1049496
0.104133
-0.09983451
0.03223388
-0.05356512
-0.05877296
-0.0553182
0.02646761
-0.03401705
-0.003338629
-0.02990907
-0.004555371
0.08047228
0.0404942
0.06565796
0.02817396
-0.07537203
0.04036856
-0.009579552
-0.01690737
-0.06155102
0.06325026
-0.05459104
0.04954869
0.005161255
0.007556906
0.05202746
-0.006367884
-0.0807539
-0.08567484
-0.02065427
0.08871218
-0.04202884
0.0003968144
-0.00461459
0.0550095
0.03476978
-0.1070685
-0.08185714
0.03213037
-0.06880742
0.053595
0.1050547
-0.04878929
-0.08075379
-0.07558639
0.1038035
0.06089627
0.01962773
0.04602363
0.001351866
