-0.0353777
-0.01025179
-0.08303142
-0.09908631
0.107721
0.01649842
-0.01786921
0.06487659
-0.0304097
0.0154028
0.096723
0.01592938
-0.09317269
-0.07465454
0.05718397
-0.0985673
0.05351166
-0.09796889
-0.06721348
0.09040331
-0.1042474
0.0538009
0.1031099
-0.09053373
0.07355348
0.1002354
-0.06003971
-0.09543617
0.001578923
0.1007027
-0.03576292
-0.03729669
-0.0445741
0.08878305
-0.08819658
-0.04338516
-0.02489094
-0.009631379
-0.08500435
0.02945477
-0.04156665
0.08168595
0.06552862
0.06534489
0.01602495
0.008374417
0.06218994
0.001873259
0.1033331
0.03195013
0.02934863
0.07870249
-0.09278953
-0.06119078
0.09563935
0.03913455
-0.03660163
-0.01591054
0.01627352
-0.008997811
-0.1015561
-0.0793299
0.00131027
-0.0004125373
-0.02387386
0.1021657
-0.07870972
-0.003095683
0.01453917
0.01991318
-0.02307498
0.07621508
-0.1073664
0.02926631
0.04232581
0.08583782
0.02999554
0.04192033
0.07526489
0.01060148
0.01535951
0.02302114
0.03736966
-0.03501259
-0.06213957
-0.03359494
-0.09062779
-0.08116601
0.07915057
0.07016733
-0.09392484
0.01531935
-0.01956426
0.02381543
0.06309617
-0.06562273
-0.04249045
-0.05743378
0.07694642
0.08981323
-0.04442809
-0.01331538
-0.0003925768
0.01086579
0.05326905
-0.02025099
-0.05726261
0.03830438
0.05101097
-0.0919756
0.06790914
0.007550272
-0.06561485
-0.0734776
-0.0314117
0.09223428
-0.004895904
0.1050401
-0.01394757
-0.1054104
-0.03603103
-0.04934314
-0.01547048
0.0420858
0.04552994
-0.09855007
-0.07773712
0.04971683
-0.08920738
0.06734601
0.04076179
-0.1008686
-0.01781025
0.0630376
-0.03953741
-0.09058739
-0.0608578
-0.07662972
0.05141923
0.04188052
0.05892732
0.07814047
-0.04671463
0.01794319
-0.04674674
-0.002540706
-0.09829202
0.02667146
0.08851899
0.04962387
0.05423365
0.08958421
-0.04002352
0.06194874
-0.02784335
0.007734653
-0.000486893
-0.0262429
0.07563172
-0.05191946
-0.0752244
0.001085042
0.06555413
-0.1022684
-0.01472822
-0.05743905
0.06494715
0.05489267
0.09620107
0.05496372
0.06604307
-0.08272517
0.04710686
-0.09666107
0.09524026
-0.06655765
-0.02899531
0.003138733
0.08035816
-0.1009722
0.0005136825
-0.05487223
0.05909654
0.03220041
-0.08055028
-0.04801798
0.08777238
0.09284552
0.005367472
-0.102527
-0.06260301
-0.007972948
0.06938215
-0.03639546
0.0658894
-0.06250753
0.05800554
-0.08406609
-0.004207736
0.00962326
-0.005199199
-0.08104908
-0.09175011
0.07189628
0.0499546
-0.004260971
-0.09376688
0.011421
-0.001715125
0.1075305
-0.02301258
0.04338273
-0.03095012
0.1073551
-0.0574721
-0.08784319
0.05721073
0.07699725
-0.02305435
-0.06477444
-0.05687455
-0.1078599
-0.01126283
-0.09007078
0.09029394
-0.0131651
-0.02646613
0.04052924
0.03323653
-0.05089783
0.01467925
0.0358079
0.0517913
-0.1026374
-0.007619649
-0.07937339
0.0539362
0.05590392
-0.05471731
0.1002413
-0.05460685
0.08311545
-0.005837535
-0.03072182
-0.09302872
-0.03155023
0.02034511
-0.03163478
0.03262385
0.009818786
-0.05988305
-0.05664149
-0.03905454
0.02258515
0.01884991
-0.009489517
