0.06510159
-0.01805011
0.09880914
0.00600987
0.1059289
0.09873946
0.0161667
-0.03829434
0.09009661
0.07217371
-0.04985061
0.08857391
0.05973425
-0.01753976
0.06986975
-0.0248208
0.006774505
-0.09862712
0.1063685
-0.005308761
0.09276788
0.03929095
-0.009726252
-0.08823472
0.1038907
-0.04528153
-0.03936888
0.02070165
0.0885881
-0.02969524
-0.04840929
2.439991e-07
0.009610153
0.1073434
0.04546339
0.05816686
0.04490963
0.04766204
0.04570071
0.07674181
-0.04460386
0.07429966
0.1030009
0.03514775
-0.01927451
-0.07101776
-0.01025282
0.08795835
0.004547646
0.07676097
-0.03792861
0.07864621
0.004655526
0.089729
-0.04789825
0.09228185
0.07815594
-0.04030121
-0.08119874
0.03662298
0.06141755
-0.02471951
-0.02445156
0.07613922
-0.01102581
0.0711403
0.07265732
0.08499938
0.05443917
0.03780754
-0.08221198
-0.1018611
0.02459086
0.05022873
0.09796666
0.02736245
-0.006747607
-0.003003731
0.07930764
0.06878896
0.02346595
0.01476866
0.001505402
0.07902357
0.03727651
-0.04577301
0.08786902
-0.09538047
0.006170069
0.001784373
-0.002605235
0.07571803
0.08309231
0.09341615
-0.07567127
-0.1014846
-0.06583434
0.02965565
0.05430775
-0.04138861
-0.01609238
0.02757592
0.02679943
0.01908539
-0.04168356
-0.03782975
0.09621468
0.07964751
0.02882496
0.01223487
-0.02819628
0.006752411
0.04231166
0.05097772
0.03089965
0.05861234
-0.05962632
-0.01475923
-0.04751131
0.07034339
0.01464796
0.06012719
-0.02110294
0.04017778
0.07148963
0.06731652
0.07429836
-0.03282831
0.09500062
-0.0925258
-0.06679369
0.0106754
-0.005830944
-0.09180551
-0.1022626
-0.09707032
-0.02288616
0.1022517
-0.03075863
0.006452595
0.05507446
-0.03005282
-0.06156603
-0.1050923
0.03718642
-0.06854419
0.007856379
-0.05132413
-0.03745339
0.1035025
-0.06507119
0.06549143
-0.009207585
0.0156879
-0.06802026
-0.08240775
-0.05180906
0.02554791
-0.0006475962
0.1056995
-0.0772784
-0.03161088
0.006255221
0.04006749
0.003426148
-0.08860648
0.0993532
-0.01162832
-0.03743595
-0.1004005
0.002884548
0.06610141
0.09439378
-0.003302306
-0.006527698
0.07454465
-0.0820025
-0.07550373
0.0356304
0.06871597
0.06783351
0.08065208
-0.01922052
-0.08307865
-0.102632
-0.07788494
0.03830621
0.07390733
0.02259107
-0.07139225
0.01468972
0.07465462
-0.02432712
0.02475443
0.002477014
-0.01687249
-0.08653781
0.05971422
-0.05172184
-0.09616759
-0.02979478
-0.06392675
0.03980997
-0.08197232
-0.0007554376
0.03331648
0.006791788
0.09848291
0.04578042
0.07553308
-0.007670526
0.07186213
0.0112662
-0.02953363
0.03832662
0.05751789
-0.008161941
0.0253067
-0.06597343
0.03820987
-0.06569938
0.01433329
0.09763918
0.1001034
0.06081054
0.05876287
-0.0002378091
-0.0840612
0.08994211
0.07691989
-0.06606361
-0.02617623
-0.06504777
0.02884016
-0.08422522
0.1019511
0.09598083
0.03114748
-0.01547214
0.07277633
-0.07694452
-0.07226679
0.08973695
-0.004022703
-0.02183062
0.004329921
0.09028739
0.03593103
-0.08658917
0.09287182
-0.05932966
0.07102518
0.09191184
0.06723025
0.04824769
-0.07737358
