0.01462907
-0.08833452
-0.06187262
-0.008569675
-0.06280269
-0.07705136
-0.06580093
-0.1080355
0.0334823
0.05589763
-0.03274377
-0.02061142
-0.03791791
-0.006360276
-0.08058565
-0.06797246
0.09073591
0.0812313
0.0260216
-0.00256458
0.03251524
-0.02929519
0.06435119
0.0866254
0.040396
0.02379689
0.0511757
0.05802126
0.06073478
0.08103597
-0.01767613
-0.02367206
0.08008572
-0.0994736
0.08555217
0.1053851
-0.09259731
-0.03719454
0.01198446
-0.06335935
0.02400918
0.1041214
0.1004935
-0.03971957
0.1037968
-0.0529325
-0.01162521
0.09475657
-0.03631945
0.004271268
0.02412932
-0.03486162
0.01984138
-0.0599373
-0.03274019
0.06545416
-0.02342585
0.03066774
-0.02321003
-0.07698639
-0.02419371
0.1042617
0.09298884
0.04213981
0.006598859
0.04089039
-0.09332747
0.1018568
0.06634787
0.06420698
0.09549234
0.09366295
0.07514009
-0.09699288
-0.08935411
0.1060855
0.09442229
0.04221248
0.05832582
0.008104956
0.05846966
0.0789725
0.05184923
0.09045226
-0.09659605
0.09272686
0.0843609
-0.0199267
0.0821496
0.06044352
0.100827
0.001168664
-0.01680439
0.0306027
0.08877659
-0.03748643
-0.0343921
0.1042039
0.02370293
0.08419215
-0.03186191
-0.02749486
-0.01128332
-0.009084992
-0.03830585
-0.04947814
-0.09294948
0.02363246
0.07786807
-0.04439639
0.1047316
-0.02250199
0.07557327
-0.03764299
0.1013227
0.02453349
0.09110357
-0.02902372
-0.1046
0.002736448
0.08471924
-0.08773365
0.005075873
0.01886684
-0.02194151
0.02017092
-0.04540495
-0.005031086
-0.08411209
-0.08155802
0.06005988
0.03369223
0.02417301
-0.04965797
-0.005451507
-0.05707717
-0.08615396
0.09689517
0.07186365
-0.01252579
-0.002702787
-0.05757795
0.00159175
0.07237704
-0.09435859
0.09110421
0.05688755
-0.06244039
0.05555351
0.1062526
0.03284481
-0.02437847
-0.02271964
0.08799756
0.01934052
0.09262292
-0.05794794
-0.01418149
-0.001092864
-0.02867229
0.0326532
-0.06132177
0.07241348
-0.07854734
-0.0925813
-0.08369319
0.01247829
-0.04337797
-0.1059627
-0.0749846
0.01555823
-0.08445666
0.04649858
0.07056715
0.03403853
-0.05193024
0.1075665
0.0942013
0.06107719
0.01995553
-0.04466188
0.02381134
-0.08852307
-0.05160459
-0.0106474
-0.05273181
-0.05923476
-0.1053758
-0.06412119
0.01059304
0.08733162
0.03979626
-0.03126702
-0.05114877
0.07691453
-0.07983391
-0.03871669
-0.05973952
-0.06043
0.07616995
-0.08455408
0.04820557
0.1050572
-0.01673345
0.03196671
0.09785779
-0.06515577
-0.02989577
-0.02919193
-0.06736182
-0.05542837
0.00129946
0.04997173
-0.01430103
-0.02239528
-0.04249955
-0.01314167
-0.0790282
-0.06836143
0.01194319
-0.05110434
-0.003486777
-0.08888231
0.09414309
-0.06348559
-0.03846367
-0.02614367
0.01962198
0.07369848
-0.004663362
0.009281305
0.1000388
-0.05235954
-0.05046489
0.07617779
-0.1027296
0.006804341
-0.0664395
-0.04493031
0.1062178
0.03844243
0.04025531
0.08024897
-0.05350469
-0.1024898
0.08561648
-0.02174687
-0.04046173
0.04466809
0.07142229
-0.009788102
0.03400449
-0.02891951
0.1075349
-0.06572315
0.03223388
