-0.0119082
-0.06824165
0.03263582
-0.04030626
-0.06229784
0.02887523
-0.09915895
0.07498208
0.02409901
0.001226019
0.07212784
0.0537456
0.1063075
-0.09360718
-0.09696162
0.06734985
0.06224685
0.05818332
-0.04718082
0.02080088
-0.08417919
0.03957683
0.04581225
0.08349691
-0.003703255
0.08436274
0.04767989
-0.06003351
0.03139957
-0.04984197
0.03757817
0.09777299
0.02019089
-0.04361186
-0.02797357
0.09928142
0.01247028
-0.004184981
0.06722073
0.07317433
-0.1008151
-0.02648926
0.05555223
0.01318057
-0.03996706
0.05211153
-0.006075762
0.02086338
0.02749339
-0.00644596
-0.01101274
0.05398695
0.05265208
-0.08728503
-0.003207997
0.09007281
0.01991629
0.025406
0.004195761
-0.02438452
-0.09695825
-0.04417373
0.02362512
0.1021036
-0.05107005
-0.01905525
0.01070667
0.05872836
-0.007986803
-0.03229447
0.06978722
0.06909858
-0.04119107
0.08308739
-0.09723619
0.05214059
-0.0103912
0.05862001
0.04519628
0.0513565
0.07377464
0.0726674
-0.09938715
0.07314691
-0.09386817
0.09771064
-0.02347686
0.04320924
-0.02788084
-0.02721863
0.006845449
0.106151
-0.0486003
0.07549123
-0.09897283
0.0002525344
0.07281639
0.006091562
0.087533
-0.04619787
-0.05789665
0.0973528
0.03293054
0.05383178
-0.08651844
-0.1076735
0.05804045
-0.05594911
-0.07147128
-0.0854027
0.06509995
0.1029403
-0.05686099
0.04015873
-0.05724556
-0.05355211
0.008842695
-0.06014682
-0.02329056
-0.00102965
-0.1067028
0.05130356
0.02398149
-0.03538558
-0.02309293
0.01517057
0.03741029
0.02331677
-0.004867692
0.07227981
-0.01916898
-0.02403945
0.09504618
0.08521435
0.010873
0.01825133
0.09084398
-0.02652416
0.01996618
0.01232216
0.0964947
0.09041633
0.0319409
-0.04304809
0.01956031
-0.04399775
0.06352589
-0.09259226
-0.07771002
0.02701452
0.004981876
-0.03984163
0.05479793
0.02465329
0.0306326
0.0449366
0.07734658
-0.03463793
0.08904503
0.02778921
0.03432205
0.08039859
0.08343188
-0.02997039
0.1047891
-0.09274581
-0.04070558
0.01078341
-0.05014407
-0.05763911
-0.06184155
0.09780969
0.06227895
-0.07372808
-0.001382018
-0.07753314
0.004457145
-0.02561622
-0.04117787
-0.003150212
0.1050183
-0.09331434
-0.06802306
0.08058407
0.1057756
-0.00316636
0.05258267
0.05605296
0.03117684
0.008480644
-0.02540585
0.02579668
0.06960469
0.06643833
0.03481059
-0.06586456
-0.006675127
-0.07069502
-0.001340295
-0.06568012
0.01084162
-0.03884197
-0.03527333
-0.005155845
-0.1001049
-0.0144363
-0.1054817
-0.03812153
0.01592781
0.001095677
-0.1036394
0.1011151
-0.01531416
-0.07843225
-0.08927312
0.0384604
0.03727905
-0.06613529
0.0386578
-0.01756706
0.09562001
0.06573569
0.06588233
0.02992369
0.01505424
-0.004547772
0.09427997
0.05932177
0.05229499
-0.05445394
-0.04024195
-0.03270063
0.0734353
0.0558368
-0.01010959
-0.06422451
-0.1060889
0.01460889
0.01138103
0.05925961
0.03035479
0.04886514
0.01254794
-0.0635944
0.09035951
0.1048775
-0.04381996
-0.09312801
0.05038365
0.09529951
0.003973914
-0.106052
0.04589065
-0.03991976
-0.03746175
-0.009579552
