-0.03393884
0.003046276
0.06190724
-0.01834229
-0.05133162
0.02224274
0.02571425
0.09524377
-0.02438059
0.02654866
0.06292267
0.08887708
-0.0108206
0.03151494
-0.07934324
0.04739451
-0.09618473
-0.0450387
0.07932131
-0.01742036
-0.04051828
-0.08294234
-0.02662223
-0.04835337
-0.0995845
-0.1075674
-0.0001622825
-0.1059144
-0.06632402
0.03132685
-0.06257363
-0.008798494
0.08553477
0.02663039
0.06309202
-0.03805933
0.1028893
-0.1026102
0.1048825
-0.07101645
-0.1013486
-0.003348267
-0.09419876
-0.07112484
0.02109366
0.04511559
0.003985505
-0.04915027
0.0632645
-0.03281113
-0.08054287
-0.03661646
0.005988578
-0.01984569
-0.01113098
0.02772983
-0.08929941
0.09244961
0.02469983
0.04335378
0.05896579
-0.03994634
0.02988696
0.002884548
-0.0531849
0.08375593
-0.09645369
0.01143922
0.07131794
0.02649591
0.03750765
-0.02000772
0.03166272
0.04481495
0.07501516
-0.09479369
-0.06650258
0.002538371
0.01583198
-0.00807042
-0.09788365
-0.03774128
-0.05502731
-0.05868898
0.08036242
-0.01398046
0.06521738
-0.001290001
0.09810267
-0.06362929
-0.06621424
-0.01074811
0.03936091
-0.02580648
0.09066621
0.01586539
-0.1077017
0.03865986
0.02466509
-0.03611787
0.03644786
0.03896537
-0.05445625
0.05294567
0.05180524
0.0007309347
0.03700692
0.03068497
0.06334821
-0.0137416
0.01391284
-0.03661577
0.06164522
-0.07143959
-0.00209096
0.06679119
-0.005202882
-0.09446011
-0.09841188
0.03678801
-0.00170752
0.05114767
-0.03649521
-0.02114012
0.07466606
-0.1038495
0.09514116
0.01442954
0.06165632
-0.06582529
0.0593655
0.04341511
-0.06864983
-0.01313416
-0.01308269
0.1039639
0.001585094
0.01891007
-0.08478439
-0.008367744
0.03114068
0.08177611
0.1013795
-0.06354237
0.06308436
-0.0796834
-0.07813749
0.04352945
0.08554539
-0.07176101
0.02812869
0.04916288
-0.0215885
-0.0436441
-0.07101258
-0.01806577
0.04413773
0.03793198
0.05807327
-0.01591989
0.02211
0.004292929
-0.03498982
0.06604307
-0.01270767
0.01469904
0.08420826
0.1035711
-0.0462525
0.02548906
0.05392065
-0.09489755
0.1045563
-0.0009014047
-0.02010625
0.04833741
0.0119233
0.01120913
0.02115055
-0.06914421
0.06245748
0.08722218
-0.08705156
-0.02293958
0.00553342
0.05709616
-0.05644185
-0.07321417
0.06295829
0.03764073
0.04562515
0.07600232
0.08037202
0.08610531
0.1081583
0.04366923
-0.01224943
-0.05132853
-0.0659852
-0.02154752
0.02538949
-0.03739126
-0.01788561
0.02383061
-0.06034373
-0.1043875
0.0006268358
-0.05351899
0.01555823
0.071727
0.06989033
0.002743276
-0.07727683
-0.05030506
0.05094809
0.01110715
-0.05245152
0.05056855
0.08301841
-0.0877793
-0.0722742
0.09457452
0.07540811
-0.06184155
0.05828169
-0.02768568
0.009053544
0.06737433
-0.01769431
-0.01439822
0.08070289
-0.008723418
-0.0869834
0.06202011
0.08409646
0.08228228
-0.02893301
-0.07465988
0.03496934
0.05175818
0.03581749
0.05076683
-0.02831367
-0.09564143
-0.04374935
-0.1045637
-0.05690012
-0.02841923
-0.101867
0.01392927
-0.07860073
-0.08265769
0.009123247
0.06192408
0.09058649
-0.09139445
