0.0634838
-0.08015393
-0.006650244
0.07845712
-0.04643138
0.05899626
0.07822743
0.06185524
0.07193888
0.05577229
-0.08249741
-0.02386045
-0.0341736
0.03534791
-0.02053664
0.07709319
0.06376784
-0.01780937
0.08190057
-0.02573633
0.04996207
0.1062797
-0.045646
0.07620914
0.07995278
0.01060215
0.01028929
-0.03335325
-0.0166875
0.001095327
-0.07399944
0.07931417
-0.01033339
0.09024247
-0.09928548
0.009550086
0.07665996
0.04617622
-0.07166085
-0.07936879
0.006342494
0.03398747
-0.09626216
0.02443632
0.06519176
-0.0956442
0.09009067
0.07214116
-0.09382968
-0.004299652
0.004301793
-0.05184493
0.04456072
-0.04648786
0.07731838
-0.005702548
-0.06766008
0.09733247
-0.01192697
-0.1072657
-0.1031705
-0.06202988
0.01104875
0.09341615
0.07141613
0.0184895
0.06496177
0.04741263
0.06955496
0.08569442
-0.0685307
0.01347532
0.02738162
0.05888251
-0.05989257
-0.04864774
-0.08425186
-0.01498307
-0.05416311
-0.05214956
-0.06652388
-0.04642659
0.08938729
-0.06958071
0.03958154
0.08866729
-0.006165244
-0.08663683
0.09424038
0.06186263
-0.1035296
0.06152264
-0.07636041
0.1033347
-0.003202223
0.07853565
-0.02485345
-8.374021e-05
-0.09003333
0.09631908
-0.08730195
0.01269261
-0.05637262
0.01812391
-0.03542521
-0.05720195
0.0224376
0.04168225
-0.04770161
-0.03068828
-0.07667387
0.02596484
0.05483359
-0.06163698
-0.0692785
0.08208822
0.0293091
0.03228343
0.07614347
-0.03600315
0.06514966
-0.02567589
0.008262099
0.02303934
0.00950972
-0.006354264
0.05637154
0.1054842
-5.191397e-05
0.03576055
-0.05509802
-0.08803558
-0.0409743
0.1047954
-0.01421757
0.04016826
0.07148715
0.0002299987
0.07718445
0.1078
-0.0223875
0.08364774
0.0926192
-0.02352594
0.0274553
-0.02906687
0.09945073
-0.03322982
-0.1030737
-0.05546208
-0.05065851
0.09317806
0.01811984
-0.06464887
0.1005369
0.02786423
-0.04282671
-0.02964088
-0.04250882
-0.09954597
0.04713368
-0.001517134
0.1052318
0.02381543
0.09299397
0.008396105
0.08900362
-0.07345413
0.08795665
-0.0671255
0.0946254
-0.007163453
-0.007087984
-0.09342089
-0.1057593
0.05938929
0.09149282
-0.09954892
0.09745207
-0.1047041
0.06681691
-0.09754018
0.09105942
0.08210719
0.01864792
0.03248109
-0.07383159
0.05699855
0.01446783
-0.04209746
-0.02653533
0.06220338
0.01459633
0.01680518
-0.02278803
-0.02251627
0.003145349
0.08973179
-0.09094677
0.1034229
-0.02208647
-0.04567008
-0.05021844
-0.0540737
-0.04193284
0.08115589
-0.07067272
0.01773593
0.0306027
0.03125159
-0.006722807
-0.107873
-0.1003383
-0.1077546
-0.09557249
0.09198713
0.01962352
-0.01832389
-0.01474879
-0.0002662737
0.0085905
-0.04266849
-0.08954428
0.07549123
0.0141388
0.03429762
0.04263513
-0.02354014
0.06285729
0.01005806
-0.06494804
-0.04052292
0.03233512
-0.09475175
0.06982735
0.04651539
0.04580176
0.07736228
-0.03489376
0.07181363
-0.04785068
0.02611179
-0.03253429
-0.07803988
-0.08222564
0.0856818
0.04630021
-0.0231628
0.09680411
0.01115277
-0.06372356
-0.02900112
0.01283804
0.03808312
-0.07123777
0.03141572
