-0.00253203
0.07717361
0.1015698
0.0921409
0.06278532
-0.02364461
-0.0706836
-0.04060531
-0.07864706
0.007044953
-0.03182722
0.1022291
0.06614002
0.02970529
-0.1057013
-0.02031007
0.05401216
-0.003395021
0.05373274
0.05886903
0.03953756
-0.07769538
0.04991355
0.01147555
0.00397674
0.06024713
-0.05544847
0.0221047
-0.0751626
0.01433049
0.01177517
-0.07635695
0.02280523
0.04873317
0.09738257
0.06845735
-0.01540191
-0.02256156
-0.03456589
0.01523971
-0.08168712
0.0701612
0.103638
0.04662072
0.04582892
-0.05735047
0.04426594
-0.09651266
0.03175415
-0.07107771
-0.02889635
0.03264429
0.05121757
-0.1003821
0.09603908
-0.07281297
-0.1033587
0.0238059
7.96045e-05
-0.03716462
0.08248352
0.1021381
-0.09061546
-0.1043395
0.09169536
-0.05013575
-0.03603781
0.02796545
0.05595611
0.0239769
0.06692501
0.1057065
-0.08095483
-0.06099972
0.02622341
-0.04914372
-0.01920221
0.02004108
-0.06865995
0.08105042
0.104356
0.1012188
-0.1066425
0.08366726
0.06471089
0.05251838
0.01261904
0.00517692
-0.03189529
-0.02831909
-0.02168785
0.07147808
0.06679671
0.02786423
0.1062381
-0.06846909
0.016023
0.04907969
-0.09422143
0.08620542
-0.03803712
0.01300399
0.09167712
-0.02633645
0.10051
-0.05690171
-0.01391835
-0.04332453
0.09982779
-0.03569828
-0.004327386
-0.008993061
0.04837039
0.07458473
-0.002746797
-0.05826905
-0.005689536
0.005173767
-0.08357067
-0.06127669
0.03722057
0.07799634
-0.09222142
-0.004299658
0.05705788
-0.01005084
-0.00144307
0.04818529
0.03564412
-0.05478276
0.08354836
0.07316992
0.1006601
-0.06978515
-0.09411074
0.01597377
-0.01404605
-0.09401827
0.03404287
0.04484821
0.02381474
0.02153038
0.04673667
-0.03853947
-0.03849475
-0.05941852
0.09078072
0.07466579
-0.002063957
-0.05191788
0.04896256
0.06943186
0.1058303
0.02152786
0.05642475
-0.07492311
0.04099336
0.0725883
0.05768934
-0.1013335
-0.05876217
-0.02371998
0.06449595
-0.0661654
0.003627317
-0.02795121
-0.02160331
-0.04017213
0.02170153
0.0964021
-0.01806577
-0.03662475
0.05519633
0.01123636
-0.0471908
0.01852696
0.08308914
-0.03529794
-0.04835095
-0.09334809
0.0392177
-0.08513877
0.07370292
0.0156147
0.03964867
0.001056656
-0.09495716
0.07539645
0.006165942
-0.04646381
0.04609188
-0.08964816
-0.05385202
-0.07417197
0.08856011
-0.1081955
0.04442703
-0.02557748
-0.01468156
-0.09943792
0.04049614
0.06611728
0.001310296
-0.06839823
0.07606284
0.08059866
0.03638708
-0.08857927
-0.03876089
0.04831551
0.03074411
-0.03187859
-0.0001474337
0.05094133
0.004389631
0.066907
0.02179559
-0.1041049
-0.05427495
-0.08919495
-0.05333644
0.05628843
-0.01301941
0.01034926
0.06603193
0.008295724
0.1035947
-0.06361755
0.09178223
-0.08570542
-0.07956304
0.0266767
-0.002888189
0.1004867
0.05100102
-0.05818021
0.03238124
-0.07325841
-0.1020842
0.07959341
-0.07325085
0.06258217
-0.0898851
-0.05620574
-0.06948593
0.07846801
-0.02430105
0.01655571
0.03946837
-0.03569317
0.09094871
0.05115366
-0.02959048
-0.07185633
0.005128983
-0.06279402
