-0.06231093
0.09467761
0.1009258
-0.1067572
0.002994886
-0.03154556
-0.01328113
0.1005295
0.1077226
-0.03240556
-0.1057225
0.004426868
0.08255349
-0.07608285
0.00874783
-0.05837003
0.01282495
-0.02754167
-0.05686638
0.00686723
-0.07689738
-0.02002606
0.02151431
-0.02655114
0.07904945
0.009975319
-0.006351809
0.06821853
-0.001042966
-0.05315597
-0.06859098
0.03823325
-0.02476311
-0.02012175
-0.04762712
-0.02039482
0.08549467
0.0147363
-0.03023165
-0.06531991
0.08233045
-0.04080777
0.01481474
-0.04772365
-0.01448605
-0.01064038
-0.03918831
0.02265591
0.02503197
-0.05062402
-0.01907871
0.1052014
-0.03550982
0.02241509
0.04842378
0.0289159
0.07827453
0.06008509
-0.07283627
0.05454715
0.06202542
0.0126764
0.09767905
0.02965565
-0.09380116
0.04026381
-0.05760004
0.06190599
0.05584396
-0.08909475
0.0162712
-0.06137648
-0.1005686
0.0906625
0.07431813
0.05849244
0.06463864
-0.01562636
-0.007549049
-0.04809846
0.03574363
-0.02157034
0.02217748
-0.03621787
-0.02589832
0.004990632
-0.07784245
-0.04848662
-0.05168265
0.01745282
0.02457798
-0.0130466
0.04821588
-0.05334472
-0.08484063
-0.05851698
0.009059293
-0.05772517
-0.06801193
0.1080245
-0.1025952
0.09234624
-0.01581848
-0.0052242
0.04757149
-0.01572913
-0.003778055
-0.02303402
-0.06813374
-0.09899719
0.07829374
0.1027795
-0.08115582
-0.02143193
-0.07942788
0.06944259
-0.09633879
-0.05091715
-0.06980273
0.06506042
-0.02378705
-0.07841556
-0.07388866
-0.06608294
-0.01770724
0.04734568
0.08916885
0.01720199
0.04540257
0.06110369
-0.09551442
0.03501729
-0.09382979
-0.004953811
-0.05200269
0.01708442
-0.07141048
0.1063311
0.02233769
-0.08610892
-0.02322465
-0.008792212
0.08951433
-0.03436398
-0.1032436
-0.06568073
-0.007441369
0.04122841
-0.06628989
0.04779108
0.007698032
-0.05361125
0.01571879
0.0295216
-0.08368276
0.04907969
0.08432346
-0.05387516
-0.1039165
-0.03812783
0.06360459
0.09765195
-0.08603775
-0.05743378
-0.06809257
-0.1030309
-0.07936402
-0.03703057
0.09018171
0.08655354
0.008298849
0.09619947
0.02277164
-0.007466762
-0.03814826
0.04861898
0.07470278
0.1032944
-0.04518617
-0.05876161
0.06694668
-0.004487675
-0.06596717
-0.07276043
-0.06092021
0.09875185
-0.05138912
-0.0720272
0.08727718
-0.03055311
-0.04925415
0.08634682
-0.05638431
-0.05236562
-0.09124159
-0.06310626
-0.06505147
0.06744272
0.08979312
0.06328312
6.141547e-05
-0.03253854
-0.05994821
-0.05579261
-0.06805825
-0.03238852
-0.018481
0.03689763
0.1042039
-0.04548907
0.06745394
-0.08183084
-0.07368606
0.04012076
-0.07643296
0.09337398
0.04823004
0.07410267
-0.03015652
-0.02203921
-0.09853839
0.05080789
0.008204461
0.006091562
-0.04194451
0.1046361
-0.06156607
0.06084831
0.02216427
-0.05534657
0.0208616
0.08592435
0.04467574
0.03579159
-0.01254267
0.0368965
0.03283435
-0.09170282
-0.06411739
0.0467727
-0.0008466839
-0.0613462
-0.1005591
-0.0006628758
0.02945727
-0.08897886
-0.0803036
0.02485846
0.001289325
-0.1046394
-0.06128135
-0.03863749
-0.09203053
-0.03418267
-0.03430834
0.07593279
