0.08174465
-0.08249955
0.03056564
0.01351593
0.07729539
0.05362139
-0.1015752
0.07654497
-0.006768852
-0.003057149
0.003419721
-0.02414889
-0.02505034
-0.06391279
-0.08470648
0.04655784
-0.1034231
0.1077497
-0.09181568
-0.02331432
-0.03636014
0.03326459
-0.001454202
-0.1032048
-0.09943452
-0.02079661
-0.006681746
0.0982547
-0.04568988
0.03428751
0.03618918
-0.1060965
0.04678469
-0.006114623
-0.08918227
-0.009818357
-0.02824268
0.09648722
-0.0550249
0.06351879
0.08741566
0.08821458
-0.05941458
-0.03591053
-0.1046032
-0.01784569
0.06846508
0.07383691
-0.09005418
0.1017123
-0.07552891
0.05975542
0.0005231511
0.04875479
0.06095272
0.09788549
0.02351108
-0.04237208
0.08561449
-0.03078487
-0.08261228
-0.03005666
-0.01372131
0.0447137
0.08541033
-0.08446405
0.0806014
-0.0893467
-0.06155397
-0.10662
-0.02276853
0.03767275
0.06269266
0.004158066
0.01202122
-0.001399577
0.09425592
0.08481713
0.01809248
0.00316526
-0.03238623
-0.07166281
0.03188243
-0.07559456
-0.0795839
-0.08576696
0.06941662
-0.08509832
-0.03022893
0.05581767
0.07966579
-0.09164293
0.01442158
-0.03335325
-0.07112058
0.07096268
0.02000348
0.06821853
-0.03432282
0.08701487
-0.0830638
0.01981363
0.03146753
-0.09515468
0.06782737
0.0992893
0.05601033
-0.001753831
0.02012442
-0.02754063
-0.07619738
-0.04506897
0.02964623
-0.01097776
0.07943123
0.04192767
0.02246875
-0.02368948
-0.006088877
-0.04569605
0.1027441
-0.09067532
-0.01558785
-0.09059499
0.07638661
0.08311725
-0.05926792
-0.004576791
0.0300136
-0.02030943
-0.08856189
0.04360332
0.06144163
0.04006792
0.04319469
-0.03664024
0.0375213
0.06947232
0.08318628
0.06119926
-0.007308397
0.06236429
-0.04890816
-0.09366564
0.1048663
-0.007406817
-0.07592273
-0.0275606
-0.02088568
0.01270073
0.06382655
-0.05059975
-0.02962743
-0.08215226
0.003714852
0.06391523
0.08732271
-0.07782473
-0.05919844
-0.04186274
0.000790998
-0.06050192
-0.02737607
-0.02556591
0.05112122
0.06721254
0.05438099
-0.06439011
-0.09699446
0.1020232
-0.1059144
0.002460364
-0.076762
0.008116907
0.08562843
-0.009976696
-0.07173266
-0.02687795
-0.05030867
0.1052362
0.08637715
0.02828847
-0.04106521
0.01275939
0.05936755
-0.09046332
0.04932312
-0.0102494
-0.07690363
-0.08923064
0.08594277
-0.009952345
0.08415926
-0.02050245
0.01111229
-0.08953876
0.0599921
-0.08047485
-0.08347237
0.01409269
0.1013619
-0.01652764
-0.0002379801
0.06201526
0.01819078
-0.0065109
-0.005827476
-0.03476031
0.02767219
-0.08111025
0.01249303
0.09047171
-0.03522101
-0.03730472
0.01658325
0.04074331
0.02729655
0.09304661
-0.03650722
-0.01799747
-0.03554755
-0.05677219
-0.02160237
0.09827361
-0.06641794
0.02342614
-0.07478923
-0.05266995
0.06486362
-0.05764426
-0.0281572
-0.03952672
0.08350839
-0.1022055
0.02818588
-0.05795045
0.0461083
-0.09182286
0.1018291
-0.02075913
0.07159557
-0.04636599
-0.1050057
0.01646723
-0.09579044
0.02261977
0.02537004
0.06121436
0.009747801
-0.005626983
-0.03643152
-0.04752976
0.07585345
-0.06249818
-0.07898372
0.01359298
