0.03312562
-0.006541668
-0.008439624
-0.01952027
0.05571812
-0.08673954
0.08351035
0.06002243
-0.02627419
-0.02825364
-0.01432404
0.05787222
0.06049715
-0.007857796
0.04099545
0.09298688
-0.01812976
0.05475553
-0.1033724
0.07603997
-0.0823686
-0.07883504
-0.03760442
0.08280789
0.002401641
0.01969833
0.1023195
0.008172474
-0.006786005
-0.01415757
-0.06107219
0.03962102
0.09215609
-0.04932068
-0.1034727
0.0253604
-0.1013548
0.08414197
-0.04488633
-0.09746359
-0.06127767
-0.08428597
0.02192766
-0.06765993
0.07204713
-0.0147734
0.05028787
-0.06725009
-0.06526896
-0.05448095
-0.1056347
-0.01197743
0.0112764
-0.01676461
0.03618992
-0.04722875
0.08446006
0.06846443
0.05193743
0.05639951
-0.01291284
0.01958619
-0.09436725
-0.04322271
-0.03367228
-0.07734803
0.0457647
-0.08407057
0.08860036
0.08092286
0.1023125
0.008666961
0.0299973
0.1067303
0.009168903
-0.008082568
-0.1037911
-0.09584638
0.04766363
0.002857051
0.01072879
-0.1066866
0.02343465
0.0924266
0.03299879
0.03970445
-0.001725491
-0.1027455
-0.09340206
0.05622195
-0.09919528
0.0288269
0.08902872
0.04713368
0.06712761
0.1013899
-0.01576457
0.06360459
0.06590455
-0.1065277
-0.003764945
-0.1045356
0.05140324
-0.04491458
-0.09890459
0.02534278
0.02183622
0.09911697
-0.03391917
0.03539513
-0.1036833
-0.04300044
-0.03856059
0.06911875
0.01003116
-0.02223067
-0.05223417
0.02013689
-0.1067381
0.07815161
0.01379489
-0.005208301
-0.04020234
-0.09773438
0.05924115
-0.1004961
-0.002418561
-0.004596095
0.001619163
0.004368617
-0.04316737
-0.008889629
-0.0118405
0.0377882
-0.04097312
-0.06727754
-0.07102059
-0.1069692
0.1006375
-0.08147247
-0.04025729
-0.05728541
-0.03295413
-0.0588142
0.06889136
-0.02497601
0.06136745
-0.02755779
-0.01762475
0.04519762
0.1060697
0.03945582
0.07749115
-0.00466454
-0.09800359
0.01431736
-0.05780243
0.06087622
-0.07713482
0.0119309
-0.02106037
0.0004394702
0.08165249
0.07831081
0.004742449
0.05170811
0.02643144
0.02109515
0.02897625
-0.02908584
0.02211
-0.02585144
-0.0694291
-0.03844053
-0.05666911
0.1081597
0.05466015
0.04915147
-0.0683664
0.08106658
0.0487778
-0.02181257
-0.03753665
-0.03146405
-0.07102744
0.05371838
0.05883729
-0.004566687
0.07144928
0.0143613
0.09268163
-0.02359783
-0.02932711
-0.08556581
-0.08236075
-0.05253021
-0.03956299
-0.01359306
-0.05638202
0.07704961
-0.04302226
-0.06261703
0.08268889
-0.01302826
0.01769486
0.09429035
-0.07196648
0.09162572
-0.0712621
0.09469142
-0.05628609
-0.001059632
0.07578713
-0.03991731
-0.09653018
0.02500285
0.01605078
-0.06897587
-0.07081932
0.08159427
0.03254373
0.004145926
0.04093603
0.0337126
0.04717144
0.0613613
0.0354228
-0.08877605
-0.02653128
0.03757931
-0.05812049
-0.07774208
0.07649998
0.0496478
-0.03708592
-0.09088017
0.05304212
0.04591642
-0.01321779
-0.06294723
0.08335037
0.09541983
-0.05467628
0.02220369
0.02943378
-0.09732951
0.01872743
0.01966556
-0.02537201
0.08662729
0.03939719
0.07403396
0.08025958
0.002557869
-0.08843385
0.0570058
