0.08130737
-0.03681637
0.09786019
0.08871356
0.09889812
-0.05615683
-0.06284852
0.0006209246
0.007468786
-0.09832883
-0.09930873
0.05701435
-0.006890791
0.0389481
0.02090915
0.006239268
0.09882376
-0.02075622
0.06639109
0.1078262
0.02723252
-0.05405809
0.08073915
-0.09602168
-0.06514688
0.09278783
-0.01045037
0.06118634
-0.05144833
0.10582
0.02175208
-0.01732483
0.09417304
-0.02897252
0.01857526
-0.069547
0.02141676
0.01259195
0.01775921
-0.0326717
-0.06637824
0.01030509
0.06459725
-0.02840764
-0.004485749
0.08438648
0.07105512
0.08017296
0.09687158
-0.04752788
-0.09781617
-0.07383288
-0.08155225
0.04112238
-0.1048523
0.06540285
-0.05445365
0.08876486
-0.0503298
0.09796108
-0.03204836
0.06349865
-0.08784914
0.03629553
-0.04988766
0.06623726
0.08351676
-0.1033211
0.03613272
0.04720706
-0.01488936
-0.06864037
0.05726129
-0.0736721
-0.02254812
0.08233033
0.08580238
-0.00181811
-0.03254147
-0.03447691
0.06071691
0.08921218
0.08796444
-0.02645027
0.05487886
-0.01182465
0.04210285
0.05336674
-0.07553831
0.03613407
-0.07743566
0.03747884
0.0356841
-0.1035296
-0.04238817
-0.08147892
0.01905383
0.02457798
0.06296412
0.04582305
0.09559312
-0.003893944
0.009629068
-0.006588337
0.04063101
-0.07202151
-0.04541864
0.01429074
-0.02151902
-0.0841702
0.07557213
-0.004859061
-0.02523221
-0.06112175
0.01631212
-0.006386806
0.001232343
0.001625002
-0.0382192
-0.08396519
-0.0401827
-0.0939908
-0.07824533
-0.05325835
-0.07664312
0.08325353
-0.0835403
0.09357675
0.07376887
-0.008185228
-0.06667714
-0.05364397
0.06938371
-0.01725261
-0.04458347
0.08284525
0.07989109
0.06880482
-0.09897171
0.03976307
0.07252014
-0.05155436
-0.09287707
0.0218003
-0.1009172
0.008012628
-0.05995429
0.03790856
-0.104143
0.07494755
-0.06144698
0.05688861
-0.05689269
-0.09266067
-0.01510545
0.01978393
0.1019549
0.03953537
-0.02167742
-0.09645746
0.02990178
-0.08802708
-0.03943071
0.02307664
-0.02142331
0.09411449
0.1002143
-0.003222249
0.1000967
-0.09253591
-0.06621424
-0.1078982
0.0809978
0.07801871
-0.1038188
-0.1066536
-0.03768707
0.0655459
0.006835794
0.09936687
-0.08481328
0.069497
0.04084615
0.06768064
0.06075378
-0.01290993
0.05512066
0.08881497
-0.0779576
0.06978785
-0.04085278
-0.04944847
0.07055207
-0.05709076
-0.06256469
0.06469227
-0.04218085
-0.02674519
-0.1039738
0.02050813
0.005445023
-0.1042178
-0.02474567
-0.03340865
-0.08294965
0.004822555
0.08346511
0.1023079
0.05012659
0.006504455
0.108203
-0.03335897
-0.02916917
-0.1058728
-0.1066032
-0.06313479
0.05669414
0.06336281
-0.03424093
-0.09588591
-0.06582058
0.01815058
0.09192577
-0.02811769
-0.05470047
-0.0792651
0.08307992
-0.003845327
-0.03446848
-0.03828674
0.04617253
-0.02378673
-0.03656134
0.0016778
-0.1010685
0.06108081
0.04502612
0.06017776
-0.0531687
-0.04183128
0.06885283
-0.07855733
0.04277442
0.09523182
-0.02252729
-0.02679647
-0.09613563
-0.08052894
-0.08617401
0.05550567
0.07924476
0.1075159
-0.08693205
-0.07089015
-0.003350985
0.0946715
