-0.01803745
-0.01932199
-0.07482561
-0.05287998
0.0672559
-0.03627839
-0.06741182
-0.05952014
-0.03504737
0.1072885
0.001058183
-0.0382194
0.08591138
0.08331492
0.07612229
0.03493515
0.07918456
-0.08646441
-0.02263861
-0.06279895
0.06868082
0.08213372
0.04614833
0.04188558
-0.07318091
-0.02783589
0.05657457
-0.001454202
0.03189165
0.09842464
-0.06972332
-0.07481199
0.04462538
-0.02486573
0.04717178
0.04335057
-0.02927057
0.07143141
0.0911239
0.07821175
-0.04487229
0.01825222
0.006618361
0.07822217
-0.07757264
0.08562157
0.07348289
-0.03629238
0.09929338
-0.03998264
0.03664887
-0.1015728
0.06593022
0.03923248
0.008212912
-0.04635014
0.03606075
0.01105433
-0.001949026
-0.0656895
-0.05759253
-0.09554253
0.08025165
-0.009726252
0.04974969
-0.08768664
-0.01420513
0.1017816
0.06494759
-0.04123509
-0.001804432
-0.03763121
-0.1034846
0.09594423
0.09089787
0.04266716
-0.0397025
0.01628099
0.03058987
0.0329741
0.02084702
0.03626868
-0.03379057
-0.03790291
-0.0925416
0.06757183
0.03668669
0.07644138
-0.03051926
0.005404177
0.08073915
0.04911406
0.01899688
0.07067382
-0.08884551
-0.05848498
0.09009919
0.06082173
0.003072719
-0.05342875
-0.09917512
-0.0810919
-0.02255861
0.1011293
-0.09355911
-0.04299551
-0.0728196
0.09952974
-0.05537478
0.03203834
-0.04070877
-0.04170743
-0.04192159
-0.04012563
-0.005905346
-0.08427792
-0.07150368
-0.07234368
-0.09351446
-0.002960625
0.01004733
0.05835776
-0.04743074
0.03903263
0.07616767
0.0008570828
0.06055468
-0.1035916
0.07572754
-0.00946464
-0.02031549
0.005065421
0.07774737
0.05998016
0.06350669
-0.02365869
0.03852161
-0.07898317
-0.0130946
-0.005267353
-0.05198566
-0.08594842
0.03917044
0.09564901
0.04741728
-0.01831322
0.08469646
-0.1062061
0.03326451
0.03633809
-0.1045412
0.09275371
-0.0993335
0.02698633
-0.08370152
0.04991355
-0.05676658
-0.106857
0.02161659
-0.06291249
-0.03760442
0.08118591
0.03652992
0.1031099
0.08971494
0.08818714
-0.06681793
-0.01799684
-0.08966129
0.09880225
-0.04652335
0.0715111
-0.01919098
-0.06479223
-0.01759752
0.07940523
0.1006103
-0.0653328
0.03350925
-0.07481408
-0.01356785
-0.01959281
-0.06338448
0.08794376
-0.04621011
-0.05132996
0.05932779
-0.07504804
0.05112161
0.03433302
-0.1054862
-0.01990153
-0.1064318
0.04131875
-0.09123415
-0.07686467
-0.0585513
-0.08290371
-0.06518839
-0.05221833
0.06878786
0.0399682
0.05779511
0.05015049
0.01940048
0.04267228
0.02743657
0.0376986
0.06435119
-0.02823745
-0.01500689
0.008670037
0.06390917
0.04945484
0.02708841
0.08052356
0.03804095
0.02557669
0.06279661
0.03811801
-0.007984101
-0.07106171
-0.09381983
0.04581225
0.08868373
-0.0895744
0.09305632
-0.02386022
-0.05397103
-0.07198322
0.0265053
-0.007639116
0.06447784
-0.04142166
0.04006982
-0.09302004
-0.09803823
0.06500991
-0.1009193
-0.0990219
-0.04653422
0.005763582
-0.05766499
0.04967531
-0.06977058
-0.09042425
0.008610996
-0.07432096
-0.04750864
-0.01926478
0.01877321
-0.08057094
-0.02443159
-0.03902782
-0.07549106
-0.07782946
