0.02003337
-0.0251969
0.0835517
-0.0524613
-0.08264358
-0.01284728
0.03354425
-0.07754295
-0.0255817
-0.05764374
-0.09136698
0.003819052
-0.002880887
0.04153783
0.06680094
0.1079154
-0.08622685
0.01682847
0.06187553
0.04063087
0.03737885
-0.09021913
-0.05291517
-0.04674826
-0.009840558
-0.1005341
-0.08689134
0.09047171
-0.1059328
0.05909083
0.07083628
-0.06906713
0.05030504
0.1049595
-0.09019364
-0.03587704
0.005296146
0.03700023
-0.04310383
0.08646272
-0.01961637
0.007403229
0.0170046
-0.03974627
0.1042159
0.09674641
0.03113168
-0.006801444
-6.640946e-05
-0.04974821
-0.03889176
-0.0403659
0.02514272
0.01141289
0.06010136
0.03356243
-0.06303004
-0.09357987
-0.02081511
-0.06243639
0.08263551
0.1022851
-0.09480131
0.07186213
-0.0782835
-0.01769903
0.0007317598
0.1034644
-0.01059272
-0.01282114
-0.08293884
0.0279893
-0.02969695
-0.1055995
0.03289194
-0.01557733
-0.06982683
0.05244986
-0.104148
0.07021078
0.04502737
0.01500303
0.07094532
-0.1065607
0.0187709
-0.08203835
0.03481713
-0.04007886
-0.004258558
-0.08418528
-0.03335897
-0.01378758
0.04568743
0.06979429
0.0606266
-0.03204331
-0.09368472
0.08876036
0.06637988
0.09320404
0.0006442604
-0.0391019
0.0763978
-0.05993327
-0.01091756
-0.01017097
-0.03642857
0.02572143
-0.005458136
0.04435941
-0.1005284
0.03546741
0.008541374
-0.09430914
-0.03419653
-0.0525274
0.08469632
-0.007259874
-0.09897906
0.0966631
-0.0821785
-0.002411384
0.03003884
0.08807036
0.07884929
0.00668493
-0.1026351
-0.06863216
0.09621792
-0.01547406
0.08202983
0.007769472
0.05220995
-0.05526961
0.06284381
0.009003457
0.002125721
-0.0780769
-0.08906149
0.01285523
-0.08067913
-0.104716
0.00839281
-0.05315041
-0.08788326
-0.05335353
0.002069134
-0.000484795
0.009232014
-0.001873092
-0.08001733
-0.02721899
-0.05180955
-0.09796691
-0.1061545
-0.03187859
-0.03981195
-0.002735978
0.08426356
0.004325662
-0.001059632
-0.05097453
0.08613609
0.04338273
-0.03579622
-0.03356486
0.07487847
0.01777894
0.07107855
0.08879011
0.007866587
-0.02082609
0.06164898
-0.03217961
-0.05766377
-0.08464567
-0.06040486
0.0967459
0.07850446
0.1006225
0.08890621
0.08796139
0.09685512
0.05550024
-0.08243527
-0.0249443
-0.06612728
-0.0796532
0.05952356
-0.08669092
-0.08454932
0.01316179
0.08761307
-0.1060751
-0.03891261
-0.01401597
-0.05099463
-0.06615607
0.05579097
-0.005782773
-0.02190025
-0.00404732
-0.1037125
-0.07702664
-0.09438448
0.09310742
0.003750536
0.01100885
0.00129946
0.0160139
-0.07241948
0.09727167
-0.0956057
0.08728223
0.06353559
-0.0769598
0.08577462
-0.005514733
0.02808193
-0.02398878
0.06155089
0.06895221
0.09728739
0.1011151
-0.08862159
-0.01580215
0.001494896
0.09169972
0.06195924
-0.07355049
0.007382438
0.03310005
-0.04601652
-0.01975575
-0.08784503
-0.09939101
-0.0262273
-0.0741655
-0.005093517
0.0325192
0.02857099
0.08517461
0.09130647
-0.06431948
0.003840965
-0.0754534
-0.09942185
-0.08560003
-0.1043097
0.03434873
0.0640425
0.0242049
0.02747465
-0.1026862
-0.05869791
0.08339161
