0.04367261
-0.03011679
0.05693438
0.04563534
0.02142311
-0.03915649
0.0133368
-0.06151561
-0.07414357
0.005961447
-0.04129357
0.02327488
-0.004054867
0.01425477
-0.07766949
-0.006603349
-0.0201129
-0.01157617
0.04198905
-0.05502562
-0.05783037
-0.08083865
0.01105433
0.01034377
-0.08717924
-0.03883572
-0.07130029
0.07653466
-0.03150768
0.006637484
-0.03456687
0.08516034
-0.0831136
0.07325816
-0.04849223
-0.05565006
-0.03286471
-0.07311196
0.06736659
-0.09340427
0.05092958
0.05615923
-0.09464862
0.06428984
-0.08768301
-0.1017634
0.08695181
0.05167424
-0.08742097
0.01868054
-0.02703746
0.05958666
0.071304
0.07644927
-0.007492205
-0.01380855
0.02695309
0.08908235
0.05866824
0.08047616
-0.07273749
0.08453234
-0.01940506
0.03057729
-0.08275748
0.07520174
0.08912585
-0.07435914
-0.07486805
0.04923395
0.009114848
-0.08050847
0.07231146
0.006628737
0.06539543
-0.09033942
-0.05961684
0.07629685
0.02711855
0.04520712
-0.08345022
0.09178338
0.06238383
0.03521162
-0.08944114
0.0691995
0.1072789
-0.07298657
0.08948135
0.02323268
-0.06002705
0.04147873
0.04395387
0.09733247
-0.09910599
-0.08332123
0.03053231
0.06008509
-0.09784555
0.03985947
-0.0161996
0.05793158
-0.02998459
-0.06524911
0.08751106
-0.08534285
0.01609484
-0.0557822
0.0478975
0.02673264
-0.009725986
0.06133323
-0.03514274
-0.07530513
0.0268328
-0.04837137
-0.104795
0.1024145
-0.08351058
-0.05873114
-0.08412152
0.1025139
-0.07495903
0.04219747
-0.08165642
0.04720394
0.08832634
0.05166327
-0.05799412
-0.06141421
0.04688159
0.06226136
-0.02016654
0.06702459
-0.09497777
-0.06875541
-0.04868041
0.09824732
-0.07372782
-0.03052473
-0.0364951
0.06969578
-0.07475419
0.006524126
-0.02529046
0.09548628
0.09776746
0.107024
-0.02659958
-0.02575767
0.03667334
-0.08099235
-0.01804916
-0.08089875
0.001861288
0.08782195
0.04339157
0.006980707
0.0259738
-0.08282331
-0.07899472
-0.01818149
0.0456916
0.04558881
0.02368882
0.05619628
0.01828669
-0.02342011
0.1069366
0.02302312
0.09244961
0.08148097
-0.08914898
-0.04701806
-0.09651217
-0.07572466
0.05410485
-0.02166824
0.04319429
-0.0892461
0.03530898
-0.02424281
-0.01415191
0.06378368
-0.04317198
-0.02485193
0.08204383
0.08750492
0.06178266
-0.04122647
-0.1047031
-0.07247911
-0.05277814
-0.00554103
-0.02551718
-0.1006908
0.1071543
-0.08466154
0.07118249
0.09524923
0.07242624
-0.07278916
-0.06751588
-0.03075916
0.03770951
0.0930976
-0.0747772
0.09394925
0.06793348
-0.07117843
0.01635964
-0.09357987
0.1023849
-0.05775093
0.083912
0.03259466
-0.02168559
-0.018327
-0.0753039
-0.1028436
-0.09045748
-0.07443218
0.1031196
-0.07196467
0.04932105
-0.0604868
-0.05276402
-0.0004760815
-0.1075529
-0.09893574
0.01829995
0.0821408
-0.06361271
0.1007625
0.004120777
0.0338229
-0.06547882
-0.08834855
-0.0107535
-0.04346577
0.00882924
0.02622462
-0.04454287
-0.03678727
-0.1082425
-0.08950006
0.09857482
-0.06785041
0.04261567
0.03732143
-0.0249805
0.05836197
-0.05235333
-0.06264063
0.06235496
0.07765965
