-0.1005149
0.09043501
0.06946559
-0.0277826
-0.01658407
0.1037458
-0.007654736
-0.09758466
-0.06006592
-0.0194945
-0.1042188
0.07595697
-0.04967646
-0.07887898
0.08243845
-0.0354751
0.02422781
-0.1030911
0.06547195
0.02409414
-0.04178793
-0.08975627
-0.0990219
0.07916881
0.03132215
-0.06694531
-0.02015112
0.01856873
-0.09233501
0.0801218
-0.001224955
-0.05905453
0.09112567
-0.09460314
0.09211484
-0.05936017
0.08886813
0.01387961
-0.02876619
-0.050666
-0.0472442
0.09018024
0.05270452
-0.0981013
0.07329377
0.0972037
-0.04296052
-0.01985512
0.1012913
-0.06279048
-0.02763074
-0.04616997
0.1068751
-0.01773479
-0.07934343
-0.1011112
0.08280337
0.03803527
0.0474127
-0.008367331
0.07064418
-0.07428999
-0.06170004
-0.07962894
-0.04395569
0.09186117
0.07180838
0.03963313
-0.03673829
0.04363726
-0.07286999
0.04181777
0.0380042
0.04575292
-0.1026611
-0.08408447
0.0655854
0.07377566
0.06953511
0.0385711
0.07713292
0.06515283
0.04971258
0.05213116
-0.09559029
-0.08446346
0.1018151
-0.06515329
-0.07387521
-0.04446647
0.09576552
-0.1071898
0.01132797
0.07181363
0.009833658
-0.01619324
0.06562696
0.0467727
-0.07405449
0.1025684
-0.07749071
0.05447053
-0.09340262
0.09543888
-0.02728028
0.07570323
-0.05595527
-0.07001292
0.1017636
-0.04657168
0.04088269
-0.0256387
-0.0625921
0.01566161
0.05597275
-0.02417178
0.01189987
0.04026432
0.04531277
-0.03934207
-0.006225022
0.1043692
-0.06316929
-0.03628936
-0.02711535
-0.0615794
-0.005358634
0.01668213
-0.05214291
-0.01839092
0.00632408
-0.0006581025
0.008373269
-0.04417113
0.09485789
-0.03379031
0.07769234
0.0702523
0.01420212
0.09045
0.06938923
-0.04074464
0.06119125
-0.07697633
0.07707819
-0.0008146447
0.09395041
0.06792572
0.00845027
0.08322351
-0.0002606328
0.01421957
0.0209079
-0.03813092
0.02403069
0.09638068
-0.02447973
-0.01792356
-0.09706033
0.06261063
-0.01479941
0.04121612
0.03275307
0.04741858
-0.02610779
0.02316014
0.03146492
-0.03902792
0.1081526
0.01674552
0.05175818
-0.1004106
-0.06354301
0.06931892
-0.07786825
-0.03007855
-0.0381975
-0.1014297
-0.04454383
0.102544
-0.07448648
-0.002405772
0.02830561
0.01291713
-0.01127056
-0.01960763
-0.08037289
0.01234705
-0.03407769
0.01109511
-0.104595
0.06192024
0.03743499
0.08493617
-0.09219171
0.08065958
0.06022439
-0.03097101
0.07429375
0.03186789
-0.04068857
0.01548156
0.06262303
-0.1014379
-0.05450068
-0.08076427
-0.02773998
0.06250931
0.03431192
0.04627366
-0.02533738
0.0325192
0.04583374
0.09782772
-0.02692608
0.06630126
-0.1068147
0.07860447
-0.08069053
-0.09350084
0.06280984
0.1000378
0.07737693
0.1017735
0.1076685
0.03935782
-0.1065996
0.07764661
-0.04985975
-0.06454173
-0.01975309
0.05511656
0.003746001
0.09490571
-0.09362962
-0.084814
-0.0627282
0.0410896
-0.02927516
-0.03755729
-0.06215426
0.03679828
0.08116406
-0.0651613
0.01391319
-0.08439251
-0.0272572
0.02699662
-0.05666333
0.01193112
0.06429992
0.03627296
0.08917149
-0.09108798
0.06614081
-0.00461459
