0.07791202
0.05187196
0.07542934
0.003157244
-0.03440231
-0.06902242
-0.09053655
-0.007995719
-0.08847561
0.0193818
0.07368544
-0.09947333
-0.02493071
0.006474791
0.03211737
-0.08459902
0.05580188
-0.02293652
-0.100607
-0.09470547
-0.1060901
0.01643408
0.05657457
-0.08940373
-0.09463269
0.03034034
0.08765993
-0.01948035
0.06098835
0.001297753
-0.05144053
-0.02615399
-0.005944896
0.04758237
0.01720609
-0.007022211
-0.05223066
0.03103741
-0.09996191
-0.09512457
0.05188687
-0.1035287
0.03228271
0.08401427
0.08655866
-0.0445827
0.06771997
0.01461298
0.09375735
0.06462939
-0.04835192
0.1079153
0.04909764
-0.04620013
0.01982157
0.05393478
-0.01077418
-0.09935425
0.09866018
-0.003657592
-0.09023903
-0.09673218
0.02833736
-0.04224763
0.0520109
0.01362528
0.04600046
0.0315374
-0.04181763
0.00943532
0.06441204
0.03855343
0.102603
0.03469384
-0.05487316
-0.01065175
-0.05370612
0.05639961
0.004808925
-0.08473755
0.04033491
0.03519424
0.08784603
-0.002207126
-0.007936938
0.03538085
0.09472348
-0.03748474
-0.1032275
0.05912422
-0.08987832
0.007718211
0.06459786
0.01028929
0.06556319
-0.03992873
-0.02240846
-0.006351809
-0.0510893
0.06004524
-0.001279725
0.02747772
0.002650358
0.07458299
0.06516862
-0.0009368465
0.07948735
-0.000625593
0.09998237
-0.09248436
-0.02653796
0.01968539
-0.06152001
0.03819949
0.03618006
0.05518844
0.06089024
0.02507995
0.06709733
-0.04544815
-0.05191783
-0.09520952
0.04804885
-0.01167929
-0.08143269
0.04514547
0.1043391
-0.01316947
-0.07108317
-0.1065297
-0.04823814
-0.01143283
-0.09952407
-0.0958984
-0.09875138
0.03363856
-0.101445
0.07820924
-0.06579765
-0.05824189
-0.08797338
0.08995963
-0.0729942
-0.03172918
-0.0906245
0.0209107
-0.02461503
-0.006249268
0.1053727
-0.07279986
0.09629049
-0.008216069
0.09572677
-0.03669726
0.08420795
-0.101367
0.04593297
0.07710311
-0.0456531
0.0260852
0.1039849
0.001637211
0.06745979
0.04094409
-0.1003198
-0.08385736
0.1054296
-0.05204418
-0.09271544
-0.1048026
-0.0001622825
-0.06217181
0.06554175
0.01504506
-0.0368463
0.003501556
-0.0187511
0.009308994
0.1016428
-0.09204992
-0.09803401
-0.04870206
0.02535833
-0.02225845
0.04478388
-0.02436291
-0.0810601
-0.03117646
0.07318414
0.04741354
0.01442947
-0.04770013
0.01847509
-0.02399911
-0.07075137
-0.1030036
0.0897637
0.07496181
0.08027255
0.05463365
0.02426576
-0.06473013
-0.05259139
-0.1061773
-0.03479384
0.05399437
-0.04728572
-0.1074184
-0.1016515
0.04145055
-0.04931924
-0.08689134
-0.02566264
0.02887002
-0.03441956
0.028349
0.03315662
0.09021071
0.04723937
-0.0838009
0.04005917
-0.05676069
0.0818854
0.02805619
-0.09601126
0.04322599
-0.01504575
-0.05745872
0.03544686
0.01978557
0.05532992
-0.03746042
0.05033674
-0.1018931
-0.08474465
0.08191035
-0.03714654
0.1042565
0.01995786
-0.05206836
-0.03197961
-0.002727605
-0.04834919
0.06539938
-0.05068113
-0.06703992
0.05266147
0.03886998
0.04349454
-0.07275075
-0.02483583
0.02931877
-0.07512695
-0.0729071
0.06739651
0.06990211
