-0.02496276
0.09069985
0.05408935
-0.02458181
0.09879757
0.003712008
-0.07832248
-0.0223068
0.08043387
-0.04163429
0.04376449
0.02261557
0.03723521
-0.03049801
-0.005900804
0.01229931
-0.03188068
0.001635765
0.09678436
-0.05661526
0.04298535
0.01897927
0.005065421
-0.04678452
0.03897286
0.03027973
-0.04465253
0.03895669
0.08386099
0.08891559
0.08611164
-0.1041019
0.05024979
0.06738303
-0.06051157
-0.07538583
0.09881645
0.06518093
-0.06146269
0.05397016
-0.09028478
-0.09011804
-0.02861553
0.09621886
-0.07078942
0.06873406
-0.05189339
-0.1068947
0.03365289
-0.08575674
0.02811763
0.06918576
0.03976089
-0.04290193
0.04501779
0.03474835
0.09075927
0.08665732
-0.03827203
-0.03615649
0.05637564
0.08622722
0.03814859
-0.04239428
-0.1007453
-0.07193242
0.1014287
-0.01486085
0.0629925
-0.01220457
0.04730849
-0.07349895
0.02904871
-0.09327238
0.001194639
0.07391404
-0.1078447
0.02740282
-0.09432799
0.09307501
0.07212158
0.06957501
0.05732786
0.04275225
0.06485493
0.0864414
0.004281331
-0.0577901
-0.1072384
-0.02591984
0.01082826
-0.01299659
0.02298213
-0.08803558
-0.01386662
0.1018123
-0.05633406
0.03501729
-0.07392737
-0.03999565
-0.09430035
-0.05453579
-0.01365347
0.0435269
0.08850893
-0.09391122
-0.0308792
-0.04989922
0.0866147
-0.08113454
0.05255933
0.1015726
-0.09487484
0.02677893
0.01532006
-0.0971324
0.07420916
0.0511269
0.06624229
0.01333597
0.08745355
0.01217506
0.02948377
-0.00890887
-0.06226511
0.1076683
-0.05229855
-0.05959515
0.09383825
-0.03710228
0.08197376
-0.03743694
-0.01074541
0.0005856498
0.008721216
0.002384298
-0.09393532
0.02173456
0.02500657
-0.02506755
0.009713218
-0.01881683
-0.1064539
0.02945567
0.05083536
0.06302124
-0.008243839
-0.04945655
-0.05867891
0.08312893
0.03286147
-0.102741
-0.02521634
0.0823068
-0.02487014
0.07697059
0.07507519
-0.01760793
-0.001958024
0.09136707
0.08831692
-0.01740574
0.03948445
-0.07250496
-0.1082308
0.01914036
0.06486619
0.07453148
-0.08644075
-0.008620094
0.04341511
-0.02002459
-0.0684204
0.03911988
-0.005127647
0.08056721
-0.04598054
0.02180029
-0.01712098
0.06114182
0.01142924
-0.1042484
-0.03642721
0.05472172
0.03854378
-0.01007357
-0.09746609
0.06489643
0.06436317
0.05179766
0.06079604
-0.09061892
0.07012547
0.009571493
-0.02928319
0.02830997
-0.02946209
-0.09074181
-0.09746101
0.03391857
0.09446091
0.09263216
-0.02034233
0.06098238
0.006391771
0.09878663
0.04963401
0.09125459
0.0612759
0.01501438
-0.08082017
0.007769472
0.0003668669
-0.06584991
-0.06111345
0.02563547
0.05671831
-0.08381409
0.04161031
-0.09530241
0.04871684
-0.05387365
-0.1013329
0.02551087
0.004107378
-0.1056423
0.07531488
-0.02767387
-0.05061335
0.06399661
-0.001863524
0.05900638
-0.005896593
-0.0978923
0.009306578
-0.09399417
-0.03075464
-0.07070904
-0.07889484
-0.006272438
0.03617612
-0.05706054
-0.06619098
0.04092566
0.01802407
0.06000007
-0.02474138
-0.1072361
-0.08489901
-0.08819097
0.05655408
0.06350991
-0.003016517
-0.03386727
0.05222836
-0.08343911
