-0.01345055
0.05508387
-0.03106848
-0.03263262
0.01598906
-0.08910684
-0.03290669
-0.05797246
-0.104716
0.08411855
-0.04674483
0.05923996
0.005674789
0.08751774
-0.09609277
0.05599457
-0.003652753
0.06970938
0.09573973
0.105246
0.05412467
0.08184772
-0.08079433
-0.02567186
0.05440524
0.04039113
-0.007022211
-0.009818357
0.01912539
-0.08664159
0.001573988
-0.032691
-0.05512196
0.02651365
0.06264746
0.07979623
-0.01819822
0.06888206
-0.1055755
0.06030789
0.005149227
-0.002369878
-0.04955582
0.05763971
0.07872295
-0.06242916
0.09627468
0.01581798
-0.0659584
0.03110952
0.01899456
0.04191762
0.04696464
-0.004136179
0.08838244
-0.08102364
-0.06826785
-0.05565006
-0.1068444
-0.002196247
0.03549325
-0.08001228
-0.09512081
0.05816686
0.04373733
0.06285593
-0.02212406
-0.0100965
0.0807899
0.05277966
0.1061299
-0.07643206
-0.1046458
0.05013592
0.03766525
-0.09466498
-0.05476267
0.08422795
-0.08981188
0.0216694
-0.02449932
-0.1047127
0.0829417
-0.09355525
-0.04107899
-0.009214381
0.09050283
-0.09389696
-0.05414652
0.09920812
-0.069547
0.04287373
-0.1043682
0.08385123
-0.01137318
0.04594879
-0.04504651
-0.06523189
-0.07014018
-0.05379103
0.04988331
0.03368957
-0.04542037
-0.06661755
0.009509959
0.06086607
-0.05380686
0.08327707
0.05420002
-0.05563485
0.002196253
0.04437452
0.08997524
-0.009082814
0.08854038
0.02497984
0.08686364
-0.06490745
-0.004240142
0.06663902
0.05855518
-0.005775201
-0.08933375
-0.02121343
-0.1047095
0.05323033
0.08574362
0.09785178
-0.02808184
0.09847882
-0.08595324
-0.07538583
0.0814469
-0.07982541
-0.06057652
0.02274722
0.046096
-0.03684347
-0.1038355
0.00891538
-0.06263459
0.05438311
-0.08061823
-0.08970014
0.07103157
-0.0398
-0.001051881
-0.06625727
0.05942822
0.0522893
0.03386674
0.08837595
-0.07281083
0.05235203
0.03221292
0.06845735
0.02454238
-0.04850326
0.02876858
-0.05486853
0.0253604
0.0337286
-0.003440514
-0.04338516
-0.00742854
0.06714793
-0.02829057
-0.1067769
0.08671291
0.01762429
-0.06736021
-0.06753952
0.1082261
-0.04721643
-0.06154357
-0.0393451
-0.06022195
0.07176668
-0.06978812
0.05386626
0.05222064
0.0151541
0.01752636
0.1076867
0.06847278
0.03171488
0.03612278
0.02312767
-0.07127851
-0.07493456
0.06520788
0.05004812
-0.05676153
0.08642843
0.0605207
0.0810091
-0.0919854
-0.06935493
-0.06527074
0.05392414
0.08418955
0.02938059
0.0417183
-0.06277318
-0.06523183
0.08126733
-0.08582741
0.04590205
0.1053851
0.05897691
-0.03537706
-0.03316101
0.08684929
0.01748615
0.06529564
-0.01547794
0.09418174
0.00529709
-0.03907594
0.08411966
-0.06668357
-0.003766333
0.004448713
0.09928142
-0.05478421
-0.0712482
-0.04438722
-0.08991489
-0.0674945
0.02163727
-0.09239653
-0.08779891
0.002852269
0.09580058
-0.02120421
0.02596295
0.04626426
0.1057133
0.0008022391
-0.05936017
0.09593263
0.0431352
-0.001114166
-0.03078637
0.00345245
0.02784956
0.004888913
0.04814241
0.06775452
-0.05563195
0.04302445
0.06009975
0.05960035
0.1013301
-0.07600076
0.05074021
