0.02707349
0.06122895
-0.01074703
-0.07401689
0.09180573
0.09779721
-0.02464053
0.08021487
0.05172175
0.09983031
0.07243629
-0.02141568
0.001134685
0.03169242
0.05931534
0.08959068
0.04397401
0.02675409
0.1013489
-0.0911866
-0.06598306
0.0546869
0.006618361
0.08707906
-0.003342094
0.1032011
-0.05922786
0.04670686
0.02454517
0.003099783
0.03689938
0.09093741
-0.07239528
-0.05781875
0.06153686
-0.04955582
0.04755358
0.01773656
0.08522924
0.02447739
0.07232263
0.0573129
-0.04548965
0.05803245
-0.06471615
0.07948265
0.02214654
-0.01447312
-0.03366148
-0.09668841
-0.03926918
-0.04258275
0.05885008
0.1015154
-0.08647823
0.0983
0.08186778
0.01334806
-0.0766023
0.0483202
-0.08751965
0.005265228
-0.1042949
-0.08176768
-0.08694427
-0.07695101
-0.0384683
0.06525245
0.102663
-0.02871628
0.08898739
0.03046589
-0.08960988
0.005053235
-0.08054139
-0.0978491
-0.06017368
-0.06175327
0.01547029
-0.01473842
-0.06081379
-0.003144745
-0.04710778
-0.004318755
0.03987326
-0.06537803
-0.07376578
0.08119815
0.03193182
0.01677438
0.0161699
-0.02638351
0.05714503
-0.09626216
-0.02547683
0.01672204
0.04174866
0.01481474
-0.01919313
-0.04582429
0.04747221
0.06261832
0.08198857
0.03651343
-0.04008532
-0.02854691
-0.01042988
0.08984689
0.04054593
0.06277473
0.03599042
-0.09590874
-0.09427524
-0.06363479
0.003880399
-0.08907432
0.01913303
0.03286106
-0.03021032
0.03608732
-0.01566646
0.07471825
-0.1049409
0.05414771
0.06927723
-0.08405614
0.09961717
-0.01749392
0.007889187
-0.007146616
-0.04762727
0.05300918
-0.09823374
0.003767182
-0.07261204
0.06951
0.0576866
-0.0750273
0.0757356
-0.04507515
0.04828534
0.0008144177
0.05243705
-0.06523047
0.06731457
0.07539329
-0.07450383
0.04226518
0.02676223
-0.1081559
-0.0009856726
-0.01856179
-0.09638905
0.01483567
0.07943153
0.09853784
0.005223022
0.06088657
-0.100037
-0.07842195
-0.1020425
0.06776635
-0.03786404
0.08876182
0.09194083
0.09570149
-0.01008983
-0.06648185
-0.07832172
-0.004205456
-0.09419876
0.07935837
-0.0729568
-0.02140033
0.04489288
-0.02022578
0.05540039
0.07770907
0.07329816
0.03816115
0.004471729
0.09791555
0.05288353
0.04815184
-0.0810495
0.01906007
-0.06133955
-0.1007873
0.1079958
-0.02649257
0.09955123
-0.0165582
-0.07258127
-0.0516106
-0.04052397
-0.06612372
-0.08297069
0.0965753
-0.01296715
0.1075959
-0.0184604
0.002746998
-0.07537292
-0.01000169
0.1001952
-0.1028897
-0.1080048
0.006846415
0.06227451
-0.05559896
0.09021949
0.0170046
0.07375544
-0.1073054
0.03260419
-0.05204667
0.04966415
-0.03481671
-0.07600712
-0.03014434
-0.1054913
-0.1063234
-0.02412719
0.08378246
0.0958459
-0.03660514
-0.0251186
-0.002688761
0.02501007
-0.08368862
-0.04167751
0.06390686
-0.005756254
-0.05303055
0.01198946
0.1002988
-0.07303067
0.01503706
0.04340046
0.04145081
0.07994444
-0.1013819
-0.09516394
0.005576517
-0.02944406
0.007499258
0.04357642
-0.03501042
0.1031824
0.03240035
0.09652232
0.03024911
-0.09571106
-0.01614915
-0.00588789
0.09869827
