-0.0777007
0.05530895
0.03056262
-0.006547194
0.0888854
0.03222122
-0.05281488
-0.06916243
0.09207152
-0.1048251
0.07774768
-0.03460682
0.003129729
-0.0640639
-0.08655177
0.0443138
0.05095496
0.07969601
0.1058133
0.03832861
0.07455356
0.1023787
-0.04658938
0.08396202
0.05649475
-0.02282193
0.08655866
-0.1046032
0.07888987
-0.06774643
-0.05442646
0.004848594
-0.02979919
-0.09097362
0.06221882
-0.03780395
0.105896
-0.09363633
0.07099561
0.09596395
-0.009623018
0.03234797
-0.06471615
-0.07402509
0.02871439
-0.05723469
0.06218826
0.09075749
0.07379545
0.003166513
-0.03579978
-0.003826763
0.1031724
0.1012092
-0.03069179
0.09720702
-0.01976408
-0.08768301
0.007063927
0.09197361
0.0002781135
-0.01824064
-0.002829059
-0.01927451
-0.06185187
0.04422583
-0.01535051
-0.07860907
-0.07559534
0.07175925
-0.03274928
0.01152482
0.005015861
-0.004619421
0.05039588
-0.02017563
0.07185356
-0.08060583
-0.005429735
-0.06739067
-0.06217096
-0.05571732
0.08864024
-0.0316652
0.006270992
0.03851005
0.06442206
-0.02932632
-0.0491614
0.007160234
-0.004485749
-0.1037968
0.06890755
0.004927377
0.06953887
0.06907455
0.1068821
0.0204879
0.04449883
0.0670685
0.055669
0.02626809
-0.02948409
-0.007084695
-0.0889526
0.0794431
0.06410296
-0.01352074
0.007101701
-0.02381556
-0.04079936
-0.07451633
0.05093512
-0.0139123
0.08220979
-0.06401993
0.04100422
0.06291202
0.02803669
0.0520607
-0.0813106
-0.04334322
0.05827412
-0.06964608
0.09175909
-0.1077247
0.1055218
0.001044049
-0.02154906
0.02451542
-0.07721583
-0.07078942
0.06272048
0.01045716
-0.08453749
-0.03658789
0.009065728
-0.04730168
-0.09671634
-0.07197881
-0.04691156
0.06943571
0.03373541
-0.07629941
0.0152404
-0.1021497
-0.006184529
0.09664269
-0.08791433
0.03617802
-0.04798185
-0.07976317
0.02746884
-0.06689776
0.07315752
0.04582892
0.08604541
-0.05412095
0.03190789
0.0376551
0.07204713
0.09042939
0.09263534
0.01602495
-0.1066703
-0.09727913
-0.08732402
-0.01156901
-0.02993563
-0.07709008
-0.06954833
-0.06581129
0.06598294
-0.07627743
-0.02632186
0.1038113
0.09396157
0.1035095
-0.1052093
-0.09821501
0.03735708
0.01852494
-0.007656551
0.03473187
-0.06420963
-0.08180976
0.05963018
-0.06722239
-0.0956286
0.04776182
-0.01525004
0.09533781
0.07795983
-0.02745814
-0.0667475
0.01716515
-0.0538126
0.03627041
-0.1013165
0.08261582
-0.1011129
-0.001299721
0.0786038
0.03328225
-0.05703142
0.0629264
0.0522657
-0.06045163
0.1037968
0.03955153
0.07583734
-0.07950366
-0.02351064
0.02190438
-0.01937675
-0.00916556
0.03191204
0.09522194
-0.04749478
-0.06658107
0.0158477
0.05298467
-0.07879463
-0.03996706
-0.07442184
0.0623791
-0.06619898
0.06890993
-0.08333957
-0.04217561
-0.03369816
0.03668816
0.05968911
-0.02436925
0.004277273
0.03850669
0.02621471
0.02638945
0.06361327
0.07329377
-0.1060681
-0.009401071
0.03506711
0.009683637
-0.0776333
0.004945037
0.01765369
-0.07859509
0.08893461
0.05758353
0.0709223
-0.08467075
-0.07603088
0.05358821
-0.07148714
0.05315406
