-0.07009695
0.01009461
0.08088996
-0.06734099
-0.1024252
-0.02524338
-0.1007177
-0.05275555
0.02500034
0.1040412
-0.069484
0.1009413
0.04073276
-0.03859676
-0.08059245
0.04907332
0.1020447
0.05778714
-0.02135253
0.08338857
0.0511662
-0.0241777
0.0715111
0.05124742
0.03265112
-0.05284377
-0.0362784
0.006000964
-0.04937994
-0.03161717
0.04370342
0.1002488
0.050632
-0.06031882
0.08293273
-0.06753952
0.08134782
-0.06351463
0.003553226
-0.07631974
0.09903127
0.08360688
-0.01094839
0.05177288
-0.06581129
0.09997643
-0.0006719876
-0.0675388
0.08531089
-0.06175148
-0.051729
-0.06630795
0.04979557
0.03370782
0.06570851
-0.01042709
0.005557386
0.05331748
-0.07220146
-0.07838358
0.08250067
0.0324075
0.1061872
-0.03688401
0.05314652
0.09898584
0.05877595
0.03173043
-0.001488232
0.07148844
0.01955064
-0.04802512
0.06471292
-0.07206455
-0.02585581
-0.1072889
-0.01020162
0.106088
-0.08058156
-0.06270785
-0.0184865
0.07028869
0.0937505
-0.04570091
-0.04732393
-0.0193946
0.0692793
-0.003419004
-0.006186251
-0.03460411
0.02720313
-0.09574868
0.07095573
-0.007163453
-0.03372182
-0.05710782
0.03856556
0.09619947
-0.08639877
0.04325235
-0.02396312
-0.09131307
0.07076395
0.0439295
0.02261079
-0.09452125
0.0205053
-0.02327865
0.1013566
0.01192504
-0.004120606
0.01289131
-0.1058815
-0.04033457
-0.05329811
0.07243306
0.07145543
-0.1017664
-0.02922991
-0.001521811
0.1066233
-0.08532526
0.09591588
-0.04959968
-0.0258133
0.03345853
-0.07324328
-0.08459067
0.09716878
0.0635156
0.07478658
-0.09055801
0.02043637
-0.09648061
-0.009644008
0.07485297
-0.06607149
-0.0974348
0.05868793
-0.04159699
0.05097941
-0.08546719
-0.07117245
-0.1040585
0.1071048
0.08734681
-0.02993211
0.02889899
-0.03131529
-0.0778527
0.063756
-0.07605951
-0.04788155
-0.04592717
0.05390688
-0.08258887
0.1036722
-0.006670112
-0.03204295
-0.08958697
-0.1061275
0.0007536208
-0.01052851
0.09680356
-0.09418424
-0.09995174
-0.0479249
0.004974497
-0.07804042
-0.06905037
-0.09489755
0.01790912
-0.09412377
-0.02425142
0.04175515
0.1019557
-0.02802982
0.09447655
0.08716467
-0.0512936
0.02189961
0.01772504
0.07948586
-0.01247049
0.08892762
-0.06397762
-0.0005185969
-0.09732906
0.04906186
0.06155336
-0.07070313
0.05128604
-0.04290705
-0.0392055
0.07769627
-0.06513472
0.103114
0.0920502
-0.07357916
0.04251926
-0.04512826
0.1053836
-0.06594899
-0.02573641
0.06747962
-0.03590316
-0.02715413
-0.003942548
-0.1061746
0.02543281
0.0762225
-0.02082609
-0.01140879
-0.07638115
0.04093317
0.09850408
0.06909652
0.100485
0.003056051
-0.04505661
0.04756325
0.0925208
3.26438e-05
0.02829225
0.01030261
0.04573166
0.04009054
-0.07806782
0.04829261
0.02394664
0.0389216
0.006095029
-0.1003048
0.07512522
-0.006181666
-0.05963422
-0.1023224
-0.08602919
-0.09015591
0.0394453
0.01048323
0.006979917
-0.06201624
0.01553948
0.1055421
-0.04524054
0.07664346
-0.06862684
0.0007410583
0.02822834
-0.08931571
0.07931729
0.06997368
-0.09634128
0.076127
0.07834372
