-0.01538863
0.05582127
-0.0190536
0.01845824
0.05930448
-0.03490992
0.001557658
0.09375286
-0.08826593
0.009258119
0.07986958
0.008834436
-0.002013083
0.09541284
0.04439595
-0.05861145
-0.09410807
0.0261842
-0.05701691
-0.003885677
-0.09874319
0.08126174
0.05112161
0.07658844
-0.1064305
0.04835189
0.04716516
0.09506629
-0.02541065
0.02353808
0.1038592
-0.01983298
0.09989303
-0.04749895
-0.06972437
-0.07127851
-0.04795752
-0.08624948
-0.05676546
-0.1005453
0.08973745
0.06132615
0.004175489
0.09646889
-0.0956286
0.0563243
-0.06017469
-0.06767582
0.0328222
0.08384449
0.05377289
0.08956932
-0.09955774
0.0378314
0.09373167
0.09546526
-0.08306146
-0.08979784
-0.09407081
-0.03149103
-0.08563615
-0.05328275
0.08852593
-0.07787375
0.06873234
0.03109355
-0.0418045
0.08046179
-0.04481873
-0.05304566
0.0215771
0.02642336
0.06723447
-0.09166272
-0.08603995
0.09436498
0.0308761
0.003879165
0.05067995
0.05673323
-0.002070812
-0.1053408
0.06834676
0.1007458
-0.0655418
0.03719493
-0.06593158
0.09264958
0.09061123
-0.04395809
0.003554309
-0.07975537
-0.08520839
0.01446783
0.02873022
-0.07448703
-0.09882547
0.08727718
-0.05780812
-0.006574614
-0.01135005
0.105812
-0.05871152
-0.07838969
-0.03252824
0.011163
0.08269346
-0.08064821
-0.03229506
-0.0716216
0.1037954
0.09461665
-0.04091261
-0.1023286
0.05686122
-0.09656042
0.06837111
-0.06828759
-0.02633219
-0.01102287
0.006086426
0.05154836
-0.003775699
-0.08673036
-0.04995654
0.07851324
-0.001242154
0.06239545
-0.04640248
0.09170833
0.05707214
0.006645439
0.03933205
-0.078789
0.07524934
-0.031534
0.05197772
-0.05800536
-0.07568232
-0.09484445
0.05249353
0.09444002
-0.01892985
0.1031393
-0.03503621
-0.03016333
-0.09453229
0.08063285
0.02229195
0.01471631
-0.04863466
0.05694723
0.02334489
0.00432012
-0.0879298
-0.049564
-0.09121451
-0.1007609
-0.06012882
0.1005926
-0.04491958
-0.008082595
0.03908223
-0.06514747
0.01543748
-0.09634706
0.03402331
-0.09704801
0.09068707
-0.06701013
0.06295829
-0.04842934
0.08031825
-0.08090775
-0.04561548
0.04612012
0.05672512
0.04520256
0.04194195
0.08654581
0.04474305
0.06164545
-0.03634156
-0.06700271
-0.005441315
0.06586229
-0.0403783
-0.03876302
-0.07662261
0.03574694
0.02859085
-0.03021884
-0.01878789
-0.03153724
-0.08656019
-0.04127377
-0.09117323
-0.1020944
-0.05389015
-0.03076844
0.0839692
0.03553131
0.04242797
-0.0335777
0.05783648
-0.0668108
-0.09059693
-0.09867655
-0.1047986
-0.1053857
-0.02754436
0.05952356
-0.03487134
0.04826956
-0.05401917
0.01772176
0.09239526
0.01069547
0.07467565
0.08438711
0.08617211
0.007515565
0.06806157
0.0773318
0.003962435
0.04232937
-0.01207487
0.09751784
-0.03242263
0.1045921
0.0152563
-0.03051268
-0.04844467
-0.04000435
0.08759698
0.06987961
0.07438132
-0.01472302
-0.0507715
0.05869878
0.02783829
-0.06268511
-0.008383504
0.0532561
0.055594
0.01183669
0.07104677
-0.06692845
-0.006486262
0.1026076
0.005572818
-0.03654847
-0.0526862
0.1006423
0.0437888
0.03437548
