-0.01159655
-0.0197327
0.01287349
0.05814433
0.00251913
0.0007978302
0.08515239
-0.05282977
0.07603023
0.01704438
0.02107913
0.008490245
0.07856749
-0.03514718
-0.09639645
-0.04747767
-0.02213235
0.1007422
-0.08112801
0.04971428
0.1035477
0.02393384
-0.06338448
-0.01218199
-0.09686646
0.02636596
0.04429793
0.1025573
0.05549043
0.05534577
0.05058556
0.05267578
-0.08382965
-0.08185055
-0.03493089
0.01752636
0.02531972
-0.07752245
-0.006621043
-0.02989429
0.09919968
-0.08266417
8.687412e-06
-0.07319407
-0.007656551
0.1022236
0.1028048
-0.02535769
0.04307352
-0.04502134
-0.06631032
-0.05283887
0.03398848
0.0579902
0.07379441
-0.09092889
-0.07028706
-0.1041218
-0.08496699
0.08366641
-0.07905093
0.03016556
0.03140984
-0.07567307
0.06738324
0.04338368
0.05031705
0.0418212
-0.0525323
0.1014584
-0.05299779
-0.006667386
0.08816234
0.01620941
0.03768927
0.01712617
0.03889694
-0.09847398
-0.0754539
-0.1016768
0.07122705
0.03507834
0.009376774
-0.09387086
-0.01950568
0.03710053
0.09365969
-0.03095052
-0.01268302
0.05344628
0.03189291
-0.04002969
-0.04693949
0.09105942
0.03903589
-0.09509958
0.01879602
-0.06596717
-0.09345668
0.01037292
-0.03314819
0.009786524
-0.07740835
-0.0868243
0.05813203
0.004876256
0.06040088
0.06887653
-0.04364692
-0.1048839
0.1012297
-0.01172256
-0.07173589
-0.07319033
0.05728501
0.02728957
-0.06384079
0.06031007
0.02186138
-0.06714074
0.01095551
-0.007205948
0.06433531
-0.08092835
-0.08978263
-0.07058999
-0.04350596
0.04650871
0.01417575
-0.05541089
-0.01716608
0.05825106
0.06369022
0.003920689
0.006101151
-0.04206195
0.05180569
-0.05284415
0.0787508
0.06899805
0.01396268
0.04289846
0.1010435
-0.07350515
0.03690401
0.03459081
-0.05242818
0.006914748
0.05332643
0.07905183
0.07320288
0.01054925
0.0961874
0.1078211
0.04539675
0.006761698
0.06063192
-0.1054385
-0.08998848
0.04180695
0.06510756
0.02194326
0.01098986
0.05268993
0.08473183
-0.08567587
-0.09067015
0.04937896
-0.006870524
-0.06907611
-0.08705156
0.04713222
0.04765335
-0.08576296
-0.07096672
-0.05396135
0.05551023
-0.0789477
-0.08427691
0.005249475
0.06565318
0.020144
-0.05743039
0.004367241
0.005866693
-0.05205375
0.06163641
0.04323293
-0.0109425
0.01447824
-0.07281969
-0.01811642
-0.00943609
0.1071276
0.05960677
-0.04481668
-0.07070014
-0.07098044
0.02163419
0.07287632
0.06407529
0.07770693
0.07788521
0.07094599
0.02894885
0.06430498
0.04134867
0.09452287
-0.1056273
-0.0754747
0.006737305
0.09685512
-0.05324505
0.02522456
-0.006562064
0.05870739
0.06068074
0.005146273
-0.0811797
-0.04534954
-0.01424201
-0.1061178
-0.03716677
-0.02029496
-0.05120084
-0.0938562
-0.0944019
-0.06263959
0.09314927
-0.08524857
-0.009721255
-0.05287417
0.01812237
-0.05583485
-0.07695716
0.01225399
-0.09749914
-0.08031683
-0.005211865
0.09725421
0.01259221
-0.001312444
-0.02711833
0.0798659
0.04027958
-0.03667022
-0.06363384
0.06124441
0.08666625
0.1007892
0.07687002
-0.06078948
0.03438311
-0.07171132
0.001797193
-0.04652444
