0.0994339
-0.1047016
0.06562509
-0.08184101
-0.02885074
0.05244215
-0.08161779
-0.0009705357
-0.06166334
0.04877944
0.04139666
-0.00169395
-0.003462904
0.009725695
-0.09680138
0.07372639
-0.03297306
-0.04238694
0.1033836
-0.02963714
0.02083312
-0.0143723
0.04131875
0.008575135
0.01981498
0.06323957
0.04701046
-0.09192747
0.01439087
0.0003646688
-0.0008697224
0.07920489
-0.1034439
0.1051318
-0.05935599
0.08642843
-0.00703431
0.01465378
0.07313385
0.002829662
-0.01514141
-0.04905678
-0.05825228
0.006225711
-0.02745814
-0.08735397
-0.01195638
0.08976491
-0.03216374
0.01691183
-0.08110624
-0.08128469
-0.003696308
0.06108775
-0.002578165
0.02903138
-0.04318656
0.1035799
0.1023255
-0.07363456
-0.08665618
-0.04339388
0.04637289
0.08889844
0.1012497
-0.006831962
-0.04972161
-0.09497499
0.009989201
0.01400855
-0.00643146
-0.04169386
-0.07547206
-0.008082175
0.07543053
0.03930797
0.02460695
0.04671155
0.01892397
-0.01250482
0.006504198
0.04120474
-0.06673768
0.04043793
0.06399608
-0.1051063
-0.005246323
0.1059171
-0.01061627
0.03135736
0.06423707
0.03706389
-0.02409046
0.01680518
-0.1061374
-0.0266105
0.06423031
-0.05236562
0.08396921
-0.04913488
-0.1053922
-0.023027
0.007332102
-0.07206164
0.005257796
0.04129755
0.04340436
0.03577037
0.01747811
0.09806085
-0.05234363
-0.1056398
0.03709645
-0.01347679
-0.07679839
-0.005922361
0.0683901
-0.06309653
-0.1062784
-0.0430124
0.06459245
-0.05967473
0.07130547
-0.05713684
0.0529609
-0.1003673
-0.06249112
-0.04886768
-0.07401484
0.04779051
0.004286137
0.09268756
0.001297278
0.07758757
0.04060641
-0.06073584
0.04296966
0.005347274
0.04587459
-0.06763666
0.01574486
0.0002371006
0.07815628
0.09146002
-0.07767183
0.08075899
0.05683456
-0.06384704
-0.1079459
0.09664515
0.05516251
0.08682571
-0.1044
0.005519799
0.07184301
0.03352915
0.09294716
-0.02620605
-0.04451141
0.06704111
0.08951265
0.06335381
0.03395619
0.003238258
0.05312539
-0.09696759
-0.09212063
-0.05079472
0.07829657
0.01812188
0.08610531
-0.0277792
-0.03356026
-0.02018803
-0.006203434
0.09722223
0.09456084
-0.04753858
0.06684911
-0.02125833
0.0909689
0.01547123
0.09794897
-0.06629257
-0.04444385
0.05840893
-0.07007113
-0.1042155
0.08941744
-0.1082451
-0.01066016
-0.017845
-0.06705984
-0.05728374
0.0214844
0.01874046
-0.02729241
0.013374
-0.09464006
-0.1040489
-0.1018399
-0.08966032
0.023608
-0.0579175
0.05956396
0.01860263
-0.05714114
0.1052552
0.07130201
-0.08066502
-0.03128444
-0.1060751
0.0228726
0.07594649
-0.02842105
0.0983799
-0.02656046
-0.07044884
-0.01183329
-0.07463787
-0.07147386
0.02088849
0.1052842
-0.02197501
0.04538722
-0.04649549
0.009973065
-0.03977857
-0.02172718
0.004210081
0.02162587
-0.0824815
0.1049445
0.02376264
0.04980974
0.06651373
-0.09819277
0.0335476
-0.07693516
0.00176315
-0.09143038
0.01345237
-0.06505333
-0.03952159
0.0790332
-0.0730658
0.06130164
0.05033924
-0.01165771
0.1012781
-0.1062604
0.01923809
-0.02405249
0.09701689
-0.05845396
-0.01281769
