0.07526859
0.1074498
0.0539718
0.01839835
-0.04959899
0.08631828
0.1051704
-0.03372991
0.03311203
-0.02340642
0.03451452
-0.02522595
-0.07548528
-0.08263794
-0.04183356
-0.07734893
-0.06438718
0.003871642
0.09502711
0.01154324
-0.04832355
0.03565304
0.04074384
0.01305803
0.08089221
0.0731827
0.04758237
-0.006114623
-0.006529396
-0.08930828
0.06684012
-0.1028558
0.09819566
-0.01074173
0.03743603
-0.06336149
0.04590859
-0.003339249
0.05297469
-0.1032275
-0.07925164
-0.01095766
-0.05781875
-0.05691745
0.1078474
-0.004834656
0.09821474
-0.09927551
-0.03229764
-0.08753052
0.06821419
0.08442201
0.08483532
0.02064935
0.002811376
0.05883295
-0.1064141
0.07325816
0.007128613
-0.04318053
-0.0739319
0.1039783
0.04028678
0.1073434
0.09410684
-0.08194137
-0.060933
-0.04906111
-0.07572853
-0.05809977
-0.07660941
-0.0173076
-0.01089712
-0.01311623
0.06447574
0.09854966
0.05191527
0.04321202
0.03314536
0.04290486
-0.09519587
0.05593163
0.0673881
-0.03236114
-0.02816497
0.0854945
-0.05824388
-0.01333652
0.07570866
-0.01266754
-0.02897252
-0.01355716
-0.02279764
0.05024288
-0.1075109
-0.002027035
0.05612696
-0.04355762
0.09147038
-0.00880081
0.05310282
-0.07533174
-0.06380687
-0.07193352
-0.09325562
-0.03078389
-0.03672839
-0.03312414
-0.08981737
0.02347236
-0.0788596
-0.08030681
-0.06022585
-0.09036683
0.0872618
0.06167804
-0.00744326
0.02066777
-0.01868813
0.08829986
-0.1075484
0.04470598
0.04634865
-0.0891683
-0.0605777
0.0269629
-0.07526743
-0.02915559
-0.01876077
-0.008507222
-0.04418075
0.06738303
-0.076701
-0.07850658
0.05048179
0.02621341
-0.02711457
-0.1031908
-0.005107579
-0.009579445
0.005466892
-0.03261768
-0.05381043
0.05397955
0.07730025
0.02750207
0.003881318
-0.0685966
-0.06664596
-0.007377975
0.02390339
0.07608149
-0.02779531
-0.1054186
-0.1078324
0.04873317
0.03689908
-0.0863419
0.09738068
0.02385587
-0.04932068
0.07335088
0.09212885
0.08878305
-0.02361829
0.03942021
-0.003264948
0.1016532
0.03750474
-0.04377961
-0.05524572
-0.06031882
0.08727107
0.03713731
0.03773097
0.09981464
-0.05572081
0.02186939
-0.08439884
0.01611654
0.09076584
-0.07219007
-0.08185055
-0.018575
-0.0793486
0.0329928
-0.09582203
0.06605373
-0.04749895
-0.07235303
-0.107343
0.0216187
-0.05923248
0.1051318
0.09948653
0.07777612
0.06230495
-0.01347632
0.09389415
0.06460058
-0.09649926
-0.09712266
-0.07098453
0.02807685
0.06660289
-0.05939234
0.04446148
0.08735872
-0.0994736
-0.07863507
0.07072553
-0.0579758
0.05229454
0.01515833
-0.04181365
0.01615492
-0.09983816
0.009048177
-0.02215753
0.06135561
-0.05389206
-0.0484218
-0.08606592
-0.04361186
-0.06894308
-0.07319857
-0.07043125
-0.03733452
-0.06886827
-0.04790235
-0.06827664
-0.009384168
0.02458155
-0.03266595
-0.05282643
-0.03499274
0.0398061
0.06121644
-0.07062663
-0.09460314
-0.04621944
-0.07319941
-0.05148148
-0.072423
-0.07873341
0.06701699
-0.06114796
0.04236226
0.0844527
0.08446695
0.01675663
0.06117949
-0.04580487
-0.04224382
-0.09797084
0.09191499
