0.09987801
0.01653439
0.03909966
0.04296002
0.07566934
-0.04390337
-0.07846269
0.08924664
0.09404418
-0.0083824
0.03866679
-0.04173603
0.08503142
-0.03153853
0.04991371
0.02546007
0.007006221
-0.09157499
-0.03278895
-0.08786219
-0.01214497
0.09464791
0.09498557
-0.09244862
0.01646731
-0.06465099
0.03469384
0.004158066
0.04348161
-0.1073201
-0.06826001
0.09819125
0.06139526
0.04699955
-0.006980927
-0.08859652
0.01280032
-0.03405714
-0.03679455
0.03787325
-0.05518928
0.09686864
0.005053235
-0.0185153
-0.02421607
0.1052323
-0.09022397
-0.06641815
-0.07060855
-0.03762673
0.07010854
0.08410365
-0.02466046
0.02397583
-0.01597596
-0.05480757
0.08986157
0.006628737
0.06691634
0.08956809
-0.09803518
-0.05402846
0.07437317
0.05022873
-0.08427846
-0.0351175
0.03545104
0.04653772
-0.03578539
0.08858856
0.06255072
0.08382314
-0.07259719
-0.05697671
-0.07204189
-0.04642393
0.0249939
0.07410961
-0.04855289
-0.09492598
0.03735467
-0.0995359
0.06319567
-0.01709214
0.003659297
-0.007382645
0.06759167
0.09191518
-0.04418376
-0.01009464
-0.0736721
-0.08988646
0.02862153
-0.09309047
-0.06102914
-0.03874194
0.04216087
0.02913477
0.009161913
0.03673066
-0.01126567
0.06605478
-0.05328406
0.04860681
0.008997872
0.05960935
-0.01382999
0.02451656
0.07550791
-0.0141678
-0.02970491
0.100493
0.0373334
0.017387
0.08732957
0.0470492
0.1071652
0.05029089
-0.06746967
-0.1057952
0.05738987
0.04768782
0.09943763
-0.03988116
-0.0276132
-0.05414645
0.0719853
-0.09209072
-0.09850745
-0.06147204
-0.08317662
-0.09327238
0.07656671
0.02206019
0.08746687
0.04657759
-0.05781119
0.07697233
0.02590427
0.1074838
0.002542888
-0.08189545
0.05213275
0.001358268
-0.1001914
-0.01754256
0.05947132
-0.08927306
-0.0009865625
-0.03931449
-0.1049422
0.05826985
0.01046242
0.08674006
-0.06343216
-0.06099972
-0.03213281
-0.02590482
0.00140553
-0.05754276
0.1067303
0.02567249
0.09147459
0.02926631
-0.0107875
0.07638343
-0.0941758
0.03440638
0.07183466
-0.09812762
-0.08856794
-0.07206455
0.04820672
-0.09182351
-0.04156847
-0.1071141
-0.04096711
0.04599629
0.04778701
0.03815746
-0.01163012
0.1010593
0.01620941
-0.09206285
0.04228184
-0.1037258
-0.07018104
0.08728971
-0.09166272
-0.02911442
-0.034213
0.006611709
-0.04018477
-0.008082175
-0.04434141
0.009226008
-0.02494932
-0.06950621
0.07816464
0.0365965
-0.02206636
-0.07418
0.007886694
-0.1069152
0.03060771
-0.007797417
-0.03315849
-0.02868609
-0.09699288
-0.01690364
-0.05444083
0.02103649
0.09149088
-0.1039248
0.01733954
0.08028264
0.06808859
0.0726256
0.07570992
-0.00195771
0.04771197
-0.04560047
-0.027135
0.08308739
0.02496901
-0.01081293
-0.002597051
0.01055676
-0.009323329
0.05077589
0.003403678
-0.02917398
0.0906786
-0.1061351
-0.05894254
0.07986991
-0.04317116
0.02331794
0.05054539
0.04575292
-0.08076981
-0.047079
0.08488676
-0.1040623
0.03208604
0.04982304
0.08109231
0.0004131228
0.08452962
-0.05379073
0.008286315
0.00739996
0.04439858
0.06153616
-0.1059015
0.1071988
