0.00957722
0.07478476
-0.02028026
0.05006984
0.1064023
0.1004208
-0.07518483
0.0852031
0.05003782
-0.03534934
-0.08832496
0.07759222
0.1071813
0.002242347
-0.07663396
-0.05379694
0.0854546
-0.08797335
-0.01173447
0.001696959
0.05978853
0.06979438
4.030345e-05
-0.02095685
0.003065872
-0.1000106
-0.05206836
-0.02075913
-0.08986054
-0.04463148
0.03544267
-0.004208633
-0.02160929
0.01936236
0.08166007
0.003996682
-0.08932111
0.02978511
0.0668298
-0.008762863
0.05481392
0.0245316
0.04145081
0.06624283
0.006334171
0.06330387
0.0156334
-0.04147665
-0.102751
0.06009283
0.09552918
-0.09134215
0.03707891
0.01757949
0.08701214
0.05601561
-0.0783866
-0.04346577
-0.0389625
0.06885704
0.007914186
-0.0560551
0.03707079
0.07277633
0.06187196
-0.08798922
0.05577639
0.07037281
-0.08818047
0.08181737
0.03413314
0.0106969
-0.06246354
-0.02714911
0.058175
-0.09182093
-0.082092
-0.04831275
-0.09742814
0.005675078
-0.07915828
-0.06808774
-0.01195059
-0.04445855
0.07370301
0.07123823
-0.04123612
-0.05854794
0.1072966
-0.004237178
-0.04183128
0.07159502
-0.1082072
0.1063509
0.06028892
0.009682525
-0.0722337
-0.04199049
-0.06565637
0.05359476
0.0402911
-0.05028535
0.0261802
-0.02784001
-0.05547273
0.1062332
0.09178937
0.03224105
0.02870303
-0.02253092
0.08179934
-0.08797644
-0.07096465
0.04778648
0.008703472
0.02297938
-0.03520188
0.1060627
0.02851538
0.004412358
0.005869022
-0.01801255
0.03895396
-0.02093191
0.03336077
-0.08087251
0.105265
-0.02904809
-0.04319144
0.02661368
0.008574146
-0.006272438
-0.02173468
-0.0688537
0.02889062
0.0258411
0.07599039
-0.001043764
-0.09104256
0.1011034
0.000166956
-0.06064583
0.1005027
-0.04386916
-0.08648016
-0.04107703
-0.04300113
-0.06869689
0.002970192
-0.05657526
-0.05929744
0.04232992
0.001220681
-0.05592192
0.08993013
0.07959341
0.008017445
0.0454705
-0.05909924
0.01533296
-0.06294723
-0.02459593
0.04877422
0.1002413
0.05743711
-0.007669348
-0.05686377
-0.001629507
0.008572019
0.04013362
0.08264159
0.0394453
0.08650937
-0.1049067
0.006299795
-0.04887774
0.08180321
0.02885338
-0.1061753
-0.1024065
0.06386659
-0.0625101
0.09725421
-0.05130678
0.04553818
0.04741815
-0.0681932
-0.07540525
0.05869878
-0.03806514
0.07354768
-0.08147334
0.05627065
0.00176315
-0.0007156493
0.03859044
-0.01896095
-0.0833822
-0.008956773
-0.0935367
0.02774962
-0.05830841
0.1063811
-0.00352052
0.05104453
-0.03320765
-0.0113602
-0.07656856
0.1062178
0.08915244
-0.05565739
-0.09933627
-0.05246451
-0.03447451
0.02167301
0.08922783
-0.04293953
-0.09439274
0.06049995
0.08481525
0.04683577
0.09210189
-0.08635793
0.05925961
-0.03567295
0.05825392
0.05420294
-0.1036007
0.03854527
-0.02852622
0.07120033
0.1078206
0.02141946
0.108142
-0.004638765
0.04513742
0.0486936
0.1058588
0.03471887
-0.03755729
-0.01802726
0.06986938
-0.07326842
-0.08466315
-0.05847531
-0.004531841
0.09980039
-0.09293819
-0.007951894
-0.09554251
0.1070829
0.06488691
-0.05393354
-0.08507887
0.02522338
-0.04689166
