-0.07367638
0.07876401
0.0307184
-0.04195875
-0.1030122
0.09699693
0.0149247
-0.05245416
-0.07217465
-0.01291577
-0.06921037
-0.09274804
-0.02646312
-0.01095275
-0.03491693
-0.01716307
-0.07285549
-0.07482618
0.08895817
-0.06134726
0.08723168
0.088355
-0.005267353
-0.01968095
0.1039799
0.0472535
-0.05651973
-0.06446358
0.04170772
-0.08830923
0.08362877
-0.02714572
0.03326494
-0.009579445
-0.02758972
0.00891538
0.02277532
-0.07408492
0.06783371
-0.04942618
-0.05770715
0.05727344
-0.003417511
-0.09558556
-0.07197881
0.107043
0.06295983
-0.001493628
0.05197037
-0.07698779
-0.09936858
-0.07556929
0.0550059
-0.04925689
-0.07421964
-0.04939355
-0.08535986
-0.08547377
0.00445175
-0.0634263
-0.08340403
0.0584527
0.08358631
-0.07958569
0.0538798
-0.01035116
0.04979384
0.05448116
0.05319839
0.05873157
0.05438125
0.05019285
-0.02379053
0.1074838
-0.1014401
0.05994477
0.0864502
-0.05631361
-0.1021945
0.09711313
-0.01087364
-0.08555514
-0.03553733
0.05657641
-0.02565764
0.01980802
0.001136361
0.06315981
0.04215675
0.05228402
0.09972005
0.01713106
0.1005534
0.1078
-0.04977124
0.01682701
-0.08800309
-0.08610892
0.05543531
-0.0711097
-0.06812501
-0.06927033
0.01556359
0.01038392
-0.01377446
0.09266294
-0.04610247
-0.001986456
-0.03823476
-0.008919397
-0.105019
0.06918805
0.09667697
-0.05997672
-0.007419391
-0.09489572
0.06359615
-0.003577842
0.08547603
0.06529004
-0.07707373
-0.03672787
-0.09282835
-0.09122694
0.07676015
-0.04004362
-0.06720678
0.03155174
0.04504167
-0.01466883
0.08139249
0.08570267
-0.07549156
-0.03669792
0.002702928
0.08525778
-0.1077001
0.0971451
-0.03959143
-0.03284867
0.01394563
-0.03356668
0.004134673
-0.0355683
-0.07205275
-0.01082253
-0.05461959
0.06338744
0.09918834
-0.005197334
-0.07074845
0.04233685
-0.04052852
-0.03505167
-0.06924866
0.09907917
-0.05858808
0.05316235
0.08112858
-0.08696147
-0.09874689
0.09084392
0.09123556
0.08566937
-0.08710479
0.08449199
-0.06579444
0.03284516
-0.06087877
-0.09000124
-0.008367744
-0.09407802
-0.07036491
-0.07580451
-0.06928179
0.06815203
0.05386215
0.09604209
0.03896995
-0.08859093
-0.08577301
0.05814354
-0.1079092
0.07200436
-0.03483697
0.08086432
-0.1055592
-0.05552798
0.06110722
-0.06314321
0.04295047
-0.08927386
0.07071429
-0.01474196
-0.04144409
0.07312249
-0.009410322
-0.09060925
-0.08495915
0.1043805
0.02481093
-0.04747391
-0.09598759
-0.02310195
-0.07041336
-0.02370407
-0.0229831
-0.06760219
-0.03090018
-0.04371942
-0.08660379
0.01285523
-0.06973596
-0.0790371
-0.06422013
-0.1057779
0.07677476
0.02346576
-0.1009357
-0.09057815
0.0702653
0.0421944
-0.08809613
-0.07439297
0.06702916
0.06017466
-0.06511685
0.05006996
0.07277529
0.09698263
-0.05943335
0.02364605
-0.09996376
0.0070019
-0.003034153
-0.003648743
-0.1069769
-0.09309461
0.01478906
0.1011034
0.05807285
0.1030689
-0.05708759
-0.03341391
0.07692069
-0.09325952
0.01194724
0.03722728
-0.001138764
0.03334266
-0.06405573
-0.06832219
0.07779787
-0.1032649
-0.058456
0.06023884
