0.04575705
0.08709705
0.005602536
-0.0924454
-0.008895584
0.0282327
-0.02381973
0.04902104
0.02103007
0.05469636
-0.09489509
-0.005291703
0.06443829
-0.02127215
-0.003893115
0.1078669
-0.05343293
0.07862763
0.03408044
0.09280223
-0.02566922
0.01382399
0.08794376
-0.07427868
-0.04695575
0.008976353
0.002176726
0.03305855
0.009743269
0.07675221
-0.09564338
0.1075104
0.02893875
-0.018575
0.02461492
0.1076867
0.02834477
-0.001897964
-0.09439354
0.0720666
-0.02402013
0.04942528
-0.07373799
-0.00899855
0.03473187
0.06048543
-0.06507836
-0.008834833
0.09538054
0.07981809
0.09533027
0.01570482
0.08421987
0.05011849
0.04942089
-0.02393527
0.07202481
-0.01974252
-0.08058064
0.09155335
-0.002631868
-0.01920721
-0.08623844
-0.05175218
-0.0385376
0.1020783
0.1006756
-0.1049451
-0.1051342
0.003194381
-0.04567461
-0.04888545
-0.09313694
-0.09206285
0.07884227
0.06263524
-0.03124172
-0.09767398
-0.03380139
-0.06679206
0.03922794
0.04934105
0.09124248
0.04997915
0.0008769859
-0.07783175
0.05366817
-0.08954256
-0.1055345
-0.0769956
-0.0311409
-0.04224453
0.03738052
0.08210719
-0.004598211
-0.08129938
0.006071529
-0.07276043
0.04883957
0.07506458
0.008766974
-0.01040041
0.004166793
-0.07026119
0.09917647
-0.1053816
-0.01457665
-0.05922763
-0.04120991
0.06604502
-0.007003396
0.04590187
0.05667647
-0.08061206
0.0236787
-0.06043277
0.007152257
0.003522647
-0.03735754
-0.02343145
-0.02991146
-0.06920584
-0.01700297
0.07412396
-0.09393964
0.1063699
0.006000848
0.001289567
-0.05866533
0.04770092
0.05659086
-0.06243351
0.0287197
-0.001261997
-0.004891126
0.06018992
0.09154996
-0.04273175
0.03189423
-0.08801623
-0.07527785
0.07417791
-0.07809412
0.09646986
-0.03010106
0.0437139
-0.01227291
0.03028736
0.04154816
-0.06366432
-0.07636935
-0.022972
-0.1031978
-0.05980245
-0.09759493
-0.02638698
0.04668384
0.04569986
0.04414646
0.01381834
-0.06696122
0.05896034
-0.01342914
-0.05084129
-0.03123541
0.08054922
-0.06611013
0.07708742
0.06893148
0.05487708
-0.02293958
-0.03577198
0.0163311
-0.04058081
0.03993186
0.02861113
0.02023581
-0.06451447
-0.005312603
-0.05719496
-0.0100645
0.08695762
0.01441816
-0.09285102
-0.02679223
0.09578267
0.1028589
-0.02303038
-0.08691528
0.03205756
-0.02506208
0.04090095
-0.02999118
-0.07629356
0.00807254
-0.009153948
-0.09775151
-0.02359839
0.08052319
-0.06694563
0.03207854
0.04969136
0.0538394
0.09995412
0.06882181
-0.02767772
0.04317101
0.0646401
0.05258327
-0.04542398
-0.01644797
0.05550024
0.04993991
0.01383627
-0.05085237
0.04097185
-0.06353728
0.07470409
-0.001788524
-0.09197488
-0.01199933
-0.0885835
-0.08266229
0.08224717
0.1052012
0.04165509
0.05782212
0.01077354
0.06226036
-0.09109928
-0.06271988
-0.05613031
0.1037914
-0.01468951
-0.04848434
0.006167955
-0.07391504
-0.04001999
0.04202368
-0.05130678
-0.0893694
-0.02045032
-0.09029546
-0.06510913
-0.1017065
-0.06911524
0.07846612
0.07435802
-0.07612902
0.02739419
-0.01288251
0.0388077
0.05002767
0.0745042
0.06697515
-0.01853021
