-0.08283676
0.05150857
0.03131143
-0.002732612
-0.03447877
-0.08602123
-0.06239893
0.0001990115
0.1024597
0.04946319
0.03811356
-0.09170342
0.1044288
-0.007348746
-0.07218429
-0.05371961
-0.01769017
-0.07888969
0.08171587
-0.09069806
0.05546507
0.07974333
-0.05658909
-0.05113924
-0.03752644
0.06864773
0.09629049
0.06382655
-0.04627502
-0.06629651
-0.05456067
0.00165057
0.0501789
0.04590509
-0.0796383
0.09204022
-0.02043545
0.03551241
-0.04220363
-0.04903223
-0.03799137
-0.06087449
-0.0009856726
-0.02411188
-0.101882
0.05133232
-0.01873824
-0.09714869
0.009857791
0.0784371
0.0109152
0.07032367
0.07213354
-0.02135394
0.06829778
0.01314108
-0.06093242
0.03667334
-0.05910074
0.1020866
-0.053979
0.005951529
0.06617431
-0.06507119
-0.03606395
0.07854418
-0.008853851
0.07581659
0.03234005
0.02469944
0.09440873
-0.04402129
0.01693544
-0.09932473
0.02454682
-0.01547854
-0.03368758
-0.07540978
0.07945122
0.01615635
0.07380211
0.03530165
0.07440539
0.06328794
0.06296027
-0.06600743
0.03648437
-0.03010953
-0.08370058
0.02559005
-0.06144698
0.03036441
-0.03476455
-0.07969725
-0.02059159
-0.04965328
0.05474884
-0.07708955
0.06922541
-0.06184425
0.07769804
0.09426615
0.08892804
0.05152113
-0.0007532688
0.09807599
0.0204882
0.04914507
0.1063165
-0.1070928
0.04652855
-0.05641902
0.04353931
-0.0216602
-0.08779743
-0.08949232
0.1071672
-0.03512123
0.05732453
0.09704631
-0.06712917
-0.05437895
0.02428515
0.0836238
-0.05537167
0.09058483
0.006764242
0.0007081565
0.0775199
-0.07085323
-0.01919466
0.03286147
-0.07532023
-0.05159023
-0.09670371
0.07432186
0.03164602
0.1029078
-0.08822463
-0.07074845
0.08331261
-0.1045794
0.04602524
-0.05473005
0.05564081
0.05640325
-0.074899
0.08768316
-0.05944723
0.01401258
0.09522943
-0.09781212
-0.1024751
-0.04317461
-0.05961655
0.04896256
0.05026191
0.07320739
0.04448312
0.02420505
0.1060697
-0.07892357
-0.09610757
0.05423365
0.002250949
-0.01730462
-0.008970082
-0.08840004
0.0924288
0.1056069
-0.01222283
0.063756
0.01663451
0.06782506
-0.02284216
-0.09602142
-0.06839594
-0.1001916
0.07926708
0.0180652
-0.01706065
-0.05974638
0.07320288
-0.07636935
-0.06798225
-0.005658854
0.09058966
-0.103176
-0.04863466
0.02636253
-0.04143801
-0.04979488
-0.1033606
0.05516251
-0.00637846
0.1027834
-0.07120155
0.1045248
-0.1034013
0.1050762
-0.01462428
-0.02925348
0.0880585
0.1074967
-0.0948244
-0.08663048
0.04844113
-0.06705198
0.03284481
-0.1067008
-0.01072643
0.04213795
-0.09443128
0.01510099
0.09994638
0.06727004
0.01364324
-0.07651697
-0.1026454
0.05223618
-0.04876908
-0.01500705
0.09217653
0.004981876
-0.0130291
-0.04897248
0.1036618
-0.03999404
0.001982922
-0.06355861
-0.09598361
-0.06807201
-0.01273377
0.01576115
0.08888841
-0.03921581
0.09102258
-0.002123655
-0.0118027
-0.0002606328
-0.05046396
0.08638781
-0.04648507
0.1071791
0.07003279
0.07010243
0.02718692
0.0246541
0.03545868
0.07751354
-0.08667659
0.03972286
-0.001920175
0.09335462
0.006635571
-0.1057669
