0.04333916
-0.03391639
0.03981373
0.05377131
-0.06868335
0.04781912
-0.01996301
-0.08974831
-0.091034
0.0256345
-0.05852381
0.08206213
-0.007481529
-0.007139138
-0.05271289
-0.03709951
-0.02254067
-0.09639256
0.08297843
-0.02581289
0.08378714
0.05108323
0.06028277
-0.04290632
0.05933897
-0.0637835
0.003157244
0.01351593
-0.03364828
0.0509169
0.02287721
0.01019623
-0.03932676
-0.04733991
0.04683398
0.07600056
0.07466283
0.07556027
-0.1044744
-0.009887154
-0.04915886
-0.05695822
-0.07401689
-0.03529413
-0.07891411
-0.05906591
0.09814717
0.05406656
-0.044034
0.08097485
-0.1064466
-0.05660818
0.1001933
0.05911808
-0.06372332
-0.01582411
0.04484182
0.04563534
-0.03584732
0.04443172
-0.03651985
0.06867276
-0.102197
0.00600987
0.09670763
-0.1036356
-0.04672585
-0.04829361
0.07385164
0.01850329
-0.07002539
0.1081562
-0.07477587
0.01179364
0.07240306
-0.06740883
0.08325345
0.01850257
0.08229624
-0.06383764
-0.07201433
-0.0881092
0.07300717
0.03350402
-0.09764861
0.03907834
0.003701144
0.04700536
-0.010256
-0.1069189
0.08871356
0.03246614
-0.05815873
-0.05405438
-0.03177929
-0.02018898
-0.03802009
0.01971113
-0.09786342
-0.1080264
0.1055675
0.000214127
0.05154495
0.05739273
-0.09865198
-0.1023562
-0.05223364
-0.08203815
0.04987357
0.006809764
-0.0534704
-0.04363207
0.01242325
0.07989806
0.02148003
0.04988883
-0.02677279
0.08848997
-0.1005317
0.1014706
0.03014308
0.02169597
0.04490725
0.08861012
0.1065785
0.02794641
-0.02630829
0.04732594
0.09373115
0.03220981
0.09045609
-0.02458181
-0.01863345
0.07751773
0.06370948
-0.07417801
0.101174
-0.02758678
0.03050586
-0.04195875
0.03200473
0.1016958
-0.08853406
0.03238591
0.1011026
-0.06242004
-0.105166
0.08221901
-0.04125794
-0.01696771
0.05315126
0.02958139
-0.1056521
-0.1010078
0.04545325
0.0921409
-0.1055938
0.02911585
0.01407179
0.01668124
-0.01952027
0.05140961
-0.02712986
-0.09908631
0.03158252
0.1031248
-0.1060303
0.01724253
-0.03949063
0.01961778
-0.004187328
-0.06734099
-0.09016274
-0.09165464
-0.07761049
-0.09191049
0.09072593
0.03954218
0.09306271
0.0194746
-0.08199752
-0.04508463
0.05814433
-0.0924454
-0.09772024
0.09327148
-0.08698845
-0.08049895
0.01845824
0.007827211
0.04629573
0.05354207
0.1075984
-0.08184101
0.09468383
-0.03843549
-0.02633759
-0.0937241
0.03437225
0.002026352
0.02826336
-0.07231076
-0.03011573
0.003026676
0.07703777
0.03530793
-0.1035345
-0.04110845
-0.008569675
-0.009158655
0.02183431
-0.01868178
0.04482205
0.09522666
0.01715096
0.1013647
-0.08211526
0.0720325
-0.07658453
0.05696547
-0.07512113
-0.03710001
-0.08351211
-0.04030626
-0.07294577
-0.00338517
-0.1020696
0.09868582
-0.05131243
-0.007824641
0.09595256
0.05216367
-0.01183925
0.03348486
-0.04441226
0.06267852
-0.04363658
-0.1020096
-0.06604665
-0.0277826
-0.05922601
-0.1059973
0.07138566
0.08239565
0.04715392
0.04266872
0.05995515
-0.004594269
0.06479617
0.08324121
-0.05905213
-0.03711016
0.06301043
0.03673119
-0.06284494
-0.05418931
