const double network_biases_20[] = {

 // Description of following elements Bias_L1Node001
-0.738885711628587,0.38840999949367,0.702619970409048,-0.444574057702494,0.391171048411871,0.436218821659475,-1.12980280306782,-0.372923948756681,0.208033635809871,1.04031735673415,-1.08391679064735,0.14650885852763,-0.672613647419291,0.394581602426872,-0.507249378642585,0.0777074512873421,0.155602830462552,-0.925662090937613,-0.34637421095728,-0.924992050828319,0.644088170541491,0.200693276369327,0.675415974553568,-0.312342190221994,-0.700047113207393,-0.864013316946163,0.242396384704323,0.866891116447685,-1.33746116549045,-0.613601556619698,1.21352499292239,-1.11323466525589,-0.0321815984611428,0.108100945675348,-0.126057053203282,-0.487801421616742,-1.18022272325644,-0.102115297954201,-0.710330610727861,0.593994306178303,0.220300724072517,1.06419303289622,-0.648485575612531,-0.555147926301948,-1.00401616318881,-0.729853645346623,-0.178779220733644,-1.08457327350783,-0.646987661319525,-0.617159540387928,-0.260905830565213,0.425063355708167,0.169890411163381,-0.225178015056255,0.620739899124255,0.219135882775243,-0.412548054826559,-0.0396300266472185,0.248717221402084,-0.463973250241751,0.624012820443867,-0.667628230354096,-0.570697061486174,-1.1856610820705,-0.349951908492505,-0.738779725600108,0.974347455607676,-0.271296568298508,-0.202531290893274,-0.256901810580397,-0.561334367484374,-0.881979750940826,-0.0972180697360649,0.298734094440964,-0.418431931595909,-0.714487283992653,0.11671417592966,-0.46113374803098,-0.367474707993551,-1.25439906291419,-0.665932063203627,-0.601489719942255,-0.506684065908178,-1.09966457784846,0.739590444182878,-0.558332020332275,-0.601670256797306,0.104344386891236,0.862567255557297,0.213981847680747,-0.601328424520077,1.17195707708125,-0.731590475978913,0.583790199730035,0.504724249579836,-0.957929846609544,0.84371608436073,-0.662488496992662,-1.02349262617559,-0.0496868691812119,0.0701799321943126,-0.283735436657222,0.431574933378035,-1.08488325433388,-0.997987943085054,1.06122884800508,0.366086192958681,-1.33514388671265,0.420353690485009,-0.152059360683349,0.427366438752802,-1.14163731818453,-0.734085619085655,0.920941224374696,-0.937182485999369,0.226191358439893,-1.27771657589071,-0.248648727151657,-1.12594400924361,0.351054071456704,-0.298822017745382,-0.495042749118806,0.67476331829578,-0.124736560804053,0.367159108831649,0.226289761424887,-1.0610041579616,0.166129184416497,1.1104904964872,-0.935701288710528,-0.984581517215954,-1.18045894214127,1.12889885718733,0.768175428466718,-1.15389929081273,0.797572946281875,0.0512523079506149,-0.217479729881347,-0.0461759405016959,0.315791518453688,-0.55529868069786,-0.892295308354159,-0.814120694228444,-0.134050022287355,-0.121695737708418,1.04512169344734,-0.985215200754744,0.182255409804834,-0.179867920003432,0.0769378397956699,-0.125580429071026,-0.432354246805064,-1.24878658767348,0.0278350709343768,-0.943514665984127,0.648647953687912,0.411596357228173,-0.14112151844736,-0.12858176609316,0.145865636068151,-0.46413267415006,1.58730469103519e-06,0.464595085509254,0.538278201348161,-1.05088815316395,0.131544887986809,-0.436534872441296,-1.00089699885149,0.365318625343691,-0.17661569685572,-0.505673465703251,0.54090982661388,0.345213982508632,-0.898841605043245,-0.614425528090514,-0.658314113237449,0.0958644326599418,-1.03579259156559,-0.815181634075458,0.988608940991812,-0.486709765956995,-0.162736602123474,-0.126984012932741,-0.765855430071918,0.332282791301234,-1.16727193184757,0.439129638722086,-0.92840434469961,0.481735932386574,-0.549526213091103,-1.06857420680485,-0.269861833608554,-0.446821833592313,0.0610491002390788,1.03749058831421,-0.908058840269493,-0.31257399512451,-0.387078187181659,-1.06429352686842,-0.437352393555048,-1.09901004814968,0.135102303236352,0.782751008421083,0.0244477110332712,0.695681051068852,0.754527167785326,1.23024643235902,0.395362276619378,-0.165425477118966,-0.880210226177191,-0.704236954060818,-0.111805446221908,-1.20346738541875,-0.610602134717468,-1.04647777832255,-0.662718260179074,0.824514738071459,-0.460917680757526,-0.76285315138406,-0.102547808976511,-0.435717366425479,-0.29513397553166,0.323833653397644,-0.915335280433263,0.295018426788705,0.476252485856571,0.396116136842182,-0.536568110029972,-0.597539904978103,-0.938241142524269,-1.0716036411242,-0.99697370668858,0.383959466297702,0.483436614783954,0.386287986436616,0.39438103434239,-0.608067437117958,0.781692700947876,0.0101592212761451,-0.214438732405734,-0.590122728725571,0.52983690306443,-0.084238140400077,1.0289201005704,-0.742882085589825,-0.993168033429759,1.06844638283775,-1.17129546256451,-0.0326559806553135,-0.988404020794204,-0.927971732376346,-0.210183707054142,-0.0636778343752123,0.791392458847375,-0.771643510619198,-0.59896672792879,

 // Description of following elements Bias_L2Node001
-0.708711941767791,-0.132989316979944,-0.552677046290169,-0.386032061479411,-0.241515128704164,-0.776127425844194,-0.776599357810795,-0.265658355095169,-0.359670812650205,0.54901743869341,0.705723352582568,0.349381377026033,0.750230078464088,-0.0089250932873144,0.487037715415329,-0.161032544127736,0.928965080527887,0.23037537873335,-0.854830065206682,-0.206242940037802,-0.699897216669966,-1.00974117213914,-0.00192487834554816,-0.399570346547102,-0.515843599163424,-0.499606764933094,-0.120103844013621,-0.0582748614520939,0.0695843501756725,0.698428820977652,0.586211463085903,-0.136667173060807,0.328028591902423,0.398130272899533,-0.82798060928878,-0.837656871244874,0.86315223012638,0.807901624790104,-0.626691084362993,-0.825665553973411,-0.414752426088156,-0.0365263650586182,-0.197963529951436,0.558580381329434,-0.636693363159555,-0.112708327231383,-0.102626979009933,-0.508686071605868,0.25378036353288,0.592114528011318,0.843725196183794,-0.904397778883594,-0.444409019257988,-0.378372466401561,-0.563195142778645,-0.405173034806331,0.732915877063382,-0.362197696788928,0.482128543502499,0.738798941202208,-0.8954879809218,-0.13979162919271,0.997689966186595,-0.402370240538774,0.862458722147801,0.214379146735868,-0.140638880224169,0.817312237081886,-0.546145517300978,-0.185629400452332,-0.29118189030212,0.486528473127374,-0.683547720731219,-0.270759845722658,-0.733867498535218,-0.805520580959359,0.303659190665239,0.365062214112226,0.243417122137017,-0.608766642050359,0.746987052587667,-0.879835735229375,-0.876739042912235,0.267388760605813,-0.120944757962409,0.511973054972758,0.286940630012365,-0.908181412463692,-0.458067471443558,0.559401303256169,0.585072054933705,-0.37792538096313,0.928234102058138,0.738682201574132,0.889738604533461,-0.0361165619460987,0.0158161546815701,-0.973787020474531,0.525958753127705,-0.514165528781262,-0.33123953941735,0.196999976105921,0.00107055138827204,0.993008744734794,-0.301253614822023,-0.306148674725303,-0.452501715271751,0.286670609578711,0.329662090977827,-0.953117707542742,0.611503717458275,0.939081817210277,-0.0638057352236252,0.585465803482153,0.752625149990826,-0.317578010931828,1.00964230887457,0.782133255700111,-0.822231774546877,0.29985232972238,-0.370856865496346,-0.815262497393955,0.520665897532132,-0.0223688013078341,-0.0276758543525687,-0.886367424122151,-0.847212853092722,0.641734986839627,-0.888733221021808,0.392486866561401,-0.260217800074702,0.913083288762378,0.835471549851288,0.00848748672412726,-0.370897990573612,0.377122606717529,0.755096452337499,0.147112138528949,-0.796588382786634,0.381066767269108,0.337730121011325,0.282640219080442,-0.876590520177804,-0.176004120541672,0.121948514567456,-0.559425046195773,0.368382796114721,0.964231688642792,-0.639148426992769,-0.0918140384343174,-0.712815971558522,-0.856914288729416,0.25597711087333,0.418704252807981,-0.586823653609753,-0.0495658054669354,-0.53675374774741,0.63842216638,-0.81574997454388,0.729956738624883,0.271485108924926,-0.0877826873499976,0.341702474043822,-0.510522789888581,0.754897695667311,-0.871163155407035,0.447822475117235,0.447127960702724,-0.254007754122204,0.118966649205793,0.743664359448337,-0.120733725083482,0.735085631170416,-0.496131335766074,-0.709672792496664,-0.0879343593705907,-0.676827764885758,0.309857322020393,-0.422955824964514,0.0208989944339258,0.770025442374244,0.833769653515527,0.861951448147666,0.576165981786989,-0.549539775011091,-0.382777097855821,0.317148135385677,-0.384267901450108,-0.0800678796574815,0.670821869815112,0.281977624018088,-0.257050495578724,0.192270778558832,0.372968614568541,0.2222216546212,-0.938320806598653,0.98058432267869,0.0695899394439922,-0.784617207958569,0.856494785621994,0.82639846655828,0.55210684518058,0.3649889143742,-0.497399411178172,-0.973355137541224,0.853693854978364,0.232564666377268,0.331125969459438,-0.986621768485411,0.326303572619089,-0.0188660483576114,0.644920927987676,0.0428993217546986,-0.174176999829568,0.939575650035548,0.157343333279927,-0.272369426996162,0.977673556106879,-0.549850080515383,0.199048807588393,0.679716536971426,0.667385901437324,-0.715125386061137,0.0439819303635376,-0.61992880947124,0.968946078686328,0.375677663477167,0.950910940469524,0.855530925611319,-0.714482055542364,-0.301268965860377,-0.724590117569189,0.42332789556298,0.762347027977128,0.727684051451776,-0.168742766165943,0.859584442556629,0.267664524947582,-0.341176178784952,-0.12062909626471,-0.449559716733547,0.104247925996731,-0.699156333634968,0.463706212915404,0.655238930093397,0.830327172830633,-0.804899645060236,-0.572775615016669,-0.146431314140809,-0.851549618325567,-0.0234146084934815,0.105207205577496,0.633079748958614,-0.786412976897498,0.955493832362742,-0.0135380512103401,

 // Description of following elements Bias_L3Node001
0.685248390478138,-0.286085004577448,-0.518763770937173,-0.661841555828983,-0.855237687413079,0.321534359269284,-0.555826898979477,0.29444508779789,-0.574064412536879,0.939723012457874,-0.735105845945812,-0.268042193026773,-0.570462719824056,0.261133478194835,0.446467866902315,0.00148096007122417,-0.170129920600553,-0.102865714929724,-0.897715201994395,0.745733979527013,0.926111614783683,-0.485958881059292,0.771877284633287,-0.891794191769223,-0.2341424039773,-0.089507065273011,-0.231995933643988,-0.932912647350443,-0.59462327743206,-0.862553213148805,0.0840888651376885,0.990453108035526,-0.639443653078049,0.764386820465125,-0.512537690779154,-0.715304417020476,-0.879583234883378,0.149242520225572,-0.762318265743266,-0.238752416780617,-0.237287956888271,0.52990189348752,-0.562332723014053,-0.139084722154043,0.782297705203064,-0.756046880266481,0.704886081600049,0.756080482548855,-0.395240262453703,0.307317521129571,-0.784030530173053,-0.331063757392847,0.863577353223289,-0.15846884385265,-0.655122625471289,-0.560255387109466,-0.00453133513038661,-0.393267274800626,-0.827487430979533,-0.309993296583985,0.757454025880683,0.457941672486305,-0.611549095016496,-0.55859356074917,-0.795701603653806,0.306735772580434,-0.273530835187063,0.0190872662911965,-0.68817162127005,-0.390574351315141,0.18064765601686,0.361772269370121,-0.767535666896857,-0.527264443651215,0.527639577344375,-0.83298220478709,-0.0616868593913034,-0.655710044941844,-0.234296143357503,-0.190631308935539,-0.785369784188816,-0.239985402370482,0.12119422389737,0.802411578219131,-0.729611048097739,0.535235555325627,0.813807621873165,-0.87882706437471,0.718121526363833,-0.24235976152475,-0.236391968316554,0.0307000047948987,-0.135744616296806,-0.874975773788188,-0.430061627956546,-0.520859984048511,-0.26239518465446,-0.810017790804578,0.613965843415516,0.410104990000339,0.795748159126075,-0.908091711961362,0.838136613269559,-0.665346741698562,0.648917774936195,-0.83291205569101,0.198141225833923,0.900598302683605,-0.508868892528583,-0.732617397996132,-0.18067591707844,0.319322633186593,-0.968629110375451,-0.603559881290186,-0.852094788454468,-0.680511022988262,0.128667863454908,0.229478071131228,0.598941559064709,-0.555571251479506,0.286605797854106,-0.0624709075745579,-0.602741917591187,-0.295821706796366,0.16439740944426,-0.513708936932878,0.429135453432746,-0.423488709111218,-0.791561942398803,0.726862230584624,0.818727254632931,-0.832376194597159,-0.472245421589216,0.117825118831421,0.787226874533208,-0.954147708236256,-0.921660081162311,0.197482600926969,0.722923613064118,-0.502766707373006,0.735589161597486,-0.569682635557091,-0.760722109747722,0.442545909295799,0.16093730735245,-0.28961328479166,-0.526059430391551,0.654737550778033,0.103671137191393,-0.650180030445564,-0.130442465689671,0.441702090889171,-0.511031931621109,0.718744634155704,0.542718097972927,0.904491208743427,0.245080084202566,0.041993170981035,0.299146518245972,0.620136463322952,-0.953436542974057,-0.789091575841596,-0.146342306605965,0.673529663338757,-0.25713595317993,-0.00101701421989087,-0.162067800474368,0.239108373047354,-0.674621921377952,0.810445289288438,0.632375418869054,-0.409310922815316,0.642569440340229,0.258075688436905,-0.509763126242532,-0.94900403930744,0.754604260575705,-0.108349285397573,0.596532345926292,-0.865585387097347,0.609699740965415,-0.418062103839221,0.348894345733422,-0.121710920015547,0.187954177648287,0.448963201228706,0.910797024754731,-0.0694011637173177,-0.171576368861478,-0.56284297271012,-0.963192862599629,-0.541520287459957,-0.801903008318023,0.0944819110702098,0.739035565624659,0.520949802028194,-0.805939227025646,-0.977620227660746,-0.768289267294292,-0.167405572712533,-0.132767799942387,0.387432861778098,0.896690063765027,0.51748744414639,-0.627103807517981,0.130073668588786,-0.079055522848352,-0.550182967615215,0.824587477167387,-0.305492726787918,-0.557874228070373,0.132184574282595,0.16193884956827,-0.558496649953188,-0.729792197287978,-0.769605015600347,0.386746840692139,0.836173844774915,-0.700015826453692,0.475904401844057,0.0484560343351896,0.27008235023507,0.230787468833098,0.288295406010267,0.221034993786953,0.380017543405293,-0.339612510542578,0.313061809221045,0.55907327337887,-0.994278022148913,-0.424084864183542,0.633846899456846,-0.254582150665538,-0.424292521013948,0.405083999411572,-0.961712778907396,0.718243193893638,0.909383932520356,-0.0768824272965437,0.950571731412206,-0.647465110168299,-0.378049889931918,0.61496275547366,0.311382769750777,-0.777341465764492,0.311712620010767,0.505464223717511,-0.214250195923486,0.971267968595332,-0.032979026985308,0.522234290933466,-0.172795110585948,-0.0967725709925101,-0.303959775561125,0.801761190200158,0.277096668563475,

 // Description of following elements Bias_L4Node001
-0.299296330587366,0.376624182236343,-0.415561111529275,0.163590508689934,0.794777071716257,0.869197794505865,-0.890045131349283,0.95975437024763,-0.564447771537538,-0.164052433245827,-0.301697383237029,-0.28818938841647,0.390320326417152,-0.929240243556832,0.608138270365427,0.280021701771365,-0.982376604541469,0.981591601009925,0.892367845421841,0.532143421206269,-0.657944405085758,0.0620278672100935,-0.159442143164399,-0.6208527357513,-0.762619293994004,0.233377871845938,0.983788243294319,0.131655700067138,-0.218328612930939,0.716832978558649,-0.897816213932917,-0.0388851522253897,-0.592980042311847,0.735169530976073,-0.80755162181336,-0.363461603665602,0.741775044927791,0.33450674191538,0.100557645113462,-0.452669179571074,0.349791406863558,0.839195077066369,0.193767951041595,0.644327721829486,0.241738568359135,0.929893124023791,-0.263208502470277,0.920129699844771,-0.102261887830022,-0.474855017930565,0.154118929991187,0.970576571906048,0.687078791712843,-0.837965859687235,0.100980591124581,0.225735022897807,0.454170920633954,-0.754349909443319,-0.756539362276285,-0.627458907910648,0.233116274952152,-0.138425871975863,0.243255292596933,0.998683593045275,-0.140028526237863,-0.722550531517054,-0.419328536376978,-0.111199027533873,0.453796152961625,-0.486831138938427,0.0722786070550341,0.590777834064106,-0.894438540247239,-0.542742838785049,0.104637531635686,0.684943660115692,-0.515045782319753,-0.182727364852263,0.491589607605182,-0.528570568826612,-0.803933858646693,0.245258572051739,-0.752682104513997,0.863126851153433,-0.598097179918842,-0.927765386922094,-0.542984983459518,-0.986347236374725,0.835354119763911,-0.303668998813676,-0.456627220844577,-0.136466435867544,-0.459504795568562,0.658791850088434,-0.855453208902621,0.164391356883668,0.832131300034289,-0.0406467277763513,-0.817163387181886,-0.636462217745317,-0.402875428326998,0.843153456423857,0.101448210464778,-0.654171525714222,0.968277522626563,-0.687633429586635,0.0265037455639095,-0.218970802896526,-0.676208775199082,0.723067929708569,-0.746715329744246,-0.612901155930097,0.582110258411285,0.86425249723198,0.477740136091796,-0.784367089051306,0.375629541595974,-0.405279923397571,0.795568594056293,0.649410925912894,-0.898055581088793,0.866829288068096,0.508912890975804,-0.735280686681574,0.553804295745989,-0.395974856376798,-0.732741157934672,0.201154399055782,0.185677919896227,0.322621017319509,0.251618818947539,0.808248026397881,0.473541340098041,-0.83423624276404,-0.62637480705113,-0.640537773685185,-0.237708465981833,0.323778214512463,0.204459441460593,0.416011087052065,0.557144525667928,-0.879184160870456,-0.400191956863814,0.388600590181723,0.876263900065152,-0.634662077119748,-0.620048429284404,0.700723132163204,-0.0654450665563736,-0.574893252058681,-0.0208488684712152,-0.905805666103518,0.0652495442163268,0.169309276896426,-0.130491341805268,-0.812026478813418,0.244286870546722,-0.96275558645656,-0.739945832152168,-0.299765582509951,0.390677074424193,-0.250710907209778,0.778658246552346,-0.52610814448206,0.897549733605139,-0.86525417379248,0.422918708406786,-0.369648493367518,0.72565209045118,-0.0652250352960939,-0.39410634568861,-0.468280025862045,0.157175047001659,-0.634040770267668,0.842877156312085,-0.426557875118305,0.0110790216764392,-0.704311375493405,0.0393325051579442,0.844412794993795,0.374656185670705,0.678743804612824,0.0886908619622315,-0.185592540634724,0.593551861086454,0.506143076918486,-0.785283573557902,-0.432896634179181,-0.488797819050779,0.799115464049988,-0.0449689427811913,-0.664643327918223,0.448058528175256,-0.727969887616566,0.601820045499836,-0.475402280047406,-0.0279959556219023,0.597764041788854,-0.591022144648413,0.449578655043637,-0.261640235309077,-0.718913887211572,-0.18406938206932,0.185876892172803,-0.202071342312632,-0.307408473377963,0.855233094146488,0.925232717929191,-0.66131027765245,0.600447372919937,-0.998444410374327,0.32234820394595,-0.00881869618245307,-0.913376775129206,0.281321375188577,0.730886057274827,-0.621696033016011,0.4615948476742,-0.0552269798250628,-0.195443263874854,0.268282888978936,-0.351321171755962,0.512804021009716,-0.35977724528387,0.824609079024506,-0.501054722127412,0.55299896976767,0.330049975160878,-0.0524621571624101,0.32812087337595,-0.444783454346597,0.65269890175933,0.990417584447854,0.919681899689278,0.152713272250196,-0.832142671885598,-0.308386928714,0.429632156877274,0.040448162422336,-0.679565000978069,0.430056566426416,0.417796361066549,0.947577172404803,0.360086963844215,0.963814429139583,-0.504581721218881,0.493877089073527,0.090919464929061,0.198608900851977,-0.990177361161854,-0.407932601718442,-0.840320614430262,0.301280069927018,0.682628184533197,-0.723246206401764,0.273660559632474,

 // Description of following elements Bias_L5Node001
-0.160440447966462,0.926083146259007,0.24340635403457,-0.417479747254925,0.124320619324227,-0.768926490740205,-0.319217556963428,0.53808439672377,-0.501694414570455,-0.602220361303207,0.273724198209923,-0.595172099698573,-0.660031544709116,0.36331838045565,0.067174037296788,0.988375552535845,0.128072658957315,-0.476979621092068,0.354842450947123,-0.975732581550612,0.215403197914555,0.688538358981978,0.02650059515754,0.245075638923842,-0.328039333609994,0.535361702864353,0.182715458216627,-0.768156361879851,-0.623769631748926,-0.389741548095798,-0.0256698045265124,0.286797826363875,-0.791200003395981,-0.0308204603103551,0.874501801555625,-0.629152567672947,-0.300796595025026,0.446933786629393,0.837468584288243,-0.37336551815761,0.0949147606504176,-0.638833769539271,-0.481459215432243,-0.616059911483311,-0.175506756552525,0.173993371946686,0.123005843388149,0.277027795678846,-0.953497041877665,0.542649655550945,-0.23427796468482,0.767436630537715,0.876822508238789,-0.959611888151663,-0.0839316451771755,-0.890064595916803,-0.3318335666926,-0.382943958911566,-0.188516901008415,0.634425956944736,0.89055580059698,0.834666656003891,-0.13976136681805,0.286982964251191,-0.610474938262315,-0.173803477647075,0.437470953303193,-0.374302173664013,-0.733047293430903,-0.349331949911792,-0.966295615526941,0.753557947679949,0.64732295231092,-0.455028027852424,0.618378006461042,0.870079578855179,0.632665624090953,0.320651005166288,-0.288577636827342,0.789353367575069,-0.822264104315095,0.246823717280995,-0.424205377776326,0.838469053966108,-0.384074585220925,0.623683127766108,0.173402555199756,-0.43348926594756,0.510318371371528,0.932752163404745,0.650506100672616,0.588956175377004,-0.717141373664187,-0.260371349716903,-0.734681331647235,-0.99885683804067,0.83660856767829,0.0992205907484056,0.658101051271598,-0.585565164654357,-0.900001391629185,0.174649936852519,0.678031636686021,0.157476460993367,-0.370304952974361,-0.680653761482005,-0.411958044905454,0.636654941020674,-0.747455222911225,-0.342720719864516,-0.447359815301003,-0.717188383139543,-0.165507154141396,0.750651825880014,0.911677210269995,0.0745713978127149,-0.204042167768461,-0.409711060861037,0.277400517997246,-0.929941889004148,-0.509480128346684,-0.749370772761605,0.549246978882555,0.227115564453787,0.483451848886494,0.382994680793889,-0.996521328552515,0.814931639734291,-0.382791661690172,-0.431161930805672,-0.649086427508538,0.952609401325969,-0.0933907010631414,0.178916284163125,-0.606777349652599,-0.244865483763363,0.670245866238262,-0.631331965542379,0.493698597006145,0.228821019311696,-0.168377298388139,0.720251023698297,0.31638964581915,0.369051770450135,0.934883650491647,0.20185164418654,-0.64810416579294,-0.819842148174925,-0.725593313790585,0.308908926721573,-0.486931169336106,-0.0889878873404085,-0.585067197890978,0.460576730230322,0.0252311648558091,-0.850690481276971,-0.283623503741904,-0.0928617660884255,-0.394523684030612,0.665298275265452,0.179328807283235,0.23575471605766,-0.173136661980642,-0.0127569333296843,0.754735513559367,-0.712012689310961,0.244886791531082,0.426644015145318,0.266210562800629,0.247300333598627,-0.153642423362455,0.551419342906363,0.141835960097141,0.444334484581126,-0.299701223507505,-0.473325926787048,0.940095097462186,-0.5674494457394,-0.653659166498648,0.308593254653015,-0.495537417314228,0.7375939628816,0.647779058801083,-0.883129746801271,-0.611599429002911,0.517467235135377,0.0464014063336907,0.33462320119641,-0.858410191313868,-0.10122027187099,0.601528990170043,-0.806937202553345,0.299053930860783,0.781715280823169,0.883011031222321,0.213301535278196,-0.980594155328694,-0.743629430394117,0.96621575078902,-0.0366145128889278,0.659180608487314,0.30663277756886,-0.529355717853944,0.713894706273512,0.741862521604961,-0.291557829892981,-0.123022866025847,-0.0822337015950521,0.343404957044428,-0.305191141228762,0.981644288821654,0.0473285295690871,0.860319527963202,0.0757001889555824,-0.11986121973674,0.464042720720839,0.567087719337677,0.947485203532546,-0.0998922807400412,0.435248202495679,-0.768615280982922,0.903359739619938,-0.367140381224943,-0.431850632669716,-0.561957872802899,-0.476841520767939,-0.914655444616362,0.115130395619904,0.178890436026053,0.862217961211862,-0.685740550481776,0.621384419995749,0.0642046516882481,-0.417081582214639,0.688724434973569,0.855782926566654,0.616226869404892,-0.914326310053213,-0.590076990102423,-0.893219273555791,-0.190198359406453,0.497891583419294,0.825338783105669,0.876894835020375,-0.468970427317898,-0.413479161874047,-0.420719015825114,0.594485069566579,-0.0724688687799819,-0.218564476373021,0.613996110368339,0.224302944874797,0.551736397812215,-0.313599373172217,0.0782104003888982,-0.0995064820522367,

 // Description of following elements Bias_L6Node001
-0.199834633866334,-0.403808161196325,-0.191258254697955,0.707325864679452,-0.286120464503961,-0.270658439705216,-0.0433707906982226,-0.893135707818469,-0.78188397728713,-0.65060374119718,-0.645952752402585,-0.99497249884883,0.563668033670968,-0.186617507341803,0.104774681573191,-0.750688821089998,0.103513968973312,0.758844970922121,0.840037765710979,-0.362791708023056,

 // Description of following elements Bias_L7Node001
-0.524985204775368,-0.70104995210724,0.277029250680136,0.923769990048479,0.287995877608789,-0.234487525337752,0.426747770494272,-0.250782819635884,-0.822061486298339,-0.255807831894925,0.531471040972687,-0.175846887519697,0.0385505113156008,-0.607699489911021,0.749388066588836,-0.360654300604337,0.93027028001596,-0.114176251346459,-0.461506451077458,-0.228079371148369
};
