0.0324937499635987
0.653432088087542
0.736518133618324
0.235367967627974
0.14870168815854
-0.82843648593134
0.453892718630424
0.682648425138622
-0.056581762067545
-0.0504182265759939
-0.045182772237336
-0.178890026666192
-0.045611627228967
-0.811397828612086
0.120710678016901
0.523257441411489
0.676229899037542
0.428678648892674
-0.828439878798262
0.865632011085272
0.301287757620152
-0.0589328142851078
-0.915935177525208
-0.0407219968275365
-0.089944408646874
0.194265982216907
0.767795234478142
0.01863099176629
-0.871953486275851
-0.950327396976923
-0.781590932584447
0.225913128924065
-0.24970501663949
-0.0927452290324588
0.628448679764716
0.183198370663787
-0.843105935658971
-0.560587113799646
-0.391336794627752
0.825333680743267
0.102901546122663
-0.920035671383205
0.65847845999154
0.0120635881099825
-0.959509357138084
-0.683228912811874
0.31825350972908
0.792079983831579
0.258062682530658
0.522471446422306
0.10194851152199
0.0702525042502893
0.943737000933675
-0.280068536522991
-0.266712046638302
-0.170398414311033
0.463077744841633
-0.795277344328033
-0.590989913209742
-0.356453921981237
-0.584020571733971
-0.958759305414974
-0.711333981387936
0.7123202811259
-0.101531520804644
0.794230808171421
-0.552252407936452
0.967862258313677
-0.883084582423779
0.326950378906088
-0.255281571542508
-0.918787863295386
0.0355865741378768
0.419727874165823
-0.74140806117027
-0.627729265073989
0.211951219254546
0.261702054107205
-0.928073859760504
0.473579491560117
0.745312319738702
0.0666515699977744
-0.895108213007803
-0.410330940837256
-0.218249693032625
-0.766425817655881
-0.591044467719814
0.447379608717069
-0.0802372646137045
-0.195155797768616
0.672046681335677
-0.0227899591823579
0.884929666945921
-0.424179742873571
0.174189252270944
0.519139930443051
0.415447883605867
0.771443819377084
0.346785994623282
-0.380279740731013
0.763882833193429
-0.823072874020381
0.12572662912523
-0.321425600651375
-0.0772372207823792
-0.221070115438469
-0.760289445334274
0.420522531413318
0.336100514519908
0.486222051274899
-0.631484730438464
-0.751325052215843
0.368584241236936
0.726783975313936
-0.0129085795014724
-0.916998826348077
0.858097863097533
0.633354573003787
-0.713540671012283
0.0183936722671474
0.166696347446806
0.894902906171744
-0.466440829558486
-0.665970142274649
-0.0433806116585118
-0.139933893066763
0.732336148291138
-0.181551332680157
-0.438565799065096
-0.878376774162956
-0.309340286951866
-0.329007979106598
-0.298835163447116
0.0582098749037097
-0.132689144748143
0.0611714378678877
-0.14415690458758
-0.413924396417853
-0.62959019190987
-0.100438631807961
-0.408509951857101
0.187822406663892
-0.644421824536485
-0.138869283817055
0.554973941417792
-0.613236816651376
-0.70359443617532
-0.872447747685874
0.176242944560959
-0.589228904312905
-0.898131783579709
0.320189330046681
0.193741048676986
-0.492833625544806
-0.32249876730357
-0.879842816381392
0.963921362758424
-0.30184870125466
-0.518548725854626
0.828163605644366
0.561908029524905
0.765618010181361
0.654250888665494
0.71516314331508
0.944037438162928
0.955297037074479
0.558213676919362
-0.822462747195548
-0.230824128878084
0.0720504263904389
-0.156108362208732
-0.131124067483258
0.855673903693699
0.494214363444031
0.335157344853636
0.539685837365468
-0.375395653846715
-0.587724269764454
0.507629124701929
0.958517096520594
0.438722246766157
-0.604582323891738
-0.339588089383997
0.0166656967597515
0.634064239789483
0.618050706976413
-0.616482327605686
0.308955178148399
0.401265395170457
-0.429252842391404
0.52400505183763
-0.282809720611573
-0.586213446491719
-0.560819636640059
-0.986039881467794
0.788182422696532
0.14245344561417
-0.949247132210046
-0.556490346222192
-0.543903661938732
0.795030939525195
0.202474462526108
0.86832185312557
-0.0693770826091224
-0.583583902819171
0.273156003037542
0.511924054214477
0.452919623933992
-0.743571045832416
-0.0385148143502592
0.945959570576464
0.846896824163835
0.69784375849588
-0.717665757662804
-0.778454450044223
0.105647209555363
0.354566695774697
0.517783674822683
-0.453604511980259
0.43136011286366
0.823603657137293
-0.200005074612496
-0.699191317197534
-0.216959372664
-0.677828880011312
0.0880167721680505
-0.362260315191338
0.0283032988791512
-0.949057700014178
0.678207915071872
0.868288632105126
-0.723518517282136
0.106834899738576
-0.793148889853211
-0.391279796782809
0.353521658565243
-0.858970185751171
0.952318471099636
0.213916790267328
-0.112684705049713
0.094282211267701
0.119876935135481
-0.118976356793358
0.676207536372586
-0.231286142525832
-0.343543207390592
-0.698900469482976
0.494880983015031
-0.361881190702361
-0.416186157624353
-0.372586975210848
0.288595212398057
-0.134026502328237
-0.349422362191385
-0.0570595496698262
0.777876560475414
