-0.0928982937561418
-0.481550027659071
0.174008128389488
-0.999714638604751
-0.812051675797215
-0.747738414348219
-0.181260508505005
0.56959762500747
-0.46404322705566
0.323771589684794
-0.0807840903213941
0.303930738736139
0.198294142547995
0.465626312791953
0.447183257529743
-0.327882174608284
-0.788395891209918
0.797550445850115
0.735811007767856
0.537663223244749
-0.635252013943734
0.540731163658198
0.310836946649766
0.460001647847854
-0.604261937067331
-0.53206522331823
0.117300703750896
0.137609890360243
0.286777102735498
-0.6598139691834
-0.779164708847942
-0.996705008777399
0.238501925472268
-0.679624140483168
-0.740551826229414
0.0307079711504202
0.631958818470569
0.132816339248569
-0.60534089139416
0.778246827667594
-0.534800190742522
0.608268365134983
0.943809868533343
0.134308403415706
0.675578018747317
-0.79293977161298
-0.959097214686984
-0.447017866517956
0.552073422792189
-0.0842171862368803
-0.84065120258906
-0.182355604821808
0.149552055250171
0.277428930633525
-0.76782112004587
-0.882560558841232
-0.969842190925155
-0.156015991001162
0.0264777767063328
-0.826400815983145
-0.711110312722737
-0.895059388594696
-0.574556462999816
0.474220471920341
0.309524675514386
-0.439219832890285
0.718993420133629
0.852974700045321
-0.664297113767641
0.912188826599748
0.125264911518746
0.704950621660654
0.57401288084301
0.875962641148351
0.952065246854887
0.688628950668434
0.58539463151912
0.56839456366719
0.986832525936699
0.351238624778294
0.917383755721172
0.13729756456975
0.506986137232422
0.544915092222202
-0.687335050584637
-0.262253342921935
-0.6603026864723
0.348991836822058
-0.361567552840898
0.431802312144998
-0.348087365868807
0.923497041892948
-0.833729438788107
-0.112003775543612
0.727336387448134
0.53958342947134
0.989555046797051
0.930827764644529
-0.483991259173331
-0.441086525030451
0.851362174297513
-0.416526530131437
0.224087804252262
-0.246864663167074
0.111267533934454
0.0871666622947439
-0.110950835358854
0.663146912109899
0.519436780945738
-0.368515765555352
0.0616425103879601
-0.492319012272373
-0.515535804879178
0.879120675003321
-0.704389014955155
0.927406179548814
0.314406468606214
0.315153585927796
-0.193384960764975
-0.203677819240817
-0.170604864170162
-0.337773715280591
0.178305279452994
-0.486291092356135
-0.463858432965288
-0.480343911855652
0.872485094947522
0.786837306645278
