-0.416533251075564
0.287872637329005
-0.776226754148021
0.992840457673971
0.37924369400826
0.926644307618147
-0.40328520294043
-0.0264314764532402
-0.905976270464379
-0.312799658872271
0.73267148594692
-0.130011398973812
-0.924698611588169
-0.491729230525708
0.770034658430382
-0.847768342153123
-0.496671389009318
0.284111680581674
-0.387908352390863
-0.0356144075226838
-0.839139770059038
-0.358249505750951
-0.925123606475805
-0.159671587380774
-0.93851240509647
0.557255876918637
-0.51062631264318
-1.02073468321867
0.54304596717723
0.635256088472328
0.691663110364127
-0.590354319029807
-0.368975987620857
0.0292260689921459
-0.871818076072702
0.329887092746827
0.672606423353788
0.861961919553759
0.402981969055452
0.128067080924486
-0.456867808236163
0.805158990581778
-0.277766677496612
-0.0534013545357991
0.146407846052761
0.557479423295647
0.947611484361414
-0.816718246069282
0.924998107084825
-0.115333786088287
-0.248788317366518
-0.414973914734655
0.305466061004275
0.212062112482041
0.14129815814001
-0.34579908339885
-0.644817921303006
-0.417643227135069
-0.192070571166779
0.586162023143055
0.030464865046159
0.487436746811195
-0.108501276650688
0.71745298614337
0.967268265659766
0.414089627327325
-0.0400343403494164
0.0300008487497222
-0.874113709534448
-0.0480441916953753
-0.140706914053691
0.105252056831424
-0.406553096640028
-0.673001205331643
0.553932579551035
0.423791753826123
-0.577370571097675
0.155540522815193
-0.819352586955793
-0.919319921303802
-0.89286200987463
0.379001738996822
0.338722660091876
-0.0378980696335151
-0.000699774014420562
-0.763695194106535
0.785280441269285
0.737507298855547
0.648558040056791
-0.413548756222882
-0.572119206965108
0.0450199903870966
0.760798616121004
0.395444082339285
-0.668334196931514
0.847175555179478
-0.262994873707648
-0.329129242359833
-0.803963802323854
-0.278929561864931
-0.150955282278643
-0.338270875816759
0.306618664556136
-0.0142021786184434
-0.267606441821373
-0.544731897140296
0.0477144269252628
0.596323533500654
-0.525797595732733
0.018985283375068
0.908640249167577
-0.338932791931445
0.276411045536424
-0.103107220778421
0.65119424986159
0.508341792755835
-0.0534148021906546
-0.737580449636501
-0.315898248086129
0.62000424897889
0.114713720570942
0.101945039472519
-0.945751201387152
0.895192261441605
0.288149735885703
0.360976032563545
-0.922286161696269
0.662970267166991
0.426626066048602
-0.773508307126997
0.697226833359122
-0.875701080627077
-0.650432531341246
0.850991137880139
-0.548448546003166
0.89452932985258
-0.0272906196941425
-0.963883593727607
-0.595158155919396
-0.266266625603842
-0.818112517255841
0.0703925018914577
0.0258906490042765
-0.276386239187366
-0.0158356056449519
0.717396445083274
0.512159462609275
0.0703317500673341
0.430332834880683
0.293877437498726
-0.872761054940477
-0.371255852624538
-0.357547817200935
0.761568492899512
-0.388527206355462
-0.0235754708962431
0.469917808771705
-0.398209126588629
0.145240721226394
-0.464453301837993
0.408600147266522
-0.487005046393941
-0.420163311172139
-0.381842758126992
0.00671180332349633
-0.157469155278117
0.292413224533828
0.282957299536686
-0.546945688026749
-0.631166556612844
-0.467269751815351
0.527673780638202
-0.0388041540505498
0.113193596549604
0.322787734346066
-0.0866577936672147
-0.800423491310096
-0.550803104240773
-0.77734538589307
-0.883355420624831
-0.587983192544606
-0.874286583567063
-0.117884552808641
-0.624730448367475
0.683770966422695
0.0389197864102849
0.384114925191543
0.69949862014534
0.901038639825067
0.469146241043392
-0.195977447814819
-0.0144974954083667
0.951366769489112
-0.486808466873152
-0.0597807599068715
0.660470099825463
-0.717278889386142
-0.826940462294582
-0.599964666444194
0.206837017053291
0.929802430360913
-0.0469788173289556
0.561956156644125
-0.0605913200785019
-0.394773677706404
0.479851066779397
-0.322029586427299
-0.256302088571396
-0.492230622492268
0.494768252597281
-0.400195920414613
0.872908919928133
0.281693847733337
0.318927647021878
-0.100135220046668
0.461194525509414
-0.927437620232953
-0.156091908401774
-0.852770547896374
-0.90776877598225
-0.0182153094610182
-0.154353186628044
0.391342721247474
0.59552853811043
0.291501464169336
-0.330128102440718
-0.674192719129084
0.930901475289115
-0.186080171814017
-0.153831379123786
0.488259009811481
-0.852738440239907
-0.0678341024425817
-0.184992839684933
-0.688403896793578
-0.936123826448668
-0.201558289123984
0.381124423166342
0.595157145500959
-0.146835847323405
-0.926932211574615
-0.248247538715419
0.215689172706737
-0.571647279972773
0.764768373939867
0.758095261849175
-0.859596416367419
-0.837570901459618
-0.076013035311045
-0.675977958402304
-0.475593391349729
0.38606122736984
-0.556164580061026
-0.192564776766591
-0.667234695777946
-0.529416840049128
