-0.175612176714872
-0.0287233343875684
0.715921480569036
0.57515663024191
-0.164718989483513
0.384401466055899
-0.300693323130912
0.310335957530918
-0.0500674206891536
-0.898959600192073
-0.919633792826994
-0.639564193148317
0.0515826774438443
0.314244436723669
-0.599176172023333
0.962827371635751
-0.808671008434437
-0.884107880456921
0.0676648025087135
0.366575250502996
0.738331507776847
-0.570983357856212
-0.218675485340144
-0.323630511949346
0.946532080014673
-0.877798624860789
-0.551304958895352
-0.403013586919376
0.870799347292493
0.684493039948555
-0.202843886148801
0.590720055458139
0.71222833541608
0.859603711253075
0.785213617873328
0.715113202676105
0.749409987629925
-0.492959964840622
0.114583153636895
-0.784555452826204
0.695879557744804
-0.606830150646064
0.790700193599326
-0.682692468922396
-0.00988766839149962
0.0730561679494258
0.0429180607998574
-0.662415482191797
0.303597851037099
-0.431663945095276
0.458372270852356
0.179887508328052
-0.232932738584953
-0.358899281248344
0.693038616156029
0.733552259136536
0.0305308984442737
-0.220275599697211
0.593527624715438
-0.979089324196464
0.58328998508938
-0.0243947477564228
-0.863561006373834
0.629039121546016
0.00523452981614832
0.570004163752773
-0.838136396751126
-0.073495300737539
-0.0321675418308559
-0.831605319778048
0.466227862714199
-0.407835242315066
0.173342701876354
0.995702566426609
0.241365963831712
0.884198341186632
0.0313275364725871
-0.408095702878649
0.485301901804129
0.942486848135122
0.140381587195086
-0.1809471442727
0.709756835552046
-0.746753011306446
0.644917268753011
0.838131315442275
0.429984922791817
-0.288831514998783
0.143845460721712
-0.936434517715629
0.0483935783724775
-0.929660794458469
0.637323207273004
0.992776103883097
0.107415513588552
0.217243259684996
-0.566299151298553
-0.473556142853221
-0.680590698910238
-0.198062651317548
0.422637221385234
0.673825182118833
-0.292288874708867
-0.0017591679409795
-0.51773412178889
-0.350040317832625
-0.174796224577816
0.033735293143319
0.540677627664937
-0.597989833311096
0.902403652937805
0.0369374155431338
-0.108051399165351
0.195917660237587
-0.926460130918971
0.681559771130721
-0.0446341972959454
-0.706537627243992
-0.675127859876758
-0.581469413665007
0.956117297337807
0.168582269599197
-0.774460790747942
0.67510426405843
-0.266432809019167
0.660843082448788
0.0994063426556228
-0.839999628323933
-0.483799300167843
0.247952194328952
-0.0362730188124533
0.105935340157074
-0.566418385730721
-0.074721622444782
0.955989954510604
-0.837220085334969
0.0543611309310379
-0.545883888698001
0.595478097622712
0.86322352304102
0.364403534240183
-0.698693438545824
0.574345381624527
0.0172625767849238
-0.980598833155347
0.227655855314284
0.894819991324386
-0.879614874182876
0.657592717016212
-0.621112269711394
0.437730041221055
0.4307191962818
-0.709459171651929
-0.104371548848565
-0.129108856276771
-0.364278780400053
-0.0977470822404257
-0.0884394207852177
-0.147232363886119
-0.32339442619468
-0.996472739126283
-0.393574328267379
-0.901607403819522
-0.696724118846281
0.330109911596085
-0.234849252315911
0.264457961456422
0.516025162495939
-0.490184000793608
-0.170033495232528
-0.697315642181637
0.154220983693426
0.709702447583915
0.760626879152329
0.656739017824511
0.168750190064842
0.721238795333611
-0.642664218013708
-0.967443568443052
-0.554069527442199
0.0857706738755896
0.508816166834555
0.167176108144367
-0.467703299086133
0.143415710516841
-0.348479939704418
-0.914535250164767
0.390630592068268
-0.511244954211861
-0.314178560721573
0.394092534830235
0.0963697221539774
0.787367046892765
-0.40918368580267
-0.145402688945281
0.18727959921808
-0.83598167061345
0.596781687028403
0.613653019084826
-0.312868271809664
-0.294074077001215
-0.180224846473919
-0.21260187919685
-0.378338802428889
-0.864638042641452
0.183782582868726
-0.928445289561772
-0.647401749504996
0.107413629401295
0.848827452647096
-0.998621320912432
-0.947032082126565
0.787362373989747
0.480350690095438
-0.133936799948194
-0.415126901944688
0.500464312803816
0.148194781423588
-0.0212384451027689
0.585268670436821
-0.90384909653152
-0.296991632796786
-0.0915182052233339
0.0634468728377265
-0.737427158519344
-0.523353869396419
0.40984545113726
0.861975081705077
0.850656457637933
0.496313938925653
0.657097580844835
-0.712079243298937
-0.855836601949189
-0.536729392563582
-0.629166279405789
-0.794603199572867
0.674031604214064
-0.782076368931672
0.409284203182188
-0.335397063553676
-0.935370036801956
-0.159169686167358
-0.838242967850737
-0.473075832403713
0.617815272782957
0.196521984908896
-0.100199152563588
0.73358113340816
-0.705370070515028
0.295769064809673
-0.163094025381264
-0.306302252861854
-0.561721596920417
0.305981758838542
-0.122654748313062
0.150855848520306
