-0.397378542728672
0.724095635820184
-0.869031153263238
0.594221588776864
-0.571734698379806
-0.0225643139991611
-0.0985578246488978
0.533529401667851
-0.914865997981933
0.954431408347506
0.409397627367207
0.0693846266962043
-0.465807679302222
-0.110680791054231
-0.0869696211484294
-0.950533853606162
0.59724297694447
0.240223905261623
-0.759071444754786
0.290904037706906
-0.0319621502059757
-0.221827865846683
0.773704324658025
0.750061258523662
0.787910080683749
-0.336922842280831
-0.364735973444378
-0.0921644129282271
-0.23223905019898
-0.826427438393446
-0.864678535223166
0.045196776927004
0.0773466378672428
-0.70968793251383
0.157406096475956
0.502924721350781
0.761194592462804
-0.850733030139777
0.134158134212229
0.774272196151637
0.711839385403036
-0.0534226206453393
0.411852300191856
0.883715271053433
0.229262655490642
-0.0691416343137232
-0.0473842602737653
0.0204939813946667
0.762437294899557
-0.775907861417207
0.211374161879089
-0.616437385680281
-0.865967702786795
-0.516101586470653
0.116545499185582
-0.335157381684606
0.498046378441231
-0.00774199021359245
-0.525665536891712
0.445646101294002
0.479637261344403
-0.761433081681969
-0.729084194880553
-0.529259603908879
0.833819737115435
0.4839923992585
0.71225632985766
-0.567043383261704
0.0436479528816716
-0.0398591863939553
0.455465329163287
-0.672451052927016
0.188577648307656
-0.328820781800881
-0.912081269417578
-0.372724519412519
0.58986853709402
0.515198834972133
0.335759015292437
-0.972562277294929
0.757355337012833
0.948440283058682
0.577558621407117
-0.560011152160436
-0.665103774951811
-0.404880979071655
0.0583612029268219
-0.0258886643965705
-0.0175918031276633
0.0630047258720355
0.197093831951301
0.645895970033712
0.144493167172278
0.934759069427302
0.157875121976627
0.186362390874833
0.1606965093529
0.940026050062909
-0.133569837433928
0.22638144461604
-0.38318567133432
0.924354133249722
0.156708705564278
0.0187250361476899
0.734775195146164
-0.137078089803353
0.594184779340159
0.923547355052854
0.360688802853142
-0.0261043584910563
-0.737892435890997
0.157289307471065
-0.226398949478315
0.834950789475154
-0.0776682736235518
-0.477632666452265
-0.355113851515146
-0.166976475949746
-0.404338960739687
-0.206192633980479
-0.457389738309026
-0.839197341889779
-0.270007593509377
-0.663145181360088
-0.18075871695379
0.560176792018711
0.193165708031098
-0.394672457055517
