0.178885635680232
-0.724664778476222
0.923841746101495
0.23728670822451
-0.402873278682758
-0.520592770617497
-0.742514086945675
0.260625233800393
0.77100906347201
-0.146213852593184
-0.322964172373967
0.807566254606485
-0.823654444603831
0.40750801427908
-0.175124308731496
-0.560913488353862
-0.2114892350123
0.378743299466164
0.00353864554308927
-0.624906494132982
-0.160061332279502
-0.407070616382647
0.0991476642811761
0.910303332153902
0.116522996901076
-0.926315182665846
0.287436175157133
0.717660832913125
-0.797890262302496
-0.205350023473352
-0.105479929105326
-0.00272413749780951
-0.364969413683806
-0.217002179879159
0.534654549718845
-0.916824830409309
0.550989563440207
0.77912313470406
-0.361130265582851
0.553495219601704
0.788063997471519
0.170396505612241
-0.956069277560973
-0.381144132032969
0.575852231571369
-0.232624974545933
-0.0253998183850875
-0.205369933975553
-0.235278116011694
0.796146150145171
-0.871750328348021
0.199217104566019
0.170279852199625
0.327326365463562
0.681383138662276
-0.809493789215442
0.291895283284038
0.175231904006256
-0.740465907872665
0.861663447531604
0.646295172179155
-0.0643773264770668
0.648374003004076
0.864091635292029
0.787348119756137
-0.949489679397765
0.789972939763026
-0.424055568134319
0.798643424806133
0.319002547378937
-0.463067326651748
-0.280420807470557
0.100780713762563
-0.227143664086186
-0.290569080751625
-0.465824055338545
-0.0715883985085987
-0.437723353261748
0.542769576689352
-0.140383113011667
-0.577928025510164
0.188546716290196
-0.305782876951843
-0.994653657068916
-0.162892534923165
0.557644252145527
0.246123505852864
0.212624948532345
0.500111581605404
0.426910216227219
-0.683320676060063
-0.300928346847512
0.659790834047366
0.272112155552982
-0.628875750862781
0.179286989180504
0.710260929015466
-0.0722046065215084
0.0655677094033356
0.864298646358199
-0.902441445612296
0.415333051594669
0.150089280001057
-0.135601151756584
-0.809775008498159
0.400202692422463
-1.001101148774
0.246720416954361
-0.75656858606331
0.674021176805449
-0.0289198446077166
0.420419252204946
0.637804304693472
0.995209368581321
-0.625493319206852
-0.552995239456285
-0.465223970568874
0.390954151979342
-0.737929500515562
-0.764615416021183
-0.317854050263896
0.020311107994845
0.64299262425245
-0.0492583995165148
0.661358647176663
0.476795702063078
0.337754438087093
-0.615661991340034
0.748957970337657
0.364778932774678
0.328768543421785
-0.699636496538029
0.0917659250434326
0.383770765747823
0.187150921520747
0.0476306099823723
0.0831722054677277
0.0194041143931286
-0.788438223535889
-0.654861519562274
0.479482553409032
-0.324584452050706
-0.839749656392858
0.24704748800534
0.898358063287594
0.547471717459581
0.32395720540556
-0.645579815176539
0.270402110859125
0.56489290769468
-0.140152119717111
-0.0401107365124385
0.746473394968159
-0.486683243912141
-0.574545261490311
-0.654008737592877
0.725303573305833
-0.970606301250714
0.741368088706392
-0.514583758754489
0.785709009534725
-0.486678544097201
-0.222474081217036
0.470697617881184
-0.325148359811774
0.734332216248564
0.380097554194379
0.241786698147
0.311691378719422
0.911630505758509
-0.125008304950983
-0.966084050091098
0.179409054167296
0.653384657955889
0.376118570681806
-0.385210914454451
0.328939190993354
0.126622711838923
-0.124034506244477
-0.853157125371972
0.736025097691471
0.26713519344461
-0.839540806338312
0.584865091117542
0.316866895978223
0.994905848355805
-0.715345313462965
-0.951830402097361
0.272278313855243
0.965991990506915
-0.892487631858825
-0.181586482682395
0.441348161547029
0.747983865689439
-0.697679342344573
0.730904764172344
-0.539409258323978
0.0750488874429843
0.804467872063917
-0.968477556489942
-0.230003974511097
0.534284402776993
-0.504425857956513
-0.238195795357311
0.784587547237073
-0.7283760452291
-0.0612307707256053
0.273672563014819
0.492757455138578
0.256440603830334
-0.580591187849213
0.582866191382096
-0.300846329426802
-0.654816198733614
0.722267902057839
0.687783237821719
-0.79486261883414
0.452122702339464
0.996472759839415
-0.242586916814841
-0.745226010697297
0.409302455373362
-0.693053986360311
-0.188492353962491
-0.311155774600947
-0.646416643091287
-0.123003415882436
0.967385698699658
-0.62810181620808
0.783214103778139
0.108058329110405
0.10715329485433
-0.451783334281959
-0.141609136614923
0.539807693302911
-0.361560662165043
-0.986779887089759
0.843946014725612
-0.240610456005185
-0.594102611382111
0.823522010928663
-0.00969984553539921
-0.448610966117868
-0.455549191730647
-0.8376824427499
0.310021880950941
-0.315704517385221
0.629927096245926
-0.222720787084125
-0.240135728669485
-0.4507506367931
0.762631679774646
-0.280931315060359
-0.529221832228923
-0.297720799553855
-0.426498490724867
