-0.450726296726918
-0.883415102641688
0.133958115034978
-0.250955151752411
0.483930980035618
0.937695739979543
0.82398729721737
-0.384189745079631
-0.763252444747343
-0.205711419919176
0.986512517767329
0.936337817510835
-0.60583658989004
-0.801479946591826
-0.747248343240028
-0.303449346047673
-0.813173813433188
-0.943023291520941
0.370050418816794
-0.44714636933967
-0.319523189754925
-0.170906051734001
-0.881833537092751
0.414799884768064
0.758060768419563
-0.20336633131079
0.947804475385081
-0.489092728348797
0.714531299078749
0.360838113887445
0.920702796819729
0.175320935147868
-1.0062085487255
0.663252253266004
-0.658313479994594
-0.599729518346733
0.029288878564875
0.46300652711475
-0.194715016459909
0.0353063098548328
-0.506886229328238
0.624062140225259
0.644650087953999
-0.611723061435757
-0.927234606028172
-0.323409137148694
-0.955878466255918
-0.763308394443816
-0.685115869636523
0.938199930010819
0.792811285503125
-0.666978395962869
-0.795096941921419
-0.0275957833360963
-0.192223477961988
-0.0178504013491685
-0.141277988248094
-0.563687004674131
0.692877506629573
-0.119852089136235
-0.576393135887721
-0.87387618019995
-0.577692240393795
0.123603482518473
0.60889108022848
0.0326834364252538
0.875589983931577
-0.901214917141818
-0.0561875402046922
0.49153247500384
0.748964732886172
-0.359139419797428
0.536138543473537
-0.189274112465193
0.279497309657433
0.666182775700153
-0.633946845201952
0.411458334244665
0.96845986925771
-0.429803395762996
0.215940757943534
-0.482924151784026
0.471490409955724
-0.969658966888244
-0.721703221290373
0.265108658283833
0.805653341146629
0.729372970954283
0.393573013700823
-0.667463682082457
0.572430348541808
-0.222617482144681
-0.331487784311823
-0.330383870111228
-0.883513760985838
0.766591129308357
0.186053433501301
-0.630263005825507
0.675075532957919
-0.907032130390827
-0.0873365645534992
-0.14893151922027
0.499515890643532
-0.148741842222567
0.319792266165273
-0.167033665412938
0.430576833195039
-0.628386375407563
-0.0985605474230383
0.830367342329812
0.590151209065913
-0.407765402858366
0.697056620942689
-0.509050964522539
0.55106117617014
0.506410343174815
-0.982873160735551
0.401453494152191
0.912057024141762
-0.730720771530041
0.327668882096828
0.229868955743825
-0.192152744436543
0.175327098900483
-0.327469189236418
-0.317248762821226
0.985352414339871
-0.840192946452384
-0.520296688028708
0.842717570324704
-0.343494242628027
-0.146819158965089
-0.432000700037098
-0.794833327504788
-0.231272425742101
0.452184615325586
-0.0911494267820332
-0.939532161060185
0.301545426333076
0.914922669824754
0.535059260851492
0.465327961039746
-0.57899918022482
-0.779357719599221
0.253183631852681
-0.967211175758674
-0.265506650617731
-0.224253651849073
-0.760385820828774
-0.136478480218587
-0.521488433819926
0.782649070708268
-0.843096526911158
0.0183003344440465
-0.600386940078397
0.214825108923339
0.379585081897081
0.878473268552401
-0.0010300617765428
-0.607442325682498
0.328376599243579
-0.243292476949479
0.907652274339588
-0.257349124233257
-0.287809675415531
0.241131006393967
0.109914344831776
-0.697505941005802
-0.682717282430601
0.286867959098898
-0.137792494665051
0.00847811472410914
-0.40362780881071
-0.167129209946582
0.191820328436969
0.95776224017411
-0.872008653566725
0.0891110692838194
-0.767657230132449
0.07975411277424
0.371903071995988
0.859491246172465
0.811065792054562
0.452207046528574
0.456269800727888
0.0201311216550844
-0.592510884042499
-0.71033053575041
0.476596379542157
0.422885811426049
0.188473059203998
0.237489462463809
0.120011861760144
0.26271405385846
0.259589367983159
0.574378018416002
0.64963355605368
-0.943772234633709
-0.684337119237094
0.538500253537965
-0.3238179283229
-0.385754411004586
0.659708089578865
-0.920725834127938
-0.670814156938826
0.603556804139357
0.70911231433088
0.496667869731379
-0.171900367734723
0.438984777249414
-0.377303939683028
0.885177035461082
0.724324622849226
-0.436066047371481
0.54819840631682
-0.620896521353674
0.731537186995971
-0.437537802750775
-0.138361993535566
0.751063361052923
-0.453571741915687
0.642782246930892
-0.36270987725174
0.261896363949174
0.262216372986497
0.155520712930718
0.314495991430981
-0.3935845878212
-0.984422445025792
-0.628908280141915
-0.501624929307614
-0.850230255736797
-0.16136563290163
0.556754222126716
0.405410187397653
-0.0314687019287651
0.552133932463883
-0.946969644296966
0.757293207650188
-0.577795552631124
-0.537304548959234
0.971696220187018
-0.638198365043439
-0.0129696880208177
-0.916100682269165
0.586497808096522
0.0399172430827244
0.699325097101986
-0.634567977540795
-0.0406579794938209
0.841817410662515
0.832915565490794
-0.383359299779959
-0.369174941120153
-0.422356822972945
0.136421333880697
