0.567076531409872
-0.146651772989528
-0.790595057227206
0.610135024744564
-0.761420766645369
0.561671760576023
-0.657868936504042
0.583918086008464
0.177313831459094
-0.102992681827818
-0.173946619605821
-0.396739717113015
0.18999016707711
-0.498994543094027
-0.833353941414805
0.37899606108146
0.0468669035923442
-0.27276008451189
-0.898663424248218
-0.256605105737197
0.183100211259846
-0.0944431625095578
0.832288117747445
0.126278104140302
-0.0552208433663003
-0.498847692770826
-0.448002449916357
0.583762571402914
-0.427247037476865
0.507054197847226
-0.869275160013524
-0.91392818381224
0.156029217969676
0.40967929775069
-0.998725915039846
-0.699929295676676
-0.985857330861089
0.450224899313493
0.865867461562441
0.417353229408616
0.962772106860834
0.292121106341799
0.922853816059076
-0.632122809480245
0.638334980812383
0.15344342792943
-0.792759483140048
-0.000519190904483369
-0.479383651538204
-0.609425372694609
-0.599421790394866
0.865320865961887
-0.84047952589709
0.774331723751753
-0.966585232433078
-0.549072471540588
0.416823675922389
0.0998630391264277
0.0882672186101955
-0.458412238390483
-0.158817947299549
-0.82980909139434
-0.180255137359173
-0.431642546467323
0.476856166183354
-0.624377823654628
-0.456213842185503
0.0352294124316763
-0.291684619773129
-0.359602971799936
0.429548068826247
-0.933579149667464
-0.885560778618714
-0.5123159415764
-0.99980269058993
0.662290347866495
0.213382552127779
-0.747348410413503
-0.857735335944163
-0.868810780816078
0.337597352282795
0.433561554593128
-0.233515108446335
-0.147811955609854
0.656521986879011
0.475991956848136
0.681152302616658
-0.977432705073858
-0.616918087961265
-0.262446247023423
0.767263813911123
-0.147251335468116
-0.178480389353117
0.149032904393085
-0.206903242685647
0.270852839385326
0.515116861883115
-0.105336330233521
-0.917255948008961
-0.46845768277981
0.285105224364856
0.27033652195362
-0.7211152268622
0.322055784759631
0.462900946637903
-0.769808074985424
0.874873124713422
-0.331600358569982
-0.123622992371253
-0.014118707283327
-0.154546635727419
0.923212499954347
-0.703557930103274
0.939516561777408
-0.0129570123503051
-0.455949512273127
0.922195283109963
0.00258757051061376
-0.863411344214
0.0682679429112305
0.765997905682807
-0.277476946256004
-0.680102693953236
-0.433245936172903
-0.643445233698986
-0.522972076903014
-0.152036096107615
-0.160302505720396
0.928644066311986
0.675046611051393
-0.6817615066209
-0.415818528495561
-0.687601373088967
0.157752543349418
-0.559612957056578
-0.282034611565322
0.292382129430936
-0.686664575865031
0.0267730180881287
-0.581297497432606
-0.0844477765042019
-0.51188048246781
-0.502132428635643
-0.693570889872967
-0.380365541028419
-0.56757460143077
-0.856663024727074
0.81620705523667
-0.545048609465638
-0.588908079366553
0.083308833599439
-0.0659101386589531
0.902130379306113
0.0463972204244446
-0.38222802266447
0.357060522311542
-0.30026629100326
0.806959666254006
-0.0296636584204387
0.292436087650257
-0.273469973601598
0.0847653943471599
-0.558134114729982
0.214862478081044
0.872759978512097
0.758761564678059
0.826808965634422
-0.955105581112824
-0.765019688190108
-0.255650926063359
0.209071190435763
-0.835942417991841
0.468872748210411
-0.823119327749339
-0.218290444564669
-0.0376312837547794
0.510401999664551
0.42509393264755
-0.930364880224348
-0.412559442403475
-0.0153052940923944
-0.952700701161216
0.0660690612544487
-0.62314791272656
0.741656560362137
0.346415721826225
-0.276846617389979
-0.891030178150626
-0.993309979672606
-0.943013130606994
0.014798001673812
-0.998053740294408
-0.773285883009146
0.816982603809091
0.969440096567831
-0.943236137661381
0.842239452788493
-0.135517538955611
0.0506117763885
-0.26473622835201
0.068378545398869
0.282505403214854
-0.826922465547136
0.33465444622774
0.0689189748859908
-0.858721658022768
0.298900694038292
-0.864359858391909
-0.0580506721087416
0.958480127078326
0.510738550073092
-0.754441886567542
0.547524891249305
0.567681364435083
-0.885206519264334
-0.901420860011524
-0.0778530867185867
-0.601658661663494
0.261773587224041
-0.0932940348417497
-0.632534103949676
0.488459888727537
-0.758530251312131
0.155622425803372
-0.418384974014007
-0.418557340423579
0.895519233985899
0.267473818828286
0.989352149354871
0.66903792490734
0.0688449290047065
0.845287988296533
0.756894167105705
-0.138072083537764
0.545745864683321
0.679595468707127
-0.837060959588389
0.94307305151588
0.471511673226397
-0.957358904754279
0.569475570936025
0.66409547757581
-0.325418285065769
0.78351713439849
0.929739823189807
-0.27527612588481
-0.0760424052300003
-0.507303879986573
0.318411080677765
-0.166765461233697
-0.914324022022517
0.215722304139169
-0.0947699174304032
0.426129272469916
-0.312643753398007
-0.288594733579481
