-0.362804689335887
-0.0251759677335357
0.10135651999617
0.198623195787927
0.518503394032745
0.725659253765833
-0.589258926179454
-0.177163398079788
-0.293079723602699
-0.860289100501491
-0.851018125936738
-0.395937531578375
0.875070940510523
0.200433115808369
0.00427543690130538
-0.775469054500897
-0.00805178310908867
0.149345253017583
-0.569104032806197
-0.964870390972451
0.380733898227398
-0.772832119827033
0.967067337519087
-0.765866662527793
0.777612118546232
0.050591058628322
0.423320066855306
0.813728429431272
-0.216541006977892
0.732594849078365
-0.926202878361194
-0.535808580678303
-0.239323225898144
-0.261697688007032
0.908128193968218
0.302848209137266
0.932624140167341
0.0174943363412485
-0.596086505203436
0.309740846696292
0.777423751572614
-0.734415403234066
0.172721130184775
-0.703394413041068
0.504922212373614
0.304185542968667
0.718785886927508
-0.955573804585715
-0.694208609650826
0.825865115883276
0.59470066234693
-0.146677907460892
-0.563637377003812
0.129004827179619
-0.949596872283853
0.420831182544529
-0.967108817656471
-0.197993444402642
-0.589580896833229
-0.0978640183864585
0.044494282640122
0.0985660510809089
0.836794881732014
0.540792118372648
0.632927979483777
-0.0696092607978651
-0.0712207894961621
-0.734643119648633
0.936699675181502
0.856046321715693
0.784446101683725
0.220709208454668
0.0263168458084651
-0.214914575634423
-0.741024498990679
0.827089101690472
-0.991317106407827
0.67460813266088
0.967114934554003
-0.239584046038217
-0.8584545549042
-0.752148434142589
0.501320568716434
-0.634545986973944
0.369902253624823
-0.284722757567328
0.557008328364432
0.684140002763062
0.697305408170204
0.537187208800604
0.744441528978765
-0.486663789117208
-0.213116425727755
-0.705152811854239
-0.487087537970188
-0.637592397241165
-0.21545572739357
0.884540461580988
-0.173671915204671
0.463713266391048
0.887871896473916
-0.23996555363223
0.0583386301984166
0.542347205149124
-0.993372484365259
-0.158816057086129
-0.382675042074354
-0.153451923981695
0.262018233683164
-0.560161510179408
-0.0390485946152545
0.183440837265221
0.223259563230551
-0.124862523387551
-0.994248437606536
-0.470773309571412
0.241210030419374
-0.496523361436651
0.310108488881922
0.0236547682436002
-0.0935902244284834
0.970227306720871
-0.0732199246197376
-0.832402779363864
-0.743867443714957
-0.237749318036787
0.534390315477806
0.4024840666839
