0.111533865075396
-0.194247245803054
-0.340891886181815
-0.317520877060988
-0.814815376633932
-0.865323205500257
0.868668835972573
-0.43900517939653
0.855735125804388
-0.76800571945216
0.696446252578535
-0.981708480935827
0.892448825886381
-0.984648081110498
0.103063624672429
0.950618702476558
0.295146756292913
0.16135836869374
0.483055970400382
-0.483807591842857
0.795994395064108
0.563922958034007
-0.925791365626264
-0.360507319712426
0.801645859033939
-0.248589336949688
-0.104481417466119
-0.756958345810288
0.873713413957672
-0.103787298039698
0.89307343981463
0.817692623625402
0.727417342557443
0.53300314021758
-0.508586094109617
-0.650210324876645
-0.966169207207643
0.967905375124488
-0.618500090309144
-0.924609328384148
-0.75309489771
0.169614200307993
-0.284997780267834
-0.53788926178257
0.452174437312005
0.775774969455083
0.956100230888313
0.273807649806579
-0.972827491251737
-0.798177191938337
-0.990130811245845
-0.723867927886903
-0.383223416979657
0.486844026041304
-0.926832259811838
-0.0163696992876424
0.516744331107144
-0.33816500860638
0.760264392779034
-0.440352034176493
0.995861990451149
0.708417805844518
0.312255838011112
0.844304299481744
-0.787588744277375
0.0983594612670323
-0.906650846312844
0.340778732161649
0.980029331529096
-0.661064241872489
-0.697523925767463
0.270940451808984
0.731269499396217
-0.0976255441472585
0.675059277280733
-0.14407137322714
0.624804418184117
0.597056924567052
-0.434346909351053
-0.373384321548074
0.296541760809119
-0.877140508772473
0.621020259329082
-0.42150637514801
-0.603984914721247
-0.488002163350063
0.0262049158147413
0.879722365306575
-0.444468098357283
-0.597495044392807
0.822570535837852
-0.464065863963985
0.117771590435792
0.454831699707327
-0.79695466261376
-0.33396289231187
0.785986762714467
0.963341939116724
0.559261207155184
-0.871999937204269
0.161277258865939
0.0828153465655535
-0.124569700237282
0.270393242656272
-0.612244916160803
-1.00955341209022
0.701761123621867
0.0853342591314331
-0.431418691991358
0.186081471543084
0.528157611637742
-0.731812668713147
-0.384628973343707
-0.855540568134391
0.946681398227708
0.639170191155997
-0.353839365372887
-0.521540628104388
0.680097238976136
0.407986065878522
0.811420578795387
-0.832515074586294
-0.182302549466033
-0.205459293862997
0.546385352317292
-0.503868184750052
0.47197699370563
0.989058260323244
