0.82032521448237
-0.449100644677859
0.0985599883377654
0.474067964894419
-0.660107807891493
-0.991412182348331
0.730114526199283
-0.889693715916307
0.275976029978218
-0.992233186388941
-0.433682374730938
-0.229035481252555
-0.834671310051631
0.269662654841525
-0.921364529067456
0.107152159532631
-0.574945596592956
-0.253220203401949
0.0972577538287285
0.649273744908349
0.430260350927528
0.345323989459372
-0.399205394854181
0.0718866158081631
0.672813142942979
0.445908271398124
-0.304128008223088
-0.602417798886719
-0.540661039747057
0.591202265045181
0.720553624664291
0.894840152473188
0.0315902121792622
-0.983237409333961
0.676392055406333
0.416351338863727
0.422145461727725
-0.694073402581063
-0.049942641488042
-0.696013352581648
0.803811769222586
-0.827267824824928
-0.933115290475983
0.341135809034536
-0.557507102306893
0.344682132599394
-0.689849051366999
0.930235818340541
-0.791640384964287
-0.695105439476707
0.943040209214229
-0.326435459533889
0.352322336549056
-0.860568662893715
-0.63057854461855
-0.572830968069134
-0.824065790926622
-0.0493774571643945
-0.0757136335680317
-0.162575116608352
0.873103206985315
0.772423274543003
-0.959097231963613
-0.134560239173432
0.743197553376583
-0.268407805437504
0.806975601634797
0.419499774821633
-0.476279453355757
0.532946204123432
-0.0605108527054248
-0.85414214749331
0.750656023276863
-0.374232907448959
-0.348249389343151
-0.0195701714741703
0.506327658069532
-0.761130169764022
-0.424158469746957
0.553387995532524
0.225712196131553
-0.0598113655633296
0.39609217561413
-0.844855640581598
0.296439573212891
-0.644528558273407
0.51352962068191
0.60436943070246
-0.0812726334034751
-0.129975704739288
0.560519559641638
-0.615689484636694
-0.345225941519601
-0.418348515108367
0.399793977538467
-0.677671232453044
-0.86339752985347
0.00507490130791806
0.0513133608578375
-0.756725645191464
0.572002419533044
-0.411114264253088
0.194913853728593
0.833149487431506
0.301802757407952
-0.806619264951923
-0.815956414152325
-0.0826593874019807
0.911562783855303
-0.52924283009103
0.290045772473938
0.169335626225729
0.369223911864543
0.856781026524471
0.320602507471634
0.152902130512058
-0.273487712553394
-0.889315659333841
0.467250155133195
0.0680580877098529
-0.634399145003746
-0.831547196621055
0.943858206202004
-0.475918929841332
0.29157901579095
-0.00252378390729132
0.846481478617015
0.0774825772356052
