0.419787631826214
-0.335906726449478
-0.476232165799826
0.834997852895255
0.958900613731056
-0.339165254965493
-0.719605986378055
0.864287936511502
-0.295289691850258
0.545448588922785
-0.805795028355668
0.26606495337687
-0.486824438689932
0.559382453337338
-0.860448417021569
-0.681861971388597
0.0691128305925735
0.144882641192628
-0.841365354166333
-0.689994613208074
-0.464279337189376
0.174701988770394
0.0828082499900834
0.977797056989468
0.806538141976517
0.50188939331402
0.463700897159579
0.745577022155789
-0.0467903124193317
-0.336058009816939
-0.686222897281634
0.627298660618798
0.0504173057617438
0.832919246392417
-0.836375310196808
0.885524518486328
-0.218747176610427
-0.551628309762743
0.08154064994066
-0.530334039982567
0.0170092180437049
0.437037001695848
-0.547435857610691
0.0917804466607512
0.18384955184082
0.811584697324406
-0.913459280322851
-0.315680692341034
-0.442380491570396
-0.130039093526675
-0.12126078437647
0.665281559487455
-0.953688580739314
-0.248933585971933
0.297305033169532
-0.745685882462359
0.372470209087726
0.352317652479994
-0.252597133328987
0.632876306843537
-0.423403714876845
-0.295125591860832
-0.464288674816052
-0.364489536642345
0.168613607373397
-0.212795901927307
-0.663726687642623
0.308152008428281
0.159660241661886
0.645310919136597
0.139187154718976
0.0893327475897078
0.501671186905186
0.899633654358915
0.557923686133876
0.991005943231638
-0.510445581139829
-0.00470521854776715
0.80017555716896
0.475557677718087
0.676198601707662
-0.696650810373665
-0.426912469138578
0.553646999876336
0.715089711510594
0.57756235363772
-0.468420371148538
0.967193980251809
0.343470398167206
-0.277797425929733
0.399828050707561
-0.248246195434075
-0.679575429175199
-0.366724395583684
-0.723419492214687
-0.451996712173293
0.245004293618192
-0.515386726441989
0.824849289455933
-0.2484667403469
0.296748324354178
-0.877881643000094
0.679198677910939
0.69012885824086
-0.531072464108663
0.626871365424722
0.669019760727532
-0.660703640483584
0.912512004180448
-0.654920543157987
0.120629924105826
0.97884298731214
0.177988550199405
0.28821394989882
-0.480746591247205
0.357096496142809
-0.908389972142282
0.845918394552636
0.291766930674558
0.953424082900125
-0.612792554730659
0.645938894545609
0.463299931150159
0.745152275788135
-0.676814412296322
-0.947433114212448
-0.551776801425736
-0.468444086245748
