-0.0489247313341509
-0.755804888741443
-0.17878200673696
-0.949668920873117
0.205628578375064
0.698808404544002
-0.597218079371776
-0.522661528662301
-0.907060100294059
0.554296720798454
-0.111746721868743
0.482011385192748
0.35835613264605
-0.855861959335745
-0.924507009613386
-0.415763838180762
-0.134264619034029
-0.11622483385645
0.899937356787887
0.147158501007744
-0.393266761683756
0.417222208479613
0.782308361419951
0.344713083522273
0.0381011960090163
0.237805270270828
-0.651122620417928
-0.0199982049527262
-0.426787933591107
-0.532940120340649
-0.550709778433392
0.440908048788805
0.00959899010284523
-0.451529618204779
0.273318090509885
0.475248001882392
-0.479091811054572
-0.775103887059119
0.71005845878503
0.295507302456196
-0.325304717562778
-0.663845037892974
0.12403858885322
-0.972206708629349
-0.449198439999267
-0.867450793571635
-0.99602013099553
0.136934878862966
0.48114655905571
0.3067790273244
0.135878877829079
0.200002908851705
-0.187938901629903
0.574518903559221
-0.126075999289414
0.583078132945684
-0.146026164512566
-0.0268238170112155
-0.558972275184487
0.785841085238523
-0.857062108687962
-0.760072177490115
0.834128647360621
-0.117822505582508
-0.527449781281692
-0.556008271407729
-0.00706484879990304
0.615191571727694
0.717095634311595
0.977697420301061
0.458784356693874
-0.00695849765820266
-0.274615719600073
0.184078523648129
0.262471791293266
-0.152881239716157
0.159130604922007
0.743252514391015
-0.97049103527368
-0.782425831028596
0.608160858221698
-0.824667662887508
0.0730191284311944
0.610293588577716
-0.0948531339961608
0.499408356965966
0.40677369970012
-0.693807125837579
0.146470001097004
0.89362912404397
-0.229883366707104
0.753125414858776
-0.93199371150503
-0.823331621482636
0.00924622194052432
0.412564913615842
-0.469931563995963
0.0534619801236127
0.0571977767301319
-0.231005370146458
0.836963726781459
-0.0486390361920112
-0.362476780121348
-0.647960320265172
0.392237378826346
-0.286933516741242
-0.453281347345848
0.839383742472433
0.147967646453902
0.190390509127714
0.618920578668559
0.0931806168923443
0.817109715105442
-0.266751496305836
0.862052754183007
-0.757433038552592
-0.617459766120513
-0.264254749534385
-0.331065215473645
0.856765978788063
-0.70627629991307
0.282579355514411
0.944263044915916
-0.439945759555838
0.060328237420396
0.400722346741643
-0.19650885198549
0.897485018794182
-0.710326694042114
0.57472798399725
0.264320032915249
0.723130148793221
0.643327661019284
-1.01803531632805
0.397491797644464
0.920165146508495
-0.841501831390995
0.249918783532151
0.483899865120194
0.609527690554879
0.0800262121427173
-0.775000845923054
-0.720818673525786
0.217082877767857
0.820947521184491
-0.403843686185536
-0.467424473092066
-1.03075482485655
-0.596412741405531
-0.99751353707007
-0.717543384914576
-0.388881843947176
0.818565472224708
0.95429077938377
0.861704767213056
0.681751568542179
-0.0734364437414566
0.209273050319248
-0.354799870108577
0.546882571296644
-0.756391120170935
0.493766622831684
0.971708484509369
-0.437041239104811
0.830528965036002
-0.161681922396946
0.770435805279217
0.809443907572703
-0.530282282604913
-0.225807463971949
-0.588435566209795
-0.241614316582612
-0.343121974936357
0.940782556359149
0.80317502499239
0.030490552988117
-0.0552078336347452
-0.189659712319325
0.221768987156892
0.251532741786618
-0.876841386984239
-0.027729547085845
0.863198983856695
-0.119873781683456
0.565285860013486
0.37309085136247
0.67577029949948
0.311673624055059
-0.0815013031671108
-0.198700342343418
-0.630903519537928
0.468264339554502
-0.277571015810765
-0.378513863965216
-0.184569937274612
-0.45503772826717
-0.161296478655946
-0.477820665442545
0.363150565964917
0.227436567194589
-0.994677521259589
0.113690760134733
0.940966173268055
0.484393047380577
-0.489662041141829
-0.78029977355022
0.249090382575188
-0.469038006247586
0.86974853727159
0.0201913222096538
-0.826314338663498
-0.789975962841541
-0.223306342241502
-0.943657524660695
0.508630951109046
0.960041024980501
-0.362433293396837
0.108605624976111
0.0300545925337907
0.101940658364688
-0.670453154610033
-0.0179902453980867
-0.790031041008183
0.467291627254627
-0.99049524000797
-0.823250049255491
0.789436348440695
0.801793184000375
0.79628020029872
0.800125335108661
-0.361794067492604
0.38561778727711
0.560586232407145
0.243555052010189
0.00570309912511635
0.413936089857859
0.469590261032356
-0.0793954039670371
-0.684786370705052
0.0695245640595318
0.392641025619406
0.84937511062956
0.313479068176016
0.419052034763156
0.951333717866455
0.465566025212012
0.0699038067194959
-0.646169283442477
0.682840993355277
0.707684644944676
-0.836148164882786
0.66533902512714
0.91586819560132
-0.843589404135468
-0.191953293865963
-0.638285186725633
