-0.577899436910126
-0.206714511726204
-0.297552807547377
0.124348165175412
0.861554982570536
0.925750843334436
0.259503059837299
0.0533756745705757
0.260354496700948
-0.316467672976666
0.0663379165209795
0.590329798853312
0.387347343874914
-0.740981823106588
-0.777253139493947
-0.840568665841963
-0.0984316543981878
0.398262466060282
-0.982716011419266
0.257466687885473
-0.516557768134534
0.0139152516886485
0.1171331424862
-0.0617618385828588
-0.874461872565395
0.31416003288053
-0.374954455408068
-0.763912725995302
0.613615476297914
-0.57599607468902
0.230260069676264
-0.319796528684902
-0.964254087849508
0.30333995735312
0.58620325584436
-0.926235451712761
0.115513798140627
0.931588562470261
0.794940717678368
-0.989796433257184
0.460209424869234
0.679217848024874
0.478634754674949
-0.597578916935594
0.629500496575721
0.788965142463997
-0.505996076551932
-0.513629578610891
0.266816896728633
0.188342956203745
-0.329037510146775
0.00798504700834392
-0.116902723110276
0.40385718854915
0.841795179862247
0.347167013997904
-0.66665859519525
-0.5103401883045
0.468565407503025
-0.515188444818777
0.769535420786802
-0.517754452062779
0.0734163000703092
0.77806313704635
0.495033811439528
0.554897418446546
-0.824813255237199
0.312759970962479
0.155700464284397
-0.388577104008148
-0.656257815196923
-0.288118759010376
-0.689091357367992
-0.335468642512958
0.778602337858849
0.335681281749815
-0.316758316959502
0.62669723303794
0.925693849289681
0.249481860026493
0.450418306531612
0.83229702950539
0.252431030729844
0.598741616689152
-0.231625194242453
-0.0879568148375256
0.899653318167457
-0.760547787029136
-0.568450787518623
0.794812965033196
0.483366609897841
0.840843457380727
0.370877972400537
-0.26370525561054
-0.637185694278791
-0.0680057588865804
0.422869132906526
0.813977414611885
-0.719831485034345
0.187176578310671
-0.228221409237386
0.555103679214796
-0.797245357396049
-0.207713737826615
-0.824287562180788
-0.389558167203007
-0.416766445179821
0.881080622268282
0.176602135971834
-0.69299396639658
0.73343796743861
0.765155033480259
0.112340631084714
-0.252517089569945
-0.193845078636893
-0.0776026754094752
0.305892814148284
0.493844532481751
0.00873945058540196
0.2330157894873
0.143680136836699
0.650957441477079
0.997691464091757
0.564556621128518
-0.552443925333636
0.60996197553148
-0.559238041057974
0.253132024444443
-0.33148449713612
0.802385722020334
0.474837025653081
-0.675244584741563
0.790855772211103
0.53718617915249
0.132248549960748
-0.291737437727428
-0.111610521313117
-0.744654682266376
0.479870139309472
0.565114958628494
0.944533933669628
-0.216756844763204
0.86500209503193
0.339805722580597
-0.0247026300925438
0.791902214789657
0.66387902188465
-0.713984560129559
0.510781919102466
-0.0785678375969124
0.427231411753081
-0.0855879088934037
-0.638599278291322
-0.561991216176366
-0.800800918124007
0.112899069766365
-0.736057587955159
-0.276985325971759
0.104594062687397
-0.814516162171971
0.547522095005609
-0.650173502655848
-0.765348968968496
-0.197703609597913
-0.316618145416001
-0.364466031197243
-0.229324923635787
0.920403189979266
-0.240883861552338
0.975446697679824
-0.344537933634785
-0.934201577153322
-0.108362927766109
0.356826260308173
-0.136484996808509
0.272397813507405
0.719516971799858
-0.829379344244857
-0.805465597593543
-0.209019053670209
-0.23410468795287
-0.819602692596689
0.114312688767516
-0.773647614140709
0.192703107905918
0.85636171738751
0.0632842036432991
0.255980990804634
0.656720134088847
0.754234035591302
0.272299141307691
-0.271779737682226
-0.167273720086519
0.301478893157412
-0.177268817785923
-0.44646462747589
0.524589775425382
-0.389647378172806
0.603135131092219
-0.511969859551172
-0.492053037410314
0.293421327625301
-0.53253617773412
0.0783986207285525
-0.300293853340376
0.663775759258055
-0.560045142733452
0.23052052544976
0.293839013367005
-0.370946559371519
-0.338617375470405
-0.754005128654963
0.864007377909672
0.144149266967677
-0.263103802378325
-0.919862306270214
-0.649039439973738
-0.0160618270342637
-0.54336706040553
0.592132315022043
-0.31495955961209
-0.867009772083543
-0.0986158782757352
0.00906672495697334
-0.939203724825464
0.6307299576252
-0.873210010065648
-0.74198468383671
0.18299116834406
0.706136362063148
-0.904916540780034
-0.837855178158705
-0.449268545103317
-0.112246719345325
-0.895247545970937
-0.824680412740294
0.346380094500844
-0.163501111297895
0.028131307118029
-0.755116781175249
0.771219896414175
0.1718631496368
0.648412763202519
-0.156171388861316
-0.0203544858147179
0.0601351665433919
-0.742598565383122
0.781581726141417
-0.281609962407255
-0.957634943564463
0.896266370317263
-0.484031065382474
0.693113730572409
0.564543335630768
0.354191198322532
-0.711313105289526
