-0.785882467500155
-0.681413564240398
0.296259788706926
-0.965461795448629
0.440716259366547
-0.345084348857664
0.265923101570564
0.22420085008188
0.816475117978556
0.436606572675744
-0.0857989071327936
0.423669848709019
0.923566195937726
-0.610876247841961
-0.573222570932544
-0.103600896455888
0.000181429395022987
0.11957573713478
-0.704069875894099
-0.426187782176868
-0.592224100429421
0.726627263681218
-1.00188585535172
0.991172321607974
-0.0506770708440837
0.969668035852534
0.076911155229747
-0.493032321948637
0.916328599561025
-0.305729828041544
-0.585968399668708
0.0638071844745637
-0.982340176097408
0.714769916592624
0.461345442067349
0.970722853853591
-0.0140453963289537
0.645823174884871
0.261241159123138
-0.97219750769781
-0.294668895561439
-0.337011869079043
0.7583134481787
0.872570556257859
0.481716019007457
-0.0677496414261218
-0.756351468242155
-0.942149987860974
0.409473777495335
-0.658442233669671
-0.131109183035574
0.203534247992617
-0.671502840122761
-0.529715597742782
-0.0180297254926925
0.345092654851078
0.771135526657885
-0.916197419842204
0.824159220920119
-0.304064622595981
-0.936000185403193
0.750559401185544
-0.790025659496847
0.949796931100439
-0.928003142486578
0.0572366622436135
-0.528826795663165
-0.523504334231163
-0.636855075248531
0.917542575888658
0.269630910803517
0.935486882087682
-0.239402424155362
0.441271318678256
-0.841804124853349
0.276222879293383
0.75953620666139
0.0624537750511999
0.713836604161178
0.947594161304498
0.252653765078922
0.781194830385513
0.431404758853862
0.354739796684529
-0.896286514513183
0.302767193989832
-0.137315777489943
0.818429455949378
-0.365960771884095
0.624380310170424
-0.673067184717658
0.983194045276508
-0.251883679800922
-0.615477449391365
0.608438666145778
-0.721446902711674
-0.960223031535244
0.918031176918568
-0.34159099960235
0.22012520792603
-0.570582127993723
-0.546027249913536
-0.387599863533641
0.449445795732656
-0.647091727344409
-0.0517527830547447
0.739986508759505
-0.207603662470613
-0.40390346676972
0.0778956568677806
-0.203958110796772
-0.732308000747161
0.485182558273125
-0.932585262651225
0.0664742809988073
-0.177347751978799
-0.203263999187403
-0.924614436105994
-0.695993076075259
-0.247606435866149
0.1591212465105
-0.0671046953472156
-0.406738376074255
0.984496905127334
0.90194323096865
0.334073781485107
0.164390227018683
-0.338552955837162
-0.118759553316752
-0.575943996807334
0.984796076847524
0.166319521915057
0.897552524339611
-0.851086707485061
0.694282785544661
0.252314140226734
0.434448327319976
-0.138025050324523
0.914263230415322
-0.339461645959125
0.974817184330253
-1.0039569444607
0.169238199527323
-0.740929969327559
0.0464363748334321
-0.957131225200181
0.800384125258695
0.206032472712239
0.0666430183203287
-0.00734608936409957
0.235846855958563
-0.359448188475173
0.425814677414339
-0.168553313308314
0.520072648025551
0.309391020686906
0.626813252355023
-0.437301968414848
0.641211870768521
0.121630763347079
0.10028320411248
0.975421636489017
0.45056343564576
0.78389981306349
-0.776465361110337
0.824132963752833
0.636592553791774
-0.912129768093366
-0.716770443637556
-0.45045693072112
-0.44307361882531
-0.277149655754067
0.452607883376299
-0.582972735716033
-0.0485554891762243
0.605964539283554
-0.0147669186046081
0.425766063252159
-0.170252349706602
0.71490057741124
-0.709422210346378
-0.224649289135357
-0.831427886646347
0.0400155839890887
-0.097828708923381
-0.947270765369452
0.762906169585591
-0.720623491325924
0.261898246385563
-0.86146679757741
0.698200524900474
0.300110084887654
0.229085234471121
0.709691040525386
-0.315931096637889
0.883231113476694
0.599328187888496
-0.869112179395558
-0.316869138204067
0.566655791858529
-0.0205216409593243
-0.397142555336004
0.182479304817239
-0.499452410477725
0.125437373628277
0.230649159893574
-0.0648084219219333
-0.288906143687343
0.760847206360014
0.134266723905451
0.397937945111296
0.986859191193771
0.816541367359673
-0.970685518352197
0.608921721703815
0.1599314079461
-0.971626760867938
0.848478658824465
0.56061480744982
-0.825333467254687
-0.110121244362514
-0.77042840215516
-0.832460995184907
0.189764876453016
0.361789469712749
-0.693979135696148
-0.609112181715018
-0.73576835926502
0.437274767095129
-0.604100150210064
0.52416577249022
0.306524394468233
-0.34434571573261
-0.961633526762086
0.0362013386210345
-0.506453112156304
-0.771587966961366
0.190512280211242
-0.187775563429799
-0.508723898085949
0.331549756160646
-0.347288469678844
-0.486609762444525
-0.066335294877689
-0.0872905676442306
0.382697173811572
0.40039140710045
-0.928671415700649
-0.537319882716622
0.0379050354716288
-0.550164701246896
-0.194251630560995
-0.193532151414977
-0.271312499249143
0.883398200794567
-0.600523376383823
