-0.238758965538819
0.980477241708683
-0.0387786508069559
0.887567818880486
0.262438438669462
-0.902595295442217
0.159451587621595
0.516504300014742
0.160748587869288
-0.71743875494849
0.4814160416702
-0.992381042220058
-0.985796753890694
0.469869460413641
0.320992974800095
-0.674422012866502
0.277018603195863
-0.412280933295253
-0.350982634801045
-0.652915287579947
0.644033965770873
0.725633551208526
0.169107219938843
-0.807679216894848
0.0856889402252579
0.359821490929059
0.168445656321543
-0.8422649169161
-0.550607299094841
-0.0783775693782791
0.855339369686507
0.0745979964248939
-0.155431724109497
0.0198431834550648
-0.152559393533592
-0.644568317748472
-0.599588048902305
-0.314150364590917
-0.113732687491399
0.330013578830889
0.191263977313002
0.812802844233358
0.184745383538919
-0.169173186005534
-0.870776082613514
0.808346652925246
-0.159601812850838
0.293918512698578
0.892829334090998
0.926782582623522
0.411443357783753
0.145394238650222
-0.623615811861514
0.00990185474037619
0.525838413287943
0.464265589045218
-0.442629165112658
-0.921111689688568
0.624531871479809
0.168983556685699
-0.590950432333691
-0.375434668337298
0.0244344236414568
0.514588177338559
-0.557003140224507
0.553459939044224
-0.376012716827076
-0.319376075076396
0.479173185133368
-0.123411322559783
0.618267073752278
-0.387868183333605
0.316501809601261
0.780914020719138
-0.39120434704313
-0.479226042349536
-0.262020469292362
0.8350713998251
0.182313071698
-0.338396721192097
-0.857018726899598
0.346745194894236
-0.455322279288448
-0.788262084635331
0.280986904002747
0.142452052583223
0.0170914897394724
0.640527012508675
0.800926150934613
-0.516984474409282
-0.0406497308770107
0.54641518970225
0.514275243549631
0.109177965338467
-0.877431940647057
-0.260239954347743
-0.125105376215738
-0.421166107634706
0.813701951211137
-0.641906476181394
-0.412126346105265
-0.406018148675629
0.139159481897862
0.516842194863739
-0.330023645208948
0.101097256703045
-0.735035511711862
0.461823155019761
0.576010008996656
0.144242964541835
0.526307744676052
-0.508694263091543
0.839880551439037
0.116962499425211
0.627002000852078
-0.974206998850204
0.953910060946608
-0.93272486198841
0.186318338425386
-0.288502557538691
0.475656522547799
-0.998164350787739
-0.203891705177505
-0.837700022654754
0.118872727847492
0.3806015989711
-0.184404274653182
-0.0184259234816195
