0.257956785444322
0.331901335947072
-0.866617330683988
-0.104768090008144
0.636614409107209
0.0129257060051618
0.709991900250802
0.964998715979177
0.0344732080332975
0.151090324893755
-0.210712282884495
0.576807409407291
-0.288457013625661
0.453635781707429
0.118569830081001
-0.800569651176931
0.230119841184427
-0.143291131834895
0.0134602337011375
0.581795106988763
-0.43218535141931
-0.51149117734431
-0.525512170116216
0.265438740927573
0.954618063518439
0.908732634787801
0.874317166926368
0.935563606791165
0.964275235049624
0.135855535061917
0.856574666692642
0.474204769300213
0.406808259581127
0.86948764958219
0.13649385445748
-0.143918189128776
-0.15304751714702
-0.671878272423527
-0.673403329796505
-0.228842784446559
0.820446923611123
-0.722034547314676
0.118616171802627
0.911191860903504
0.908778064772281
0.767648011211777
0.000436352721176322
-0.141703871289276
0.43956105015194
-0.795228423323635
-0.232069605421705
-0.552659165707762
-0.132764256395237
-0.873227835496713
-0.490124275003995
-0.105975693153116
-0.603396381733722
0.531099059006356
0.436375648113559
0.914496619880969
0.0782475183038977
-0.796699768319173
-0.877847188516615
0.05968424179727
0.467732379842417
0.586726062116957
-0.204633555137636
0.0715262703930061
-0.270710323549343
-0.376154282812883
0.504255518155858
-0.608085676609676
-0.26945003410606
-0.864551584808364
0.0287663498453537
0.449380102934903
0.917659647225054
0.933300194933728
-0.831039744225616
-0.0520404449031472
-0.837940319387289
-0.359765040838642
0.189352853950817
-0.552148656758124
-0.253509767235282
-0.00732590720758694
0.393538928105258
-0.157965966236031
-0.363711374701786
0.912118648047033
-0.815899623911329
-0.486702119913002
0.203723419068588
-0.729756577061473
-0.570455129858786
0.0629726912303291
-0.315395567839554
0.205900796808958
0.627302151234522
0.151894000292538
-0.858755549187048
0.983135783944165
0.284861449705154
-0.703730519572469
0.271362860427659
-0.492633295590198
0.465323769859115
0.8394353271755
0.243841648781861
0.857157952716729
-0.987130300078449
0.966555811690828
0.552811658496977
0.838767922977629
0.589851280708886
0.180323332367624
0.296061605321882
-0.903932144002929
-0.455035969634087
0.207279722552776
-0.0124770367350621
0.861727770271706
0.334064100549499
-0.55113225223577
0.535344789129059
-0.918798299189823
0.671492097336458
0.796025775288468
0.945261436192531
-0.522581434974051
-0.00616346835447183
0.878043874534487
0.642947996073788
0.850153503511995
-1.02223937559927
0.7129803871092
-0.0306750925437591
-0.350813601063942
-0.227933338423865
-0.718276511761717
0.14522258084746
-0.301193563138557
-0.680357268795044
-0.462000028719719
0.416332404447889
0.804776390053209
-0.543250640739249
0.355411909735162
0.619907861379895
0.228945143855525
-0.205274419651696
0.243044257640469
0.217326811538609
0.203720479285587
-0.857913078749739
-0.977547464752732
-0.742698064362785
-0.729448577966468
-0.881401097207825
0.0328899657861334
0.578835589688938
0.737782107048236
-0.888927078680145
0.851523606800281
0.846468642698809
0.70154754995579
-0.935710316559032
-0.166116013656177
0.142213885692204
0.823523981631703
0.602349026843225
0.543988440682487
-0.745522974559493
-0.834799497537154
-0.653078140631252
-0.969339866334654
0.579056814762982
0.441167337819083
-0.229137259719079
-0.0482003117468341
-0.539706480763155
-0.30005088697017
-0.75431720283244
0.635412243691527
0.152648015205063
-0.20974950633116
0.922445220897381
-0.615446675658011
-0.714114000666236
-0.863733709889029
-0.31659807609224
-0.279062256973907
-0.302157787578148
-0.341704548719922
-0.788265030003509
-0.655830693137665
0.746921319598822
0.615765773460887
-0.128978315746077
0.928281996260161
0.675710947848319
-0.000681843664827473
0.8945163791343
-0.866416616772725
-0.0211512122506247
-0.994699713538706
0.910814881132427
0.258846489479445
-0.118693018137475
-0.646846330124065
-0.474329156433133
-0.589890960302973
-0.977519579953826
-0.839654314904566
0.17756181236502
0.739142538757908
0.535026222777813
0.272389470570007
-0.0697085714341713
0.233683874719786
-0.0213522342037241
0.880992032911518
-0.823745835032989
0.718848955015327
-0.820831689442811
-0.643566548418106
-0.0225187405203097
0.76066941959069
0.919650825970703
-0.630727210450204
0.856716078344074
0.486078249854369
0.848489879484472
0.321578114465928
-0.0800075541745672
0.197055929949349
0.0721359375067385
-0.908086734697716
0.204572954437458
-0.241311169716559
0.334579259554986
0.52995889092949
0.358312380211828
-0.396410999079403
0.859018140907704
-0.516707446563546
-0.721530117146255
0.583817079415167
-0.0149202640150066
0.815264393651637
-0.468700026438066
0.78221370200388
0.0646309480885005
-0.747396917294605
-0.986688636670914
-0.68596665168818
