0.796770003118609
-0.0616087995343433
-0.808595525747408
-0.942463230625493
-0.698190884288932
-0.939669318308004
0.114980898473179
-0.464083442835076
-0.414446647663801
0.430870320364381
0.391757551469571
0.611414019958993
-0.549190117345946
0.415797488430461
0.794449076748872
-0.140862190218182
0.612650972527273
-0.146230670613126
-0.399009597177494
-0.250631717060437
0.859290434745446
0.291472513946128
0.934548773952742
-0.497428195945064
-0.76834806662522
0.590983896479784
0.825762847019077
0.574350278121639
-0.611652851897422
-0.169543348972031
0.293047695782824
0.19328895535264
-0.655260436398251
0.721485276853206
0.653626099660327
-0.881242163932342
-0.0394446950713737
-0.0859194091565367
0.989404236074703
-0.00199942534876717
0.778194650950032
0.936137934040516
-0.101536722220505
-0.687614340202547
0.284159809942344
0.758435694274007
-0.0479991767479369
-0.22594528442897
-0.806653942141136
0.0707115330675695
-0.467155482540999
-0.492872192663813
0.276328843848603
-0.539327246486495
-0.444901936868729
0.231475182195277
-0.924359638124244
-0.527000637057278
-0.0870140488340846
-0.536570883211863
-0.0521785905649452
-0.0528305854314377
0.0547442965871184
-0.586050966305258
0.272771281812957
-0.813524449113737
-0.859714276472336
0.0119257331280765
0.304160383573479
-0.268763938684566
0.756283167604934
0.494448448486726
0.549214078181952
0.734459047668545
0.907279677377157
0.402763984348234
0.916806992553794
-0.700640402889906
0.831429821240305
0.390866696033653
0.228006022195467
-0.0245770408829461
0.591265952671842
0.11672632360815
0.419535675707363
0.454561103688156
-0.569678383389781
0.135279728995517
0.757674166499116
-0.175281312097034
0.630752762611489
0.991788316718096
-0.559230227680872
0.885465532809268
0.980815959529028
-0.935049652704058
-0.379304695925748
-0.511547287980239
-0.503987207312947
0.722614006220546
-0.241576249128227
-0.386856526959289
0.63217076612621
0.357413049328254
0.275184043155533
-0.373966476029153
-0.509454414988519
-0.418663652387126
-0.935493548929432
0.640296589814687
0.602447501864713
-0.118666739264231
0.575982848919796
-0.256670664510338
0.754686234561635
-0.363691138022625
0.672358427819881
-0.924049830531817
0.0631730685233061
-0.290223256593962
-0.106112751347349
-0.494422485483338
-0.686461664467753
-0.394406949620463
-0.972473718096928
0.193761342410967
-0.338514904576603
0.799574350129015
0.604473611261055
0.335020607134463
0.313423009893189
-0.439064348578222
0.0555900218475018
-0.0956664212826607
0.255244254499614
-0.237883027707194
0.392818956091189
0.311843791124558
-0.0918533040838196
0.392661054134405
0.866515773047883
-0.823387132450696
-0.758596679855602
-0.202750924104419
-0.767627758591182
-0.645953383104866
-0.0188914133761903
-0.528683613437749
0.22426166830946
-0.613940444109948
-0.225467571282451
-0.991849056820303
-0.117553120894101
0.106653134339643
0.527435927355801
-0.0968198702674379
0.614102780145131
0.819039605492609
0.895338350952001
-0.0186619079195596
-0.5351352861601
-0.0986678407522911
-0.705239094787846
-0.772179132329978
-0.0922465770693254
-0.59247761479744
0.909235760986055
0.63292234888675
-0.472348732019275
-0.772528736813774
0.0996770050695685
-0.0640356961537895
0.0888079749839042
-0.0199428978124609
-0.0772787627987582
0.0774913622268366
-0.0386414986188801
-0.0660000916283756
-0.0753845262713047
0.849669760307793
-0.66094494732406
-0.731074297215635
-0.792852528149982
0.0509921511653085
-0.0075267407228113
0.59859797478162
-0.504927690687785
-0.912584407137262
0.819798850551763
-0.712365369259437
-0.794844867877363
0.00936531657216675
0.545830397867801
0.455988168622904
-0.251743171855929
-0.561449575951807
-0.436636055748713
-0.90582335288549
-0.156644355585015
-0.0663778178240898
0.742091963624195
-0.339757938848829
0.865584361863496
-0.17424144956124
-0.916956215437785
-0.172033295957826
-0.911351049180825
0.297269615929995
-0.449696494062379
0.707554196942548
-0.9170129629368
0.483176668594769
0.413847582345197
-0.424565573473258
-0.203517537638947
-0.28105475974499
-0.56490858088084
-0.494109916963806
0.228436832797662
-0.592525961820603
-0.762722087044981
0.873055834208651
0.418236595064775
0.240887367853677
-0.0808394681577434
0.511847823972443
0.898073130137836
-0.973902617872845
-1.00978541192274
0.98121944490256
0.026210072802721
0.255743103154848
-0.634392739134408
-0.510756874605377
-0.616481486890359
-0.885956958436978
0.380553369776353
-0.723877986445766
0.339747992646335
-0.177541948895034
-0.91140115762734
-0.634877060510847
-0.776321909045748
-0.728415151772418
-0.484998039202834
0.605265289965568
-0.0631235396908402
0.892279924495455
0.421713839247417
-0.442675595552825
-0.385831975490218
0.805338907034415
0.932796473357706
-0.621707895459025
-0.101240387596566
-0.0274299302996987
