-0.112828902904057
0.0442170064173613
0.369535316156817
0.849448964137098
-0.0272582712727482
0.599459986090688
0.401170198365944
0.662708064897539
0.418358088628527
-0.0362270557095439
0.708359144609949
0.710905376217925
-0.1907825559679
-0.991548197496277
0.771581107409717
0.963433781468754
0.769655087668835
-0.796998731216104
0.293283154846429
0.210910117491704
0.24134334487834
0.335640165010049
0.871867437043827
0.000184827292678395
-0.564789996907158
-0.855828541081817
0.0263381679090176
-0.136591914911654
0.832744206067461
-0.0539325083080492
-0.0240976118536641
0.359860775556626
0.783384920117248
-0.907001992889323
0.539394691848812
0.515677425336746
-0.344671073209135
-0.978277944347972
0.33326977848112
0.063772414509322
-0.412699065084263
-0.629538979145557
0.133709701828703
0.825805906917415
0.29828145149341
0.808351011901215
-0.518129254178583
0.528694952515032
0.887110933976153
-0.861387820211955
-0.247642272867942
0.0712728382513302
-0.379352273727037
0.244736586173091
-0.996513854953601
-0.967623358591116
0.478600686520636
-0.878315442895446
-0.0611373439766008
-0.773873395628523
0.601589873808476
0.721932805808304
0.278852551648615
-0.842418512862575
-0.53960775804476
0.760937908075778
0.52790100014478
-0.655434798701044
0.711835585345203
-0.662694671029453
0.17531311994871
-0.63249081005497
0.47905245475146
-0.641167629823563
-0.759526022342684
-0.891174307788066
0.648612830520819
0.892374089479864
0.510492910084501
-0.930897224162234
0.737569449928851
-0.82810471612732
-0.515854518180361
-0.755533883408161
0.737717651043819
0.777693120649524
0.118194104601259
0.308388202322062
-0.686317804800678
-0.821567202569564
-0.203656988998218
-0.0188176390887895
0.427172931129431
0.583665416117021
-0.28559901562627
-0.706248220606093
-0.641470491483616
-0.289705616553221
-0.670365525935027
0.0700399525189299
0.715602834175043
0.0729549277157441
0.661392317410616
-0.448889185476156
-0.0520980328983252
0.817657663363886
0.830006668189919
-0.514977002091928
-0.465046560657526
0.451322635160602
0.286006963274477
0.154742445982909
-0.222417085227165
0.564340713061014
0.534152689330782
-0.113697892932205
-0.260739749560448
-0.800053247481915
0.517832308246699
0.214981428675639
-0.782967407916193
-0.525072234553987
0.693338427433157
0.310718869600874
-0.523326301332663
0.719240061862312
0.432563635052473
0.469295037962423
0.426875151905716
-0.10993047126727
0.0699857680727601
0.667935916044239
-0.504945282838897
-0.191506726396537
0.221260808171694
0.259356564859614
-0.958509372673864
0.0660342534476241
0.333973183106617
-0.095511369393845
-0.457387867225825
0.84597122940864
0.157790502575721
-0.584293161230287
0.745791087164882
-0.941557876937122
-0.429546482031556
-0.463877363667177
-0.908573662303923
0.293332860479601
0.352201908910097
0.784988362673606
0.407485398349766
-0.0922331577998539
-0.937801578328263
-0.873799140729844
-0.270026304191887
0.644661788109476
-0.784870135929407
0.129258123294124
0.678006904680589
-0.610035865309054
-0.136468835129476
0.415279881797801
-0.17854622933253
-0.340647778013643
0.511909612820656
-0.168170890082337
0.801740189225186
0.406970868372193
-0.963891747407741
0.936720524884402
-0.476447475764438
-0.790993590805161
-0.397781555112379
0.355884917397889
0.825201450421407
0.0275966661600492
-0.895587572896601
0.443150879121514
0.465093247408027
0.765497176354841
0.426772226987071
-0.798679900036092
0.0973641429269477
-0.167133043772561
0.880002589430254
-0.632756240863633
-0.901904051006224
0.465846686407741
-0.788973962727355
0.928103463523845
-0.268654445267187
-0.824664083835621
0.694068886518864
0.513781583049129
-0.693651649691593
-0.120151222812789
-0.844243461392885
-0.35851203315845
-0.090360830041444
-0.0729592842877891
-0.342583860679362
0.693681553288877
-0.413071965904047
-0.0476392788010717
0.372954219258155
-0.371778896859885
-0.344357289203346
0.438028264516339
0.439107472408605
-0.30208314332405
0.806670823141662
0.585047690628936
-0.851803591384208
-0.324113625530345
-0.600294746722404
0.81196668051671
-0.345704718675873
-0.867427128111808
-0.149038480036831
0.888910517346136
0.501353346787608
-0.55454696429587
-0.305551420583623
0.0290086959026733
-0.34628985535891
0.934491539121896
0.873186147772634
0.237641752092844
0.957201553182806
0.230246127110314
-0.668037404949931
-0.277790991009416
-0.543629177881228
0.717984544260501
0.00627386726381174
-0.48840921650541
0.0381176215322785
0.248114271053862
-0.725998547826877
0.412333011065838
-0.0575708264807756
0.309703813584482
-0.245647708979016
-0.976554683361089
0.615278519610864
0.0442909501594855
-0.0312190661654009
-0.983780367833601
-0.26896623858224
-0.842999742836276
-0.292156680605505
-0.213441524270307
0.15574852920298
-0.659260743123752
