-0.326344525457885
0.462203433337452
0.162756105813166
0.683325545378392
-0.977390220473635
0.768934954907993
0.344892291055526
-0.778509339873225
0.0868666960863985
-0.780245999447496
-0.424371970617526
-0.59738533565721
0.778999705092645
-0.209003531311952
0.106135153741355
0.568313839022944
0.453910080778276
0.949428998495857
0.115157769259812
-0.490570950997764
0.930270811505051
-0.322493727987126
-0.0905796000281145
0.339608804135253
-0.620665640718574
0.098044506230955
-0.139321574067422
0.53818712985183
-0.973350165523401
-0.640658893934105
0.234030111491447
0.886627566745614
-0.383875709772147
-0.56633471032731
-0.392692438827742
0.223502702455236
-0.0421759231107646
0.269281475464905
-0.755022833912668
0.982754796293139
-0.745696875648193
-0.853585215030433
-0.79726740492295
-0.764280791856487
-0.30747961163773
-0.637518450453277
-0.342130355494823
-0.860141767023045
-0.402663694107416
0.786701640206691
-0.212930675834097
-0.285169764096089
-0.871057667861353
-0.530066035263786
0.893086345298306
-0.321625675066254
0.847201967609038
0.156765821947995
-0.0412850576301883
0.118555522230904
0.402767064984353
0.829862976871255
0.412660045946309
0.273448387971136
0.852052262196303
0.403887827100185
-0.870221969777879
-0.358544404289626
-0.780381414895912
-0.0190325845063978
-0.802793396705676
0.725003766039129
-0.864232778778706
-0.235845746815752
-0.239669021249689
-0.194294032583643
-0.659326701639964
0.727534989169525
0.980838361937091
0.57318022545561
-0.947245479593637
-0.563759943612559
0.0943183705745212
0.0124504404419391
-0.725751844514728
0.728140318813388
-0.736074215021042
0.333816875398034
-0.723036437909176
-0.781481511129463
-0.176032920034483
-0.464453536886034
-0.440476401674455
-0.847396926376866
0.355943298638612
-0.268843725853047
-0.332664726610082
0.0685157662546361
0.652142683379952
0.908817396037822
-0.0218823845060878
-0.603333778617413
-0.68921492445376
0.0377513551451351
0.363436001058944
-0.319668915881181
0.424648392557946
-0.740242264956458
0.765958209997691
-0.0653688228941306
-0.842687721342866
0.767847853294159
0.0270432728169081
0.703102430999907
-0.762450783781537
0.780406171437297
-0.0979379701368794
0.627650924189257
0.167452411716844
0.568668606397623
-0.913988180275806
0.883510805585412
0.453363990106649
-0.740941823543499
0.594097638663031
-0.420020985203918
0.143491913989863
0.587251872151151
