-0.8817115502755
-0.70925623767263
-0.82231811184906
-0.72073331399464
-0.363903757595176
0.771490495092591
-0.784798487167358
-0.859368970083542
-0.671661380921589
-0.706895284798551
0.670261307769717
0.123592831724614
-0.958599584299126
-0.511618085739006
-0.834803275759313
0.310535797534615
-0.0280132004501306
-0.923355009922226
0.286122955659301
-0.869907510235315
0.430607816841549
0.367294859232423
-0.363651090036283
0.0647801580340994
0.599853764237238
0.834772021924628
-0.621360627930431
0.446001003538438
-0.0492757221805465
0.790807767943224
-0.0473392027819921
-0.382006441017424
0.327600545179884
0.726672930119816
-0.375680361863303
-0.322599709429497
-0.0122697275197881
0.754467192061207
-0.203039871025234
-0.366413151893145
0.325584218632947
-0.528318678047428
-0.642072640226312
0.349354081990922
-0.724331559294705
-0.463442202920131
0.296353900084388
-0.252401092092965
0.757018335557753
0.518457972777366
-0.826994400459944
-0.403393305179892
0.702405684768117
-0.417781947114688
-0.503785056476459
-0.908316676958822
0.607395202488715
0.884902646456164
-0.233291264004084
-0.432595529834132
0.84447455002885
-0.432335253349921
0.314116737063468
0.05108189605375
0.251882774413293
0.775617684406997
0.863713710032554
0.59972372058945
0.381796151581391
0.745041782779135
0.801233070896638
0.427816348491895
-0.662708171798517
0.541005606396661
-0.304383778676257
-0.72139151847794
0.23152714052433
0.331847775334614
-0.0865173714299849
0.657803417625916
-0.090631419894569
-0.0749739356924193
-0.241386071466383
0.960103427642244
0.017602313824853
-0.902580462869924
0.76002271336441
-0.271660532605378
0.436609628049555
0.850706080523992
0.384314338457046
-0.521280236880181
0.00378724140799089
0.440087697505311
0.819705919224374
0.816417635086624
0.675344357797859
0.468688194825852
0.744786336070497
0.19597313185495
-0.177348304528545
-0.520322366676512
-0.025780584621022
-0.315656308321312
-0.698552793317742
0.684609704671155
-0.0966426485987578
0.544134200116826
0.947233311570292
-0.862869118135939
0.700382292622216
0.367577448092561
-0.311267411279684
0.501745790543764
-0.136966364420981
-0.164880074574149
0.537004203058574
0.657068158764382
-0.54380510806355
0.569198211750547
0.0549019314024377
0.238879398050684
0.221645493503252
-0.972125698928318
-0.444558643037794
-0.601261424391579
-0.498197913576503
0.491879172198507
-0.822043843164724
0.421310757379824
-0.0263182985179388
-0.424524237591292
-0.636318401801614
0.78929604698256
0.489597639737729
0.508685675764922
0.81267812707724
-0.190836829331878
0.436172919630667
-0.369397958191069
-0.17543172851572
0.729518804755824
0.588050674175879
-0.3511547950313
0.282918268746855
-0.289413622760025
-0.159147042689275
-0.552877811912605
0.496568108924415
-0.752261262772159
0.537212507614553
-0.944047628059939
0.414054969778532
0.192981972714725
0.597429591513306
-0.0498373320504882
0.476863790510214
0.0992887011052348
0.157484810156074
-0.845488933701305
0.915124314480312
-0.423859092743885
0.122247362259193
-0.829036077956533
0.462329890378393
-0.86654642450587
0.377424418519572
0.605841729940669
0.881164178307919
-0.501728586357387
0.608275443029322
0.344034032623154
-0.582529504888095
-0.553873530760006
0.994153740612225
-0.492514013790192
0.277632675006817
0.771152180702233
0.124021185143621
-0.0975999600613112
0.674699884217265
-0.0240478677431906
-0.120894705259201
-0.115112190096034
0.366308490384597
0.24151837542817
0.735113224041201
-0.627865061225262
0.458646408077468
0.776206462805725
0.0704752238149363
-0.748244671496871
0.279420834885441
0.637131709210634
-0.268406162606366
-0.970992998544505
0.745459470843857
-0.753556121551714
0.635752967965155
-0.557561456000475
0.268144815918234
-0.743570170479965
0.921508941593677
0.831554533357996
0.266981444805825
-0.739736089658245
0.182676540371462
0.412208298449391
-0.932918211337941
0.401592726743755
0.956521438160536
0.415539210651608
-0.965088588895098
0.475899477261583
-0.510444709802055
-0.630408428066328
-0.125210525861451
0.65440736512936
0.93610679496746
0.623681939721313
-0.174709185569968
-0.383388897990076
0.499090853516304
-0.592730767591538
0.192793250261262
0.458011288544375
0.83815289131455
0.670666009313743
0.012771439919524
0.379387459842092
0.265927699041521
0.371194885486521
0.863807096715794
0.0898841318243474
0.221858538672763
-0.550963622931985
0.20322590174028
-0.650684444195225
-0.440936201833186
-0.068649795470952
0.0646987098589488
-0.117896381379362
-0.367846261467971
0.0759978866301088
0.858353757437421
-0.763150261192654
-0.161670223445903
0.487650555926851
-0.001567152562385
-0.774874955050337
-0.332959752869709
0.704692666850962
-0.364875986160968
0.916779584169234
0.393775732351183
0.872257237840522
