-0.876523613103513
-0.286150734961374
0.155221886490384
-0.970712385193681
-0.217055540784843
0.953861216397748
-0.258395479643798
0.277454510698808
-0.425731324845981
-0.646360592834488
0.829534608975399
-0.300454148327768
-0.811271568070536
-0.919201561684039
-0.0512177628963738
0.72575755120555
-0.941824407569306
-0.0568516446832566
-0.109629982914704
0.100529334277953
0.110915982880845
-0.268810713170916
0.486140202572844
0.227936382867251
0.50341957507142
0.406007354621548
0.850700171915028
-0.971487081768392
-0.826179405342323
-0.25625628142678
-0.27524989520442
0.66456031248915
0.661480493831547
0.342962869786958
0.386885733879742
-0.477050239982922
-0.193796477210198
0.525068919067671
-0.584625445240558
-0.602414505975879
0.844213655828374
0.947231626995874
-0.480998574523147
0.8317822489884
-0.256398735722864
0.482178658664638
-0.899251032384556
0.900165902478042
0.57684847474779
0.327775901587278
0.387757787561326
-0.700754565992323
0.562880301920586
-0.932976333525008
0.383455644162291
-0.517133424073802
-0.864777098950558
-0.610900100373858
-0.890738493454569
-0.297823319834012
0.781010653985976
0.0409727368002152
0.775999533230752
0.543875738290053
0.833918916073505
0.282901808588728
0.049200698775482
0.0505271631015631
-0.018918854330305
-0.378762441498916
-0.940695518529928
0.635950798037529
-0.0222050971529726
0.896506090278114
-0.549542363478519
0.309523632052369
-0.429594480067876
0.370682055518882
-0.0748975649589225
-0.732963777076321
-0.875094648866058
0.896165189664944
0.923539124633084
0.886326159226785
-0.934345470632268
-0.254297932253297
0.00639662947202337
0.0709297744715123
-0.0311327351039431
0.397283394689641
-0.926482006650385
0.0415865940223748
0.260698224592446
-0.178466127838046
0.885725573454936
-0.0982118720051707
-0.706941612959979
0.201337142218171
0.3951234420882
-0.840354170703161
0.871464411472642
0.274195982996605
-0.898300283921883
0.246629521279854
0.166909907379745
0.595585480316164
-0.669297733292305
-0.606752006939267
-0.230138157009567
-0.423137369853901
-0.973889055835739
0.112413600615619
-0.637202674083786
0.21619119108591
-0.0326640360742882
-0.782205825174087
-0.889779632984027
0.966888643833737
-0.759961105460624
-0.247866530787432
0.521805314030167
-0.998997812618115
-0.410738556176786
-0.25337502003622
0.647735884228207
0.85629127831113
0.828357970581744
0.736933628470957
