0.214021293922501
0.256887139395573
-0.800248372643339
0.941187752164627
0.0889863450628222
0.675715530260725
-1.00135110548342
0.132762256708539
0.288232616348708
0.21335897821373
0.974364246117818
0.455350066922081
-0.629344602166975
0.797167799887653
-0.148553952750056
-0.385944559799892
0.000585191978212055
0.266161574193552
-0.554809872803837
0.281635858333126
-0.924526863280545
0.543121733789886
-0.926706714389473
0.185622483179321
0.0117574897480643
0.705858888050137
-0.0267539847557166
-0.105304774422747
-0.102213623981107
0.299186797966985
-0.989989258553832
0.00295475931363466
0.956919344581765
-0.844064906400677
-0.851943700844923
0.0806768482825977
-0.436771972368116
-0.0426757552398937
0.541253927844968
0.0548831942469008
0.729743268236158
-0.089076833031535
0.349717463031176
-0.0800803391154176
-0.43056444917662
-0.235430693685135
-0.0649260056886663
-0.377647417079151
0.563065801210883
-0.122123350254315
-0.869127331150494
0.48349555464224
0.784501709721631
-0.0887783230075746
0.2337395372625
-0.168068523347568
0.378032783095806
-0.474472088441392
0.785895499405177
0.97363354205033
-0.680295113744299
-0.275721154850444
-0.513857133329979
-0.601116662073649
0.395620216679103
-0.891238621201281
-0.0901822237691839
0.0339298878019453
0.729781638299076
0.0631165768122472
-0.479737589059237
0.824491909554461
-0.0784033173882857
0.924445905085058
0.404857922515724
0.878485771819686
0.707316814048077
0.207286893166881
-0.172847085036487
-0.872046767659906
-0.604932796889195
-0.350796564967788
-0.150051591972766
0.521903725990721
-0.308490651754514
-0.392010045843469
-0.832110577622801
0.380146320894618
0.338096641916918
0.543925614642904
-1.02583732900067
0.147455536107919
0.583687256679369
0.936901437898199
0.487050003936006
-0.0162454887872752
0.536575668954061
-0.178303448132493
-0.510282364766597
-0.734639201399348
-0.385802193208735
0.660947595597008
0.705835667478384
0.236153401078148
0.815741474954213
0.868696137956283
-0.231244713664545
0.712587604038816
-0.474980773144174
-0.896236716564277
-0.735879202474141
0.780701037765881
0.193869939509955
-0.697226254825271
-0.163777169212733
-0.881542713423231
0.904542118671183
-0.872833740896688
-0.357390385363448
-0.0429232146637583
-0.359985861041194
-0.930228066029596
0.66946927527344
-0.883216425032516
-0.0926107200144768
0.791208679579789
0.372639953084138
-0.928060686685853
