0.641382964253957
0.661875434031654
0.0330997855749281
0.470244052038349
-0.967599287045692
-0.0218359631118086
-0.157721007968929
-0.634967185526155
-0.364502732382699
0.867937579905404
-0.91693770830607
0.703145601912358
0.283641898460539
-0.0703938562808234
0.0443182694628824
0.314368939716128
-0.546797130867176
0.538288348516808
0.607509435109273
-0.500284297029094
0.43178177294767
-0.0230642280698967
-0.245780297472996
0.296982037792391
-0.692123564314443
-0.996085987059512
-0.496106118443869
0.587924830368071
-0.244007394359266
0.921435696129208
0.297740559246722
-0.247803768816327
0.784991249103771
0.0530484774691179
0.795134504123183
0.659419680544299
0.805077840343861
-0.430489389355828
0.556384825199152
-0.43903987450465
0.79842106894604
-0.348879083543991
0.152076675146965
-0.098163348589606
-0.586614638408361
-0.655353047506262
-0.765199640674152
0.0617152863111326
0.222095250099462
-0.251821005525406
-0.382953174895244
0.697457718343218
-0.19086222866118
0.89032777024457
0.276068088664388
0.578137526351152
0.0982334423584747
-0.256922314585717
0.414607453215453
-0.589096228484635
-0.53546495667158
-0.205656436702479
0.122531040237629
-0.247856565202112
-0.784137521469478
0.343367867904319
0.289765149388115
-0.326545738293565
0.671222141343672
-0.0344086943418069
0.387592732581108
-1.03384709316079
0.374551599339247
-0.30469061567239
0.273734734554008
-0.258781110515653
0.977465314292628
-0.76227635172364
-0.218511990494456
0.10713274908634
-0.819655861271397
-0.532284877505027
-0.66313925563819
-0.277297457099153
0.492419353491152
0.1304141647666
-0.814043538540575
-0.639696873336334
-0.454713353879233
-0.819347089133569
-0.831270325190106
-0.749213418186802
0.84553400891886
0.475901503815541
-0.000775970245717169
0.784511773525067
0.0607354858713607
-0.137032343357259
-0.0339874811225388
0.917307195113865
-0.68378218515124
-0.680413885931821
0.74897364503113
-0.386123684607199
-0.860584726024182
-0.793457035162896
0.559320223748032
-0.808119588444679
0.0866140572800651
0.526103074288219
0.693792078245813
-0.16464092101548
-0.220621023788725
0.769018321429061
-0.498457803666755
-0.758432544075658
0.966141193827264
-0.160450464549722
0.0693330670574808
-0.875818001356542
-0.32082225367141
-0.35778848355242
-0.593182266920444
0.255003533063954
-0.444885846781362
-0.453032628288123
-0.543385135390945
0.416878197049213
