0.345543647082647
-0.590325198305143
0.932362426748704
-0.503025442864389
0.649040135345913
-0.640263171435142
0.403204444510284
0.0910632162766275
-0.626577816386204
0.736835854193036
0.198903079497574
0.0586563666385215
-0.717625941044345
0.531821887332175
-0.691366656875681
-0.767262378907175
-0.681721496671992
0.391785039810138
0.848135832165117
-0.993715085117346
0.0242569325664052
-0.97803499174698
0.0711795204949164
0.452876718096738
-0.0960899113360938
0.454647301762721
0.200003210927738
0.0916738297765775
0.104362741862017
-0.897606402623726
-0.325314189423068
0.99143984115856
0.097381102379825
-0.538158058236719
-0.387998814632165
0.0692161712501205
-0.147055202918847
0.297662932913611
-0.168313415149581
-0.145945780824582
-0.281479793852765
0.141674990338137
0.503449852351044
0.339882268996669
0.703579373356417
-0.00300782399192591
-0.661501022282302
-0.00269270898790019
-0.974016358421979
0.104441942369285
0.14517108422021
0.676667954349964
-0.343216260224282
0.528021942588577
0.129030363851764
-0.456476786971893
0.0961133263998066
-0.0398324577984348
-0.112912151413067
-0.710841831966649
-0.137887454392086
-0.258252715006323
0.0699560290918738
0.994628174176675
0.516262140190859
0.365342220870448
-0.0328203591264729
-0.494444258946274
0.572034667421762
-0.0260986239862225
0.756067844645943
-0.232242426981037
0.562928903382075
-0.18490372938047
0.203330459312409
-0.760644077337838
-0.87068943390226
-0.116196002523723
-0.242890540645242
-0.141900277693088
-0.366178676994732
-0.648017974406749
0.841634552738139
0.304894129364055
0.0552416218260951
0.723597014843474
-0.252510167912182
0.297587530960759
0.850384532131088
-0.301758831368698
-0.825118387401206
0.886736223268552
-0.367948728971648
0.230131972645375
-0.795584963597462
0.198927720289568
0.12360569009467
-0.0228704829616098
-0.278870122204923
0.0610022021218595
0.0584372775939395
0.68869631363292
0.503680653644823
-0.231543895074344
-0.262338047884769
0.609700370750082
0.895310497146913
0.804452307805895
-0.461784266885336
0.664902779747313
0.17831272787997
0.680452695638945
-0.0532645724717174
0.125567320975098
0.944658317549348
-0.403880587305496
0.4152867998663
-0.680187961025401
-0.421992221103733
-0.122189876013258
0.560955590902006
0.228701656986629
-0.623475679715671
0.391120945437696
-0.347827155659464
-0.0444076509077683
0.647604056417126
-0.14738032314525
0.334406400568096
-0.242760758092396
0.44972439082209
0.0381600159804447
0.765879590854119
0.303294397609563
-0.770301446829343
0.758019757489133
0.743510972889643
0.818113244022786
0.758432892891388
0.799797577418397
-0.872153444769077
-0.618234273777801
0.864534694780697
0.581684280219508
-0.167554067476138
-0.995563277548012
-0.556158751411727
0.263922024102727
0.13673224819249
-0.421175164370111
0.477081944610652
-0.214603674162445
0.748019269968825
-0.69525108351955
0.794363475673652
-0.684954190838218
-0.679044898371921
-0.17747411324663
-0.676726253235579
0.897660026671467
-0.233360365163982
0.616902291022679
0.539511273356389
-0.327245685823452
-0.502320355468278
-0.86182446604494
-0.353825145527024
-0.58151360100763
0.842680331759298
-0.334870823033131
-0.548991009227655
-0.702402517881503
-0.38603700207892
-0.333868528502399
0.511290545989784
0.409487244713168
-0.235080598258409
-0.792493280439097
0.119175784893401
-0.0432051799094845
0.106237873892499
-0.201516158888159
0.733340074373916
0.707065567115112
0.478573865269564
0.366325276961202
0.202272267156078
-0.656889915483038
-0.254297294620274
0.825020006260392
-0.388959231256361
-0.423192104617683
0.869508392988184
-0.715917331775556
-0.0425465736222294
-0.315689507272985
-0.170164327499758
-0.436021098467173
-0.160847653422974
-0.717015739548954
-0.161555403512399
0.267000845460834
-0.0591063927885108
-0.200909516167816
0.133941754361119
0.641430957918991
0.887934712653092
0.647751093647098
-0.924708678685426
0.725393626060793
-0.128294813709172
-0.657103670430217
-0.683687216567304
0.359753242433345
0.14635849333206
0.978428334136791
-0.0336159555766287
0.311641946631106
0.87020875475007
-0.382724738246444
-0.477111405885868
0.647806057323129
0.493223592550582
0.110755280883121
-0.309452020067669
-0.498308293347135
-0.945230601535723
-0.620115892378716
0.942928898920366
-0.606073268800703
-0.322609436794125
0.420605063469924
-0.804010046147485
0.773410230853349
0.768564878940206
-0.106741377110311
0.764971673009963
0.495480923792697
0.323324490742388
-0.179618515073439
-0.846984002283251
0.380943743870639
0.21143577253884
-0.140698573724814
-0.616151780544022
0.212089802560035
-0.285875815808815
0.207608257199351
-0.595518222519941
0.872928556833041
0.677297017664928
0.679664997795446
0.729487114492539
-0.401495200252987
0.483365580196382
0.731457283513257
