-0.687848672091587
0.0742338451991192
-0.216811299199056
-0.100112783094097
0.942363716093426
0.748833121843014
-0.13027409271602
-0.719133838548276
-0.808094865104008
-0.477340210720034
-0.595864950520328
0.242375768406505
0.271759981105359
-0.915549095894891
-0.445213807155571
0.330570444109375
-0.232125427765616
0.48192820709368
0.692905455643786
-0.759720061298423
-0.774922440519724
0.465390221515457
0.75081159336382
0.822456310823173
0.215133408226047
0.284790654754918
0.813553258853853
0.342040437298253
0.598887846674585
-0.354741861367833
0.405862714813084
-0.706869455524871
-0.757514250796434
0.6439153807489
0.542787035355658
-0.0483357485686878
-0.729989560635279
0.281894715569577
0.73600918724653
0.484657904348346
-0.0319371148824554
-0.928111625244536
-0.626688644422019
0.575856385274602
0.157273138453725
-0.112676654345858
0.0521083468623068
0.408856833253369
0.565553351302173
0.722646884544582
-0.249140641570178
0.651657723144059
0.931318364008527
0.126316155077652
-0.467595412294037
0.739906989571708
0.551668177185561
-0.795137076116076
-0.990511139655908
0.0283375518055023
0.718742313367108
-0.728206121026219
-0.754618068642271
0.571188133285022
0.730180567628187
0.954492069493036
0.544764891522167
0.740305626953439
0.665397724091071
0.147055061161025
-0.806733270512856
0.935965737748405
0.619138297035502
0.538858034774117
0.337546140148016
0.480894934792081
0.561606981630911
-0.981047853111971
0.089559480008873
-0.776575906923541
0.314007133535549
-0.542845721452657
-0.586706203794589
-0.306936291090946
0.205389201222851
-0.724163861522674
-0.373576534354456
-0.1493758209125
-0.497057702489203
-1.00413519200898
0.362600565147129
0.472105884091152
0.617028192154683
0.862405016220073
0.582050417169348
-0.944184156006827
0.375293009664529
-0.092732264644253
-0.00509815682542055
-0.361553974804593
-0.58085441197774
0.916664860434848
0.118070914891672
-0.897132094595039
0.0208645243815484
-0.638056941519876
0.821821077958584
0.661436161906857
0.819351977541373
0.960354031705144
0.136152861016764
0.0792351356874108
-0.587880818985461
0.552345283801633
0.562881496947211
0.594825336058471
-0.414972508713936
0.501164347125848
0.815164190093828
0.843679045612538
-0.957704938852388
0.401506364076245
0.559639112856672
-0.466041088942874
0.808423212318882
-0.103367077126436
-0.577317393344134
0.497924013412966
-0.409742400406563
-0.785759444391818
0.925382189885269
0.719122219799467
0.0629307171916509
0.0333894895432571
0.0651594137190562
-0.499583457512224
-0.452332848579283
0.749614728186626
0.0732778991949529
0.895651518822118
0.586403467752269
-0.29033142887671
0.212570537691631
-0.141273876217479
-0.221213157587463
0.573216603818838
0.00125108168036525
-0.816458548183433
-0.698654068667913
-0.244823842699883
0.760476905930877
-0.0672273830756706
0.170292954359196
-0.599026373263948
0.43289172798337
-1.01413741373456
0.3894896155625
-0.720695617538488
0.416480396168643
-0.384541954584784
0.808556560743398
0.625643872413301
0.0152426785927037
-0.115252589571084
0.456033306427634
-0.480153000970067
-0.0320835564955923
0.454896567309071
-0.62613284924792
0.444491657237692
-0.668899964697099
0.0762730365674346
0.917851312306741
-0.453045872308451
0.244665393812984
-0.0127630378297741
-0.0927564900662253
0.448407187388782
-0.352348598910264
0.158737819925455
-0.994470079466827
-0.050966658022016
-0.454222110975448
0.480560867631639
0.261250756782497
-0.823126780962192
0.808891560751316
0.60067909166572
0.814346503914196
-0.890843047857561
-0.0900056460074618
-0.700184871616465
0.0723167345578909
0.402308972825616
0.589305188945705
0.681156941213727
0.477641938036381
-0.775041411169672
-0.752847109552618
-0.00387742160249038
-0.26965808722204
-0.180836418258189
-0.232648366936024
-0.755192519610078
-0.554251211251263
-0.894093824604788
-0.982050937691964
0.924726433047847
-0.764898911968406
-0.627948634575427
-0.991825859956729
0.33890435206871
-0.958533484071607
-0.631277000251857
0.772472129067496
0.572658535433211
0.121563433980592
0.0382186033930938
0.746220863081028
0.614230052649315
0.641991094972336
-0.420345117147802
0.656776358668194
-0.0601372042046381
0.315053867325152
0.247408659887073
0.378683658324759
-0.812676412515078
-0.34002314244697
-0.95025318229527
0.683487052217883
-0.467878444794239
0.0522630810624921
-0.36820295301955
-0.846156776363218
-0.0593129529192566
0.0135174020655187
0.632475869851677
-0.226975518513862
0.807155700244393
0.0398088927844597
0.494023789127346
-0.145032953078428
-0.509255499063973
-0.0178732461461202
-0.223127936292722
-0.811498046287485
-0.70914485599737
0.646140129542219
0.456471571192437
0.535973169596713
0.299576444819751
-0.825413239938445
-0.367684538468315
0.268377610104493
-0.966358317777028
