0.587635938172298
-0.715950218379402
-0.169375565789507
-0.977595147332389
-0.758804222759668
0.932993132817471
-0.189821451208792
0.4509410818379
-0.689741562329638
-0.556342451504094
0.125852168984529
0.0528902675989235
-0.340206063603856
0.289077461914982
-0.744518311954398
0.644407423892413
-0.584822785032536
0.561085111444638
-0.122545434738835
-0.9072153823476
-0.708324972779236
0.988606342945701
-0.320128873735402
-0.991859166234192
-0.66407197443402
-0.895389977218612
-0.0411471797832297
0.871819367954634
-0.455581166920147
-0.93902444685521
0.949379401314017
-0.863799056266999
-0.196843406603631
0.616640541976229
-0.587188723363952
-0.937521482700695
0.601857019486275
-0.916278735844724
0.166582997259132
-0.399667425528894
-0.378145888273378
0.570575390491008
0.420010227858732
0.630963250305307
0.626722082293908
0.686863614384164
0.452031696934979
-0.231960995127624
-0.761407786429125
-0.887713502345386
-0.590635041529765
0.490090399969415
-0.194959964686598
-0.949438869421967
-0.772489516713925
-0.790815398399845
-0.454028085635446
0.441709271166916
0.755595360799139
0.701741974912043
-0.566805786664418
-0.357958471649839
-0.619009862214379
-0.944840424465126
0.775943439457185
-0.907861558152182
0.620922423041775
0.531006035729356
-0.530685489445992
-0.502650777128349
-0.214264080623793
-0.317650409321412
0.770700463491886
-0.0124984816728542
-0.217798657690278
0.74378975419088
0.246639672491405
0.754314876422878
-0.462549225901068
0.318063376686917
0.873017754400811
-0.158411973496539
-0.165913379746265
-0.298826590808239
0.530891508044444
-0.861469094373719
0.619787985598847
-0.402397961413506
-0.523270916804077
0.771756600392648
-0.917825737386918
-0.497827948103533
0.780101295710738
-0.01199935486434
-0.0958049478351516
-0.48676025312387
0.197647856578332
-0.662727659878819
0.677523948491345
-0.28423872794716
-0.754028957093329
-0.533375281386297
0.319290944529355
-0.354648684896798
-0.414663674979368
-0.161007140421036
0.149455141129449
-0.414650919292303
-0.474693328616975
0.71048990534823
-0.0203684489373706
0.56774159978756
-0.920029745182823
-0.376445038743953
-0.115157791719638
-0.152961213853598
-0.15742616731333
-0.647067371112234
-0.385660329448516
-0.542865083960697
-0.118048350620683
0.243708493216224
0.626966389854912
-0.719147039563962
0.566654745924888
0.488895598897641
0.416061922291003
0.772450807872719
