0.252108281043725
0.0572964229176551
-0.42564053694359
0.173177777002848
-0.0182278181263304
-0.157160350554525
-0.129285720526126
-0.0494146804945794
0.261802897665257
-0.392127713399907
0.102935671119723
0.115285851394892
0.0504880533286125
0.753073990203334
-0.73804868021933
-0.015873566590487
-0.212243291455687
0.726852129116431
0.236496178664138
0.0318147274573729
-0.935325672762779
0.866854397043113
-0.364512217061712
-0.48372678256153
0.753727129253813
0.870271374857171
0.459720120643669
-0.0561372704039908
0.0371349884925043
0.25759314581056
0.504048829376228
-0.463160466473357
-0.728524710095981
0.229868818708766
0.694400572252773
-0.0145505238704585
0.0795074094084178
0.626412768197983
0.610705317465954
-0.640644344486279
0.216319829989758
-0.8332447752726
-0.612715075246096
0.745892203575388
0.448716921350357
-0.965574482105386
0.168143646719017
-0.570099328149291
-0.00595017860651066
0.457701481674664
0.31884495513218
0.560503083157301
-0.139512615789496
0.37604622953302
0.554527737180214
0.0898640701030387
-1.07510615109306
-0.457807468079418
-0.856993927570555
-0.362196752292801
-0.117917460840343
0.117895009399248
-0.143446232861584
0.37066660272852
-0.422993853530824
-0.231186734626245
-0.602131477484709
-0.548581213338876
-0.00673964939193404
-0.59994251822674
-0.179776163519311
0.017644953141115
-0.548239602860717
-0.337241980641629
-0.453944942082092
-0.60673783718019
-0.0720249884237141
0.643685632018649
0.447966933009813
0.320187995837642
-0.918546621030927
0.768698672124287
-0.0901706101661777
-1.02428033805252
-0.435656139361774
-0.0440322852237244
-0.792039318324699
-0.777410517870025
0.729354811737447
0.303581376845248
0.959900506820144
0.411380083363466
-0.392296732305823
-0.99803981340843
0.594764742212463
0.299837956642758
0.316602572309593
0.965103542005211
0.749547347297626
0.542655828221347
0.334800345780728
0.943903608070446
-0.298019342011317
-0.735095052685298
-0.309123223137587
0.773858020793393
0.0474611806697319
-0.708058142672553
-0.914263413257943
0.603305290219516
-0.276077312063417
0.603786812521649
-0.627746990197333
-0.0206897269049669
0.879857686922034
0.640367328117105
-0.0723424650253911
-0.909525917740737
0.243811872076976
0.004551885152905
0.493419336489605
-0.530501546351282
0.500994513864951
0.600067100114558
0.853737990366747
0.687929458800122
-0.185531861247666
0.0500519196408851
