0.507667354082392
0.266170751145005
0.991579099438307
-0.0761831313963812
-0.498222897671019
0.359300446159818
0.473835075140458
0.963234277510205
-0.295539254064072
0.394608971192403
-0.0994476118249561
-0.0931048083037149
-0.502094264853198
-0.658670104761551
-0.446561404557314
-0.830027258656944
-0.496704459706507
0.653475676523867
-0.055325333097327
0.981192619686936
-0.127552155768653
-0.22958604302778
-0.487540610219474
-0.0547880954556673
-0.910834714454104
0.172908436027648
0.599057955214896
-0.152168094974046
-0.486939711549331
0.0183243660110726
-0.739817945811086
-0.850952780912607
-0.261376431888669
0.576722792066893
0.204531698596557
0.210848197064151
-0.721423922875387
0.322127524114227
0.00945121232137339
-0.4058710439356
0.622016904287864
0.821868343750671
-0.997450142327904
0.240972952041273
-0.881477232594797
-0.177506235939075
-0.27522963068391
0.411167801621786
-0.521348845665574
0.229563712467575
-0.926106715076476
-0.622363441192028
0.0550372854066315
-0.160119110502585
0.222282906344348
-0.962009441842014
-0.441716212690198
-0.941193697242064
0.677399131009401
0.240852829326982
-0.733028747328391
-0.844154141220911
0.0889245236766062
0.0136243159578992
0.0928791299523887
0.275739134352084
-0.393628935954364
0.732208411724552
-0.460398287546022
0.907061677165281
0.913035433662429
0.209319827660214
0.916374525560281
-0.957111065612528
0.447541286062443
0.488741555616544
-0.680814654438756
-0.768171058161566
-0.985234874181824
-0.998511483003771
0.47001341042088
-0.881804204224277
0.960787376726239
0.12409934087115
0.839561357645247
0.163608443700501
-0.741163385271474
0.25928923938064
0.808512925904704
0.35880237147623
0.541732104426148
-0.69861714313933
0.423893659066233
0.955421872442787
-0.7421463341046
0.80872026303226
0.606485438336416
-0.286390899395076
0.160996012622421
0.404363321760446
-0.341546017252759
0.444369557180482
0.64132242650582
-0.468079714646036
0.180046393229922
0.249273898153966
-0.741619781870396
-0.454069283184422
-0.255018883593486
0.475350411171548
-0.387868492552261
0.871064556916759
0.26571264350406
0.560919437985058
0.118496264165687
-0.638717889927052
0.527757090103807
-0.746221137869659
-0.194474172753892
-0.438220329502762
0.328085375887496
-0.602369262012434
0.635873321660778
-0.53203949783808
0.108715176032792
0.315604310534604
0.354824382537885
-0.387162652196947
0.0919017828534206
0.599634401320383
-0.6875464119966
0.841812439366195
0.460799755883844
-0.920422183395538
-0.979304806627303
-0.418998432889949
-0.859791383689228
0.469838629483686
0.215251317223925
0.0449747362590932
-0.0471546409069137
0.0180030777398697
0.786842854615914
0.737252351689869
0.250494232853633
-0.71008437611794
-0.303012947292241
0.556201045173403
-0.421577667859057
0.294671299785218
0.708283322081902
0.749600294637673
0.797303393387053
0.653543244163526
0.967724389229066
-0.848937347156461
0.652274530132968
0.857844207831904
0.763073118790001
-0.0413643200793013
0.607241216531632
0.277286587794208
0.497731453248887
0.623130974208614
-0.430772312638501
0.833687549527321
-0.0924727293650924
0.534202838867147
-0.453051920403454
-0.384121516692823
0.126453345035537
0.889004431164571
0.477915660155138
0.686750497475662
0.911486939583889
-0.502776734319814
-0.588189592962511
-0.214484742020707
0.400241953624933
-0.774373824394446
0.0859950857171009
0.922296062587917
-0.431374612055013
0.54983069241562
-0.831165587292945
-0.646257927050803
-0.543166305699583
0.577585291709223
-0.447338594138991
0.446023116146139
0.296039786731453
0.935202751101312
-0.735182947750239
-0.636535909926348
-0.336900050734091
-0.819002568413861
-0.365500052488248
0.903488890249256
0.584716115607725
0.211876168340929
-0.154491821659276
-0.879891571107899
0.864815643410857
-0.626152003737411
-0.809446510207987
-0.124154496193876
0.888526677417537
0.690064235741466
-0.626113943612843
-0.860313217965652
-0.596020370938393
0.629222654101281
-0.497196554722369
-0.952927002816535
0.248008795976533
-0.342135512254444
0.74383123036106
0.122520339245325
0.66353082152351
0.921193915253786
-0.0441379590639273
0.738033380278414
-0.206865573238543
-0.107226537568374
0.0317968302158515
-0.892913184371507
0.100081396475657
-0.175668045051294
-0.995428376231846
-0.846819981155993
0.247169582225322
-0.302893121833617
-0.295427123250768
0.517593105478909
0.588031377814928
-0.350306627632224
-0.852051236701801
0.418753173430771
-0.855226362199835
-0.824071791944915
-0.967972131556023
0.613950180549601
-0.775177767667632
0.774100999211633
0.742883274637659
0.503645836808153
-0.703965254447021
-0.911155676520045
-0.175381734945636
0.826188385209494
-0.485056671839501
-0.983563739454321
-0.478315131744899
-0.472621624039618
0.93136238842069
0.873887380462119
