-0.971446970662258
-0.612699562934756
0.190480098986564
-0.194162418901586
0.457040095800125
0.772874157191898
-0.263841936829257
-0.539886754729347
-0.527539648624347
-0.804528322942197
-0.77907540196262
0.654140420516297
-0.845063429422408
-0.574168000319924
0.716833977091326
-0.473556854597411
0.931083191294622
-0.260080716485408
-0.165864691083632
0.342759587958376
-0.794756462831813
0.396491877076985
0.52193782002518
0.69626235770978
0.804009467767567
-0.613158938182959
-0.930482645630522
-0.835425326512746
-0.724136073240843
0.385461001475967
0.907505607689691
0.878922319474306
-0.766214996206415
0.323363368047814
-0.299841108458932
0.852477040894287
-0.138410136287883
0.765802725689014
0.283123612964194
0.485992994007781
0.374728408625715
-0.406710573857775
-0.0908078378480414
-0.0251554860952746
0.366070950962794
0.777841159306023
0.223259784082181
-0.470657046161775
-0.314894593720109
0.857485585592214
-0.540905180332748
0.936880201277666
0.675362819503583
-0.86576834830559
0.900159955113469
-0.275232633581492
-0.00738233911450344
0.477060421712519
-0.573985498479904
0.392007825239867
0.700455488389413
0.97378494485244
-0.45991892885338
-0.280518180313918
0.552596981014226
-0.914973956691315
0.5265805632308
0.0192074825792276
0.461417448238677
0.827403163420476
-0.158414724428326
0.956702416640861
0.218376458058476
0.156915982123154
-0.159569930506362
-0.947540882981683
0.466420559958516
0.929897262523398
0.880092450035723
0.0570437241178105
-0.639029084841075
0.193691077137765
0.708157848273174
0.000714867069539184
0.497236727278347
0.410120242674752
0.646177244260952
-0.419052615764291
0.522101569018624
-0.275062586208828
0.656183878653009
0.0891076673204036
-0.331392804573092
0.0692919603880686
-0.588419204247762
0.725553376776176
-0.61369089873974
0.806177535408842
0.109121099368119
-0.480521595484535
-0.849111479869813
0.94749939678728
-0.257588233023086
-0.187570475369118
0.355596401814008
-0.412132330458052
-0.498970555619855
-0.614786588631139
-0.368108220874557
0.90374036473611
-0.352399685510332
0.95991284074564
0.0192390612491593
0.0336195960571004
0.992468068581307
-0.798070933975697
-0.692973152008657
-0.254478794706117
0.94436407492282
0.0805687448828502
0.42086217361382
0.799787548792197
-0.503688112334934
-0.940200467156454
-0.842704351869441
-0.926982156549016
0.449726664106166
-0.424586079032359
