-0.874887031189888
-0.77341391668819
0.548250019658731
0.169749911912205
0.701892219280271
0.56705007824806
-0.997683739622368
-0.190939062724971
0.403375219627837
0.204344380195565
-0.337577915910795
0.359271273378193
-0.322414119464528
-0.0373858094282044
0.192791979719297
0.291646145615685
0.487792974977415
0.829157606559721
0.00401160505797198
0.291952619807224
-1.01111927937411
0.558395213004142
-0.680219503541808
-0.00672588911327468
-0.106462774061792
0.497735376801855
-0.23106931106944
-0.741978358206236
-0.919349199744849
-0.741774306673127
-0.698888702736078
-0.996437915428987
0.681708318609704
-0.798491262163073
0.151189831598902
0.692580950225771
-0.247759219086211
0.38735785858417
-0.512584486522357
0.442806939725979
0.663714013423779
0.221276263996045
-0.825027512371917
-0.19444771502387
-0.849213484546669
0.592855356397764
0.201651821989489
-0.492645606844832
-0.380548049946842
0.490051981902139
-0.515459092242713
-0.0894183942483987
-0.0975002907605655
0.9567343178814
0.117155578953555
0.328618482373863
-0.26287211302416
-0.888390806930138
0.132723581232818
0.267652942302853
-0.500462618364485
-0.188413881172263
-0.823922722461682
0.247450421164965
0.49024150141608
-0.374676891006127
0.217056449838216
0.333296175185298
0.201392129978346
-0.960154669072584
0.499906758232057
0.345443378198053
0.464135389878991
-0.656164896727423
0.0429870428445283
-0.825740090121073
0.000802876224067113
-0.975231042437398
0.787450974953555
0.43970369605157
0.140037543786406
-0.712579083722574
0.011124725976888
0.126804142119699
-0.173407195914664
-0.141947650088929
0.066539332356776
-0.260201857985956
-0.306590452067066
-0.931630601808692
-0.416801764476163
-0.669840796268633
0.333870765206966
0.677108738183301
0.68912737692947
0.082630541254454
0.0209528219176903
0.641717294721714
-0.656131165156608
-0.572944068110649
-0.767960028534606
0.0294946059082046
0.66701746416852
0.585495951162832
0.536460347992823
-0.614062159303996
-0.733158970753162
-0.590144452529677
-0.988495554691152
-0.155470602176844
0.432225254151759
0.12129387036982
0.670874444914029
-0.676539608442653
0.101013685062146
-0.403813934585863
0.297983089238565
-0.670829519401403
-0.250162430926338
-0.550284471135647
0.143936197564528
0.588661297049027
0.114626886580287
0.575538122879329
-0.361739866414989
0.475215132640558
0.342263957935571
0.243696688393949
