-0.472298191365943
-0.0551853217525613
-0.763187523434376
-0.364479232961493
0.966763710918923
-0.226274210640099
-0.818817597331354
-0.765574062658597
-0.0680169126453474
-0.264519988000677
0.290418798823465
-0.931258363420788
0.273637108614734
-0.33511628506966
-0.653655218580864
0.529410903110768
-0.878639592160007
-0.000464840041980254
-0.950939911387798
-0.46063550693034
-0.660763778848305
-0.322672336216016
-0.807232298950693
0.302381941648686
0.160599344824356
-0.70362584372146
-0.945660208888924
-0.935932269426217
-0.335850453379417
-0.601605321341806
0.754354207940289
-0.412164460461329
0.465633524651933
-0.889847705381355
0.802139299189506
-0.825355935993341
0.817449962454689
0.707376654437441
-0.27326606041672
0.198705228609768
0.973089247545114
-0.368495290733649
0.316320351748237
-0.441020359950315
0.405189056875253
-0.537734956431883
0.737455272920309
0.460788425255343
0.346081426963443
0.268603630699917
0.131507822819848
0.978874345978071
-0.829687589233221
0.510125842729444
-0.00358154750826983
-0.195874996733601
1.02216416204567
0.742851961535952
0.330452941500503
-0.190059530354743
0.963134312160503
-0.361771677384055
0.981016351170093
-0.180038188113954
0.0748672801764329
-0.0046510153740902
-0.859113268239846
0.391030704894273
-0.223218615585266
-0.589396280717917
-0.013077900763935
0.903633982364698
0.676360883104835
0.013124723184539
-0.414781908433387
0.745879905633448
0.02097679246341
-0.844220756851098
0.495047847242338
0.161381894998293
0.00542347457074472
0.715278181079004
-0.32076683859776
-0.372169252472467
0.27351897283727
0.746790746409437
-0.0312342284640758
-0.618382685062071
-0.0815769896674583
0.882169475844858
-0.882199372297798
0.384182855951901
-0.438990698212155
-0.574134753812606
0.68075757335991
-0.135295450074046
-0.884890161225989
-0.0380333854808884
-0.594438865779454
-0.103308328752509
0.708086702393736
0.770260049196887
0.12579970589111
-0.887450336357018
-0.563250395587641
-0.426616173252164
-0.41903694197612
0.261591369977527
-0.259170352909029
0.191547845798683
-0.571636792070244
0.336605272051454
-0.165190122703435
0.536316557519742
0.0486260675027969
0.670785635080725
-0.144123950860053
-0.325882890776095
-0.239813685007703
0.738663630829762
0.822628586789295
-0.575280776068272
0.878759311648745
-0.716305695517554
-0.977140074065176
-0.750568514969125
0.346244912164216
-0.222639382168477
