0.977690540653206
-0.25087164928072
-0.688055646383755
0.601535302697602
-0.43902217516233
0.127809221953804
0.0939426452697563
0.489026929189948
-0.255246561267314
0.47804574760957
0.80102056021845
0.661580385098541
0.419741551927504
0.0151770319968265
0.31620275751787
-0.391209829793279
-0.879592095649016
0.415771841533742
0.132001056542841
0.543263048341663
-0.898560795876641
-0.762597199343334
-0.233996608956465
-0.787673843990677
0.686883207408295
-0.593775808532177
-0.18808719836513
0.189048371075716
0.826030919304386
-0.233880419777999
0.710774718221334
0.46629564581044
-0.601981109887312
0.290321894828659
-0.517952999570536
0.519357425781266
0.614710331450636
0.890231647394414
-0.895882636375542
-0.0902613698919799
0.556249187989413
-0.223924398027402
0.964510218813644
0.931097517489019
-0.668095001971815
-0.868745726845373
-0.582702231998826
0.33539555344602
-0.0239735850252553
-0.258854832703786
-0.0984204371358446
0.530787066206332
-0.761826876753769
0.868829517520269
0.763799437165696
-0.0259345683235592
-0.411283141312725
0.03098891198444
0.539442678596943
-0.359335965063313
0.11617521393633
-0.572055068843772
-0.311040178696553
0.406748649963304
0.290984525769274
-0.110619036605659
-0.444167423095672
0.0914567597670944
-0.819483722721681
-0.314219580689353
0.836290192865471
0.00760060092953446
0.767749984863172
-0.740753397988517
0.814914582703241
0.303710534669513
-0.0496633314754915
-0.373302664826933
0.363224279295426
-0.404762953477053
-0.209625777195571
0.272835255129092
0.258764503219423
0.64688697670664
0.316652737065828
-0.0245585795603812
-0.0102187006613902
-0.715625120456314
0.346446465533563
0.680347762908234
-0.429296750763051
-0.182466868827685
0.667604416935678
-0.842493843625667
-0.573024752485938
0.114294024655004
-0.148541643587017
-0.531216687147869
-0.451374528072382
-0.512926070458817
0.935797851351083
-0.474597949458265
0.228525522962586
-0.19743205709606
-0.272037120679819
-0.489007733827869
-0.384914933408138
0.458061606780871
0.171417058623638
0.851362262464094
0.89438433791706
-0.63621128587875
-0.180004353060176
-0.206543716836156
-0.93186386349324
-0.701946293228654
0.667135800252581
-0.855495502006205
0.59197712399232
0.982306252131659
-0.233318913965154
0.14857697269804
0.903029487516775
-0.801385900939924
-0.270704220182802
0.848292574492217
0.0562340861400994
-0.2928694493117
