0.437006145378625
0.475907627540732
-0.246663088702605
-0.568745291095672
-0.797034310942759
-0.0414804297534442
0.0372941235546901
0.884319070129091
-0.122469337789505
0.384789534292905
-0.347219248568668
-0.731407205989326
-0.0939791284218601
0.535795417288041
-0.25293977956111
0.7063531782319
0.577545138043621
0.188331718291347
-0.373886348696626
-0.639167641233957
-0.417404589493647
0.441332362459142
0.0233903969301789
-0.648842845039772
0.962923820674581
0.490565235071589
0.259276806180999
0.372764461106389
0.910342114742877
0.318134728002556
-0.430915277809298
0.541854358511564
0.920960428505592
0.910060716418794
-0.0871201474733805
-0.871406569906711
-0.430274713787572
-0.879394374667131
0.388729948005873
0.389027095098327
0.0081064424017511
0.574687536072493
-0.189132363051451
0.051253166504362
0.145035269204122
-0.0569810190802447
-0.539245916796941
0.852356464916713
0.657117833979334
-0.716466443270207
-0.844365070972207
-0.495000865029065
0.780541332049589
-0.534671711296598
-0.410905093086246
0.200506522471765
-0.427237829226422
-0.828166296944609
0.258838704913215
0.67813302805108
0.69845035231499
-0.128838559815043
-0.457882299751597
-0.456857100970325
0.443916916961479
0.733428358611661
-0.57561486611894
0.767229782110646
0.169521894829865
0.896871588158443
0.338215190418259
-0.464982271725445
0.847039571912739
-0.21395202225078
0.428844859002903
-0.549878813241828
0.0147567977656033
0.42369658399472
0.811400826045728
0.0207538975961763
-0.423298219409918
0.261909610008511
0.285814102823554
0.739956947844987
0.854704172625017
0.499907419408793
0.5358558131799
0.698740114963825
-0.559778165870366
-0.671072845709369
-0.364744897500714
-0.958206680818463
-0.0331697769776676
-0.324918081434598
0.867204639472599
0.381458269067643
-0.523775519816914
0.802498559950013
0.21231258625011
-0.278147587690384
0.913711102543406
0.917425472911911
0.476160557120323
-0.840507532063919
-0.565762526219957
0.455549321421258
0.579869346792005
-0.179183640631186
0.108588210839497
0.262879670466567
-0.79391032205666
0.526124603993956
0.553977120757012
0.401813436401223
-0.703322215893998
-0.772522966552087
0.36361447069841
0.597687228050771
-0.177802264466457
0.101321508411402
-0.924679047970909
-0.488179449880843
-0.525002789821061
0.915041536036974
0.914014698147236
0.860323214056506
-0.303736454811161
0.263086471537277
-0.752856743444515
0.946912180018617
-0.427743149688696
0.524852805765222
0.837898755521297
-0.809276915612873
-0.416512474451773
0.564823307203086
0.54811833904849
0.936704005194274
-0.28669635524733
0.637087063298597
-0.533018143975643
0.959148791282107
-0.279533416170684
0.668228433245957
-0.259770655355273
-0.88950108364253
-0.0562508592557364
0.849618930556582
0.433418068338528
-0.218187137920936
0.412221873924674
-0.353547791062034
-0.545198899315793
-0.299802790586655
-0.723259209531149
0.119320163782568
-0.912244974485381
-0.361579459318411
-0.559068167630453
0.23097792442899
-0.119822857432973
-0.728414794322905
-0.779456265374738
0.486357242104517
-0.659095364140179
-0.98761822487781
0.947222557788923
-0.994175205997914
-0.670054386763507
-0.688368228526178
0.856498064981764
0.337701132711037
0.0137301748558329
-0.985780429523064
0.862421592337087
0.41082808260777
-0.833661333521129
0.631011110804105
0.08231892215483
0.589264780801302
-0.127378917567259
0.199754732145896
0.161921281943268
0.784887518492919
-0.189718951817112
-0.207048420659542
0.153421290943449
-0.449762481473914
0.807379617984844
0.147734561984549
-0.107442244986306
-0.667618235704601
0.0268368576855454
0.707518937361779
0.793682254050404
0.541685218729
-0.388626787921676
0.407489605242512
0.717492335432668
-0.368956434898552
0.291257182942182
-0.964939768425386
0.00555435252543805
-0.328980495371867
0.189972264924187
0.377998232989051
0.714489490410535
-0.298514619040283
0.0079132170360906
-0.291166383554498
-0.459230527691036
0.215076407015916
0.0380144634132355
0.363726452298595
-0.335853810173238
-0.106893427577376
-0.263679215927447
-0.702431647199766
0.835813051206917
0.431975921558041
-0.618193833492991
-0.47457495892736
-1.01742404882026
0.705097432007807
0.442131690413227
-0.31931804573175
-0.682709921063288
0.615842331263766
0.691064576188856
-0.128445939886867
0.288323055429353
0.362920182939788
-0.076101569868134
0.00778598551027192
-0.156598270797644
-0.665465190861024
0.17356563020188
0.513033064195302
-0.311717514211176
0.283540135927068
0.0983767956082197
0.536124325295459
-0.652792569319181
0.353703079841574
0.425483939485732
-0.3590016298826
-0.0422310285640588
-0.507422402006971
-0.230245200505859
-0.219988672575727
0.495723075764486
0.68473045749464
-0.299197140250394
-0.0614533653722279
0.318209018851172
-0.688461248491799
