0.818140043889442
-0.102790217967659
0.771901491940623
-0.986346605913166
-0.102457127988612
-0.914678568886196
-0.113491119092776
0.504616729989498
-0.169135046327153
0.236995185794171
-0.566057196225709
-0.23651077567994
0.948603276794643
-0.175446098796819
0.522898760941168
-0.547990175435514
-0.864775099206661
-0.652328480047241
0.266642378864165
0.829691649208012
0.224217139766844
0.430594098290378
0.401975556564322
-0.383247208914355
0.953491754484144
0.813860779308457
-0.527149440009713
-0.662534065090802
-0.45582848979061
0.599628155848639
-0.0699844526149726
-0.223834976553869
0.549461372624141
0.145806654214213
0.731294690687289
-0.663614651549209
0.56827244016046
0.601318222616266
-0.386752065091496
0.943791598888665
0.796423514029007
0.496577287988153
0.431030195995241
-0.964761952406876
-0.548730083734349
-0.476839378321758
0.876365224416791
-0.218073354050617
-0.435631178924721
-0.840154283817832
-0.219463919657306
-0.418391085983947
0.432203243909769
0.471284468707027
-0.926451569224958
-0.900641905393978
0.715501504771042
-0.385268013736792
0.223585965483601
-0.256031819211519
0.051403543000935
-0.306335483542563
0.182377497063532
-0.901254469740878
0.335901946446289
0.216506859631349
-0.792742338037574
0.549618650728075
-0.0274469079372066
-0.109587790821199
-0.0844461847934991
0.623901230980344
0.773552345800881
0.218453625244861
-0.787342490863798
0.406279643727439
0.513850399499833
-0.947704328894101
-0.192283986863185
0.879807807262732
-0.538900517307477
-0.899953174174671
-0.564415773638944
-0.683835585354815
-0.819163934533575
0.110656657898639
0.169640829419334
0.224114053171243
-0.494730800644504
0.0839169464475484
0.4420848834815
-0.288612457937
-0.257017297291894
-0.183977039577764
-0.496804445076178
0.0437408178439291
-0.670117916295546
0.349194360299454
-0.313392238774372
-0.154740376096966
-0.406108734476507
-0.179224917149877
-0.532198978219405
0.830063429219128
-0.0826323821170854
0.970027316239067
0.958803718196389
-0.164563438820938
0.797138912679193
0.367397653344044
-0.734237861285995
-0.780062459725743
-0.576753922252507
0.440705405663173
-0.929224420312746
0.362719935911078
-0.804268303633211
-0.771238566419218
0.283290646161252
0.211920222916306
-0.759422632308478
0.696017658094069
0.617867060396199
0.315085866303592
0.0171526073141063
0.534581285712274
-0.06477431105953
-0.591609613969577
0.0645446110324938
-0.374006062893325
-0.252706602843362
-0.101118547218442
-0.378510115102609
-0.296220921803718
-0.648902608937698
0.491984056835657
0.792851957775404
-0.0367467009250097
-0.939595789560183
-0.806473427970632
0.676509934257383
0.584797601842637
-0.36697386919559
-0.822364372171224
0.751737743589327
0.581843988628463
-0.493736399804803
-0.0741979152521592
0.806366966131641
-0.794743427245845
0.711746516929035
0.919579762335978
0.237012801846887
0.977240508769513
-0.604018179145452
0.00281547892675542
0.128226684342621
0.135028594230405
-0.72973859965644
0.123708287611521
-0.322125745537391
0.475489356108111
0.159008536089874
0.110186942858397
-0.346639482849449
0.261481449525357
0.227799441512112
-0.543110894008648
0.23960736664331
-0.984980108523807
-0.45585930835141
-0.402886822652333
-0.566818304186113
0.726592446786707
0.525923554721177
0.470101251624261
0.94038197734393
-0.950604488048872
-0.576074666659837
0.28941262336479
-0.419511947040433
0.065939416843247
0.533879786415037
0.366673761427464
0.277354587211449
-0.408056912009254
0.762106501728995
-0.791758056732459
0.593196521253424
0.940513762435464
0.986872242385506
0.410582273019594
0.602233656926021
-0.672489290551337
0.698869776407462
-0.667180720597561
0.574544999924079
-0.928600141792614
-0.255932236740232
-0.0258929291730634
0.413375784771227
0.858633585424946
-0.964431730844347
0.949686109715781
0.162874896405522
0.522927302302608
1.00677527204403
-0.466554897916387
0.441600205176255
-0.315143930730505
0.13385764154659
-0.475666113643291
0.308473772900846
-0.913900301647946
-0.0463787743296555
-0.111766023328499
-0.0238295065205675
-0.646365376675483
-0.420148513307401
0.40639573642411
-0.767414169891955
0.958101588323506
-0.185542123588819
-0.750817011328206
0.7670096466511
0.543688947879257
0.222816002527696
0.655193778892223
-0.903216122768773
-0.242916661870126
-0.510959959307351
-0.691364864183613
0.913698695076373
0.261989046353701
0.661882425572282
0.889714833075858
-0.0637587071135361
0.482912308039722
-0.942665961283577
-0.207817137052076
0.344133487564329
-0.560201230247154
0.91288400529136
0.376390639637973
0.215141250245676
0.209477812874354
0.510231590040919
-0.449321185869238
-0.0395311357589236
-0.795885328551414
-0.904930648861521
0.118019525581889
0.636926726924404
0.023158624494107
-0.414862939190285
0.619586246260245
