-0.266444422572959
0.383610749701316
-0.887013188822186
0.197372699521489
0.275045441961668
0.659028836569085
0.386625072750242
0.614408951486436
0.816315210260742
-0.588731771893078
-0.387951063156186
0.250261865453475
-0.79152709042163
-0.710227434370164
0.477340667865545
0.419392931965917
0.725205270985619
-0.32757363375583
0.835078163024786
-0.0936765146615649
-0.410302956279481
0.00713583332610316
-0.329415940994148
-0.227317880794493
0.473441220061148
-0.689145402986547
0.360981995470134
-0.883883160023882
-0.0335444727980066
0.140414212054707
-0.206926559879926
-0.278698459044529
-0.793062676269355
0.188367015516587
-0.865462120607171
0.858108888400647
0.169709685608293
-0.962055363010948
-0.736984395563175
-0.260782992474411
0.721457822778546
0.333212514989117
0.797055965807352
0.0887953843895357
-0.847074964107434
0.0516734469198304
0.949904529513399
0.494254730297923
-0.359741189511283
0.640074448069309
-0.310230659752032
0.947828148193394
-0.925660789400868
0.153459570054484
0.590321248383328
-0.986708180381095
-0.251357512391174
-0.475432781664841
0.457819895090204
0.948447493695208
-0.187537192596649
0.936718359134567
0.801239240755734
-0.0754414300234749
0.668701085301181
0.493986112350527
0.528150053668681
-0.632856992954015
-0.201527619169599
0.374074059410173
0.641975705561056
-0.106512816701936
0.717992312757875
0.80665004909007
-0.581158171644569
0.0655019425521214
0.692991956477597
-0.82794691591618
0.0677901226537261
-0.0374884855166378
-0.0597741084356751
0.731444078278071
0.419339209114201
0.783997071310529
-0.359991080270614
0.364638504924575
0.171490068713633
-0.228455997320233
0.375197887134944
-0.310106496647558
0.419229888786487
-0.39853113930254
0.910121344439174
-0.882376060682839
-0.45439852057706
-0.502198215165498
0.0131478550289111
0.460143306268635
0.668375172954043
-0.689545469532054
-0.0869689246617942
0.0606959474346012
-0.251326585670704
0.262569281052435
-0.301933011906356
0.261323025958499
-0.457227936331994
0.208633560300507
-0.94041331857929
-0.447890804086082
0.674317871583748
0.141183141570917
-0.0717970790623996
-0.923307296135655
0.766046491069063
-0.0314006176042993
0.0841013399196878
-0.925683112660511
-0.632202211974113
0.576602902187195
-0.0195531637509101
-0.698525452757383
0.805654902902359
0.0650085454715367
0.619529488793023
-0.827785970689258
-0.661862096308874
-0.100239867006438
-0.114407204244667
0.31086589753215
0.199934826914207
-0.295625848784342
0.847592809423963
-0.567266717316787
0.763583778435011
-0.580648863560333
-0.223235876426568
0.426576097972704
0.796964051707662
-0.547838897212275
0.33872227258756
0.509316844714702
-0.906450662613206
-0.0738354718796754
0.0947148344285796
-0.177506126092984
-0.0579740574668893
0.822759612868546
-0.407423579530973
0.129710006264635
-0.89281623443733
0.638431363431822
0.0189829651710678
-0.706086338462782
0.26057523237188
0.193494566248439
-0.340013436071055
-0.387840238968776
0.789735900303719
0.825587423564045
-0.971129328089852
-0.0655137000994371
0.81125574716995
0.456914926087592
-0.687597397502322
0.558813987875043
-0.538124666176718
0.603934520534104
0.566872436799664
-0.807727080001035
0.266852739068157
-0.258588114307208
0.909957916830691
-0.950083947186052
0.214205398613238
0.615394272844712
0.881547876040217
0.0466800027147061
0.112242614682624
0.0798939464413455
0.544218667683048
0.190951793534931
-0.692649896919908
0.602259686411247
-0.725164498748087
-0.908618593002137
-0.552382993766436
0.597044005556116
-0.894960883032444
-0.139887928949107
-0.226402470248832
0.917247359408243
-0.217726406517239
-0.308902052011772
-0.850603033560244
-0.284469554925387
-0.0256779399075669
0.896904468154795
-0.698086055248619
0.111777173037744
-0.914194435463375
0.219994473500602
-0.515483063949677
0.645793753040505
0.0449341265926167
-0.07860333998108
-0.189414185322108
-0.172063506686959
0.283462426580535
0.566145464100947
-0.571419585276002
0.0937437270214619
-0.460358960442155
-0.246195841575782
-0.994914079167412
0.0925888066423252
0.278827176861919
-0.31410347210982
-0.039359564565245
0.711192778871
0.541947616989661
0.0197687592975408
-0.716681716604423
0.877387853439273
0.757459961829076
-0.178272750556797
0.824085800907426
0.0730277585806878
0.532606799709066
-0.918375520483229
-0.946458017849124
-0.836422197232282
0.139893858759083
-0.794107316911376
0.0653709041883
0.954049279158847
-0.68702164447785
-0.563727013113171
-0.116138637575061
-0.833819724312975
0.413963697440673
-0.449211863468277
0.63842357775312
0.275959792927567
-0.123806463545173
0.244362503887194
-0.133235848456811
0.24308448037811
-0.604596551885546
0.486483680285116
0.949921911770192
-0.948502671194116
0.902688436712866
0.345391449076233
-0.267565019547856
0.670091597981429
