0.99626394065507
0.633844201356042
-0.653197176604583
-0.629176947252264
0.00440660622361334
-0.052817100121175
0.534732530667919
0.520186011106758
-0.45432278442376
-0.0577512425865905
-0.137566787404069
-0.442514741110953
0.0682168304889742
-0.490855866973505
-0.70514898125738
0.904820602191487
0.242587649218607
0.627983296675975
0.465363305058886
-0.814364167196899
0.34196246988402
0.388371789780675
0.972091758293762
0.325835258137508
0.391265066423598
0.0190262965252882
0.245839158763043
-0.540174507781099
-0.73102221965802
-0.164180795760559
-0.542984184263923
-0.723283872913953
-0.145511301042533
0.715950877485919
0.624230129332406
-0.63143069678942
0.17338900767492
0.733095304457635
0.329438964747939
0.714775443645311
-0.969733058900765
-0.367136756475968
0.0841367658432483
0.932972028229192
-0.431629252627575
-0.662395829053499
0.557888569653922
-0.552197351574215
-0.535896915532862
0.336290283032567
0.417921547716571
-0.131807410382089
0.481498291388962
0.0542762537108984
-0.264613460365835
-0.431196584526739
-0.657174956221059
0.652446867382153
-0.966679400441309
0.844009409771134
0.165845687687303
-0.0374044318641553
0.754909231848237
-0.0379197239291036
0.290287765075596
-0.295146373050465
0.29162523453906
0.878274859068136
-0.549961710513613
-0.358321547707981
-0.886926943797609
-0.477515658497798
0.658317036658927
-0.657842035337826
-0.559190558391229
0.344406689002247
0.0365482596790912
0.120322244291729
-0.763300022701021
-0.541331031911791
-0.021207600427518
0.802779645120315
0.809748873989723
-0.225211816839161
0.125326951969573
-0.574281122889924
-0.303975826685169
-0.289684792422931
-0.8869518751074
-0.0636830695361741
0.0385844877442527
-0.392451807008434
0.628587861309606
-0.604625339270634
0.13371502587049
0.57801042735799
0.496598473568771
-0.207490859153129
0.923970538634503
-0.181803690559548
-0.157124066149982
0.50453874382187
-0.411963672822069
0.0865980237035322
0.818781486647042
0.254463750207229
-0.13906325928233
-0.464477548940661
-0.787523992371265
0.362498274489778
-0.116756066682536
-0.206521000979262
-0.657319065017351
0.988142752429306
0.333776653126922
-0.0943801650117721
0.568833778713622
0.452757051470077
-0.342942298381592
0.257208728960011
-0.0820772447754006
0.7346437963984
-0.286292976977685
-0.574087054045858
0.742373210419239
0.989076664958698
0.0820903047368848
-0.175137640315176
