0.230261815786514
0.940995807767601
0.499581580783085
-0.0656526060435442
-0.559170071945816
-0.680374013328498
-0.607797220139404
-0.149331093528994
0.0645290320441145
-0.622141268449168
-0.963448157062918
0.906782617417064
0.412529671254787
-0.301962130555059
0.678659293636495
-0.606529618326404
0.530636756098592
0.457765252769097
0.388344204824194
0.518002882093114
-0.470402243324729
-0.0470537312981299
0.207684015777784
-0.121470950636258
0.30258777973112
-0.203824845399982
-0.558909078468756
-0.950229687486226
0.65355078799248
0.250476155418634
-0.854245023729412
0.276360232019131
0.499662214139318
0.664480186217286
-0.644799399591442
-0.923734142036021
-0.626239630411129
-0.814562282152073
0.317632021892727
-0.889745368797272
-0.626000792231556
-0.227416758323371
-0.966275174518439
-0.913580502792444
0.174800448841708
-0.562945582726836
-0.300879183908726
-0.801287888736332
0.243272564189025
-0.150378046238245
-0.192215295235576
0.101928743447873
0.251090785707116
-0.0701607099284447
0.530860249540486
0.916431192397965
0.920906616361304
-0.0351336247044037
-0.743873612315818
-0.34806392722561
-0.418877342446151
0.567877456247055
0.258328948850396
0.314791122563997
-0.358980077898922
0.416502985048222
-0.087835165333068
0.969171648979019
-0.913010867657563
0.829880744714795
-0.107400667924987
0.767382977498135
-0.955077429390812
-0.197716279720986
0.278756252311449
-0.387563498052396
-0.190493496370435
-0.46144315512185
-0.0573581485609843
-0.603277494125232
0.373386018225796
0.780446995413057
-0.514056810479814
0.780534330712813
0.231301381393991
-0.269746474312502
-0.948234483823081
0.684320746758823
0.670611669409149
0.983437258788844
-0.655691352949781
-0.706410209532025
0.939450565736809
-0.418545255169997
0.4853018426362
-0.472031192228134
-0.303556423878479
-0.970620418148198
0.6076188418584
-0.64229652118822
0.0725523431410456
-0.52454134051077
0.180540531933466
-0.991810938047618
0.971338913985137
0.0160788799545818
-0.106844394364878
-0.647729663461995
-0.249208884397511
0.165667427700805
0.0141739104476664
-0.645694277275112
-0.554336873404022
0.0239265669874107
-0.989340718373397
-0.399387137387601
0.232865525238821
-0.257165064377685
0.855726536295996
0.590630967571389
-0.578931374339304
-0.328523792441482
-0.292786313792815
0.4191444143024
0.219756364137028
-0.714159299632256
-0.385731584128764
-0.812609774692491
