-0.0295921003890006
0.655859970029491
-0.363461244620087
0.562013172096871
-0.671349619158839
-0.74286512350919
0.38454794783658
-0.139185044765527
0.0778605736955723
-0.0614002173401777
0.242400383842595
0.218017260055849
-0.474634614538134
0.385330228991204
-0.346146231428648
-0.162945602530602
0.96641424371199
-0.70493013760165
-0.159949975675786
-0.375214933824013
-0.915975521455668
0.0166086749250199
-0.566002490191989
0.725035173689022
-0.61398507043467
0.103866299015161
-0.783132476241348
0.58315787335899
-0.531511773234018
-0.547632697965014
0.200092094833548
0.94107921197157
0.788595782522553
-0.529506204294194
-0.0692368827235317
0.905560341287725
-0.698986583717666
0.611554450160254
0.446455986481008
0.041135953196994
0.997333683713765
-0.172026144241071
-0.0200424734774236
0.573506223727733
-0.642065627349287
-0.627280264075549
0.877584624203713
0.295590133297568
0.483587800370403
-0.491200173229253
0.848754172389251
-0.812985168679003
0.137439298980894
-0.291495859431426
-0.182681575829711
-0.122625654489191
0.374524716610025
-0.417754402492823
0.574652040950686
0.592338765786268
0.957158253067184
0.700071007248391
-0.831211908074958
-0.596201183897194
0.218168476144385
0.685035851099656
-0.121626807294084
0.368789116356471
0.795727925550916
-0.287858020644131
-0.588552058640322
-0.624811923143429
-0.402956187605432
-0.467538006222389
0.806665440573599
0.861133835551647
-0.0764108349658745
-0.0672571795482571
-0.378988786318502
-0.191145170521992
-0.809345764432542
0.358916887649414
-0.153008716858911
0.655476041196293
-0.227902513108993
0.449597902707541
-0.904413879190733
0.686009167757881
0.987956811181712
-0.670288450193202
-0.175970076340531
-0.534895626512915
0.198980613715117
-0.638310153194062
-0.0443591114539229
-0.395425843070678
-0.6731692704617
-0.0759331414233409
0.416517157865272
0.709910752567555
-0.341512169919027
0.00552023113824976
0.506559181724898
-0.854201833035783
0.813665390523272
-0.128234242160765
0.428868583878842
-0.935326170846635
-0.771572196632709
-0.556142674156223
0.437189849846318
0.848498484930824
0.103518064637338
-0.0328588190535895
-0.881277927593669
0.864823477614124
0.325832427636578
0.125717422261146
0.91031511163518
-0.856220282834284
0.343456360616749
-0.700926553196345
0.516693193728624
0.575512656118878
-0.616734047500608
-0.493932847461726
-0.402700314723625
-0.672025974338695
-0.67722331733808
0.872907618206175
0.811150441686836
-0.10613178438953
-0.0352023385384558
0.331507176980546
-0.64084004096033
-0.291761739573171
-0.212361792618304
0.146377527882456
0.0424824193512091
0.33151708067499
-0.263464864951529
0.1126299280073
0.0204076697691286
-0.420095103226492
-0.44406758473902
-0.028614332292162
0.699611548019229
0.418584366136192
-0.834672070330187
0.928888555373726
-0.495913054399611
-0.895303515772358
-0.678791184843291
0.93898207554317
-0.561914034024358
-0.0178798270016671
-0.122717334984024
-0.103444227034008
0.247814198954374
0.291175964202314
0.320702499767869
0.0719983621882914
-0.0144838989348828
0.882434339936383
0.327121756043406
0.796819041557488
-0.0179908760345695
-0.381061609902435
0.181586824301916
-0.833613111487512
0.476325322989647
-0.401481221000809
-0.534488981809104
0.435735479039533
-0.798645725671504
-1.02435854676339
-0.222701008480055
-0.584421718230272
-0.224065546557018
0.278581766929191
-0.53152333333685
-0.130044133942377
0.846024252414984
0.697764561251993
0.822346235208683
-0.11705871943682
0.640785932993816
-0.425730155715273
-0.714502197477219
-0.429328327642371
-0.558803353361477
0.0491240912151098
-0.205002826264968
0.0506403941298217
-0.584468972555025
0.744841286296166
0.246802338351472
-0.295671743143288
-0.390734290799279
-0.710849574872143
-0.373578105222378
-0.710972031015537
0.334400139266255
0.349748063982538
1.0145330429741
-0.0308821656194491
0.208483323299423
-0.186625230060067
-0.857358091564893
-0.572647972893579
-0.3897246458159
-0.929169610896484
0.914718779672957
-0.751095639014917
-0.698895799955343
-0.513897778247712
0.801529954310173
-0.475323425225477
-0.231973945147986
-0.447534363109718
0.948240321747572
0.327577720857956
0.226341336120927
-0.212855987322977
0.504161575812831
-0.374131099099898
-0.696814572052925
0.600484250039467
0.495404358730166
-0.866823636901182
-0.317949538675137
-0.329711617850467
-0.59785578892116
-0.37725571996845
-0.86829281122391
0.680596724054127
-0.513277918482049
-0.928053437980243
-0.751350521304908
1.03354483539416
-0.100310510221046
0.683598123665515
0.228360448175465
-0.80682742323733
-0.187861343839421
0.783399289446142
-0.580322964248333
-0.988131158524214
0.279934479771566
0.44665045837254
0.419651158005766
-0.724400344980932
-0.69744797330615
0.512226109616578
-0.967296935371347
0.676123925514058
