0.813454844536489
-0.233842867489563
-0.623782555172791
0.318772597621907
0.0901691357742036
-0.649017442578527
-0.460718084892309
-0.424137396830121
0.984074403072656
-0.662360224966664
0.108754236468847
-0.0227585154738715
0.768551080414536
0.71069761327402
0.482075630970761
0.571794384596452
0.809044492448313
0.164065172868783
-0.153359142934402
-0.972592111538338
0.162811659505176
-0.30761661544752
-0.260203293051601
0.956391196951793
-0.666595145688353
-0.361216291010077
0.610600613220358
-0.527828779650477
-0.274705050497585
-0.250513137237082
0.923868949678175
0.999141194282553
-0.798668408037008
0.139611207019447
-0.0455505414067686
-0.866697824800163
-0.893800221509987
0.956813293801131
-0.460074890829409
0.929441701322966
0.574553522232371
-0.962403971422207
-0.933823488798401
0.0446406978244856
-0.457740756637353
0.0282012842277619
-0.10424430324757
-0.33791849572096
0.0765791051220518
0.500339238767143
0.351854418229358
0.341072960490751
0.544990768147159
0.160179871828605
-0.972881387816094
0.730714103700911
-0.890440626236147
0.434210042881823
0.381949071889582
-0.0611651488081268
-0.569201109320348
-0.77373382414335
-0.12066376405711
0.169205398973967
0.289952836979421
-0.916493382800768
-0.281370673817055
0.56676694039398
0.634148908902137
-0.921195322823423
-0.730770072322604
-0.922360456978546
0.485290634563431
-0.396195735971484
-0.423284595598385
-0.713237812486633
-0.0814435425829386
-0.0706590163662414
0.968734802853376
-0.301448844431359
0.00890868876168136
0.142136263983958
0.451993782275306
-0.509399323982465
-0.536436813009011
-0.312136094675722
0.272339514616889
0.651770787895499
0.397965988961413
-0.0421861828852406
0.277501085796995
0.138892722069059
0.452574781520279
0.215349978745636
-0.937991251282281
-0.742308419179276
0.630367317995126
-0.859413609191903
0.199901427880441
-0.928657173394411
0.635420084473891
0.135888997379223
0.57996879199055
0.371927955260937
-0.867045694547769
-0.981986477502154
0.846044696970532
0.582068577244593
-0.124990755194625
-0.263903710925153
0.85273707804467
-0.408775654847019
0.889623724769857
0.248253745951949
-0.346576215300458
-0.388149560315916
-0.308644403949309
-0.353382325922107
0.920464110542692
0.16677775113078
0.704243724760423
-0.320697930640768
0.356404943283718
0.141975333334777
-0.159442755853228
0.30150261109535
-0.0505160199944283
0.961779314684539
0.710004250982578
-0.922383791168358
-0.925978492540145
-0.610268520707594
0.257569297222348
0.397526416272517
-0.309924264280345
0.396944126114397
-0.653979708399793
0.323954461090648
0.388021577220839
0.421107111744398
-0.95342447064189
0.796201327164377
-0.767802453451073
0.892867650946734
-0.944044194650004
-0.361131761182379
-0.617436180391518
-0.281877425142672
0.644267322323319
-0.76951841258197
0.184980585085849
-0.00926773853646493
-0.853069443295685
0.282285556795091
-0.643217056932215
-0.0472229868117124
0.713771083176413
0.679167090914923
0.262653433854769
-0.39515580865289
-0.175718078143874
0.598019048221611
0.255007686205777
0.943932345855255
-0.168018010241161
0.0820395398514691
-0.585705306193453
-0.0925030524927743
-0.937029268566906
0.468653849900248
0.703039801264501
0.165826005945279
-0.134507522509384
0.807273660629457
-0.070998239521208
0.314870356236287
0.749427426350114
-0.945471801978054
0.780873627070938
-0.741803054905191
0.339664396559285
-0.434967391051913
-0.130722758787107
-0.0458985701257206
0.849154470478511
0.570476947904152
-0.282275392825634
0.802756494615868
-0.142660813948736
0.49860637825103
-0.573104150350054
-0.600385282221635
-0.86826678580127
0.610133003164496
-0.332241390390949
-0.957439859389401
-0.595431494768134
0.147767139557336
0.0274683077054341
-0.773242319459804
0.0370855300871133
-0.65428612786517
0.528560316611496
-0.286082366767015
-0.215524366190458
0.940636207335086
-0.351628503813584
0.535814329465544
-0.272788779005384
-0.33507560961
-0.583791916825596
-0.916796826635856
-0.576419654353314
-0.0606810289564923
-0.80862652460351
0.727446086964009
0.952733376284982
0.38555134756166
-0.273471585622954
0.0823489889298341
-0.528113608331859
-0.709961901481439
-0.0898205348345014
-0.464719090717319
-0.874004475293349
-0.443681575687872
0.384504837107265
-0.193396784288628
0.322633172266135
-0.485777928003748
-0.795824836702031
-0.300639437798555
0.563883815869678
-0.101828772704187
0.395204977008937
0.654692767992473
-0.424607465316125
-0.430358875023705
0.890550434574733
0.802059068164809
0.314374026152214
-0.464330542153559
0.371124495322841
0.165436610844575
-0.293494320623004
0.579338036595269
0.105453316487039
0.659855843398325
0.636774027542727
-0.416536389426275
-0.35714340293124
-0.574439797004072
-0.334043018213818
-0.780542104283314
-0.727113130296027
0.0062963671853598
