-0.826726194624193
0.310283683940752
-0.857138926772404
-0.959553629991343
-0.970791491824618
0.416311186822617
-0.561606030536004
0.290393752845244
0.53474380974601
-0.996628832596584
0.61367187636
0.52929939365429
-0.121118165983661
-0.873933583248266
0.95621041836127
-0.248138532058622
-0.982883278227308
0.0676628820946296
-0.711441123092383
0.0762984541373591
-0.857518916361638
-0.8373872622683
0.0802293643386711
-0.741323863593492
0.903153541891789
0.817622163497606
-0.402631528950958
-0.169258370687237
-0.650547286080771
-0.511732164006832
-0.235931418803322
-0.168178342765912
0.839761787202963
0.782676910853941
0.453185957979919
0.203117005007705
-0.48182690757658
0.83516257449391
0.106382741920353
0.900756968198669
0.599990327223176
0.406260160936265
0.288673772740364
-0.730518227748172
-0.613774867744716
0.791200812192663
0.226285254960582
-0.409879478811576
0.817011565504039
0.678181798729442
0.333753036865488
-0.719979276091585
0.749373194785448
0.259677917242406
0.795958896784959
0.4103943753837
-0.591390570371215
-0.401357491604304
0.653451814467178
0.869716829087985
-0.740348325597237
0.2412175396435
-0.236470094228695
0.249838447711167
0.068479871500024
0.663394962644852
-0.0845882107753308
0.468957266083107
0.247397864197449
0.532202927066849
-0.532370639671541
0.613634246399054
-0.679390022699189
-0.739368109754122
0.0875151350991396
0.645880876723004
0.660785271284529
0.424892448963138
-0.864946603119991
-0.901227216976363
0.851897355680898
0.422718725840832
0.528460502878275
-0.285230286630257
-0.437754493279981
-0.397977380691651
0.335814316047437
0.222055485227711
0.00283778888175943
-0.128253348046336
0.914378791152922
-0.681847889837139
-0.724007133149711
0.560996854951256
-0.955077236941904
0.955747324433588
0.572694904499871
-0.112249585222353
-0.936073765180795
-0.4477078828479
0.696310746462841
0.296627430924681
-0.087669675489711
-0.301932485904934
-0.333303287246625
-0.682702539420257
0.180394371597968
-0.901364001926099
0.994357069346548
-0.239499108821353
0.276896750482369
0.126389081425066
-0.995548971714376
-0.16825772168877
-0.703148256431506
-0.0271737335906577
-0.169147951501423
-0.658967156152812
-0.900450051409919
-0.282762724598344
0.592748402344424
-0.482664133681908
-0.48791077220835
-0.365224266782679
-0.395422800832132
0.833765894476772
0.189684689257742
0.7790274026092
