-0.900144402097723
-0.304385569968386
0.405612850985876
0.147155419963192
-0.334218929763028
-0.400852204936911
-0.531407818302356
-0.650125685624352
-0.452975159849155
0.732394839003269
-0.669286916111958
0.573554347105959
-0.470890336783926
0.173973171286195
-0.367606828027807
0.798520274084488
0.768228860345848
-0.328979233588375
0.68685864259557
0.322690660396698
0.221254483093973
0.111420358290015
-0.0673457701165825
-0.859462412115919
0.147174377290365
0.16577805659339
-0.386181383870939
0.476030766519304
-0.823377578150056
-0.858590109881422
0.693752919927308
0.80971308794411
0.931183795857136
-0.678142194971275
-0.21897999293657
0.5855153656083
-0.321941737432554
-0.0603287962255807
0.586671079203606
0.840101932658018
-0.322600380025461
-0.281580182093815
-0.580844426737277
0.0817024850676119
0.00919156133202077
-0.290511674535006
0.685635009381664
-0.0867498378505863
0.338957281223648
0.0832412583143509
0.206775861664458
-0.33284748241036
0.323184960201361
0.00469883802224703
-0.463888856950845
0.136158995943485
-0.0944380105091342
-0.8022051672436
-0.626527327198239
0.771921320015368
-0.338509732446246
-0.883162658686943
-0.561023257945386
-0.24105463614013
-0.579425669664928
-0.385662112475334
0.427423461502492
-0.741415303712619
0.504240749944962
-0.23557282181851
0.808569686384342
0.752618373041105
0.657992101241415
0.458171334404604
-0.746562083255528
-0.626700611529695
0.699380593265113
0.920798856464235
-0.911697370629826
-0.204525845854463
-0.291770378799365
-0.149570179033062
-0.561307710968118
0.791772295377902
-0.16604148858635
0.0707495516037654
-0.800808285980019
0.16716563883014
-0.726140353359281
0.297358314253699
0.162955330396149
-0.0173426313760891
-0.761415324668423
-0.172845629676049
-0.167638244841663
0.374423626927092
-0.113346139769649
0.360558602074821
0.395762920387859
0.782064163383177
0.668441414424072
-0.027598698294243
0.973725837587615
0.241739954076619
-0.407637047839269
0.751602108657172
-0.354813179514815
-0.639911697440786
0.502155104220084
-0.175035970136261
0.822510484587964
-0.960524941383703
0.303951408803484
-0.788752967524723
0.526405180057505
-0.528024915652335
-0.803300314815446
0.87143005498372
-0.721090565674742
0.618246927098482
0.187307780695509
0.41540659949669
-0.186982556359033
0.694625698771917
-0.643209621519418
0.879111333260388
0.908134273758403
0.171539684239499
0.84402466735382
-0.451514167204918
0.113913369145008
-0.269192613841883
-0.271769549997937
-0.631969772373416
-0.484456374681654
0.149350224461624
-0.376340352394595
0.230345862919426
-0.860660258942285
0.470903181108356
0.0238962460394243
0.414706321707868
-0.126501087561741
0.240085026733219
-0.197798328747406
-0.258469445745342
-0.903241708144187
-0.333334793144363
-0.00610789287997313
1.03338425352894
0.37805553619685
0.107623247584014
0.772026296728262
-0.151641877492944
-0.976256482135719
-0.937645635681468
0.773201287904919
0.344269795101816
-0.57236487327987
0.772693699194748
-0.0569846319933592
-0.0999622314126774
-0.749689258735296
-0.723330323959845
-0.406547908770436
-0.411149847956152
0.925811135028909
0.0769319717628185
0.0277020781426626
-0.298306868066035
-0.558031031692737
0.290307415600638
-0.177161080558718
-0.888191627950496
-0.161000435150531
-0.881182425708773
-0.755123273337997
0.0575945701290848
0.657869733560192
-0.0553576958657594
-0.863637493653636
-0.968132566109089
0.0289112187870159
0.330210944870925
0.856656749206841
0.931832200266472
-0.502661055072651
-0.359513843651619
-0.125520816416874
0.817387769054502
-0.23973968958914
-0.360547790499973
0.583507839607965
0.590034629663542
-0.901909557650701
-0.157727270087953
0.200161688380393
0.331392810243561
0.349869097363663
0.640727068808509
0.976451376792437
0.558626544940841
-0.772323854604971
-0.837499996216519
0.51583139889895
-0.00162144157497015
-0.521110067206906
-0.851782267815362
-0.72466284233423
-0.723504600722207
0.818979496873187
-0.666750167918146
-0.741659135721489
0.903344653770737
-0.177522498484803
0.296371656944011
-0.101000361965922
-0.797139509001078
-0.971863685067539
-0.879168061358534
-0.90250735427289
-0.845586537430581
0.708866179503251
0.804562956198012
0.291730531637916
0.419170013839862
0.390582121942492
-0.0185790872198632
0.777228801263334
0.177913388553437
-0.31176685703976
-0.176467772733447
0.692978369476845
0.84595455368093
-0.0273643484633544
-0.11180332876054
0.162006797134403
0.126695496141856
0.842696158641392
0.247182516427293
0.959671033972229
-0.839011754566805
0.666287193629449
-0.576460782816047
0.787569471147573
0.817894793873468
0.671095312508194
-0.0502326996998968
0.925589288746951
-0.861798931068222
0.745379631444594
0.493905969773522
0.721462700552069
-0.0178948754532677
0.234601254517637
0.330219013549929
