-0.926916252842895
0.841767284955245
0.510544363990825
-0.18125380735637
0.454829823835413
-0.714327028793674
0.711996460598215
0.240648317307465
-0.356429114234581
-0.284396214948268
-0.312282064676655
0.0325434847500218
0.473631557338444
-0.462584679398361
0.914992230391783
-0.673556198650864
-0.771306495674114
0.327498367161241
0.59715211240405
0.0696692620549132
-1.01866252017364
-0.887629447769438
-0.0946771621310706
-0.720858988888763
-0.232378713801173
0.0672268957186646
-0.1295137988815
0.704728250589778
-0.0495117982695607
-0.275406536935288
0.523249905515769
0.960406539053649
-0.0620557330413017
0.968963186154863
-0.0790623364629047
0.264506926169834
-0.938838774056404
-0.57797979889586
-0.608131800311712
-0.233904905706036
0.154667808184742
-0.169047599296915
-0.35328032278676
0.536782640043901
-0.308654073363269
-0.955238849899908
-0.670769809090136
-0.464580431321827
-0.45930678312979
0.67595684887891
-0.527721237970513
0.336208454726698
0.909725200017849
-0.964459238684976
0.407425152290404
-0.280631078716165
-0.0103612424306672
0.901627371011289
0.803127063609862
0.0563483619100494
-0.323287973455753
0.289135568648266
-0.27825505360619
-0.670766138134783
0.0433733753745037
-0.462705777577189
0.0593623476292257
-0.0274326374007909
-0.961142083533421
0.510440588617767
-0.876904260188117
0.588357586252915
-0.93352155459113
0.944325737822051
0.608242729412611
-0.828308901027015
0.00911383523976474
0.878254153641997
0.403182636725753
-0.791719199518149
0.672430123588192
-0.740408997947459
-0.286625915403751
0.736084558473438
-0.836139400259463
-0.511734066127274
0.448416267063089
-0.445986031123293
0.253952660222663
0.921903386329779
-0.789636178083101
-0.556701605567312
0.704616821839509
0.731326495676074
0.0987587679673263
-0.989705020566563
-0.737561634388196
0.289878189749387
-0.62623959846064
0.130404311378131
0.516552989978156
0.168799401066833
-0.794386836024218
0.0617013472573423
-0.391625552703974
-0.408147190954725
-0.27876575731239
0.0478704977052941
-0.775873726710701
-0.866539875639944
-0.063247582797062
-0.277669064208811
0.841898770063034
0.867484128865144
-0.510628408286097
0.296967455285691
0.492050196566949
-0.813808982979553
0.947136018294689
-0.300058939699076
0.873950872176406
0.353167937884784
0.297258026158803
0.199411262512239
0.0243716905102172
0.768099539042478
-0.587132060131977
0.563836273301549
0.352672846803199
-0.25536206702785
0.284276251395452
-0.479456277371547
0.659382078616286
0.862865188055561
-0.840770070748626
0.183755957974705
0.86168031657106
-0.730524010252889
-0.732873770599845
-0.58206837454696
0.614345999608223
-0.662624032889666
-0.424284284536612
-0.726888977342802
0.0536156272058624
-0.0376996225464248
-0.814119353496313
-0.176486824751394
-0.406820495748181
-0.151713195693993
0.0353463139399932
0.798399750778738
-0.130576049149056
0.228493499700982
-0.395829258592806
0.246247473771824
0.160915890459387
-0.436820672536581
0.138860916566802
0.775071626700822
0.286255335781293
0.84694489235404
0.746980587216526
0.44815565074377
0.198624783145315
-1.02436568368235
0.16500763005267
-0.587351580079812
0.385508483304404
0.22677879597656
0.774924366745021
0.0589788007635691
0.346148372430637
-0.883737526199852
-0.972190973521015
-0.489921747893505
-0.21030597394728
0.777027564140966
-0.106269349756102
-0.681094976551746
0.480497349827577
-0.213048708571903
0.718376355013926
0.271447472729807
0.734043979589067
-0.997886940451057
-0.971107286686598
0.172449711553547
0.024048892838132
-0.663042130499479
0.643257447646539
0.332137191638489
-0.446249824386848
-0.913629045405872
0.796813537531243
0.5046875653847
0.153350903415727
0.0536579503934885
-0.346643705664375
-0.866891801802588
-0.92808717894648
0.219877203651701
0.125442107364335
-0.612583328584422
-0.00643702295952477
-0.543023581171637
0.420349114328284
-0.173505639119929
0.111480545346397
0.759969254712337
-0.854158932695751
0.721388506005399
-0.327284524791183
-0.301026944825765
-0.500162810084832
-0.0997285250200013
-0.801383829195941
0.760199021759879
0.883727643280089
0.849172844797674
0.324622298996189
0.22356032022381
-0.420808150035615
-0.805917374349123
0.410583085992063
0.845387396738383
0.012536290344533
-0.523641744583609
-0.575959227338338
-0.71839767326491
0.0764492650656296
-0.0733001485838463
0.467763471783157
0.196983971358626
-0.174142982544369
-0.706720588771459
0.239653010969142
-0.933335067842358
-0.258222684196562
-0.506993200943632
-0.230601748665283
0.200097083597713
-0.360035525913209
-0.604821691354095
0.180023066463231
0.166269286780269
0.851493239734189
-0.240898482666214
-0.0501369126990182
-0.274331648179637
-0.737671236120611
-0.657507678232625
0.423217991984125
-0.717611120498373
0.269099978729324
0.445872747207991
