0.0882358868871282
0.305304633990586
-0.444604980462742
-0.644249074452601
-0.721473351565002
0.669763125614178
-0.173837240873866
-0.806922008503876
-0.964226511063154
0.300997921957318
0.152690409100907
0.531058720818518
-0.370968550319167
-0.489335389773656
0.923121108585558
-0.134235497266104
-0.986528223586221
-0.779587498853946
-0.661345521890256
0.428971010499552
-0.482603038997915
-0.233234028010377
-0.509886053493466
0.393985957975859
-0.630945329025926
-0.218235283627361
-0.779527014252954
0.336356506994052
-0.90903196405851
0.458643586793151
-0.633183251975486
-0.377689405834849
0.230955388776684
-0.622872447399987
-0.104232346292009
-0.671227256422664
0.181392542810098
0.188630961720048
-0.637240688948779
-0.644987150920321
0.123670399849094
0.308863150966162
-0.897481942641503
-0.415864105703725
0.374334736905828
0.734455734580125
0.914582366763516
-0.628173680285354
-0.129559222738486
-0.870957524306381
0.850066188913179
-0.112962384610643
-0.244052419998176
0.296290212144252
-0.555526825451622
0.305623907504535
0.429577884705073
-0.619615057195996
-0.223402891338955
-0.192764751581921
-0.677410145593078
0.773932374149624
0.824898034760263
0.421831533510809
0.158072065854624
-0.927012741018038
-0.834549909004765
-0.448193771489491
-0.86871161325751
0.195835922919389
-0.465858733061109
-0.0652550332632305
0.513567877737644
-0.635976398820952
0.640428668655393
0.842979674677315
-0.98331159486048
-0.838290478768967
-0.803732586427399
0.634035368926111
-0.00463662496066596
0.507154720657392
-0.18387857790292
0.844925952922168
0.036218708488626
0.627982563289638
0.571951492876214
0.503388597732291
0.642260034561349
-0.201413489886071
0.0925352529320203
-0.933274411740906
0.767305931823681
0.60462665906375
-0.932331500953748
0.884909160464764
0.793928701125175
0.732320751116926
-0.538260573534184
-0.774108335104478
-0.22984984332552
-0.917180636416896
-0.196962986159368
-0.14658163138408
0.123064135819095
0.222285365104881
0.236836514878825
0.338905730826608
0.768115790273087
0.0181899288901737
0.363666391718222
-0.0898423403813775
-0.894431913575373
0.638556333029696
0.143320868029354
-0.0662175420097317
0.37527732896528
0.696978133740331
0.159124337775021
-0.0303282972561017
-0.844226170719345
-0.523773645871929
0.152147259944785
0.443883934734344
-0.576785270326385
0.734818451022052
0.933901794326114
0.947406167678432
0.210643480133531
0.42558569209197
0.46788577580408
-0.385176828200809
-0.384219087172902
-0.627294887496077
-0.884770240518094
-0.629971272290383
0.472569964920707
-0.482934531475378
-0.91596367070771
-0.715786448714106
-0.986175655388003
0.186703734472854
0.4504128292919
-0.578913718373229
-0.428844164852161
0.0615681487152679
-0.423049806435099
0.263087117039318
0.816939557046574
0.0270612288345857
-0.115574590420299
-0.747180655703126
0.71624813302406
0.311376306668462
-0.224907451914785
-0.0905941239981175
-0.634543160498951
0.291224394488841
0.159689954711678
0.0778344760013332
0.476321985096346
-0.00574300790016443
-0.694935105909543
0.308652677374373
0.00309113729863031
-0.00321057707465031
-0.898401533782685
0.527668310476267
0.27567551918967
-0.364329003762133
0.627811832811732
-0.306406996427751
0.116181962550015
0.789579030233598
-0.601779521137975
0.964452877957486
0.284712945215467
-0.925941989584445
-0.981078282041351
0.305388702403173
0.299337941447992
-0.793311629698497
-0.0432699209823305
0.683586120323071
-0.130957777939204
-0.0991410528002229
0.634825424110864
0.131223811182201
-0.136808147094277
0.536513437501086
0.887265410988171
-0.343402099535471
0.694104802049337
0.788612143129649
0.25808652779558
-0.48209788077474
0.403834933455175
-0.948232007533142
-0.467449406416689
0.279056831396833
0.932523616416552
-0.726701760369223
-0.751685094422327
0.320544173180219
0.514088739117412
0.893900343003742
-0.875090657883341
-0.881122258528672
-0.316637873869631
0.997678614826126
-0.29886544072767
0.585896543690963
0.439546077416724
0.781626545926668
0.381983919817107
0.771979825453376
-0.361731006604931
0.85526189328716
-0.629671617920737
0.414396133496907
0.0497540813615398
-0.0371849999027996
-0.371981725927347
-0.200376305820537
0.574347220571996
-0.391966184876703
-0.222563557342056
-0.831856694869597
-0.741769571850824
-0.242093797940627
-0.47314419253243
0.714547196104163
-0.219062455035329
0.280388960790846
0.259389426573932
-0.391527410037774
0.80290400125508
0.444761832431437
0.0525751676728214
-0.861415552489602
0.808042484741061
0.681829278126927
0.184943180652481
-0.863602436861362
-0.338992589473665
-0.0593843132541022
0.710432016431048
0.106356632835757
0.967598760690094
0.989300760187401
-0.63135567166081
0.468666206714335
-0.629275982124021
0.346013532294178
-0.950376327202554
0.849925730768687
