-0.00959706484983149
-0.927780376794558
-0.384631883422676
-0.28839876061489
0.422671654523519
0.913265646602256
0.703299977454839
0.79554506162289
0.211592699194761
-0.306596280957738
0.75875512564737
0.94502531103284
0.118431043582913
0.279846926983358
0.798702652440394
0.602356147471237
0.793033794179206
0.829107997514848
-0.129681420772885
-0.678950840186561
-0.814377492463995
0.160969740742345
0.403618685833443
-0.491145809676587
0.589529170014962
0.0246112150719001
-0.744932919528306
-0.0881264423184753
-0.942170083751768
-0.758374700558019
-0.777862115035991
0.503227928595106
-0.830429115160297
0.0606707001045041
0.273710558169589
0.941995291933534
-0.679826832461888
0.407552919350843
0.798615975379287
-0.818060600012031
0.0490432826517065
0.756091079947404
0.686021521491377
-0.5726496740399
0.383525628599634
-0.788512907991384
-0.54406435403058
0.320700267597215
0.100162700902333
-0.68578314887693
0.587400075784848
0.0870148571902454
0.73951733280551
0.621799811444206
0.668518431813947
-0.5245213427269
0.448339040082814
-0.256673800335206
-0.151370402213158
0.997419928821608
-0.39754854415575
-0.673607581179673
-0.31217347070573
0.651587289007386
0.0626046992219036
-0.863996610541943
0.60534423977648
-0.678580783742805
-0.295118372753286
0.511800940239571
0.894325729832132
-0.601956176578355
-0.267221150787954
0.0413734811472871
0.384710567004389
-0.0385907541803362
-0.714648944036968
-0.385905890843821
-0.564386057043708
0.58895103250079
0.432175979621938
0.169639526763215
0.85039298748818
-0.984518354205245
-0.911566591548477
-0.687903579725036
0.031492455151803
-0.335648259194661
-0.783796378287463
0.595536932199878
0.604282087012003
-0.616871908977647
-0.453117846447406
0.333309819324101
0.783985853777987
-0.0523511648270309
0.0786010509283713
0.246779594458887
0.196108677369008
0.158581103656704
0.973299083738576
-0.521490883263721
0.239597972842185
-0.463630835551665
-0.487397184480721
-0.0999731045609745
0.8881034658054
-0.411159965344355
0.481360516024862
0.222082862018941
-0.245392112826847
-0.499247458366468
0.260663475466702
0.947171569672484
0.939617889108599
-0.885507420455496
-0.807434962414618
-0.775904312200426
0.907689054600073
-0.904628818988224
0.689907640913365
0.688216774746123
0.629104985012238
0.681646528915458
-0.939014215129274
-0.656201678279293
-0.671825593930595
0.954474542436963
