0.0340867523701763
-0.157364690071223
0.30017175234376
0.358548492303317
0.449330931191857
-0.0614233981475122
0.972395687134763
0.862898326833823
0.587828462633887
-0.574158441989017
-0.391110365140343
0.829022793939091
0.319511227132888
0.605317239938232
-0.949846635666052
0.493761487429527
0.273065318110578
0.418033488768206
0.679914106621987
0.934446562374973
-0.474014493355085
0.223895901646555
0.563977511940094
0.704179673381373
-0.151551741131411
0.106716582017861
0.622220041740623
-0.00976650012704444
0.445711812772178
0.0273372274348889
0.182342108897052
0.344555454564697
0.311010830447695
0.664882936242927
-0.809360143780387
0.78613593602642
0.93688857887314
-0.0629061514641029
-0.216442369530133
0.259103194456637
-0.179464067077196
-0.301770133224869
0.361040328652014
-0.770636383581811
0.585966988762199
0.211509707624926
0.680108077321191
0.865275667620231
-0.117841849231637
0.279652456979113
0.357884045846214
0.517393905651447
0.905751096328646
0.392744236041842
0.7184558260078
0.198691632086898
-0.561864977181466
0.920640203310243
0.469337764413454
-0.259488864643166
0.92832882934227
0.59492848577076
0.949042771396516
0.424048664525052
-0.0930288790866116
-0.648732121526403
-0.104186725805256
0.116113187969191
0.824796643199091
0.578702867885849
0.517878965658167
-0.0482399343720997
-0.677643101990548
-0.409886174294167
-0.394023135039428
0.982204751448808
-0.649868179825567
-0.550089952739368
0.0120707971838283
-0.812607632511577
0.398064346996847
0.0639353984822686
0.863328298297486
0.515126857922406
0.972337880779284
0.142794411487471
-0.832733279929395
0.749818334361616
0.756917761957741
0.906701345132543
-0.0731354086853735
-0.0180682063261194
0.387598292794522
-0.130292663858454
0.642323024192878
-0.0935615492315634
0.0736776336518431
-0.399444416839631
0.0512597165744692
-0.769497819780906
-0.458313844863774
0.659224199636246
0.314730332164327
0.150642580905858
0.840827675362835
0.926158487167562
-0.155019824310974
-0.380623244948291
0.894712784787382
-0.294257413198377
0.984528452242657
0.273311622537563
-0.276578090638126
-0.919106856319921
-0.644718359434817
-0.835789088142165
0.0114518851198148
0.0140743439868976
0.682774348347555
0.384357612506341
-0.949577756190973
0.788897115931633
-0.600629316054011
0.0910025174829633
0.318162992273636
0.268708389147254
0.437427007851168
0.972497128273635
0.762243293981527
-0.415533749980266
-0.673687567087189
0.771632793491611
0.164939291912455
0.910120793430207
-0.156773643624041
-0.240110995123553
-0.238867951139235
-0.754463889531376
0.811982822413635
0.315173756021345
0.0405213559619824
0.112731107819971
0.479846141517855
0.715177216314089
0.19248831739342
-0.253619069581156
0.0569207451525985
-0.726239123878634
0.615087370404153
0.328439786598064
0.444230619833476
-0.835367236115339
-0.794417761629748
-0.754243478239409
0.101361750968109
-0.923188694540499
-0.921956958531536
-0.404067353900814
-0.126388524619549
0.730192245881191
-0.227453926208924
-0.618338527915667
0.0726835260836395
-0.481777180654985
0.767869380147751
0.263864602582231
-0.108254088143742
-0.847456423812781
0.494879945452781
-0.343848818659368
-0.238015979517282
0.761145153441888
-0.88956873831744
-0.269506213178577
0.823521513884865
0.512458793075655
-0.560703107895289
-0.851790353741885
0.223843882038568
0.797932977742198
0.0840800630283083
0.770962804340724
0.470443527210164
-0.265000113378356
-0.978264734113797
0.4939110267954
0.151402249109618
-0.122471857617097
-0.396661248827043
-0.204026523570171
-0.508557777254196
-0.52969088758311
0.814177028356616
0.657199679059069
-0.703943119125087
-0.295374882038538
0.712167069922729
0.848175164306483
-0.33371754727655
0.164146677554477
-0.306492496833792
0.0987597296360709
-0.923887478170978
-1.01641117141978
0.3376748827433
0.273908824007433
-0.0190189733889631
0.348933910100884
0.732526554380306
-0.516010762677496
0.101960279991446
0.925026814637603
-0.70092580332752
-0.568395309137842
-0.739827121502835
-0.203782945201702
0.292285256218753
0.728812158971623
-0.0411131454034831
-0.589346564191698
-0.556935653729845
-0.618221080636132
-0.200529028352453
-0.849934275650843
-0.140067081907248
-0.890749464538084
-0.764191337012947
-0.438360090398881
-0.211983100714903
0.458845973129451
0.202614263876074
-0.824915390824189
-0.205070197181084
0.49497286314645
-0.923972188105481
0.965341150682815
-0.263788823105932
0.382999980429967
0.620089143445048
-0.663710606795861
-0.630141990975591
-0.326767998371615
0.245776790239841
-0.234412582601852
-0.355550477481087
0.873824043176996
-0.678082799568466
-0.487048530929588
0.656809444390554
-0.804355694989517
-0.374575305647285
0.0112619984289084
-0.297186075484699
-0.0115359724965361
-0.0478120413495381
0.901314154993226
