-0.548102140475009
0.940244367262342
0.615173358564686
-0.696371404337685
0.249645407658974
0.212384513181879
-0.15313246918386
0.446506203691312
-0.483988598929042
-0.546984574553679
0.0907316245500681
0.0206049560687784
-0.593050449613277
-0.932651695589537
0.884618953606895
-0.510674160693346
-0.00598426868625401
0.380320655212781
0.397817937255689
0.77033772664491
0.116685086961605
-0.408450162196253
0.254079804745764
-0.0952282910967197
-0.813438308552185
0.341467929149569
0.277222956072623
-0.140076611842633
0.247038062276354
-0.271920965353208
-0.00369853671676994
0.0537554156012307
-0.152693674314495
-0.227959992308351
0.397361643667389
0.517927052679439
0.259862695545214
0.0482966428627811
0.128151357996329
0.816142231222284
-0.706555011163213
0.100909477795891
0.380628582752355
0.43266784377715
0.293757820495136
0.49001865784152
-0.281782024077173
-0.75775635654673
-0.0680657768045791
-0.60806456801168
-0.901330425191236
0.286284102823565
-0.654209394152683
0.858326974847089
-0.950851109258508
0.296638179300902
0.252249842382894
-0.853810034939161
0.5379376763441
0.0907512537643796
0.411072786317474
-0.782894155379973
0.651016509869427
0.143039810233882
-1.00091576315845
0.00978525646821574
-0.0152784215460809
0.366277670868568
-0.933892719270888
-0.16548641653413
-0.361152082289659
0.345044677112792
0.725512946088493
0.140098177033331
-0.497263510193645
0.315460437662103
-0.885790625501567
-0.530149294759915
-0.260944180802136
-0.256225934205223
0.626905846925416
-0.532614268860209
0.314705559984491
0.0979164496320303
-0.98003598933369
0.528891150809056
0.181393494862919
0.0441387499622664
0.0386272042467576
-0.217720476327324
-0.847777441534498
0.285312550286525
0.390384226277694
0.0964324508922259
-0.755773344049928
0.837599000120329
0.914708558219078
0.904194406285757
0.538648757898885
0.171903468742404
-0.97156341056683
0.787465592009343
0.0228037424489416
0.0621807738709385
-0.448764988584442
-0.0571987536081234
-0.204664880611583
-0.399243739272207
-0.096153073065514
-0.94460218712171
0.0914616393324396
-0.559050213031564
-0.560598477416699
0.309665074833645
0.671572139143253
0.973152972541528
0.361493102992213
0.668881117698975
0.283011284322462
0.885432787600076
-0.599395234675403
0.417352407615641
-0.73494475529538
-0.345522679404901
0.106011528195069
-0.0347964882144808
0.797315545480822
0.17308331816182
