0.0636184376658219
-0.91374638651642
0.721480283339497
-0.477946355855123
0.530594556219844
0.538720168511241
0.848683130701549
0.531443107775217
0.590342197960864
0.460969364872096
0.701125195393441
-0.570346876304473
0.342720179718241
0.720351805578557
-0.282570551243051
0.655672139060066
0.866589334217998
0.558150188248801
-0.717993603956161
-0.0642996284530414
-0.197950796023343
0.118753146104795
-0.425013216348179
0.830821102118525
-0.858656152920205
0.423654954301465
-0.0703559017822788
-0.1170077228337
0.493799976927944
0.195048117645422
0.976251990704199
-0.756266793644518
0.492541192828299
0.903975892996234
0.928473288277278
0.308792842561298
-0.755640414785841
-0.268116510304623
-0.327978347350924
0.822537009175882
-0.0674107635496896
-0.435784600369237
0.661908072719235
-0.751305525154774
-0.989521476475504
-0.179107783561331
-0.980897187658048
-0.243697614253225
0.373123985924861
0.566396457702049
-0.679641834038706
0.269177892739758
0.232943067163453
-0.0272881259491311
0.573275580352184
-0.422413850193717
-0.119300528645809
0.662146622611458
-0.0629464924005776
-0.822447048894987
0.285137778744822
-0.841125044252018
-0.599178066772051
0.388146509402496
-0.499329915513577
-0.584991111254886
0.780209124518652
-0.304111132660226
-0.111589821283067
0.476250475170517
0.0218338887595957
-0.801322459273374
0.829957497091857
0.361462254118894
0.875915097970548
-0.643489179126303
-0.961959611839673
-0.884585021572619
0.804248925820349
0.184053485158805
0.996231202617652
-0.829553566489491
-0.0395583281299959
-0.0562174812946253
0.21653497402708
0.406167068241146
-0.606170466591076
0.972172276833779
0.763029357208715
-0.704760329208921
0.661915771531112
0.768389714625583
0.0152191560479164
-0.424340797847451
-0.689872453681086
0.868050566873898
-0.407129552656824
-0.811526380737936
0.585806300877436
-0.914471022434831
0.480851827429502
-0.296810589851004
-0.660620896567695
-0.477957609948464
-0.0475655329575742
-0.0023028122702356
0.512757639868307
-0.247610972786762
-0.556575723225525
0.701393607563174
-0.379515515817351
0.0585963368756073
0.720926132861413
0.129743994650206
0.588031829193953
-0.215104129973243
0.764391424951111
0.684793100436894
0.473192358099585
0.357489536791674
-0.577254125843014
0.326742113811354
-0.863397737279278
-0.540983123515704
-0.811546647594074
0.454987292281203
0.584691820496104
-0.376646295207835
0.417179280405146
-0.654940157104442
0.737337077984145
-0.174601635933594
0.407388102382597
-0.0749987958825006
0.920665914809957
-0.234570529387252
0.240739168252431
0.792820625774294
0.225926689822868
-0.0721122784076371
-0.599217827920781
-0.636232385426878
-0.0999483775049788
0.324004561288307
-0.524129575548889
0.839727403384081
0.346083561937021
0.99562420368088
-0.403803309596104
0.0505644886923442
0.787007347755676
0.796792358062644
0.109471232351298
-0.838457362443373
-0.691087495958366
-0.870765012673287
0.467583173758598
0.0525267896849764
0.561739713369099
-0.738487772179146
0.4058056464145
0.23078075587618
-0.279075215356938
0.171617878271726
0.978558441576033
0.547985004400923
0.507655935975291
-0.437177435470942
0.310505206425251
-0.896359223996455
-0.57041379109482
-0.86628978987827
0.498529761563044
0.806028999994056
0.499031967075792
-0.381918147579616
0.0630470496479081
-0.43758592537236
0.988599948747724
-0.631763481060034
-0.397361237440148
-0.130149833280513
-0.440015195051137
-0.13141398661202
0.455307525060555
0.410708333825599
-0.717453121741285
0.297201300944472
-0.0664741149057683
-0.898102095528809
0.75631179143961
-0.157786167526568
-0.424323288467602
-0.397919049616423
0.237310712565096
-0.449306829209247
-0.472717609109418
0.446266785480884
0.691530507173144
-0.254069019951128
-0.18486917251894
0.595582006395346
-0.565243997547052
-0.663756857418424
-0.742696568610786
0.704796282040337
0.312546840746997
0.00474044081258493
-0.300791590777475
-0.451674680850541
0.183876956886937
0.281614222263794
-0.402290827389786
0.946781571868675
-0.665865046364748
-0.276780464845906
0.721287702095324
0.502513793402462
0.0382644589745967
-0.74887077183157
-0.623846996277172
0.775579068361067
-0.145604743956838
-0.309849459752596
-0.586274026831145
-0.440749368234462
0.344404258321446
-0.13784476734049
0.294913594251272
-0.0578752260101354
-0.589224726719495
-0.48800023660276
-0.639557247430186
-0.512537223867329
0.374193017138525
0.593302736215332
0.0548308633649133
0.475766807122874
0.175803516007238
-0.758109003929686
-0.388361689073394
0.224754975305495
0.69819185395546
0.836075447539543
-0.253461546927757
-0.728348362737574
-0.158635381470026
0.68711968414056
0.835548258159066
-0.106331250053194
-0.474195506033762
-0.837696392785151
-0.675714633973553
-0.963972918827587
-0.349201889335691
0.760127701874242
