-0.301679020952767
-0.721195163332179
0.866733300742053
-0.526638198945419
0.796305826356867
0.188510825191341
-0.443500940984415
-0.532582625421178
0.81306883579516
-0.765830626081756
-0.772811293171063
-0.893691931272681
-0.702480186608999
-0.662249566749216
0.467149297485873
-0.10302626321455
-0.991162699507385
-0.861263675218888
-0.650984421563166
0.0314126378308261
0.888756412300554
-0.980736893719519
0.167767985765752
-0.532897390732337
0.592034406624205
0.527511107100962
0.0816807070765928
0.997939361324937
-0.295753277768229
0.942914854414426
-0.173761980121308
-0.275788118692779
-0.514828562192164
0.499408960177277
-0.658957506636197
0.0958860339995318
0.404631862127476
-0.0998441826582028
-0.0611682369689407
-0.915863827482169
0.249296323985167
-0.7061925992138
-0.93335577207645
-0.0723223304099866
-0.139223162322958
-0.926494313289373
0.809462609155149
-0.676713316018931
0.113931873413736
-0.910971238085872
0.680967909313707
0.303271270942645
0.726659858689208
-0.437037223539052
0.635386130567374
0.551537390493527
-0.752332081041676
0.525553336334684
-0.496791776520394
0.60741770686068
0.201777923202247
0.524996545676689
0.657993962063288
-0.47806794295548
-0.681380873635839
0.256189070774544
0.522560255987402
0.508251111247332
-0.2759173649398
0.707322508849769
-0.395792469974975
-0.906693342995762
0.77756624039114
0.0225934352470925
0.866911209102374
-0.961637796716672
0.0541960120198085
0.233681514833755
-0.450481665912864
0.578862771787195
-0.776904136467904
0.811259507630824
-0.99496790769847
0.635632851043767
-0.896252030415256
0.704909157727613
-0.552187535838346
-0.308994952110103
-0.890056376849077
0.206780852632756
-0.640882739873909
0.324932620359053
0.897612143260207
-0.859260227275875
-0.436380717549413
-0.937326378465529
-0.405920669895649
-0.941722340606865
0.0796471473981606
-0.143878628224977
-0.587460120823341
-0.687218233516163
-0.862660215409822
-0.72154828095899
-0.196562934508609
0.60152046112888
-0.156706809794937
-0.911071964857404
0.508740489167942
-0.198708195219913
0.64772558397978
-0.987173167710379
-0.572829327914274
-0.695235825591229
0.11299434599422
0.373503962398563
0.321323335092627
-0.50042868495079
-0.0910009371204096
-0.456926623609461
-0.544531091983368
-0.889064938449309
-0.443951673253764
-0.586543696060978
0.0451847079027507
-0.759207902595328
-0.271512399337108
0.923186724960606
