0.594921606480242
-0.90478131391845
-0.73648574291806
0.907622139518683
-0.642747763758544
-0.677108332004973
-0.587673224184892
0.531805311328098
-0.361185333632099
0.836806045086982
0.323619598630502
-0.936635700201017
-0.454299337461611
0.91190623634456
-0.113974102632009
-0.224592352033108
-0.985174384048639
-0.000218627048114631
-0.646172662907355
0.911612127659736
0.168598013633607
0.985138339005469
-0.191731497853987
-0.871393851616298
-0.871518904428763
-0.938303007112949
0.95042078486517
0.131130247197379
0.203263466795216
-0.49297674866961
-0.0875218798633928
0.848245085209976
-0.122640517530739
0.456661966987465
0.623495432625797
-0.868989457291559
0.0398293469829345
-0.234622216078045
0.910551147903725
0.980138168498714
-0.128868083117713
-0.94274710495129
-0.406895990903818
-0.23969660686439
0.852734420810437
0.0245819747266044
-0.723871244335242
0.885883913125143
-0.379737545240159
0.930415713738942
0.785254420534093
0.160171343044604
-0.497639713638061
-0.0187066199872746
0.395086486093979
0.503633109918136
-0.626895374659447
-0.467797957111486
-0.250127258328569
0.936767095022968
-0.353303281522187
-0.863020876012194
-0.0745889030327985
0.118997637576817
-0.671632728096698
-0.0350811151808961
0.173481498374302
-0.646340516552253
-0.941378154137565
-0.797889184881813
0.60362064092709
-0.703396860180779
0.15578582284139
0.908860443783642
0.487249153820685
0.118615556071177
0.368592978503344
0.433693124498618
-0.551232055219828
-0.362836539074475
-0.489736577436564
0.349496892246594
0.876527555283294
-0.769262170427864
0.658085803992612
-0.923851262964634
-0.399655172406086
-0.69899170916173
0.65705232302238
0.634583968844704
0.559829907903011
-0.0748057304652256
-0.0890226758651783
-0.953275720617498
-0.844983287319839
0.746480851092616
0.0980138162536078
0.0511229243296597
0.852947625905832
-0.0621933472695043
-0.233496304275336
0.0989846985964834
0.903817933439964
-0.603249178709106
-0.118822131122217
0.133723810632846
0.237763569488214
-0.691355415200874
0.0329432376789177
-0.914177807609127
-0.685810427351232
0.606573332202576
-0.161811911607904
-0.419539381306161
-0.68868367714137
0.498377609283074
0.853043573779381
-0.461579060454674
-0.727691866731777
-0.0663263820439661
0.528565983444979
-0.922928507336108
0.328434285494251
-0.927295693359667
0.594758990677967
0.059757971268715
0.646225712697781
-0.488211973051932
-0.781278558399394
-0.0645983771568708
-0.361898878366172
-0.412020672988777
-0.224257425688006
0.567089703769884
0.0806700033715104
0.23975027606847
0.455453377062236
0.82508517821149
0.527352800337599
-0.993429892821054
0.633204921183875
0.770309032081146
-0.879068815052449
0.0421489506754242
0.672883862226145
-0.713690926293129
0.279420117894195
0.203674353662388
0.0701189835136069
-0.270316649038517
-0.530758821633252
-0.139431810971629
-0.795732459703859
0.315665054086161
0.436392208384538
0.423327585967446
-0.627317011069013
0.599822373513954
0.140674699353293
0.613761823015317
-0.81409307755432
-0.129030992570595
-0.524331091765405
0.0555030451003941
-0.312545352787271
-0.30360571033869
0.886622233037409
-0.831668656408981
-0.492629405957767
-0.393656159462647
-0.833673683662787
-0.785773094354227
-0.254309984446825
0.379299124777703
0.289360447309727
0.52067338711096
-0.315805544981487
0.387541466262048
0.563502798200023
-0.974308790855817
-0.192579928116415
-0.345857956458401
-0.573254017328436
0.907668195038099
-0.326916752208171
-0.855778507913885
0.73555790500361
0.433966744180716
0.217812267172918
0.514737954309592
-0.890309170907105
0.253436918303377
-0.776883179314082
0.832140549958374
-0.93215269398484
0.341669722570655
-0.644624391941978
-0.31620190359745
0.150421941900852
-0.906986210962192
-0.734205638930196
0.774946768859701
-0.411200678095593
0.785852748068537
-0.807659242338568
0.847606258386371
0.476116690651044
-0.500127084036965
-0.759540441967284
0.216943144006189
0.482521765603719
0.994132967924971
0.537951895433173
0.968384603047142
-0.632182778262865
-0.804064625457802
0.555848392509844
-0.870186723362418
0.180666193476262
0.908303743464168
0.976905326934001
-0.800554815268964
-0.12652271888289
-0.155068036607083
-0.367318425416104
-0.539795254298638
0.867565086512055
0.202358485938425
-0.97948404977802
-0.864970185190843
0.81922122736018
0.220112521090965
0.286849793262153
0.749747028347678
0.654242637670472
0.709934865752297
0.109030766079705
0.500844484087932
0.861310990643024
0.855659617456767
0.171462342948658
-0.800658191101399
0.95151412641834
-0.441499595843466
-0.491604867715599
0.259142131680034
-0.509634532152208
-0.758821755251684
0.16100378984193
-0.57619039926468
0.444741481356399
0.4186989493956
0.741696975129365
0.958135317756165
0.21988421743305
-0.233136895090995
