0.310854039957393
0.738046915680069
0.311478312220574
0.798695811623587
0.441119619070439
-0.995130325541225
0.16726024246597
0.624699105432622
0.64032211549237
-0.522692760256624
-0.422841835534055
0.154627558178169
-0.920023353993071
0.0809314186948142
-0.0157099786528761
0.733384108725752
-0.860130702088178
-0.302776822738657
0.128010750391292
-0.143877333679705
0.527576849555933
-0.424877862144764
0.736558791077657
-0.149358873987173
0.538770701053247
0.907151787924008
0.758597684791722
-0.394685424680807
0.270878766151575
-0.928640825909301
-0.446489112543729
0.776285704541365
0.759872899208019
-0.287120335743348
-0.93006077150637
-0.864239838268159
0.405489570538598
0.496672146429722
0.710237119692672
-0.917696090920771
-0.814458908401983
-0.713982172645407
0.0462900476103649
-0.264068781430682
0.225185664358519
0.852992349447291
0.695025151016132
-0.550616927505429
-0.82159488461455
-0.654692243427701
-0.357131112668872
0.103629075856434
0.317920005845168
-0.843961117049377
-0.660961543398531
0.0349483165691611
0.809518140494024
-0.484124343405055
-0.697825565306203
0.0127704318626482
0.159070614878618
-0.128250595422337
-0.857373418468683
0.294943488974068
-0.756992847705814
-0.777399174698574
-0.0642029053348839
0.665645860778016
-0.842994123198516
0.890413294940366
0.464697870984477
-0.820071311820245
-0.60030610178858
-0.314510023684772
-0.581355133371021
0.0498111766128587
-0.948592322325854
0.208449810493543
-0.25254993301931
-0.798004006126526
-0.520729768467365
0.282627087520527
0.034655392714078
-0.315419934690983
0.100391456880486
0.371444225153597
0.411415888715356
-0.68993971615425
0.893067978132111
0.861873905568169
-0.0346025154639352
0.594278233711228
-0.390863164531579
-0.932715834502437
0.849660197587158
0.522298285247148
-0.0193380440781574
0.577312905870214
-0.35370949407511
-0.428984131231201
0.90098724694968
0.00990875463974262
0.496398894575726
0.415155755085023
-0.85024234856004
-0.855680301960801
0.192027926328945
0.815025276184679
-0.0645430799768797
-0.595586223560504
0.954658477672955
-0.749386079791366
0.317543453606677
-0.376894883212854
0.929261051618366
0.0734068251985882
-0.714368186503394
-0.0200078228563988
-0.378893642340535
0.551496546338743
-0.591607224025328
-0.83856238012357
-0.0193698187849606
-0.207605961056421
0.873481152731238
0.896933800993271
-0.172680258517498
-0.539935163594165
-0.136885810425812
0.917557425818773
-0.328103565258984
0.0339642250366271
-0.189252330455724
-0.225981428065552
0.638157414312348
0.402779283067004
0.793539133867369
-0.366636107155921
0.417539206183724
-0.818346566228584
0.239306927617326
1.0298304286722
0.830918753721787
0.329423332556231
-0.207716696760446
-0.832285200132793
-0.960829659314873
0.76519204970595
-0.402652192741762
-0.0140719646486674
-0.00814412209764291
-0.53751273341057
-0.934260189208088
-0.377789173812267
-0.22114786460946
0.310082164304729
0.375833752404532
0.480088730883425
-0.396655846726973
-0.253363678693795
0.755110235989157
0.683704807425993
0.378359931090892
-0.264316944215017
0.243697675754306
0.956545477870401
-0.174966990281517
-0.779837668265287
0.274222435694039
-0.682625084263805
0.60341989918035
0.711534270483717
0.313424560177266
0.990572689715831
0.557809412721381
-0.662989611475668
-0.917817352358362
0.620470680518496
0.491173237841603
0.24893070649281
-0.848077145066995
0.0346988044043396
-0.682133789848743
0.639932514933125
0.695430091847481
-0.498308803942878
0.123144075055548
0.156790148989709
-0.387202486905665
0.715750336327915
-0.866196866855792
-0.669641028767933
-0.649673146431601
0.141623376066039
0.745949025148699
-0.60647569902958
0.457037334751544
0.38750333427084
0.277929483403827
-0.0972603876507937
0.487759126429207
0.452685079694192
-0.180669109972808
-0.371061357038769
0.0569017899103855
-0.680739576010467
0.664057661325329
-0.644927170051917
0.667574959272642
0.634151030227726
0.860320701256929
0.92371705603556
-0.730824271510785
-0.686091048348598
0.525990597902953
0.746563412656103
0.79030004015068
-0.917353513137112
-0.588426410139877
-0.699391232480734
0.263710759399277
0.640124814479903
-0.965796426072471
0.103097366888371
0.24621687125707
0.933593662043071
0.578242809339612
-0.304043579190733
0.231247369250334
0.96249480051981
-0.270685400521752
0.0295808155397933
-0.417411861075459
0.840303096394975
0.651711578368967
-0.790775139483627
0.47856028857491
-0.652507823498178
-0.893757952596576
-0.881957386703988
-0.166307964402944
0.192080931558905
-0.314413376022076
-0.258299631966524
0.962404857362129
0.373408152669912
-0.420828829891376
-0.345943642028486
0.633553394821933
-0.89090614719755
0.00438529546893847
0.544909920672531
-0.972551399678838
0.635023351540369
-0.610469004234598
-0.644066848601865
