0.140500455493869
-0.210661427557077
-0.0354275713242217
-0.751594339977471
-0.445918555007804
-0.108624673029441
0.558932312565697
0.809976015155784
0.278864910907269
-0.727788547320049
-0.833614637461263
0.0558900948614443
-0.1636009278419
-0.418418049756838
-0.81512659137145
-0.772725489326303
-0.892849372255167
-0.0992693604578303
0.873690352856291
0.453726094242537
-0.706718629259034
0.0620571104883431
-0.154291425286626
0.765912736759002
0.23432361897002
-0.346336689604188
-0.674994044142395
-0.432243728601047
0.412012491727723
-0.308290332471226
-0.151156720039151
-0.0153168317988375
0.781134637018946
0.212044266766399
0.902834880557171
0.88173648391056
0.738285902405211
0.658572061768626
0.650787038763909
-0.174237280160288
-0.226569869887061
0.309363960933667
0.844115982997613
0.177218893031301
-0.213428866593436
0.166536689870605
-0.329543875832882
0.412116043768025
-0.175556243785686
-0.625449543854968
-0.0534811161660048
-0.349043662921165
0.820337136148237
-0.445717194902413
0.195285461407176
0.186050137256426
0.412209788221066
0.207325448527519
-0.135774192867037
0.371760447003956
-0.657138406585067
0.486306147050019
-0.235888247946391
-0.73818926990536
0.898087993007133
0.0872294539590317
-0.565722240608857
-0.458865517540984
0.530985987247974
-0.589304039258069
-0.856365374209242
0.238910737807352
0.196174713203451
0.598030633200408
0.700822688818066
-0.529526582594912
0.0369808051590035
-0.0818131040840094
-0.519191795995516
-0.259558226044705
-0.244662680319817
0.704596810173948
-0.532981215839894
-0.0297614635621443
-0.310813259264614
0.761976066529538
0.314048702536158
0.96736021733339
-0.327665878908423
-0.995834173213879
0.680049879859052
-0.11497370901556
-0.962302064431583
-0.381204315143185
-0.36706609880856
0.195401844351069
0.81575603714233
0.393896666944624
0.445267761906987
0.458300839691958
0.947709000103038
-0.301480419848162
0.700161177711073
0.731875387660027
-0.804720718136391
-0.0870786775021042
-0.945790821199722
0.22769223945992
-0.354368957670817
0.596028445044517
-0.224107141163966
0.936935541142208
-0.000236902074839104
-0.0443907586626715
-0.122064368053499
0.378235757952941
-0.106834061036088
-0.543702760639691
0.23916333986679
0.0858213863505694
-0.78105181108328
-0.906053770098776
0.209069134815097
-0.506996866354736
-0.770024711813205
-0.961854775898823
0.111022357545446
-0.316723608437699
