-0.947812627235072
-0.063583246525667
-0.428304016192812
-0.739347697319852
0.597054281400627
0.24719533856257
-0.559824108534953
-0.279425138985824
-0.970919909506255
-0.737151814959676
-0.855656738262708
0.310916508577072
-0.409618895424302
-0.610361390893978
0.364380935349141
0.462758008098933
0.341649324735746
-0.607049658254803
0.150509742357791
-0.763871542682358
-0.863123851678583
0.216419280043494
0.7545795110226
0.352327324840906
-0.503652438890375
-0.609791835451275
-0.00306607239774758
-0.784076144991286
-0.729903253985274
0.574806864365382
-0.00471460906545015
0.252338182670984
-0.573382250166568
-0.675439163224874
-0.0670928233486726
0.0505714286787752
-0.254349605179736
-0.330362581829693
-0.154700655544332
-0.388723557610621
-0.980526588015426
0.342524143610875
0.20963800173488
-0.325829178496985
0.580564940466215
0.21104611126356
0.271525619403806
-0.0520721614550553
-0.794519609042118
-0.30020923960776
0.450358999476244
0.394248589859179
0.761295412440193
-0.60085072335921
0.362452154912618
-0.00430321599191219
0.624203102916718
0.619418910374795
-0.737816460991135
0.906782572720035
-0.536189387894383
0.58336582374793
-0.957779402630406
0.120170331755921
0.915909978340085
0.956724285885027
-0.503029640341674
0.899663532194535
-0.215500177538888
0.418298945570521
0.0931110372102477
-0.190513131410925
0.444931519888486
-0.314608862748121
-0.208802875807053
0.472694468264199
0.544356380463374
0.261531790377464
0.825607656605878
-0.932081165749226
-0.808804740738214
-0.854562192838429
0.829368128305135
-0.71116103074435
0.822953707940046
0.489295952618073
-0.00507501789470101
0.932144669867384
-0.905237956156418
-0.0559767605440967
0.44845778059217
0.672596089720011
0.231296719774793
-0.585594102290955
-0.0271837651955156
0.975655309746172
0.916752019056193
0.958657482256688
0.787399661866692
-0.547429051330851
0.113239060784487
-0.590653062360204
-0.193412879177889
0.36568762945539
0.458983622962388
-0.412666971466419
-0.131438485164684
-0.385767798816786
0.570279315610338
-0.540931955188406
-0.445503180475746
-0.650159476164436
0.56624124593797
-0.161321413643034
0.735929551964046
0.6915110202217
0.0153903032431179
0.906301651366353
0.0477427510214721
0.234613216908891
-0.164701708325441
-0.252171866025255
-0.727657186612824
0.0569992311320332
0.423252342114143
-0.0106749056377157
0.143037318430543
0.157700397515233
-0.108072067073542
0.95797295195318
-0.531830365831918
-0.771950451098835
0.83532737865812
0.144110255374454
0.394748376075401
0.271822428034548
0.280059803873921
-0.851920758882748
-0.944159010089089
0.468241442125317
0.0224277908390318
-0.900178992098226
-0.547663347773101
-0.653000618559047
0.628445443994454
0.826307284749038
0.411235225152583
0.730394674345915
0.592493668137732
-0.465378195142372
-0.551890793133674
-0.410375362774804
0.105316342557969
0.10079851756153
0.0943633737714993
-0.245518816116451
0.14738226883674
-0.355342490709281
0.952225329931068
-0.813260438363235
-0.472658723897383
-0.784620899898842
-0.193362570048677
0.0676288458780752
0.438473541509749
-0.494357452947506
0.191688339933934
0.819732690678109
0.0259851541763376
-0.122194523559395
0.0654470669445359
0.279766052524865
-0.530888499764684
-0.0674911314115692
0.927739102473469
-0.947192296516099
-0.856403201342117
0.103303696271114
-0.667450275496132
0.0737706802692873
0.489704987301794
0.969338984936875
-0.883618229063568
-0.3034653650056
-0.565274862456015
0.287794180943481
-0.753980866450108
0.943188307449628
0.216523545610216
-0.42632215080712
-0.0264552595032891
0.882239686629453
0.0926623496654177
0.77746133530254
0.499018312970472
-0.778222827996775
-0.927286689287769
0.61731086424671
-0.45179230386768
0.789037607965979
-0.705888737467019
0.667781088531598
-0.562410021139485
-0.935115429410381
0.278877249645024
0.251505715529592
-0.892776626235381
-0.650771084764596
0.362844356433336
-0.975731039259739
-0.220114641736826
-0.307990562592928
-0.933768532469053
0.419985690154131
-0.205357038974337
0.30316014946676
0.925200216566636
0.599246512443326
-0.652309154917721
0.289819143703102
-0.418481803176434
-0.268185806066869
0.652233601659206
0.903073882989726
0.314136561705679
0.685133437555402
-0.0952112513231373
-0.0847247474830367
0.54566584339439
0.42016348655931
0.857586418019227
-0.473768859348243
-0.833731010115813
-0.00619931384870617
-0.988206406618191
0.859213031998473
0.893185693121945
0.658587664515964
0.245880066257486
0.53923671321632
-0.186747001905373
-0.260662825800508
0.311040264924474
0.214722263031672
-0.130035106574783
-0.713369134286587
0.955868052034823
-0.393801611966852
-0.269284625355024
-0.356607359666536
0.211658950183896
-0.0286134975479664
0.134454446230223
-0.990286207181823
0.807221728061154
-0.0260598784600198
