-0.91444993517955
-0.541735479391828
0.328338070025654
-0.499188603674099
-0.845804776664568
-0.977977603651179
0.646423609515826
0.80315979690234
0.397198880167879
0.949033914484432
0.549889212331625
-0.94162276779128
-0.36295752561671
0.0301810140951844
-0.776792559348148
0.722811558152282
-0.1599526672459
-0.184736024184173
0.742021754372459
-0.42310364653309
0.14345689685371
-0.0345089171823133
-0.326302160479223
0.028494853840223
0.615870270165387
0.281166906456814
-0.870922661749816
-0.845570993537961
0.760753129967145
-0.420872560224069
-0.458502429366902
-0.372748690840051
0.818116576951444
0.964762752565103
-0.53784416653925
-0.278575391354791
0.0676575466855368
-0.335218612561674
0.671412920155016
0.135604459544413
0.138902661164966
-0.89111424980453
-0.533181408889759
-0.172666042783184
0.426484333358084
-0.524530917150703
0.571908993033326
0.0899082548948602
0.381117716410116
0.328895189685325
0.348584430118517
-0.616311230887394
-0.549518453559129
-0.446040297420765
-0.507714306714935
-0.845404240561826
0.868529800322346
0.294627052329063
0.318648454808202
-0.937203232843043
-0.0496661847258244
-0.85902221178489
-0.678724246832953
-0.783705485605071
-0.760353732417908
-0.403771374512842
-0.663584116866232
0.416955122142139
-0.566374939947772
0.211505391112035
0.119132065560953
0.729375992156159
-0.0947969713791159
0.531329369901156
-0.935010508631341
0.360763175016812
-0.642919344051592
0.622213035596595
0.731960870574697
0.50714547874149
0.234552557278125
0.522614773442174
-0.782224953441061
-0.322936624459532
0.0196716624280841
0.0413103247359378
0.121455124985732
-0.159087029364417
0.296163146698372
-0.619248302322698
0.0478927024792779
0.862967956639924
-0.0965034421976714
0.951570534559688
0.88964515994189
0.170985913074752
-1.01438091510564
0.326853472189292
-0.425371111449818
-0.550149482633651
0.492888565873041
-0.951913515928508
-0.427277224823515
0.669241714469372
0.0323369231479941
0.0120018996925556
-0.528878068848884
0.787626425328317
-0.123423416606934
-0.183231098073417
0.663977313536431
-0.659268064983769
0.239067644914499
0.20040405819264
0.137251186143444
0.515269327595457
-0.257125080492221
0.202989142504222
0.67904984736223
-0.0364790995040857
-0.0493208926917142
-0.959128786598782
-0.531986511061506
0.873021596921384
-0.593457515287194
-0.899020567504554
0.690637774455083
-0.948089511379854
-0.548521496829873
0.0787181932166472
0.691536192644954
0.841275448050057
-0.177739220005833
-0.595935424787457
0.769537984529295
-0.478618752333997
-0.635397706672997
-0.394328034897362
-0.868771243470131
0.709506148255037
-0.261697171068004
-0.401728407119896
0.453376854564301
0.591864205578203
-0.514217346860977
-0.350746543405626
0.147249812862173
-0.108342021672595
0.825430066997736
0.687916470401197
0.282229043744573
0.87928469842555
0.391262656165552
-0.193724667511233
0.477535280136915
0.449373432464042
0.385290768455672
0.237659931299139
-0.0934301812020919
-0.806209612859558
-0.535188063017424
-0.0824644438600028
-0.213749345511555
-0.0659948065134149
-0.242833886186933
-0.525211167666844
0.00134414762068039
-0.424937260554991
0.949370423924
-0.511647418965408
-0.0396031647689644
0.628058646831854
-0.561993359672935
-0.366237062560833
0.642618868517301
0.434325433247856
-0.320878230524447
0.433257068987554
-0.843137584061001
0.189670666253776
-0.86907886364697
0.893627563598732
-0.280199280503138
-0.744392223505315
-0.148021208301675
-0.27570744510095
-0.313820843108185
-0.642671275357798
-0.107407991193215
0.654528288191731
-0.654478472675741
-0.582236889739948
0.309772357844035
-0.151165097995469
-0.960007367748321
-0.025157549668509
-0.160333869150921
-0.180142513965093
-0.748808491485128
-0.0850371992140489
-0.709443774653995
0.0880127964128695
-0.461442348692619
0.0556846408543308
0.390784858690241
0.168585412349261
0.957189397456028
0.956395912418438
-0.206035106949323
0.776706947002855
-0.19342833259986
0.708819870823592
-0.75513388037836
0.986265371429008
0.848480413825461
0.517642719335094
-0.503568964424583
-0.927410207315799
0.987990049803992
0.745844850621044
0.112417533307289
-0.349942910455561
0.089126407692256
-0.703317621611874
0.225402722787343
0.338115227297853
0.886247226560604
-0.936576653765322
-0.983694778441902
0.747525302987783
-0.89840461977358
0.73284114619334
-0.547733977487774
0.465544266995865
-0.905616408947117
0.836543639398166
0.740991850160738
-0.193269699332743
0.0599875373814015
-0.286613512998042
0.182633612511208
0.0577689475099594
-0.15610141228234
-0.0859604579630938
-0.759313089940232
-0.140735002758749
0.214554623723627
-0.603998714500182
0.149725840380455
-0.482499626740745
-0.935403444678046
0.476082440752626
-0.151808625435226
0.746511024778855
0.0800775423032741
-0.878571155710759
