0.677247869062593
0.727991193265525
-0.694738324536672
-0.377563729610642
0.794099285471678
-0.104699848168282
-0.387247271412545
0.486735626846306
-0.0301378238858796
-0.09489544290253
0.786374864343942
0.10688603739572
-0.243150738734023
-0.863301510740227
-0.351774009151033
-0.0987958745663576
0.0400325104481714
0.546227516426645
-0.275544218252932
-0.378964640352319
-0.217689263290974
-0.436607276122448
-0.236793940841071
0.645648143352761
-0.748780717549607
0.40815499198847
-0.703022409019943
0.507841180103604
-0.825216700372609
-0.579034031252349
-0.20751963273804
0.690371022933875
0.412125626783862
0.294782147905116
0.0114955826556254
-0.728014518299214
-0.0302129306286685
0.568923693105506
0.323854646566725
0.112114359481877
-0.088903481727701
0.589477060016507
0.676622797044291
-0.838156185863544
0.634370954187982
0.959238142509406
-0.234571889366896
-0.476475979580868
-0.188899348475178
0.56762590577466
-0.980495521094046
0.293306756908472
-0.84680758571324
0.663840136382883
0.641492113810919
0.585673024010187
0.249219081345031
0.101716802164799
0.631218522452977
-0.68953863077674
0.472738479499846
-0.0758643997293187
0.462954065460174
-0.319007741896843
-0.703565007454369
0.147194355701478
0.0176408083595094
-0.41493988497847
0.286403158643442
0.842558205617756
0.709118553539176
0.838568827090132
-0.361000828047849
0.924834605110408
-0.539393091756409
-0.242909678429061
0.876675147321898
-0.302463522169138
-0.549909453883356
0.386876532362163
-0.883751664157225
0.848770177931877
-0.0417559295446302
-0.651947956434819
-0.744033066123005
0.447437333128891
-0.764523601766879
-0.43542978093971
-0.695567110227716
-0.739709516868494
-0.493340551640839
0.57450525329407
0.975567060071271
0.0666550923129251
-0.900039878272936
0.772578075649485
-0.401021791184281
0.282278616610249
-0.431328785739762
0.162328435879617
-0.12206486384984
0.331260877247381
0.189976949036935
0.441576107579272
-0.206785949945241
0.301676193135324
0.685534390225248
0.526330054161349
0.716524797495714
-0.594809606502007
-0.0597327526798
0.822764464710019
0.0981090658630697
0.932219997472287
-0.372214266369909
-0.190510927275702
-0.524435698815576
0.606282837275851
-0.855885060496147
0.674916158950436
0.726143760173406
-0.723657433568842
-0.130454626503765
0.656514071301531
-0.869106862806409
0.437136407974742
-0.414083093541262
0.937037631926052
-0.358509193614556
0.1263584525863
-0.0725149092790503
-0.0994567278939525
-0.558966518760434
0.922445135645903
-0.467720567525676
-0.0947409953208612
0.112399685403763
0.636653335780391
0.0735931819382358
-0.697039532447852
-0.688322386246209
-0.817795081195936
-0.0623095034908088
-0.14575737585331
0.731306064563266
-0.706420635152102
0.650384595090389
-0.799003324596963
-0.0242033606377069
0.315366107564147
-0.174758953244476
-0.432808345304898
-0.984212804617584
0.702754063095052
0.770444590058368
-0.318443129650335
-0.821495444705399
0.0712267643161487
-0.621366539693027
-0.861582586366313
0.661967729673006
0.480105291005622
-0.753429276107453
0.264939846905941
0.0734322322192582
0.233817619787253
-0.159069794488271
0.0999988409146565
0.0277788756224408
0.819450362139001
0.63819760311088
-0.527685771934885
-0.554539982170134
0.0731259658144943
0.319617935628451
-0.244464712659418
-0.801569963765322
-0.321440627446851
-0.806505259037069
-0.497197808345322
0.165051663867744
-0.922313740477834
-0.93524655725901
-0.0506600860476429
0.316503428288087
-0.68168812843962
-0.845004137783435
0.911180809403529
-0.412341533505548
0.13554145968225
0.710740975859379
0.215937503994803
0.415665266971058
0.795806319763563
-0.431915595582678
0.783379556507261
0.587249059294165
0.549606541060474
0.874499362397561
0.334957746035996
-0.968536332384903
-0.255543000205145
-0.209197231207739
-0.34127141570444
0.475566786792716
-0.295136467966948
0.253263261223376
0.482250821809207
-0.0137360024189309
-0.327559452410028
0.514991456059727
-0.341794740039288
0.30438992477842
-0.197444258657618
-0.344704685100928
-0.323296989269649
0.668474486489007
0.067486824969914
0.2740672495212
0.437064406087804
-0.650048120451028
0.986356303025087
-0.0481613628233951
0.963366549818185
-0.0279177824435557
0.820997344887404
-0.749273759767009
-0.311751925015865
0.00552954736296574
-0.628429294258512
-0.928831822078339
-0.185958561737501
-0.207654856322771
0.0219969483298937
0.408790060487234
-0.386434692465555
0.701359527087067
0.750477424117851
0.453411407233278
0.787725638541105
-0.734253913824452
-0.107329533873159
0.222177728724563
-0.905204036849384
-0.0864429423652116
-0.0657550238743555
-0.602302285277573
0.77940417444608
0.903864546764594
-0.882950755697309
-0.712098535013505
-0.0611990752150689
0.56191229094938
0.444180106342956
0.336239766593839
-0.0590042962460555
