-0.276896348863396
1.01235178410441
0.249281056178747
0.50729690381197
-0.131240804388581
0.240230403105893
0.823537409010719
0.968539639307144
0.374771013191284
0.762915175186244
0.0273865466907903
-0.877770177426321
0.838441369678782
0.349735690604275
-0.388346735860095
-0.0107117115801836
-0.614670137398617
0.195581363179822
0.993062929135849
0.343190283984135
0.164430790135604
0.874799952093156
0.780025593888818
0.863731126034739
-0.372311989470546
0.20313494913931
-0.130325706232359
-0.866874316657505
0.30355984285816
-0.766951827610917
0.60998139945413
-0.849696331369564
-0.0214359971133274
0.8278091048416
-0.698314509923313
0.465717734044012
0.44246841001281
0.106436351272915
0.163556580602355
-0.330369485425921
0.448743385665144
0.909817810188287
-0.960616059162331
-0.503133837242103
0.669159394135385
-0.396200778253156
0.313561309872779
0.512869615286436
-0.199036701625236
-0.117874816309085
0.564424836299362
-0.0750434316570378
-0.407530467988218
-0.346967877828277
-0.468673642693203
-0.0464886961327188
0.120579013855682
-0.141966317057776
0.369394506343945
0.38812082045777
-0.824474931004078
0.374511439530502
-0.94584496614742
-0.263475599127321
0.332000467300221
-0.182970849071995
0.527729853759212
-0.816076360241434
0.366413100412814
0.824096205547116
-0.455946430658235
-0.0651484524139864
0.472291304738619
0.123358082810572
-0.402206264245408
0.713266909813728
-0.202749825642537
-0.294685164635325
0.182065748379443
0.697974057503415
0.644240822767879
-0.0224210256788347
1.10715871687284
0.0911700232041156
-0.198668309910695
0.850897350395345
0.719861128313259
0.452024426257948
-0.825693388979652
-0.776215054195814
-0.21174026564996
-0.895635348213446
0.210664511489531
0.591457055404046
0.556588298120586
0.437475280966022
0.0815513311215622
-0.17192339863719
-0.533930269808255
-0.731904801524966
-0.25213242231409
-0.341678507395961
0.677144489020692
0.816240378379527
-0.691602866226822
-0.35297127258433
0.0640573933040609
0.980362535684122
0.961211236660527
-0.650503586337487
0.682885646953861
0.268023728456937
-0.167571489015007
0.840388275403173
-0.612328815436098
0.850364412167545
-0.0542380385568635
0.189120209058063
-0.206666456230283
-0.819997478864196
0.1934892884042
-0.97308964610675
-0.115600848464369
0.43166271401803
-0.744956215639122
-0.585706923769724
0.185912011814337
-0.299972660470511
