-0.266930964670037
0.951172836607756
-0.707932215243577
0.819586962442067
-0.573173887546001
0.846230770908159
-0.54206488843128
-0.21555967069045
0.531244271801906
0.678516941941678
-0.0174553435174112
-0.643551170512507
0.609905875884309
-0.0850864933479985
-0.873325011012864
-0.00821356290253772
0.505016437394051
-0.957370423975966
0.93064698827829
0.115042226030015
-0.493495900906146
-0.405359109030382
-0.28173060505528
0.158310557993119
0.183531457789364
0.234215028249787
-0.491958859623344
-0.192811040119346
-0.718835277596948
0.634026230289389
-0.282391365529985
-0.784510166529052
-0.0750176369426575
-0.884578045511743
0.345504461992418
-0.258505531432683
0.0968132121771949
-0.398538967189772
-0.561785687766693
-0.701611168775923
0.418723451363708
-0.162146869679477
-0.529215368963306
0.279244413794246
-0.304667477455665
0.208636932689328
0.456047334857066
-0.977110249072109
0.199674325339188
0.101450744682521
-0.245154206108784
-0.147643456655474
-0.387536404571242
-0.926068995428492
-0.397661904682378
-0.962064940012799
0.768153662949114
-0.237071416135806
-0.937855999890241
-0.553042034647138
0.0789156661164973
0.0332879808706441
-0.0632331537922661
0.58918761031509
0.251332327904828
-0.678713878063031
0.0112594975123736
0.70671491382623
-0.0589195152724139
-0.725388710019536
-0.0905502091573629
-0.291419915083866
0.413196419608001
0.812032055770636
-0.773088249114632
0.346864299933818
-0.27783538785274
0.0892929776600623
-0.866075396279405
0.474025537809689
0.272291119524994
0.812141393346966
-0.967295392649513
0.799169770632867
0.216243879251292
0.587195165231657
0.831100888981914
0.912768756709624
-0.470774789596866
0.169579795815234
-0.197552283711912
-0.697172415413538
-0.167973758914422
-0.241631173069706
0.307047911915532
0.978164790672135
0.119815531597393
0.817814843145519
0.842059082745084
-0.813761939880012
-0.211509119343678
0.0965476818786324
-0.281896403483962
-0.134221595432462
0.650753298508103
-0.886632214105062
0.0628575128031515
-0.921441733751814
0.402359701863951
0.334639106547121
0.599807489900763
0.388190634914424
-0.0222206566308065
-0.44060830854913
-0.634676138677633
-0.482864675745205
-0.73402304655095
0.0796483583477122
0.849693971125515
0.860926530237228
-0.797715230458028
-0.350421161820226
-0.37054335923604
-0.292594785635164
-0.720067073686244
0.103960860395112
0.191243912897104
-0.148620029133548
