0.320361591027691
-0.7566442983529
-0.880020979472973
-0.152071169470875
0.717305939161019
-0.0154217796892073
-0.764213731554278
-0.235792191734666
0.50316173784486
-0.365250012937382
0.35818341573863
0.892125344288036
-0.0835732403796065
-0.564937566887006
-0.117648019152007
0.156398993874887
0.515921959857715
0.679491569997466
0.572634167894531
-0.230581229826507
0.121186684639738
0.859440127263246
-0.91595794210513
0.0339529033227046
0.571263664329092
-0.713654217496853
0.968351693574119
0.543351721723776
0.636106573351837
-0.0700690365768362
-0.148305408070829
0.225325641885857
-0.61057336510417
-0.66858433571413
0.0506452083573634
-0.211633036998828
0.150783987390236
0.323033005883315
-0.0250151040180223
-0.167572947438745
-0.25379462413083
-0.544376454650121
0.469039079503226
0.379938593892475
-0.383958338785666
-0.0642761246041477
-0.913043649433576
0.031158982352109
-0.22422682635498
0.310627334914294
0.949966709990015
-0.112381535504978
0.889074832229945
0.261368786469895
-0.85316504015792
-0.517442491582696
0.408164484965318
0.245179836704147
-0.336694174949205
0.822365897976087
-0.37504572932698
-0.662597854184623
-0.242491679238949
-0.271966961983091
0.437170692400184
-0.515644532492799
-0.58981554896907
0.584179876505707
-0.0585671496837793
-0.056126726418386
0.292081263423237
-0.958098716520385
0.279913876783589
0.64236987045035
0.641433947089542
-0.289088388056656
-0.350317608851669
0.879476042050719
0.289090421841377
0.840534942402391
-0.527184748538351
0.359409983279866
0.18524225937872
0.76272423409651
0.0481854992945836
-0.517579714244608
0.678023643745381
0.494590258027629
-0.91816454202596
-0.724691946102175
-0.719606060533232
-0.441088184491357
-0.132003319266522
-0.503403848818568
-0.918133212583511
-0.177846471194508
0.0467186090262848
0.99195324905242
-0.651241147643179
-0.639029106524197
0.524682917521751
-0.51664047858225
0.793540661854009
0.125745807441857
0.345186742621404
0.3028891662147
-0.265878951382797
0.754951128864854
-0.22737483241018
-0.52009494045266
-0.176694416811305
-0.46452084436134
-0.408734249980404
0.0912391683722946
-0.979685650597274
0.770817514252966
0.453602391023599
-0.855172034189372
-0.80771231858224
-0.352191136756424
0.487287303591155
-0.97333389367365
-0.834257286009083
0.0874998942514409
-0.326708173702128
-0.537867024555537
-0.517555782022641
-0.46528950377706
