0.339592719185969
-0.407357755444629
0.875792420007878
0.261405539208259
-0.644562444562797
-0.405700583791507
-0.898064069183709
-0.991606668303689
-0.350650116783269
0.813635694954021
0.322105840506903
0.027608787447902
0.746275666448142
-0.346946778162524
0.673354830469083
0.54144479762124
0.822342901683901
0.552513968631712
-0.0711758953404871
-0.0770589975433289
-0.943591172121392
0.284139459989464
-0.901531118333945
0.57413058878661
0.57628653772207
0.687460753408617
0.445027889066345
0.00794118138211264
-0.157421163309184
0.800037073735113
0.375317491839063
0.354432481167068
-0.161331583802809
0.59786630603289
-0.437758045486377
0.0893060109791314
-0.356773524203036
0.778995315638581
-0.797147939216605
0.547588585296529
-0.85279234930283
0.0690514998212347
-0.903689676696574
-0.920555427798737
-0.167489011478509
-0.724339766409151
0.492188427489012
-0.754805137526267
0.897304530807882
-0.242897676458969
-0.944034241051418
-0.75252522710698
-0.935475306045649
0.751674464855121
0.746371548958263
0.154673133209479
0.857871297108652
0.0525904168411724
-0.750588110158556
0.418369533207935
-0.436469586859391
0.225291643149914
-0.730215679604981
-0.689402672564856
0.0364039816011953
0.412494772474297
-0.656964043046929
0.460415368515417
-0.867616086104972
-0.829222297986043
-0.896380488200175
-0.549295269572988
-0.559090848976876
0.669374662648992
-0.127656317889377
-0.286779222790219
0.193380581668048
0.123742930642481
-0.709482907226951
0.853031658041114
-0.672318474338061
-0.368246833482243
-0.492337630681462
0.2704614498543
-0.113972488569316
-0.866933017411228
-0.195708516324361
-0.63754179127745
0.534675729756571
0.23911369428369
-0.924952150757985
0.402992876758987
0.768913809147293
-0.738419235622553
0.235610188848892
-0.164044368017848
0.515384189379711
-0.214169774519112
0.707839076441352
-0.935287310736258
0.906454674561196
-0.375059263885175
0.301715371177968
0.568854532032961
-0.969441465740187
-0.322597278269168
-0.230421073796619
-0.966616577141638
-0.384891467071719
-0.62424175319762
0.839423313772145
-0.662505456372428
-0.427770829931938
0.442300435206592
0.187861980477443
-0.397544958614916
-0.293583834852579
-0.552677886631139
-0.099743124317824
-0.68253917830231
-0.659126462488085
0.140081492788074
-0.789244462262008
0.812357433239901
-0.345238118500288
0.812895149147881
0.537210209486197
0.833416238815803
0.647575864954085
0.269812339534632
-0.226368983263365
-0.763368746305258
0.723085207313227
0.813116974475676
-0.281795338076233
0.681858305886452
0.832262037728968
0.802852088407544
-0.422560137476506
0.232631097449338
0.543717659175922
-0.0145473564983654
-0.530378291935803
0.0356030510143642
0.841543942525478
-0.16108356886899
0.625468995944772
0.266868025541464
0.314207840178907
0.765066060892053
0.0647099780377376
-0.960128998885395
-0.360266623836828
0.599589100717864
0.0277398095875523
0.0519074547467182
-0.675627028914875
0.883353496846654
-0.0289965207284266
-0.056682570103167
-0.129103910733737
-0.712044769961643
0.0450068569422331
-0.0137040412320231
0.486798000393712
-0.706213609649135
-0.750216445356581
0.21545942897209
0.0092971453278603
-0.277473758123169
-0.172338582669472
0.952293488810353
-0.140575749812881
0.184715535199235
-0.542450503858922
-0.987479708803283
-0.380292662295349
-0.579378464905014
0.332982390097286
-0.387428697506804
-0.114282990177862
-0.896116336716951
-0.669292967699991
0.647214354499221
-0.62823165436486
0.156461750512457
-0.0408851186152018
0.965521200236833
0.497362469964167
-0.598604535446463
0.844587814123698
-0.77329897938003
0.575490629635601
-0.732461624445554
0.799645786336658
-0.29119032838518
-0.0145132770577063
-0.753799376580385
-0.872154634021116
-0.098154982690151
0.0687953081332595
0.460797510236494
-0.402075559351554
0.706126570772855
0.956650343026746
-0.888393865216171
0.444849997469349
-0.779285217683685
0.747148745766165
-0.702642251386158
0.457367965745306
0.0130755208770739
-0.433374505156324
-0.430734099989304
-0.386779628212681
0.180541200970264
0.201081027279455
0.645165853668965
0.576035297102806
-0.471211988358694
0.552799882703325
-0.991513641964405
0.223052642071483
-0.911425016996383
-0.301515032302912
0.62885297658678
-0.191151606959549
-0.84454879756455
0.41131359115746
-0.0503982049227893
-0.149540770925374
0.0173184827021797
0.110674893699295
0.338899254831163
-0.478737698840849
-0.737257945507029
0.918231111690203
0.0757458053327835
0.405152715587343
-0.675487801963563
0.174365517711632
-0.790313537407454
0.366918558856235
-0.344645728955139
-0.369861516737436
-0.123441183064053
-0.267905644802132
0.316893123277668
0.0220071058826621
0.842690559326536
0.953840958223134
0.318704547710364
-0.744207708846701
-0.637915516944832
0.0466392459818581
-0.369219249854943
