0.258367315838645
0.299520500213259
-0.213723132116001
-0.91277307827063
-0.247211129494677
0.910993270187845
-0.285635482069523
0.492016987469254
-0.208957218645662
0.868038507237113
-0.0353003103917998
0.429270651351386
0.603660357850702
0.679643699770059
-0.437320870002343
0.267877298098335
0.910150302625892
-0.46889958369297
0.214152328206379
-0.17551410026217
-0.0853128584803923
0.624826419367395
-0.445280680638575
-0.332381298627196
-0.222461091305281
-0.668461185234915
-0.103338228843998
0.558474155947765
0.575794707659339
0.196291595998377
-0.0687859398636361
0.84530253462411
-0.358089125943521
-0.947115718791151
0.368725242741333
0.321008076504905
-0.286709016146091
-0.97871583339199
-0.635181497441044
-0.574256688384445
0.606483686000219
-0.7123821065372
0.554038580715894
-0.848322143344059
0.0464823744672738
-0.582596319072708
0.243384504387596
0.80137648023207
0.289713208150325
0.535034459182901
-0.834953377261989
0.892324172943523
0.152571128578848
0.918103182550843
-0.296163884803364
0.732911459529906
0.995234370643097
0.309918991013138
0.0578968667517935
-0.199025818671773
-0.0420329872348291
0.608269694083457
-0.79960254613979
0.636732122690583
0.411301930960426
-0.266217026941785
-0.644242959066323
0.847623449319263
0.859245306349492
-0.377487701742403
0.388076830013355
-0.681587820961111
0.626294965694711
0.499096226744677
0.221871165941727
0.755139754618399
-0.222868844759531
-0.170667151926494
0.0161243034056744
0.488276811663179
0.10673661790235
-0.879014801580979
-0.26948844156628
-0.915421515428495
0.342689136145075
-0.916205475917182
0.535693814556873
-0.611975155295878
0.572856966046146
0.757470959489853
-0.183968108325261
0.722338585848217
0.712251066091946
-0.319528473821829
-0.814285903204224
0.0528731699761373
-0.90244426895213
0.574199977029941
0.85196441462405
-0.469346897233776
-0.874803758903523
0.490861140118374
-0.24456148111554
0.667368519142377
0.947528596523755
-0.731520862874556
0.0721831463114726
-0.753262809004162
-0.533994116131604
0.0655438419059271
0.210211878422995
0.550563124624782
0.995770204125629
-0.502504231826128
-0.97186261197319
0.622764500078559
0.0153823953287099
-0.887701988685253
0.899808450949546
0.280960780628112
-0.920965161032829
0.741492373470793
0.37836013167595
0.635996461663688
0.874924850746491
-0.116584042554899
-0.352299200594532
0.236217354073399
