-0.133907644455923
0.229368621290557
-0.833455531794798
-0.527772608742186
0.131930203526986
-0.0350225424511803
-0.476281205266053
-0.899468725192038
-0.0898076566884601
-0.854532776090193
0.122276176533032
-0.976143723185854
0.838767818628699
0.536168572034391
-0.722832336130744
0.138093262039284
-0.578638509482503
0.115881829488775
-0.437720897348934
0.023351041207633
0.516304696458733
-0.481393118680078
-0.953228439719043
0.64878001587457
-0.20604930992841
0.19679876472073
-0.245830654957052
-0.401977080711584
-0.527968781678285
-0.691891531526337
-0.406185070763598
-0.0959162861155835
0.672825553812004
-0.816654570809609
-0.634131943412546
0.452926633378287
-0.528755948346995
0.747708717568248
0.477620303940983
-0.412653660870737
0.508222036086371
0.416485380167605
0.763901203823735
-0.00988612855161872
0.943335088573573
0.635242141231564
5.23443359055076e-05
-0.550064578501175
0.758979640350648
-0.87597132174828
-0.0598932181180875
0.136857432657837
-0.455657337846301
0.602661547250694
0.825534491646651
0.626475461656923
0.141394137722672
-0.439037344654169
0.211708839468439
0.621443486277821
0.562026236744163
0.363425586887029
-0.120310914777768
0.203584551200429
0.823524964119993
0.0684609131611072
-0.501604203259
-0.367253266474739
-0.106906831424639
0.964055112181816
0.367096110553079
-0.672535059972359
0.653386986792023
-0.679070774409306
-0.988811264662941
0.248960871865048
0.112613666925298
0.688357565884518
-0.69761362638562
0.685369547803591
-0.339359590422188
0.880073010015381
0.719639739371654
0.497537985978765
-0.923713340715297
0.57792154526843
-0.885176483889327
-0.912432478680925
0.80295191745746
-0.189294456935669
-0.172910112503802
-0.779762459309255
-0.0550279242748594
-0.76335548375464
0.563895352938548
-0.758537065764529
-0.734839725922403
-0.564140361861474
-0.0502777684725963
-0.748477924208865
-0.263227357967131
0.259350933753413
0.831743104893924
0.620356239162906
-0.995754394827871
-0.108176666130708
0.695305078015388
0.256817968714144
0.686396189598279
0.0689717870479269
-0.561095951064861
0.480241884252473
-0.781305297634973
-0.948303117744262
-0.902171126274657
0.137648864149554
-0.439776673996837
0.302102096397085
-0.87332619000938
-0.248898926874626
0.870997730073457
0.554561168708463
0.459878494714227
-0.0126426678743766
-0.356161802309702
-0.318056405674013
0.218698931173019
0.965736262700081
