0.400524354322577
0.79816509960719
-0.38162512009047
-0.183870197075232
-0.4632849311754
-0.946824366113166
0.800275985940692
0.0500614606115966
0.102973167564648
-0.143030378733208
0.861748854690354
-0.73456483568968
-0.662218333516159
-0.182882160092272
0.657159005923163
-0.286079005250081
0.0458983572889401
0.844750854555926
-0.250822770312598
-0.236340720925242
0.773460249354751
-0.635041594642809
0.423687619281858
0.845687287834514
-0.689911146149371
-0.543318698731628
-0.447849740346466
0.692194858085302
0.801883960595668
-0.18434242123622
-0.453857208995399
-0.483862939201875
-0.734167685621366
0.865542896680466
-0.191436945401548
-0.514539190362065
0.966613046115098
-0.494242861861751
-0.0854217769813216
0.635713099364069
-0.431468096142979
0.48417194288879
-0.228053519974581
-0.809405726767406
0.775379148782712
-0.0824382401998736
-0.364994734628167
0.643901174253342
-0.248543802241682
0.284684630824319
0.0561858529156969
0.700719568659329
0.471015722436221
-0.6859461502951
-0.925592089629991
-0.472941993374139
0.0420760435011261
0.0537014669246862
0.953338960611932
0.889017468723489
0.983011142391268
-0.998008521670443
0.926557338213265
0.831390042667061
0.748225597995817
-0.810970679258139
0.414305468389597
-0.638021493844399
-0.460143584223463
-0.755374763671998
0.656764050948966
0.508582990280583
-0.534264768020588
0.0053118209287817
0.594417124370684
0.433546522717997
0.581915998662587
-0.902984299160513
-0.54738893931178
-0.986291453231161
-0.74891504425419
0.852911158640587
0.727293140565139
0.203627935288124
-0.571564919060355
-0.324553733557229
0.103724149819145
-0.904683271870166
-0.929139503119578
-0.169304957718585
0.0417637824624049
-0.329601226789298
0.293237646247596
-0.920245222723388
0.574211567230549
0.47230656019126
-0.834843756713322
-0.650208621318672
0.720345705274456
-0.134957191799782
-0.640063048810791
-0.482886402233824
-0.45639714119278
0.962030548522048
-0.0910884338222123
0.244643988642881
0.454292423886559
0.907883192469925
0.817071350219917
-0.163476178108961
0.954366722489109
-0.530601467797838
0.952541990990839
0.133605997043249
0.548641098255826
0.221749885215232
0.41889039421362
0.839038109094474
0.45590255516605
0.622647592513426
0.206995447776195
-0.0110214936551449
-0.19678180290284
-0.550476818857613
-0.31872315428629
-0.787441921537351
-0.18130923607314
0.544527820803674
0.122635291342701
-0.66648155104245
0.0737084024174937
-0.812619661077772
-0.343130312983075
0.170524609122526
-0.375119593826388
0.11985500097422
0.674567991027662
-0.0759610756016265
0.922834926158949
0.588517705650315
0.890638145010165
-0.926361495663792
0.602820988830831
-0.458425972730216
0.5419283043451
-0.988904524289797
0.512210923600969
-0.609771141731336
-0.684056483549173
0.076135406560362
-0.854770700107446
-0.124297026641805
0.00849949559204248
0.361552276886655
-0.105439699873852
-1.00219987447296
0.341411742304308
-0.0845178288797311
0.181644451413632
-0.0710939642079112
-0.175367742830879
0.768856962959706
0.204474182650725
-0.459615282194834
0.323579369380231
0.372692124021712
0.357644598163054
0.214812169497056
-0.928181882798667
0.32112021305136
0.680003235639072
-0.293963207703817
-0.32558401706277
0.03079411315102
-0.648580248907707
0.816155512400418
-0.626210719814568
0.0883675188298534
-0.791825343352121
0.801931416388975
0.450225756875764
0.84087976020817
-0.325201442587395
0.0421736665577425
-0.0768159393309717
-0.153388237544308
0.758979487916189
-0.893721237793446
-0.623378777700372
0.726288050719334
-0.97335908678423
-0.00101568114842107
-0.397848781728287
0.0780460473859109
0.518440206807618
-0.515550205899293
-0.582313580558869
-0.578490279465029
-0.718932132139425
-0.89961415116102
-0.158103836128207
0.314637926255217
-0.733069219782157
-0.0977787460494735
0.473113244625727
-0.252959995810012
0.0412178319314989
0.335908048232534
0.253055499162707
0.737041984805417
0.750801124190001
0.977008588450533
-0.583018390715554
-0.480725690793599
0.813757975349912
-0.795030883399866
-0.570271609200805
-0.245869843579929
0.654670813853825
-0.603990964647325
-0.245306324653169
-0.269052274726398
0.432219491494161
-0.0816903121633964
0.444241851009386
0.596599796698804
-0.984847158758106
-0.185996512504326
0.3911685871885
-0.928747479907688
0.527535566827234
-0.690759091028766
-0.0135147031570441
-0.90556444613259
0.0144121434537922
-0.87015469270906
0.773294854130646
-0.682695633383641
-0.949155064024478
-0.846607848197715
0.389108423268982
-0.603304786797975
-0.914185107864992
0.967667562092452
0.484200366325949
0.866432945215936
0.116084700583548
0.859292498292709
0.80572704363049
-0.243707194401581
-0.478776180771291
0.425278323992104
0.236421113417313
-0.652815293695202
-0.221965313249912
-0.262121305230881
