-0.483196872166999
-0.0571226302943575
-0.797859436453096
0.096821797759419
0.84316541562799
-0.612090338297053
0.443790068037631
-0.0336510946996109
0.0814718654866486
-0.561258040938062
-0.261889831804665
-0.764529528387206
0.0130725975292278
-0.798326361862241
0.822372617175491
0.687623664405233
-0.00832362569233425
-0.801753177949998
-0.403833438340781
-0.473036119404656
-0.607793335960821
0.151264167289646
-0.524654205453354
0.197800654799354
0.0411823694397644
-0.612046554576001
-0.677163336837381
0.951986940464549
-0.405074974433508
-0.251274241679985
0.62539700760398
0.246526655742545
0.668976131619122
0.444202787728411
0.584074612305909
-0.881503288387533
-0.93207346776248
-0.702809910402717
-0.152600865047176
0.709969217058112
0.960860925138655
-0.537410401015215
-0.276478859081144
0.996043712025482
-0.0352041655583901
0.00254676538350163
0.957600312089354
0.395622721645232
-0.930562020007876
-0.671573660710681
0.0478258820437034
0.0860960806809246
-0.313074996654678
-0.221942606887511
0.95736232693663
-0.701807103777813
0.356702173896589
-0.662475444524656
-0.419912406412563
0.525086490651497
-0.376112355107542
-0.734492249527422
0.541305812529109
-0.968073596818168
-0.119864703444078
0.35840386781289
-0.836745529133248
-0.633523633193674
0.614291483229752
-0.0498418744795142
0.452237548180564
-0.637423637010775
0.0170157962450204
-0.556855360159968
0.0680723375391226
0.388754802333444
-0.0527823347764615
-0.738195964542937
-0.411960960440296
-0.595819479531832
-0.822988050735757
0.0488379170780551
0.684879681039813
0.156874705044087
0.933241802722043
0.211164899414296
-0.731323490609809
-0.154862576398287
0.53052928552169
0.935032841653067
-0.403228589403271
0.290115659625087
0.625617563438989
-0.725029150618418
-0.180418697017095
0.091592290282132
0.845889560604016
0.417140355678504
-0.478095079562114
0.637169266279269
-0.133618231307945
-0.873270568524931
-0.239484902436449
-0.844358054779917
0.982728022958329
-0.46414160287101
-0.770338361770824
-0.940551858464846
-0.116376052853167
-0.850512738575962
-0.324453078137294
0.820626196805439
-0.174056093280695
-0.259870054343463
-0.362785877798319
0.844132688610518
0.0328958687308389
-0.169613642664247
0.112464308423548
-0.328864439229059
0.597232165922434
0.811477890704569
-0.677385537257344
-0.500154458421987
0.718905510970124
0.916370730317393
0.639787705298377
0.171499637838338
