0.861896190704682
0.40955464046058
-0.828509551003179
0.63750142423234
-0.686912362574685
0.341663982321901
-0.606767566132382
0.195849039119016
0.939367891106065
0.660169883461407
-0.646965941854877
0.226093143908964
-0.325614795837469
-0.540007498789102
-0.251154135492022
0.219440037356936
-0.377830678065907
0.518215068429575
0.00270348510085212
0.854444481441192
-0.785446875998932
0.255075342167907
-0.953057007315824
-0.420916217347709
-0.816913973811881
0.756201623276907
-0.594052916358584
0.433092143304301
0.0490819245448844
-0.183526526033151
0.830485353986926
-0.351460948915384
0.809301164729638
-0.741450068224273
-0.376818934003476
0.384787928430499
-0.0465622298886353
-0.718185117645846
0.0773627843893677
-0.339342363799136
-0.0294793749823149
0.0798793535784882
-0.236468255527018
-0.550684212418135
-0.91102774537548
0.788749430010405
0.228497711430311
0.643554375763156
-0.172477902198055
0.673361317639709
-0.568005352200388
-0.922204880370387
-0.0762948926791641
0.413343682381751
0.642072858952068
0.522505082747461
-0.9828542128619
0.632062043778126
0.372153267746058
-0.908486860247619
0.591806864354144
0.0690222971239701
0.113827721524382
0.347958381357456
0.693089778040738
0.208038987341151
0.842668515523489
0.714492026316351
0.448690673083176
0.794625225447877
-0.0450592231377395
-0.00782867386836259
-0.720927813630059
0.11061306287462
0.891024441400578
0.0185996298089576
-0.864080507986791
0.91718456420356
-0.90612730313688
0.0935469060980352
0.175231988429095
-0.031635835861766
-0.635786620699357
-0.895080296711637
-0.489634265075196
-0.869020471904295
-0.0650943245370535
-0.57036750263051
-0.298978207889342
0.635229816996021
-0.725011956853488
0.987234151073169
0.0957371389340421
0.268398175876341
-0.0241209279472923
0.00488351515685384
0.0408709398888119
0.632804810949457
-0.0928135984227732
-0.144028344548996
0.414476609695211
0.268511320066878
0.567729135113728
0.236328830227621
-0.770750690466569
0.569375135149514
0.0243979628806733
0.133466201293331
-0.549116912647598
-0.618114357127044
-0.258937547522492
0.236340908196688
0.520461613793926
0.270465327693598
-0.924226610641891
-0.669975894992617
0.346242866265923
0.0812509999454724
-0.158819757726294
0.437952954021211
-0.916111843285992
0.881546375184715
0.281343794770622
0.717965629599879
-0.44597032842289
-0.594939690358391
0.33021596090888
0.113735738696965
0.323620379539185
-0.756492657589633
0.533308542421577
0.460640512769432
-0.784710004733185
-0.756578425051283
0.772361721301985
0.222459874633576
-0.776909401816137
-0.752930947820054
0.959088921296031
0.0201279498997292
-0.52399899650567
0.330571889352751
-0.403812410644804
0.714029796182909
-0.522271554309544
-0.293446532365797
-0.128520268287577
0.523677725730179
0.511350537927253
0.645724097004411
-0.0824263353443015
-0.534315791136156
-0.833342891902593
0.379382145164506
-0.859781769848993
-0.164818773564332
-0.0798840807255221
-0.708455160853294
0.685357307194621
-0.0369881821627125
-0.719242074619677
-0.826037289987987
-0.279415402886502
0.0962453575108368
-0.383750924235657
0.501227651623867
0.0614475965856168
-0.601786168615223
-0.677374794719535
0.669563189714985
-0.935996222057029
-0.598188999632169
-0.486529605690305
0.272175987608491
0.863773629664583
-0.812051437220857
0.251765297624068
-0.688158431140858
-0.990872891291332
-0.619728946138237
0.0966406208065427
-0.00923559572591368
-0.0479746865473165
-0.410823720547881
-0.941363871654971
0.649995717777086
-0.98909101060996
-0.809085187078331
0.429364678615434
-0.106356536523198
-0.210630251686732
0.0967562344152887
0.590263758571046
-0.111874901149064
-0.227999293587581
0.196175416097715
-0.698038354420373
-0.144128945857643
-0.158817311542402
-0.487873907691706
0.942186884383989
-0.01862603292307
0.16269145796717
0.413757595592689
-0.118990100209323
-0.434258791588577
-0.190043462596499
0.237727705479396
-0.0983161770724678
0.534766074184942
-0.377882125112129
-0.815607662588605
0.0914582275637153
-0.691857087115594
-0.363038834218133
-0.582200561241243
0.806474390651924
-0.284713282296289
-0.133414046513421
-0.885152930819741
0.445863674236525
-0.0865742937234479
0.319860845801051
0.592231598812146
0.665432104392217
0.81867335372697
0.645356411378009
-0.863210148596787
-0.545597995117078
0.541607023197732
0.805998950087386
-0.95687973668667
0.253624012189332
0.188180605007355
-0.758999325206632
0.148390473830823
0.23358111625761
-0.512265219681255
-0.979946340298131
-0.197001468452026
0.824146797356959
0.802745502085439
-0.364239560557378
-0.54975114519638
0.379546078402749
-0.474258685902812
-0.0603738062464397
-0.417809862967468
0.23430279312853
-0.978594712815196
-0.69321411302939
0.706734293064414
0.513029999536183
0.432959114526013
0.47439884849734
-0.403059551441358
