0.758328013174468
-0.363899576116454
0.342914221466699
0.0527102444510389
0.0224824466966189
-0.895892546157765
-0.22081773237804
0.452658406006664
0.496817289353303
0.381158878018335
-0.810504157393325
-0.943701516016817
0.33826118725381
-0.0440947078693574
-0.121171499642183
0.798011523340404
0.217432733568884
-0.594913727949673
-0.255941666126924
-0.53433369967353
0.954221686270082
-0.460751114383855
0.146423599178713
0.226264283820247
0.515460774478692
-0.375980794188254
-0.0755649603799658
-0.0473217531750393
-0.17437430190636
0.288359201302845
0.754496774588874
-0.763190125720187
-0.712823496346693
0.0186267029357653
-0.886084429199637
-0.506446734225592
0.311423637773254
0.617452793273652
-0.415475436606144
-0.993749664316658
-0.725207649526132
-0.776639730184027
-0.793959410773302
0.419559118258001
-0.609836183687166
0.531567090634229
0.0355964605550003
0.989207988435327
-0.33798076676314
-0.868920709370483
0.370666453254591
0.434084334340229
-0.156305350162565
0.216244609425159
0.64740284560403
-0.0532922812780158
-0.982668700804051
-0.815980399737972
0.595275682460716
-0.158301640654284
0.0225608689645553
0.53539288453271
-0.779675109591965
0.864693811835843
0.360486484645076
-0.963211912751666
-0.299966110979508
0.720407414659886
0.607748234579662
-0.882322140458453
-0.131849986782056
-1.01276544809076
-0.123810998209286
-0.745820354309075
-0.631883509757436
-0.139492661437802
-0.518207544538214
-0.15630420747416
0.0822832515832781
-0.0569390641321806
-0.830134263379007
0.24464739150355
-0.707095226772682
-0.168575034932601
-0.998147817698251
-0.150189031103686
-0.709758169345121
0.0294957439686504
0.623831367028456
0.246349094935934
0.00860280024233345
0.604712206863964
-0.888872138594509
0.556773203302752
-0.623132077468892
-0.368272882703164
-0.399222858492146
-0.534252513998853
0.753352855859479
0.786781944152593
0.664658096489774
0.830464839729838
0.387631588723158
0.977101149913647
-0.379023646781911
0.218491941819556
0.448942709966908
-0.72424001536244
0.0838736965830296
0.937009985779259
0.0232470470674669
0.286026875939486
-0.872925155158327
-0.253734603950572
-0.575122136891589
-0.936823715630421
-0.720444626360811
-0.186148416445031
-0.370851040179503
-0.569401890764803
-0.556353528288709
-0.142738587751609
0.74430193170098
0.947949114277712
0.323167915093029
0.601364875420442
0.0856079049295089
-0.773699791217004
