-0.28400745350539
-0.0198272977013774
-1.03598030297955
0.378352730243382
0.551740694406219
0.714145807314129
0.59212139744322
0.361191490737443
-0.657467936577553
-0.0454783477145297
0.902715647170152
0.0670184475338728
-0.66410517832976
-0.145678218092378
0.628534208621265
-0.631758812582497
0.451202602175014
0.294708318052319
0.748147774966046
0.669315344140416
0.293790512120384
-0.245334404853767
-0.517471844106428
-0.420116927394587
-0.890917014507337
0.427956105016997
0.984808159751887
-0.927809675935915
-0.389824848440492
0.296832791149168
-0.373236114559837
-0.946857363353271
-0.79860413236446
-0.870511185833054
0.764660608327456
-0.661933937762499
0.283865144955633
-0.760848932272088
0.341656634079693
0.385555417575982
0.548773761821486
-0.84814774151346
-0.353132502187851
-0.78909969691167
-0.700439145420282
-0.752878295055742
-0.954410090236104
-0.711558717778638
0.467910729566215
-0.958031504039393
-0.228191351765281
-0.727030879077254
-0.120070775035051
-0.786981010684444
-0.695961224453097
-0.527530610427817
-0.659551029777514
0.218153501702311
-0.323370244492469
-0.253016863762694
-0.786758540315507
-0.554822706371376
0.220474185283303
-0.507697654145784
0.714957867917077
-0.0316573959837398
-0.656226737952714
0.426127212186119
0.0902233760158832
-0.317324055453535
-0.477917956624835
-0.848361075149495
-0.277459178689622
0.132837198871242
-0.30506449322345
0.537984534681063
0.693245662228751
-0.407954676367681
-0.912337430379568
-0.996572466343305
0.552641483098475
0.751244233089633
0.8297004690304
0.804762658526358
-1.01156648766411
0.139086475835996
0.797504994957184
0.756545267097156
0.840247708530919
-0.279945345027368
0.467481172660571
-0.935565877134068
-0.155292688833862
-0.741970328791292
-0.883040253086053
0.222498088388006
-0.410413647190611
0.721670795447974
-0.0936977442365653
-0.00051057338616531
-0.677593452630214
-0.284907504085861
0.538551291232964
0.87474300562061
0.975213037241036
0.461406773683362
-0.946813916248999
-0.0296869437830981
0.551570481632213
-0.610628157615981
-0.593209867289522
-0.337775749682802
-0.22999499588594
-0.135337161798269
0.929190566778404
-0.0165099208177659
0.613687043614169
-0.413208614154227
0.720825859156373
0.517342491103914
0.928080295569632
0.417042091410388
-0.305039701880286
0.227313966229098
0.0977739328503612
-0.50110936719477
-0.278292055060868
-0.0514497658689944
0.282234005655013
-0.1745185403117
0.288299852555889
-0.915971234067167
0.472918688570675
0.49758983111277
-0.60075468628283
-0.130909763527584
-0.97759838725933
-0.6197750736025
0.452573825401314
-0.471036160685039
-0.666324569958366
0.23730873167347
0.853699770991954
0.946072966440943
-0.258004519077966
0.147025647215675
0.542916744962854
0.386096563100243
-0.988164164074431
-0.279936848736211
-0.880376795481703
-0.771723673492941
-0.356959781038433
-0.960386471394572
0.523552535640081
0.245577406098577
0.879670596404738
-0.0413095023272419
0.729782394881719
-0.931913287328469
-0.134614467711114
0.193961764067691
0.887523925801033
-0.507005760443543
0.888704886358673
0.666235662060472
0.0519358626030694
0.211543130241783
0.129737452095565
0.735787957965253
0.797826222118884
0.276669374482962
0.610014147732854
-0.771891754233074
0.0793947785986428
0.456869261194257
-0.856915760721412
0.619880644941599
0.365667560832347
0.682343917624085
0.882976000444836
0.270327845779246
0.231582416514431
0.388968106165318
0.365290351947802
-0.622974821240922
0.916055083973143
0.106340241692411
0.213580864272276
-0.796828604180734
0.831732092846591
-0.0971400992127392
-0.221914275303812
-0.819971537983608
-0.278547011952349
-0.0222105248686446
-0.870362810790105
0.298535821729398
-0.566505415384821
-0.0627015847813948
-0.376251894243217
-0.480546110888009
-0.117008851450777
-0.424528370182033
0.916269269246881
0.904595676692318
0.347145121055771
0.465894306065866
-0.956500735797341
-0.999111766459417
-0.309127104178239
-0.818749368743451
0.0334625441456561
0.115866988734425
-0.195061819035624
0.417502775906428
-0.528995248774185
0.491695973848122
-0.570897504977572
0.941924545073915
-0.118813316860683
0.0104664645262008
0.583192051462338
-0.188596139061847
0.644975818529128
0.297077593557003
0.166093561049748
0.681132043198288
-0.24312915230966
-0.514135643453297
0.363150593565783
-0.650265746306472
-0.340600468575564
0.385323121428046
0.708179015044842
0.304606864483023
-0.502833973146264
0.227172472621888
-0.652619050030495
-0.732966167914578
0.197417448383151
0.536142978336457
-0.224260063368165
-0.917529126033171
0.447909565146528
0.36717739709771
-0.826179554307154
0.0251430197375921
0.860547028033994
0.734657216857339
0.266744930353277
-0.339647638353107
0.486985201973231
-0.253253707608284
-0.456030394810251
-0.658460054533479
