0.304441870124724
0.656757543366
1.01488924322842
0.595919256816472
-0.27994047240318
0.69088139849852
0.806445115643087
-1.04052870545671
-0.587034043030034
-0.742289664856695
-0.205501737385976
-0.903865081333804
0.0925455129347141
-0.691304861145559
-0.934874377614963
0.816224559548523
-0.397408765034887
0.141754005585808
-0.370661896124918
0.952463356238503
0.205042181700827
-0.102780894810659
-0.495383690955951
0.817459120501859
-0.758995669447923
0.00618147622397849
-0.637974658041799
-0.3099779756929
-0.58546213454206
0.691494037918198
0.0987711493272321
0.851533804110795
0.283630686027764
0.246771031426459
0.183411667971539
0.450467022080137
0.300414790998727
0.793577713892164
0.544599133268605
0.256774229852759
0.801859028419347
-0.13760161235617
0.0726745878078521
-0.0159390045710265
-0.689186777548143
-0.0740096477086829
-0.604441533013715
-0.890555973352905
0.450718651693854
0.133950687015684
-0.466144998176847
0.390240371957507
-0.138642709476533
-0.124539850929093
0.773385506483962
-0.594548199207938
-0.917393582206545
0.421692828732669
-0.992907536496634
0.299546487592508
0.132031463653282
0.252139194897008
0.963667609781614
-0.635402114851353
-0.713056379097532
-0.286565566691777
0.832346443800824
-0.414265394946678
-0.000514032839574953
0.670603748504453
-0.507764062013613
-0.0351011110545817
0.553127317516815
0.159237737949086
-0.662916901321014
-0.303851447905479
-0.910328312863392
0.3551762101316
-0.659675547432488
0.158969168622246
0.189588102771392
0.0609314983606502
-0.839661586892171
0.312531219844086
-0.196948043365981
-0.179760544168732
0.964470664681898
-0.33281584023708
0.77259494514116
0.256569419894941
-0.0437595497322296
-0.452624842118432
-0.61411714674021
-0.72493740379344
-0.839217025807034
0.249869565371794
0.395381413054586
-0.543244503813949
0.108453177924841
0.331393821689359
0.792721561601604
0.102131942112935
0.383501862751881
0.404194117410511
-0.893271691588425
-0.542931891022953
0.15225785959001
0.293034720721137
0.0856685574083801
-0.488823937665922
-0.802775251630217
0.810379160716957
0.437308643212933
0.559974802216191
0.551263357659719
0.613175063984267
-0.807433616661048
-1.45470974289598e-05
0.582206882797574
-0.509384459790958
-0.927992787798685
0.621259295475719
0.514452297745886
0.734802347966522
0.351664465981648
-0.479313877238824
0.724170343907276
-0.108874440943242
-0.061930986296348
0.480676270582405
0.824482527722804
0.612591848655912
0.0781898833558339
0.281060135064287
-0.551379255098352
-0.174317264436585
-0.0945085147692813
-0.978731565890776
-0.40507241047478
-0.85923277515594
0.934516052205334
0.242785135591647
-0.746936970233829
0.328192140078943
0.193209510421036
-0.970906760136591
0.908519848204297
0.368258922248535
0.355298094527796
-0.479735071930076
0.194202672323656
-0.0157109302643956
0.0707882679868111
-0.602393951756315
0.225119254894043
0.117607038229924
0.713134562799185
0.241493185635956
-0.00817710357333946
-0.249889971164636
-0.0251052528586768
0.628174559826249
0.0351033672985266
-0.517709433392883
-0.599594705856421
-0.0741408871859183
0.319970246946615
0.936288126303086
0.364678164186008
0.268576162181379
-0.764716740275667
0.209399199294464
0.37574899006274
-0.924736623012788
-0.290746713882131
0.348049520745517
-0.55010248342722
-0.930643428544355
-0.208918968182334
0.929661891203518
0.793313748390029
-0.139665842664083
0.321724774791934
0.616926479047754
0.455953129027836
-0.341096499008668
0.647416811098456
-0.987496076716426
-0.758127940233808
0.0268070834511356
-0.72920687611056
0.758845393941007
0.284018808266596
0.171402398454495
-0.484891907154853
0.321601945776907
-0.847013940645985
0.503917126091025
-0.801382526324327
0.59324815963384
-0.670925191687055
0.709892800993296
0.474165801994289
0.105969499400854
0.728489328955268
-0.950168426808598
-0.127602806189825
-0.612717208067559
0.421804633291837
-0.462121617363153
0.387715179038213
-0.69243364132228
0.907826859124119
0.248992928964321
0.831455198721808
-0.781316464776214
0.241426539580549
-0.153754597371604
0.622500427565736
0.0555780791531251
0.467503904114421
0.7963487184295
0.102244454226418
0.783551133801493
-0.401305247094113
0.885001410969668
0.990307478516553
0.775411788564735
-0.536219324015063
-0.9290864892799
0.597423199398905
0.185895560076417
0.993717652843411
0.207758974270006
-0.32024387458024
0.821111214445642
0.698047708275581
0.745350798743985
-0.326446106449079
0.508704340545329
0.921435944638165
-0.603003108582474
0.893656671029147
0.912104215393645
-0.62804018756098
-0.209658732773075
0.954082053541283
-0.497165120102
-0.940948204570885
0.716645695703111
-0.837787581607657
0.120006822626752
0.811427370036078
-0.495281658718303
-0.452822398017305
-0.257326948396706
