0.132670705585081
0.818882901985198
0.454651279474735
0.472576374392605
-0.412802534824171
0.438909559703382
0.618277526642919
0.0150740362404032
-0.174670937862652
0.351715944096268
0.783343334634336
0.299792647455837
-0.1002737717834
-0.271741587365915
-0.564814839000713
0.313356030792596
0.944392147468819
0.611875951478864
-0.142884019060983
0.44431640307547
-0.43616457619835
-0.0333033957217223
-0.694355741243005
0.805760948288017
0.581373347748251
0.872800133305091
-0.390769069802143
0.111719549276317
0.613209342082911
0.991156269190554
-0.660997011131006
0.164192064704957
0.718902852929653
0.77034579672822
-0.804402356765931
-0.702669144452466
-0.963208045609297
0.578392241812416
-0.927222549872069
0.680842139510128
-0.307762477255061
-0.768771882497258
0.892811216027244
-0.0107091302744859
-0.635947010563994
-0.948535829753431
0.049312565542451
0.0929764224802313
-0.203759717828574
-0.124313440640471
-0.643816603845831
-0.328534583738974
-0.60981896818588
-0.543860760357261
0.971982940074286
0.0552936556564474
0.956345951323003
-0.644064637487808
-0.101541909010046
0.528131513130216
0.685079889516289
0.259597434817694
0.121935260240749
-0.0726400185853118
-0.519376862303844
-0.625456009254774
-0.105035584474327
0.815894403018205
0.799362144230553
0.927407382676917
0.697279506760658
-0.155013366793883
-0.0752677315143661
0.251968649295098
-0.437081364412928
0.00828608627697493
-0.708221793259409
-0.695610851460412
0.958420649990089
-0.23858651009463
-0.543987106218506
-0.595894780111952
-0.397439585061383
-0.701140490015562
-0.398374510324198
-0.342520133446223
-0.885631307835
0.939520565539425
0.90123079858838
-0.503593617878635
-0.665156417245084
-0.0452223658620268
-0.281974727379965
0.740858824825874
0.945529407781088
0.494285117648262
-0.519884876674766
-0.219669388581896
0.170480343471617
0.538450854900591
-0.686168680676118
0.270940250172444
-0.329758156443866
-0.20475448339299
0.0302454718192751
0.911837439270908
-0.717594384083391
0.209219655728762
-0.369259267585244
-0.367910669723254
0.5630092562436
-0.985633625872067
0.918127874166239
-0.679896969929383
0.801450845066264
0.517058658235405
-0.881047830278074
-0.164143468356203
0.186200257525383
0.527110070071807
0.845263778383095
-0.682812049945179
0.511357452157962
0.501601248296924
-0.574586728901249
0.102827444128666
0.156314057234405
-0.679489359438606
