0.0718248287476526
0.6974921461342
-0.857650927294792
-0.373254231406438
0.512673586842664
0.68755180993126
-0.19425934347121
0.898150235431195
-0.090680438797014
-0.84669828343733
-0.961575402300845
0.914725143871916
0.687971703220326
-0.0948527519969582
0.257032878272016
0.191940668570709
-0.41137749642497
0.134411400248331
0.492817955647875
0.200456915755037
0.979920622002627
0.827721903258808
-0.485232619569232
-0.694764332535777
-0.391334999787287
0.700108388500835
-0.318879623967678
0.269357366247417
0.757774408254981
0.538325456372097
-0.367298515443518
0.26839941577523
-0.231241887314885
-0.852125638656659
0.980619030698635
0.836279199122137
-0.323874285432929
0.483838239618969
0.716312661154214
0.58689248310816
-1.0227226254564
0.392937129896805
0.860902685997874
0.849561363800387
-0.426206194312309
-0.241637312501078
0.12805598519405
0.756985317396063
0.846308005551584
0.0429856519377351
0.141797515317496
0.510646392724364
0.316749240657123
0.976973780163987
-0.161920385545467
0.565461365139666
0.989472360768263
-0.67961443887529
-0.187620174180606
-0.0280373291202386
-0.545674933069618
0.361749349294469
-0.65831036373558
0.415148266601807
0.826540023593628
-0.0850892344639604
-0.507839418411544
-0.302484500418221
0.176533770291135
-0.270526401637234
0.851595535939797
-0.635230202227174
-0.367951161393867
-0.511140819057971
-0.991674724918233
0.678727812288055
-0.578651653186833
0.249185166152729
-0.861542610560282
-0.592823566555506
0.668077842064497
0.800089734746815
-0.0913854986910357
-0.689003827758969
-0.251913727365879
-0.364027895980491
-0.883520872643018
0.3599938151465
-0.189907711669997
0.0184501672019919
0.359547031091622
0.744524243137197
0.3770257972106
-0.354004394490032
0.0617452288599079
0.84361824064713
0.00788208017201087
-0.299061977487011
-0.0661806825397411
-0.53921363254244
-0.11645406460085
-0.203142394861587
0.0356818751196541
-0.409592418183445
-0.396123274829232
-0.967784414868017
0.0536997517229629
0.622219522171131
0.0916581361483416
-0.483486776148206
-0.700828113827131
0.903991924063539
-0.546845409011107
0.0254296242025512
0.376927111067366
0.614313035398962
0.520605736480357
0.0359759725174796
0.419296668338226
0.402067809043424
0.661129911185092
-0.437403761198351
-0.962975827257961
-0.78610916383207
0.38663042432461
0.673387677182885
-0.61974950237314
0.374483135902819
