0.453227680775246
-0.375313293480606
-0.971942013861985
-0.539492197695694
-1.01913247091481
0.234670627111461
0.161754684804245
0.672052064959608
-0.945833380415805
0.149308646230686
-0.149679291688057
0.316787322758618
-0.175178611409339
0.642878338799081
-0.52493459052314
-0.470863541737864
-0.281381986777046
0.6565557968671
-0.27148141418131
-0.330502351935847
-0.507680240773958
-0.296941650258878
-0.433436484792983
0.0897444552279862
-0.461615660502555
-0.944349237472797
-0.721026387365475
-0.28038784445743
-0.073163018885267
-0.964798562287289
0.248807660167919
-0.172637436147746
0.680154319853327
0.378421741708955
-0.430446110151287
-0.5316933175015
-0.59500725607629
0.602385333871133
-0.754419900547239
0.102811597698125
0.614199724380402
-0.561958643451815
0.708563077613716
0.497603095176792
0.572255359455218
-0.706720571367858
-0.134539109379772
-0.336108251772666
-0.860859815900559
0.208818101304524
0.696564299857195
0.346631514732098
0.736322666869365
-0.0137528388316103
0.773507585032922
0.244009328778104
-0.0618444461821275
-0.295898301017873
-0.886184129281367
-0.184412288474005
0.130775692158113
-0.0351831919276987
-0.156124643488896
-0.474197629323348
0.602164681647042
0.424747877546433
0.0857260363496262
0.342996862991177
0.237389745781998
0.561442423164895
-0.820931668429278
-0.924001634456635
0.733413887344341
-0.63487618888508
-0.123051299680687
0.64090550519489
-0.289128705476949
0.550711536039971
-0.184669302154866
-0.150438712965848
0.55072318918568
-0.837474442211152
0.220771495201141
-0.551169473922043
-0.953142981115573
0.832156418987976
0.611954150569513
-0.855431420448485
-0.662096058890705
0.172194848424816
-0.0334359625276799
-0.363259029006052
0.0293625645262898
-0.378260586949464
0.49243375084658
-0.824994142699938
0.402254150041199
0.219804354279138
0.747159337503928
0.383765387984839
-0.250120643768674
0.751895522022161
0.0455718299356703
0.597735701303522
0.329209495930878
0.551699027637884
-0.501265473134187
-0.288409544963894
-0.0903907894889727
-0.28970693787667
-1.03414689770914
0.470705147270156
0.817118359186782
0.73895459802843
0.810169805064394
-0.203569879766744
-0.763069461509112
0.847564963165664
-0.0797529191062488
-0.989498295870008
0.725864690500171
0.974119709126489
-0.418616425436793
-0.833517505825011
-0.225979353305705
0.559994333361705
0.95193675015787
0.548898939405678
