-0.219447408094791
0.702499881346051
0.983111521535434
-0.436151156185907
0.67125701799827
-0.570118162211003
-0.594960684419482
-0.842824435460433
-0.6147377616122
0.762490243817118
-0.0155168321562961
-0.215439618721091
0.292571942138134
-0.980146020684934
0.314223822326188
0.889883314226583
-0.55864320570023
-0.397106190381949
0.654076234835659
0.585971356680296
-0.973547531456382
0.423689616873938
-0.798895993027247
0.820103673786668
-0.527398586620411
0.0366551374077202
-0.333870391512097
0.270306790107014
0.581348864775146
0.755951248663358
0.14175258668172
-0.663792242328366
-0.490389692901844
-0.816003551141374
0.17253686970507
0.22186629917931
0.542269430542238
-0.733486824808422
-0.253625715596035
0.147037501132994
-0.99821729113038
0.0847778510193477
0.545345086196008
0.662842949716665
-0.622358847568783
-0.923419668709298
-0.866496953410197
0.115284513924787
0.552277350838372
-0.763149805208638
-0.561502342831517
-0.699284545196147
0.975830382476751
-0.662865894287661
0.713285029995106
-0.122349585857063
-0.0290321781077744
-0.754922467280494
-0.254537395101044
0.644477418308919
-0.985425512363072
0.0818532649846169
0.0659939303113394
0.929377128012576
-0.974625571555055
0.0964867933807437
0.323526805955754
-0.553512465918815
0.255376841064831
-0.000734901488249173
-0.414863240948992
0.658638396633026
-0.721142550196052
0.954733996776934
0.600891184427634
-0.279075694182569
0.57079428313794
-0.966253124288547
0.852514707189464
0.314628865429465
-0.73647687330311
-0.624438068290387
0.326985270263225
0.487041325067433
0.492122770025598
-0.698975049731964
-0.642343706311296
-0.601494995659652
0.376049238423961
0.467689040703377
-0.15595347430947
-0.551748609541518
0.326801595924263
-0.292643789891855
-0.0581400315437689
-0.705724167004588
-0.192610497292346
-0.974622227678436
0.772673012476428
-0.549543658155716
0.940759834958237
-0.910348950546954
-0.0774275769094404
0.591964391119814
-0.954610412481838
0.797421722933955
0.946750275604151
-0.261077354134535
0.540138564065424
0.378290157255264
-0.801680982321841
0.965172534593317
0.757676503655218
0.843328972951181
0.620065580951676
0.0654745161863841
0.82452381739536
0.731822536250373
0.708658379774931
-0.432755358946734
-0.234840327485768
0.345010469571747
0.42259110663239
0.564748430924794
0.235249090947131
-0.0214136611286112
-0.324241334852049
0.403603027923862
0.0175933541675377
-0.305429065698393
-0.736565502397848
-0.535611767239709
-0.427142696860572
-0.122365876262421
0.96250710066962
0.946602538895547
0.73332168007734
0.951050857858593
0.953413136571678
-0.145968701007088
0.166147651156129
-0.969281177357137
-0.795216968420968
-0.237717580336576
-0.924232823663977
0.71918005557051
0.659581301739691
0.357814085553915
0.820937927342553
-0.185795015837579
0.314576150125961
-0.286351312276728
0.890157688558075
0.11912745077243
-0.0703311970267549
-0.815537649487522
0.821802740174462
-0.787847039803599
0.617763917199521
0.0374445241853001
0.0336316997753891
0.80894910592578
-0.361060883293589
0.437142328739276
0.275142657678944
-0.322973023294081
-0.874572569293017
-0.759322356660444
0.825493735758531
-0.69268087632302
-0.736720618471507
-0.372216211288353
-0.561015366463732
0.628475823485439
-0.911372742844026
0.409229041818666
-0.922848992916731
-0.0939902797114379
-0.0106891839640237
-0.196796964524632
-0.229106705486956
0.312359734168167
-0.435934111405394
0.229430122309974
0.14876644984902
0.662555566421209
-0.96119277127607
0.255024836795352
0.192556553076344
0.189878209228501
-0.375528264124648
-0.255681061305788
0.362044860015399
0.72743408176017
-0.709332415847434
-0.991573059030049
-0.116563984549652
0.388981216272203
0.566451467382058
-0.300455583959138
-0.834487870335426
-0.56592403001423
-0.277457697275442
-0.221609725141942
-0.169893730865768
-0.823931810087767
0.339266257121223
-0.0294785749250826
-0.0836734835699728
0.546586159800769
-0.000417405663411257
-0.675829974439812
0.98559434220774
0.0217838284467751
0.496182768270016
-0.587611973462876
-0.00362133738958046
-0.858670921852125
0.281068833614643
-0.226386251777316
-0.518435223647966
-0.349665942857144
-0.965206561415926
-0.9250666754087
0.413156226272773
0.765955479337119
0.0966528708160528
-0.825474877844428
0.433399951284147
0.783366998386188
-0.891310132284142
-0.693964858723708
-0.280449126297073
-0.177759125055366
-0.597235122392177
0.0146707590524113
0.539805072976409
-0.6828289977666
0.991662213894408
0.862867767744767
0.629283613574812
0.0821385716782717
-0.575704603835932
0.455949120579521
0.323252469833081
-0.336238609583748
0.672512061152877
-0.114929739796081
0.663999070959783
0.578370621917402
0.435863580714116
0.693283494308939
0.820532785978644
0.786903014026556
-0.202997874160087
-0.121847824408144
