-0.888542551740656
0.638061405104946
-0.450432517702584
-0.068974976601812
-0.702870941786582
-0.177189604802925
0.318489934898692
-0.989261781308721
0.731912348634695
-0.0319378771914745
-0.149687109024235
-0.911779010445682
-0.92119943980802
-0.901434125178919
-0.11264694723701
-0.874829015930581
-0.472331870701892
0.668118410567368
-0.0426587606153884
-0.627330343777861
-0.48314135389918
0.0395305841063914
0.916439103266235
-0.538645283665317
-0.443688874491563
-0.508220552896407
0.629899237538272
-0.810403480125156
0.264906025514655
0.183211051661908
0.386767435319122
0.315795402314586
0.939516544101129
0.875330241396043
-0.973060687724246
0.823798749930523
-0.82544139039482
0.466494985729544
-0.416986972387647
-0.923061920452211
0.545888754200049
-0.55363536598705
0.646813157542295
-0.441947993082254
0.995287236992337
0.984244882340802
0.984957371481138
0.889375605206973
-0.68434532271386
0.217508585338141
0.662817288272675
-0.378331968206395
-0.934538708750034
0.786929031082992
-0.259288556740694
-0.440046881913937
0.0629625499273084
0.739143896973923
0.837104764137572
0.221847561450243
-0.313803190996929
-0.0119190281232211
0.737863409145179
0.42895149431689
0.445323559981366
0.695370776615335
-0.0226344035765785
0.901293861441601
-0.153058861036747
0.21567072390785
-0.972992511109497
-0.784064899057092
0.875624562365512
0.718408919623679
0.00267723257286636
0.522022558556613
-0.69735713991689
-0.081349274124885
-0.578758970988113
0.154911997229629
0.554410062614686
0.0237557876248027
-0.0187113583985455
0.99129858022808
-0.662586359353326
-0.109674302256441
-0.888025317280087
-0.465149970844495
-0.0131017746584173
0.563982823586219
0.776517255459382
-0.410090266132581
0.72348815535285
-0.437833152139051
-0.482904448573005
0.852370987498152
-0.154044829536343
-0.708650410614993
-0.0183242544479218
-0.482178143107071
0.818328969170986
0.701021684950106
0.266274410806146
-0.0756107228965142
0.631954880074601
-0.280871796492717
-0.403358705422794
-0.644957635229528
-0.280109999363299
-0.813678548395372
0.236223436733293
0.0755189190755892
0.89357673770574
-0.488427836520443
0.754161170493354
0.619392792942349
-0.525202668884571
0.733706695952652
0.124521895286895
0.614528146940167
-0.519599163285219
-0.354946489691231
-0.289468037879147
0.756758536624785
0.230745527527976
0.926047260376955
0.1094683732284
0.791737939294968
-0.945766199707632
-0.946677589517003
0.669509037820803
0.0228435045009544
0.776737470097168
-0.492120199989558
-0.835292830277129
0.237652912675029
0.760042082248738
0.0352871983815636
0.698807962890583
0.848155092493098
-0.252709618573459
0.724560276467143
0.325682836081546
-0.154784348360122
-0.553460754581991
-0.843130890251276
0.383794187660886
0.322263825053238
-0.711969341905647
-0.753400279461151
0.261749668271433
-0.109362077097275
-0.955288869725616
-0.617074237242395
-0.992238973858703
-0.0339832309670368
0.944711489709461
0.48076323895593
0.831129085140327
-0.376235882533415
-0.0344166700625229
-0.454163168990626
-0.37687007025507
-0.115551918634806
0.416438381838435
0.804598024847397
0.767406483841787
-0.336894335703916
0.119720041484102
0.256848607722494
-0.362105853985709
-0.0258520048679727
-0.635208635757698
0.97030980593829
-0.328753777661066
0.124874951454497
-0.421293267124856
0.618582752296468
-0.888636928653063
-0.854270181083446
-0.805438480709947
0.81171855766883
0.670000055401719
0.340606351486561
-0.934961406226055
-0.965368905882496
-0.273683723426981
-0.839287276597003
0.327257799158882
0.36224543782867
0.659885710356838
0.275125918504138
-0.443903654591967
-0.0202678737948865
0.408695124050007
0.559255056386875
0.433481808424689
-0.435636561488216
-0.292115835451593
0.506615328363919
-0.87544549455372
-0.292953301320288
0.384678403728492
0.474508183455667
-0.610324045306948
-0.551174237260363
0.938854139845231
0.862609893820229
0.973745594178434
-0.197494791830775
0.632633052383806
-0.820346176701067
-0.645560427601405
-0.938111121114629
-0.514011926040866
0.163427436662172
-0.395626093684423
-0.0683227419016325
-0.890770417115006
0.475086624533689
0.672663571328779
-0.838369492159598
0.875907421505658
-0.123972956085047
-0.130155729049421
-0.733064607228887
0.204111365719809
-0.519731665638168
0.828908435900073
-0.183686632646704
0.422272859063018
-0.238227981420486
-0.314397888599255
-0.735036495018503
-0.351877757051153
0.0296619185677773
0.690565540437624
-0.531644962688406
-0.124221920845072
0.0995821401580387
0.630216007789386
-0.516850584932132
-0.923981361348169
0.00838606895830355
0.413384639792328
0.457915764891461
0.0557207040275427
-0.358854346604532
-0.368615775071243
0.0734242280778284
0.317343962973316
0.779638012787471
-0.816609710918167
-0.515735838777369
0.398963444305127
-0.88005886577594
