0.402052002232303
-0.489909103702906
0.795786246250597
0.291940345064098
-0.920188869955276
-0.480313578043979
0.334705833412563
-0.232494307161705
0.370248349496372
0.215684948774035
-0.598321526268123
-0.521852972641002
-0.918572026696853
0.389478305571051
-0.0537265531798878
0.00852229056888414
0.874948106231953
-0.668283423075909
0.814791659524626
-0.338548148332027
-0.112537226051306
0.0672475357327279
0.260606416179091
-0.148892546709554
0.908837913977799
-0.0287298325182612
-0.80995988351369
0.0860362803896863
0.421375985379455
0.609542133832131
0.389356467827491
-0.970684987422324
-0.529162671298429
0.237103050937931
0.702447956036791
-0.764903602067148
0.36959702983626
-0.217563366322656
0.532078510397511
0.705166634665706
0.0939378160540361
-0.169964554653803
-0.802114437208243
-0.982891914516433
0.0688920088407075
-0.0662233875822763
-1.02633034367465
-0.292464220086134
-0.429668296232773
0.861026629602068
-0.0973064381754042
-0.338894059429333
0.344097178251207
-0.493478468286694
-0.636037747803838
-0.754969848635957
-0.754220296013605
0.019810895118966
0.310510921805317
0.82424477117984
0.234225918940303
0.151402924639776
0.877804978614583
0.776738905141033
0.842173275333298
0.155942726429332
0.875890839269988
-0.352650842813471
-0.100342970553811
-0.57034208218408
0.282164368706131
0.938757956087107
0.361926837106341
-0.285867038733528
0.680074127731565
0.13190642815463
0.435532078452474
0.171289609176755
0.580998409784993
0.16435386797655
-0.33103288902604
-0.0474000603499094
0.924325059351188
-0.334518975059404
0.805929153044057
0.21538549744786
-0.37274577666099
-0.712118631323473
0.887774945055679
0.197092941385631
0.840446158643502
0.51599682017536
-0.0916376873520188
0.976139392420508
-1.02073485341508
0.50295779494249
0.404294655528078
0.0683017937910078
0.940076253664633
-0.750738338028969
0.695807764940072
0.439957734372538
0.997852458381313
0.047348628386436
-0.15474311766522
0.225380345649459
-0.549890076002479
-0.309758943115522
0.198262042983704
0.424098399577175
-0.933616082739034
-0.665046992103084
0.0255321195095156
0.503512447340459
0.972050747965536
-0.840995297853206
-0.844152345659354
0.960446088990217
-0.243411921131175
0.924627849822427
0.719391077494473
0.236115250127078
-0.580441345318203
-0.395862560015192
-0.544398486145749
-0.0103235394139163
0.229338998820021
-0.538914311744598
0.532068739281474
-0.53656964717395
-0.701659391623948
0.30913530384548
-1.01550807184221
-0.0545512855538571
0.490875637601341
-0.815046389225974
0.646082587272308
-0.581018259829662
-0.745735726810363
0.556864539802301
-0.861232352774869
-0.467648873902658
0.934971450890777
0.519670299220699
0.22897979938674
0.758696404577983
-0.638427467708328
0.76141710401071
0.136260393357258
-0.739152266997058
-0.0437028351734064
-0.714019656793079
0.935617657593876
-0.713108238582816
0.52897728334243
-0.839341128649838
-0.485675554790908
0.411608088253478
-0.606836798270025
0.725826009469022
-0.663261545551868
-0.387658054269702
0.310517136379469
-0.469497180904323
-0.166394660750464
-0.449147351728265
0.63495455124348
0.0269124436323681
-0.534566129262158
0.469362004174754
-0.484406564351228
-0.869647187636572
0.686665028408895
-0.916095836057615
-0.866908834724072
-0.751375562181882
-0.82805386916811
0.995843370362749
0.507136799526155
-0.322255195091856
-0.918676976999494
-0.932575932549769
0.469974813107731
0.800091321885519
-0.177172617687055
-0.405304971883453
-0.334823700088612
-0.645316915405761
0.459626225780667
-0.271310447729413
-0.540226722698355
0.118419310249686
-0.537341282516267
-0.695747852437098
-0.295538897281008
0.0934002468761577
-0.502457791459635
0.249294841548242
0.369742701376565
-0.766153867437555
0.645746541267918
0.800065656816983
-0.138283628221479
0.801054974715201
0.918614274926881
0.372212948399714
-0.938121894600065
-0.0676195998023557
-0.983603553647801
0.820172363700033
0.260950451279932
-0.0500235350891891
-0.598769232454213
-0.983190597989689
0.450509870739041
-0.308649092833913
0.162746682440511
0.965323869394697
-0.690107065574673
0.188758679015827
-0.221444072595503
0.682647827682283
-0.483948278988559
-0.237432948244989
0.0447169095044048
-0.331714644906369
0.468504942098698
0.19699317802073
-0.401915455656257
-0.295642292018488
0.909207815043941
0.217860359841601
-0.486643057133121
0.216728369023127
0.801301717450751
-0.153611135216856
0.130230656510918
0.883979302227054
0.28641377497783
0.517707411875669
-0.568225537565323
-0.498288173532231
0.694844434942187
-0.538560173418869
0.91690568751074
0.851628216125733
-0.211382377042644
-0.461871688489784
0.724009237460704
0.531000587146728
0.875880203104288
-0.807856865265471
-0.525706270195329
0.803079835439567
0.262479677071904
0.7032009021756
