-0.0798510609462594
-0.417075311303972
0.294180916357347
0.614676035267509
0.272342454248483
-0.339954376228925
0.0764300105513955
-0.824374569523049
-0.11437768743079
-0.752934934419175
0.207315572838036
0.979119618703765
0.602530787027572
-0.0145183633478733
-0.501563138724956
-0.870404657951885
0.884481735569798
-0.150823654293203
0.484634674233871
0.2810843113672
-0.224022353009395
-0.00360553537759588
0.970631615795952
-0.303243441895928
0.125015499340658
0.911802482818546
-0.457877164219288
-0.465333966482496
0.0640512159606731
-0.810732830311276
0.745225223404693
-0.53910413386714
0.0776560225501747
0.966305327497484
-0.677652470781641
0.363815388683689
0.887228925847568
-0.487148364798955
0.691768891136622
0.246917261155554
-0.229669211959642
-0.592066095471878
-0.826719682689222
0.554635268167284
0.101198325564806
0.550765771311837
-0.71854250495124
0.0753341105464573
-0.0493238338673768
0.167542007986471
-0.885534219959789
0.0810637634353411
0.29868826351143
-0.315513866089113
0.344507001946557
-0.459570889430328
-0.472876605454402
0.470030619041589
0.191751522094044
0.950434488515168
0.776804551857712
0.933978813675644
0.398848942601536
-0.930629390370291
-0.859252078645464
-0.163930658877503
0.871034549140632
0.857828765210404
-0.0454491916315636
0.522804982094659
0.271200673901653
-0.722072305817267
0.612524092043635
-0.808785342236861
-0.785956683504817
-0.534094351067741
0.38179733488345
0.980367576544444
0.324532200452002
0.649485981327642
-0.682685346091627
-0.401915365723426
0.832416197121153
-0.608750737859892
-0.516058309545751
0.474375015303075
-0.88139332044354
-0.20603683160243
0.611098715170115
-0.334639297075204
0.711632304895402
0.785093521076967
-0.0304006444698624
0.957449082679824
0.161901250727996
0.655870594656144
-0.822071420552815
0.783865576150669
0.865333727943031
-0.878687193804945
-0.363761143530173
-0.251013975313684
-0.880740234321957
-0.759110994685887
-0.0409562753713453
-0.171045797685742
0.749834141772484
-0.253385336746416
-0.499803184535816
-0.693410915091234
0.776880334139592
0.866045481807954
-0.933402786477846
0.638486940949097
-0.593300354204011
0.655860900410997
0.360218683416321
0.281997880957403
0.992529373062851
0.559659702467431
-0.42631754745169
0.702892832610954
0.831276052234244
0.539888398689503
0.774525535157879
-0.34924878371708
0.750851606440778
0.779698354298265
