-0.698432734030421
-0.224140970057478
-0.408835043762071
0.119439555095772
-0.00588342781874547
0.417705791439263
-0.565410987317961
0.825515328651231
0.89399209213075
-0.269339409538298
0.61913754170763
-0.722416572921447
0.318736195319568
-0.641630750379989
-0.234262048607003
-0.769938541764691
-0.447637877743919
0.98549680637183
-0.289462381062224
0.128069898919074
0.860021522828749
-0.750708702505371
0.541522528373283
-0.972558740870012
-0.960836764780889
0.321185983280892
-0.638323709678108
-0.748696797812334
0.0988717527920519
0.619260014583995
0.529354469626267
-0.137512077615849
-0.0625459793204032
-0.512520846548791
-0.847731875580483
-0.181811339640988
0.53389025451268
0.626815240118242
-0.451994182343032
0.521303567206569
0.991242405242376
-0.890938783027462
0.270667726391096
-0.807040948508477
0.48046279214022
0.679860332295828
-0.232256981112884
0.316254232173481
0.846179274915965
-0.831857932380661
0.318242525341274
0.0781348032263457
0.126681726838311
0.442216546218021
-0.809307281039534
0.188223484671198
-0.74281949650589
0.0329780044040104
-0.253698364690297
-0.0218990561671545
0.620326694855646
0.887841257753684
0.813567057321573
-0.39860388801691
-0.88600977651403
0.721153592713564
-0.925863799708155
-0.443699088604418
-0.24073200313676
-0.195363983168425
-0.988238106009953
0.234422656566835
-0.0298609208972135
-0.185446764561393
-0.0935992821800306
-0.473773940321357
-0.865489780485379
-0.0281057790133496
-0.754442952355118
-0.957673578446562
-0.661536082545524
0.707903878330994
0.486659332923321
-0.152923033594592
-0.444827222698819
0.818567349739642
-0.282252089855174
0.487423910597165
0.0668100575867964
0.675203605433344
0.15693496642692
-0.23322835048712
0.900141616447881
-0.617154228361175
-0.821516914692373
0.629659210627073
-0.00318755507223422
-0.565813819558621
-0.0172332183789767
0.58188608245759
0.895149325191949
-0.263495485111068
0.60557947902032
0.27964466847762
0.714679497979039
-0.88696229097021
-0.685281204213931
-0.539223771992927
-0.0810857614104962
0.320711707132381
0.170957215161127
-0.156063982133853
0.180704203688944
-0.0371601370349211
0.323935839025545
-0.238753685552995
0.0662108118734112
0.280087026105483
-0.215804810872149
0.982816714598312
0.887803417023176
0.120867526529902
-0.665338179539442
0.345214222653998
-0.919248780786524
-0.0843114366713113
-0.283961713402508
0.773458129121925
-0.0620994184310673
0.689178376180275
-0.866417003916713
-0.161580298618965
-0.801731446906125
-0.80343924725923
-0.398430706345347
-0.246672877072383
0.805178290069482
-0.192658199945462
-0.368751530978745
-0.0985099071315182
-0.860264289749431
-0.169766159832984
-0.497399702711489
-0.114020919449039
-0.924670118176273
-0.992461360141689
0.374089256008266
0.451572465926589
0.683265344449589
0.0563346549252217
0.655746459584491
0.730613803368394
0.787598566664741
-0.968874006022046
-0.187670047687646
-0.876386908726252
-0.0142724599337666
-0.9082853457175
-0.120977697629173
-0.451741569856339
-0.34720243458686
-0.986989184397041
-0.554166584441856
0.745390306690084
-0.681988549428528
0.189357175150135
0.257460147404527
-0.210105702469065
0.0147413661597003
0.671156192798136
-0.451060942980998
0.317285475190139
0.401237986709089
-0.583032615808875
0.8591843739169
-0.463267758327553
0.262008467428275
0.641646677565633
-0.741853625093171
0.224260373837672
0.677778188836797
0.365943259362651
-0.580224528870226
0.46953856827151
-0.398974294771983
-0.961025993871268
-0.539872675210606
0.081462473427616
-0.531414199799165
-0.00240428641336497
0.176189038468483
-0.840269239858806
-0.479890082476269
-0.00527801416230639
-0.946448845766808
0.866220613873206
0.296651714747369
-0.628379797573734
0.372886946889446
0.547024022836317
-0.150061623342078
-0.870129297676939
0.363274828019496
-0.997462955424928
-0.228174330178557
-0.642579968714671
0.703712293263884
0.397515351295499
0.943004080405839
0.72852007856954
0.267451965361031
-0.340688543715829
-0.305077892334742
-0.531502023460528
0.661094729614796
0.299395397149806
0.00567831003532824
0.800475235104772
0.52004052428325
-0.657826324740384
-0.528544714019034
0.0514097824611393
0.54314450145009
0.607855389585377
-0.247278384761194
-0.304336798718649
0.674749032033197
0.572056268545658
0.248005194600831
-0.807738928222279
0.812656697260182
0.195875738890624
0.154998283600132
0.554305695270475
0.297415043758941
0.303176518293873
0.422338400601153
0.239707934182884
-0.699582696138708
-0.624871805172503
-0.611659061149625
0.868840137877492
0.760253360195157
0.730074283943429
-0.0584636562118365
0.106703315933257
-0.712557601838083
0.901165219573244
-0.614835230338191
-0.6276622622149
-0.605738818204621
-0.245568701060496
-0.0437207973990536
0.349169391923298
-0.238306793120673
-0.832064960301653
