0.426727314896899
-0.740167999891068
-0.16959568281016
-0.312458899353869
-0.729552924539715
-0.0124403791066009
-0.926200403810004
0.367493337395299
0.735176562234799
-0.338307350079161
0.447241348364918
0.117856334975588
-0.231268974335268
0.750730094224768
0.564866165688148
0.884260583134432
-0.987352920381907
-0.261205480729412
-0.698705008671896
0.167707595480721
0.912189213779447
-0.99988692047308
0.582064089233453
0.90672418964506
-0.102310714285551
0.759673393848862
0.834864321231797
-0.0461843304874157
0.10725757100878
-0.587613807387457
-0.065389282137426
-0.505838598230529
-0.886916376713271
0.884877556698303
0.414913513088701
-0.400270913083565
-0.731002992773417
-1.04272676505072
-0.213502164688947
-0.897365130212486
0.0221043708819304
-0.547519596566384
0.670834341632725
-0.206297976348445
0.0864261334140197
0.244866664587413
-0.751069518201413
0.620617582872243
0.303410329101681
0.610841027835166
0.317988437440773
0.795848530230817
0.033322624356322
0.96187596663477
-0.430615796548588
-0.339316719839431
0.219426025732159
0.176383963867357
0.400518408314672
0.620528592839737
-0.429525964022306
0.679079390990222
-0.418426482383604
0.0553685054488086
0.423126529064302
-0.981419911679169
0.0237395441982326
-0.181548234247307
0.333724593795648
0.44840086162055
-0.710158756875623
-0.37763805009677
0.96722528245003
0.398459074212367
0.796091892268642
-0.334113596947238
-0.354091901029047
0.0237636572782
-0.804252167642069
-0.16234993021047
0.364282928503099
-0.535159789459975
-0.864237126251602
-0.467115250434946
0.314920766537277
0.832193145742085
-1.00214748443829
-0.913563838638363
0.416461298079198
0.0614028514724923
-0.45153248749293
-0.194351447972374
0.107698452927495
0.784397037124155
0.477576712294265
0.588451380910621
-0.0690612488258406
0.514723725665588
-0.808278406202285
-1.01850300304351
-0.132223023494067
0.0294781717420332
-0.486120890101939
-0.421528286115491
0.80901821850136
0.435135163904164
0.802032166518382
0.932979034039826
0.0570731015175824
-0.161073468312466
0.628107443676064
-0.95545444917469
-0.470037731783187
0.414169127725267
0.524283298796926
-0.556750908344299
0.232669620893218
-0.524718423283568
-0.241490586850114
-0.355155118150058
0.981139004344548
0.450322791833763
-0.34147623794987
-0.486484833185787
0.0378317598224736
0.0600923361526785
0.223723876037621
-0.578424994834506
0.485043111226279
0.801040103128318
0.263205610797603
0.739004892841134
0.8001458418302
-0.471170818284539
-0.0957698066693878
-0.0646126611508824
-0.264165627398244
-0.94426521501015
-0.760484408920621
-0.995970966405516
0.127164940798195
-0.422256158944393
0.641776498850032
0.175154541544587
-0.982939390111106
0.780108330233669
-0.066658309502306
-0.170651283864386
-0.134385852925668
-0.506400025532082
-0.819167625718181
-0.541721572099355
0.910241605324947
-0.67792474770349
-0.649688441692597
0.920920475082531
0.498641255431106
-0.286055651016943
0.213555923230177
0.593264011033052
-1.04772338861313
-0.114407303978879
-0.299192514937328
-0.900879655646646
0.0897904897500394
0.945382887607994
0.626077480270734
0.589984191832303
-0.742726039905293
0.193028772703917
0.444009784423805
-0.806718636406642
-0.444046190824004
-0.763632084814942
0.0232212509965056
-0.495010133730932
0.839143450474939
0.779701185398979
-0.282319798738879
-0.206783946312094
0.215148299596559
-0.905603694884587
-0.508967403432775
0.538804995917428
-0.64631269905637
0.498050764422954
-0.73765632457543
-0.420613263014203
0.682041717948197
0.986534500841452
0.28542530250558
-0.590206870383687
-0.251472572894827
0.800315526086028
-0.894377469408399
0.139942184197873
-0.457687285621475
0.160881697375807
0.349464869925915
-0.100727997808397
0.338942305804618
-0.778586214723257
-0.998873176223773
0.616942771060205
-0.32024624421384
0.783175348541083
-0.672275214178559
-0.690787571759302
-0.136559752533075
-0.509909533695247
0.865815317928504
-0.294702837926564
-0.612217727326676
0.46509453609744
-0.662920735353342
-0.16721681490059
-0.439908569530128
0.238321245113734
0.370731190881185
-0.112236155088258
0.970972176105231
-0.591154642991022
-0.300229484145343
-0.78384624776464
-0.829681196931563
-0.541661419734156
0.309878541138481
-0.196620406483686
-0.0684134816106022
-0.700171368614319
-0.889567196396621
0.0924292563796029
-0.291227063966184
-0.161183733790936
-0.535441769805766
-0.944922124921677
0.922436256308477
0.386880901630837
-0.520404116983991
-0.618240699011741
0.685110586533509
0.396097614242446
-0.92804779985053
-0.454645421238372
-0.192359127742744
0.561584825459824
0.952960296825905
-0.779812349312297
0.0589102443557299
0.909154146880727
-0.186194179197275
-0.828483468839085
0.569010721419944
0.81144708273672
0.63593342750293
0.506886074652847
