0.697826157457606
0.657065686656983
-0.791479495201464
-0.592165130126628
0.169455509559718
0.327148995439195
-0.655089332581345
0.516818506508338
0.446387739061463
-0.788251619885377
0.407927770644176
-0.212534335456199
-0.873977901374968
0.70273049268734
-0.178622801453265
0.895079769231508
-0.0332485322969112
-0.094273839240448
-0.09053421916157
-0.163301894585013
0.275775726599073
-0.463056581815653
0.408119085861196
-0.194512401840007
-0.0877413411256071
-0.163695732142177
-0.0389753774951912
-0.00392131776812843
0.975967019807284
-0.754342359390367
-0.440663309941886
0.476682013605246
-0.535565474349836
0.823919383916668
-0.0797383030090045
0.100441235537193
-0.338510971241105
0.0748133768392554
-0.529903758917442
-0.714193331242122
-0.601802426215813
-0.239084803014099
0.937572208587914
0.415876993293235
0.6663339583439
-0.644734122433056
-0.0400670144831183
0.708181509854262
-0.163739303852231
0.734159459231332
-0.322060893054813
-0.224669871494033
-0.750618855305011
0.411819344608908
-0.699651906948159
0.45073242781014
0.195113859966256
0.908021227745911
0.400318908975606
-0.53672936941315
0.182593056456374
0.137532839923369
-0.810816462118677
0.290960547891526
-1.00445463534343
0.596848085810748
-0.263287769490511
-0.516781140628482
0.294165958075784
0.36782775528016
0.207359668933228
-0.774883768941617
-0.380480553134146
0.0482618826928579
0.162437523807072
-0.926817221234615
0.228062885036821
-0.185953667966419
-0.455129012398567
0.393866844548986
0.0234148355893336
-0.259263573973674
0.76572257240256
-0.417254801041525
0.563249828049209
0.0788676102724696
-0.697684934746411
0.695262954823118
0.0897052617150386
-0.1150373358591
-0.856334672491899
0.575835759193414
0.202361346650218
0.408910387516986
0.952891898310916
-0.725796356690102
0.0901439740095083
0.808110306253439
0.790099632733216
0.366502289055974
0.339496721662174
-0.958427194895894
-0.751602801541044
0.119735069441369
-0.924178733059388
-0.380599346202636
-0.232091418825125
-0.988342587894215
-0.452907975700769
-0.855198351427243
0.566555314610975
0.0437538757889984
0.298440340737907
-0.956669673137649
-0.651778500251598
0.380579777051931
0.346282517819405
-0.914819142182012
-0.744833954453689
-0.24729884509518
-0.372297420215411
0.0520788851417842
-0.898934320241686
-0.725441564032685
-0.0146939435734987
0.41339884201582
0.483060828798868
-0.0137662814156368
0.552700307103636
0.752518238461155
0.46122619732604
-0.963637428992351
0.713279650307051
-0.498268144316514
-0.978983717561856
-0.610492873394174
-0.593987759617765
-0.17223125666088
-0.1815807684939
0.18113321635141
-0.780109964930937
-0.448309308288754
-0.764821514413721
-0.819951408787755
0.305495850612726
-0.851060392662258
0.887640609394177
0.313517792879854
-0.978022175234604
0.489518699069088
0.0649392920523774
-0.367809548105762
0.315865727875449
-0.376614609139965
-0.590988566688302
0.0624486430379629
-0.541673333227295
0.0530009690623068
-0.829781784547506
-0.689913799634009
-0.265537644402843
0.872815126391584
0.516061219634065
0.788887664980897
-0.280252402348391
-0.312363121296258
0.312495066341841
0.269525186011961
-0.731966471120766
0.247675810343138
-0.614537559525048
-0.0719124547963874
-0.503152013454117
0.435174977634031
-0.682388335128572
-0.169331427717153
-0.450859105833012
0.0686918494673099
0.000762025240520193
0.801371854760067
0.434252204214356
-0.654938496273696
-0.210702344076724
-0.195450832888306
0.267022578685113
-0.133365980737153
0.0666613840671336
-0.380656174155615
-0.574608698211274
0.441717427127237
-0.0468826135927932
0.350062473845602
-0.274574322666302
-0.557686973404295
0.294038604776141
0.809319308235996
-0.0891387170213158
0.880692975399216
0.401612917954688
0.712563618024025
-0.981057519502623
-0.884181206449842
-0.79627420911563
0.135173464967237
0.834427441907399
-0.0953133587097767
-0.324719334890817
0.820915197889485
0.960586867772572
-0.726276219304105
0.585586103139815
-0.89349508490067
0.212618362948662
-0.449693216759319
-0.718109448564903
0.663955319270344
0.158712263795157
-0.592528569426896
0.0476015998554508
-0.19836961190174
-0.471892305234682
-0.88353091885313
0.635890817315187
0.188049543398183
-0.382149082170777
0.851324292172732
0.892795228275496
-0.918572773813858
0.580886667686903
0.421384965418288
-0.276521975546172
0.524855196741784
0.295419619867478
-0.805406194668045
0.517159460736672
-0.255882889804813
-0.846295287222585
0.522736948037976
-0.246314943117407
0.410531408345901
0.118992770709248
-0.699499821832266
0.0102115754338477
0.325866071755719
-0.0179549963057035
0.507293318132074
0.0481919684031725
0.476634338511731
0.212993006750029
0.440956454774241
0.302292211196456
0.404604360403698
-0.759163468199085
0.430511816658345
0.208034519112688
-0.285572195591099
