-0.091333969686747
0.0999873374440895
-0.304432524585581
0.0706232711427559
-0.594032802837466
0.456741478353898
-0.895430143202227
0.470834011519611
0.937263329855033
-0.174986986191128
0.963913777266546
-0.853958864432309
0.373176501152476
-0.0678139316083595
-0.881682442790615
-0.012752228792634
0.78235370054265
-0.374418278716252
-0.2130484256084
0.576783345919875
0.648050853725465
-0.236515438745629
-0.887227279022149
0.511571213037548
-0.948091730755604
0.07267185719347
-0.407645390434022
-0.579937943616951
-0.985088822884299
0.662003012799032
-0.516929891315733
0.227095530653803
-0.760038866797601
-0.844695061487951
-0.428704660689638
-0.372696806419198
0.507796963929298
0.726714486192105
0.221817491032255
0.251032780690504
-0.0486682274686413
0.467494899616249
-0.60040291349342
-0.731903806148279
-0.83002691942506
0.485389487897449
0.590966332353015
-0.831808456651839
-0.834887224290037
-0.764584146584883
-0.116028026154848
-0.859630106145429
-0.570277181777678
0.917612977259316
0.643732029163484
0.469855184078495
0.677184080164872
-0.323614322017449
-0.516042803048397
-0.710941609776106
-0.0535582778460492
-0.358471256304323
0.260203214663982
0.547648909874969
-0.722010354212824
0.719398303402279
0.205299936048955
0.383537469263885
0.918151018127226
0.528206753325843
0.597502496102338
-0.155632326682901
0.454004236447477
-0.54322741412361
-0.975114729629047
-0.141415037898939
0.458873683052068
-0.549574053859597
-0.117650680369503
0.391822707607282
0.0754464115124886
-0.448248196652954
0.540462713196617
-0.876113385865761
-0.871275771863012
-0.051163790095497
0.274013352552819
-0.296618880400876
0.748918984436496
0.649683232914652
-0.598791441838024
0.362745724563041
0.484666420945417
-0.832404408289357
-0.340260667421381
-0.1354881901884
-0.432844600154439
-0.000139123718800661
0.406168330258457
0.417766505251106
-0.823605504390051
0.858470353647347
0.742773308334114
-0.228092324748659
0.13434724075466
0.857732588564237
-0.711397231845816
0.61231357917077
0.152333525978571
0.763337433633671
0.18672768658993
0.675530709554467
-0.715257647808485
0.363574591429735
0.888549333594707
0.955172864903946
-0.118309604644877
-0.27245813357018
0.665980197874142
0.882813578573815
-0.110173702243471
-0.759729917520163
-0.128726082865227
-0.175458022072719
0.240713594729455
-0.592781972781775
0.415278284936527
0.985600459417771
