0.117361671465503
0.335366811573267
-0.754871804042777
0.269188708166035
0.598077163041834
-0.912141125846759
-0.174690036717024
-0.321187463873714
-0.717962699718739
-0.412255295767419
-0.136909291325859
-0.319738075114819
-0.181662686062713
-0.165868245225548
0.761056163253365
0.679318920002725
0.381283605682252
0.992132151317761
0.600490549177784
-0.665077706448005
-0.87943536599374
-0.00029391977425823
0.698542291697111
-0.300299861225681
-0.508782370826564
-0.477522951181234
0.345348250407552
-0.647599593582929
0.531727426135242
0.133089975826479
-0.605822920141329
-0.238369154165419
0.326663128876597
-0.435898333282942
-0.326221979976193
0.199109257271611
-0.913827948580149
-0.494726582123707
-0.271972990494964
0.967739605396806
-0.669160717225132
-0.665917466582675
-0.822269764286205
-0.648841534282967
0.648527680450859
-0.0906239462591611
0.031331697353975
0.687166064556442
0.494689018319
-0.882094847344673
0.925035019299231
-0.292548485006172
0.518532785684851
0.790608314095159
0.45852313058501
0.0210451238725444
0.188885727388775
0.0617966950387599
-0.77092706820944
-0.101095686751592
-0.159484008240466
-0.115250716673116
-0.504227511142653
0.872853235129492
0.81863068788792
0.342994813993299
0.982329048864066
-0.120670616044749
-0.795720759691072
0.838439894198324
0.245557761941247
-1.02345105902097
0.983071168691928
0.57795348562615
-0.196884149437167
0.659287716281244
-0.98555900670705
-0.506439796727469
0.0137556007222307
-0.511316254323555
0.218538844485868
0.905738785256249
0.142930128668842
-0.439588950208748
0.161900348461196
-0.0747191335714296
-0.752329484985532
-0.241699047011999
-0.139398280910389
0.631812567540775
0.339344593473727
0.648368763946065
0.868241135907269
0.486544636501713
0.205508644811158
-0.728591472503839
0.543304511615313
-0.29653578764907
-0.0650740304269451
0.77470845928147
-0.757265922567755
-0.108202815918632
-0.422079111832572
-0.091325443976592
-0.81224191358901
-0.612409698318538
0.700267601744705
-0.891602121242278
-0.874210194059216
0.700485218983591
0.82064038039607
0.560904565496494
-0.0456934110689471
0.727004248952122
0.126382707338721
-0.530216258996722
-0.768968700993134
-0.370503748954613
0.592486627898093
-0.234091834202176
-0.00233024763489942
0.314363306426621
-0.911188001509973
-0.810758345923823
0.370698462354349
-0.290131767520015
0.21304001651443
0.74559914839902
