0.0260115511032905
-0.0969417241452587
0.0868143749792241
-0.996824756959857
0.909844530374939
-0.25845923184223
-0.720200122027581
0.875166977170054
0.497665558291887
0.163541282783644
0.893172451349516
-0.754935009862269
0.0559206787717002
0.890448397475231
0.366578416861213
-0.500613890801567
0.690251538437449
0.946051929076404
-0.261028326202193
-0.242863796807028
-0.869482840119065
-0.133859590632819
-0.0096854842527143
-0.58272306131991
0.712495777657837
0.719004497002658
-0.618948760847883
0.431656199673198
-0.541196153231747
0.67613320490967
-0.0243771084632743
-0.396097219744316
0.956696130520183
0.533570287275805
0.932913932700521
0.682220308775236
-0.349303702023778
0.528293766431141
0.211511412965526
0.164042327607416
-0.615118235543195
0.497728500796362
-0.865792509116618
-0.506017375843999
0.912568178226518
-0.173293386740503
0.13206161873977
0.613919447107752
0.861397323614777
-0.272741167971759
-0.108735547352825
-0.369848724524377
-0.442295948835065
0.0937022040904884
-0.79522585841811
-0.379229299143422
-0.907167970877545
-0.980199925040509
-0.727262041851526
-0.436904770377454
-0.513082387000412
0.912748198134863
0.189718502795134
0.499203435912048
-0.291470677106391
0.215336377764863
-0.571349019962534
0.0661290793734995
0.294140461476765
0.94740103520554
0.059733586881217
0.782887176241898
0.935098767449764
0.608418963588735
0.978637634702992
0.0856541635045035
-0.400789279707059
0.649297334539409
0.583116573068251
0.646982327142533
0.704602771704419
-0.126705247145995
-0.815580069208153
-0.703161925306804
-0.377336614652373
0.425110842238762
0.562865386772128
-0.583462033451999
-0.55541058507912
-0.240838919417809
-0.734009859908242
0.868955148853966
-0.367964299117479
0.630348898834594
-0.389314338718386
-0.586193329576309
-0.745534653606019
-0.507257902272593
0.539735576297029
0.55874630576519
-0.248530147416286
-0.746742870768384
0.577424836068444
0.140002477955061
-0.805991349650428
-0.984741246970976
-0.0261946374131303
-0.929182128495501
-0.920432747944866
-0.454564496778771
0.825138070175051
0.311430037007312
0.988904349351279
0.564075462135542
0.964745366562566
-0.2036026727367
0.320291009508647
0.381232359659957
-0.429806520937093
0.367905752417326
-0.118524512407751
0.549556392687463
-0.0112908792541323
0.679622699099452
-0.0126874593571704
-0.0282488784940136
0.773577155328071
0.146939719146672
0.715041727977989
-0.0506910055463268
0.479425847246795
0.128684772680674
0.065829060683656
-0.138548798663088
-0.428072250417805
0.260134899318009
-0.20728559888714
-0.864617599004088
0.800748762947369
0.282398735209252
-0.446206039748407
-1.00342565592222
0.103524742800616
-0.230500026671975
-0.341605141886373
0.454514834617348
0.200439068044088
-0.834573407776035
0.576517600244753
0.557144038239438
-0.0126186900836788
-0.357955507719054
-0.659582450835103
-0.716786351493934
-0.568773246112918
0.594214539737042
-0.908375364133281
-0.173758426699981
0.864430376832894
-0.734817561573445
-0.244434567387667
-0.444638491162029
-0.824036383271367
0.5167343427386
0.982703107585206
0.370950859791114
-0.495540845344716
0.452482741376506
-0.270675173692312
-0.308477067741782
0.106070894986201
0.508265880491639
-0.798650624342538
0.24710026033127
-0.0204095074919163
-0.0265360876713991
0.869222577714173
0.540313037169375
-0.951862522508676
-0.349702555419396
0.291203739592746
-0.610293989952673
-0.530247265003122
-0.399747948756656
-0.233508991666158
-0.276009109575653
-0.0584881558379712
0.465554657023913
-0.82458580111112
0.277747119366792
-0.0222586244112876
-0.366565362472173
-0.0880156822550263
-0.155796322885522
-0.242833813867245
-0.494796123469145
0.699397630909071
0.592896153308381
0.705589647690404
-0.073961796775646
-0.0997932373992278
-0.638242281090226
0.577199716564355
0.903224820510828
0.30416720484599
0.507411529113273
-0.0726650573689231
0.670444061242846
0.337508689798709
0.275105694368991
-0.116419358013387
0.0355887106130472
-0.449575796439777
0.852207921369292
-0.47462938865079
0.365520864987307
0.582638143110567
-0.656169730593258
0.899505604227345
-0.892743662804369
-0.543071882237765
-0.170817688230873
0.0615264088841726
0.418838373279509
0.526410647029913
-0.221074580803132
-0.00763326750408589
0.586131534882723
0.249802933141229
-0.713780326364742
0.150721430737605
0.775684974725358
-0.819771269657756
0.195971147774392
0.755203082920581
-0.963798911050154
-0.401150160335696
-0.690080810171632
-0.00575734136292009
-0.754267294349662
0.534324930947281
0.807108770412197
-0.651023476764421
0.374651899091519
0.566615334254304
0.953073512378866
-0.866489052694678
0.190764613841157
-0.123058623055975
-0.643285056201287
0.186678611397384
0.620858089905173
0.110962008180583
0.219901142857045
0.780973931645791
-0.86620435599749
