-0.430600555686018
-0.0529516294995292
-0.365590368712251
-0.055450906976707
0.240917391625776
-0.574544526511133
0.981600285408314
-0.880733018774747
0.825558265351637
0.0865832950135482
0.570030251288442
0.253312396987888
0.577089926665702
-0.896808878388049
0.499674998368266
0.934221797195697
0.871197076027072
0.988940003294456
0.303456693764548
0.461797757563578
0.464465449586269
0.169776432364466
0.455638916084857
0.85599714472641
0.670281609673074
-0.0501906585021572
-0.101020323095802
0.296290659540276
-0.384654999588815
-0.749435599566287
-0.94048000740668
0.83650897794658
0.4725269175776
-0.0111969629467986
-0.226208913900103
-0.764500904607203
0.917995346847664
0.169441923672278
-0.365776338956222
0.633906439657185
-0.898323913747339
-0.536371720693913
-0.355399158480992
-0.803918369824357
-0.0529341434175787
0.300124532828659
-0.430199674797798
0.750747568761112
-0.756680919668012
0.875743159794298
0.259602307435828
0.825074230620553
-0.330387699527723
0.791289021061801
-0.569956551608856
0.79030910213297
0.961700115702109
-0.624865159346378
-0.640930106596184
0.822160955655093
0.7783559422548
-0.167617514339089
0.641789803431293
0.167915935952289
-0.668618486055024
0.252868615659606
-0.690339595907615
-0.93752245650539
-0.283673280243719
-0.00644772157104574
0.511970022724449
0.151105646201997
-0.948903564071099
0.226664183242062
0.811127068162852
0.626180705687363
-0.132872979841839
-0.0504264879744676
0.563243837018897
0.732492001665981
0.971912454735776
-0.0370735636237529
-0.301414432175265
0.329736931986576
0.249569130800004
0.153176489737291
0.127864265136553
-0.274246917639023
-0.685085955056089
0.493625088225867
-0.490357823123146
0.837461286090273
0.550965507228049
-0.402150003244312
-0.384701363591298
-0.168990817048771
-0.0553833159774959
0.870814437404455
0.0926047621494362
-0.197732044003298
-0.584064921871553
-0.531146605026677
-0.631758959586569
-0.226491970905999
-0.618409405444997
0.252480742868471
-0.364909191513616
-0.586056593586963
-0.0661712903320267
-0.198300050762966
0.635287985257293
0.864941889293954
0.287661949536224
0.769579540993304
0.178743756002941
-0.443518341512004
0.849232219659724
0.107331539357785
-0.683905434293606
0.32161321965536
-0.72858307356125
-0.0326691352144233
-0.169778320535113
-0.801845363425907
-0.423728690594705
-0.457923609231952
0.367615491295305
0.188491823255082
0.81175096814103
-0.671790458302011
-0.701500381815787
0.0635683985952826
-0.730136693459027
0.848627663528627
0.61701041832296
-0.0338330567231052
0.978242239806129
0.174263186325827
0.195567724857843
-0.586691547160737
0.122379314205214
0.768781345832122
0.733690320575179
-0.697729318336737
0.0616423896152057
-0.167432562729609
0.393808502740547
-0.494178185661614
0.634951396287911
0.329029001773695
0.0456558963048758
0.189408112137889
0.475305169911377
-0.0943281986081554
-0.205488212666357
0.37065834080255
0.43146797225855
0.627059789480248
0.0617126886600784
0.683014733472694
0.0642510665921559
-0.755730552784042
-0.603534622238137
0.896382233028467
0.14456483573432
0.3519042419987
0.0672934279873418
0.87306378719856
-0.0312014464521624
0.573116202860626
0.936484509815139
-0.281508975048345
0.502764956888777
-0.135330636094359
0.885159341727129
-0.030380578594544
-0.686332498342344
0.265821432387132
0.162400493373966
0.229221045409515
0.517418519655893
0.91983724189576
-0.864684436746713
0.326686920422458
-0.823450806761761
-0.349825170633903
0.0201099644987769
0.668506932155536
-0.738195136949085
-0.682236049946682
-0.934010607580487
0.451448944312919
-0.212826064064963
-0.0913046737944241
-0.0367985959982009
0.570391866411526
0.762949752637641
-0.201254396221915
-0.432838900979329
0.417407794913297
0.281808631036956
-0.278563126718585
0.496621244351231
0.0331816452254931
0.346129349438572
0.866370708852812
0.195958536933134
-0.414947693306257
0.366042227453105
-0.979398351821231
-0.662947255980962
0.95816798731035
-0.4326188874777
0.0333315343373282
0.608688476527451
-0.229667192334978
0.264394871091897
-0.447086933926769
-0.421411156468628
-0.616203259569892
-0.17903599061645
-0.972196566732155
0.802433249431951
-0.413946635385723
0.363272301626877
0.530980280213342
-0.81486817421541
0.508033749940475
0.137554651079789
0.987716165504879
-0.234979071904781
0.322253076288717
-0.390704399004423
-0.505962064246223
0.0702378514790425
-0.104211596314929
-0.462858627559499
-0.244922664434378
-0.942155601562709
0.903935973655352
-0.168837128152733
-0.35880888042198
-0.00109754846089633
0.494065227998729
0.319861188347285
0.21160390299692
0.491891779409065
0.352930302695392
-0.170652901929044
0.496056678023424
0.86020943803658
0.425177811426353
0.295187617207657
0.938749145744706
-0.0362573790468787
-0.420169168769606
