-0.158260400637718
0.729075243273347
0.45747778502668
0.616394870190304
0.645777213454605
0.892015437762636
-0.52489751377362
0.427721386471027
0.036764625087911
0.417077278968423
0.85304951867461
0.322248984180428
-0.603730207797544
0.860298119533988
-0.504563841418493
-0.933535040636785
-0.966811193843649
-0.197382834455623
0.879355803886716
0.252607627203195
-0.823646780774523
0.180641153773005
0.043250062652852
-0.580119166054115
0.661719398851321
-0.527960816547773
0.750178561495684
-0.953758436081562
-0.70263021085872
0.586420785051918
-0.00726890186876251
-0.292193441201085
0.471414591921793
0.630610436257306
-0.819181991644985
-0.24848288066933
0.935416138972577
-0.557799736036374
-0.343919313388761
0.0297256033272535
-0.63033083759506
0.51257767079446
-0.930649795890367
0.179143990934832
-0.774763944401434
-0.937801527837106
-0.512549552133453
0.88327659248231
-0.517968136891374
0.562719405899863
0.533267289364929
-0.574165952471294
0.861733422364338
0.0501095291625243
0.751072944728549
-0.966706152036241
-0.388378652941535
-0.332034057253613
0.10382190094442
-0.605606975512357
-0.516357225975378
-0.825109333497878
0.733507209203445
0.134998671345975
0.565292289970745
0.752008585597219
0.127594540483676
-0.672646235973669
0.300629368058371
-0.673752761573608
0.982959267385883
-0.300475407273513
0.636188649732194
0.0254255672515692
0.352092486325213
0.882697757205457
-0.334779711844935
-0.741069280937772
0.594177367073298
0.591763974345163
0.543948126621755
0.169527222264022
0.706147749216954
0.066215517241198
0.514739695698134
-0.191112595424299
-0.786839573262874
-0.134980828760764
-0.276927422471106
-0.935799989060103
-0.850111630282025
-0.0714123437538787
0.819711070285844
0.578345697249555
0.0176148234387011
-0.815887588384473
0.651917223084887
0.354545742562467
-0.937673401770538
0.296713458874885
0.152117964246788
-0.0526254836326792
-0.228530668608461
-0.100854873260195
0.541599193668442
0.313625826859166
-0.975007772654064
-0.0132632572983969
-1.02353129542464
0.120719973186711
0.157206861837106
-0.0253183238015356
-0.660709349875119
0.938510121887557
0.242082568227131
-0.240744799806659
0.518186789228511
-0.620575454768596
0.958462568611776
-0.355877405186885
-0.417048667956626
0.307670906220215
-0.760884057848018
-0.23952843181764
0.965277609293613
0.932555511410297
-0.70446160926975
-0.00167436550698807
