0.785073078589619
-0.697444916218236
0.327796167791457
-0.398227234121601
-0.634845401278445
0.854385049726121
0.818865345806035
-0.989623654541445
0.622954728043495
-0.809036812549389
0.159476339333585
-0.261666780993718
-0.574598202916514
-0.907392183865598
0.961643462144411
-0.558835082210154
0.790060297139557
-0.125077797078751
-0.428608771682651
-0.581171132912375
-0.770356111281595
0.196110832590242
-0.595146315276689
0.0953099358392748
-0.735647206489784
-0.511851872310201
-0.18387992645299
-0.128491431963688
0.560999740327741
-0.286244587074653
0.291318248842747
0.0380534844169003
-0.417765777851409
0.0318239865924046
-0.379202667610793
-0.882255914134226
0.263909506714345
-0.574015112715694
-0.0431215224123315
0.0322124026721401
0.673751761105527
-0.88311482248375
0.516724196869476
-0.284880957712458
-0.564346442033282
-0.016474943601554
0.535740454177927
-0.293804712207309
-0.0854393779697307
0.0128255970728153
0.894361352877506
0.696343627240546
0.6196482909955
-0.950645733819386
0.733670776797049
-0.69969115366623
0.211364957291125
0.111369324328517
0.18756465825515
0.0629208556828143
-0.58548971602417
-0.414068744247587
0.763922724164518
-0.0589052744927677
0.962294518669302
0.241308176773678
-0.225398289470933
0.915395986352382
-0.222219500516386
-0.507476921918773
-0.38558534705403
-0.963014092783734
0.948855146176605
-0.37240525651243
0.33590466741875
0.941149554617107
-0.38441459972952
-0.869465910688088
-0.562960663166576
0.926553110460782
0.342659970651579
0.562836308977429
-0.403656768064009
-0.186078292300279
-0.596804785396091
0.191176835133269
0.311011751343794
0.738440184085607
-0.429155158283646
-0.116125117078164
0.132701559377774
-0.626279507082465
-0.608037489449143
-0.84042096771438
0.141116426720971
0.757016814040397
0.501217731914352
-0.669894219594443
-0.318577448453461
0.741823917933835
0.762027962614637
-0.472925846602894
0.73251070356179
0.189931649034695
-0.706508211997168
-0.366715162490352
0.98534112735739
0.373274765119358
0.701043693620381
0.459426528826131
0.291591132116334
-0.776705871659129
0.817757035530738
0.727754840700941
0.015362540205642
-0.37183419439827
0.772803950331637
-0.185412211260326
-0.954013396916157
-0.588054462132984
-0.00292670866100834
-0.591413953884464
0.514078739569942
-0.885254435394862
-0.940743347596492
-0.595691611314183
-0.804688028381946
-0.841352581774684
0.259307071596232
-0.78415833920746
-0.450401940620574
-0.587839283010307
-0.76917503275682
0.782917527911978
-0.567162560833003
0.0290914662006818
-0.461955917087691
0.364318268721288
0.362516447823331
-0.879946531936737
0.950410792991291
0.95085750433539
0.147754553368625
0.18939889732702
0.81175183280207
0.35572739996907
-0.87614754845196
-0.306550896020931
0.305770106775254
0.218454754235693
0.481507440189901
-0.427137098230127
-0.22614440728875
0.813895338194605
0.69356757782506
-0.497200698569296
-0.42269065977668
0.622439297137136
-0.367753403561229
-0.903950125057715
0.471277394184504
0.782756393744646
0.144322398325516
0.160956319023429
0.4505206539185
-0.542432437636301
0.228367112324572
0.128471943445989
-0.357645806486208
0.961321813260351
-0.123373616152054
-0.77734439033853
0.455935429761952
0.32521001410828
0.602294341998538
-0.632716062008476
-0.509986439060434
0.266650333922923
-0.159870717113295
0.475741492390521
0.430780894406163
-0.331030774054593
0.359278935605385
-0.936561937988967
-0.460767632401037
-0.910926076011714
-0.252275248289461
0.702442657048949
-0.275026446161303
0.718906653895545
0.408111206222467
-0.571168382458055
-0.342510298996142
-0.590805087112453
-0.863862143987045
-0.958248129323007
0.713577347680655
-0.719571089614376
0.195485573537497
-0.114323773599151
-0.570193052145206
-0.960006576413883
-0.167208569379913
-0.795357571452175
0.12854952805365
-0.638313932388728
0.735568111237258
0.690280136777077
-0.77373951178924
-0.512046370357814
-0.198061617698016
-0.8459810631976
-0.585302494348155
0.0190806354762613
0.149164371390268
-0.82860283154621
-0.720892129950809
-0.641731154919492
0.718431666738925
0.234195492627646
0.568068331733023
-0.905426312086417
-0.86998304839263
-0.942398206984146
0.0581928596312404
-0.864590503344214
-0.168557879329753
-0.815844280287229
-0.900441769101572
-0.0527560026088466
-0.630074457590212
-0.165263523702307
0.00285388163902726
-0.86018800472324
-0.462486280590054
0.75050651756692
0.295320587102218
0.664034793289456
0.698235527014126
0.0951822045002905
0.524395223760418
-0.39218831197258
-0.778318092229548
0.221735944417273
0.0274332740425258
-0.129160928404809
0.713684013921734
-0.47303914433528
-0.456311121330498
-0.761609971734642
-0.926860177993044
-0.604456547653642
0.554538797683926
-0.617963760712835
0.858851307459223
-0.938970396927392
