0.0413882005077961
-0.889352238342011
-0.602220563085619
-0.0114708479700219
0.838314735276479
0.111226252250292
0.327668137754291
0.742917476381864
0.8716279358536
-0.936029304346762
0.956107990016779
0.18297764796346
0.984863005547435
-0.335957391103365
-0.974997062076827
0.347661270596698
-0.979653195200392
0.847352420286494
-0.573026842667984
-0.774984960095988
0.125598068880896
-0.334578426516734
0.720272019635031
0.33430829239005
0.81071959987424
-0.838546112729358
-0.710332629088985
-0.00438622528516078
-0.782345059039591
0.0804326769596699
-0.358451342151075
-0.200964195886023
-0.321801438097442
-0.933478804950784
0.499205926888484
-0.796889287095339
0.734005569661157
0.726653334656027
0.77866883194175
0.980246628722606
-0.557239864053814
0.382642440058512
-0.921443359545237
-0.959629331727304
0.25509160556275
0.697896068475147
-0.51142807759486
0.922408200356099
0.863661985780662
-0.497940723406845
-0.352481384491025
-0.660234014692495
0.399856453392622
0.0652274808876984
0.325223388851024
-0.334041323636885
-0.953374889019388
-0.164515940158641
0.636458128565384
0.848911130825285
-0.180537814939323
0.981181684917411
0.500729816353094
0.171245498008485
0.611091084674206
-0.974995251372489
0.124863366275215
0.16421335790638
-0.737564979193664
-0.397624992676961
0.932198275760739
-0.238454181212722
-0.284137441529055
0.857404184182022
-0.489110305395051
0.834051700978135
-0.0636442599075778
-0.105149632345789
0.160191937478557
-0.641453958026556
0.997495699809582
0.874815300404687
-0.158498024105337
0.908387014647609
-0.231855295368853
-0.933503572214101
-0.51414761319135
-0.723091859712087
0.997836639247353
-0.175110938149417
-0.409901898188865
0.491373795943923
-0.579777642854701
0.612903603635371
0.0929111374886013
0.896336615777126
0.821304125885116
0.220526488109641
-0.99969294616231
-0.534245163234838
-0.232260953180894
-0.459201660441502
-0.730054112833687
-0.309721952013831
-0.298748598134973
0.0739298370130495
0.0419176407633107
0.219233706304842
-0.45800207479931
-0.385744551356523
-0.543060257342539
0.886943735555545
0.473377782263674
0.234450233461782
0.805107307776486
-0.46785579474386
0.324702035982155
-0.474560312774379
-0.778908023699476
-0.663642776359843
-0.537507884860713
0.815330091885549
0.691363075779063
-0.56452017894538
-0.39734393677095
0.279667971836367
0.60287000029808
-0.0625324616990833
-0.953885168493809
-0.20774777057169
0.64066155235557
-0.751896847329692
0.249297453958513
0.74513852332772
-0.454614055518781
0.607237655032803
0.089605171835024
-0.328502035410075
0.591633961459765
0.001103861510089
-0.996855019927804
-0.61809828456863
-0.69330236434491
0.980002039878801
-0.475904967475915
-0.567802652363378
-0.7665073893324
0.228823144186
-0.558403029436886
0.9491750378919
-0.441563566571274
-0.640352697649326
0.561074158845838
0.1925382274397
-0.866844418562817
0.446163395353684
0.507704861251173
0.238435241274211
0.0277822353264825
0.2283360351456
-0.895655967627083
-0.994917395406581
0.764541166461235
-0.935907304778164
0.419404869574442
0.548928957874087
0.661141536978087
0.842712501206291
-0.79412808741563
-0.893073396117397
-0.515543963201206
-0.99455703514921
-0.543647540476996
0.0332886124006385
-0.537030920316586
0.623642428536584
0.69049724473807
0.739039564574435
0.26125177778442
-0.274040163634654
-0.317745265397654
-0.218234396047243
0.860278996284302
0.92696285986124
-0.463374727846426
0.43711235469539
-0.00104049192274852
-0.726968866445966
0.312925700876698
-0.861010740088451
-0.270103617863384
0.878212032598781
0.832591327305371
-0.401657086282197
-0.760189340782834
-0.382483133641605
0.308533526306503
-0.416635678451223
-0.3190438475783
-0.299767506426189
0.0296520632408013
0.444961551230973
0.578087005244804
-0.218000920897312
-0.677566118987439
0.309116448753137
-0.161320937737936
-0.986742590475171
0.695531395443019
-0.344560335896851
-0.304632912087821
0.590205298022947
0.291270689026319
-0.0760643272466399
-0.259242336375041
0.720710561988927
-0.808280111862395
-0.744143279147933
0.572703640472359
0.430866448339905
0.0246367751307235
0.458838970524833
-0.0962677116150173
-0.749305113100934
-0.746761206572869
-0.358074699811814
-0.311038342469933
-0.349488317651084
-0.637991864179702
-0.855331374947214
-0.908867352481029
-0.35513395838476
0.838504638649478
-0.265515387959809
0.455093084038946
0.35295955607952
0.917319962032101
0.745458023457236
-0.602867551418989
0.154835169378605
0.98793622415286
-0.700329772056158
0.621446254194746
-0.844028490978532
-0.193613358845367
0.649190838679342
0.371437601324841
-0.673005404877399
0.29390832632721
-0.16531208927771
-0.13926769387118
0.45072444997064
0.783762042863066
0.180004535083749
-0.0378511427470223
-0.512189752666881
