-0.495236610222683
0.097819449064969
-0.164316563561842
-0.75693515215332
-0.0872539952855485
0.890493780687145
0.425169749486311
-0.033993738290626
-0.584288720454079
-0.419177887093248
0.0762490124237916
-0.295301093674978
-0.116770987972898
-0.0269413512289656
0.434213087191458
-0.778740822631295
-0.450941754685384
-0.454296434911496
0.823950036335658
0.888157203878913
0.427100049152518
0.903953502282468
0.0438383711607986
0.0465895394696993
0.0340613464471538
0.38691680517032
0.268965863680568
-0.355786561259183
-0.0805299220351108
0.236124054206731
-0.527629617380173
-0.0794737124117831
0.1333114290726
-0.800421673900078
0.793382111107219
-0.139383415491626
0.418426863202849
0.502178524918545
-0.643337300408095
-0.520631157545018
-1.01693648688276
0.917241777461811
0.429584283723777
0.527772887012705
-0.0637085310636559
-0.693308316720049
0.746223917459687
-0.571116899795489
-0.104631451937057
0.684748073093932
0.875174882178805
-0.0991829685951425
0.325829566369861
0.291831241340849
0.821830694950832
-0.577673942441036
0.348876706509848
0.670950583845136
-0.162854218201035
-0.886472012294665
0.679416887869855
0.231251474834171
0.583924556868539
0.192926842020802
-0.969487639623608
0.929543125874428
-0.890901830390583
0.0804591704679285
0.221193304150293
-0.692465858408439
-0.299576318113426
-0.342128880037193
-0.695027651979555
0.764146915253859
0.430653852704796
0.182057391043644
-0.0711550906238998
-0.774453589296737
0.0207737031754723
0.358701391773734
0.973835349324431
-0.756820680904905
-0.0310868408278101
-0.590180791591108
0.658753385727163
-0.0345777318214009
0.967996693277879
-0.591889074401182
0.707661043489442
0.894556534930532
0.977537629183641
-0.588016566315818
-0.0339626166179023
-0.9127188448565
0.573587538516667
-0.390541213804244
-0.879643788979904
0.286914238085987
-0.840214967598709
-1.00013549184688
0.319263783877915
-0.25161946074289
0.556065699981142
0.796503505817456
-0.32606209900449
0.691273077931335
0.0609041946831417
0.819974741387906
0.873412238763652
0.433917498204659
-0.666562399675242
0.377493093994252
0.748209334732057
-0.618311369484284
-0.50594651549743
-0.56542136300039
0.707489161619644
0.485751741206884
-0.885657507603704
-0.758641691265411
0.6754526649632
0.0846844990482325
0.616458645430729
-0.794373626759386
0.352334882858388
-0.320145664885251
0.367899771296147
-0.8429270705794
