-0.720199809716148
-0.0909267278516886
0.253825027782329
-0.620875381468475
0.700819598388412
-0.945414416907501
-0.0623019745033622
-0.513583129880715
-0.770520246770023
0.0122203574355416
-0.131971034553143
-0.867124584333141
-0.895394675582005
-0.122823102664496
0.437291379230331
0.13259553198211
-0.117597795503301
0.34517392064399
-0.935824503199834
-0.865628721295373
0.689193127631813
-0.0567920970890911
0.199588014320163
0.698918585751143
-0.559775572965212
-0.829988646792934
0.879721403328047
-0.721204811117205
-0.520435892837219
-0.828740470611972
-0.167549348420291
0.850534510157429
-0.973800655477017
-0.0961454783987518
-0.256737363815599
0.911821618607009
0.391097019543688
-0.0478952862599425
0.235795128023454
-0.589497878714035
0.787843697439487
0.26549583893528
0.92365110601708
0.929879081246933
0.41650825822206
-0.7824885294623
0.246640046008138
0.115208314784786
0.181470384819725
0.378353965325866
-0.790210157325184
0.571327572127082
0.182428620873877
-0.112507429528795
0.390728975089241
-0.880985066376019
0.421192995132689
-0.527617848001061
0.470694701745721
-0.169009928641133
-0.731688210817395
0.703170589897887
0.600897279015614
0.558628735719764
-0.830684144690835
-0.796686784713729
-0.813029957970825
-0.720109814090065
0.792275752006511
0.503455538879948
-0.582031821702356
-0.277011914811427
-0.240885017561873
-0.119823286482997
0.346405318063002
-0.912876082375826
-0.165840286505285
-0.84500955678437
-0.64604575498809
-0.615677446538795
0.63955563710068
0.781101923676943
-0.955360528556373
-0.596009018135706
-0.194029085653715
-0.478689773602671
0.199624342268939
-0.306197351017208
-0.233955973493283
-0.280586884310086
0.502451706078326
0.11507850890657
0.222736854586342
-0.131184228167887
0.162071504958719
-0.0719946992710188
-0.707327366828
0.769428590997654
0.484502659850744
0.276415632169277
0.858544573728063
0.83071197344499
-0.795540205644666
-0.397432683060997
0.248592251144971
-0.118687309227101
0.851408468297276
0.820652128792848
0.85658293385183
0.305335844753618
0.542348504595502
0.625095221488807
0.855201082412035
-0.376252254659575
-0.351512387477259
-0.041250864718896
0.685904199363277
0.985715668243341
-0.0726472382626829
-0.185523276692255
0.44293656897162
0.00955972147196861
-0.867800571071095
-0.663119721368229
-0.187759129808442
0.937136418735826
0.219279622411035
-0.805987706833852
0.405590377794642
0.316332947485586
-0.00864370205999944
-0.593562764507105
0.231858510948807
-0.881317514522257
0.392016739019492
0.247071246596885
0.110467293860562
-0.774839247954317
0.470813989659531
0.879664076905532
0.327896193569239
0.159248156805788
-0.963406922195061
-0.508536850267548
-0.608911781382106
0.050481794072722
-0.0619747874987433
0.954225036022286
0.893623741325449
-0.405497065714613
0.636540933762288
0.932661586265714
-0.0114891274737333
-0.348981500794141
-0.496454587568288
-0.404486010567889
0.945913778161583
-0.438746287620333
-0.508957670672069
-0.175802030565207
0.993855152805758
0.835371281890978
-0.082035623331607
0.338995520707424
0.434089318980695
-0.150494028321747
0.470869174051284
-0.317625260545416
-0.456633866007816
0.781933647551151
-0.857430163464718
0.488846061284525
-0.878647478285223
-0.430220200942103
0.160266960230193
-0.735607262533769
-0.646408860161475
0.0704995858407473
0.688336341497044
0.619739723260754
0.846511443088089
-0.648939189221415
-0.625769806854858
0.259674973573169
-0.399901468537884
-0.179314601644162
0.0588533640057369
-0.351094218584287
0.647126811079058
0.913418142143473
0.263240120603384
-0.74834555323748
0.739887803515568
-0.744959142700031
-0.291725944053117
0.927337918608788
-0.264405697018722
0.938497837066799
-0.148174055933684
0.496548123300884
-0.275974372093803
0.0341000773541547
-0.0194623439938804
-0.977910863452647
0.0101910241500984
0.423723520534657
-0.904507848625454
-0.165331969109873
-0.959439020571956
0.166009437045164
0.101168846668328
-0.395162716873977
-0.759009980172557
-0.676224303673897
-1.0000206436928
-0.938379981387271
0.563608824587187
-0.333377884042529
0.887119479988704
0.961911746991447
-0.928002191434193
-0.680753859314993
-0.799986478289202
0.883528693702687
-0.836083682197302
-0.847428258819041
0.813087589156391
-0.592583955517092
-0.111483484434295
-0.884471012507208
0.0916024094915542
0.19224291599229
-0.805321333695735
-0.217037889187799
-0.742989832042613
0.42780596451566
-0.896315705814533
-0.308574873534425
0.0651271723341773
0.0223668630864879
-0.0597835666992276
-0.307902260328086
0.200320897978694
0.233359269957517
-0.301043562365949
-0.0820094981183767
0.720707345951049
-0.620456405396186
0.804824114837376
0.695332752487934
0.759793700867204
-0.035376103053581
0.730805816583129
0.527465335054572
-0.725524156190889
0.676006764464032
