-0.0219518579085337
-0.905850108350397
0.72547103789775
-0.358805489256813
0.966147442344836
0.684956397781747
-0.624033049230547
-0.638023466699268
-0.294107966792469
0.636796032679613
0.941603705477213
0.640250988017788
-0.509444852942135
0.901927126258022
-0.439366263082564
-0.480027612308456
-0.487987917832738
0.471318509240357
0.334353767469676
0.0698004411889006
-0.699630546642119
0.270267388551604
-0.31120536132391
0.168809801600362
-0.0484654649660998
-0.340701432146194
-0.0545345721535916
0.205560367194647
0.748682641774677
0.407135312581611
-0.882906714534043
-0.226801322035081
0.763558521142724
-0.715773964213999
0.0632981609035503
-0.521945782786983
0.156855614110568
-0.432324285488603
-0.00275552106962242
-0.537619739209345
-0.736179790537113
0.494264324054972
0.587871681351478
0.257830449335597
0.517233401748687
0.511496583575162
0.55269801228886
0.784377892804642
-0.813924435375242
-0.851663496763459
-0.526278016798675
0.263161525411988
0.259017680354022
0.820308885489114
0.277135461853109
-0.0602989627678718
-0.302089541517023
-0.269587032764579
0.411552973987865
-0.991100898285403
-0.363239846376961
-0.10131736629018
-0.385534322106997
-0.831836652962933
0.0932247525788985
-0.551061325212339
-0.157721264365773
-0.166112915967118
0.322708979394403
0.00884165723837338
-0.624659658995514
-0.0652201807256837
0.51502894554961
-0.553651656229486
0.658138389018666
0.757275960566073
0.617859585967551
-0.961227796251847
-0.709194727089495
-0.0298949472211944
-0.601281495132854
-0.673237159855897
-0.176326071883699
-0.652770772000295
-0.569475997555585
-0.281356768704852
-0.3312149315836
0.785692715410952
-0.988527081857711
-0.89455820683805
0.0680479342300136
-0.126787903102019
-0.208247996215157
-0.433204373636777
-0.517075304659638
0.412122754004159
0.547455097110129
-0.263661454887102
-0.0958076980554281
-0.798777122759956
0.0246399923112786
-0.817508787310202
-0.987082889130118
0.315318511226654
0.911860069249861
0.457447284377202
0.301957892106753
-0.986641782174355
-0.740452918582347
-1.00222859495156
-0.132234316045872
0.762872531306579
-0.0669530381532457
-0.544809118627776
0.162847409456243
0.73289265784368
0.609977669505051
-0.762739809013183
-0.29890419207201
0.779608401600682
0.431306091936144
0.395637635378537
-0.991022541897729
0.306629682002737
0.136643993377131
0.190532201647947
-0.280373041308538
0.815306629195027
