0.216018247699355
0.205903657595006
0.855477236426443
0.287048459082682
0.702432602264687
0.112983633284322
-0.0859330800685167
-0.48602393728741
0.560379814898806
0.46633750720291
0.225138997506972
0.0326065212484052
-0.235442460586525
-0.334237408377389
0.0314892458075182
-0.981727946430267
0.989267781399805
-0.40583663638504
-0.938813193670934
-0.721593708765074
-0.0438573217012839
-0.868665499342372
0.778919323924302
-0.517289469063991
-0.0216321254927148
0.598959038234008
-0.969067735544819
-0.292498658385004
0.96257999676409
0.658730432230556
-0.687088959154616
-0.572810635981125
-0.554581646838503
-0.00964176771606787
0.514574828482458
0.904227046425932
0.704876581420759
0.350939367084409
0.54459913974846
-0.401261144655024
-0.207298072282813
0.95301940545639
-0.364630377156045
-0.283272573335491
0.646674397529782
0.761397907933941
-0.630359925577697
0.949118864477046
-0.439473751424534
-0.376930410010258
-0.217122501868971
-0.956146328083099
0.544818271412974
-0.496847427319586
0.627155324736786
0.602680614761102
-0.587498779959461
0.972445948683473
-0.388785107554901
0.726885668043176
-0.44734160841941
-0.962586201296752
0.361579080091795
-0.635234183091498
-0.420100940794956
0.00275020080558746
0.148950349759913
0.0586500208787604
-0.22244892798909
0.263419356627579
-0.902715460481561
-0.525031431824437
0.874831776618536
0.0206475439323382
0.323497768364581
0.905222785615898
-0.158515313957024
-0.487150827023991
0.297877721041838
-0.384647996974
-0.48487521104402
0.860485563093842
-0.630373398071176
-0.292215360334428
-0.372884384972357
0.488701644153553
0.471598174595483
0.690034644695509
0.74279263929967
-0.446355040317091
-0.330956093319444
0.897974950373977
0.294474678006353
0.133368412187786
0.951814149293899
0.693100086141938
0.748764483931354
-0.885863330801716
-0.0395036328544932
0.813886108727408
-0.329899516196218
0.303494770733997
-0.560889061783065
-0.0639150610524068
-0.41530473486811
0.0459634724181258
-0.634211274887451
0.972981150208587
-0.666333961811489
-0.543717634081939
0.959505967996919
0.651723148592802
0.0248661811857481
0.11323241824825
0.204999853097864
-0.26721408348789
-0.97607464799795
-0.676578274075938
0.0634288088344074
0.159565720281375
-0.529346028700396
-0.367520352183445
0.98161430246824
0.886699612736151
-0.598855972383096
0.0455411978000767
0.670908384046593
0.0813023652591515
