0.146152532563692
0.746386175320877
-0.662820558996228
-0.312694438451029
0.0230210447818286
0.379705586097053
-0.326966894576572
0.272976948976691
-0.844225783592451
-0.918233140919094
0.923307095888031
-0.361712375958914
0.895148711990971
0.892596255996157
-0.65190311436687
0.895909415140885
0.978329438564758
-0.462471117890824
0.602882358984434
0.69754848265617
-0.0147981428033515
0.488776061418221
0.907863715687275
-0.89608967219373
0.107696040642398
-0.196385182157186
0.301425739634106
-0.440969206737357
0.113157191262329
0.362567546278495
-0.29741311489353
-0.151113116190029
-0.352401992460265
-0.141271532800232
0.718742958513141
-0.296049903766251
-0.815358224663384
0.856277265684458
0.801997513989898
0.351730484205772
-0.258166712900674
0.728365327838059
0.774354960383464
0.982942520731971
0.716142528987787
0.375610384173244
-0.672090713404546
-0.260159350960793
0.978477968399978
-0.0910775648824989
0.660318615293571
0.875257442764595
-0.726484412335481
0.849110107984717
-0.954860493727447
0.117739833535164
0.415560901761136
-0.255425917406398
0.574524244282226
0.127951943709061
-0.313112426156935
-0.226885886946579
-0.115342274464909
-0.789967917945257
0.737168706190488
-0.586421638534167
0.363758665613693
-0.0305604710915462
-0.00822372736024636
0.43961500494818
0.436879807866975
0.312053378013774
-0.839789088838747
-0.526926526795916
0.969195701458337
0.104602860265719
0.129117167955446
0.827894381051467
0.617543258397979
0.874544500934704
-0.0107334080140374
-0.588026012187258
-0.949682607774514
-0.6404673488286
0.44694006658141
-0.150726737416987
0.369516932652648
-0.428277979323864
0.0582802945817949
0.632795570141247
-0.159835317743347
0.442417233185121
-0.519820493249683
0.310115353188459
0.666422828978479
0.306691344579352
-0.857034594840925
0.220210047864304
0.876648507668803
0.621399087104733
0.45933489117698
-0.319635207352387
-0.206335887215998
-0.341845557658804
-0.981750607593557
0.586105294345946
0.0446020799441242
0.96047541354006
0.480149432086053
0.0497675852446953
-0.522472378098615
0.942519695321203
0.57037094215851
0.771834279469032
-0.195538077245736
-0.241171088295058
0.519617281005333
0.839790928925838
-0.59346858184391
-0.900503877618366
0.180785839678208
0.776586474717173
0.154266912513214
-0.717902754795335
0.867634808068178
-0.785584991032017
-0.6539929520437
0.851905196796353
0.408608643457111
-0.454968242740143
0.386609571418234
-0.29296606142653
-0.311077759930279
0.112509063000553
-0.294821791455683
-0.0970578699656841
0.920684509679583
-0.606341392380737
0.0780789408954753
0.750757657409346
0.410096674639273
-0.865858875795451
-0.800065292522967
0.745550133779904
-0.0367788018162512
0.502586438664566
-0.866126200644657
0.895656905594447
0.979279892393753
0.735220490566791
-0.519490673560289
-0.973332184778132
0.368761406032634
0.0870092114885962
-0.83643634918696
0.446354306151999
0.519613655076635
0.608830526704
0.190519026798827
-0.2627073054393
-0.794210352394057
-0.632712544013694
-0.346086131491981
-0.025653894195677
0.891877964259935
0.729195900274775
0.423965621264232
-0.812506467434641
-0.357718804945017
0.738839439902667
-0.218122601781632
-0.32765767434002
0.495208899392166
0.605681735603786
0.731712026617634
0.0680759250848856
-0.632418127809233
0.358460828207398
-0.402317041802185
0.310474021123244
0.464098010605829
0.59574972823679
0.502859403232157
-0.0872144644727409
0.798249529025934
-0.654940508271971
-0.977164435466915
0.722239490843949
-0.182864410840144
0.00366411629320742
0.371542431702153
-0.213929317810833
0.192830011614185
-0.919143627060396
0.589976758036652
0.0641549299529567
0.070816735469577
0.489655193092556
-0.30369112206434
0.676187639130892
-0.238538245072548
-0.309009779958577
0.700268193073299
0.105536855513229
-0.211762392505937
-0.321112819038077
-0.609464547200299
-0.546963700761714
-0.158612628623217
0.764199825752662
0.471199044746843
-0.0534171533884895
0.410806240302056
-0.0337168868778612
-0.724097808160533
0.294721581873269
-0.940748471755516
0.277544654707614
-0.29007100796092
0.144230851811392
0.234647341340723
-0.883404889098495
-0.00616003679203398
-0.915177124484635
-0.24263371187857
0.212637036504982
-1.01262617721836
-0.451741530923596
0.558388134377788
-0.649634356445591
0.672632050245496
-0.0373333290972211
-0.148535111769201
-0.169952798816663
-0.428593220811979
-0.416641213889689
0.456095891549837
0.296792872043913
0.302044551675608
-0.766107458838156
-0.993171490405288
-0.72316481188022
-0.272215748737297
-0.74572379046201
-0.938456497139582
-0.752230705982781
0.85943568788661
-0.899491426177558
0.0117060415405198
-0.451019034212369
0.288177131872227
-0.951474124633343
0.576839644204567
0.167515841060636
-0.562256617559535
0.643214939065198
