0.0759313067777887
-0.367734158926573
0.947168181124643
0.57373271689248
0.440509103555785
0.37061131831905
0.165427401374913
-0.280839623176718
-0.871798209733221
0.0750572885788066
-0.632478175406093
-0.81198610253171
-0.0743354122595204
0.352301420729204
-0.232936125785047
0.837114136547472
0.166500369782977
-0.429877132783697
0.526446668739763
0.428996987334495
0.176738125627963
-0.0664476248884647
0.0324968543132806
0.914000433540489
0.760464944582942
0.413794013228941
0.465974613316927
-0.0805530655697783
0.675537922538046
-0.282007825536259
0.475267332162275
0.271073025790149
-0.232983215525416
0.137491328345039
0.218807012850191
0.474458370630662
-0.46064185869937
-0.806742400239395
0.698663737632663
0.356125582968551
0.586935513890923
0.711812734292293
0.738552265677644
-0.130692809272515
-0.447537320263713
-0.855937041283292
0.497349923277463
0.851923816494918
-0.380008930953152
0.812303650001108
-0.686361534329469
-0.178164424751957
-0.667125301730883
0.429766313011039
0.3709585701045
0.0398974901048347
0.140640077652972
0.531319333670049
0.197560992402661
0.263322205748184
-0.888914644091781
-0.121365812746609
-0.948970580199041
0.443847952200001
0.856618666583463
0.981662740015699
-0.272638846788589
-0.364347552791756
-0.0142131134953536
-0.442448764207762
-0.0856894319940115
-0.507157602287569
0.416141207960214
-0.780759076879443
-0.977974561419742
0.781842714081121
-0.123957899725285
0.936341022702357
0.0329331064930838
0.541122239556711
0.686349472044163
-0.90404691220815
0.503236360861371
0.945156257154206
-0.286001525125028
0.299126241341172
-0.255147982729671
-0.750399688707393
-0.0948104632904054
0.884927945673198
0.223752091456686
0.548297963009719
0.553968603799117
0.791366789921981
-0.297310528457933
0.090634736206436
-0.356560034531054
0.421970342361512
-0.167138395938267
0.225610903865022
0.197358315341556
0.689312728765259
-0.56080484288864
0.0362287563968926
0.019678736181401
0.936672095521074
-0.84704576026462
0.390113708678224
-0.948866979957564
0.54592591090066
-0.475228459954152
-0.75952675791767
0.284721199133218
-0.155884747688434
-0.344814806592124
0.14547759020567
0.950535301727989
0.218094780451735
-0.525582608782039
-0.0100788720960806
0.770744928838035
0.315630889932659
-0.0143979419926594
-0.448289840289183
0.260952003486911
-0.054427776243573
0.097635292373295
-0.631388884131376
0.892100679516526
0.231175374038584
0.465800425257619
0.307037787484959
-0.739805611692689
0.568902247145565
0.809382850400758
-0.0445646146087436
-0.720088045690033
0.665820215657613
0.661164466326233
0.388105932064833
0.6086021400427
0.149032257177278
-0.501672957844579
0.105858736695026
-0.512088353875185
0.287445062045678
-0.38302299205397
0.282266804386082
0.235057144476337
0.360827668363259
0.0975630112442109
0.955234342713384
0.394740899232271
0.481866637105098
-0.0312109681603456
0.622739634580149
0.33255023612834
-0.993703143632854
0.559853579103419
-0.541052898811253
0.309540001481634
-0.0947268948699319
0.417705510862952
0.619995213657504
-0.388083884805589
0.47897647300679
-0.0895141122851641
-0.573154033509891
0.338361507786838
0.565582426530712
0.676348866177762
0.410932984194274
-0.544793395712553
-0.693980270240871
0.70695782260645
-0.631632355200789
-1.00345128727848
0.302701696279143
-0.178115553275897
0.0783386165129061
0.549017936635515
0.739534656368181
0.805618187128447
0.717720128211267
0.972778104803936
0.889641447859339
0.872064031660122
0.501790061568189
0.747791434548024
0.745670323031099
0.765264892248694
-0.286933298229052
-0.258019885608112
-0.455866605259205
0.978785069276321
0.159824355349371
-0.520991737445751
0.800296595924111
0.925665838254938
-0.683650309583846
-0.455368955338396
-0.705323183480337
0.327182826688341
0.917747126271861
-0.334418782424159
0.0239671142749181
-0.718601576000937
-0.472255452957653
-0.707229680669517
0.324149650860862
0.69663336782223
0.734191251083218
0.621414805912544
-0.558105678852153
-0.233863003824694
-0.834646472544405
0.388335342698782
-0.383705584472481
0.0934903113477776
-0.308344106768845
0.142071252390133
0.566956425514466
0.0823848092345758
0.215707782636923
-0.145845291871801
0.448146289471996
-0.370333363665309
-0.464639303577254
0.0620761155971913
-0.922884486912337
-0.244531751968098
-0.105050134022336
-0.0576858786006039
0.114359280625527
0.413559964433441
-0.898409783725472
0.474248914679338
-0.957182355880945
-0.932899336666117
-0.551282612851627
0.20057951001159
-1.02204312892457
-0.199732484703636
0.672931066493284
-0.069632676436352
0.951174175825684
0.3070650927151
0.716910879014021
0.461223185811395
-0.0483328416823761
-0.135724955282558
0.556861103190474
-0.587130380870731
-0.0265852622151116
-0.293784673209652
0.15675870915049
