0.142465098323991
-0.644421261564174
-0.231944778482208
0.0978782688475897
-0.256749959956389
0.384008756863902
0.34809424522188
0.532724195965222
-0.73365505437261
0.781770455657031
0.694228282981412
-0.961279527327079
0.0749917323273393
0.665059779515188
0.418350987693556
-0.299359721202669
0.741247863689955
-0.406314026872994
-0.365410634072798
-0.811312471879289
0.648508276907426
-0.417805614226346
0.278479739324738
-0.629935183638508
-0.121182507180667
-0.16151730626445
-0.779362273512004
-0.950799751473478
-0.177163554526099
0.518875319657396
-0.461519829220477
-0.859809080182953
0.543920250198924
-0.428916396672562
-0.761062398029461
0.021416895620902
0.156842949978135
-0.701651939535287
-0.673409068576514
-0.850258795229419
-0.785774795442989
0.0892757140871862
-0.923445702021417
0.402683901905875
-0.0335875978754556
0.745448567218414
0.546117117328195
-0.70128027093775
-0.0945620277815036
-0.803341641160935
0.731608266993279
0.195648991528172
-0.56663954528728
0.73273522297895
0.418032595830064
-0.375525246670801
0.69579023395909
0.561131410586753
-0.329687449249971
-0.0432977772132031
0.141037814526203
0.351816553769501
-0.328109559144728
-0.68891077120066
-0.89280015064202
-0.844542276195066
0.895707620162672
0.197350243948296
0.388246356845502
0.252137388226595
0.485594954893146
0.0555902478502076
0.983859461085016
-0.819981801017922
-0.878108763023143
-0.475612711463845
0.825520167824807
-0.586998328030819
-0.970413290711719
-0.40409993534958
0.310020651878643
0.0252702231894297
-0.472808132361786
0.869151649896302
-0.888059829881308
0.691949501061999
0.0335779274514594
-0.883018203256149
0.979764511233757
-0.614496488992004
-0.299336839339062
0.806840792838811
0.368186723184741
-0.848883544456305
0.277330835641781
-0.841918506012584
0.338164953411816
-0.82672134689481
-0.516369306167048
-0.160895151030728
0.153696219260243
0.24111814752746
-0.162837719249748
0.876330244919904
0.952785529452181
0.705528638136059
0.885003007277335
-0.147654997213924
-0.526378526586088
-0.734145191208694
-0.118021843927025
-0.714742131256211
-0.446024827791351
-0.0415584193887615
0.518604655851216
0.888357487077718
-0.887566655939174
0.606120184090175
0.655303942505901
-0.189130766289917
0.308923342077492
-0.683069342065289
0.663768801586563
-0.708086152777901
0.35544071943959
-0.0905819340029029
0.134314907789337
0.732753342498823
0.091720191757695
0.415456373755133
0.89183703811415
-0.264921713854357
0.567111744639687
-0.847181535662997
0.827830007391923
0.6442003798699
0.678910589923391
0.8602046880933
0.175610700531885
-0.42541502864081
0.522274237709635
-0.669726189026853
-0.949264720617627
-0.870838507977519
-0.31785794477489
0.685658246495667
-0.581572739952553
-0.663294654619386
-0.24418256923335
0.973814604837042
-0.332138860598827
0.153263746646114
0.982800124479766
-0.289814487197205
-0.354364425943502
-0.887124043959195
-0.700401165832128
0.171948307202033
0.506514691414501
0.123093266073148
-0.177851542833734
-0.867629660641661
0.768394677124757
-0.941847793486017
0.602817754297596
-0.175624136005833
-0.812740290413646
0.324679104477644
-0.899516291930965
-0.909281823557383
-0.755493488277816
0.233218321014042
0.201728494794735
-0.428780096912366
-0.276864123032243
0.405353109251492
0.877375157009752
0.447530024748775
0.348738355660044
-0.79543412693279
-0.798114031775986
-0.547123832215202
-0.585296383855966
0.228430656766419
-0.687687723590437
0.201495420550128
-0.485008254252591
0.877387736353467
-0.428329918846432
-0.675492528906837
-0.882202269531345
-0.829629735392057
0.870674700321169
0.544382349105424
0.457092368391164
-0.550083216567212
0.00263568755853308
0.423172765241721
0.455315212849413
0.947353440216288
-0.428007082662973
0.575859495953046
-0.275443836005315
-0.10633608593851
-0.78680028123724
0.478831170438572
-0.871711031743042
0.0223764384141631
-1.01544570495796
0.183881098677216
0.477044297342695
0.861922203986542
-0.0247535248965313
-0.772024750251074
-0.585043204496701
0.566627151693713
-0.0438041924992069
0.600460559419978
0.781910762542852
0.425878479296008
-0.620494459187839
0.239724042019792
-0.886563014404223
0.233323487632323
-0.296816259325749
-0.129161111174571
0.877654918918791
-0.808094937894878
-0.348439157496471
-0.314619445458301
0.729707957882258
0.502314852302006
0.734810329473796
-0.516017288117334
0.0771185631729246
0.532298855347669
0.2946961942336
-0.110890811186514
0.127072529947209
0.841420687684076
0.613032804750689
0.326202645090539
0.461634867144044
-0.523233069737421
-0.495076079865509
0.870254967597785
-0.329051948350602
0.633784745364473
-0.35796987647311
-0.678553889575987
0.161910175796224
0.739339461209743
0.328058264177236
0.311842100404243
0.989056185540408
0.504767915680118
