-0.221915651166938
0.774058716777716
-0.110193655589698
0.928027694987715
0.964473761868496
0.913808040101427
0.716007450260223
0.942560743127091
-0.0335696326923986
-0.470091073431323
-0.996077482922536
-0.153447545821635
0.0113237417090792
-0.472384352340507
-0.247727816837088
-0.748099775493211
-0.635867763912231
0.196234993511779
0.125600796732795
0.556795915576711
0.590303284934007
0.855896098496105
-0.906551851687616
0.235804364144402
0.41129133661766
0.97488906602649
0.0111260611101272
-0.15941589255898
0.646857385502877
-0.261354147047039
-0.91412920374764
-0.246052192602834
-0.32227811646751
-0.906102026422703
-0.670000447005467
-0.883552929371784
-0.131897427573612
0.106203600770981
0.105382010179889
0.595631559659034
-0.700819242821684
-0.432508225141055
-0.3929308645229
0.177112371408846
0.248207982327229
0.498260215784096
0.338497243618655
0.386903820273015
-0.00851487767918861
0.18784472639448
-0.43271366029744
-0.656770639603492
0.642937784470147
0.453209840959817
0.633477012298448
-0.655175500165248
-0.725099288716752
-0.294216893595921
0.81248347361517
-0.0639343750382953
-0.293813236015707
0.663039938822649
-0.829717260806053
0.493406388420715
0.0412477757600497
-0.983183182057617
-0.146687164482769
-0.326081288694133
-0.38875124641975
0.961738597831823
-0.609591454214855
0.138520349872993
-0.481439591296544
-0.395212164716044
-0.129874291261779
-0.943386665634449
0.6822204176639
-0.185623172386615
0.921850989553054
0.262614182383046
0.667062964470745
-0.321064796842048
-0.572425031369587
-0.489264224525036
-0.821842794527086
0.762490791658099
0.340602041368771
-0.839099533494428
0.845782335666391
-0.84237385870156
0.765055091438954
-0.966702178110196
0.965026063454503
0.481551583376216
0.724583708717699
0.361735166999912
0.0854600613456421
-0.278317346954153
-0.301471373672202
0.930832487987773
-0.0569029661757339
-0.798663034406569
0.225523107746179
0.158868632743493
-0.0652954352222243
0.886778829960433
-0.631667279171867
-0.458074355686691
0.635772298255354
0.847725653558708
-0.0851992171052444
-0.00225272384247049
0.795343263491771
0.747300223729483
0.0138808876017904
0.578434552124815
0.877194683439507
0.234179438380374
-0.351926749926042
-0.176056062031011
-0.767231290173827
-0.0698210091282993
-0.00299340386137881
0.155932674134195
0.310885333734356
0.0697836984223128
0.814132451076335
-0.340547838962618
0.539263209847322
-0.00733771820551337
-0.105932411099055
-0.505410890211655
-0.533429763713931
-0.465400729590135
-0.350235778151571
0.886833458702885
0.332104447313594
-0.433292191870677
-0.581971947394954
0.892530702184906
0.327986474898689
-0.26579764336033
-0.151669525432196
0.596118304365077
0.532957987383275
-0.634295290131729
-0.13212106467086
-0.891293360183635
-0.314443407798722
0.225620267653518
0.267719768420533
-0.828605994925505
-0.408096616075234
0.835344044177654
0.0664373989491345
0.959268595581278
0.36818404301239
0.186239459869465
0.220839658996775
-0.975547462981571
-0.27136513646404
0.110125672300831
0.257698617177539
-0.562660508740636
-0.367564101637477
0.247612742918459
-0.805361485184129
0.262944829894767
-0.746670128771967
-0.146059668931854
0.945545907925086
-0.791991873312143
-0.417828701276809
-0.760936009291793
0.203142410225012
0.759710280674567
0.898070779792781
0.119384951395404
-0.840476616272084
0.748406264630165
-0.365827938081588
-0.432748741692844
0.599086155350343
-0.0761108104380766
0.369700529095271
-0.23644643457795
0.352990375472727
-0.726000121619212
0.201874756205632
-0.688827557870306
-0.780585448979414
0.0092322081040031
-0.678166521553744
0.229751968118879
-0.811702018214948
-0.92336090460302
0.122795883384752
0.31392384035382
-0.93643887272282
-0.474944345670548
0.27691824520052
-0.722508791851686
-0.374441699122948
-0.121133038142341
0.183175602319472
0.576236843925242
-0.694970105019263
0.92693411091012
0.770987449440535
0.907627256035731
0.481405705913541
0.222575441659936
0.0592513099744715
-0.617822261543449
-0.410514659425639
-0.795447399478052
0.0488601709550939
-0.369980778278125
-0.959071502745845
-0.70272168236069
-0.922564274566195
0.617435806511027
-0.924941797248342
0.304419056594598
0.101630652230088
-0.704284852470036
-0.623899307146644
-0.818032971817272
0.39519645515688
0.573038035140322
0.054147624530917
0.972523492200298
-0.498721575947874
-0.912339516201813
-0.788566473727983
-0.737235229075879
-0.239000452269797
-0.993961296932168
-0.960609518221537
-0.0628239864519932
0.0637186847811329
0.0936239165352589
0.972593369448151
-0.539132446121024
0.320955645890992
-0.984442620509965
-0.983897781848067
-0.864656801839994
-0.55585501774952
-0.897306545074707
-0.0392428600619545
0.829730430305905
-0.464926983129879
0.287938706742344
0.779476139342219
0.574437404418047
