-0.898393774811396
-0.783245719722413
0.889304185581893
0.314697613722738
-0.175627262219645
0.731762054597464
0.547194435903704
0.430373769359413
-0.901856632945354
0.135351259194977
-0.125858839446951
-0.597903738700717
-0.593599051510402
0.465133908888476
-0.582575244014001
0.473479117800215
-0.237754821718881
0.437727951274513
0.581264792080851
-0.52671765677331
0.62891816833524
0.148399863126819
-0.0238277036058082
0.41491362082986
-0.155989797657468
-0.127554874406875
-0.553287739710953
-0.64685456245805
0.613943857301629
0.297020551618147
-0.821552808755866
-0.577581241914914
-0.684519652636285
-0.519636674397161
0.776108312915519
0.631583541905357
0.279741643497735
-0.135694397530247
0.227671264811713
-0.306335755214929
0.425079913519744
0.506629192768498
0.150952213690198
0.591414093293243
-0.0394733571967886
0.94283116626905
-0.896814078833439
-0.594402189763319
0.700176764401025
-0.368855645866005
0.319170958932371
-0.374124452043106
0.13784899348654
-0.0610092160623748
-0.254800826556474
-0.515526820811874
-1.0092400901032
0.745743017358232
0.852148889718957
-0.135976410800744
-0.19029707856943
-0.054664605844641
-0.637055428172228
0.674238680244104
-0.0573572317752511
0.487502100262035
0.129481483897857
0.526189474766948
0.494763098428353
0.1735932305949
0.818030619467582
0.356606851465774
0.913129086724358
-0.786415134912117
0.75950713054858
-0.280905109124958
-0.710112726838243
-0.311435125250692
0.949665487673573
-0.81283344122318
-0.154428378822762
-0.70283359233427
0.250386904439456
0.49552979661705
-0.500321539195945
-0.922935014304139
-0.577174512645301
0.205317786122419
-0.338816913932579
-0.708333896216864
-0.0558987792814164
0.36439384657342
-0.485698600304668
-0.172761559348952
-0.168606258441819
0.563196486378319
-0.0197061726488138
-0.995087948643547
0.762673847714067
0.336343851810378
-0.399628590251292
-0.0596023615890538
-0.585000525116088
0.123434972779054
-0.0832999427483341
0.373448721041829
-0.997872149537468
-0.585082495955931
0.687171233860722
-0.182282714917724
-0.276959657531914
-0.534792362413371
0.366593595018556
0.825244731287849
0.335987172813298
0.408199084509178
0.892897753804696
-0.745733413589214
-0.850071999304546
0.480804304745476
0.301611139656244
-0.300915708814976
0.614940532353851
0.612636817366256
0.911088066064406
0.376784949714517
-0.61587452946726
-0.981000516293006
