0.196318022096056
-0.232140591278684
-0.162737680089732
-0.62028146705142
-0.0383737002538015
-0.432243728980402
0.0622493871926686
-0.396943679340015
0.228684559523996
-0.305601998261536
-0.847579635872185
0.808596756708704
0.305024915072085
0.793055236765196
0.378299223892311
0.257436522742029
-0.755830021542017
0.0470440481417046
0.551974917765377
-0.797245326474822
0.702246063869492
0.965682784771217
-0.296483032962538
0.893011169930506
-0.172566128936786
0.177255780901588
-0.555929481931136
-0.579496055816739
0.533925660489398
-0.946057318873154
0.650877749183736
-0.38079146041826
-0.441499315229808
-0.849755615348754
-0.734967775674652
0.529576595518026
0.140021464046981
-0.397774256068627
-0.21207593665242
0.950407795537713
-0.845106933950215
0.9293970068574
-0.882754778081975
-0.528020393771729
-0.111486700768149
-0.80949424626291
0.164587148501137
-0.0826955299940835
-0.0656929502838843
-0.212109008883443
0.143469220462387
-0.0623156616330842
-0.203097978291315
-0.462372024347797
0.60763310376366
-0.176701463003529
0.190424381353063
0.264462489529329
0.219390917470347
0.358312286515518
-0.415975792603731
0.276956712449305
0.558282752935423
0.78047776712426
0.0804066377395556
0.322619201407744
0.159524062903494
0.00707157023290316
-0.628208957516743
0.33335978908601
-0.199943407738081
-0.165169730295225
-0.228212602669255
0.245438421244301
-0.9475371583572
-0.663886743053099
0.72739528365908
-0.720134130465523
0.323700398863757
0.619042709256225
-0.0261508843714607
0.64088788528838
0.289567420614428
-0.276512388220474
-0.965653464966977
-0.228698272571749
-0.389086581051257
0.917053387039054
-0.936719882256972
-0.618723782595212
-0.361089084951812
0.180171514645169
0.379089466893673
-0.837185105644119
0.858224456378003
0.762568622501823
-0.528153986249649
0.336219946567141
0.292171021304986
0.343044272387732
0.244278548801504
-0.77963840319769
0.502770643830776
-0.47399241902859
0.384388759112707
0.895985850401279
-0.472066677835891
0.448175179190398
0.2580077925872
0.366581522896236
0.917958828574745
0.238960265180545
-0.954245630962721
0.432454987330792
-0.455988521572919
-0.362629517081524
0.631831126997105
-0.768642307773626
-0.541379451408935
-0.153331936678735
-0.326602169742956
-0.0108057481896434
0.318433798477024
0.375635131976142
0.106679826927804
0.854544669995409
0.0195135088547687
-0.843088688223329
-0.496835047155172
0.218477579999229
0.902006650989696
0.274070419534552
0.50264995955439
0.178047240446625
0.133213111451321
-0.467859618606153
0.360622252579638
-0.258671175652418
-0.987230753490096
0.0430912532350145
0.0687038446085963
-0.479972114908374
-0.254199643244933
-0.730480718911038
-0.69539141390093
0.914652082688593
0.507603147286885
-0.823296124096893
-0.163439634061293
-0.500111064666634
0.428735184658087
-0.751347754950608
0.953785299239387
0.329294801018931
-0.973866546103658
0.200858703654569
0.594730208123361
0.512485829822955
0.0732104641901433
0.398505063980622
0.571490108132013
-0.836782151687154
-0.139433873595877
-0.536019838884226
0.377029551488448
-0.421668743476835
0.805406357187218
0.308832796959741
0.281649965609199
-0.277093061635759
0.8724159388159
0.179019026170157
0.28584387263196
0.0711117413055409
-0.311965126210639
-0.613697303327564
-0.664542415283617
0.531605802239499
0.681316371606982
0.716441676730646
-0.294365407073284
0.632500922154961
0.581719668969543
0.715458222417907
0.845747648888022
0.43928669878234
7.68057672560806e-05
-0.0886594593353076
-0.625437385554351
0.423170520258881
0.87433731808447
0.38244734782193
0.185724524472952
0.478469821677352
-0.448123594272629
-0.0794041361751755
-0.0901523870487934
-0.756459351781599
0.443084534380083
0.448109095597901
-0.345009996734311
-0.493330271494394
0.0432574023972927
0.305397914239501
-0.541835014587618
-0.241676475307605
0.193006447314157
0.526306170975688
0.595041461905664
0.0358107354026318
-0.183355284083981
-0.662652262655021
0.694160511294503
-0.15761966372146
-0.00361579393370065
0.470240781806521
0.66577342258041
0.0124468049852421
0.962301050707967
0.115058195769636
-0.706412381209194
0.446341987322155
0.613999157637692
-0.0713030419021092
-0.495461582140029
0.30881377890812
-0.487961845473808
-0.619186085387701
0.455081955321178
0.898596599216047
-0.378745225664
0.14925315356382
-0.626546518922115
-0.189235246401302
0.0927634996792675
0.389382079357747
-0.521962884778963
-0.522161968317693
-0.499461876744926
-0.148299356516317
0.443470302667715
0.850344816864958
0.406971804797892
0.166599389906984
-0.213253171055422
0.586744880358126
0.607095517205212
0.345237569020176
-0.100073377179136
0.896464446585962
0.39633896582975
0.112695168091352
-0.89712982004591
0.838822095249713
-0.778943405856036
0.997036357179492
