-0.207853051044742
-0.703143421256305
0.269484768410057
-0.346844223240814
0.286507242875774
-0.712667890610749
-0.216136589536853
0.716853285220626
0.852032898651205
0.633301879204769
-0.956512791709294
-0.0262652411493248
0.662598515563817
-0.986797087677967
-0.986604855365197
0.551071437983376
0.682582609903495
-0.546173327890753
0.118661317498106
0.969971507305145
-0.889957214566149
0.540822346285279
-0.664889879632346
0.619525371890114
-0.354576626305044
0.357577086343366
-0.653416467114508
-0.859602431294219
-0.19587198608152
0.569306423199556
-0.79812700219048
-0.485204071406333
0.856369600508898
0.80276785048631
0.961099310983484
0.0215966877823284
-0.16520838718689
-0.360863288933474
0.405860745814022
-0.393122645845653
0.00370232548433781
0.4928970078323
0.76015399205077
0.547462737359338
-0.96794459401674
-0.110187069022348
-0.59288174848289
0.754353385681818
-0.626435811890639
0.175378045363777
0.240395712273686
-0.0137389967988677
-0.547710561562705
0.241423468253424
-0.967518409496323
0.616828559224754
-0.328209018433457
-0.789864991428221
-0.192693132527921
-0.661478351853165
0.410073849482685
0.759479307330099
0.604057472064583
-0.479425990195362
0.72520333570413
0.767147109434308
-0.990467595291667
0.211286314594801
-0.301172301457768
0.186248958911618
0.396554831187765
-0.932548488404279
-0.676974040620718
-0.892160001352162
-0.0256745590468777
0.302729569929152
0.0699598143033849
0.494631722607594
-0.281537863729363
0.416407540102622
0.0652932961515182
0.978800705821882
0.384570717644005
-0.920920363072136
-0.948533768371396
-0.171300001828116
-0.265549605280393
0.807081540316938
-0.161577409662657
-0.360961055162906
-0.774856812057224
0.667127102852277
0.270751807880928
-0.575275318511304
0.332015084652401
-0.972441052711322
0.511000897912459
0.852293811820888
0.701297484328694
0.519713494728364
-0.713320386484044
0.380488921693423
-0.10837436095164
-0.206673287599721
-0.435948588848652
-0.677360370208364
-0.349979674498256
0.427994573209034
0.314978082233431
0.335414196301302
0.00269969705886459
0.36312699383272
0.625376654395445
0.678626198537168
-0.216312535240785
-0.748186564694821
0.657758948077549
-0.133699340261218
-0.300688776449732
0.360292626318105
-0.0842962610126409
0.515611498572344
-0.701823299366145
0.870868851604412
-0.911982962396259
-0.610801618182202
0.471267822662799
-0.393436000160287
0.721104969475899
-0.698374794220436
-0.454637584320903
-0.154722091522762
0.418802498629523
0.619628284613379
-0.626571655247452
0.608390486125906
0.223947578067301
0.866242467053525
-0.259798503309176
0.597363141294837
-0.68189984338843
0.0908925157750937
0.95411593482234
-0.448073065264829
0.0308928771174446
0.901385615609563
-0.165448846262876
0.168938914347432
-0.786522897949029
0.0795145574619838
-0.294795658840992
-0.223256707803634
-0.547506999570103
-0.27771819653262
-0.839676769564817
-0.739133424194143
0.645430650780983
-0.936216456370546
0.447132324186391
-0.631439403400295
0.243226110365725
0.700326812422996
-0.85920671531453
-0.73089207058217
-0.113019058759944
0.531055194124188
0.995795677590557
-0.219906768516893
0.679119711133735
-0.760054633400813
-0.422189892968845
0.544089753042808
-0.656840587089958
-0.675275559567288
0.385267397413677
-0.265078005649589
0.248631031692138
-0.0579102831117967
0.657985715192319
-0.228382565015677
0.987500800526033
-0.667734391093725
0.780198833864478
-0.43696708526026
0.570574042245609
-0.829962920577328
0.18322738618751
-0.39709032381521
0.447146209147214
-0.725554078042838
0.587203483924794
0.207947739759044
-0.0599488861424106
-0.688568161251918
0.812292351651637
-0.37477308595294
0.765400001399576
-0.25615113196493
0.743076137898609
-0.237263576692098
0.54722025667563
-0.770610159533763
0.503318475097268
0.435343452878227
-0.0669104347764751
0.0794663907808597
0.388338094121751
0.574484045495389
-0.101697252444233
0.343483210972474
-0.615216705910691
0.895638661997665
-0.106924500935953
0.194424849862411
-0.258412678529012
-0.748824344867186
0.298583574070777
-0.506214941244367
-0.780354217513205
0.361992208175704
-0.398048785517952
-0.0672759717459084
-0.776469428119413
0.467788260400858
0.335330399417127
-0.938015763509898
-0.988053407471054
0.223392036206097
0.326566126820114
-0.946975905519524
-0.513220626634552
-0.473292447346963
-0.859316116946102
-0.995421133450363
0.590036378710591
-0.851174056906269
0.162548949712044
0.861517261281389
0.0694667948165439
-0.445416553681843
0.33552879768626
-0.364114613377207
-0.167497119590997
-0.198563635962129
-0.7461968464522
0.851439267364744
-0.129694065266696
-0.463823973128064
0.908210955872463
0.317769573178321
0.263877491893692
-0.390003819707195
0.096221325293552
0.888905956678609
0.551940238464453
-0.784440074460586
