0.640910756264762
0.769895400845302
-0.0678116067095751
0.45745188991147
0.442520864885337
-0.0780334676682241
-0.355355233657005
-0.797211303475996
0.926284415165521
0.915783100188421
0.816825145406888
0.38621961060115
0.647817276969145
-0.675958995043192
0.632652856780372
-0.620869116189703
-0.28407391883279
-0.35635793139032
0.242383318345644
-0.538230030150575
-0.875459455153065
-0.333381218198973
-0.22174798672718
-0.236700456616624
0.271002158073338
-0.314775820609812
0.440677649040695
0.335865996827443
-0.640790637936015
0.839463726840529
0.957226267356598
-0.129230763348157
-0.52687610996451
-0.596527483060232
-1.00104052026906
-0.778000184218458
0.897142644421836
-0.0504664151869393
-0.150353295990777
0.800628736914993
-0.191413033185836
-0.277107529294088
0.897485449202302
0.331706039125975
0.231311861127845
-0.477941329690793
-0.0283872661777952
-0.995438824041903
0.806014644970254
-0.892469782839259
-0.19289024380142
0.171345833176826
-0.553751079948976
0.571113816966216
0.235355566287724
0.0399041919733491
0.876807836299376
-0.0520006892783276
-0.46663238022526
0.760186522708981
-0.616711257372605
-0.905770099268837
0.954975875045876
-0.749066328011381
0.186010296575093
0.483714000284931
-0.333084757285511
0.758403344836972
0.315815888956779
-0.0441862163110137
-0.269913979446257
0.696231988332338
0.0315552961136201
0.500763657653141
-0.11805891807353
-0.666435124797353
-0.865676726242706
-0.843101356254184
0.182611073580092
-0.52200976478665
-0.852825840350239
-0.915801654149916
-0.221775972923112
0.82985804129749
0.74420821825134
0.737899773804696
-0.650097256138799
-0.548101426378452
-0.239459510364298
0.464279153335062
-0.0133385076534839
0.0369221615800328
0.747360096437907
0.398517243525954
-0.439797287149004
0.30209031443237
0.106933985892555
-0.111408607802642
0.660528906711666
0.680042175298784
-0.210210479276553
-0.701281646645635
0.169853029368616
0.933288133791824
0.563386704193586
0.516839632472213
-0.0208463310520017
-0.723640846245488
0.240636292566187
0.865185327260582
-0.399187630554409
-0.367506240298426
0.259212029675173
0.474131871517088
-0.921200919071785
0.901652243382796
0.678631118433463
0.108260046618871
0.744121804527625
0.402951631472836
0.855823412814849
-0.503187567408101
-0.307913835087228
0.38661851513437
0.302251704284265
-0.680446950391638
0.636369326102584
0.462437812805928
