0.771645655668724
0.39430768102524
0.567248244432037
0.486617060783464
-0.794922649069683
0.203758448805928
0.852448342006902
0.470683289356038
0.488544362150792
0.648806078309564
-0.40769446558343
-0.244121554634148
-0.774643825226251
0.997802625330213
0.292065838343151
0.824264916707672
0.667872608283765
-0.351208529412434
0.994835384634629
-0.0053401887242581
-0.211430342375891
-0.233575635922374
0.560820441367819
-0.281540607162543
0.101714092186011
-0.25709583830988
-0.965008257607389
0.297340145977399
-0.221115432125844
-0.784687262931674
0.103474882071104
-0.965287895072877
-0.959670041423946
0.351528651805096
0.763963464257344
-0.950151683139752
0.191731738828503
-0.325660180980971
0.382573971563145
-0.877212193083812
-0.151032799776869
-0.209909433835953
-0.397870646640932
-0.707114252153334
0.803923192151024
-0.0431830652838607
-0.460829587077436
-0.866630786015575
-0.986878262909007
-0.947345241721276
0.264611074873295
0.853961716047984
-0.399102060053743
0.26660869802707
0.458454521751888
-0.644181743602079
-0.543091915646105
-0.744373420062297
-0.634209229479483
0.38179264491829
0.743286011480573
0.219182750587578
-0.543487659599123
0.951582696287178
-0.521484005403911
0.583302467856607
0.0967805459656675
0.26415115624962
0.92729207960466
-0.03396724052387
0.777218607734539
0.191485604529232
-0.860577972794534
0.12110329890671
-0.632624346155891
0.820684268262694
-0.687126976400464
-0.30626409439449
0.135082415629605
-0.929073752118491
0.0490474267736143
0.975530596730403
0.174509750172599
0.0863524228910279
-0.750850700719852
-0.450864714233419
0.494040406744576
-0.717170895281856
0.253779629340843
0.775995609042293
0.957885831074377
0.787079424327597
0.148298744254346
0.324735419966396
-0.0941712898995774
0.094473966099262
-0.980096043676843
-0.423302024348316
0.237660020101116
0.65468746275551
0.843074922223587
-0.163615473903845
0.136826877268141
0.038146796016454
-0.288627227418644
-0.747382881611734
0.50046217142636
0.667625304524348
-0.343651896148643
0.350792341559316
0.646857381123751
-0.251328010039592
0.558685308582374
0.455446917091993
-0.0804676692863292
0.249141182933001
-0.456288409565107
0.735841342044786
-0.151179519007842
-0.985891404788533
-0.190697358025714
0.84561410629472
-0.900204465975019
-0.941229414768928
-0.25549230035403
0.65718676595309
-0.29374676614077
-0.437419192775549
-0.317219094115265
0.824480530901043
0.232756514475177
0.632993789560646
-0.701792916306639
0.145644513529201
0.182058548703092
-0.876237220721242
-0.190858307793674
-0.715877989185534
-0.645302994695428
0.959927956053132
0.329961125139557
-0.247126478164937
0.343727135278256
0.00800196945784352
-0.825569925468791
0.554699576657907
0.743863339641575
-0.742451011178463
0.387451776514664
-0.852129424450994
0.443630497056673
-0.781552942513448
-0.965320503434636
0.595224143462062
0.573114332703931
0.3718412658662
-0.322034281271789
-0.163952763143327
-0.320490941466564
-0.824309090495957
0.123349493959187
-0.244539262383763
-0.116159981980069
0.719901315456866
0.672603145848397
-0.522409381388377
0.0819896095949579
-0.676971860259342
0.159966891970814
-0.312260153961677
-0.79732700007575
-0.737808996407226
0.536050544168514
-0.692709107260419
-0.657764658494543
-0.0717938099494792
0.627888332740458
-0.033154530441153
-0.734336948314472
0.574704730285953
-0.780285266129814
0.266220182280815
0.223233505979578
0.47300006636845
-0.994106849203806
0.76952499864641
0.719158737047927
-0.883969951429528
-0.28384052661878
-0.20203045832123
0.472164238741068
-0.658319446744798
-0.73842466641085
-0.148617742844905
-0.853854073455789
0.210435785780858
-0.834442495475568
0.556544608737138
0.853896667927282
-0.0926218638863064
-0.917064592135486
0.569451027036634
0.0104213842641485
0.310672912566887
0.80644879436955
0.461357647959566
-0.928120592638523
0.108673987646659
-0.133293171329725
0.0581618318236728
-0.89838249986632
-0.56654584019796
0.871288906736098
-0.599831843473152
0.262613168124898
0.646552538758961
0.110361948745333
0.690798864987
-0.118507804385209
-0.32374247989717
-0.0208181868949364
0.269164056001125
0.356281609837884
-0.637489551282374
0.963453781889199
0.961425679491867
0.638243649984462
-0.636168019021031
0.93507274618375
-0.714454632280387
-0.258184102866874
0.856253603755493
0.404678557698682
0.275699571785249
-0.916245992749902
-0.349435977597169
0.565153226618061
0.643428924056224
-0.757166665957305
-0.618443531110518
0.959248264137956
0.573381224634787
-0.770813333436236
-0.33585275662452
0.674832249941726
0.570506475904308
0.199648663451648
-0.469716922978973
-0.244622514310774
0.543227298415404
-0.829230566127086
0.472182289038079
-0.304820412037595
0.135359008822214
-0.184464756513678
-0.895348187555565
