-0.354951049014392
-0.0308742876213539
-0.880107849496958
0.160480930450152
0.225764776032739
0.728967950734945
-0.975162929648248
-0.798523369144312
-0.308903952074917
-0.424582029947573
-0.449123938159328
0.604731406357518
-0.441191165139441
0.426831488762001
-0.135510328728704
-0.640370174836846
-0.382000446207818
0.292841354345166
-0.299354208179312
-0.336965962911291
-0.149048166617522
-0.204935161846009
-0.080716954200885
0.039641497529513
0.834498962929562
-0.720567749496017
-0.775202383379615
-0.815175565162719
0.605796413401974
-0.78638914599573
0.500299807272198
-0.437406344573408
0.906340341063249
-0.314902808033562
-0.693123698573276
0.925228727221124
0.877653659473621
0.604285187729702
0.936433429750923
0.0883840788267607
0.830433407761874
-0.543304186510757
-0.328772280247899
0.148385051010696
0.20410540417916
0.920214654196236
-0.893608338209442
0.298192299730163
-0.398512897623726
0.6047014057079
0.418551355611775
0.414577197551887
0.712834504006093
-0.81566597553696
0.575137011916914
-0.419452950412945
-0.845188272115546
-0.862846596846302
0.89213017682815
-0.977194924974364
-0.0166238916676655
-0.0311324484290429
0.419529109724224
0.594970701539903
0.431902329160033
0.476347217083769
0.911697697449044
0.890727868400368
-0.596163853775877
0.628130844893401
-0.212005418925776
0.129137708048386
-0.659349035467836
0.06366129819171
0.26714549227965
-0.887658527082242
0.536433576915624
0.613778195075284
0.648812262858097
0.832219146785379
0.0857446460861155
0.113698561266756
-0.571257990190263
0.337373476644585
-0.980951545437143
0.43360867358033
0.12609116379198
-0.0889361806376914
-0.296196199707681
-0.37424396292039
-0.997861838374122
-0.676897616751057
0.384660689100895
0.494989232034118
0.0268204544909869
0.354519477433526
-0.637271508677085
-0.0034861052149493
0.776162246917388
-0.649975518429969
0.61689364195527
-0.532848711411188
-0.685477675421801
0.115898388979851
0.932664722725035
-0.919977802385558
0.665673847560189
-0.860626332320397
-0.813341580458525
-0.961015695606162
-0.315485708944903
0.673699285327402
-0.492780732007928
0.47401530949452
0.942058655094143
-0.7771159121363
0.286946675327449
0.0995681760727589
0.826304322856749
-0.563948599638486
0.470573971845867
0.712715558031928
0.498102550951163
-0.435537588693609
0.825095252679082
0.177589581496962
0.879285225877152
-0.134825440373792
0.699351339941834
-0.367309870352817
0.788102489695036
0.809807151264819
-0.544445655853811
0.468379877797595
0.637364577481569
-0.56439029955513
0.0684640908778877
0.479844090866529
-0.727692397029945
-0.351990010191051
0.961171133607427
-0.108414705506887
-0.184561965572314
0.600839802431419
0.850158437928423
0.977316125741541
-0.249378013848512
-0.956907825600719
-0.308918746534802
0.217456093562157
0.859299777195947
-0.441769561518252
0.84148834969969
0.499975046053521
0.58968655330135
-0.984665730818101
-0.670539020086476
0.471013580727734
-0.747386105628899
0.73970231256151
0.877349630717108
0.460075345894811
-0.369874156117136
0.0193521252860576
-0.164654614069703
-0.88346899692424
-0.572577859779501
0.299455953562952
-0.430054592029031
0.974120990638019
0.689620721645398
-0.586183360340577
0.571000847055503
0.883921323873513
-0.608392985798202
0.411762462776136
-0.741410973691037
0.0276600053458762
-0.542472247223153
-0.198652509168082
0.932510715613966
0.778030786384844
-0.551402742047667
-0.154322703726831
0.101200842585725
0.356219994653138
-0.920807425234855
-0.450084609967514
0.711722153075176
0.400922089260916
-0.706934720269958
-0.969399797336325
-0.921210937947601
-0.116876520503238
-0.449731268152939
0.167308619787814
-0.0017792581153564
0.951861406229754
-0.247637226817659
0.807773367800904
0.57453934983167
0.181924574022621
-0.754836410532131
-0.577262115735195
0.029743983494769
-0.762695050643053
0.948006212460592
-0.992711402611878
-0.0952609540851423
-0.814163088104166
0.614948559391903
-0.0901944966586368
0.684029759365908
0.336098316105372
-0.108536972410674
0.482823440272428
0.128755329370575
-0.740655055029475
-0.985942922272179
-0.831313909597176
0.643109331581575
0.253881706893731
0.216635174161453
0.892051341193792
0.784999325172938
-0.404881436702742
-0.557631553071428
-0.147259098196835
0.862301942410577
0.224604256381614
-0.518484335935912
0.504139090496271
0.797508565690002
-0.670904116638957
-0.527317980623137
-0.330591765567789
0.796767048896841
0.934490972659292
-0.0808132217483668
-0.516943246143826
0.596302774190436
-0.380139852087589
-0.448155199525279
-0.0485089613714509
0.963941990387152
-0.499173456260963
-0.153657477242352
-0.555037308941907
0.32632783721297
0.428049090839782
-0.875585697618739
-0.537904367723979
-0.0454356178759094
-0.513449904365933
0.415024286428541
-0.30879685568512
