0.664320067351037
0.514055867359046
-0.314759639529074
-0.916156707916273
0.860400153070765
0.859628109545952
-0.273849982182926
-0.14458622408851
0.207007854059703
0.387760756805652
-0.0177664044296196
-0.952626603860362
0.614508797833141
0.518574315022459
-0.22711443168912
0.347617814416629
0.950441847952854
-0.660262943348922
-0.473127326392244
-0.770829590402588
0.430866647443117
0.168598438916767
-0.233368570378841
-0.208102191748769
-0.245524942519736
-0.479813322523422
0.700270438453153
-0.356393969686286
-0.532347769542982
-0.903922491210863
-0.329171657804532
-0.734159134564899
0.726378448848692
-0.256557557538953
0.751630617057663
-0.0623950253272998
0.493681044976842
0.218251226808717
0.399963227121041
0.543375344547353
0.800921940481576
-0.0688666101010615
0.815452473174901
0.590847966547937
-0.406879773553067
-0.681462623876187
-0.730916551979197
0.835363167464653
0.230027924416098
-0.00821942244667011
0.134792121431527
-0.597384447482552
-0.341433410141116
-0.230858441333752
0.240611839008062
-0.27299866321556
-0.170030848114623
-0.531454365620552
0.795922537245416
-0.0496861596720638
-0.536059428417047
0.242706464009819
-0.872687284520944
-0.884225291978365
0.692940863774407
0.889291442702242
0.166844554710646
-0.575477477320476
-0.233823208254006
0.00207317263015595
-0.992106431988747
-0.0605276347212671
-0.928997559357056
0.332952882733645
0.581227915292507
-0.415014626825445
0.272302498717466
0.348109228749967
-0.019189812179071
0.752379561137254
-0.12282437971585
0.106823174436195
0.714966098153856
0.682898820311701
0.946637546109634
0.367580296811213
0.865552385462911
-0.911467277134418
0.292611645161398
0.767840417615107
-0.0425117544175355
-0.215327009918444
-0.268088793614706
-0.0771035507246841
0.787609226143992
0.289070571536018
0.539174085675917
0.84683402739192
0.36391540393363
-0.0154010962970882
-0.270983302027679
0.639854597334261
-0.176827051384013
-0.23796990040857
0.234189175807543
0.0984253414215852
0.0585174153709116
-0.585309663766092
0.350320776610223
-0.00562958563243222
0.134014963722475
-0.755018071109126
-0.13847967016076
-0.0775091776982431
0.0415367993125472
-0.77289920305072
-0.79237284041541
0.0185059173554729
-0.900594627822686
-0.876987755375419
0.149975551920859
0.779280781193507
-0.111393314335195
0.820621194456821
-0.00422406165110708
-0.907452485591719
0.983405183273164
0.582398047224982
