-0.483559123622603
0.186830195087907
-0.0829389085936212
0.668357591929903
0.517570133117537
-0.982211047919128
-0.987367837190927
0.452731793488549
0.425058366116175
0.0198573312467076
-0.509898030773529
-0.665235066103113
0.719311207738077
-0.100065549063125
-0.965723025898366
-0.396723009550473
-0.977116271789817
0.111980124600805
0.45529995893409
-0.0312512360873979
0.543846539700298
0.172910898367902
-0.206502005258437
-0.714889557496373
0.58152636676678
-0.470552332120234
0.206057153150595
0.355849038701108
-0.0871818014621305
0.450873840626713
0.0274681788050931
0.575322350822601
0.30860473874481
-0.560096018391356
-0.556088765784153
-0.393221044193342
0.985038861290921
-0.416256562157834
0.11047251100097
-0.15501821362653
0.339934347115061
-0.923750270689081
-0.378846621496327
-0.537897358634314
0.321607813616839
0.705358343858583
0.971227477860532
0.766468896673842
-0.439614554618531
-0.0167836855718861
-0.813957010882723
-0.488276760825544
0.579474662989852
0.160192732527572
0.960023964603042
-0.896350233436263
0.487094534966919
-0.650152828293712
-0.0553222254654818
-0.474924310701216
0.52085431418278
-0.727297658619757
0.549894780752649
-0.560706363342965
0.325309533186946
0.109498343276717
0.013703097747398
-0.776161728299412
-0.919885552581115
0.200212252969224
0.80938987357106
-0.988558962404855
-0.369282221427034
0.984749086359393
-0.508616410611476
-0.908901263913102
-0.828903682002361
-0.829493974914197
-0.479400843254426
0.759462968480029
0.397105573009193
-0.00607578402980898
0.413787129725914
-0.0712663007566504
0.785694075411873
-0.767324535053294
-0.824603432626406
0.70446641202044
0.000545956833850197
-0.285787396285056
-0.116446259118753
0.281454273589077
0.750652602209256
0.116656535421671
-0.084769067880992
0.397618379952042
0.252958902724566
-0.56989327003289
0.567146000592574
-0.795247731538739
0.136225381356397
0.447185993369267
0.21882540098772
-0.982376928226826
-0.156031919899432
-0.168887659044571
-0.988152509050235
0.155788828160137
-0.308477056504983
0.474742909649089
-0.291103640278259
-0.849938373188457
-0.436971497550026
0.670618980422328
0.850971924478479
0.446151344491573
0.764673372487482
-0.907572786240686
-0.87255942873097
-0.0596183163478569
-0.937031526353892
-0.552803977224825
0.869528727611016
0.472076299853815
0.00314932524270302
0.880637604560324
-0.521956337905668
0.651363720792639
-0.563608053441458
-0.83096166095768
-0.382335073416593
-0.909036191133983
0.709855580489926
0.0500603806950946
-0.197417177094951
0.827670694132157
0.0914553504265662
0.0409158381802059
-0.0747805440523063
-0.7641358783816
-0.235171647747486
-0.568496671298848
0.256288183947537
0.746732329486232
-0.230662602674777
-0.130509438997432
-0.908949107294327
0.976245541960359
0.833159218197564
-0.18691665566404
-0.849596741113755
0.908483897768715
-0.345135132049325
0.40661235964255
-0.0428079601328759
-0.00658681935751337
0.0733838776535472
0.0116589507413671
0.336999537849899
-0.967659806820542
-0.105349802897183
-0.49093934590618
0.406969480343281
-0.776478311661646
-0.286223091521725
-0.761791198933705
0.160232780547596
-0.0764156445541094
-0.633622101869943
0.766323119585898
0.539062282064145
0.858287761139023
-0.342557774255922
0.939428626490665
-0.674512568556102
0.0989231278994379
0.954333169283153
0.968236142375797
0.899368196127552
0.877431771930475
-0.0746209685679357
-0.670276481927705
0.237131567472161
-0.137099500862664
0.0409206589231954
-0.81742483276214
-0.957959120769787
-0.809530123616319
0.993108461505637
-0.580836135533442
0.530643053364106
-0.815278093380791
0.951703135816319
0.290952180404304
0.441326915975393
-0.682513834728398
-0.901546233466778
0.0502093122036818
0.362251379752906
-0.232817879808008
-0.422076324728251
-0.132669913350915
-0.390627982566403
0.0708858313378957
0.95992217760852
0.521366732216349
0.691011185512646
-0.588590382528635
0.155380357407182
0.980870098563447
0.214573097626949
0.854773974572914
0.444662020192232
0.171232695359248
0.31991134392255
-1.0008014816813
0.248632308128311
0.700170553209393
0.629524730130425
-0.613371460715373
0.861415576045298
-0.0143790447327289
0.684326018087663
-0.120905437196578
0.905044601423226
0.588412503037411
-0.924309225578166
-0.837872203654739
-0.363451966918331
-0.559533710207023
-0.387290839646715
0.0378770980272417
0.274952278378736
0.0533442949579799
-0.246717274403035
-0.154059758263489
0.275629633851524
0.868186836996116
-0.867316825219613
-0.299850256522107
-0.852146562380874
-0.612091076474877
-0.360511006926416
-0.694340591418425
-0.621099764887074
0.246679023721442
0.972165788834063
0.14583520489311
0.515673725668845
-0.912480756913612
0.386700975386982
-0.16092025702925
-0.154056691364593
0.768318453660613
0.860901481457257
-0.175984091577137
