0.423214453100137
0.841503089608922
-0.812845678359789
0.143407591981758
0.0453967154623185
-0.364320608432323
0.241340617103392
-0.408974952061427
-0.41219969393049
0.0136498968354288
0.0181926976440619
-0.033633437702269
0.0548738958270951
0.0312244026364219
-0.946128488616692
-0.0545057058955698
0.09937208003849
-0.132075925926826
0.325224554674969
0.891154617140177
0.74368942850572
-0.494260048383079
0.170521760084405
0.0348996485610128
0.56861741945203
0.217779736053589
0.775610369524757
-0.00109288026802077
0.48577431706714
-0.820601570665336
-0.280715959925643
-0.351120649890391
0.209984334521219
-0.272439538759539
0.000543313770778487
0.206773168935467
-0.69605511400451
0.377602920456242
-0.619938185921728
-0.606536944345167
0.693953342243081
-0.550387503823424
0.529786573614067
-0.684207675555618
0.83870868342868
-0.261224275087797
-0.821776924211802
0.806253080031934
0.350817965256783
-0.868742877874155
-0.359830809084385
0.904299314058923
0.0903233519703208
0.168406707083883
-0.294453575200264
0.000786728230217392
-0.101138891374986
-0.263489948524927
-0.661749505574131
-0.468335483586456
0.312228420520943
0.795951894585828
-0.186668330071608
-0.865945324545946
-0.105906979522627
-0.22528883346068
0.338511496158207
0.172278412153561
0.957848160398451
0.2725694962163
-0.711326454982884
-0.369123922486902
0.208899822940679
-0.578484810826226
-0.757472527134326
0.512289766315532
0.782241240541039
0.32733774533632
-0.935200970156423
-0.0111127896192889
0.372498032659348
0.278968069926803
0.384297637263202
0.0216932472195139
0.0355238020483971
0.568133767272976
-0.673694232443836
-0.615926618566699
-0.942579486138429
-0.270693363337377
-0.71278805138991
-0.827123019690829
0.353845328259447
0.46287011934939
-0.18228011558788
0.277151797026246
0.535912646203304
0.0167364287937118
0.977337579180411
0.436825223269781
0.949583798444574
-0.616003635985186
0.0626669332240097
-0.0778811985019513
-0.850429144783745
0.676654959582531
-0.37335203726499
-0.562851363794985
-0.370689869489665
-0.289331125699817
-0.0921496248940714
0.453421910650203
-0.616855596100385
0.647411631412644
-0.554952233729964
-0.144436213653811
0.306446902189356
-0.460809352916659
-0.15525083064145
0.173050782955918
-0.140754869597556
0.872921845427679
-0.41699228464264
-0.063753895358065
0.283042749231787
-0.228060560120278
-0.959856291302055
-0.231011836028263
