-0.62717451520465
0.39991628820524
-0.729485344662373
-0.108177569189935
0.25095373989165
-0.557932564312738
-0.162878163845833
-0.224959234883024
-0.000534726947999786
1.04785616239362
-0.40218701336184
-0.751870755823927
-0.805335792684162
-0.217238508764694
-0.212321203508047
0.848756781676595
0.341672119146126
-0.3977200766622
-0.126980880217058
0.560748557204675
0.182147082140176
-0.619702440490721
-0.932885821369024
0.611329028747286
-0.544147689081903
0.51476257342269
-0.516611034212529
-0.719376591528431
-0.966920511911756
-0.839511266681298
-0.56964762566876
0.731401662507524
-0.121564017318887
0.723092279098925
0.213326967748517
-0.160183246672891
0.657237259599054
-0.4193814918807
0.449727019187476
-0.686733440983356
-0.469160879893801
0.681974474036661
-0.926300684846323
-0.908149749244301
-0.732389827475762
0.195477708212681
-0.698516627227789
0.784722333205978
0.87404909487256
-0.212277796509654
-0.164210688359615
0.384178993695274
-0.578497436878008
-0.704353942619222
-0.980834639084825
-0.599483035982617
0.73496736117431
0.837969150023704
-0.616062018477521
-0.188727267056319
0.515449015649068
-0.454324784714149
-0.419654343223229
-0.206185318723795
-0.24699907379739
-0.372290602218427
0.127589035061289
-0.508987762291745
0.41622768976892
-0.244648476006488
-0.00720980816690018
0.597301427831523
-0.140897841790163
0.928874833801561
-0.395621735079835
-0.098228366321291
-0.629680653494196
0.389964390614529
0.446913086821172
-0.769282034593123
-0.0221539856911334
-0.0684569859735349
-0.343900549880848
-0.365959117359748
-0.0412783008050782
0.262679100523314
-0.523134455377731
-0.800298084035795
-0.755843833626847
0.702606964071423
0.865923675950677
0.0839079468259604
0.0326960155767247
0.907188843470978
-0.887225626582084
-0.390307570662818
0.804595805408015
-0.488099313805756
-0.241350430560612
-0.626449944594511
-0.782213438689886
-0.680898753980087
0.804178038270258
-0.0839184051264594
-0.636369477200651
-0.58244923680203
0.690279893002258
-0.903346050347479
-0.363066598523098
-0.393253700859616
0.964822441590923
-0.449240405688374
0.0232435783618446
-0.938632355033697
0.476630986889514
0.825283130926592
-0.747899802967711
0.155660134647376
0.292098892863236
0.548044198108688
-0.249642864535563
0.75949156283158
-0.374858018807023
0.124343721261517
-0.299894581800712
0.548364605816305
-0.331048690692269
-0.536218670556718
