0.451339042480326
0.711106977626509
0.733902281555285
-0.395207079729809
-0.922089421057667
-0.0537801829937617
0.299962949837023
-0.0684244185303467
0.793969111451403
-0.615389558354075
0.88932982297207
0.776896242028887
0.0415068360823381
0.750463141924225
-0.524376839867204
-0.703280832895913
-0.0666847116610987
0.994039685481086
-0.345234822364963
0.265512323518523
0.707156758176996
-0.935989837558053
0.293135524318834
-0.440797908910961
-0.202454164072014
-0.508846798656925
0.533545248016256
0.859801363610648
-0.289963898291065
0.68032463968116
0.359290979511597
-0.859394840125639
-0.415398553658769
0.874725241867293
0.064722283248007
-0.0957135438631076
-0.925290739959716
-0.178670026476521
-0.0395667607923087
-0.278762940599688
-0.445137571846404
0.267140160696895
-0.726486699938078
0.916836689557488
-0.231903158254343
0.687164459516117
0.255039467978023
-0.724806020659465
-0.606218322113151
0.0150490629083453
-0.902914745497694
0.836782849479425
-0.142145105409536
0.0359521642945218
0.295124204347823
0.25534542479022
0.149411007909702
-0.603496687096474
0.129644664142559
0.600800242828613
0.100314703059259
0.57565769871481
0.204359067853363
-0.535381030622589
0.52829539204141
-0.0668419144882426
0.350508743102349
0.699578905836147
0.89944341230977
-0.230051096859194
-0.326908738522429
0.196065005285468
0.943814731108789
0.441774922159472
-0.666014126797432
-0.458844614949981
0.434470323485251
0.199718010745346
-0.387468069155971
-0.742552686039755
0.825290225113433
-0.0954858838001214
-0.453445707965559
-0.773930647048903
-0.77464417152084
0.947309532930282
0.262377808519562
0.978032135916965
0.47208275953905
0.103370776185028
0.693751287623888
-0.2439789177754
0.158372950278172
0.832895737298251
-0.726488474442518
0.72520897825151
-0.279474290364908
0.676539127736169
0.00377369163886299
-0.520696648419561
-0.0259787627301126
0.782364761095534
0.0115300487733434
-0.488947937396962
-0.114625315428217
-0.34875170627287
-1.06143359083131
-0.562757256516582
0.705520045860965
0.650687578369496
-0.621059340368242
-0.842973161398599
-8.47178674107474e-05
-0.207058033969597
-0.150880010578574
0.226490185503084
-0.955844545668747
-0.500383451282957
-0.712246101430083
0.118973495425014
-0.783069603306537
-0.37850820558039
-0.355038610954494
-0.484228708220979
-0.6598462932904
0.177853555478127
-0.371820570385621
0.505742160231795
