0.779858966805728
0.825306358863079
-0.730382520398271
0.518633838114988
0.226730701460694
0.837125872728149
0.591661675703714
0.541929292532558
-0.322137240220869
0.43066718025155
-0.431568065144464
-0.324403227242837
-0.962248682966017
0.920791769685926
-0.409278789735567
-0.354758984460704
0.992675963549767
-0.298559790735991
-0.659250606293282
-0.105309777318059
-0.500667239126821
0.908111004680529
-0.576877247708449
-0.534060472716421
-0.215216658208531
0.137680056448188
-0.777196554991941
-0.937897686104363
0.185646166770334
0.799189000217789
0.708400908712285
-0.408057770429062
0.138129735630962
-0.89133045085655
-0.187580292789303
-0.920269875179084
0.279792312905161
0.300196160326319
0.609097099439249
-0.489001694152292
0.762199732928069
0.296813846954142
0.927842375420071
-0.622991625254316
-0.112847624140152
0.335631670528206
0.0988490438050078
-0.974009355529023
-0.151569505010435
-0.733911966847632
-0.342538213398544
0.53895853424833
0.479605354477057
0.803072334067255
-0.0869188068149436
0.202099995753648
-0.386356174458863
0.53161508285331
0.436088157569233
-0.257261770981565
0.237971252050845
-0.991801054649007
0.498870681799149
-0.0807422141151918
-0.830954122366777
-0.663100101141727
-0.938993051255087
0.233706386478213
-0.90282412529451
-0.743834874708413
-0.292776936942592
0.460898423173214
0.937866606816964
0.748680665179267
-0.586909609055035
-0.59769113620392
-0.674127283290631
0.0526538390734703
-0.00730089165119894
-0.546996712403433
0.593459269317943
-0.0427973288802827
0.124512339105397
-0.933149987392786
0.860257488436421
-0.628489485950792
0.711073347540231
0.239354092111001
0.231400579606791
-0.872201127339078
0.776684506992629
0.989011434351293
-0.718902781763903
0.206056888240853
-0.559880748924641
0.702801173202278
-0.517373997083408
0.715686485756556
-0.139428578081557
0.542927896088789
0.367691499338465
-0.416240978214994
0.0939595834445401
-0.187168845087899
-0.594847398799217
0.00295762355814031
-0.440035304159108
-0.60482704414732
-0.125510742448308
0.744767885479231
0.587857894635381
-0.860508960185332
-0.981678831182837
0.0448517015796934
-0.812711585548533
-0.0889247289215802
0.208120141491113
-0.932314885837385
-0.910937314384183
0.719367683956502
0.451392551464904
0.913228455269912
0.241365294445229
-0.752317856526666
-0.200919925675154
-0.999018968901528
-0.640350008620802
-0.287422884416721
0.575229313151271
0.174844765463494
0.104656018538103
-0.434954198377564
0.151595589156202
0.504982605371205
0.0275275550195589
0.478964707349487
0.991559091815705
-0.503712642436853
-0.358120771197939
-0.217056491941044
-0.5121998367331
-0.524832783756788
0.441612576759961
0.265201333098224
0.876246318054378
-0.00655725299638116
-0.726824790346714
0.339156421770335
-0.453752809853215
0.732044401962944
0.65623032539477
0.288573927060141
0.733257340109328
0.753870816651989
-0.673155919123258
-0.679741187754159
0.0463952071746918
0.573122656035364
-0.244891821080524
-0.681073247234601
0.0823983852139037
0.275901092031371
-0.283030438270052
0.156002997359417
0.655511631391216
-0.451768755623227
-0.672080573731319
-0.842584830267065
0.692907570820179
0.576935808764601
0.542179621223769
0.715939393253989
-0.66288020030783
-0.553088993259061
0.254507037856404
-0.193313055558934
-0.430587121599025
0.569003672827487
0.475478995609563
0.293593880571296
0.530268438436283
0.112886913543754
-0.900707660399832
0.73198631769694
0.7754105812365
0.819641937608857
-0.695547672468803
0.28062453222525
-0.874032979606778
-0.658619137727508
0.497472911677029
-0.887860582000328
0.528199384181006
-0.914306062594446
0.242960150583299
-0.700464415490934
0.456227941965327
-0.8543537656516
0.333384442885219
-0.744394550554533
0.294736832533594
-0.289954255936982
-0.846091504748428
0.048075080855481
0.680808694972539
0.667145117514636
0.776093484411707
-0.967756349740845
-0.382993529513966
0.884985226313413
-0.252944886456271
-0.464482546073522
-0.849615771779371
0.684785149169444
-0.508645763809282
0.330895252094773
-0.626337713124007
-0.32600023148317
-0.652995611918708
0.130780767919005
0.963200438582698
0.842596462649135
-0.780857776719677
0.837881679883357
0.775930082652019
0.983332732432757
0.583570826405167
0.201070643372344
-0.5306486011424
0.954664240433257
-0.451921248713115
0.580946586121084
-0.575741150039549
-0.200611163589782
-0.0223795037195975
0.621056945262923
-0.987989881082242
0.561467730501094
0.176149971763053
0.520122332626011
-0.230124331054889
0.254914008046146
-0.422768341700277
0.806704933246096
-0.227019177999304
-0.175290223538115
0.88324100333313
0.242660108875972
0.17345214194021
-0.740403547060091
-0.0442358045298041
0.712898026255096
-0.0375700097888144
-0.615328438028204
0.937663728558188
-0.317486101847846
