0.0160091265939099
-0.909467921630875
-0.395897735033339
0.758289294402577
-0.323722314134348
0.639825453557027
0.84918169115807
0.929741308457413
0.648479643761657
0.965240421497613
0.703277040770821
0.883162406730647
-0.523497844802414
-0.665098667979627
-0.379894275042697
0.0783763302324407
0.695684822155126
0.67394491745167
0.654121061215526
0.293206023467024
-0.50575177647141
-0.951124330863859
0.227037187610392
-0.138651801879664
0.910202021717851
0.113440501328142
-0.292373189712339
-0.716710953856077
0.254626810949018
0.135980969826336
0.937124010434375
-0.655624748298192
-0.938019287691975
0.981776747846573
0.79083838279867
0.595301620464213
-0.82420518373426
0.0547359970391667
0.324230721576675
-0.364433342294906
0.670053502435773
-0.0108422465134211
-0.212174146814146
0.314343717738
0.284183666734476
-0.0684083840311759
-0.58623443873054
-0.588046337447685
-0.570845467633587
0.603668875256894
-0.153364894524036
0.0202702971852273
-0.0421290429733557
-0.740847998964528
-0.097056471639736
-0.7938550155366
-0.242309523971983
-0.239177839715958
-0.31174988682335
0.485399190043378
0.83038460312271
-0.00427017300601255
-0.487164854805246
0.209299936250166
0.828515460370046
0.215246914586573
-0.627805149468254
-0.548438253066178
-0.827609483256456
-0.687981651465155
-0.619346114235538
-0.622998931107074
0.464733337949918
0.919412209523918
0.635252681259497
-0.612916363795962
-0.744326337539195
0.413377702745803
-0.0339222052669377
-0.0826950096176911
0.503569737549639
-0.631352553071711
-0.116057907280929
0.214066113186459
-0.627002254258347
-0.0513372207819718
-0.521699086990917
0.237062779779547
-0.956205389211466
-0.485404888286794
0.933506214571287
-0.865961736533769
0.564353170545455
-0.48571822721417
0.110142834730398
-0.378989969266924
0.0598918739243875
0.784174407100959
-0.384477998796679
0.756228092869772
0.684870816558171
-0.185979914702501
-0.432723525167011
0.696389464660551
-0.0863030883899757
-0.288913769018425
-0.920775647879597
0.472171116305326
0.914105298602781
0.772187337371491
-0.256301784209908
-0.578188550702663
-0.235844507455509
0.98956552227564
0.684068016042207
0.451669417556878
-0.358302361302966
0.295136838867755
0.0918409480876228
-0.631061413418584
-0.261744571674687
0.636970646504741
0.733636803108885
0.768268112074619
-0.663742048410482
0.91469544094437
-0.246140964549903
-0.630633845054905
