-0.785463453462988
0.7471348013103
-0.00510840534561326
0.10631693830208
-0.585885481801918
0.785840865457679
-0.0251500005582945
-0.158761014347819
-0.390276858112867
0.682487321742157
-0.529470936016417
-0.457680338053515
-0.4317730617385
-0.634203749517052
0.080797048697311
0.773758122059666
-0.766070303020873
0.198565318630905
0.575001253831228
0.228893850082057
0.100824716077885
0.517256934006813
-0.482605482643613
0.244020055040189
0.744434650413083
0.112262882543299
-0.988992827098182
-0.349693042727068
-0.777226267889669
0.991325396238179
-0.563876704063058
-0.293227733101431
0.686379416220923
-0.214121615622822
-0.394087584825082
-0.172094605305933
-0.918186811780373
-0.499574852642697
-0.144790037223421
-0.298675001595472
-0.00641591674020181
-0.138969130527281
-0.653697684025501
0.298608245890946
0.387072253637038
-0.827647386014511
0.195789499457781
0.591064706343236
0.677577034408835
0.338454628625834
-0.750905391578659
0.903793014399124
0.52603281601285
-0.451593235223755
-0.0541032037978294
-0.654676997863615
0.342022265021714
0.725703043140833
0.818777897924119
-0.00567429899971934
0.925151283969185
-0.951823165497699
0.100750770888667
0.587494378640335
0.785820244773317
0.741389747453144
-0.923520156092138
-0.878863716213357
0.791124245225923
-0.613881176300937
-0.441598171725266
-0.613495784803294
0.446534832215314
-0.427550745192907
0.799696127217876
-0.499337779719941
-0.415589208361624
-0.520334610688753
-0.240809244177908
0.601755220616148
-0.604338911109874
-0.40841199459451
-0.079553829082074
-0.0413299298949617
0.0378290770329305
0.371472919925493
0.922202307806734
-0.700873495713425
-0.323582014123104
-0.0983300292786882
-0.0271377878760801
0.502293937049132
-0.262418981956832
0.535862975001493
-0.450710400612164
-0.329262906024072
-0.304189047167301
-0.457419743057156
-0.478553023726844
0.557708317684429
-0.779834245641948
0.352954179846983
0.256943833646909
0.56736709148259
-0.914641751951167
0.99221312324047
-0.466288052543222
-0.0252332155334547
-0.260405914565349
-0.733619658066055
0.662505396290893
-0.982507036838496
0.162179707229558
0.975471483188633
0.612602096691193
-0.668872363169729
0.307302818767849
0.749695452759701
0.65111619987444
-0.101184716148616
-0.184247982159475
0.143700416063343
0.213418449757331
-0.630188113574798
-0.635527431713624
-0.23485558811436
-0.371012210246291
-0.745076581247149
-0.788587166228879
0.443043029741005
-0.887187463790762
0.183671019253586
0.821145375326201
0.407910302546623
-0.490560438953845
-0.0374433268639836
-0.255906452315287
-0.956016772555817
-0.673247373518033
-0.324282873783575
-0.870134124136896
-0.283794320460848
0.475386002588565
-0.911824800160824
0.637180650332311
0.402155993657819
0.230033507475883
-0.137841311025281
0.219028177869883
0.707601763402277
0.437888181565974
0.615154774697658
0.00893844944260232
0.642315139503054
0.239566864952652
0.0943177298431454
0.554658913437432
-0.999278042982816
-0.0310476801604234
0.161863547247169
0.280017800351078
0.780998661995503
-0.759164178201125
-0.0461279579294007
0.327738095924227
0.171305446738922
-0.938948320965859
-0.245089537334096
0.462907461203541
0.88538580339782
-0.839240566770081
-0.877173012970687
0.616376195864817
-0.052782743068605
-0.332612338977229
-0.707464581470212
0.118859873402743
-0.0667579220918389
-0.958807875728452
-0.826399844442901
-0.768400179773177
-0.326171172155797
0.625605987707433
-0.106495306099462
-0.932604290640706
-0.631640554006656
0.212242381778635
0.420480228208463
-0.882148106174483
-0.620841570533246
-0.697420296385155
-0.410970054725316
0.0683699525178775
0.887806567940819
-0.175098036825431
-0.693027090395507
0.650900619351917
0.436538071782017
0.040941888237302
-0.434286962116435
0.417539365003264
-0.187490084952003
-0.246485325118323
-0.14273428214394
-0.240761570422226
-0.981363430016805
-0.219848894455234
0.278875578297061
0.37517300647662
-0.352546785342264
0.486537793004854
0.68699050557946
0.600918421760191
-0.931149607299217
0.761173202955684
0.0355530289641015
0.442068208881036
0.271268021008334
0.8275861012587
-0.159560842093994
-0.438278321534005
0.594849207393335
-0.475580970933658
0.0492911365964516
-0.808820540491469
0.809168700438467
0.248884519770643
0.888131725815463
0.199609360823728
-0.249573557408337
0.672170590107733
0.717899598386955
0.994083166796147
0.289243603712834
-0.903490618752195
-0.330764600283229
0.335829086720617
-0.979707354738747
-0.067186909758831
-0.948672150068084
0.593645255821261
-0.822882684038441
0.694589877169452
0.245748977480634
-0.226154268948835
-0.853420201315326
0.734722745455493
-0.405507468974767
-0.553940653932103
0.220290166617817
-0.458374448997003
0.419145512007481
0.341446634636971
0.278718799487571
0.599826415303037
-0.4271422623702
