-0.990021390542398
-0.350921554358302
0.670946568509569
-0.587989295112397
0.431750792152807
0.269202303365413
-0.497439520278749
0.642378201845909
-0.166852070034168
0.0195644552083532
-0.334610135595456
0.814699551881904
-0.544481348563366
0.42500516889291
-0.921972718296422
-0.564477824214175
-0.222111058784552
0.776759261619241
0.337224888788716
0.139297027564389
0.645698587109679
0.795437273231745
0.613009850174482
-0.279754484041004
0.846322792229146
-0.723051161455247
-0.363069352084439
-0.876627332848761
0.869310363917758
-0.976441070437893
0.940811268213693
-0.0931926536910206
0.989963078433987
0.273085652809609
-0.56746988959799
-0.26136377680668
0.126623564435108
-0.158202563112532
0.901914232004262
-0.820171280295254
0.151534359925234
-0.299218640381033
0.524757757709639
0.258130025098364
0.194962724379196
-0.843858252755249
-0.955708623110218
-0.840597620715226
0.540189177817627
0.02131712103959
-0.679883252776774
0.111109703154052
0.0982421820620302
0.97645025976812
-0.331549603686279
0.757580824627001
-0.590900336098902
-0.972110513306171
-0.798039351178126
-0.203915060914897
-0.149832692687448
0.265284739759241
0.533719180019592
0.906126690633352
0.158198230974742
-0.718385819443574
-0.357071952990689
-0.967170370903177
-0.72621153736115
-0.907066698944044
0.162009935984186
0.454533232677022
-0.980251990233001
-0.308004258174538
0.698755891972088
0.206493863575118
-0.578583662218135
0.0978453683819337
-0.795832210653293
0.0290861826118959
0.97247206907399
-0.7041579996494
-0.746531366853326
-0.2942823693633
-0.62668196522486
0.525978134813522
0.341519840881622
0.267903475802423
-0.743925854502459
-0.34049685647935
0.353408051318779
0.152930653975011
-0.942119211514268
-0.361687880883159
-0.0351002678905319
0.25244071024243
-0.644558885390404
-0.655077977039814
-0.304714073532615
-0.406511239300306
0.0380333505933149
0.65858136852847
0.504183686447398
0.671503779149109
-0.320928413341268
0.774359158420615
0.258799260045177
0.446731601633015
0.928853933676858
-0.116289515445671
0.0858151412688297
-0.405881043389166
0.216928465765341
0.660303370183266
0.273543165703736
-0.733026482370471
0.444995799099828
0.228532290526941
-0.81526142260716
0.887794671533825
-0.307850206737695
-0.280929756125315
-0.879759436171224
-0.994717283442347
-0.25182385304279
-0.164853796829448
0.610958319147645
0.120808806895166
-0.431319018485074
0.798704524629588
-0.630158724144253
0.20554185480295
0.900261232274939
-0.348672920067658
0.76233671358547
-0.209692960616303
0.391534119102609
-0.0227030669668363
0.276124344159221
0.731913786174332
-0.91442205024169
-0.799834966041397
-0.141292034436478
0.656647554766885
-0.194014827974542
-1.00136874338373
0.984512617373734
0.103908218750759
0.185560683661809
0.203365451106006
-0.667985935360761
-0.911880410856229
0.356592839866592
0.386990315990911
-0.797298124940994
-0.696782275680069
0.283861634678685
0.550792399230547
0.0087195697420586
0.468841305748084
-0.0226451987751832
0.0253289455386154
-0.90113706631933
0.955920851994672
-0.772183363392201
0.551608434398217
-0.896006631791376
0.185649552315671
-0.11989407035714
0.0723716597319464
-0.208105683624999
-0.43750696140311
-0.404203493666918
0.624829261002977
-0.393413923751861
-0.683220909613309
0.602771799224439
-0.62652815307463
-0.238648802539761
-0.63531444552785
0.614796082629195
-0.126038291496711
0.646217397528963
0.849560504232188
-0.36602539690587
0.535750225230519
0.0683101821443764
-0.595813382443166
-0.878090249066386
-0.1010847505659
0.128545122245044
0.324654318893253
-0.612729605606645
0.920357859350064
0.35676921996218
0.83217789111305
0.319840767176288
-0.0995883399582466
-0.0534713554563819
0.616478202018273
-0.635644557955336
-0.426723525752588
0.416202192799151
-0.721979737206175
-0.144358909905896
0.737523929457224
0.846314077818991
-0.951146914276435
-0.179003728118189
0.391637972861737
0.760386472294697
0.468140542764931
0.102154229861928
-0.818928201360301
0.463685749081097
0.709255463202587
0.607371421082614
-0.759780204850553
0.405920847271606
-0.765182017125559
-0.446017525956505
0.956915319035529
0.405432285420383
-0.119763535910101
0.0539645429954562
0.856552685169922
0.47443812420354
-0.834277433888585
-0.100842129251762
0.748424092066759
-0.496787918054672
-0.796925378048895
-0.185951603603527
-0.922157268209292
0.604360688918943
-0.868540943261601
-0.639502227856782
0.0919522898861298
0.134927715646066
0.736942130016826
-0.734710337567355
0.612418056898297
-0.426157138558575
-0.18094830483727
0.135985842294905
-0.178952134758609
-0.709454328843918
-0.331880744300087
0.632363354230003
0.837555027316914
-0.0982552216804451
-0.840434122177856
-0.663372784885078
-0.250218711580712
-0.195989258563837
-0.657905511438144
