0.201666787554775
0.285039550834092
-0.148869164761391
0.191648864191935
-0.257214876125195
0.627893084197934
0.242290145420592
-0.301236194856408
-0.611888569958543
0.995932230925045
-0.139620513384151
-0.0297362493458409
-0.945278215396105
0.455838971505681
-0.842804304231935
0.840277013704713
-0.542516480755519
0.00747814513277152
0.619112008126286
-0.494970342428656
0.295056609376363
-0.580536098915907
0.726856076421977
0.322869370169846
-0.385167749826974
-0.399933449354171
-0.263618372511044
-0.213599416802425
-0.718623603723634
-0.221925325238476
-0.279647426134529
-0.582781899841864
0.881127299248265
-0.142090539362038
0.225277124807671
0.11841917628032
-0.544518785286719
0.31679051794462
-0.462192369918257
-0.130103360225673
0.561773053076087
-0.477875076821901
0.268414853215666
0.355494933098354
-0.256727533420233
-0.394724567755921
-0.0544383688041332
0.917293655271794
0.0831647506974504
0.90179917651597
-0.652613712974109
-0.221999395789115
-0.0188284896995575
-0.272545130175526
-0.695901409497592
0.976580796987759
-0.80986749604562
0.294585852326163
-0.819079168469599
-0.384672721192109
-0.732933544072542
0.633932006229876
-0.397331624658211
-0.0485672642450136
0.620914074414477
-0.578859011041526
1.00330322273381
0.213460521355385
-0.800374040340453
0.318750914610285
-0.308845303190395
0.0555284305679239
-0.548864740648511
0.209990558212444
-0.397893334354307
-0.812946017511127
-0.23683621901169
0.766765796183202
0.584589736429557
-0.0870268611633066
0.554666699481649
-0.90154499246031
-0.321022919531359
-0.766163962701874
0.581204462733296
0.698161406285663
0.134943844445243
0.970661667784005
-0.94798819679042
0.336031109679032
0.5756051786413
0.924115831179743
-0.81178986070633
0.851863128828481
-0.00246315894727707
-0.611373476442533
-0.499444872700331
-0.811130997884649
-0.112163598857029
-0.48362104176929
-0.751473709250504
0.0614892275673207
-0.891813343848954
0.623542552541791
-0.460892474753129
0.291391372687281
-0.030903414093082
-0.0900518905189179
-0.184651605787717
-0.304743812151139
-0.272044572984553
0.340488555619297
0.125931954797542
-0.841255706374731
0.141492869294039
-0.052629434617233
0.251470859558129
-0.713289564327194
-0.605745566488736
0.258917222962544
-0.898458465875677
-0.154629570978858
0.721226799170593
0.278770040904775
-0.249565095758788
-0.037092377180377
0.386897953558858
-0.693059295631688
