-0.429675325168489
-0.990362995857409
-0.386641520283352
0.157233566004624
-0.634050469523268
0.868808574263868
-0.250011546209286
0.703844752577833
0.770202222208717
0.719902035979442
0.370056998022954
-0.517647996062461
-0.350151015001666
-1.01031635085815
-0.397654058639845
-0.833565226298953
0.334191470864369
-0.777031736243691
0.319118766730924
-0.798098860183094
-0.829516803322445
-0.0875905250256221
0.921514062902296
-0.0876003552046501
0.616036655457317
0.175194282326395
0.0764893595107126
-0.991913779614145
0.0570768085820283
-0.589810560699171
-0.410871369098597
0.949910572278133
-0.694176030835749
-0.201448443017494
-0.616805779392848
-0.394236563037117
0.300410289520023
0.0774332140387386
-0.999625016451816
-0.326981953778565
0.00195638757855926
-0.104660511517213
-0.260046635189143
-0.473437155459021
-0.427850470839576
0.382665985571372
0.497270728244989
-0.672756594070199
0.0415918177638838
0.859417229317261
0.329390398689595
-0.327869134855704
0.854832094861745
-0.686987166289022
0.582642791221739
0.308069711315505
0.635999518732826
0.827499610201023
-0.42726185484967
-0.226011242813594
0.601448135330835
0.939832066051159
-0.169817536711086
-0.282424885249382
0.786237845152021
0.042811684736373
-0.257386829690078
0.576394943556485
0.677600657688741
-0.645008004711544
0.183809114725094
-0.620904273847058
0.0361493520800424
-0.537942810943301
0.194484729426146
-0.21383245673606
0.0840371999305989
0.286529743892712
-0.172757770816539
0.646348274088317
-0.227109622905517
-0.197207405372201
0.218487585135189
-0.0197130467524194
0.310585933480583
0.397101365490464
-0.771806877679829
0.996801369099295
-1.00592160405649
-0.795969889451123
0.135939987948207
-0.348040475167412
0.0419526431037077
-0.276769250516272
0.301650137348202
-0.54433041219882
0.645988265261921
0.987208143269217
0.362591356046067
0.757106438247959
-0.650741661377015
0.476925291136133
0.177536741842824
-0.927130668061153
-0.287797171305023
-0.486195984120074
0.376735746468303
-0.506467904404273
-0.582169993814716
0.258210952149721
-0.282887730065612
-0.551642169788792
0.335550438196314
-0.979442076223282
-0.0558804508125395
-0.258160920020613
0.688693699122927
-0.409510814999601
-0.317911283604216
-0.176689140586527
-0.70103060387366
0.695582029984196
0.224305911189159
-0.93983321171929
0.713908991036309
-0.0178628152959159
-0.444773318201397
-0.0132999349006687
