0.61196517501477
0.176283939001585
-0.780485181439478
0.972085540972191
0.656777800066894
0.373269387612597
0.486258416014244
-0.946359914591099
0.467566249699974
0.34508244008147
0.161468711253464
-0.924477664255627
0.292206045200097
-0.99892825464958
-0.889061218633432
-0.522348218671537
-0.64624669644963
-0.144040371085991
0.697743144104519
-0.912599630407248
-0.683587420393114
0.48245000613585
0.579079636275
0.814943552908202
0.280849109544006
0.819852992508054
0.583369577208967
-0.478904501323613
-0.404740373930112
-0.161435309911919
0.27987651768055
-0.560887974566951
-0.914581755119246
-0.384075765979741
-0.0387433884395604
-0.36115718242091
0.65841551798515
-0.45938203281531
-0.182988413834157
0.768968697158951
-0.929678511472861
-0.93253074748199
0.801187985047053
-0.388129994312846
-0.117318125326532
0.723903055742706
-0.475029293227413
0.680999058917437
-0.544222843726069
0.405662729964748
-0.784873508019333
0.44561654067938
-0.11555172644572
0.095624929986049
0.323782783830597
0.476602774475985
-0.29398490835786
-0.795473165352417
0.561014107746737
-0.0679067207738599
-0.605998317110993
0.00878414094832228
0.714380545620014
-0.538256223857227
0.453689106523966
0.583589644971953
-0.162917088308893
0.0448586731900586
0.704763556667896
-0.282899244511855
-0.43397713494688
-0.136645274013792
-0.477244853397468
-0.414904927315868
-0.888380808485924
-0.512946978602791
0.0527362834432161
-0.806784350032519
0.717027981294457
0.948611475520586
-0.0308433139428229
-0.0608112414156538
0.92588335330325
-0.40546989629327
-0.42572040511562
-0.448748907447608
-0.994519422173917
-0.569053907465542
-0.59580248380832
-0.583174825701999
0.62302393875841
0.919951371151706
-0.164453668159716
-0.00185318771646798
-0.424563254195815
0.339937370839423
0.360529086606383
0.213120409001002
0.0523339841084713
0.230048924985429
0.973303304957629
-0.103821518594568
-0.912175377856621
0.389485157110726
0.793315628612245
-0.619903324183375
0.0202372577091423
-0.472823164091905
0.0375725913327148
-0.351289672075977
-0.858804219304475
-0.503307876436047
0.288370201995591
-0.0602891298456751
-0.834611468051296
-0.502155395233724
0.259713514637908
0.903668553874453
-0.0484526714991842
-0.869387609046044
0.209675989796286
0.361711428118872
0.329145112357853
-0.0830318213808511
0.673974751714987
0.860263362728125
0.0662415445784482
0.714633538487896
