-0.0900959548597616
0.662793989204997
-0.770196084577906
-0.989921397044043
-0.016121822240293
0.540670708200677
0.422979243545383
-0.888785748991159
0.743403453947881
0.929391180354177
0.711305931177393
-0.528666904613921
-0.769907732435491
-0.549624956300328
0.931630576580148
-0.71299345718521
0.00653115555702956
-0.884461791804511
0.772707458961063
-0.270757911716632
-0.0614487440817439
-0.438911977942546
-0.703560593965776
-0.962726930153546
0.601339127037672
0.738408196407803
0.834695735648485
-0.605014593454198
-0.637457213160166
-0.774434713111452
0.464198179565004
-0.579899532616182
-0.392786085939136
0.242400450027431
-0.0844191306543746
0.60772424989036
-0.671251750886153
-0.654674806980701
0.691806779975187
-0.807481496927575
-0.328768951221782
-0.878186088728377
0.754009671001417
0.729997167550123
-0.950046399834823
-0.541279030763108
-0.682361034139548
-0.530123708235513
-0.0376796281770071
-0.12422683545849
-0.786410284774528
0.198794938162446
-0.585395500315837
-0.662206034059276
0.549414394373726
-0.0439593273529694
0.0460796058539642
0.134928476811447
0.698754073701057
0.975672648812353
0.679828177493489
0.0452632208067393
-0.840550198534486
0.332175263486805
0.367595203902099
0.00452285863596091
0.923928870107692
0.27732173749174
0.517891895014553
-0.910488342766771
-0.58729689656875
-0.0610954244789517
0.0583485581818668
0.0939777856802909
0.737352577718653
0.087997829299891
-0.979130854023297
-0.0322596840669255
-0.76073705877228
-0.50111985481833
-0.612785933559986
-0.668710219224504
0.190377153057227
0.549254183835553
-0.570336761358695
-0.759908909160265
0.642191649037098
-0.738630941956858
-0.238897224956798
-0.517886104703495
0.212102396702764
-0.676015569842941
0.70872166733967
0.950934272511792
-0.33585323728526
-0.896156833872142
-0.138830478580622
0.897956867833292
0.627484541023944
0.393171691282569
0.470058786544043
-0.608368588080529
0.409157686791982
0.501807286024203
-0.407057302679364
-0.554553648369934
0.667601247875128
0.660633857843642
-0.402432182363498
0.950068837265168
0.287043305405477
0.148281361528607
0.634366649739813
-0.897292349001538
0.641698270266619
0.324839175594365
-0.999306511912472
-0.502262554058235
0.482843418576836
0.0251281669343412
-0.314909622773428
-0.735606078006914
-0.815076422987305
0.676723370435036
-0.995387604921787
0.506433871970471
-0.645985466943248
0.410591168899472
0.182384153762469
-0.110743364442499
0.556500595081633
0.347220629699635
-0.616300740428683
-0.857377565653414
0.833661898257931
-0.120358671347889
-0.617271445990506
-0.141842879476254
-0.856537142936531
-0.756419258755112
0.162860584572079
0.617583365332008
-0.102718173084866
0.549034982261899
0.454019557480109
-0.736084051491342
-0.783895841411762
-0.0397344039633782
-0.397549262688105
-0.972305578080216
0.446447151748228
0.907888855314164
-0.271319819139211
0.34671311450322
0.748135518098764
0.176461915345016
0.709039151055731
0.748370208527967
0.644198287555402
-0.71788822087587
0.328993176569498
-0.432832167872957
-0.139618157193285
-0.449644887804551
0.851234814075111
0.60978090853304
-0.864602061532359
-0.581221241562077
-0.00132149192549637
-0.684350240612455
0.428871307624645
-0.849200262021535
-0.347343985871813
-0.738505463990845
0.0666792192229688
-0.30319591237577
0.921891381537675
0.343587081283156
0.619227631334219
0.279188586316593
0.800389004539282
-0.139668824625564
-0.340621985170217
0.667955617327858
0.684479454167098
-0.862174533752322
0.200462269998994
-0.472772650144291
-0.0799102398639282
0.00713310182484597
-0.277873730577624
-0.562322928642181
-0.573763027793425
-0.225448761128865
-0.597016216755938
0.029508410299566
-0.0779287312594934
-0.413263219440778
0.53856499814288
-0.949320055821323
0.0050280313350784
-0.573053112686964
0.688577469151802
-0.319496753996532
-0.209273205380824
0.233087057974115
-0.445953343816312
0.731058488244603
0.153009150204775
-0.86978773994714
0.756969376896358
-0.43222668323382
-0.883670675293966
0.716893625233987
0.132085656622469
0.671440149346183
0.515709409721598
-0.301991097561419
0.267067989337305
-0.486345860787317
-0.0319443597723232
0.651803009405437
0.159593654161757
-0.547781761620821
-0.676939762643704
0.755559622473754
0.589702221733256
0.895357963432136
0.498785008985051
0.806167109080134
0.227406716324856
-0.35591188478039
0.523122286750304
-0.559356224985737
0.730665944278937
-0.870213868901913
-0.571314385429506
-0.586017360382364
0.0804108667405164
0.554495561833533
0.975031997756812
-0.941024157803262
-0.388391240602087
0.894765563392617
-0.990537053596587
0.23525794854715
0.93079448407013
-0.290588499486092
-0.449126191837325
-0.74764028816226
0.806966030138994
0.555062336756059
0.19632219017472
0.282960813869965
-0.926317065839528
-0.128811364803766
