-0.662453987050738
0.621177420735068
0.337439138964795
0.140457562229345
-0.347806703529723
0.182726975799812
0.0606628478571025
0.640320200266228
0.156675116027395
-0.247211311499213
-0.975841452340825
-0.932599036761136
-0.883069752166282
0.719452337441048
0.600227580688308
0.55294757959973
-0.577108973660299
0.107892162505746
-0.901355997883395
0.575060159990243
0.550005548076779
0.683028169622988
-0.64934493346438
-0.164953480672301
-0.179934711344901
0.178141884246607
-0.946340985052461
0.129516050887981
-0.941042626486205
0.257105849253153
0.83273258059252
0.676730534712824
0.281845249592197
-0.948970270282952
0.272714923343255
-0.447495233730392
0.202889571841957
0.660940888505657
0.487189328573845
-0.794739922332876
0.382532116462226
0.468837556388533
0.449735404288727
-0.683166052931461
-0.418023033523511
0.785265414405138
0.726098771689726
0.0583112656902808
0.653827156885439
0.25682567764851
0.0244357170725353
-0.723665004304567
0.483781941426825
-0.589485694710034
0.892506695466685
0.273972646397865
0.20868381382086
-0.437096436453789
-0.355152241080908
-0.261762361624789
-0.585787048488217
-0.500759945180641
0.105605055717477
-0.949302498093796
-0.0592079247122184
-0.0169106608261893
-0.264212726512971
0.639472938678551
0.458285914107524
-0.374142813497338
0.817481633500673
0.452719376136054
-0.838175289444735
0.730646359030498
-0.489001763852593
0.120904959701166
0.1054234378585
0.321368568120316
0.171558752659789
-0.606619402583593
-0.546386863119316
0.712566532253029
0.908535176302915
-0.665189862090933
-0.200239444505649
0.882921309401126
0.136069807345396
-0.864745108039811
0.491089974950623
-0.238011962317332
0.53740195433109
0.583889843943017
-0.226011936521043
-0.177150148539279
0.426002345824131
-0.28981920477548
-0.143528736171222
0.851730603781714
0.864216444675171
0.893247859866492
-0.872243801213337
0.129009862470022
0.599407531303479
0.116603518979887
-0.275739100211547
0.944969046076018
0.18038015216752
-0.873171784737776
0.90229447057231
0.808524806785157
-0.98237019649816
0.330118842081525
-0.649756445290686
0.407607341688447
0.571638553426685
0.881679958349145
-0.805470468490291
0.827500178839479
0.563974907141241
-0.535005607943331
0.1027480856278
0.991379847846751
-0.573314817711766
0.058503404606009
-0.114912325389258
-0.688021093552208
-0.165859181761196
0.581280925013727
-0.0924295074783554
0.6039349058267
-1.01672122366881
-0.0468156154241711
0.196984825376507
-0.923645609809273
0.56585935098506
0.0768591590163637
0.57423735548693
-0.571110896894108
-0.336701715953993
-0.363014454841225
-0.147039756802672
0.72141992639059
-0.0999648663999188
0.842106770664793
0.470017929262184
0.655126031111802
0.736207558813727
-0.272481328585941
0.745351615366617
-0.0948077967734604
0.141171362483816
-0.334975462262195
-0.927689968381351
-0.988914202951791
0.784074641185613
-0.453282896857956
0.267341109675184
-0.540112992879394
0.354150856511723
-0.67296203149323
-0.000650945536878111
0.261793981248622
-0.922339570483788
0.805201574943548
-0.63845961620425
0.0797483296448803
0.682432813147243
-0.829488113559821
0.957353887316163
0.551062728941279
0.430787653675803
-0.100917732289255
-0.985579592613055
0.264730752146934
0.303235695538061
-0.342636458430111
-0.198320062126647
-0.925301214413904
0.109086351513023
-0.415561599880774
-0.844033614422156
-0.443854791827519
0.0802441025864575
0.766517414172705
0.194938188456303
0.850465192361055
0.610786707416088
-0.608400962911726
0.161510943448598
0.196403642405927
-0.676885323989753
0.139035107564804
-0.382948878712615
-0.426372713122861
0.516512089070727
0.309253826362779
0.213080984999695
0.465766681411227
-0.865265559988581
-0.807968192804815
-0.983457212231297
0.592848106457593
0.417332553158067
-0.447124048958583
0.631711967565159
0.235747091111
0.107201634290035
-0.172188220589398
-0.185986125776355
-0.847105080823474
-0.201514877161411
0.326438568006991
-0.988140468211264
0.94539397104613
0.337578829354722
-0.612488129576706
-0.363554976800819
-0.969157331488964
-0.653254190455839
0.676558347484133
0.350553799237371
0.107442978279396
-0.375919667048331
0.344748244609488
0.697492544460788
0.621171296905418
-0.94671475463581
0.475513741825257
-0.0328623446145187
-0.282350463595801
-0.739693603408021
-0.698846016964003
0.725215642051636
0.135700063227693
-0.429754526207839
-0.367637242744615
0.0232835846689542
0.487121518759526
0.72538596157386
-0.263028347941962
-0.697546952650608
-0.107653650214372
0.980947871372359
-0.480882422325028
-0.374229633183905
0.549011223776574
0.222807087802587
-0.3461375070209
0.366676445175454
0.186440034718616
0.75180994595746
-0.0663685811752723
0.965601086312445
0.76642458281301
-0.201160768329474
0.128823289750076
