0.274104580132882
0.234339694349398
-0.881980815112861
0.0791689034146427
-0.212886639510774
-0.414722825993049
-0.20384033429379
-0.421782125463535
0.175464284446396
-0.510210655165338
0.682795520958219
-0.749058302753399
0.931609664152973
-0.832488736129783
-0.170847326349853
-0.477811965007243
0.580789920456372
0.476638111193264
-0.159800261304297
0.878537880727407
0.288300297242568
0.168540348879795
-0.719312180444965
-0.881204542394875
0.585715667294342
-0.69964943972085
0.623074589947348
-0.988644222732922
0.415681565410718
0.0757997527534228
-0.0173788642849575
-0.334060015207866
0.108785153486377
0.717425435206692
0.541600057868462
0.150348299155561
0.1780198350404
-0.299816700060281
0.00771568862123207
-0.609190630793957
-0.0356257053858615
-0.78956007553385
0.22247136647337
-0.508081646093776
-0.82358898477096
0.488422998261439
-0.985345898722862
-0.23229630227941
0.0471237148808244
-0.603025717679893
-0.704739776724257
-0.784617750731624
-0.520600770991679
-0.129593501320194
-0.897762149084237
0.794067757492884
-0.0030814107225858
-0.474823783805491
0.264495618707111
0.90400505497107
-0.482802217951572
-0.199569404208561
-0.360306525379211
0.966986041905262
-0.138911204945183
-0.80482410987741
-0.542913458929472
0.843681088024777
0.785228834112264
0.796239285385833
-0.558736873781113
0.113895736612983
0.987712688082863
-0.59839689813018
0.3844869013528
0.217354148942873
-0.973096715311677
-0.914468352857017
0.117082878908753
-0.948090137149456
0.385878998713468
-0.895806385807515
-0.510250950569767
0.81284880898705
-0.818236201753207
0.459357066991943
0.847295687883331
-0.337159342974573
-0.812984479005072
0.517867811786765
-0.694334379927414
0.793472544202082
-0.295250925731597
0.724724201459658
-0.784522348780572
0.793868426009685
-0.465936960387925
-0.565852634196587
-0.102607609133509
-0.521068650676237
-0.895788171725999
-0.474201462948156
0.334088157128558
-0.950459756662929
-0.468513357435991
-0.253646128293074
-0.580169197346295
-0.695227438131692
0.949272796253272
-0.50332804509805
-0.911660751480229
0.788890110543462
-0.708652953121654
-0.920355430777691
0.824324187722318
0.229578573492857
0.0301635195478979
-0.368780691106931
0.108495276059751
0.231726289151492
0.193544218358774
-0.87437458473967
-0.469078890706909
-0.908764949846118
0.462339223831329
0.41760136064631
0.177148435912724
0.557974746899363
-0.0382230871869541
-0.893515975009401
0.195615258983117
-0.36764001429977
0.418541922074279
0.0870973785736895
0.760750468741936
0.205810993866743
-0.0266791288523275
0.961379136539281
0.554586171959405
0.695210884605989
-0.83593759167022
-0.250272112093019
0.253353224503484
-0.263708020198251
-0.956729938806602
-0.156028772933565
0.938902790125821
0.650336784561265
0.138109864944675
-0.757012928383569
-0.446851527394669
-0.48583409809862
-0.202723797687205
-0.748945548089433
0.269017028060642
0.693607747306974
0.570498021185602
-0.286043281271639
-0.188115561943383
0.495556729393423
-0.961213289655969
-0.74747970659045
0.874434759960651
-0.63621471933477
0.198673940582575
0.572062133835648
-0.777776188494718
-0.554019756265264
0.439987794923461
-0.294536114531606
-0.798474666169424
0.458743139211822
-0.94412836195393
-0.136114297305148
0.935450848003484
-0.281404459899679
0.700934309205467
-0.381283060600372
-0.611208810637759
-0.766606606719201
-0.0279297398494708
-0.913788542211202
-0.404761521526789
0.699596268360359
-0.719095235946007
-0.508185180015431
0.702807934633722
-0.25498943228663
-0.900151040460788
0.585945571418147
0.937729257059925
-0.621987608471695
0.220109467643721
-0.636813415909404
-0.862741365758506
0.868836354257853
-0.975444596524503
0.171664029689556
0.424658416610194
-0.754849419728159
0.0900166325697108
0.584836419211294
0.214852383675365
0.918769882355647
0.379399965496097
-0.803708802066851
0.187328783842284
0.0825469204607296
0.580159020748966
0.422287982097812
-0.399889672655339
0.147646529567175
-0.786706724992407
-0.518648257556656
-0.11158600217469
0.390017093599413
0.0417474629737631
-0.281127475681565
0.457544534697109
0.140705632854086
-0.635985185787607
-0.554611428151521
0.274530439780344
0.206347126060654
0.24621900061543
0.299334942679987
-0.348540297795269
0.94641820543561
-0.635839936744764
0.0193200987683561
-0.072906052061866
0.694767828646603
0.417237758485105
-0.843618711344663
0.534520659263565
-0.695486592355401
0.054932214773958
-0.800915958267365
-0.914096225673898
0.545679302851364
0.0148103027952605
0.415523696225375
0.918525589577973
-0.584783049644933
0.28634920849677
-0.508334285765595
0.793773910633212
0.977006363112879
0.770880564528206
0.089948316617662
-0.021843709045786
0.0147000885231136
-0.0106631317311222
0.647169555950921
-0.993465023044374
0.192154576208323
