0.166344445003996
0.374792909123565
0.132877476898146
-0.514453476220054
0.777223535635075
-0.304238419867107
-0.106615186077077
-0.429008486550299
-0.973226525419693
-0.450322173294119
-0.174210998066672
-0.636194689580839
-0.36514774759441
-0.440459305570737
-0.0952876803294149
0.303911757761294
-0.593340553591354
0.893998459353394
-0.538155365153618
-0.649962657013215
-0.377814465560103
-0.0416789498537388
0.00818664235307085
0.790039904382524
-0.460212893014912
-0.803029949635135
0.124676716340498
-0.744754570301133
0.0800309987054892
0.764124807885039
-1.03058686820358
-0.0389706647618547
-0.254855803766647
0.0313795576194485
0.00825126410820294
-0.449188134810526
0.833274637612204
0.201722972063586
0.756651147891212
0.345735904908506
0.731170896934639
-0.828416340530443
0.615621140293581
-0.852390433945161
-0.798888078471373
-0.0159190409204039
-0.3132803552915
0.121938938316611
0.157257596113631
-0.646866011911118
-0.308399130103516
-0.850831747522813
0.699849111488344
0.707210914766106
0.666120775196894
-1.00822858009458
-0.341653479072764
0.297241440359518
0.472068244493129
-0.93734056033262
-0.371903918327321
0.58483187356237
-0.981606901751663
-0.553026807193236
0.788056806864684
-0.565573420250661
-0.985939496467756
-0.0572910755111288
-0.928208231480933
-0.200798655787662
0.793772432386406
-1.06052762706758
-0.0339945356627935
0.0202176222516715
0.359172211348418
0.135006636277058
-0.0323679962540764
0.410836800644615
0.451298267797411
-0.12436579475378
0.779921001715019
0.460093156549826
-0.65021955168074
-0.448472308647119
-0.854794067185804
0.449325331466841
0.728206423065949
-0.958823524835437
0.79629658808729
-0.355847000531478
0.00652598589000469
-0.812876152292769
-0.269162861586975
0.996052987284618
-0.0902246578817013
0.41625330727987
-0.0359246476056238
0.697086168396149
0.732719466276333
0.746411199639302
-0.595109495835673
-0.745435554109656
-0.271602990419938
0.851574186277069
-0.0531194418268557
-0.0499695879141423
0.668679226879997
0.354243531700793
-0.692610320878024
-0.729507922777223
-0.782316971344487
-0.764949342406284
-0.526976716658963
0.181323732172521
0.506749129227165
0.535931394576326
0.737830967194161
0.624408023935019
-0.993704353191917
0.74357761265473
-0.478266263936841
0.459843396820312
0.514116829615019
0.645548141477205
0.545237845516576
0.0920377722700403
0.431424040232472
-0.402774652094247
