0.174807809057226
0.20095998026318
0.123767545020476
-0.905024067139762
0.53813938607587
-0.674786909234346
-0.877060367248465
0.876300665217123
-0.190197605447097
-0.67259841727084
0.100556299323822
0.905719531712181
-0.203995239629783
-0.255076202782641
0.562923073723083
0.666209539456535
-0.119358232927083
-0.558919264297365
0.637401454566889
0.639167376654922
-0.760490192287249
0.844211813764095
-0.115680931165945
-0.25579969908863
-0.754831464104232
0.301904873404928
0.727404326736267
0.922220476324314
-0.323507825276613
0.397765739131168
-0.811177057616786
-0.322246460717737
0.707242280192433
-0.0948821931249123
0.183199775533484
-0.636704636676791
0.218124269902144
0.605379570685364
0.44451894287435
0.420865645864897
-0.697889823399093
-0.171416523638673
0.717176460246643
0.563405607647808
0.0566047690007807
0.00259334033778068
0.415406970709897
-0.813587608073412
0.0939444454848353
-0.296750381885056
0.0456740451606034
-0.403747446555404
-0.888254170833186
0.288074911977494
-0.375882877168663
0.261096286152461
0.364935644334969
0.090533305106768
0.733663250713353
-0.790073185645806
0.296146217961841
0.884366690332107
0.633256629647224
0.943449466285305
0.380858239216758
-0.939861166355958
0.103677723705569
-0.0653584858028283
0.433564574200667
-0.915936352970067
-0.370637787310974
-0.787146683289132
-0.668900396772724
-0.292490345189736
0.55564289954487
-0.147407593709393
-0.564879420311266
0.584382684228645
-0.618974772019433
0.891601830647543
-0.843480790535769
-0.720598713228641
0.488908484296123
-0.149918869106955
0.286475632072511
0.737892048214398
-0.910290555464037
0.272252851991621
-0.371420136703864
-0.00671814851494193
-0.398762034866369
-0.281082004165157
0.272107715296863
0.264439958017055
0.216844309273643
0.658696689119003
0.230633872172045
0.460513901354043
0.219408445471354
0.477653734757347
0.37383592404278
1.00413874363928
0.744513037655958
-0.331278133637092
0.42679504718651
0.585360571082615
-0.566465649057538
0.949865097211241
0.168421716208148
-0.538009925722995
0.681189055507252
0.158228102493007
-0.874085230625641
0.627093319751872
0.224070088504196
0.700494838822157
0.132257063730805
0.635449325783114
-0.0499488953812664
-0.909224358872968
0.359632540291164
-0.646194805575486
-0.646602903778611
0.63466876511191
0.311926292255111
-0.527786117044194
-0.697130246704761
0.905638058619077
-0.507074993135364
0.815050833086497
-0.0030946761443551
0.816688443219879
-0.291397115161204
-0.188524734117284
0.878810686608207
0.19902426453836
-0.421578561095238
-0.720749068281777
0.541215460070978
0.285685830237221
0.297949611134789
-0.0999390374805578
-0.186594692395106
0.326879812166824
-0.941135552439237
0.925350450652216
-0.612718386122424
-0.0747228470916602
-0.0339757261492687
-0.289836776511473
0.887815914028108
-0.968870608448285
-0.264640719507798
-0.4304901340016
0.930629768401706
0.447654908051984
-0.18099793321032
-0.146787212567541
0.631879095597076
0.845385940691237
0.209994192364314
0.21812184953813
-0.00202371442900045
0.993006544963081
0.0867293762458283
-0.2851646795982
-0.0732613503761
-0.550098615087536
0.27057197286806
0.63432126941569
0.321743821188757
-0.546957925284272
-0.410327343201236
-0.64746828315364
-0.401750729223147
0.266873895900895
0.221733419920654
0.047215192587534
0.213870292835314
-0.887063772637718
0.339446754785065
0.970663140772351
0.0985679267367103
0.0494889998614363
0.403499136490483
0.377798951358895
-0.482587439646498
-0.327824655191666
-0.0176084203560278
-0.803924230720382
-0.37106170180818
0.0307723911010081
0.850939295760449
0.780097616076028
0.709143515881151
0.33550054002488
0.809598023748771
0.952348791518663
0.50119037818481
-0.208885887630215
-0.775060820555196
0.876980908948455
0.340467474130583
-0.333055218728141
-0.0842432993024867
0.0301057775438872
-0.590438249462778
0.159112786337358
-0.980184370207001
0.794667222237043
-0.0864748555727158
0.178658835855786
0.937373858065893
0.412876457531616
-0.776959021712004
0.870451026376811
-0.640554021088647
-0.911690496082313
0.728127827873696
-0.745279913491145
0.66623760959186
0.144009518196647
0.447476391849655
0.842214361614972
0.614077062023741
0.169363453094823
-0.657813990673315
-0.796181628759042
0.405516080835072
-0.772002370341687
0.224161475791634
0.819489243731728
0.257594797757101
0.261067325987016
-0.759038527075007
0.318241906415546
0.408889955364736
-0.184243815668242
0.604274401675179
-0.0938239845459484
-0.938705087982025
0.681568156152492
0.276815611679269
0.737593222825099
-0.38247208704401
-0.970274109632696
-0.72089250575001
0.333393219042263
0.619464312039001
-0.27689159590353
0.484761796601475
-0.500254526555829
-0.914232236867806
-0.526786959969306
0.538945584049861
-0.799799732693051
