-0.119936403072395
-0.351218592981429
0.339629331973653
0.534347749318874
0.485363628069767
-0.000991414416136823
0.347731370998101
-0.984318502235377
-0.72976863898614
0.425041779005845
0.110802718698421
0.69446511160147
-0.457652896536797
-0.96186413235548
-0.357590475524812
-0.00826866286088761
-0.936100167904922
-0.937000128960853
0.950481292736375
-0.0263752328474297
-0.690853636419733
0.746294773544844
0.203571383074746
-0.390257531742343
-0.633607361814673
-0.15857757671722
0.682075546887896
-0.400593660957035
-0.765610033328174
0.14140059133388
-0.513813431790635
-0.691208898555128
-0.676861220597448
0.15627917785544
-0.157332491918717
-0.294146411620355
-0.457837693167753
0.251005009952522
-0.196683319518827
0.457140252366986
-0.107236186271932
-0.791038814052605
0.787088071906641
-0.115675758736702
0.746296365256197
-0.611004627477492
0.962753274278357
0.486769163329888
0.0991154706073702
-0.00376805322254949
0.564199319170397
0.738157001918043
-0.363929305897626
-0.657686632150766
0.47644553830803
-0.154660581856648
-0.788301383988761
0.671459057298081
0.703159623714165
-0.475544287255132
0.132491579607141
-0.0647079184320558
0.0492315683522201
0.446732008834053
-0.222935224040134
-0.906589212723894
-0.124710143086624
-0.119483012113378
-0.543495562720599
-0.233009349239808
-0.92227082916872
0.478135071498743
0.656210904330258
0.106302741915283
-0.599662991537608
0.891978249187274
0.916708353649744
0.759905141326078
-0.672772606887306
-0.982668958275905
0.954483945173251
0.821696678518606
-0.760196669977267
-0.841734216212239
-0.304547275717567
0.756665854282371
-0.312857569280324
-0.393793273538666
-0.93770981068823
0.16243900519626
-0.0503076135767177
0.965641115814688
0.0142184676716442
0.145686418567325
-0.159430288703552
0.656533158316488
-0.707444953419547
-0.805084775948706
-0.635379081026086
-0.800650046569503
-0.390477572606653
0.189351075662818
-0.87950639550544
-0.5799091221776
0.815265449302998
0.592782726355597
0.723268073309485
0.354995179049031
0.805438486020257
0.21543770269418
-0.854928785325415
-0.856004537144729
0.466212485477076
0.805890877994889
0.370558634689344
-0.996406472239266
0.779652788956019
0.0909717727747302
-0.659105153879677
0.887886522324544
0.883162548307968
-0.167691066899139
-0.908889052699497
0.599095954217669
0.56404624783469
-0.0926038103622163
0.312942699648995
-0.598030023925166
0.590916100607727
-0.62150778696536
0.875719835093728
0.179049648311934
-0.0873554456356331
0.724721592605888
-0.278803904110386
-0.909775500180801
-0.490258776085431
0.903021926725376
0.575396834564115
-0.606687925808924
-0.313436527263326
-0.251443051962667
-0.563492261659218
-0.978970789308787
-0.77577667590985
0.717618548183558
0.622124253800556
0.898292540882966
0.662789101253177
0.387602575258599
0.549640202880466
0.898957522168845
-0.608660655601805
0.853112283616106
0.477490777458379
-0.607535066380421
0.235709653046617
-0.299620254545496
0.661488792650904
0.395072959895144
0.800955827294902
-0.695285687677916
-0.399614795016475
-0.972678588404493
-0.047534822848675
-0.0111675878503938
-0.977016185347756
0.989824186319024
0.0635048534933899
-0.988874606629618
-0.495555183948852
0.559703966493371
-0.283505700924916
-0.336850724063821
-0.927521987730167
-0.115795189615369
-0.257859057854809
0.287144921386519
-0.260848501621072
-0.631551201368183
0.397109333069888
0.671505652825711
-0.866709692587969
0.273653380874503
-0.936578056258964
0.746945657172871
-0.710021924386772
-0.741677948499962
-0.486405758562624
0.350641534551657
0.989457923039953
-0.0751650936431355
0.0587873753248934
-0.640718246449171
-0.889210619565621
-0.997734837342682
0.932367493921352
-0.784028184481918
-0.828684977362846
-0.00115483353105225
-0.577524374275027
0.67992732995445
0.732925364341439
0.496381635101592
-0.137018542396835
0.324478625227544
0.802946629322596
-0.150122175333405
-0.576015535859858
0.894100840999896
-0.326319447201175
0.627479754229764
0.252933198958041
0.0582192336266144
0.801682400987054
-0.509153373157298
0.940045866142268
-0.544115754170066
-0.987765750085959
0.921419449922985
0.929524572378496
0.41718324274308
-0.425571447814732
0.0238954188801873
-0.0053604224815306
-0.172708358912325
-0.664210483417296
0.412594550114349
-0.235121873579071
-0.38692432570726
-0.166510627613899
-0.839859230301198
-0.117540635724982
0.423484030641732
0.0204695433554205
-0.678171825179236
0.854608707243599
-0.157486594183829
0.821421100050497
-0.996019976623316
0.315902786680519
0.0161197698623192
0.825431616356982
-0.965999435690318
0.961428747243993
-0.331526946201627
-0.381860204363409
0.480968207267179
0.0500777832163619
-0.821197508384236
0.296827405218537
0.730214666042331
0.522649861866497
-0.116046846680203
-0.979624887977747
0.337022794723663
