-0.225792045385691
-0.827737297373913
-0.619365820875156
0.648421403232508
-0.246593999404444
0.863942473863442
-0.191620455974152
-0.0313599281494395
0.813910773476914
0.0466592599309335
-0.677377739984291
-0.939591237745096
-0.775971161873212
0.317600877387869
-0.633771249321968
-0.468008952564164
-0.375070781392301
0.23224044625736
0.159427106629118
0.410451035201045
-0.679740450506161
0.816197544728696
0.964369112736996
0.391273784914965
0.95661233435723
-0.04750348324448
-0.129411580072937
0.686206113940544
-0.0511555321741754
0.472556682956344
0.876162490536683
-0.356351142423721
0.48846786747794
0.250983395284595
-0.832305058777663
0.117090400190889
-0.77245683237655
-0.484776592667305
0.0886242775035479
0.31606793704496
-0.667188008709568
-0.490450675695049
0.548261579690462
0.0708481996715216
-0.642293448545517
0.73966471680032
0.0503061265458523
-0.912983565903524
0.760296240893537
0.213086322843805
-0.110079399147479
0.370407582637618
-0.890058758546248
0.986902695678087
0.61684208581235
-0.440121318795821
0.206443384798746
0.618663983665058
0.484516381237687
0.842892830337476
0.791413000806375
0.119260635893901
0.675425036293898
-0.500952092671651
0.699816918020915
0.790801221677626
0.435393933158819
0.601956195193408
-0.626066851463091
-0.422161892223165
0.37463838180868
0.857177333303585
-0.548406888107539
-0.8015998228691
-0.137637694778033
0.0807717146535641
-0.194272847896308
-0.641107379265232
-0.575254557608292
-0.269766585061795
-0.856135412411054
-0.527527785942789
-0.381717572074099
-0.740112019404507
-0.729201548989222
-0.966911393846082
0.0499027883927035
0.415697898693035
0.620648590335789
0.572022908688075
0.579626743123409
0.876466152554397
0.431361164372707
-0.420867220448658
0.267579571623206
-0.947137140525003
-0.423168108898789
-0.101051348315211
-0.218482607563372
-0.202291072337058
0.824551063973149
0.830544584069912
-0.625429165391926
0.574805901443703
-0.400287120676392
0.203441379755592
0.665896725326103
-0.0358748685193812
0.499695298004222
-0.151315282723565
-0.273693871921487
0.381798990085651
-0.172136590419384
-0.288561381345222
0.728406429754343
-0.705119880056851
0.682819354834084
-0.398891488258748
0.0480587970980045
-0.451202671316095
0.0905478037726013
0.875174647896274
-0.0140527464663848
-0.575999373199662
-0.525303794790084
0.936858344183175
-0.27018196010919
-0.218700625616109
