0.689668115256516
0.0287484643225382
-0.86694978348437
0.522793292904138
-0.346308259926076
0.152181001134236
-0.0695437801383873
-0.0401762666671018
-0.937911015304607
-0.129500081637967
-0.0485514623059892
-0.329547804464094
-0.821390587608415
-0.186066091726301
-0.284118674475899
0.682878442970272
0.593410715676502
-0.274643789403256
-0.148235119383806
-0.196621219266922
0.887213841523009
0.875275084266502
0.570890920446987
0.623408669288375
0.219367286454535
0.785144511677556
0.490960073871852
-0.263122824682073
-0.115811461248252
-0.110568902134195
-0.734690110735662
-0.255134583941377
-0.808367354843948
-0.772802714987073
0.961565271614242
-0.882751211757818
-0.0488630697245603
0.0908696722982592
0.412356717013588
0.0991256369041598
-0.167564201205778
0.400651373862743
0.36927059358759
0.548658300203596
-0.865328817394275
-0.270505880286832
0.00646368579225323
0.224142531331166
0.265848869191721
-0.589338602647629
0.464965389691679
0.243346033194884
-0.164623013020034
0.971453799777021
0.826529922412879
0.818843282903134
-0.824766816294066
-0.392126805691269
-0.144837978018191
0.612846550941465
0.927808728773912
-0.915420510925746
-0.766673217066752
-0.927481664391626
0.444013397093746
0.10598789881002
0.333510437687663
0.222365633413965
0.551705885783613
-0.496690984366211
0.552985427355796
0.902548746391543
0.97542917667582
0.517704978492394
-0.758871884177988
0.578992269042413
-0.832244843155433
-0.500914294110696
-0.756918663814233
0.198219997826102
0.164332608027807
0.240207247651199
-0.623773918496644
0.716484231947598
0.363931951917407
-0.642320037695446
-0.26232609817428
0.743885787009021
0.552625571322022
0.10830677457983
-0.169948644954589
0.607637860288133
-0.920515027459469
0.175563112367869
0.336093797721378
-0.0396068836222614
-1.01410549497046
-0.685672732659959
0.585389702246011
-0.354701510332788
0.238379879561269
-0.972284757957277
0.0830400540228745
-0.28838989598689
0.465402930512535
-0.863769828225829
0.943104817699438
-0.781916875754131
-1.0131210274346
-0.0294016883713705
-0.116370200546573
-0.995183723450101
-0.966537888458692
0.666633008231375
0.570671283776035
-0.563574976493468
-0.807620450247502
-0.254927643114297
0.290991391031939
-0.534778834495341
-0.834763789946566
-0.584574244412703
0.227499828911744
0.329152394830849
0.766360845713727
0.705829097301246
-0.640861844159663
0.19462809917928
-0.278072980510523
0.239150572605491
0.564429618623897
-0.620557007623374
-0.252477993960264
-0.942682378139838
0.617177572591849
-0.346367610171707
-0.457290104470127
-0.247084516288398
-0.542897289005579
-0.985866912471168
-0.428070055783252
0.0590573557394
-0.0163244716753636
0.142037462755687
-0.764669603102005
0.78180094432239
0.347743162388782
-0.519496213668983
-0.4127793568408
0.311699460213213
-0.452708258306786
-0.216559652933298
-0.496060955827138
0.00045164585464353
-0.743323239460064
-0.832129284952069
0.348406766341883
-0.186386163048418
0.410866766614537
-0.203303508678188
-0.138546375199539
0.66365022218163
0.630864956927848
-0.128080645777122
0.603207440865322
0.434013069075894
-0.00154330243301978
-0.209580136139864
-0.187307841573127
-0.220892401973655
-0.476167627327625
0.627356945145082
0.205150579789821
0.569148582632071
-0.588862470610379
0.0144107662560697
0.428289316755112
-0.773305965574718
-0.909514970690865
0.791583344602387
-0.808946796442912
0.0840124163712677
0.0047095932017623
0.784529488997879
-0.88094041400355
0.475892297926151
-0.335950322288916
0.327902291564675
-0.134813158489201
-0.916098654127495
0.946561189980505
-0.211372427922581
0.536665235705214
0.556888210729254
0.964662934011
0.903378209738848
0.848994344246265
0.872074137909284
0.161906793326103
0.451251443241739
0.829052602552953
0.0115999908832947
-0.0858321233602074
-0.390497967979446
0.948886445092798
0.526163800708014
0.274527671293896
0.00684987891168302
0.849746559483051
-0.358016540870225
-0.993858354093345
-0.648566418043989
-0.688832547131059
0.343174670647044
-0.291851868381578
0.530699816156307
-0.316971250305708
-0.574328047193118
0.100397761442755
-0.239709030534695
-0.301198143105508
0.624357354250368
-0.318440298582197
0.974067966425865
-0.221319074117387
0.120525189148572
-0.067373366957804
-0.534754690713987
-0.0147784704829022
-0.947137338610863
-0.167503745973425
0.0960865121449241
0.263638343144921
-0.0836858972374361
0.580050708331537
-0.494825306680386
-0.25749628127657
0.0291611607591404
0.43758405838252
0.014921293582229
-0.764645552784024
0.949209547144744
0.408032462955132
-0.335809392296969
-0.916032843562981
-0.756217923185262
-0.461354055190708
0.6141745784036
0.0876915492425825
0.256615949818438
-0.615672095963304
-0.750469379686893
0.725105402684545
-0.844684814614413
-0.641358734353794
-0.605378614918077
