0.93337275900639
0.681538763139634
0.0875316567153722
0.324011109146381
-0.812162955915374
0.782745685732238
0.792784359657397
-0.786414682708811
-0.67380464107899
0.906103412340839
0.121403702297064
-0.276344297481501
-0.106338551345999
0.915976238015722
-0.40052513801337
0.0278934662240546
-0.398314451669794
-0.473863932982113
0.152732824230534
-0.952530557197596
0.821449560989292
-0.237168323049448
0.462795261920732
-0.410112628283391
0.972986309785103
-0.0300940669662932
-0.0454798916240548
-0.0835389929148294
0.134703348132333
0.876677436096771
-0.25846224140703
-0.766624918243069
0.46387856833468
0.582025965665757
-0.430123291719411
-0.456329358844582
-0.266046002870604
-0.434280956066399
-0.56032323347597
0.175908024703291
-0.740241570104144
0.247083671256009
-0.463080202527747
0.0232122027329231
0.0435179395387467
-0.109687768779791
0.909025389771258
-0.503012357327073
0.14271176898699
-0.677297646844273
-0.465582195867253
0.582996753052631
-0.704860747648481
0.258238012931945
0.206611117881697
-0.953228233986171
-0.411569119277642
0.579384571101214
-0.136132545081177
-0.981021152849341
-0.608684161468488
0.217195240219257
0.631017395013841
0.847824222939957
-0.909733731918512
-0.598569822024939
-0.461102760084438
0.0682566760566853
0.883017629408255
0.391323651244654
-0.978711848022162
0.632039867217578
-0.678425180312427
-0.927428211984969
0.0930256804767613
-0.849753585035985
0.825530369526153
-0.96357733635841
-0.506206517126236
-0.517360837354969
0.614400798857176
0.931981822432639
0.111162849286796
0.566516038400935
-0.940424205166405
-0.428319898467439
-0.256309758492559
-0.668962357424614
0.213176608184007
0.980620408293856
0.656376267271335
-0.0113442407624978
-0.372077277497947
0.277903987316109
-0.443566701159408
0.510006779186759
0.159746128380354
0.610878235529388
0.65559242539307
-0.437381679982266
-0.554181319067849
0.554649630680627
0.222348132360853
-0.590703669838803
-0.140251958875037
0.37869865351828
0.729086886413064
-0.859275068298263
0.928327946307285
-0.763165398531265
-0.101987610823233
-0.179957240014953
0.187252922596196
-0.765089673624865
0.47853052534603
0.579465933625221
-0.635739041078313
0.881923181143528
0.0596056714720251
-0.849618640867453
0.76525417753684
-0.874073776191583
0.481586302692175
0.668673553201176
-0.0437918827493474
-0.90587070236615
-0.206348668936798
0.625255414648137
