-0.499433583059525
0.226329247165986
-0.194646047895479
-0.791969892825135
-0.0433832547859787
0.358336711517302
-0.237411418132959
0.0606223019862211
0.242351941375554
-0.911845586952938
-0.425740651311028
0.425999336944131
0.659550447293138
0.767204765510284
0.78875368566475
-0.766145986795735
-0.91066422992884
0.410844204678916
0.419032099765476
-0.0567360417541355
0.726517115771988
-0.732493129297182
-0.136157057459558
-0.122811258567172
-0.472976697453923
-0.94180088289597
0.575367818912059
-0.436330612576677
-0.237697562322125
-0.238572071146162
-0.884066232090857
0.770538267655565
-0.445965574622484
-0.603958397224715
-0.914065231853351
0.827094522369917
0.626043380711972
-0.489095115578094
-0.563424466380257
-0.303056475309653
0.617875584738376
0.409448844433218
0.411781052826431
0.800432433387709
-0.369926705101528
0.795911193624449
0.898526418916332
-0.790466560711973
0.49868340237973
-0.973719431219846
0.958559214353999
-0.546001815539395
0.39689340601766
0.215335303966789
0.9363611515411
0.947810155528306
0.896192227096925
0.836779420998029
0.926030243474366
0.667724999362418
0.374191098362135
0.449671067062266
0.0796757416929259
0.842091668830113
0.535834843642366
-0.542875938966003
-0.800542242583168
0.53771147105372
-0.0884861595045732
-0.990831645343082
-0.497727953433194
-0.703024999287655
-0.647466104104964
-0.965271507509132
0.703950327197582
-0.448333257300113
0.933215498055837
0.0757493439847721
0.188906517121499
-0.905517277958055
0.71711571591858
-0.0415928994198557
0.933992802729711
-0.867824810885612
0.714002950321506
0.788047861337719
-0.448325844454228
-0.970641957413432
0.611402597285419
0.451124103623106
-0.604526733322795
0.964120556663676
-0.274022758648858
-0.0866676942406177
-0.0476454381857961
-0.364085420051943
-0.689443639036332
0.149288385282141
-0.292050795023952
0.475559253858532
0.174210349228779
-0.448807568219612
-0.695206465397729
-0.347674089120358
0.965432325172273
-0.471103850994307
0.822288124481697
0.086403033848267
0.185691298500389
0.56839480903845
0.980575137527815
-0.984271891920329
-0.598971084977231
-0.782448988335898
0.57694656910148
-0.681542027487119
0.511524488240566
0.131196908827655
-0.746568671762664
0.84915070806311
-0.319859375817324
-0.0904676284788301
0.228367008209734
-0.946649968657394
0.487973680711892
0.524634675048924
-0.110591436039728
0.653589847193668
0.978233823775545
-0.813855389180519
0.562776365439803
-0.860705312489401
-0.235050817732973
-0.514258667670501
0.971464286678868
0.824580760926674
-0.434139444927145
-0.581369690711439
0.0750422947364172
-0.998949458433188
0.617692270373464
-0.468178917481914
-0.552930887758828
-0.885346640582312
-0.27182005433558
-0.106173241243289
0.581383440857512
0.300437625610389
0.710570668248595
0.666720515276553
-0.212183787149628
-0.963656189994729
-0.542694516895175
-0.0337000218467074
0.931514375627993
0.942628093265442
0.767882054674753
-0.315993600816237
0.639129523211074
-0.521707016154236
-0.989422787326783
0.516699340977563
0.452095719442878
-0.219691617137622
0.676904586918202
0.437436661986043
-0.873123546928775
-0.954651681129865
0.239870670026746
-0.665683039175884
-0.238528871778187
0.884024658525679
-0.83398655995834
0.603101371149523
-0.162355509127974
-0.100133880603645
-0.802440620785767
0.537663705923802
0.0817888313888193
0.490615400673751
0.98292918550404
-0.926100100775139
0.0605361700429798
-0.885710545526806
-0.383525808911209
-0.0732537290316701
-0.261637455452627
0.764034450216059
0.415301419956051
0.296675686942531
0.454395116010137
-0.166189303635995
0.0667632969200515
-0.0315269040708558
0.592319397403797
-0.525478593846578
0.431483918507701
-0.963802738706582
-0.736198743427375
0.666097630008055
-0.0644048673213735
0.0752608770707171
-0.779512516615061
-0.943801543105032
0.659682272336634
-0.810783609760514
-0.844005683548402
-0.937766942101373
0.0394599599221009
0.692978234145906
0.566885183881504
-0.750263852544576
0.583711632830858
-0.301779989136103
0.128948236601584
-0.523614529893044
-0.104977144725053
0.665317740311278
0.885645786493514
0.187495412506918
0.617715592508941
-0.893807514306691
0.710012234794284
-0.571751846938374
-0.520594445795338
-0.0447716428428169
-0.332242844145114
0.914240785832071
-0.564699682046366
-0.397843225739421
-0.210432814656518
0.514778292267999
0.921741076530662
-0.762528514481329
-0.020237398310128
-0.0952941419595844
-0.518601432836897
0.0753555742090253
-0.518877511591188
0.0394083593512069
0.710107881583834
-0.746021540311338
-0.486605567685839
-0.465591904683672
-0.172150636885391
-0.523455883198505
0.423617024064124
0.0887750415740281
0.832697099001822
0.551741370532073
0.115846335706066
-0.36961359853512
-0.138635492947364
-0.44308933535602
-0.0962360596875009
0.809390089249526
