-0.0385427404736879
-0.393381494573307
-0.701058656576983
-0.917754433355664
0.472792664524419
0.561426076669523
-0.625322882923509
-0.880076142906417
-0.519588024901833
0.898365357689346
0.251431576937545
-0.480931802155822
-0.892443433375927
0.470200819117917
-0.424857856848205
-0.548384611102125
0.694204313984534
-0.347464114189227
0.368219659965934
0.0860518960951401
-0.990273255769051
-0.318560019833349
-0.119735076116171
1.0054079634185
-0.935518110000235
0.179772334114191
0.0143107523073726
0.995585081713438
-0.435017931853495
-0.391660222069031
0.286282597430288
-0.781528546782479
0.881375188958333
-0.782604391719138
0.706577609518549
-0.663693160712421
-0.130761492097012
0.0105225434422233
0.453417572546454
-0.230743508917142
-0.907892083192644
0.972780194654781
0.598213846880067
-0.416142491229092
0.622779331249961
0.337499654253419
-0.182022041870342
-0.942067952840254
0.869702669833323
0.30954561455112
0.979696592910887
0.513717345766655
0.252136220463339
-0.684764783310301
0.998866880638424
-0.259512295384601
-0.302396459799141
0.241844264863722
-0.421339918002294
-0.459263335877563
0.293801793645315
0.672288158301361
0.442097509782291
-0.610860318252003
0.678457292508855
0.535252287652579
-0.504499000094605
0.0334606005840367
0.901925568251464
-0.22604913964705
-0.535753646075124
-0.713781092427848
0.154074180355851
0.9937322586292
-0.927320766796508
-0.409003224768066
-0.65568932835805
-0.862904053619931
0.284438464684799
-0.22530477874537
0.208118536913495
-0.83293867392357
0.0173651345509566
-0.371415998548237
-0.425937361236149
-0.0433945120334137
0.777535420079
0.184269172572355
0.779481286309993
0.944095041090988
0.53524349396548
-0.136465856568058
-0.516178331128748
0.251961576382588
-0.392819229983994
0.367805141715345
-0.693952194471122
-0.497285668048778
0.069110186568422
0.00573489305563604
-0.181664253697317
-0.934311099177027
0.681986931844926
0.0451880234081479
-0.98355172061825
0.773783424361842
0.953822008485884
-0.957927086633631
-0.217419663234986
0.971430494253784
-0.111544929413119
-0.0375569618114058
-0.0590637993517672
0.27870069829288
0.649623902266852
0.596533426738916
-0.682159339401983
0.972754786428112
-0.701476008571692
-0.961126177418419
0.587165345381734
-0.0288652702225017
-0.0675474394712212
0.153134549874683
0.0212338370006389
-0.910120405609708
-0.329572650256963
0.295882563592045
