0.0805184580876753
-0.708291209020625
-0.620720507711812
-0.311724097278409
0.431567971187728
0.414340652330954
-0.238609893492475
-0.589436759633511
0.867190389940427
-0.426918008767711
-0.793085082707256
-0.590892170786339
-0.535151703945474
-0.949447339111409
-0.12655205455541
-0.240622949985038
-0.215757077422172
-0.301509316070791
0.622253030483498
-0.353712657784892
0.704027900430324
0.958007888506405
-0.304971827298247
-0.439874044830549
-0.298341764177376
-0.19004358695769
0.658108391652739
0.23639065818684
0.793477219479646
0.120331609699572
-0.133206389142887
-0.78217975412823
-0.671856338895727
0.23430282509642
0.181100584650872
-0.0661916403258788
0.784314661827718
0.410082634041488
0.359420526793951
0.525731687093199
-0.0392905188532662
0.72857689104899
-0.13337475368321
0.703511468969192
0.719299386419299
0.0611184589985643
-0.441137563385251
-0.281535175123898
0.546646808869236
0.794784625885612
0.923370059321916
-0.43019066289274
0.617193861063044
-0.063051201594981
-0.598412245091502
-0.779668535478062
-0.597179226536623
0.0376453368050599
0.394777245987671
0.838013481919448
0.664257450903002
-0.941056467427687
0.184951629323421
-0.00396548643684502
-0.573948355319646
0.135545235594643
-0.982394758871717
-0.671309048399241
0.944833364360048
0.617404076432572
-0.268460559691827
-0.113040843117342
0.885900600443028
0.242524922467726
0.43421539636539
0.109469987403776
-0.330928333464367
-0.799970076694574
-0.482051605295343
0.490665344716888
-0.0247671490883849
-0.41501494439043
-0.779407673472861
0.113563514101275
0.642904592355693
0.808736815235852
0.478862725125647
-0.0188753489822117
0.135071440082111
0.113226113455275
-0.278220493047368
-0.558200427568623
0.914280289064015
0.571957818169167
0.834714438101175
0.91392845527376
0.648809084780075
0.288076383262528
0.381575686239645
0.303355929568874
-0.489830137851732
0.592088646999237
-0.665168441368635
0.801306760267142
-0.59580642283904
0.848044906633886
-0.869430624824154
0.188321807738726
-0.595958243623742
0.699243178962328
0.350048959829751
0.194072168399235
0.767735393712759
0.82982751012007
0.365037542433933
-0.622545320080251
-0.449676490837229
-0.615080775161827
0.00467705633033917
-0.836310201559651
0.955492876522522
0.0896130801330211
0.270690393342133
0.541225067101793
-0.819636139100764
-0.598375754123918
-0.775419758653748
-0.67168630863843
