-0.636597856926648
0.115222478513491
0.98680431350361
-0.459096855743198
-0.453819763457956
0.0586850358205595
0.438959271511215
0.872932317676461
-0.603566359712934
0.72084338524815
-0.575541116018695
0.627891385644684
0.674893775894514
-0.234833294812607
-0.0312604057144146
-0.584593186715189
-0.304157691377994
-0.527009072920727
0.189626737630319
0.718177998831217
-0.417542644225597
-0.624942469158982
-0.416489964073537
-1.00440697375364
-0.767126437770346
-0.721590597814453
0.252929703877293
0.788858228967941
-0.81804638969064
-0.989388210897743
0.184085317846488
0.625607851867821
0.114558932100993
-0.0581548399779341
-0.434178088388868
0.537731676252203
0.688005278123733
0.671683833872382
0.608983446309886
0.186384114551944
0.935416184139351
0.50032364978463
-0.274223229191759
-0.757946336613728
-0.167158173100189
0.635190535637716
-0.288583460590005
0.00208171006037375
0.929571652230285
0.841968539606502
-0.53207382524716
0.595919844818464
-0.0271255686537283
0.99426150669255
0.594580240550582
0.00142038729150074
-0.103985259818961
0.858687365436402
-0.261831303072187
0.522572372708097
-0.4110790160764
-0.303177864347824
0.120764366978905
-0.380686266229414
0.871938450169639
-0.398194248865998
-0.547308883457157
0.984659399824186
0.172481285761305
-0.612117061020035
0.766653392842186
0.673464219002359
-0.898263804713064
0.642079355299739
0.274960932956139
-0.805355244134054
0.589670491362108
-0.434676774174679
0.40044748604748
0.709592247634139
-0.191873981527508
0.312513242635368
-0.684888088061699
0.274597366226055
0.783816729416866
0.150110623955972
0.272869612183418
-0.820086317323782
-0.834246437659532
-0.453887745243553
0.0286978193577135
0.134000208626618
-0.461237444264841
0.481969415004632
-0.184588710352771
0.589820061583834
0.0703716497944343
0.221090039837279
0.835486399873755
0.781211508658972
0.108471537634939
0.858883702591326
-0.851034863567021
-0.702178324799956
0.441269650577665
-0.420034168878974
0.0598680813527909
-0.29257416614584
0.281075123919794
-0.0991966236995577
-0.273031476602085
0.821992050082593
-0.489537317361395
-0.364271682020941
-0.769778901669207
-0.830183248828989
0.369340214142186
0.873945264435896
-0.105938440319188
0.807724060681539
0.454031782349984
-0.00674223267817535
0.498673691674493
-0.663154250231429
0.423048457224843
0.07424550445375
-0.00222336120888586
0.289367559868466
