0.745495736480063
-0.992526509095444
-0.127368651311711
0.471101585411603
-0.441434493120568
0.587664551500772
-0.178966196842475
0.510560388018939
-0.126782654020487
-0.929646966700325
-0.565741242201
0.551059651704308
0.645913415144098
-0.404745492153208
0.153727762363324
-0.338580357061699
-0.900431232034603
-0.126317380237985
0.393213864748194
-0.796026977631994
0.846812624779788
0.442068881112303
-0.442641841170129
0.557347393674666
0.247763174634283
0.98829269641259
-0.337378573120909
0.117601001440077
-0.519829771578235
0.247384258849532
-0.766903036025028
-0.072665062870924
0.733278112544215
0.385670464858395
-0.663426697947891
0.694665224507049
-0.719599111886238
-0.0525796063793835
0.256040470713518
-0.983219530176708
-0.327803033345514
0.223861919638567
-0.346285756203633
0.31068857662462
-0.984888427224074
-0.231262341630356
0.574765919632283
-0.326527797656778
0.0275824619239255
-0.92807015001392
-0.468150065032095
-0.193584256591392
-0.958940675667724
-0.431294641542021
0.366599737874371
-0.00630725688936772
-0.263433317840708
0.56250491945998
0.694003675554706
0.840456932899197
0.616945581457722
0.321372013182223
-0.820682392611587
0.81165885642838
0.417822125537698
0.212872116913659
0.416161922428651
0.891356936044055
-0.108641425188639
-0.647640183877655
0.161190633671725
0.805048514691624
-0.762320889064114
0.572310980804343
-0.98831995262889
0.0979815952927448
-0.620151923032311
-0.464229181772162
-0.725619223325159
-0.231867342798216
-0.502457692974705
-0.601064072414402
-0.749047360599214
-0.441237215849165
-0.368985613603051
-0.248238894477982
-0.0387830226302868
0.538831053376061
-0.527140450098466
-0.946482234443829
0.50633102595863
-0.511119185865413
0.0652640019258283
0.492608781548622
-0.0425601489070692
-0.382510173475659
0.618159554151964
-0.650012222487468
-0.225568411054574
-0.26609601621266
-0.779551588062429
0.627275059961322
-0.986038561838701
-0.485881676573211
0.375380620795191
0.827803798328711
-0.604897176076801
-0.513383888887471
0.19631866786592
0.0484059243503478
0.930801872729929
-0.702228861509485
0.464952747954518
-0.648379115665768
-0.539700067046373
0.847768895559308
0.484739511360949
0.426641194554897
0.93662852807793
0.0595645923707728
0.0121704298865741
-0.254745786343194
-0.0430506367495249
-0.650597349720017
-0.58962325309821
-0.0249399795049794
0.88473205894482
-0.428733689719181
