0.0865416967135764
0.527977437034325
0.0319684248276335
0.302834695734186
-0.769170822337798
-0.460030000198571
-0.816386579568625
-0.689011470170297
-0.735360160189866
-0.0340978252010577
0.326175557788827
-0.208463465700968
0.493826874578896
-0.122673852570064
0.442582530969935
0.684041676155414
-0.452075987483231
0.42390243371936
0.385161505791856
0.268687475203885
0.0909558261523664
0.30404109404298
-0.818771917253788
0.0644360903178805
-0.690330152526514
0.385839922596149
-0.35579866729711
0.925913170029277
0.88932260426368
-0.771419809203472
-0.439194250790344
0.4606198006991
-0.772289336809651
-0.436815427170728
0.109265864918796
-0.264848762971223
0.248217512296161
-0.716115258708893
0.169688960662444
-0.24345205891449
-0.494553542446524
-0.458454456326099
0.386568544443784
0.198577016433458
-0.982416967302232
0.430352801532427
0.469314397689113
0.80551509678402
-0.944957565440112
-0.966682138304467
0.000678255314823366
0.871412300358531
0.317620261998745
0.338997747234337
-0.444577681983401
0.380336531120073
-0.856367378508692
0.845968296994407
0.0727759747974455
0.385870863894119
0.25994099520685
-0.947967821566658
0.719787755370532
0.00683232947125325
-0.769939389049191
-0.982337581048989
0.663420187457295
-0.219183910008848
0.034663291071335
0.162121281029611
-0.964347994041323
0.136636193845397
0.0823848523792681
-0.566165752311636
-0.976426858343457
0.736943735980027
0.901632218961782
0.755171442915502
-0.595282907703258
-0.462569227845813
-0.157386125445845
-0.898640409383904
-0.515449170330856
0.623618263593959
0.347475203663381
-0.300405464570741
0.554835483620307
-0.502670080617583
-0.216026510304228
-0.803599666709673
0.674956902747641
-0.246040947176314
-0.604121767495471
0.147536118974156
0.0874245562386076
0.816907297023993
-0.666765550571748
-0.829088976102641
-0.756956558918445
-0.100898186803329
-0.46286496642854
0.275485153059125
0.0409418066487789
-0.705332028132
-0.96965792411129
0.254717157473566
-0.645007009527951
0.669320214880752
-0.29525881195442
-0.873410355156404
0.986274051511466
0.00254393370145314
-0.336495546810747
-0.723964811574061
0.625952956332161
0.314781193381576
-0.932110814382088
-0.937601559592686
-0.451962460046268
0.120161125524738
0.805674240038282
0.545824578363387
0.916239135759201
-0.97021052026942
0.381269615948544
0.614115355932145
0.554516511629959
-0.132985519365469
-0.179060463704183
-0.82387242961363
0.644173625485915
0.352406676814801
-0.763978856596477
-0.0948379146957761
-0.0571660110874008
0.36735756561154
0.227900832423541
-0.583110916958894
0.226479610546972
0.436054724273808
-0.982049112448416
0.506797055568778
0.514259569161976
0.332398945937641
0.35536487714788
-0.170818631070077
0.494841770603277
0.308022677825539
0.522533017597897
0.00586040534918753
0.191925374014882
0.59729458023037
-0.241461117707232
0.336496946150767
0.9290815263664
0.0522664955551691
0.200061710822204
-0.758152980227114
-0.870808328666927
0.55983904258429
0.836262874447378
0.608616113163316
0.0678688985371776
0.312782346895779
0.0667863318265878
0.248203918012916
-0.132186124490039
0.422790979103462
0.0510810064521038
0.979220821243058
0.853461462951804
-0.491849931578197
-0.385041726743919
0.729337579172094
0.947189741157458
0.752871448888285
0.26475397483357
-0.270339361271306
-0.499525595268584
0.758026929975607
0.316525411002327
0.301018144949729
-0.369233279386754
-0.625596504079709
0.673667660267915
0.0719072153110442
0.826048645000872
0.412768707473494
-0.743416619756189
-0.308548005188947
-0.465738103922519
-0.576053527675196
-0.386962079388739
-0.369204050096983
-0.608706048222524
-0.173033622823903
-0.558978501244555
0.712150814840967
0.450615917809355
-0.0694084413023958
-0.44878054316409
0.336734009985387
0.268934003354784
-0.655464694647088
0.898090537381561
0.0126307684253227
0.471254713646298
-0.182289111271329
-0.996862960495953
-0.885650413851455
0.763976418935092
-0.922454347818328
-0.880391811878367
-0.0973347613908533
0.524710721404994
-0.234631290861291
-0.228326520416765
0.78478119292823
0.150239767779619
0.0285549877453569
-0.963024233933273
-0.763542875283694
-0.546467340610084
-0.484242759117644
-0.610011645790116
-0.483226000309192
-0.966902298225543
0.993310427910327
-0.383055073016933
0.246963740581895
-0.822554370415637
-0.485915751425601
0.219336886375666
0.935906915965469
0.758572857648231
0.227733745081116
0.267082882123425
0.776956893541945
-0.446394290020789
-0.379200424382533
0.222900195354078
0.750898918027389
-0.175992745950158
0.172644652001778
-0.182743055270981
-0.734091921531936
-0.168260869372058
0.607204037936969
-0.293752882640894
0.692077871564755
-0.94726802181172
-0.341548400576586
0.347056108521612
-0.0761886620161504
0.397630980034811
0.538217910595076
