0.562359437306165
0.108602975346645
0.0307591240496365
-0.515493432300323
-0.168187854679577
0.757894508411252
0.588628609209933
0.61581854321982
0.7423881856911
-0.71874979495003
-0.741855893491007
-0.398247049421853
-0.407314652660589
-0.938695874196417
0.799805034919635
0.403238952398486
-0.578520759265487
-0.653722319293879
0.241007353481201
-0.296513221346585
0.205521452825252
-0.774988318511164
0.112840604765288
-0.476156305060732
-0.593864754641497
-0.865737076559244
0.516472517543719
0.0329838525759174
0.108757793239781
0.641491626757095
0.279381717299522
-0.655259783155023
-0.881752768534355
-0.891870104997382
-0.316206568464547
-0.668148540875544
0.813233968627999
0.285658121193962
0.813319042816697
0.549642546889923
0.284376340436031
-0.63857501549384
-0.86368043981127
-0.272234281631869
0.36886848078414
-0.0796336981492234
0.646593841094858
-0.187490337093412
0.635654478737932
-0.245182814782827
-0.462543950754194
0.187752180461576
-0.877073934481293
0.0705725255590692
-0.378295556281406
-0.032807111140905
-0.383399564944139
-0.611800058734738
0.198069832619349
-0.565160830710547
-0.514841810859941
0.621991757342161
-0.978833164039044
0.80185504273137
-0.915255166847943
0.243837127283169
-0.219823983948094
-0.498445887418713
0.408983122697144
0.37393961748632
-0.903589735261977
0.448157924263993
0.616631864531407
-0.132651247439352
0.302393789171212
0.793765098175223
0.530650316769929
0.439415959026663
0.169736746361214
-0.3324618757691
-0.826602722595495
0.898615923013751
0.644309834021153
-0.391182088573523
0.629881128248878
-0.421125626701917
0.11191918280895
0.0155735655673613
0.941907783073842
-0.289108478145658
0.753789798935569
-0.66896275191188
-0.716519949988632
-0.0937063250115701
0.379787196869249
0.348602893504646
0.829147938095834
-0.64640577812657
-0.891582227944992
-0.249017805387014
-0.474905957716291
0.448988905495356
0.603675251315959
0.855307164835347
0.465109514020499
-0.0919185264408007
0.974279789179688
-0.303401555699894
-0.670671381570824
0.552488463152424
0.116794621035023
-0.451874680336522
-0.0924148203149475
-0.0694177831857621
-0.231154908853049
0.116979492535282
-0.682621391598624
0.233910524424614
-0.938559656481107
0.38224938311818
-0.549064682279275
0.259037110477544
-0.804941719418817
-0.343314979507994
0.232214374976782
0.0104135967047469
0.028734316439285
0.743654028072663
-0.315731827554733
0.18634604685273
0.507858111236149
-0.0612131569566386
-0.829022316229676
-0.489113850621663
-0.371314553551817
-0.157234938143121
-0.653383917537261
0.959230001267091
0.00400561981008289
0.138046253659599
-0.607173317320003
0.819076974506512
-0.371061527274516
0.587490024986658
-0.383937773573593
-0.563453357349234
-0.308215503203207
0.348162820663421
-0.625469860980347
0.320058167627586
0.517668451041506
-0.196253814738797
-0.112335229589574
-0.754473136432214
0.419280112613056
-0.790679942425739
-0.822607462696977
0.614223120174928
0.481237160815205
0.132404743012099
0.483544728668785
0.63242057583696
0.570336741638603
0.392976245733449
-0.358153295971487
0.478487750835592
0.457280171043261
-0.160605723634961
-0.971012949581112
-0.224953210486629
-0.349746540165148
0.513917430455152
0.92836125818767
-0.658260013020834
-0.749149417648724
0.979126731351864
0.255403983169879
0.143887983458557
-0.196722227744238
-0.617634519183172
-0.301877605861353
0.147764547335519
0.848806647288601
0.682280592052643
0.125548198284903
0.0412627845937313
0.573617954833743
-0.326181864156279
-0.112490968883666
0.0527548836118149
-0.0533903609588942
0.0828903963705041
0.0713611409585663
0.0691033314711975
0.765246605232856
0.010524506970228
0.476676678701628
-0.275874244918019
-0.95982609361096
0.153444260489898
0.773749252639851
0.958408955165872
-0.398638642543311
0.923720581372151
-0.327183388011679
-0.575251305563298
-0.302614946523067
-0.0640612977948181
0.494636117103829
-0.909365070754405
-0.95505115747738
0.522956203570803
-0.494496563027908
0.937154805650605
0.963880029261504
-0.981829547845638
-0.171372013907401
-0.787873848400165
-0.491329194436181
-0.769244576157053
0.19063044408578
-0.262640320189554
0.498911005736987
-0.39720203386081
-0.364868983768586
-0.86145363870365
-0.625857244163839
0.270748915949284
-0.0991938997391051
-0.00131647264017119
0.844476211125388
0.187134896550888
-0.571586881088655
0.199513427181454
0.73537636680959
0.10354765594879
0.760026713912259
-0.758837418513834
0.448371470995178
0.830765592504773
0.765674078811101
0.449599365327094
-0.529316744222791
-0.648820335518563
-0.239784854728296
-0.991844414384264
0.895855884685897
-0.97741323292569
0.623314043603862
-0.909197229796897
-0.906097286649243
-0.900408006309316
0.119924663423963
-0.558217489182906
0.552223018340032
-0.740551825612318
