-0.682250210956314
0.186025465090048
0.663316500072046
0.755775241343842
0.129788480044158
-0.523451942735766
0.991292513440186
-0.148536656539808
0.861142076455438
-0.883624607427798
-0.558624400719245
-0.455029871440412
0.244697078726259
0.197596058429968
0.762437712386334
-0.593071975379277
-0.772809452077173
-0.466362630844336
0.142664088406315
-0.0666178832707239
0.677725494914859
-0.0438734923330532
0.398876937515876
-0.422909073603437
0.185117947011885
-0.672382081880945
-0.968161966412981
-0.0666277115821103
-0.499013019122392
0.201488207856929
0.908449691698467
0.463177109120792
-0.0627636842206506
-0.316107208954502
0.882169651838094
-0.536583435563567
-0.509097515061241
0.539011884078534
0.744281778773082
-0.0240696739982619
-0.672814381941631
0.735235774227724
-0.763523721594242
0.398506801847651
-0.117128641128643
0.575244782827197
-0.0441635740751839
0.980150686585229
-0.264808911791486
-0.282633989763616
-0.293613685486537
-0.334514802516069
-0.658668777121817
-0.373350271152908
0.113046883294933
0.87415175950737
-0.016725856194878
0.595009306341768
-0.613468768733058
-0.37625209535905
0.733498239877026
0.599400727730726
0.453417375773167
-0.236552980618922
0.193575908146828
0.411016548525512
-0.469674475254472
0.435108224001707
0.587172370661526
0.652197646957837
-0.937501666997856
0.38381059761548
-0.760622379115052
-0.937312815873893
0.348033746271785
-0.417417284380574
0.0492481268229109
-0.450738561343357
-0.190860970585861
0.91118513305422
-0.20534907814328
0.0333339081441761
0.293591133991343
0.474361679710133
-0.0937811000187847
0.723649655912419
-0.364181149112978
-0.574487995105722
0.312010929006092
0.696519672138906
0.228944926032093
0.459060480376178
0.237371515468579
0.137627447431264
0.571675804699578
-0.00343363573730223
0.32522594937198
0.171249655907747
-0.844947690631105
0.0453695478515369
-0.708474048081012
0.589203851267892
0.71447191619512
0.830033657525823
-0.602573312939113
0.565199533895684
0.0231009281713721
0.00905566877432994
-0.946135026650689
0.0993273461838782
-0.717517180896004
-0.768232841269886
0.643211858719358
0.592378167664771
-0.309678286108843
0.600953673453521
0.387293766881845
-0.920909354479368
0.631642302626719
-0.323013980715663
-0.411334585798546
-0.101189213271645
-0.249115760307873
-0.598316833525013
0.302118693983524
-0.142137500606901
0.487541393201555
-0.369864426568752
