-0.517811507207388
0.0544914477255105
-0.713157778413401
-0.420871515782434
-0.0873858983819487
-0.785412882258915
0.362843765017663
-0.728454338595347
0.399572525642418
-0.714007337095219
-0.611527508313661
-0.534705278531325
0.527971233619999
0.560130749140526
0.774904369895651
0.721596894709061
-0.927022997502778
-0.305680700371922
-0.485795392870259
-0.00980065260410279
0.975474186739956
0.728792611506386
-0.0416866988082162
0.896898162739889
0.526376908312091
0.136775254533352
0.600910801877155
-0.441000373005456
0.390420809285835
-0.887125066866896
-0.160017784192684
0.172901686902304
-0.178845883786551
-0.289447390107983
-0.555365531030235
-0.294893012235014
0.0391879058528144
0.310905127067858
-0.0631320591238308
-0.103108255423594
-0.975284952907031
0.967728294790988
-0.466312932766891
0.677258196726995
-0.307839370592027
-0.379509943640839
0.821026983847584
-0.570589050814404
0.139518076900357
0.0334554114865606
-0.265166269765086
0.501293872005422
-0.561091335271175
-0.070713861602425
0.20192805477239
0.181754891718553
0.296742072619709
0.0691022953247117
-0.240680505197506
-0.213351553887215
0.246990852551127
-0.666966414290994
-0.244875230625456
-0.454452490908554
-0.744501098378883
-0.841109577315931
-0.793511800200439
0.846836908397104
-0.725956110548155
0.505114905381474
0.862487111599849
0.280524447522105
0.90311932755552
0.445568978603381
0.0416641811739047
0.342504267499066
-0.556588963152099
-0.885013138776256
0.141779070934985
0.934768421875455
-0.776485327233351
-0.524810537836654
0.407592516751819
-0.235863523791803
-0.133892543114296
-0.0124789256777911
0.534770061909075
-0.298609406714525
0.478548346166338
0.0931221163758356
0.961620709777697
-0.206849525361841
0.299106529281541
0.0208073445599678
0.0566563040308912
0.709331232454342
0.818563128908208
-0.125629690426602
-0.529561352671882
0.962711322311255
0.907957983577474
0.537560035451657
0.523605334543935
0.762757722297454
-0.472653214601026
0.160402454660677
-0.683031877149287
0.85401415977248
0.515376212701601
0.884862316175847
-0.196429846049912
0.663061035760352
0.881832707387735
-0.33267985055879
-0.611083069634014
-0.236577310862665
0.78202387325706
-0.349826900087717
-0.518539295030481
0.813059663846407
0.185938432326887
0.607631827090876
0.699044367276272
0.457013197700013
0.120534410955119
-0.536716247996289
0.24617764684524
0.762290149547304
-0.678201661199342
-0.966875097351213
-0.141471495020884
0.265730555773905
-0.366327284012848
-0.196989502149852
0.483749642374591
-0.417593064981663
0.583717571450786
0.0547554258604204
-0.233560374916896
-0.983236539240177
0.469810063737491
-0.8824053978573
-0.837942561579899
0.88537998293831
-0.833715643983265
-0.911381788892974
-0.268601321361565
0.499896987876997
0.462887476118548
-0.265979214746085
0.259253863069581
-0.389736967380957
0.277442426105842
-0.0158478343137372
-0.0807088490690839
-0.536295034600747
-0.732880643835954
-0.325323861176527
-0.781434269752666
0.849283281599221
0.164276913135056
0.608367325148304
-0.805321620255248
-0.0923354700390831
-0.282971921422589
-0.586224195961701
-0.166986056565559
-0.800963613433661
0.830560244103918
-0.335764286385854
-0.274121078349208
0.186330432097789
0.0239564799416053
-0.206931052287822
0.960736495478559
-0.701831316654785
-0.0577867225822951
-0.0776881853985296
0.909137535003456
-0.913446874150154
0.717647967085424
0.736555556989493
-0.36320548581006
-0.318511252425176
0.490378019978053
0.559913638915014
-0.320721063819065
0.822304237580843
-0.162045934653888
-0.308253308558289
-0.352434466646651
-0.670745937547237
0.913233615467772
0.833092171138718
-0.285472400932921
0.142079809707137
-0.612777191936104
-0.0835850858231242
-0.582814160714177
-0.41504790850112
0.145223712090981
0.534607515050605
-0.418783954219653
-0.782567019804842
-0.627681208136699
-0.897816784728448
-0.935566085544143
-0.300884498335531
0.863834930554703
-0.395969405457629
-0.996881779788959
0.599804881708742
0.257088840591872
-0.71811447945515
0.19674496566333
0.764589002228073
-0.0199782263615885
-0.648598421953553
0.38630125482841
0.584578826106246
0.241853121766255
0.0736366084508414
0.534287123962845
-0.988622956256024
0.120702614330778
-0.469584623027945
-0.0225825910557495
-0.0232115158189719
-0.990490164704125
0.112449934658265
-0.245656738896309
-0.00795557503258215
-0.387988172260869
-0.124090023528136
-0.140561376352132
0.615358891803528
0.49423767645317
0.543417725233241
0.859233237355296
0.548524684707527
-0.621018432020261
-0.394655755599885
-0.775528491978678
-0.164445253001776
-0.173226658220243
-0.224340167153021
0.924413729993693
-0.664278456842389
-0.845662098467016
0.389332931694582
-0.239284759195444
0.702340672933932
0.440259034260112
-0.266573570137586
0.450425859823452
0.701485026775483
