-0.610825789423455
-0.423183417363446
0.41162207345932
-0.145580067004363
0.372916349205697
0.113364956994391
0.774777098707618
0.445471843643645
-0.332670412106908
0.784981300055929
-0.85672591380807
-0.604194888240291
0.335672845225074
-0.0948291009746741
0.834593033974912
-0.00843923506230104
-0.86649841995647
-0.746017678690609
0.627353443374479
-0.950641478934635
0.416519981130567
0.749752300271855
-0.253165298521858
0.497141480043022
-0.442868988535732
0.199958816471023
0.661367989605554
0.78157919503964
0.553100487659616
-0.162843297716853
0.817985984274491
0.778194918346083
0.233452493042268
0.413572430256729
-0.159345297077756
0.729141029547065
0.382325832181129
0.389435001325047
0.861112238491873
-0.242395038113013
-0.131428019873358
0.206594380931298
-0.777530263790758
-0.927421037046392
0.365253822052051
0.492450473036604
-0.399370453386429
0.064445716064381
0.478436150869528
0.6049141521522
-0.526824528327477
-0.882317116798066
-0.330126549494751
-0.928422164481178
0.572306288757608
0.871834940492778
-0.720739574813916
-0.364094168053134
-0.541710498820728
0.777146757365565
0.297945650673748
-0.384331313973717
0.541525984041805
-0.732110251711732
-0.674050984807066
-0.966766654935449
0.50348560522004
-0.679981642160413
0.228425824978021
-0.937670290825573
0.186554947660395
0.501793272575202
0.344166961870016
-0.617410409650578
0.581301834086848
-0.407361112907432
0.13684932005648
-0.92775779781898
0.215688420258645
-0.892657530879992
0.140756120578463
-0.312837766587357
0.491763959635565
0.799106841713533
0.167239074854557
-0.180042564048448
0.929426330459756
-0.744504445222186
0.5701688409978
-0.6014442949542
0.990963154141935
-0.165756472404248
-0.0898046164652269
-0.13475012152157
-0.106982359826524
0.394647053726514
0.604205658200737
-0.759406041278395
0.156777768989623
0.670767120969672
0.695694161212523
-0.532151990745834
-0.433445101648132
-0.0452690832471434
-0.140488394479801
-0.617095725191234
0.0498201342260897
-0.00762050222791664
-1.04920026025651
0.740540363097181
0.768043105683402
-0.898259425064324
0.630662140432048
-0.49339714497852
-0.182750613262132
-0.953484976944864
0.746620241885332
0.610519692157418
0.511397860708366
-0.684702511568032
-0.101041575568099
-0.520429357525356
-0.515514195410704
0.748333940341855
0.0512140266992049
0.659447884347568
-0.235790147376692
-0.877564364568968
