0.415408051239036
-0.170894869021316
0.862336002163448
0.0739238467047024
-0.189840160417612
-0.594948456359964
-0.62878605121637
-0.900487946583046
-0.986831532391801
-0.590739568159982
0.417557384486233
-0.343066819161875
-0.777244489418118
0.146564080818699
0.0445073474793488
0.0399328012353341
0.205454789119352
0.444563369996554
0.87000233104113
0.70465273326645
0.435626001212732
0.82302589780058
-0.617056570439645
-0.129068510494182
-0.570446434733433
0.930217228656031
-0.818485273344691
0.720752494657635
0.809874135805023
0.841668665935131
-0.0878525349498331
0.523423499371783
0.150697664765805
0.948803849795135
0.9365489314894
0.0755266848998944
0.892052342401648
-0.7521033540318
-0.593686527558057
-0.550335795122909
-0.246952089075825
0.745897006970857
-0.705924643842291
0.160272360496121
-0.207716863320547
0.193831717036808
0.562936933613982
0.242343702193299
0.543780705296437
-0.91565338879829
-0.144886611068335
0.0174071205148107
-0.420667917878222
0.895352810330906
0.880105629810468
0.474637113602756
0.6865932117859
0.0864375088233308
0.0174888499346847
-0.0227963979505216
-0.738448520615764
0.881129859813368
-0.384806039318048
-0.567323452620797
0.415588820259365
-0.0533897703606707
-0.749724545667303
-0.729058180775017
0.00320566044600503
0.394349916316923
0.334038937662988
-0.509680874791829
-0.27148941693888
-0.994043889530206
0.137241596223829
-0.83961961847028
-0.867292144752987
-0.0103039480502276
0.811930855158959
0.416518741792326
-0.811858480636839
-0.014314062176171
-0.670188442505756
0.569523029135946
-0.893888185933979
0.908361341179292
-0.833469516773239
0.25493199934716
-0.205752802131052
0.0614311297141347
0.264099505903476
-0.104185413066048
-0.957892499026741
0.583711095436014
-0.839491753542955
-0.30510266613443
-0.235203959751657
0.0333493376858434
0.638741385211336
-0.863968818377034
0.162847856568166
-0.104847545323943
0.72807871122179
-0.645943846919323
0.0766292380844897
-0.871864086567847
-0.937375152879341
0.496395175742793
-0.262919977286976
-0.0646701873103567
-0.265915256213011
-0.628673867084882
-0.313506772564418
0.30623877255505
-0.950341190717407
-0.283115218741742
-0.0439464693964656
-0.165666509359642
0.737627778087643
0.470492599020422
0.966570902403951
0.298611063175726
-0.225404274434145
0.256603726371343
0.252250837998022
0.719997887296565
-0.827512118005067
0.551962257541917
0.237994934283797
-0.678184961634898
0.506322410907712
0.078704257994499
-0.732429308745375
-0.113928743174518
0.287809293172471
-0.495912165915946
-0.470611001537728
0.929560803311401
-0.204933732658628
-0.643452714581038
0.325479780156855
-0.286525828886922
0.498975596409936
0.798981050444732
-0.356517421031408
-0.645235842259384
-0.836994559431302
-0.395085251962455
0.403660339330195
0.955472743661545
0.866824867770657
-0.807523600963669
0.456458674727855
0.305174196434876
0.311142243030561
0.102107212284286
-0.66317510293348
0.337579683604957
0.42640613533756
-0.0976075291401313
-0.518822020363542
0.816741977551682
-0.154009713629106
-0.186726646205121
-0.847466378591438
-0.855860129854361
-0.26057840105467
0.756906854802835
0.491088003899048
0.325299820664498
0.319640988427729
-0.929825005755214
0.0186225107252418
0.467080628618171
-0.107600690217352
-0.39348897876132
0.0448025279146538
-0.597208765763561
-1.02764641083745
0.408204637979537
-0.253203441800505
-0.317225468068616
0.26399940129786
-0.575190379790349
-0.449679789338604
-0.0712778307519789
0.437119501654945
0.186767698676288
0.539271407609135
0.529078635387156
-0.943020066587515
0.955185655400211
-0.861176526878131
0.30688049751834
0.494483953005292
-0.205174499459701
0.45683307775322
0.58654247873879
-0.898856331911047
0.560029922920494
0.624857244479591
0.960044208292287
-0.174862071655207
0.850476476078882
0.468867763160687
0.125089334133429
-0.141402855530342
-0.617380005117099
0.341009566979601
-0.224507735915592
-0.944773991442012
0.789730643007452
0.344507989061756
0.117169059195406
0.92734726448183
0.874771085652867
-0.977465429666918
0.243775173918398
0.767535890223566
0.812686932302285
-0.832992684679546
-0.534544910766291
-0.259321266382102
-0.320664846038789
-0.57998627968285
-0.045152523412246
0.813270592080561
-0.446183597546549
0.00802017318386293
-0.723019736702571
-0.220549970412926
-0.0392219920440776
0.93633194751986
0.178887259239117
-0.376489388556386
0.724045926624339
0.752509895573037
0.812234052792356
0.249698437893936
-0.502184725533218
0.959846671732797
-0.784770490843387
0.670201595854464
0.784938179493851
0.935299546671918
0.2755869447627
-0.924094710720357
0.331851996750869
0.939779147649405
0.0510908877847133
-0.883494472674187
-0.416572644510222
0.492086583080498
-0.49566451787799
-0.654053994358589
-0.824185181045672
