0.369547508007193
-0.724091088166694
-0.0579867460453869
-0.406727791645793
0.190048665860672
0.0147699001997009
-0.167506048069085
0.653248534702023
0.0852367286121189
-0.720488475399393
0.479509884247841
0.213616059182412
-0.925388870413333
0.800929058767051
0.544845648397022
0.740062713642023
-0.293457199725064
0.642075756189612
0.970782984834802
-0.620588288900678
0.641497414352785
-0.0655661707152125
-0.121223737113686
-0.45984300535635
-0.441439554025242
-0.697597924951142
-0.233161082648255
0.488058815397743
-0.225325489923581
0.871289656113106
0.60627032825806
-0.0301383068974849
0.332475923482351
0.843251599527003
-0.1708232827475
-0.0654417955184473
0.680203926057292
-0.488271332427959
0.642585325030993
-0.54330392624579
-0.262093257368336
-0.874783336547483
-0.727060863482319
-0.67939341118737
0.217090452391719
0.698796899428124
-0.2108172948057
0.358325224569436
-0.241466397681379
0.853217710476069
-0.944355812268454
0.435291135311659
-0.830712588081292
0.982646935094585
-0.90819337496913
-0.361639400277021
0.797989589102405
-0.159458282899982
0.924366906383229
0.424932352905982
0.69132660069579
-0.44793122705973
0.789745324082606
-0.22155864654074
0.672524900631755
-0.894406920312584
-0.430090772293273
0.0773787014705235
0.822704636249177
-0.825515221930711
0.889676317701228
-0.778384381131613
0.839919465327017
-0.358138462047315
-0.232176017026624
-0.920505629020837
-0.651406244678685
-0.977672541023431
-0.804413983180069
-0.741127530764428
0.289982836433051
0.895082286769001
0.450044326684621
0.371197846236976
0.04979997795904
-0.0428750342924286
-0.733955290703193
0.126957013788215
-0.894054871351299
-0.0173308977354066
-0.218122896823643
0.357552167583426
0.77656378178772
-0.144050656636991
0.0895565574344528
0.679908518173641
0.258930789308151
0.924581634382594
0.0678710967360814
0.699984555488885
0.102049226160652
0.124578472681629
-0.471247246232471
-0.0336262624167739
0.0134377277860202
-0.277718540225395
0.375953548807123
0.96172486102389
-0.189669877016879
0.351420515298074
-0.668968000067825
-0.711857586029425
0.884546343189021
0.952503452099279
-0.541481413103823
-0.604316721357191
-0.750308985028241
0.499462354554072
-0.814000331052514
0.675724377895256
-0.00912152958343414
-0.893992730935314
-0.552456675068459
0.4223928834358
0.179070316803756
0.762809788099539
-0.995750130721278
0.894782193014025
0.230358713083113
-0.35685980863612
-0.526668004433928
-0.634370072021092
-0.714822783612299
0.958376380770235
-0.258218257305159
0.439701882675832
-0.411396216431115
-0.497836159465621
-0.959111712067046
0.45924920236877
-0.938249572849587
-0.317190842305015
0.509271725356613
-0.200310527370822
0.506289753175137
-0.179658730371702
-0.130444199911095
-0.23342012251454
-0.486093519828718
0.733438578971653
-0.855881425294222
0.640611873838857
0.902634187370056
0.818265650313102
-0.52782166980366
0.168625419313186
0.773487528176541
0.0552509467253955
-0.593890601698191
-0.607214143477073
-0.834818937866739
0.860149861380822
-0.0373377457637831
-0.155644075254486
-0.692826288058572
0.524709024150857
0.279688994047103
-0.463918211146705
0.189082854631599
0.348932351918712
-0.419314031772313
0.823661117210488
-0.970648053075791
0.115123145303861
-0.162249571847764
0.806025194417416
0.814141434632515
0.767998669876219
-0.731106829345639
0.653994266769009
-0.00631058957180326
0.315726488078957
-0.590120460043766
0.503462836757456
-0.19299782625324
-0.568649624689428
-0.427594268394688
0.861262629577107
-0.860495570973472
-0.00448804982566853
-0.486596339503029
0.29713309150784
0.441442120548767
-0.323628551294515
0.528372657413065
-0.193892522042491
-0.0959050837172566
0.907344839975737
-0.4257706599726
0.40307553493613
0.0351525860245172
-0.34806222878961
-0.997688218187254
-0.0718958724257342
0.355324187408809
-0.531068428854999
-0.181544062975622
-0.723136316131419
-0.129714338412172
0.565421567075091
0.890445692891022
-0.292163391488044
-0.924406038025222
0.876074293850544
0.210280107108993
-0.373631112333247
-0.432387077482463
0.131212468813495
-0.660530581333513
0.358649174777802
-0.77424851055176
0.788078438933394
-0.640297964988006
-0.274210766041553
-0.88196382586628
-0.148261680851086
-0.018516431206397
-0.411771704479368
0.618873452215744
0.461196220952689
0.896221818161414
0.253820827472625
0.500938442733833
-0.900683616644144
0.531746169420679
0.475887052211422
-0.99428738846915
0.347041871957496
-0.0884951820842531
-0.190490714538157
-0.331954364625716
-0.912178912116471
0.883118392464224
-0.973111502542563
-0.955304386163084
0.725096376227563
0.125977428043403
-0.587633824164759
0.0233092921965833
-0.852371939684336
0.584729354696708
-0.723660305181622
0.568438511283742
-0.0104585003322637
-0.505483260406937
-0.113476348641669
