0.0982467069224918
-0.901303179228794
0.569282517463319
0.518554721656543
0.111553441360019
-0.0883924535197436
0.6150688007657
-0.164638526277472
0.886000663690752
0.646060660905871
0.769602081213775
-0.323163132263586
0.87248861748976
0.896368054057086
-0.470850789126511
0.158629682058316
0.0409112767242131
0.254057145926193
0.0653231045581154
0.904033412673123
0.660401567947935
0.914272113797603
-0.954491776185153
0.0879565066384499
-0.804004299466119
0.43376356033811
-0.557047095513283
-0.13490985574652
0.137285357653963
0.144846459724394
-0.565373609137409
0.411536257743553
-0.276390921996635
-0.0229843461029515
0.491206579584926
-0.285831572280859
0.391831954973477
-0.575824531570769
-0.714802606213777
0.400351121941683
-0.588099627767183
0.911138240456797
0.985840431214748
-0.242025266099602
0.637569063857142
0.809713800582949
-0.945407310884707
0.00584404752638993
0.890249671370882
0.953064264506447
-0.683959058949481
-0.461809814531612
0.230473044866831
-0.400410735992975
0.380875899624659
-0.992213426953379
-0.00647956277417048
-0.0590576461247985
-0.65497151607206
0.761017859574903
0.881759900616395
-0.662884870350768
-0.366600704121427
0.691230370568683
-0.435783122331824
0.296866555776064
-0.0922793724930632
-0.359689280782918
-0.671870556134833
-0.426895589716129
-0.317320872890861
0.281270308596042
-0.542941337389636
-0.217627300429829
0.788216347893083
0.477848270204836
-0.810752804347654
-0.833003546080043
0.817645791686568
0.18016278989437
0.793444257758697
-0.488103828870267
0.874356216027597
-0.93226837746131
0.354932301340873
0.112626082810693
0.898964360641928
0.975184302916896
0.98289617363235
0.0319709725172292
0.924148934275021
0.952978030079972
0.52463652294665
0.784425882810006
-0.0217267150303244
-0.596243408924236
0.281921336193977
-0.132823920173044
0.257211731040774
0.227960816629218
0.961781907955678
-0.256362022918195
0.897846514694671
0.656331629354588
-0.786268959195846
-0.466346515735888
-0.45478533076224
0.454095906551646
-0.847993372249181
0.926545036179946
0.939098712550485
0.0575374934865777
-0.901993192953666
0.889130499741638
0.59076530809889
-0.490353127123865
-0.263516448257356
0.47670052729848
0.0714913395823091
0.654034229832844
0.57140610298231
-0.222661980737456
-0.439753649744636
-0.909162750238581
0.712900470605403
0.241420618575101
0.869699810749222
0.553861079623942
0.286557407484914
-0.776408143166161
0.0756563505013132
0.285118643764478
-0.874799640673576
0.734147392087054
0.599657648976892
-0.0127638944325994
-0.720319000482888
-0.612093725410984
-0.344209445244139
0.0704039267835625
0.81205519358897
0.187665069910875
0.797638162774539
-0.653556035814006
-0.197113344458278
-0.630683256791825
-0.740163411037417
-0.782387906171879
0.660188753384503
-0.0988482406924272
-0.693157252780711
0.61254622930667
0.200021380258673
0.700193910469283
0.240522968361549
-0.46754681405858
0.444849545134238
0.365839038447632
0.438856834434903
-0.819955276205576
-0.535581582371346
0.165035499378093
0.625921774873018
-0.616174692818546
-0.0579537738478556
0.23550578833654
0.0301830874577459
-0.228685602618923
-0.390694319110979
0.800277446908484
-0.523980590192084
0.398264686074403
0.0861887521458318
0.134350319995211
0.795650418178521
0.998921974786899
0.679813321169176
0.358585553517924
0.978099129457796
-0.132459994017641
0.951149920334192
0.989703040963988
-0.0644393119660829
-0.986681980837666
0.548372037161527
0.291432924658679
-0.745258128611243
-0.0978768897340241
-0.968493178747476
0.482738101852179
0.529097751142057
-0.804451641380716
0.73970803090543
-0.326687055510513
0.265030269702016
0.290116465656101
0.224630461879229
-0.042994558067763
-0.474296554325981
-0.911926316749324
0.206005210342738
-0.793704497550079
0.770877687899355
-0.352831964536253
0.45755824104428
0.0948490483875941
-0.0293450750512085
-0.62920396384203
-0.38110501268912
-0.264662503058246
0.667047479291592
-0.797264732380801
-0.260015757496287
-0.530912899294047
-0.577769510576726
0.0634137065598583
-0.17809368365415
-0.6665953474269
0.582430506327914
-0.925535618660278
-0.775971305133663
0.207593716438661
-0.567116577758941
-0.327081458484307
-0.680126673414227
-0.232062335286007
0.985770688489793
0.238231712026661
-0.280813206700669
-0.172544223666834
0.117056794652096
0.494551443235941
0.798666060180402
-0.967043588639588
-0.872364015779494
0.277251144810776
-0.832062530779635
0.452904986376341
0.213837466543966
0.0961028641980913
-0.696489928856335
-0.122088794385218
0.764207366189087
-0.0368883058162568
-0.631349039213403
-0.960774842422056
-0.502168712404593
-0.926709893523069
-0.523676509951707
-0.496001568117207
0.316734905739553
-0.585709020812495
0.256566543748733
0.139011456710768
0.106265088146561
0.0380643374192887
