0.23618238250077
-0.214023517052193
0.585020353832533
0.163042395616999
0.296573727878521
-0.953090509165795
-0.894197967108614
-0.502895623708306
0.865781922032475
-0.789951312141699
-0.859500988081895
-0.640983958471677
0.95098499648362
-0.118767671437299
-0.770062676553932
-0.362035188998193
0.232805185940414
-0.916996691126402
0.99490328736011
0.0823343171358739
0.312866969080585
-0.990735685003784
-0.992293969451288
0.868460513869582
-0.619888786808973
-0.273519676060189
0.406328124369611
-0.105471374018039
-0.965953897708017
-0.223480362907767
0.656366529896756
-0.216419604853224
-0.253927601783503
0.600265762825102
-0.207364412697497
0.0826911128883807
-0.0825557866441571
0.339920225377645
-0.0118131718238021
-0.804326174697887
0.400311370207524
0.724396611462013
0.302580656029313
0.819203404138628
0.364100549091169
-0.999632759379282
0.170633979845413
0.691130126459986
-0.106075219451983
-0.684409849493286
-0.118438778496286
0.569217965622169
0.349950540782799
0.643323104008769
0.074317083782927
-0.197498652788798
-0.206716965691817
0.47551711998646
-0.122160676161946
-0.86630943393679
-0.216452897884945
0.119519988101652
0.416793611201554
0.152272142484885
-0.686045113637146
-0.192963287772927
0.708840007942817
-0.763025205516717
-0.39602484422824
-0.950584767270136
0.594326727084184
-0.848461949890453
0.761611438619058
0.0327440064009822
-0.11855533399143
0.40301983924417
0.524014499705639
0.406946498384934
-0.0587157986732562
-0.871873406169488
-0.0448135933923838
0.814160283369432
-0.700618233270584
-0.274021740820482
-0.1410562983862
-0.822384195496584
0.0649729212079792
-0.176042585196639
0.0464262012100722
0.656308974613268
-0.835063315206528
-0.130019925770785
-0.483587934798729
0.852098246660747
-0.696074674447545
0.0932152703714134
-0.00789998857364372
-0.753870864611946
0.978555125084978
0.877101056412087
0.494903402901872
0.993667735578751
-0.0585726541463528
0.195461243904081
0.350636086276125
0.021474670097895
0.0379178688052569
0.571152559923864
0.769731308010506
-0.534568269020072
0.345192429533898
0.347394685116629
-0.622664018144682
0.902753466873188
-0.547447018238902
-0.675579044783995
-0.69775195294914
-0.731690342068701
-0.535379225389397
-0.1800172420937
0.284679698622116
-0.288392487743571
-0.0184640914771872
-0.486566919991843
-0.918815187196798
-0.374304411338087
-0.940369967339224
-0.326680602736143
0.855801549944838
-0.0195198403927866
0.105420741676581
-0.283321619226345
0.883201280500323
-0.246957130757707
0.882874259653134
-0.874405631395918
0.0836189140941162
-0.86675199542771
0.24911197574108
0.191697785006504
0.00321169257686874
-0.859908097908826
0.255864231288562
0.603516832438243
-0.603371187199953
-0.708183389719973
-0.771406959543408
-0.909338889703987
-0.56882161345909
-0.759834643469314
0.792490527717936
0.194422599704322
-0.0504862858158617
-0.782919335783534
-0.117326359136003
-0.286469847034023
0.0216069033797542
0.0940432160940453
-0.901232395125506
-0.472424471948696
0.360903632997792
0.250797654431396
0.138319203473697
0.529302807644294
0.201593601012278
0.494171675302512
-0.0316203506692971
-0.145732108745372
-0.60487238058647
0.382514322074602
-0.032122776332237
0.720851911492817
0.974650741643258
0.26949710737421
0.344171528584775
-0.687215366653127
0.36080790855007
-0.0611323382440915
0.410097021018357
-0.902230303206733
-0.660967562583597
0.541763138726286
0.643322171458533
-0.940237483917396
-0.58489235058413
-0.533909008334293
-0.651062321179537
0.874882415449874
-0.385123275239207
-0.910731148798774
-0.398997117529501
0.403890376910944
0.449439594211703
-0.349524521623546
0.421557433667653
-0.737984438765654
-0.0102289885483215
0.728587531711876
0.230923205656584
0.254689892062917
0.488778392038351
0.556106692020443
0.0605821435661429
0.616521089893297
0.554886805012822
-0.23940617472606
0.316926556253844
-0.677371779276711
0.542831680114187
-0.810142167523413
0.311792612016977
0.633184929648716
0.434085128484296
0.435936664794748
0.444229540809665
0.80772809142589
-0.0674677843017529
-0.086912132671221
-0.483809674550686
0.285295837421582
0.98482827113157
-0.37031635317046
-0.450558643519398
-0.958954349617395
0.480644806555631
0.436479605320877
0.527997666675105
-0.594190069707627
-0.955023553223548
-0.945478200498396
-0.426346248999721
-0.0103500453330266
0.322293680415149
0.25912968221281
0.405030230628197
-0.927137535335476
-0.630966515180588
-0.448003623729384
-0.0182930728391782
-0.47280718317658
0.0405892943517768
0.418895331072564
-0.145091404081604
-0.588513101423026
-0.747693455519211
-0.000888855838537778
0.805040398951734
-0.620898304580718
0.723863201530816
0.579399331372377
-0.290966894172166
0.217816754534737
-0.788288267764439
0.100198477705509
-0.888143688750396
0.700465263175223
