0.851589578716061
-0.887916318467878
0.650703765232575
0.54103721040468
-0.380820337973412
-0.692322216858674
0.642057816255984
0.950684439465385
-0.110985642376052
0.933686161626052
0.0782525669672668
0.147062157693221
-0.855033415196136
0.34340669941684
0.0219417454056956
0.854601886576207
0.795724045783441
0.214038823279015
0.419012218814954
-0.034863727219692
0.753978457360708
-0.0327837429888501
-0.542342052276499
-0.0963643209486746
0.207117482269004
0.196071442726937
-0.997064251297171
-0.95847329846897
-0.0754366843843139
-0.30524756442089
-0.862495232805389
-0.984907136665297
0.494643829181502
0.536944188402161
0.3051914783719
-0.0200567160462009
0.335281703331866
0.431038916461117
0.964511942673419
0.981142740661182
0.843083530703137
0.472707448185011
0.867574153677611
0.20875680009913
-0.527959047147636
-0.0771381312774675
-0.192610048426537
-0.0607778737212683
-0.0448139729754799
0.359171308546459
0.427968841912546
-0.256164789540274
-0.834067383629728
0.805070940215373
-0.856629582153889
0.460510020041786
-0.991707553794402
0.854834619875355
0.497574542997071
-0.120613020103665
-0.717010021907123
-0.387792848093098
-0.0077207197205682
-0.635991222074262
0.833953672105529
-0.346619409799868
0.193607979730669
-0.217430659812007
0.859281381716209
-0.92220349988219
-0.482448440901805
0.643702980059967
0.914662146790718
0.00285226761170682
0.389453555479865
-0.214351542173394
0.81028654586996
-0.949519797167646
-0.287779371196974
0.338731070764337
0.586121565123132
-0.42413108859239
0.749492939984587
-0.465359181031011
0.648247439215736
-0.174786587953382
0.0499357954764092
0.527527417608512
-0.610736591011313
0.692564305922586
0.81047611143075
-0.24303733481782
0.550834552077858
-0.689860462131263
0.452372788946988
0.492613697321947
0.105784858887912
-0.050603447853649
0.0779320410161958
0.707320775129626
0.99336932545835
-0.225299440436483
-0.833330205744688
0.862189389878219
-0.939917939177852
0.19943732942171
-0.949133342335299
0.445692609684016
0.477140833673738
0.896547975443428
-0.354552392989601
0.426077493217879
-0.0179408218862068
-0.638118094316235
-0.654878707202601
0.308300849811113
-0.522507633236616
0.0986652978713202
-0.023532854990212
-0.167828577246012
-0.447034792970363
-0.231345008042988
-0.975147314116321
-0.931783434303759
-0.87488452917929
0.289162390192514
-0.993228593056794
-0.598165231104938
