0.013080472427241
-0.434828738656769
-0.555124911241036
0.21700732381016
0.121475307409235
-0.0718302872980365
0.282120132002519
-0.787348177846248
0.747369352189473
0.68381356353711
-0.125729861357678
0.545385407899681
-0.586061879500131
1.06441552530275
0.837667901863688
0.457522029215877
0.623613854838819
0.562490636510426
0.15307428489057
0.0620771346209786
0.368031021578776
-0.175676540970774
-0.619657203311286
0.960878662641251
-0.503596054812884
-0.547674700572517
-0.328990725580664
0.816395122953795
-0.231573249285105
-0.858073646153587
-0.679257296102922
0.823713159614765
0.631158186822428
0.255257601606245
0.984052061570182
-0.0524831639057274
-0.328352175422239
-0.174807805650338
-0.429314266905758
-0.168259129342234
0.719521305710401
-0.504903578766611
-0.823647756628664
-0.527798794986345
-0.982688638030995
-0.747365302210636
0.750976470102947
0.752732441264682
0.535975577231102
-0.37663029738748
0.736387782583476
-0.849925138604217
-0.745901330610305
0.58037195603522
-0.95182137752035
0.0506716158173042
-0.819797841811624
0.820442834759027
0.656955222423968
-0.447510596746957
-0.378630610119816
0.869120774623003
0.136136352975701
0.088619714872998
-0.643560162561738
0.676979228072249
0.668852518152793
-0.605411251034461
0.0661137844770006
0.654993377622588
0.332033584184728
-0.987535640591958
0.200423044120067
-0.120112006285201
-0.784108216443361
-0.53397945550588
0.637134208255397
0.685278264271618
0.184357821048247
-0.137974550880599
-0.164966491488909
0.776306741144566
-0.684423062208887
-0.353081179938416
0.70690799173587
-0.367898827122824
0.837079426439342
0.279608002494712
-0.167877415762824
-0.595466698430907
0.543431667271957
0.517555568287047
0.0358402461456027
0.842075530671857
-0.11236135799045
0.949445730675155
0.360184324324
0.748583228775221
0.15782189495148
0.0577711392318446
0.615508537130598
-0.923242455783109
-0.285181348502418
-0.203678873281816
-0.00293604647179629
-0.0176149339765643
0.428817439721191
0.624204058726933
0.0757153650229193
0.964290775052148
0.300886527881036
0.0950566882128581
-0.731185177344457
0.0401129544281332
-0.400711876996627
-0.683823891303526
0.576450768132853
-0.270884293179971
-0.459628439297703
0.803324015386333
-0.180514742878887
0.783696216087858
0.712393238310337
-0.567411210817763
0.49665295301822
0.0465501430325794
0.752592494213705
0.316895503275356
