-0.0819530154613082
-0.808486505980681
0.657467110316969
0.157640807704434
-0.976824048404694
0.686150298165187
0.854453320120274
-0.418351872971147
0.767887637208428
-0.753178315976757
-0.865550513623477
-0.280715221213296
-0.755409549584232
-0.161553193236122
-0.86487868969935
0.14836093985956
0.507006532382581
0.146774820003817
0.784785028947823
0.407676655090145
-0.94836966318154
0.747406728147667
-0.730398735989473
0.288609119899304
-0.488877789919827
-0.513510265208896
-0.0779439281655596
0.223742479844551
0.672003564658983
-0.700365214321203
0.635025148522485
0.661583724973116
0.511739914984699
-0.981169309506751
-0.108054043519652
0.39252439038362
-0.942302029324658
-0.304295458226144
0.879381836605346
-0.445733320235254
-0.784804317394404
-0.513952089517928
0.294655606603593
0.236302843508345
-0.853825695965219
0.985473108591276
0.766106880011626
-0.474725859889666
-0.901781163299872
0.714307938811923
-0.537703806701435
0.73935689034714
0.653216902980702
-0.748206437701285
0.164533332244986
-0.504679645235461
-0.407073049578057
-0.237290775701967
-0.570881792610907
0.683532039073471
-0.664802315291882
-0.58545135774109
0.621778484455489
0.706071630080732
-0.298045515510433
-0.803899050393371
-0.491819263919621
-0.945071465833303
-0.434918701691286
0.679071586989514
-0.174872766362865
0.840775912431109
0.593576341424658
-0.85128764561142
0.25315799723478
-0.168891590792369
0.588732796639415
0.314630616690158
0.417703134210304
0.529865979815109
-0.713658566585808
-0.0847586874568437
0.65454236321473
-0.202554949964892
0.228967853811422
0.20185186107547
0.0318420798426514
-0.833512754220288
0.588910148102972
-0.146687852154873
0.364495893630641
-0.894628165931914
0.686137101058669
-0.259376155267409
0.0471078295158777
-0.747392940168191
-0.52148394891331
-0.665092702241275
-0.721216864575929
0.571734141949507
-0.991216548119139
-0.989214871260395
0.629437550039636
-0.331176613550546
0.403440483406478
0.382384820530574
0.604918621843249
-0.816730311180337
0.46178868089937
-0.707770901220373
0.0805459179445904
-0.423074903133296
0.118639682133359
0.39851098498526
0.767645446657767
0.339262179680164
0.38446085937045
0.165841485032057
-0.834100283920877
-0.714592047392024
0.289468527612361
-0.978814303758133
0.731811643202818
0.64075840811192
0.24122790554827
-0.0649464849458114
0.741888037117575
-0.615517568319154
