0.759617358837188
-0.630065702924824
-0.286359881414941
0.117421135094399
-0.18946698787019
0.458095647501855
-0.705018244160077
-0.768140319375633
-0.587249402626316
-0.93764801034949
-0.573394773776219
-0.202288751733276
-0.0403985349611734
0.379632846969012
0.46248422213297
-0.68480205120463
0.592866264005191
0.179410261639773
0.120500149908836
0.35683335058788
-0.100628015904914
-0.24571849897978
-0.130754934751719
-0.477947151595042
0.621266264247036
0.00913436315089756
-0.688527837560676
-0.081033141441872
-0.308441285839441
-0.567966899792025
0.372416061759862
-0.76268449662493
-0.627354587578141
-0.499655101983042
0.941236907619591
0.749148667063341
-0.293978705961216
0.322211538881829
-0.0928972575442136
-0.173581743893267
0.466278120803187
0.530430312147909
-0.987239247787241
-0.883180440340065
-0.477001892994299
0.0294980884956675
-0.868600525055446
0.525257676317406
0.16872809629398
0.443916759564381
0.217831246737987
0.657628249233244
0.89184036655963
-0.715920327218704
0.245582661979382
0.588436871368557
-0.545414973626929
0.494931288622885
0.139801844961049
0.522151832259564
-0.245645362930644
0.797917453249664
0.238593237380224
-0.279536317202876
-0.344717990072096
-0.19400372229662
0.733563421400473
0.421937153953917
0.371902786359075
0.158991808197597
-0.841607943653953
-0.267833586542172
0.333492883316468
-0.651316863605036
-0.487125490716475
-0.0940418982496732
-0.145724720595336
0.571583237271586
0.359262023967799
-0.538065316882927
-0.0864651458058338
-0.923733488246814
-0.994261918289407
0.175838514076782
-0.620010269251032
0.189759270923055
-0.908074254966767
0.826772819085797
-0.544647178537775
0.936288432668104
-0.987659128092199
0.112414797858823
0.260069809621842
0.299687683146473
-0.313555586071446
0.57997998072362
0.609535090180365
-0.0719472984037183
0.231337261891234
-0.31581967214455
0.478832570966424
0.59415112772545
0.585556883809437
-0.282819170808801
0.211510588443004
-0.0972860786827163
-0.303137398601261
-0.204490660342433
-0.301668548836548
0.0102119142565969
-0.280591072756409
-0.747389874847279
-0.605395064983382
0.850996272799708
0.203869439696208
-0.52225903544387
-0.53076075124731
0.455927778144227
0.385130495216165
-0.379654527624332
0.952408061151801
-0.734093590703188
0.970747499143451
-0.0931670364833466
-0.706979871295854
-0.40640650629405
0.272220277514029
-0.347253966861852
