-0.245234614957187
-0.430484466463294
-0.0496304627784412
-0.390843216910035
0.873510119435357
-0.716922736328157
-0.980184332841426
0.239389353653387
-0.992132314317214
-0.0993471539243547
-0.769847629746832
-0.279484099475136
0.787598695705942
-0.217713221800013
0.225126014029527
-0.135075411049194
-0.770794095204886
-0.585950875239458
0.973006426998613
-0.914357406020272
-0.609736194311643
0.983195296305838
-0.0678451120509227
-0.879886600690372
0.878159975493369
0.594580260374332
0.477722618721189
0.849451285391361
-0.307506567629352
-0.439229689899226
-0.560721475877588
-0.539034575541274
-0.832471190277175
-0.975999470560428
-0.881171187496116
-0.824960026023787
-0.280822339287953
-0.607894366068897
-0.951189733110532
-0.615904033766209
-0.804868355887669
0.131549980781795
0.426822774072568
-0.290520784689471
0.230744526668112
0.856654163355409
0.781598400002586
-0.327303828293636
-0.745053633736966
-0.720623340735614
0.565264605048187
0.954102827460406
0.449304985371711
0.406438246459253
0.979771288066001
-0.627588742804487
-0.790889089098942
0.762142324285286
-0.592114193080863
-1.00497632432132
0.580993847146027
0.148477748330659
0.901750068304441
-0.913256146329449
-0.981064155493554
-0.801697301677786
0.376291822215197
-0.07225889200449
0.106363660058619
0.478320853355727
0.297014115909198
-0.863907224936573
0.438212577050758
-0.447159207426286
0.458914396254608
0.489449147329686
0.71936386710296
0.327028129895647
0.174818641580969
0.410809644033419
0.239698561309877
-0.933300556291981
-0.151885373708333
0.557002629574982
-0.821478005892052
0.715391447736873
-0.447559112803337
-0.310073482743808
0.743445200742972
0.247969773082062
-0.871738768147248
-0.657970919074395
0.0169216603235018
0.00882322758393203
0.415365128770243
0.287923040502551
0.309348323685943
0.338100293024903
-0.908742802696316
0.703513348825909
0.134736096655583
0.585343654793202
0.162576450575986
0.797339982679636
-0.260316983298818
0.0599580243975152
0.859243864001318
0.373171075229923
0.703846002832073
-0.597527184485375
-0.44694048598716
0.174094918489261
0.619573223224657
0.910574816735811
0.879760018580425
0.798274274063005
0.445738957151938
0.843342446173312
-0.748614658220848
-0.0791155660442343
-0.529354641020924
-0.998891148623661
-0.530220512716258
0.870923890851007
0.229382247932448
0.164521291121755
0.779472129245469
0.774558626080799
0.76101894239985
0.672134439112312
-0.620889756947496
0.537281025068498
-0.658048735127591
-0.818615609869061
0.442844631874445
0.692722932395181
0.0788721290813085
0.615562881607149
-0.725524889600735
-0.92726672861071
0.360511739580852
0.884061889730758
0.870053134893562
-0.974630055334197
-0.124353051231452
0.569407331982703
0.605425668543794
-0.468214421313165
-0.174128993776033
-0.198740504324422
0.674874918155704
0.171428436425945
-0.028841205476644
-0.77223169714727
0.798957971595211
-0.259098221222717
-0.892260735277309
-0.886903983354213
-0.404971237050909
-0.744826042725505
0.494746773920039
0.590982895836002
0.536124647470201
0.117003715279826
-0.48978431140467
-0.878254615525413
-0.153522462637583
-0.145233007660881
-0.423326646622632
-0.8970056409531
-0.182496418688691
-0.903192904375442
-0.36863899307586
0.272813436484385
-0.263439514329093
-0.0559801672792193
-0.769892963667917
0.343393692445391
0.116670722333943
-0.695156459806341
0.486547641241484
-0.381243522876543
-0.0402332113777036
0.743626926922089
-0.3939897766043
-0.50227224319602
-0.71949095990879
-0.811350885177185
-0.121348079056677
0.660920528065083
-0.734502937136121
-0.0340441919768409
-0.958266279886712
-0.281414809779368
-0.12124677502739
0.229760377829369
-0.456933735542654
0.239366559735391
-0.422159880576923
0.970246110706367
-0.354647478392105
0.549870625026191
0.746816659439565
0.734448341211243
0.704883493495658
0.717969950553139
-0.430109636551638
0.19863280132225
-0.0801949853260975
-0.606444707520554
0.0459634462318048
0.406527828405397
-0.495655822589485
0.0116605160686825
0.66117038470244
0.505374323949533
0.598916194159836
-0.0707132535262952
-0.0248477030215782
-0.791349366863454
0.558808059411684
0.323399073643525
0.514264946675707
-0.793530132405902
-0.451643689739564
0.487812052752124
0.618253848276197
0.638298199987577
-0.048496518868607
-0.598663844492256
-0.683883546029033
-0.92718224689157
-0.834746063341633
-0.956763653780389
-0.840393297749766
-0.563427516231314
-0.139524812788592
0.371115858905136
0.656116742317173
0.16246272512094
0.183556485904825
0.0588503309841411
0.399528366119193
-0.639894621280711
0.0318855637662003
0.88830310758648
0.0722841759861537
0.975235303009641
-0.028773393495806
0.704245809259634
-0.87225801927441
-0.741003299803038
0.0569292415464681
-0.526952974594359
0.153310112460931
-0.169884148984147
