-0.443678373619662
0.823763205806509
-0.208132887973966
0.753752493568438
0.709411730079062
-0.339237300042702
-0.212081013095361
-0.209579744512921
-0.233940590865099
-0.326743287957451
-0.36127998749413
0.984934917267367
-0.477420489300481
0.363029168517702
-0.593564409043837
-0.452857683307279
0.718877820389783
-0.00693138241769427
-0.139083280181305
-0.665602160552806
-0.206988512155605
-0.746084772883659
0.104248587653678
0.376356295991946
-0.147267001566162
0.276494964588877
-0.0230953181023575
-0.520709975235177
-0.238347977469384
-0.947547044767413
-0.906142612768185
-0.421594433695325
0.637347675239254
-0.986464584944546
0.824262685536608
0.42944904491318
-0.415907647899528
0.115810546223286
0.0678870824894332
0.6249715068837
-0.648846014078992
0.176398744179465
-0.650291952605365
-0.522626477520895
-0.560543728929476
0.416896502654473
-0.450866955737226
0.348791430107842
-0.549703630798799
-0.0935493276080109
-0.562147962084553
0.226689616055392
-0.830946526591917
-0.579740277772335
-0.0298887130980756
-0.101206215840362
-0.403658920020876
0.954407826860918
0.778872259126739
-0.713661666053981
0.0693995838339554
-0.711576567161763
-0.926423542995976
0.807412196769833
0.0840373852448861
0.986036171699711
-0.747598874133853
0.583661220725438
-0.139092893172969
-0.409300803191581
0.393839799480264
-0.351116399596409
0.521605236472447
-0.75368972600532
-0.200422653086025
0.94096569332382
0.742260043061824
-0.659871112606315
0.413694654547128
-0.734788911115645
0.810140225331034
-0.707169044735952
0.808431797924767
0.669736974154546
0.801823257994795
-0.612908562142921
-0.597562432023218
0.344063804999461
-0.291283662748392
-0.839433223650055
-0.781254658714922
0.497423096208393
-0.631640590050812
-0.681007088658359
-0.00731798253236063
-0.974418378044244
0.84887369527558
-0.813968778106921
0.64250079893774
0.485660127449227
-0.407644353553821
0.870565409765716
-0.63608600261055
0.234256570129013
-0.577589348523634
0.951088994242702
-0.932164744004617
0.199446997627783
0.431198942621058
-0.266317114810678
-0.213692694223002
0.683669118219637
0.906325759625902
0.789832267018267
0.780677801123311
-0.768886590689217
0.99066017256103
0.321256628987579
0.0841855402701251
-0.0437978599656045
0.531268955725768
-0.914144017517323
0.490812514241841
0.114706021549927
0.50607691202843
0.379340736740273
0.932156751027741
-0.557573007242484
