-0.659008774262149
-0.406082849315413
-0.503597475536344
-0.779499006261277
0.757212094061313
-0.0994942702302592
-0.344529383872965
0.716686220098187
0.940489952263308
0.928455077237617
-0.403199789668449
0.779031094502911
-0.230962857168969
0.974672204469219
0.16814156285171
-0.0849226114123636
0.125648460055756
-0.104374835436259
-0.399762949902922
0.113998440429768
0.274294429160379
-0.483986594750065
-0.230915283463335
-0.694638258355098
0.671939663916435
-0.566171380179161
0.155313916886171
0.572672897232643
0.375156994302117
-0.713694481052831
-0.867627250604763
-0.774799870885079
-0.213428437552086
-0.849632055139482
-0.867471467161068
0.376601148079226
-0.324945967586104
-0.393416121085407
0.612048247256487
0.713015429548764
-0.930522372226267
0.162528431873178
0.516976292810986
0.434458927596552
-0.209830750751441
-0.781339103430493
0.708184988715359
0.486660981006696
0.310344336724812
-0.580970644156935
0.743852892772046
0.246374295064445
-0.999645693837135
0.75077598195419
0.585119652965362
0.756930398595891
0.763542740096306
0.668966061169301
-0.146524933044991
0.0198893825360769
-0.73583156290446
-0.532336546108319
-0.0735585666761021
0.564363180570253
-0.287276430948378
-0.523458331405933
0.989059504519695
0.517412560261853
0.380067152949287
0.806872316194807
0.484195638475684
0.242371801216701
0.710344025384075
-0.942304939957943
0.262421935659162
0.51760749957517
0.294585233637683
-0.914586556911965
0.326175798742816
-0.894279578711019
0.844159571029514
0.224964979650581
-0.894488617919061
-0.155097777032196
-0.0853039657357708
-0.424691801122988
0.0582821632540364
0.234941080324166
-0.961743758726451
-0.850178363171634
0.355359227448914
-0.494690589398021
0.863276696472295
0.600612037391328
0.695305812261843
0.416730397782078
0.0368615819275988
0.869598742432732
0.717410484564297
-0.376719649639142
0.336152304378592
-0.972562428648153
-0.947499589732222
0.963557739281709
0.787439235128233
-0.959593890328371
-0.330241478604923
0.846463534462526
0.347573700547924
0.970000992106104
0.425710126550862
0.097504818170471
0.3236659872974
0.943097735119007
0.552544909917352
-0.87851019109731
-0.0180275103006076
-0.593244475632889
0.251864786405884
-0.700003210965366
-0.750999936227837
0.50483219110277
0.480913903137388
-0.440221452681623
-0.476894261385884
-0.57316557903985
0.654204088567716
0.703341445668264
-0.25105968345625
0.0425149453209433
-0.107764996365772
0.453566488800947
-0.578092542808043
0.0343095931586403
-0.428165236584613
0.938762715420893
0.819285447748391
-0.347388319856524
0.392913294281504
0.747805014652468
-0.29676876800414
-0.169446670736567
0.391811729117885
-0.0633921995782913
-0.913799635031837
0.0258046795188246
-0.613494660962009
-0.732674086108953
0.12678001714772
-0.397317790145477
-0.971010783638377
-0.592168282091447
0.268033027485297
0.56651855623659
-0.157403576734318
0.404973215313475
-0.724202730995685
-0.516639834285975
-0.278345224660677
-0.274394959761964
0.203447126037487
0.797887687225288
0.486382996683269
0.0527351899620094
0.869542298470063
-0.840631133590158
-0.466065069552058
-0.714876403590527
-0.203936784715289
0.230740982293004
-0.477000709867806
-0.127686264078216
0.447357233706514
0.275488857457363
-0.514295370071179
-0.947616967098527
0.897864303233209
0.93989503755118
0.483976826976342
-0.970145723917625
0.461050619562194
-0.0179371728824121
0.0278672028312912
0.901772221219326
-0.747238402856443
0.0881418186578947
0.625316872030801
-0.479702622281355
0.139233061420613
0.594923721222801
-0.506253240095899
0.930267663679404
0.135032722809495
-0.443688261811442
0.099534723827485
0.626942255501467
-0.0482381473273541
0.507332940354153
0.161304160871389
-0.773720208248563
0.787120877329833
0.294461181817839
-0.394056581052622
0.955715006030798
-0.976055628594578
-0.485854826140395
0.678093041017182
-0.957707538835721
0.759393029541559
0.966653124165564
0.448208531724898
-0.924577337490213
-0.121577519115399
-0.0658477541530893
-0.616956067986962
0.913645088322129
0.204705292780639
-0.0314952793942227
0.997042476743389
0.465554679652151
0.207116120585178
-0.229070665921329
-0.976119251112229
0.418086407924864
-0.11115374132084
0.874723136766517
-0.794493152629145
0.377608067171516
-0.912098626079197
-0.295237433070735
-0.355266952269957
0.899821422343988
0.0613969489628532
0.819651396336492
0.948088382849582
0.486799629399975
-0.931787289611931
0.918720249937858
0.623786310791397
-0.833249258834867
-0.779110871362012
0.782529726898612
0.888102779288808
0.993759806286813
-0.871406577339257
-0.579850010673911
0.602005246869071
-0.660396473407098
0.543246126357354
-0.827875658054308
0.921257766505241
0.0178339171303664
-0.816622488657501
-0.106606505982077
0.270467359444964
0.773297130187275
