-0.185739106894269
0.695757361019906
0.669156291669067
0.516969364020969
-0.339928497113458
-0.617033630357394
0.186214740001822
-0.710800995333715
-0.158869669183187
0.703930175047903
0.713404134733622
-0.471283871997757
0.679802495956602
0.755788094145948
0.357446920812768
-0.304044115870116
0.652938833189431
-0.736611445008002
0.826841990581845
0.1669039261158
-0.853380141287747
0.952417494934515
-0.859160413689202
0.328021013697203
0.104408036808626
-0.727637517492246
0.413230401005025
0.314777982052659
-0.43473077459028
-0.330064327881053
0.145645842093501
0.17555403045879
-0.992975453121367
-0.852306781744954
-0.911140583034618
0.425787318572244
-0.829908214509532
0.450284038313287
-0.840914320999565
0.797081507420125
-0.368029149207958
-0.697505892848899
-0.759323782864003
0.816078879907109
0.474596994047848
0.668913231216286
-0.816547461595733
-0.558568633147615
-0.326602420338597
-0.994597840358072
-0.469282291912784
-0.937559063219443
0.636858417090094
-0.774269127472469
-0.88541214768382
0.656741029169667
-0.12573756467309
0.77858562399344
-0.0107705691755537
0.379335253907976
-0.32195357117528
0.142962277766946
-0.752644320682804
-0.0982849382895133
0.690974576390426
-0.916792286706103
0.619019487125667
-0.513103186620519
-0.607687913047255
-0.0590342290608555
0.915513929683043
-0.74448954985005
0.42744989483656
0.875129938430141
0.780084127059426
0.550320605461434
-0.49925812962382
-0.332372680836066
-0.137800329471312
-0.796114635642652
0.481427385271228
0.311442919797581
-0.234141830405708
0.851326905699181
-0.67318020612356
-0.0473886332173212
0.593892239229665
-0.404929222207814
-0.176744186392466
-0.246621127084872
-0.711876569281581
-0.290839006123251
-0.3729956215073
-0.436512856302977
0.952054853336903
-0.306775723404747
-0.509622812008994
-0.577878037759177
-0.8084842598834
-0.55292974349146
-0.272796047315086
-0.0669953897469976
0.413119789797767
-0.698264973784254
0.480669233005487
0.573241495883172
0.227303648330817
0.135997576300221
-0.928875463788586
0.629742023615092
-0.591474616469281
-0.409473404622605
-0.644917099753555
0.493470847379103
0.631747874579612
0.995120292507892
-0.299061763763535
-0.843034621653617
-0.657712505067296
-0.0816921834346962
0.0621275026363878
-0.45567004682428
-0.159313535135687
-0.163110551804358
-0.736380046224128
0.246935086362992
-0.632847137439695
-5.49421778315315e-05
0.271824876583023
0.783242471303938
0.635513420830058
0.0132865925935166
0.323162754806389
-0.305370680482907
0.848094959212373
-1.04215873125173
0.0255199771385972
-0.879689220481518
0.841029421209248
0.112773745054768
0.429347135814695
-0.28872696436582
0.360214189680009
0.769106234173987
-0.831531178411543
0.629934459497088
0.89756055854357
0.806626670081559
-0.44967824039645
0.583313255049775
0.873031566235339
0.144071761547474
0.844333964587181
-0.458101279356584
-0.416365363427048
-0.353377136664533
-1.00679231312547
0.901254036512794
-0.588075418794512
-0.986194086753851
0.322994027623533
0.910218028787224
-0.409288388923948
-0.0489610342858934
-0.238378255036252
-0.0759794383774493
0.770726020953041
-0.0835769797392773
-0.506353846641742
-0.528609528522817
-0.965429470855826
0.916379271321033
-0.974427684910151
-0.24166678671888
-0.855351739798612
0.305150395051282
0.533609568215221
0.340982916645783
-0.730724248638955
-0.377974271295691
-0.161147537758335
0.777042569057784
0.233005683556459
-0.97999082916361
-0.720596718718422
-0.0611474383760726
-0.446654148056551
-0.373892261685236
-0.71049447074944
0.227710200663273
0.232767326925464
-0.181365028512415
-0.560629193088073
0.912847246140578
-0.497143997731669
-0.266709528061123
0.483861898825492
-0.15854607347651
0.769637743544799
0.0938891528409684
-0.966319745848468
0.808053732772386
-0.710417290287597
-0.0660154417935964
0.894405193583934
-0.228711117523122
-0.232785096150676
0.22988020527525
0.815927651696085
0.572814391722186
0.630111402573812
0.74808179437812
0.402478416202612
0.615045401860565
0.171507494406523
-0.36708117904343
-0.853887028403364
-0.771378688028897
0.791403012144725
-0.746526661650053
0.318088319731107
0.321703270936522
0.0140024634869402
-0.306948051973801
0.0628280551680082
0.34112017814204
0.314773333696802
0.00278745324003338
0.861893526180179
0.758162847476099
0.157317917754945
-0.671337712752309
-0.153566706729738
-0.765500362368802
-0.392679798204086
0.949414308009085
0.425976731377003
-0.512163583075715
-0.937875062251852
0.418152298346962
0.462640186744051
0.790134412768135
-0.557546856941432
-0.75025083810514
0.817009779750064
-0.895577400523294
0.939642668698817
0.660160766911806
0.973790444062139
0.0335427024413934
-0.45820910499056
0.694992426019138
0.360043169191489
-0.246974339474519
-0.494628402051441
0.822712128278887
