0.654434135634392
0.465254455817262
0.255655487017952
0.805384793913347
0.41064096861934
-0.822915336851953
-0.388268759690061
0.619853012367858
0.933704853043507
-0.573264551163866
-0.346762718948195
-0.213632325132417
-0.732461753062995
-0.840500904833688
-0.122105566435401
0.708156826938977
-0.45734117644122
0.4946386591856
0.407953611004691
0.796473541830696
0.0801064714038328
-0.402007287229552
-0.533830608994164
-0.162436446182982
0.647045877821359
-0.873637373381691
-0.551055629047862
-0.982475200701666
-0.952343245910505
0.18115206882617
-0.578539316378197
-0.813547640318351
-0.904757102593779
0.745545500473609
0.394184357809398
-0.872683406818691
0.815913785260565
-0.641243356778025
0.443007976151539
0.400532403386175
0.0524611114214333
0.534440417503666
0.225945565737579
0.897747006196035
0.975733781908296
-0.985610706544832
-0.485869754091476
0.76569213907298
0.339556424848138
0.455164366957524
0.804013602027512
-0.137051850024718
-0.916769802356824
-0.0748567550708963
-0.954415821304019
0.672852194337297
-0.746932949580281
0.824157306379665
0.0313830684901476
-0.489566637078473
-0.0411874897189107
0.657664981595775
-0.697122484179778
0.974040785863517
0.905455813471952
0.456051245320581
-0.143190694458611
-0.260735471892725
-0.640903356093576
-0.615343942862197
-0.425890374734506
0.505070996517866
-0.176893855052495
0.658193560178929
0.770687567501541
0.642334607067848
0.753529291730095
0.739460066567455
0.710762883228701
-0.00985740982657266
0.847729420919002
0.954434812547923
-0.493933541760618
-0.0620485448393502
0.483194208696783
-0.402110332681419
-0.288601403088945
0.922772743613599
-0.492354899112494
-0.129380569471907
-0.01654491963647
-0.414503250103273
0.701243004921204
0.0502262463960972
0.615134209672742
0.91398673983116
-0.448888986847293
0.696213439764063
-0.56569921926591
0.550914211622614
0.0247950495503605
-0.273858852670622
-0.0869343168744583
-0.0547327602894464
0.105820981960356
0.492694076750796
-0.781890029722774
-0.044099252748035
-0.904452622391852
-0.854474848999707
0.690387141107231
-0.501891866972094
0.0418679967090541
0.481078212169393
0.282568545403288
-0.722138847180533
-0.498730746798164
-0.801049724758661
-0.783214770528725
0.870016497603838
0.597565794034198
-0.198853263899537
0.348630102360872
0.347685530433149
0.303986753236976
-0.229825273530518
0.123876078847738
-0.0292609187719099
