0.864498921993131
0.157676405770969
0.46779432696272
0.0449812959253345
-0.0724657229618385
0.912469157197906
0.193151806759298
-0.248590500146113
0.860906845412312
-0.911123584770604
0.345898560962465
0.468519955099396
-0.288828083543726
-0.859798165747852
0.886104497449569
-0.12971098865311
-0.844717082811454
-0.944695048685032
0.175635358002264
0.273463420017907
0.70538923484091
-0.208223589587281
-0.246070977418922
-0.608011853341225
-0.754433138320287
-0.737324937423932
0.936078506987715
0.0744158827795864
0.66263923331528
0.958623042934431
-0.873524379187215
-0.821766914715506
0.404706993447878
-0.442338051684376
0.0391212759716393
-0.918574280436147
-0.232764354227614
0.593547849059361
-0.356948199690085
0.650743292031885
-0.0271443037631745
-0.82195075286535
0.805743493972646
-0.503688607141688
-0.111448037707768
-0.492079750084563
-0.446699772562945
-0.361611911208079
0.335184888056481
0.48049322152437
-0.0636936749116284
-0.55997720559018
-0.0476955490987754
-0.41687810199459
0.24681645002247
-0.157576138934336
-0.0993633822125313
0.795437844980432
-0.660157298073784
0.853777736886708
0.744791128174811
0.759210367142234
0.787716296161694
0.53465824824268
0.940901509128348
-0.30336838408176
-0.786313214189482
-0.519268103371514
-0.677451768364169
-0.0281345415775627
0.746694410985566
-0.115519653855077
0.815502037851407
-0.24022298422324
-0.116033871129221
-0.977451652316723
-0.524438243168712
-0.292713682601497
-0.082639054925375
0.41109427434964
-0.833160822603627
0.86878222676488
0.636519205787187
-0.98274964684016
-0.557856583495648
0.129132270069096
-0.556721370562089
0.187305165272152
-0.739426118709974
0.816012097361034
0.733539585631168
-0.404893291540009
-0.0888899781987319
-0.495767333000473
0.434486656513085
0.134563308414822
-0.9417394825165
-0.703098971561273
0.194667595293398
0.24739604522458
0.169769953188551
0.640011748282864
0.551112645808365
-0.539573207263048
0.571647031597826
-0.0778508702094897
0.638552394286655
-0.19880768442987
0.32045139187839
0.814155807338113
0.590290543769926
0.160833806796722
-0.282821909727262
0.397666001082733
-0.882197470939723
-0.0951425594230923
0.534041584137274
0.470213478973401
0.713257169457953
0.0683461074618833
-0.941018161479314
0.13523031632601
-0.508836337080657
0.412526258120559
-0.617148387469061
0.853806417200206
-0.330173922031036
0.822976457369847
0.060298923109467
0.38326010931571
-0.0429477876241925
0.747082836171398
-0.700068135085683
-0.202623433727571
0.916453701439149
-0.490257907917136
-0.121655256927992
0.0730868052559891
-0.298165679667057
0.85194808324923
-0.279453717152554
-0.701550664463369
-0.537823754815903
-0.0618690666530713
-0.125268499540614
0.44719885772828
0.551001590453256
0.317373751317786
-0.278177787537708
0.959586454771293
-0.668126110834106
-0.141676380171591
0.584650606667314
-0.446276339230822
0.624334342032773
0.239864327102157
0.552565902342998
-0.639571027981776
0.543603811600251
-0.0170630557259747
-0.610722971082102
-0.599465560214107
0.821198064715829
-0.842628867305219
-0.155247798529675
0.369288651152984
0.924278267735406
-0.221232385369558
0.0528365379055884
0.673475560728467
-0.0549986274434121
0.507768984023528
0.71808200343917
-0.344214646920798
-0.13394548518789
0.970868143135823
-0.773833493896121
0.475972690853145
0.762158606070548
-0.254220984501381
-0.31518048918715
0.686727367547007
0.795929679186268
-0.74462819675246
0.828099049337181
0.0687094880900969
-0.864634926961958
0.600097014488281
-0.646120865686073
0.939970337997297
0.712803646561352
0.275438527950064
-0.474971582227289
-0.740180717696443
0.445358659841886
-0.464171816881202
0.64440691404953
-0.125981566461435
-0.227657681496027
-0.356319701756051
-0.843650132036972
0.215046718741805
-0.693769565083299
0.157025239413709
0.960036063342741
-0.762377653270066
-0.592270365696152
-0.117235360747998
-0.823122034780198
-0.340357774026976
-0.891320716663063
-0.50105149619628
0.408166593357325
-0.64744930598853
-0.662129266000537
-0.464635462265118
-0.97163421501371
0.737937407733537
-0.665410863476201
-0.0697033204712697
0.0335210970116685
0.253049505284817
0.30908256260435
0.601489730740085
0.876486876408116
0.0570366448907745
-0.329750693534702
-0.395840318093284
-0.546391060357395
-0.219060784100212
-0.461876759861708
-0.74076540751051
0.0603907433081336
-0.673530116582885
0.111536866127891
0.352922748608814
-0.54360007651581
-0.0951276152972769
0.190107749566327
-0.056617538857846
0.258915346888035
-0.524122153127341
0.259267069823829
-0.913729906283706
-0.315503445484076
0.777751949632356
0.225854884416894
-0.419369993803121
-0.943881228055593
-0.577436065091623
0.380643115349303
0.672149349766666
-0.730477942279523
0.990247618962014
-0.615924024708554
0.659648890347068
