0.29126782036338
-0.440911919870854
-0.96809217083551
0.991821468719713
-0.464380979905441
-0.877591592094497
-0.633366860660589
-0.919497212121242
0.0989420967228989
-0.459174777339405
0.916588340255762
-0.965374497669657
0.955246642251817
0.0525922036310619
0.71482329063961
0.0614223640240061
-0.460731132995236
-0.57611650752948
0.0870195209102631
0.201303729651475
0.82698454415344
-0.965599547403384
-0.392481177033488
0.263398599033389
-0.734592547565648
0.733812391622421
-0.982090136794568
-0.486723383282246
0.0895110525366176
-0.059210618938671
0.152784475995403
-0.767657201683404
-0.255855965825812
0.557281638708045
-0.779032709816062
0.975984926493633
-0.147777141794893
-0.41828268506402
-0.213315503307734
-0.835922250462331
-0.59512027407823
-0.383966207480701
-0.898304935380053
-0.167345813904599
-0.262552350562571
0.30184100634537
-0.362896560600783
0.213960750481616
0.254133740232695
0.208575690185449
-0.732588802517157
-0.296198614662664
0.273787948606875
0.265115575981667
-0.410656449285008
0.156796891495476
0.434921127808191
0.278017751546947
-0.391928893700984
-0.261308573181813
-0.687802288744039
0.605322986980185
-0.0830875342694379
-0.204098015801782
-0.54405841643014
-0.604492859151467
-0.772644999383186
-0.875232075860562
0.421124459759948
0.820448743733208
-0.655020128748069
-0.532196000490416
0.121029602984685
0.219703379562093
0.229686665566819
-0.24607798764598
-0.452191140722256
-0.883006822541786
-0.957139115731137
-0.767285622965409
-0.638372468191275
-0.0595288590741782
-0.751157739591131
-0.0693896447090809
0.113281340958394
0.470063018842815
-0.849718667609739
-0.0945209176441407
0.250719827626419
-0.540336263014609
-0.439478705787906
-0.0447941388207643
0.681489941373696
-0.337035421036891
-0.0245058324781246
-0.432265904854719
-0.22779216224442
-0.421208392056923
0.770038156188687
0.715660833413858
0.684832672941806
0.9112700756599
-0.403031767567253
-0.373866175581131
0.811488388504559
0.573949308649225
0.239320656733262
0.435434958703408
0.257558679625911
0.961951777211601
-0.120393792532097
0.232672495427929
-0.419828403990372
-0.21650122849256
0.81888238486046
0.855890394419692
0.791498723903028
-0.374340950716837
-0.721629203710178
0.528105361517025
-0.224732507768599
-0.206497417524592
-0.162719911503672
0.558413820158456
-0.356807102999357
-0.533337800085426
0.0627136827426356
0.134635677505029
0.273904053699874
0.755558733677088
-0.752216238833104
0.578714706993771
0.0443480840310969
-0.889740398092438
0.672055948412495
-0.448989253591434
-0.572390591386578
-0.0590851595841862
-0.855363502287327
0.874184393927785
0.147270804381187
0.305089264715156
0.141062012880778
-0.224535681510802
-0.639255703274138
0.0616617968904205
-0.706255583486399
0.736639814935511
0.928968693562422
0.626308072325639
0.0190397298662914
0.786339912626095
-0.631724936631244
-0.342677038520074
0.677976081947628
-0.203601930694895
-0.600700277154579
-0.000955259416563478
0.774365312293027
-0.584809394722699
0.708347071166815
-0.5316618326362
0.377070441821443
0.20356380202142
0.90912626247922
-0.29441130253588
0.906719998694872
-0.761518139002129
0.245026910926868
0.155129044451896
-0.0106723469888598
0.540092746159095
-0.514479956998339
0.456106149935684
-0.757939890092434
-0.985509267214621
0.50767771721726
0.772049502705611
0.819996072958342
0.879246861015255
0.540582760517898
-0.512897168634481
-0.356783709615698
-0.93130076390872
0.218831484553042
0.601073147864381
0.529086980165667
0.628238299952373
-0.0732202475255498
0.119951944666151
-0.945961347503384
0.98453546952185
0.714747169862541
0.0102439883745213
-0.843712592166623
0.419038802676256
-0.645861899858563
-0.243201564718962
-0.0753438937403482
-0.0982702831908576
-0.242374977777838
0.797961613424896
-0.91291091206167
-0.163065999679904
0.151090756104635
-0.461405412703038
-0.603201293373277
-0.292102508959872
0.428785640090395
0.838315472732766
0.119903212729405
-0.780741029066611
0.163968787401925
0.770791153709168
-0.448374208363308
-0.814279714653281
0.119692105863621
-0.0269883664661791
-0.982689481958847
0.305825593739069
0.136701025028921
0.628140634778765
0.629760025513283
0.792755641012061
-0.52248207572802
0.342112743823911
0.842172664660451
0.626226466404347
0.300615315418732
-0.818677462394343
0.5121789596995
-0.613896166009388
0.820545621916532
0.5465874221774
-0.304459243555491
-0.575964186667833
0.341245929335217
-0.0561210223172058
-0.352722704183359
-0.43725322944958
0.486282893615872
-0.764113577645632
0.221981555228567
-0.128482952648975
0.576814713010808
0.548398811079073
0.247557222318095
-0.705980467771225
-0.340553085634273
0.499039410068502
-0.0892605331454784
0.890276042034109
-0.68383829274792
0.477233212297511
-0.666525318126881
-0.0662981954953618
