0.196642760953279
-0.408188280777098
0.809412246221036
0.198120837018511
-0.939270107601557
0.130764933194595
0.631286316036109
0.695981223110357
-0.152513252297029
0.32882250995841
-0.301443464460137
0.950727070625851
-0.933320440334805
-0.513895067122403
-0.300583521409262
0.223408447656937
0.748898168779531
-0.229843230277009
0.232518918217402
-0.145236972735617
-0.536899766078961
-0.825929867611573
-0.822845947282163
0.593354757793765
-0.526904183189441
0.52411115255013
0.512914351579612
0.16529183812982
0.704981391484158
-0.575947143901343
-0.271257505673492
0.399659308338613
0.0807122142288261
-0.305110983251077
0.570079938764286
0.077470099373485
0.332577394906786
0.893362602857835
-0.780425677862635
0.187775144509209
0.319315416914386
-0.2833114233624
-0.0319070723034336
0.710680221387315
0.727548875718186
0.750886430943908
0.734711295593661
0.388692909016473
-0.7995948926842
0.502547790266326
-0.495755697344042
0.417727917369995
-0.738462655947387
-0.23093708932849
-0.252289192740813
-0.227349367637325
-0.213158700376268
-0.763355809756479
-0.0959310994957661
0.718143499130801
0.77029562350232
-0.23214333679551
0.478017180441052
-0.827208757753791
-0.82335449717725
0.313406862785707
-0.0555138781002232
0.741342256994022
-0.678472003091437
-0.477899031851708
0.0708430057632666
0.273835692686006
0.202872245240142
-0.353142798688257
0.342627624302784
-0.739179158927906
0.0141206464130965
0.961941986569585
-0.450888814349308
0.062147261345961
0.594521012787528
0.284479541494585
0.453190756198221
-0.648457702658153
0.504557739331265
0.862910411063899
0.26256502706817
0.40334007260798
-0.945599845515532
0.225668922457359
0.801618666198899
0.850355176055625
0.491486033457293
0.219954827661831
-0.683097852853022
0.862465823875125
0.920107481550275
-0.199733436318507
0.189078118528269
-0.46486149605304
0.00234125792396286
-0.0514969152575586
-0.543512321006305
0.629179131825036
0.300957673402272
-0.963642511998003
-0.751380107826006
-0.434623069862635
-0.209285111083495
-0.0827077729941297
0.185900789435115
0.059764958097304
0.8645266553089
0.472833078334817
-0.875783274945533
-0.612032035375182
-0.64997918089572
0.646168327379447
0.817545504441288
0.108664366913657
0.467539491331223
-0.4171397767271
0.143267789892778
-0.612234061436906
-0.974512049079377
0.173391594044807
0.253339714263709
0.018748701328535
