0.67962807926984
0.766813812305632
-0.453529503397643
0.265780182984445
-0.296366034975373
0.28849157586733
-0.154809728773624
-0.0659408183077615
-0.487122805761497
-0.808173653847011
0.777674919319603
-0.157985531128395
-0.991002272693795
-0.922360852087965
-0.712037743975738
-0.680396509089597
-0.898998512258765
0.846164514379765
0.240003362542812
0.371477052963174
-0.539658929756012
-0.212843711505496
0.100280786543247
0.549430066884353
0.535314582809851
0.593208618704275
0.724054366971217
0.959660505306615
0.600234744567301
0.533400489999276
0.494446129794074
-0.490696945279033
-0.148896405100441
-0.872981138511191
-0.319957814240837
0.360659578383344
0.456736577774823
-0.724298097354595
-0.865096790007731
0.619722064289016
0.120103903581196
0.538777689070107
-0.0876813261683287
-0.598607763802034
-0.210447506104465
0.731915449394453
-0.867195597636471
0.418813374294529
0.308356501070299
0.753280543850007
0.192900819633744
-0.558645663931822
-0.111300169494936
-0.00952223351003963
-0.926622029778477
0.950082092854492
0.0593564049557101
0.723223819175139
0.151390862676015
-0.557390265924948
0.219654852245765
0.774346794229071
0.739853640120227
0.690933140934906
-0.707771517661959
0.73132855129384
-0.197020336177424
-0.980106682225645
0.38993433643401
-0.975042264269592
0.837416832827435
0.385598111369727
0.962577732766642
-0.149204000954976
-0.162799461244349
0.556230817811234
-0.892318244721983
0.553269268736892
-0.809839562194612
-0.524777185304667
-0.157118331486419
0.750229873744207
-0.993522046276727
-0.245671649909337
-0.00849625614098332
-0.310427393149576
0.148137417622434
0.368193594842184
-0.165816158508235
0.412378975869576
0.550071119027243
0.467279673785042
-0.384118993092894
-0.43885628429592
0.111375254931835
-0.277961410354644
0.770454248751042
-0.105343881457399
0.60545176069649
-0.683653586240354
-0.991666210268064
-0.225724294036703
-0.66607241452228
0.384597848093996
-0.839675805162727
-0.831154706572952
-0.456332027688075
-0.684427631586419
-0.49232386007793
-0.472116196085711
0.141644273276297
-0.0657603748584421
0.695854938873702
-0.00111702460654692
0.990970928488763
0.732551747044491
-0.453095109297802
0.142532093886535
0.803062231336264
-0.573497352931588
-0.806044730013888
-0.390505330126838
-0.852656151946647
-0.828469145081217
-0.463543903735088
-0.172632864111095
-0.739995841978029
0.0900010836090039
