-0.0365141070748758
0.773571536120611
-0.998173306837697
0.930723291468563
-0.491807169939669
0.945306481925246
0.226867408444678
0.361736032720393
-0.659995955531408
-0.953366443914259
0.482009212887354
0.660758377814737
0.843200372494133
0.78874520451962
-0.747417102172872
-0.784011701940763
0.0538269796270478
0.320243676602093
-0.0586951011766438
-0.509972531864695
0.0144851133622909
-0.213911506516822
-0.140950675962949
0.399457453903288
0.153783024646494
-0.785063170573197
-0.239428103518129
-0.240276485853636
0.355732225424027
0.063905147242053
0.181725559046892
0.345254379110057
0.647470116094306
0.811502419420503
-0.767029414044775
-0.931772129407066
0.663612464107322
0.276501710900034
0.42713001910614
-0.0422168012649462
0.235455349491205
0.134178004856688
0.95565350384991
0.0845140080003667
-0.255724222825188
0.354291033688112
0.798254939112875
0.478533871422143
0.865240247119134
0.0990696582480989
-0.641398956126667
0.372832752868359
-0.0126385840172309
-0.790597633914031
0.378401554674302
0.134429018382522
0.026495193593315
-0.621993846147662
0.859861394608918
-0.333355600338144
-0.707757382952759
-0.0839676140139846
0.405350247900587
-0.138939489651637
-0.539985688416363
-0.896007962939584
-0.191076260968589
0.443795342576394
-0.653988492957762
-0.0869533791487476
-0.309200192580036
-0.497342282517355
-0.328773518357744
0.212698495975913
0.532411284521612
-0.630654859925727
0.681456594181894
-0.197692071011708
-0.37724572703492
0.624890129920416
0.753568272784719
-0.580022615680735
-0.729295438436501
0.251739115621172
-0.437352103073607
-0.671446936024708
0.299776060403551
-0.390154639540353
-0.799618981295031
-0.0485934453870534
-0.950843510660104
-0.776567441171236
0.683194370906518
0.162350939192524
-0.865298714046033
0.931630548673107
0.757956441950426
0.305870128780736
0.880357116209548
0.676148407359828
-0.27825453345911
0.438119189021836
0.134605669482993
0.869181263590823
-0.361786678641319
0.260018963016316
0.291927243252744
0.863180490768833
-0.976835272838626
0.675187097787127
0.773213871616754
-0.0398881701277594
0.593722356617951
-0.206680994520725
-0.0720332128062125
0.412057005249641
-0.208827902440534
0.300165196782035
0.0518071226856093
0.571340028432897
0.717661539023932
-0.0669377895611265
-0.967056552704853
-0.308114531886308
0.43977540877373
0.632334342331705
-0.0477314511236187
-0.994515169902976
-0.577314736671633
0.0799848385190095
-0.162967146399066
-0.578061009020988
-0.00620637902235695
0.461806271231483
0.301690758135343
0.740774259807836
-0.231119186144061
0.326539234768022
0.609287685610678
-0.88436115326545
-0.403474333855635
0.885803307351237
0.439871957009975
0.392336462084853
-0.290991878437172
-0.178593900835596
0.850636502489984
0.854458352452138
-0.968943336397719
-0.77258346613732
-0.810439027996151
-0.00245200508080445
0.451598968478833
0.399482762271976
-0.680311133972674
-0.0249562653622773
0.310982660126907
-0.0661405073761658
-0.393790758777105
-0.849090126881084
-0.374835942195938
-0.332156075953568
-0.275003799467009
-0.724086822330796
0.0374497110413563
0.930548333300203
0.963086293587053
-0.757272946726316
-0.433377188114719
-0.896875617293696
-0.676455397426031
-0.596576185402259
0.811110489273741
-0.0723108781300572
0.7851401432205
-0.384160626300374
-0.282566876781537
-0.97768966219636
0.598799753933794
0.535594971178871
0.0383479152699938
-0.259499578798206
-0.447006078765893
-0.393452545845149
-0.0121842508980123
0.543890498527641
0.0633374742085683
-0.301105736934346
-0.601851125063584
-0.196527962624926
-1.02085131560562
-0.584183692372597
0.510243645881064
0.0786477024886179
-0.996072073248606
0.914657079546619
-0.385125261887848
-0.102154208874448
-0.107050669238738
-0.442216013776048
0.0736816725269704
0.2635406135233
0.394194939082518
0.862958493113329
0.349994313397368
0.762489207406634
0.0793071237734564
-0.445990747865115
-0.379654075625911
0.58889574665612
0.967408208603434
0.205071399185167
0.723054267186929
-0.99534046702418
-0.95736162860754
0.433638485539139
-0.614264115657148
-0.283659326567774
0.865469820128905
-0.722413975997568
-0.72540056253474
0.703366961526655
-0.830840122339566
-0.945908960191083
-0.38956881073283
0.786630628201502
-0.64604285303149
0.591318937080403
-0.288079043982307
0.843214303036404
0.0374349437756911
0.0486686886428115
-0.855245679635486
0.531114223793367
0.852927029352384
-0.715067431019681
-0.838499514228115
-0.480110923316386
0.705685536986583
0.504088498027508
0.659088826022993
-0.0327147929960037
0.0357043738019393
-0.820841664246686
-1.03549517961902
-0.86757553282144
-0.636367470035261
-0.795477337399717
-0.519458675544945
0.0289527842537522
-0.188633221046143
0.880263079328463
-0.655627992608419
-0.106604271884415
0.318268848826234
0.681674268989838
