0.395202274665123
0.650234032661739
0.805260019138593
-0.517728399702597
-0.412429695470731
-0.0852635699118752
0.319581396440066
0.761334043614876
0.130708858652904
0.933497146168099
-1.00578335785876
-0.695314364591478
-0.781897982628956
-0.193805430383933
0.906212168483436
0.798701852671756
0.329333786971347
0.788036498413476
-0.324931845592924
0.20220968774173
0.675777466651982
0.16770238039388
-0.507445341921942
-0.442411832196269
-0.646214294082475
-0.248076003603648
0.762951301874441
0.194315834843709
-0.963543439561953
-0.0672352945723407
-0.673128713671332
0.512207839102304
-0.526553581687301
0.518373032294207
0.491192282550089
-0.798204663728387
-0.286079032243767
-0.263569530308071
-0.101535607946283
-0.0545663612251674
0.410794663162292
0.212944108770799
0.0621510387160067
0.872248749986529
-0.966561097381508
-0.249812260166047
0.94169855021348
0.906473804491086
0.894504188190737
-0.815569985861023
-0.896939623358391
-0.107151140096983
-0.895817714375172
0.607670440878703
0.883591251339714
0.830359925621824
-0.650727798950624
-0.641036726725024
0.829028489189403
0.196193271774427
0.711889585593793
-0.0816254302509669
-0.885499288438215
-0.806670405293937
0.119882060408188
0.131425657109864
-0.768257958451573
0.761878500335025
-0.49027863136795
-0.287134097979633
0.00910649256460517
0.143284059857964
0.903953894776297
0.611824164806152
-0.117446655556318
0.854040941195143
0.273549064927318
0.12039449168203
-0.065662975111806
-0.556450289015951
0.719551742198664
-0.0265622256156283
0.494640995776261
-0.541651901042067
-0.543776485143667
0.75667945327553
-0.630465417975202
0.289113466893489
0.252930997410643
0.943676746313379
-0.137727842003341
0.611628471706563
-0.567244173095817
-0.656264582278126
-0.812708435169619
0.208544857372138
0.594242349458649
0.581639113080232
0.978328844145864
-0.44630464597356
-0.475829147036905
0.808370013712483
0.938640721798535
0.872232887601195
0.251447777224352
0.833028377665605
0.568410383045073
-0.15262537876238
0.764351617112401
0.0585909313191701
-0.690642568433061
-0.448487847172643
-0.773205358183458
0.576679736730297
-0.216909403775983
0.8468275064777
0.168712908008539
-0.607011318672333
-0.975870623396505
0.545342671029309
0.604702506456035
-0.862217366275811
-0.242341794855188
0.123171211090556
0.893223332603798
0.197028677174644
-0.264177417818562
0.368930566867194
0.156301574560614
0.152120304325063
0.0522939988224419
0.61488835608428
-0.19969829472392
-0.711505995036085
-0.776639676392736
-0.395184823527902
0.525852794998968
-0.926108634626711
0.9942165402012
-0.26875595377698
-0.300217468131631
0.221073192355417
-0.781038638563663
0.0996890734099146
0.0500664135389758
0.301674540910095
-0.777136331886692
0.592155405929698
-0.546370975943566
0.241814456696137
-0.359048108835177
-0.968074887027394
0.499924155549039
-0.691902875563792
-0.401441846544322
0.954694464336433
0.27116530643855
0.628421232870752
-0.46681781376703
-0.189946926335377
0.179503512369256
-0.844288375731094
0.188144419239021
0.580561598983921
0.522217353744772
-0.755073663068854
0.556119391805525
-0.541231797577874
-0.668164866251552
0.777409859220106
0.557111416090782
-0.441554463494263
-1.00291238178689
-0.813203542489487
-0.693435787445354
-0.867663339893483
0.814873842675065
-0.536662488600173
-0.146521406352017
-0.0124165957733062
0.98503282191066
-0.889951569960097
0.829065842651518
-0.431443511823674
-0.608378327170276
0.880638517669198
-0.255079850764659
0.45185304034318
0.616163157148222
0.827648846240124
-0.250874331136429
-0.824868994586843
-0.239668482558711
0.528407556670317
-0.542613225911759
-0.488489430643168
0.549545337875523
-0.707835567863668
0.652644972946957
-0.887886643206849
0.973728634677578
0.0812360766999698
0.684183849015103
0.628776252847923
-0.314982196669237
-0.0521272565690463
0.299362332095506
0.48080705682589
-0.978042558161001
0.0680156939267687
-0.753432483933737
0.737450374414301
0.833476064423513
-0.41370278578522
0.0476430175574021
0.101422945416143
0.0539015161956932
0.0233624327889466
-0.265876206872374
0.559194855106223
-0.0229568173119189
-0.820803519881185
-0.416416965223892
-0.423471103559634
0.556661259760889
0.325835296864801
0.843805723391339
0.787059826276778
-0.308937338164548
-0.00562949665892166
-0.973410844483556
-0.851651942843446
0.664124520142998
-0.0599297920039324
0.81417468067201
-0.750441113421657
-0.273141164289123
-0.299065260331129
0.246498836264835
0.788201042779861
0.845511706094688
0.218222813086571
0.0503836606294282
0.527738512017511
-0.903137736557587
-0.47639201444964
-0.415741911836003
-0.155984214112816
-0.600122944887922
0.633650832896061
-0.407493929946916
-0.473862047112847
-0.244798656805625
0.177531905820859
0.309422600938671
0.761068794106213
