0.585758836265133
0.444776311266014
-0.711637498683219
0.361114665459004
-0.407384416749858
0.406841785566367
-0.47924155739314
-0.0131841818088214
-0.751859560527835
-0.989585096570629
-0.982552820874774
0.770910022604573
-0.534197921685264
0.177022430898019
-0.784948037209011
-0.921893196813963
0.84966898315059
0.276235914912567
0.615637864291859
-0.98408902094548
-0.0156256407888279
0.228562011257304
-0.94613637751937
0.0978153741488709
0.970334401317026
-0.39010010519834
-0.215105550324983
0.0140627465570634
-0.544381104051977
0.598180115471143
0.58254332737626
-0.928284209702637
-0.632518872565203
-0.695589606302207
0.764146010244589
-0.82460446417828
-0.0873638753735696
0.835800136988913
0.370068846843292
-0.499284285213297
-0.665157570085464
-0.144939742466563
0.352759333187389
-0.334716794132228
0.725222083224814
0.78457758391928
0.906396258075706
0.769952418514724
0.684508282273727
0.782784261947038
-0.190372263891184
0.571365003641777
0.622766212985156
-0.846415544275311
0.0884127132184192
0.0826378351109075
-0.11757517050236
0.418453698808684
-0.189038265414995
-0.996216812283573
0.362062858025113
0.64263945913744
0.421769951948538
0.841889564362997
0.933489328612267
-0.485769525175167
-0.657856242611894
-0.289909343563251
0.106820695009571
0.391219342857668
0.0416575561180268
-0.694012353785188
-0.936180753635257
0.264206944269369
0.259899535326344
0.529549111933542
0.52504086510218
-0.442407762720875
0.29950760330393
-0.430176301794928
-0.440466589724229
0.38435947132606
0.377301441868138
0.952023136191766
-0.911705227088712
-0.986434236089048
0.527043130815255
-0.86079717331602
-0.0861613675596438
0.859133589554376
0.803958599169985
-0.335902821181965
0.858775826523904
0.0624980283938633
0.496755372906456
-0.223431992047608
0.140506989730013
-0.997355312715024
-0.529565141533921
0.392163214583782
-0.852240855261144
0.890483506810669
0.760514949063209
-0.305719844970241
-0.286419245764793
-0.0568935511706106
-0.340748559626302
0.591073594853763
-0.47846188831713
0.429511014490144
-0.751972935371117
0.75038169143512
0.618817682031324
-0.185407258773974
-0.133807881901553
0.474488934860362
-0.756472534617327
-0.963088631562561
-0.478750833248477
0.556740894737763
0.452770104042166
-0.588416035724677
0.753477992584785
0.816871764774589
-0.317308574699783
-0.45410698631025
-0.559127589623385
-0.549046292511846
