0.809676796045871
0.107247797926672
-0.119871948549452
-0.59050553019154
-0.811386121886162
0.130866613834056
0.162606820918911
0.550620034047144
-0.286221011391976
0.515908205240532
-0.192766853498079
0.339878428623028
-0.183298631037335
-0.800611512224365
-0.254722964942495
-0.261665286658071
-0.561431878481844
0.148694456737083
-0.749091442656577
-0.809642018030316
0.507472360004451
-0.569634472160998
0.723939383039743
0.372928706654975
-0.481462994296044
-0.310855505833874
0.567163565044387
-0.842634836714449
-0.539874098497451
-0.955819883354294
-0.297148782278596
0.945051670935326
0.159676489795544
-0.508508816882748
0.262929968085572
-0.468907777473306
0.832832624836491
0.334332133667335
0.969023623794972
0.160424567716948
0.211892820146994
0.284065995595901
0.553139829943364
0.404390763815182
0.0869090816417308
0.902609377230327
-0.159269406244631
-0.108171513200539
-0.165930064565935
-0.481335514304741
0.353524772809532
0.388867030875478
0.703284791065389
0.737766058205841
-0.238810269870034
0.684659967762196
0.93738087714762
-0.591511591155329
0.195315290469217
-0.553329194055118
-0.849042672899735
0.700035858399397
0.578229299807834
-0.804183483067278
0.264982342416031
0.190253270683667
-0.364069058938679
-0.284784098570249
0.803911283909228
0.297498611189813
-0.236222573007809
0.723903009924167
0.338025199798089
-0.0254808015730237
0.466476103499261
-0.828179638860144
-0.928633226228629
-0.349185583501086
-0.440327790775309
0.962761173577251
0.260433355532277
0.944270943040293
-0.0104248974233046
-0.660976294362264
-0.799061801793172
-0.0427554719839368
-0.437355570805653
0.854352914292723
-0.592025163668025
0.274822160639658
-0.483378095204141
0.796403602607222
0.367391841153505
0.30390506105164
0.804042973270069
-0.917025149725685
0.656989525315585
0.673089774722262
-0.679282498411649
0.110184919159277
0.963347189191357
-0.349393869771411
-0.91886746142679
0.308588415368857
-0.175902137559613
-0.982503178764
-0.55648739505597
0.536223816074847
-0.68858419181553
0.00444811663473948
0.20246093355672
-0.374894423669752
-0.282741945766277
-0.176341048464152
0.2465283783215
-0.633911300599761
-0.0574564352668417
0.15952746987859
-0.430844431255424
-0.151088737916057
-0.830599503304408
0.702007159087874
-0.216029026059283
0.525834788815137
-0.19038440732733
-0.549403810228824
-0.753022633191728
0.345584949492531
