-0.0929326020648633
0.101105897738059
0.777004302485919
-0.696938117025708
0.790495940593882
0.198754005674713
0.855980526628553
-0.271018372668223
-0.318752749451331
0.455637980475878
-0.150522297280069
-0.653210989012445
-0.98705249379198
0.177064793906422
-0.655336778573944
0.961138399024941
-0.197665552010719
0.91635042787693
0.902734294296007
-0.581212836352019
0.0467777667632462
0.166053276017734
0.29774867929239
0.596370159073459
0.615039823544846
-0.860174456110921
0.0026482083409535
-0.861529845912009
-0.0862255663555944
-0.163429382123073
-0.627230997384175
-0.49105823999191
0.419582020154021
0.919745516389777
0.880521449471631
-0.941145964798081
-0.0401840117243269
-0.330012720717121
0.1876434825702
-0.00781997851191193
-0.718014744016881
-0.145650049842644
-0.333400166794577
0.378288822231458
-0.0399251858463589
-0.584181324512938
-0.0978160055382268
0.784461833377749
-0.963674975643009
-0.252055874045602
-0.4023209402827
-0.987452984444598
-0.430776798184941
-0.146291042423978
0.16740403275821
0.388357724320452
-0.157374589459118
0.523696713757668
-0.133033191584403
-0.785814146224481
0.942735328596068
-0.907942430362982
-0.61255584294606
-0.268891422317956
-0.478796270134225
-0.593479112265287
-0.944117197639443
-0.185870004312351
-0.100811083483069
-0.985108834619332
0.861282607197536
-0.501488505953643
-0.535279401561446
0.291695487455364
-0.639717855907295
-0.178135310030356
-0.533295838787877
-0.639749159111368
-0.506744729400859
0.926942374857128
0.482399635909376
0.208333708995155
-0.431332892582421
0.521895249339393
0.779382797236298
0.0816012965643304
0.501576530239228
-0.373406923542314
-0.193856002280846
-0.486451807079724
-0.239287913868965
0.933596568291105
-0.796416564275981
-0.334652634296497
0.457649117184407
0.309004647592503
-0.590035648271214
-0.738819096013094
-0.487900874006018
0.203908835291715
0.360418190670293
0.0326771323403793
0.0493332363495835
0.143295513383449
0.571686557125065
-0.576525343418923
0.829426376381667
0.695499752310912
-0.123789273035126
-0.491685503863829
-0.419050347587676
0.867763039467487
0.900133903347803
0.530532072846265
-0.842856030335567
0.122559398623054
-0.124293126883024
-0.858542675440801
-0.892391484916338
0.826525206210284
-0.085107848133044
0.690870878236331
0.367410812057976
-0.0997580092950434
0.274237502009135
0.412486260846213
0.335207119812321
-0.725582380147231
