-0.867550745951821
0.170449726806892
-0.86065241573674
-0.622004774014729
0.674656266019849
0.145983132524122
-0.381860311156321
0.787256943702623
0.951732021784145
-0.701487176433451
0.432923809625453
0.509988689370228
0.199888027980375
0.877718794927651
-0.239226286903243
0.166315115115538
-0.692660011821042
-0.244315317352151
0.455683601450055
-0.421089031079017
-0.879353205879395
-0.463103181998919
0.246938152113799
-0.699332765955156
-0.948658752420875
-0.0441585463684601
-0.386706242127901
-0.449773385217051
-0.317717744314987
-0.93667274548586
-0.983422395126415
-0.404263787181969
0.663070652087051
0.501978743894448
0.410646172980087
-0.37174414364266
-0.180361858792186
0.418438990323838
-0.178509940050021
-0.902000967466337
0.447230581972164
-0.328311445578192
-0.174632545867076
0.79745556297572
0.0305177147141347
0.482223291676612
-0.966150719956541
0.735073752518357
-0.912694668318141
-0.710263597348301
0.637844316809433
-0.0324502758059251
0.626953340074203
0.307488567740689
0.286183673349002
0.684143191284929
-0.839507144180888
0.0222154991587872
0.234717487049537
-0.833470219280719
-0.705165273623247
-0.671236211507598
0.682454254745149
-0.81013732027927
-0.0293228994052414
0.098569744203077
0.928739996238074
0.253619151737816
-0.58323524635809
-0.726177312319256
0.574348714254457
0.116051824452223
-0.542602804319768
0.117970506929183
-0.407090445639486
-0.313323715149334
0.436020841470641
0.761154531390065
0.369527294095414
-0.781965526989089
0.100726533946371
0.763049085665689
0.279596352042703
-0.214829822379935
0.0774226976869064
-0.090382921680819
-0.753033320608277
0.121467271324823
-0.0880317088384427
-0.4023649539058
0.0277206716860856
-0.653019850987432
0.15830038909116
-0.630447610471457
-0.959132465095637
0.13216087089037
-0.524275943146521
0.320683240013604
-0.78473310802193
-0.580333117610315
0.401499839332116
-0.278863177025942
-0.535672223499862
0.361024989615316
0.237803964556194
-0.126744816748757
0.906457734371448
0.109911423129038
-0.221894232685564
-0.1482852554403
0.0771267491648596
-0.0775737164463734
0.202907773102846
0.334634966179737
0.137419476812266
0.815128671223621
0.393269026329789
0.541034827181878
0.482072456076367
-0.21798596101896
0.723054137239526
-0.682694824042694
-0.978407006561222
-0.5096239161221
0.220928383568255
0.596740024009985
0.175908571039017
0.975273923477379
