-0.500428006061666
0.164550931106044
-0.834200118270368
-0.738586228411088
0.0262426300794644
0.366116917284724
-0.245282364496598
-0.268353467380091
0.916069920700196
-0.736244743454505
0.789761858485209
-0.248173944058424
-0.476781864755157
0.778070455004231
-0.902620409190434
-0.959136837745266
0.368406316340982
0.0497499728893794
0.321045165859081
0.909718199012437
-0.90390709826502
0.506142087414631
0.139643148864041
0.276742003160565
0.923867573485625
-0.127649295826919
-0.631532190492362
-0.885789856631773
0.5489043349346
0.150824821228795
-0.225768262226205
0.0661439622885975
-0.597730557251146
0.506298927579717
-0.603257672151771
-0.260139895500341
-0.0242321015797277
-0.675350149445005
-0.390955854498476
0.883159085235629
0.531326181039857
-1.01533279246141
-0.237296397532357
0.346835449764547
0.353128570191835
0.450605520117853
-0.616981718731421
-0.547911666144892
0.886564171560071
0.746584551263056
-0.481499113323191
0.603573157120286
0.517950381460778
0.67892322678199
0.760115780548283
-0.467741495901423
0.557582532368745
-0.99834224406676
-0.578108184352627
-0.575357103957352
0.0014450979033539
-0.346146940125337
0.139623238867636
0.441435887869926
0.481750694529812
-0.70882255762847
0.319108805218167
0.192262513436359
0.573880961105142
-0.11498195986532
0.0451688099719682
-0.236483049513456
0.116928337422247
-0.705799581287305
0.722378219638149
-0.650989463963734
-0.151710818783345
-0.548570870186083
0.158703430469852
-0.22340642618909
-0.570343918450527
-0.80450368524792
0.895338137817633
0.284363227435929
0.134690204573121
0.934536459964766
0.608863897244027
0.505700561992836
0.727499127572445
-0.174429112011036
-0.351911689924313
-0.576009965733413
-0.720307634927379
0.807189192817018
0.409869919895339
0.617062335071292
-0.715676711726054
-0.365029643830741
0.791866294995932
0.144882090971225
-0.0502229861885821
-0.469306249800022
-0.888291714959153
0.507674337205227
0.834072044892334
0.733305303367853
-0.0384586198879559
-0.782246616341645
0.542054022566828
-0.20694110632229
0.918944528334881
-0.296006759058716
0.347797223424132
-0.709387277467889
-0.964000402569862
0.743494008443191
-0.92964829657895
0.892997784712913
-0.535713916626532
0.729517412627744
-0.32956943228674
0.436329282068246
0.530089381467947
-0.164011631136278
-0.964191259968644
0.512508416114798
-0.246168486814699
0.678797893928377
-0.81359181828639
0.687017488278038
-0.266822630712547
0.776091339213733
0.0748190426758264
0.363032861920081
-0.871811942469571
0.731826788718857
-0.0207556186159178
-0.467119432381548
0.198257968603976
0.666457190425074
-0.513833131460816
0.623635195982175
0.0821088680061365
0.508461059515049
-0.381309952021142
-0.115915858366725
-0.379733605716611
0.394080492482139
0.499815236749557
-0.0958493192820729
-0.883920783434532
0.0809713768390078
0.587794298330787
-0.135157884935879
0.154515346259656
-0.0508093366517705
0.58290240400348
-0.727513853281044
0.459940748356452
0.228840879153401
-0.540269079139638
0.877395981127873
0.596817605076311
-0.626803937046744
-0.778101092558151
-0.358827903900558
0.130777923232348
0.013295421102047
-0.516416380399369
0.87124964021446
0.251428332016593
0.498793292387644
0.662262581661335
0.86496524305844
0.284076281511367
-0.847220707037649
-0.203530147586679
-0.463651502623896
-0.421610925329171
0.749640812976181
-0.453756917028585
-0.162562888422762
0.218994503470799
0.142123388603916
0.0879828264047628
0.626548278649501
0.911979012981601
-0.41758098984853
-0.882243033800225
0.686682402198319
0.256046585283898
-0.58290529118873
-0.63294348157884
-0.394676302875343
0.304111948742348
-0.262432976293406
-0.909198386569665
-0.388571541387491
-0.390783027308019
-0.439959519523905
0.990008186268857
-0.234707830792788
-0.559168620276391
-0.544199475659661
0.00587519282023813
-0.195993953117685
0.774698784419106
-0.558190257458536
-0.906345301968426
0.277323122490819
0.675710220889559
0.914844360170258
0.443893704727012
-0.979374771127566
-0.620693020837931
-0.222930841174908
0.212596146798606
-0.220590252085204
0.262193199384982
0.0399239507961982
-0.648369386218542
0.878208223852288
-0.339821087539661
-0.195400082487035
-0.419741065931735
0.685249611910148
-0.249648610153156
0.63612209176197
0.371422579537206
0.577532537341688
-0.459335630472614
-0.470288436048836
0.717865924518813
-0.114911845179693
0.0368461431323683
-0.978109524192878
-0.912151697893025
0.845819860962777
-0.693687879179361
-0.0772280055155429
0.831202218871744
0.440473796239084
0.697250581721046
-0.896478928906409
-0.17643896559893
-0.609489926715878
0.278357248662212
-0.992124799459913
0.236786187004533
-0.505290616464487
0.383856558311798
-0.524267207394
0.703414606742899
0.991816316453527
0.565043081594276
0.289385899969392
