-0.215580722352186
0.678472730075801
0.383137626678578
-0.307188292122928
0.474218418298104
0.459296011960164
-0.290649204168811
-0.968146768480916
-0.774637413207052
-0.862671178838923
-0.709959491247437
-0.753287793913575
-0.0475468791083558
0.748859163491245
-0.106865800229083
0.320792312049015
-0.992472528490818
-0.491910079415161
0.240237408108202
-0.57378430533982
0.37469271983671
0.793880003985857
0.551112834288566
-0.5670643619588
0.713194412402832
-0.665745190971352
0.453303703099101
-0.421346922372103
-0.534368793855464
-0.325984226967447
-0.285608607496206
-0.154457466222247
-0.691558486336181
0.447076938510918
-0.322419644949311
-0.362872560015816
0.65579056301045
-0.529998260856068
0.906014897281121
0.876256869132663
-0.25637862765252
0.685365140520993
0.508032215467498
0.943192332145399
-0.985028364871316
-0.995959963612197
-0.270991061983315
0.376106953229697
-0.489855016623682
0.990274238783019
0.277150094871482
-0.97638611071886
-0.373845709906826
-0.506936476559665
-0.0503391275990978
-0.765150284388765
0.302821862555477
0.0712135831866759
-0.389815237676954
0.366351406530346
-0.186744644538537
0.337523035570643
0.773780783976801
-0.00831433540214799
-0.159243911223408
0.0399922263174706
-0.165597564059651
0.989415686187116
0.184742192697838
-0.706878656445588
-0.622528184751954
0.0472128707722778
0.30398601210511
-0.778478930196624
0.31321008767294
-0.2687573145021
-0.381588238420652
-0.187939834149005
0.803651400436722
0.186592206924837
0.950559399248746
-0.430251510958075
-0.943424832907241
-0.155624886310773
0.625997835594995
-0.378681577699955
-0.841114469055612
0.804259210589771
0.434430446846665
0.539714217097088
-0.897414060978937
-0.708022109755824
0.436518300232254
0.907991530657909
-0.188643380891489
0.777886357379297
-0.0721970614526207
-0.294563967049408
-0.997509541467527
-0.606276755082666
-0.682183896693564
-0.501534372118462
0.387298026438686
0.801221546762111
-0.80789418574869
0.988383276623134
-0.816673097471026
0.811527235212711
-0.776029929838794
0.588534512473229
0.151805823464368
-0.271691408563357
0.523249495229335
0.687339332968957
0.854927711345766
-0.985546546148942
-0.00364755857946131
-0.587068871224314
-0.123782051337376
0.439561783294842
-0.337233400526977
0.376807684053302
0.915608074083223
0.966543948031108
0.91924916603326
0.468746478627836
-0.0830941797620817
-0.231505311230076
