0.800068648358555
-0.802092354214422
0.945417667930348
0.115664390665752
0.373940612829869
-0.956694248376477
-0.0981031381361674
0.636185611319815
0.654282845762023
-0.951295511731309
-0.83180739195738
-0.158237322383897
0.224270397940965
-0.192584373130055
-0.00925798956920531
-0.00952715595962941
-0.389590902972306
0.467226042749571
-0.156017778466467
-0.624356020058021
-0.794557196246734
-0.31164453626075
0.203731822259153
-0.0262358213471538
-0.132342999108134
0.133815789689237
-0.226658658753839
-0.872949030190652
0.0337143651680676
0.442013646338011
0.323294893216431
0.21959056760312
0.21106229726949
0.585045121330314
0.00461613012262735
-0.826738277069816
-0.117316781442624
0.12715655631703
-0.0774522064116723
0.328282477944106
0.482287464221891
-0.437130304663288
-0.888137043526964
-0.757663210832357
-0.663491496183768
-0.137816083509468
0.431790731351858
-0.426051260914051
-0.846001278224664
-0.190633379552486
0.269312933878212
0.605352946851675
0.380309900320457
0.687583474579021
-0.33782069984026
-0.10305574252614
-0.224996871568297
0.917784677873205
0.508607028157552
0.0214512599226016
0.306598884826883
-0.112269129399114
-0.980448984818089
-0.844724487107257
0.531439230249765
0.532919484153241
-0.127644339115506
0.329056914557698
-0.892151755082189
-0.505049594246654
0.0213656751286075
0.427730155984686
0.543160434844626
-0.177431846600105
-0.287658002300519
0.0150748425101237
0.894492128663663
-0.858421565348974
0.0418003458545451
0.866017607360911
-0.398559872060721
-0.0458639216790426
-0.787952320951643
-0.468184094571416
0.154393392068862
-0.331767781185608
-0.759134741406419
-0.917301861344676
0.217159111202047
0.368619267196168
-0.45688371029541
0.709459847233476
0.617346607671181
0.465658625809093
-0.237328250095623
-0.981606082255356
0.598277623345929
-0.592829810706516
0.115015855595182
0.770118687196886
0.0123850319150838
-0.213956178283604
0.717748574339919
-0.513429384566888
0.706993447656098
-0.285859977036928
-0.878330558823347
-0.203697919757073
0.45437069764831
-0.869068828841239
0.681370663246843
0.976976717504024
-0.857755486959887
0.364530375813188
-0.912823083751017
0.0287634866145409
0.687289591026033
-0.717978175906895
-0.163551872170761
-0.962909993972396
0.311891104944988
0.469176389924079
0.812650697032644
-0.99505869501425
-0.766308725795701
0.953110695567022
0.120930826057699
0.618592211845429
