0.645147025800026
-0.244421163322089
0.0786686621698427
0.376078902404282
0.266293775559284
-0.609571938385733
0.688487878114857
-0.831696955570245
0.528314739804615
0.237191949197767
0.903359140048497
-0.998008167209991
0.383633047149949
0.30460513355416
0.010969400800269
-0.786143613752042
0.941428209489557
-0.337735354196292
-0.771301904779872
-0.388771182394283
0.280476464369468
0.50768651526541
0.784731146090171
-0.553200118734423
0.324639304226502
0.681541722252102
0.0218338532226344
-0.0416474365969668
-0.663797650275549
-0.480855655922729
-0.637853042223879
-0.0375614847729555
0.113407210564267
0.0378591812479585
-0.827095954242524
0.199627384646771
0.0200831362631415
0.567054421827939
-0.271598391942043
-0.730460542317113
-0.757157334551169
0.48139754726341
0.970015632772324
-0.917297297390542
-0.298041683911795
-0.562980737813438
-0.131773735997679
-0.462271309853251
-0.378862657372576
0.185025963324002
0.961566242912918
-0.299357134926191
-0.356136559226737
0.516268468769105
0.471926459624937
-0.71471348502507
-0.246215341549215
-0.942262073742359
-0.547016656454534
0.72293161242758
-0.390299839458431
-0.329180865939213
-0.967021542561687
0.3323598795968
0.0547457906154039
0.554741635432634
-0.947310548817563
-0.260786019511079
0.919644961588904
-0.588076527228493
-0.647660466646802
-0.163192233917169
0.493316807027598
0.354886222077792
-0.125436617132574
-0.117697974555474
0.261307521371547
-0.603070284308685
0.0453680816607425
-0.91442315572459
-0.724416097476136
-0.532679922965133
0.985675823205889
-0.378578582238568
0.333702307183547
-0.378599539164957
-0.705180279403346
-0.515119643210374
0.0186537672654989
0.450845091844329
-0.561693702176627
-0.472898827371925
-0.191909349315395
0.983280782857393
-0.121246257405641
-0.0682302549863646
-0.103958432194606
0.654959395087488
-0.304791964095321
-0.0497184677907401
-0.531044368292817
-0.49085524736234
-0.522000054077766
0.163088743495601
0.361684734013979
0.255981880343928
-0.96410288223888
-0.381942917041985
0.700188655226478
-0.00472742757007993
0.698962221812408
0.0236536941567732
-0.909575240252939
-0.79647636824247
0.0919470754353573
0.338264618933242
0.181571838577403
0.375331011467673
-0.191115918317946
0.108946741734496
-0.0742065227305556
0.0695384325771922
0.372040607512387
-0.0455761226276216
-0.60211711758888
0.119003703343838
0.448871100326974
-0.474280907774864
