0.758603291776987
-0.609978337261322
-0.220227320313036
-0.0845400824037621
0.0923559060232088
-0.963706150809567
-0.53944233773666
-0.945198944645096
-0.231670427919963
-0.698835701618344
0.524863851590971
-0.0183603637186426
0.993677094125571
0.666730965333242
-0.885095536864957
0.272579288499611
-0.0313529553409249
-0.770113558130631
0.459055796709904
-0.735985273897497
0.702170483831531
0.334226015926158
0.650084710654986
-0.406823089392504
0.454708208937138
-0.469056543121883
-0.356254885838645
-0.692128950711861
0.412035859162477
-0.380663241160002
-0.442663648808819
-0.562017762498437
0.203801324943525
-0.499959067435734
-0.700055089827455
-0.306169895530356
-0.829954157149003
-0.0145025608304864
0.959216705362247
-0.0211181741990232
-0.126117973841162
-0.268324589137967
0.806418505282714
0.300344811270431
0.844098191213045
-0.401448385716539
-0.0596797472169024
0.681378286883842
0.255678536509431
0.692603822767855
0.46036438904435
-0.436272815491102
-0.179708272356457
0.353132533564725
0.837885895838518
0.641174999649028
-0.552759644394549
0.613481214044891
0.584056760860574
-0.890785926901184
-0.757592889370887
-0.864011554629431
0.348682456637223
-0.338391526374994
-0.533693879723555
0.458961986078921
-0.965770836791091
0.707202183975925
0.351010454027182
0.0647880682463781
-0.178346513308672
0.243835784861257
0.297029032190459
0.147615693732352
0.990580856354019
-0.522631248274929
-0.525568747153262
0.56572920776222
0.167863998529821
0.746806379451092
0.958192255328495
0.635209495613961
0.238454712671394
-0.0043225738996686
0.0234224789413356
-0.724452287802758
-0.0821901779742594
-0.288354547787451
0.606819204918697
-0.665985810378072
0.0674072539957586
-0.301681118658601
-0.315639858772946
0.408208428459831
0.0661889047094473
-0.586940482734719
0.249843371729699
0.732551184765363
0.211762049255367
-0.546789108196732
-0.661942935201322
0.739149732828436
0.820685208286629
-0.264706790539182
-0.749311322718715
0.628083480490671
-0.720558788499435
0.901754688075102
-0.755409103503429
-0.487019198109631
-0.534326907291948
-0.947264614303193
0.0885946267948999
0.58954892394125
-0.0668191884047056
-0.39137064117832
-0.493660579963423
-0.5476515112622
-0.667462423385719
-0.614690016842288
-0.630874300270166
-0.868386783313635
0.535197219021022
-0.305581139110702
-0.638686349176755
-0.865866681140339
0.0628356116991231
-0.776447534283619
0.528666724104499
-0.611199778774844
-0.290010172145739
0.723301561111871
0.0716309961035054
-0.0596710767567591
0.797717156663474
0.895461700982409
-0.140386420204052
0.239359947199322
-0.485165550942927
0.0952352570934987
-0.819167208829085
-0.313301143023036
0.465447950600924
0.457537623114537
0.447258382175602
0.0542013818941153
0.207228851303631
0.555648464456577
0.662083721923858
0.190746177417847
-0.509857151961644
-0.442316269553251
0.1905449135981
0.987192945432422
0.789339311826315
-0.442258110773477
0.277588940800532
0.147289133013154
0.274354834787106
0.772159460078685
0.332165827935209
-0.383693924724238
-0.639470056613234
0.503748741340187
0.0705328135179131
-0.276352541110512
0.997840498157156
0.844201703057056
0.874039014690241
0.812969873819577
-0.396967085887726
0.677798739718213
0.148605971413209
0.710991363513692
0.845097038060805
0.486310857149695
-0.24893641261745
0.135791621492918
-0.369773328173827
0.162782091724267
-0.254573773714843
-0.390838918843553
-0.297419691344737
-0.115458804772901
0.833050915777678
-0.765689647316551
0.380330070034495
0.16847265553082
0.769034065792017
0.398157908632682
0.117077730551463
0.268843287708613
0.210382619875457
0.744778062299958
0.802288294535455
0.63725643542052
-0.569951409602681
0.517528611106598
0.314540926144251
0.333051626661887
0.874489452328213
0.532094126938661
-0.415393051273653
0.107016480564218
0.471729333535162
0.275780686776291
0.84406933021554
0.277150908107411
-0.228657880499311
-0.654035976937264
-0.208903261461371
0.851621169672759
0.689327599960755
-0.6697868434984
0.905066928722503
0.79939664993717
-0.89787330138382
0.455492577656635
0.184493212878422
0.654859817795717
-0.158476239781266
-0.119710891380326
0.593701352274228
0.806583432564218
0.747577399644107
-0.676914640823595
0.0539664060393405
0.853640537765974
0.499542103541443
0.749543206040279
-0.0452552548934951
-0.641338446976629
0.937175345223596
-0.93582766919854
0.629092343294732
0.433149684669903
-0.348169342112182
0.998203580272607
0.886048747127188
0.108181199830498
0.250721939559763
-0.286449160293341
-0.336511447358037
-0.811186604486781
-0.281931331755071
-0.375572039087923
0.886869208488579
-0.335750583384903
0.886324830227651
0.189557405939197
0.505517795686374
0.753813471236931
-0.534918888308969
0.20419815444493
-0.885128991448807
-0.526058729586644
