0.260841397904068
-0.689259458653257
0.433402687486931
-0.707609164581864
-0.534193563296387
0.453255412532504
0.101290327815293
-0.968495398221644
-0.364515404900807
-0.141308543155393
-0.51266668565175
-0.507728071210633
0.585984659445801
0.407999540307362
-0.535663439672084
-0.467738566508778
0.39714670110164
-0.961053665800682
-0.529349760088601
-0.625796179260419
-0.0332266444235436
-0.0377249251114861
-0.485700877310328
0.414028854055868
0.368429693629332
0.2777591088848
0.885270311756576
0.0420986360979837
0.818187691322484
-0.969817083651878
0.318654906416866
0.0953500835528802
0.625324640908822
0.046619377764405
-0.173153096378128
-0.992863642234089
-0.341442903581912
0.129145753361968
-0.608751081291773
-0.930118584530668
-0.885141691116008
0.858170973806811
0.128924955262108
0.556236255070496
-0.384703438396734
-0.826223355551003
-0.445635576800242
0.27547685405394
-0.0133207398397672
0.0968896620636679
-0.365174903146929
-0.040371029715385
0.763861586749599
-0.697776888317024
-0.988980502452702
0.990591659095616
-0.336105756493256
0.577093008712896
-0.640243105476254
-0.536004108930628
-0.548035441851586
-0.179822215902989
-0.879585626630682
-0.00454747926658084
-0.423742716506696
0.978293634014808
0.986425431036312
0.447705846376349
0.100766343671768
-0.659503940941737
0.587133962430936
0.603502485664178
-0.326021418965767
0.00490916722118162
0.7333241548326
-0.357577304647234
-0.494073392690931
-0.707304131004159
0.6792302136766
0.00423114664928202
-0.440296771040685
-0.998947788626098
-0.557963803575114
0.350422739213944
0.372966366320076
0.693115257940833
0.679433821120395
-0.871380530536827
0.792328637721001
0.334535456727615
-0.0732710758020052
0.315569283205566
0.491056486431343
0.586964975952418
0.463054946589461
-0.180171521143327
-0.328026461830196
0.181858314947078
-0.0921820307770453
0.17932998253309
0.348456191591835
0.0681955645047427
-0.186011262520588
0.990234159830446
-0.345778537400269
0.356741794560199
-0.637487352308826
0.778191958670717
0.717969598231782
0.428511860558605
-0.0831313160992165
0.406361708735204
0.404086074899643
0.308575444251265
0.50492873609602
0.193806238535512
-0.602154319033182
0.829454595085026
-0.516055936724561
-0.440348234632114
0.7490233058078
0.0847170157441835
-0.561050301740543
0.916998651106825
0.44567627025454
-0.405036326149208
0.180550109729531
-0.341001341690803
