-0.0468226994546399
0.0108597150694999
0.343439997777081
-0.197114624974208
0.862448980695541
-0.209775080682969
0.503428606960775
0.201725226862679
0.314416353719928
0.979583310821852
0.360141802760034
-0.313938862089126
0.326381946375092
0.700969954691978
0.309163246675518
-0.747488419099575
-0.479573494760033
0.0555493793849818
0.495342892765489
0.76740159274214
0.584914747213152
0.876750843811252
-0.168476998385278
-0.680621365414509
-0.688635643415161
-0.521355803341197
-0.492759420303476
0.563482071539237
0.985960712608834
-0.362896781367491
0.343974917608521
-0.165897023077648
0.447216541346286
-0.155982096982233
-0.411838065088119
0.639936997064426
-0.22328313102527
-0.350428671310405
0.355432527554672
0.210008560699699
0.976415263048984
0.213847550350686
0.746528580593397
-0.119042464808478
0.354270666226874
0.861066201384832
-0.187555819870715
0.742483308435124
-0.743610478934011
-0.587116506759244
-0.848985372895769
0.633381017427897
-0.805035290560874
0.227230513025651
-0.092960819868652
0.945441380807876
-0.688542401009425
0.723011060875149
0.0379440759248276
0.429036639032678
-0.741827228587487
-0.824589855067692
-0.48958206281913
0.753932529443443
0.984488749226738
-0.644208777515944
0.834128012188002
0.107809663643024
0.755378407140066
0.980344393443584
0.801174806554508
-0.049198272898951
0.172925983525003
-0.0639797058157188
0.856714710771642
0.768162852159922
0.69368734948501
-0.265599190536657
-0.514260355407491
0.716066038863095
0.218178921488038
-0.878085043783333
0.375225519070711
0.681794385893068
0.334710367620275
-0.676973905531968
0.102789155899489
-0.329606281903678
-0.63042471446308
0.639026432038398
-0.374194988852076
-0.354700559548233
0.551826379531449
0.6825412531294
0.440977606401045
0.332875073328743
-0.267209653089468
-0.843602566319361
-0.468304584418785
-0.545546098691748
-0.194417064452922
0.466969558543236
0.144719583673237
-0.147623707574208
-1.00184825094612
-0.383654881393379
0.306873753461923
0.544772881610778
0.0255875019359305
-0.613262865591916
0.302079275452651
0.815449349442644
-0.76214515176716
0.901637481604536
0.101078003565436
-0.789483124897471
-0.948909363831166
-0.330651549026514
-0.315021615123655
-0.0847771048629988
0.311386169066304
0.291593135641203
-0.806903939941342
0.642565340184484
0.0808829700869766
0.184508819539948
0.899082966842213
-0.27837963253864
0.183792835365481
0.0617858885667814
0.142804333670956
-0.513824163757674
-0.377207434640004
0.186391133352765
-0.873954387693401
0.477673070355363
0.618090244707201
0.544081488314811
0.544320989163603
0.286531849702134
0.705310771467229
0.313097234099713
-0.756554511415051
0.902945566840524
0.432033926074389
-0.550736449860836
-0.253915064403074
0.0656312766167222
0.946548196855929
0.962726837094876
-0.650625797134739
-0.745208540763276
-0.98702166511843
0.906885472506462
0.908655337016947
0.544218919615855
0.814278611707556
0.405005524249608
0.548507093839893
0.869984465654712
-0.627282220822429
0.934807984955059
-0.779551103181702
0.809621052396037
0.405918373048617
0.0534947282278913
-0.361257154769843
0.406886345124579
-0.0564926606778158
0.95545474654261
0.596110094393852
0.497561501834082
0.504764058095604
0.45093254085268
0.212076641414023
-0.92924522204738
-0.798003660102833
-0.723896364065244
-0.824991619826293
0.971205802983594
-0.060504495595467
-0.746480356908758
-0.773258142916808
0.0515227215901367
-0.0335332202117268
-0.500240179777599
0.224118641485141
-0.989759012107671
-0.442566242250672
-0.347694294019289
0.647541087436731
-0.589847569504858
0.272092107933248
-0.666970893674395
-0.853399127379587
0.519733147144595
0.811151300753952
0.590644505083029
0.537149447741626
0.764753160555004
-0.541241255631778
-0.389584722228757
-0.16327344123062
-0.120873746029039
-0.263027913914013
0.211168534638358
-0.539484446690864
-0.570421968804441
-0.16251783151113
-0.716351444271824
-0.951777605201065
0.0442396133758228
-0.697368623647278
0.993293940271895
0.532687946125679
-0.190580717193158
0.276313961750257
0.292213738614167
-0.0481727303936009
0.317733285650786
0.377901169495742
0.208781162059768
-0.500777131303436
0.360927710584991
0.702693623144002
-0.347898616446928
-0.368784835271415
-0.242457792810374
0.59585541255
-0.911617167693569
0.741052567977494
-0.484083219438098
0.0679093968372663
0.54215401659987
0.406308851096826
-0.948092666194341
0.65962158980853
-0.432691145127343
0.0878445311119529
-0.701846185426276
-0.714350969091828
0.376754658057284
0.432411842849576
-0.878172077803495
-0.697564174586736
0.400697848107229
-0.168559399737124
-0.737835047423878
-0.132561846841932
0.833302247286236
0.528385598114585
0.198146690844174
0.162817775944881
-0.474752154823544
-0.525346258560015
-0.345169283696744
