0.809404641211353
0.409976313918026
0.243103651172509
0.0435268871915386
0.723645665447469
0.411594175639104
-0.2620507221657
-0.262778032594285
0.321715391812245
0.446479358089165
0.00618518323815381
-0.71138572773489
-0.977666710663484
0.336757675618722
-0.851959358741977
0.953674722311665
-0.467423305233797
-0.382174083326183
0.771899689666172
-0.0589787367958856
-0.00994620690681844
-0.751889536454802
0.355751392273842
0.783315390896983
-0.758083840889962
-0.806829542829056
-0.619446201087634
0.714875538929206
-0.368963426879739
0.268451900304157
0.159505843747964
0.833385483006105
-0.491504736475207
-0.605090430144761
-0.356382438754033
0.681842161244233
0.331966601437534
-0.0536429531310926
0.914593772751276
-0.0949573800299899
0.111086449854176
-0.548098827428249
-0.524911176039324
0.949638939190845
-0.567671637898534
0.16769782356957
-0.907813915204698
0.0804932358857561
-0.002140484383482
-0.729599160946218
0.251882503953052
-0.751288442960686
0.180132916710403
0.383258813748386
-0.812472865930796
-0.362449307640821
0.605826436752874
-0.299219056759816
-0.00289522091139297
0.735907114222634
0.723236895822933
-0.942275095520499
-0.0689898063218536
0.847763347191594
0.311027403953003
0.254797333609205
0.122416250137694
-0.939278823843507
0.00513221523962733
-0.293701109869059
-0.72014189111281
-0.597144139489316
0.559556673427924
0.734165925367614
-0.375420178228378
-0.494400882395425
-0.113479934363505
-0.48622609549478
0.361280058503591
-0.831305556873774
-0.574850493442145
0.93542480643823
0.014544086754646
0.90956811159482
-0.0948319724861999
0.551954957766252
-0.942041004751634
-0.242127639082814
-0.605852792669092
-0.0879830975744708
0.752168403541767
-0.618177631446126
-0.655986283935087
0.37468284289558
-0.27000634162124
-0.261323976631305
0.171735821662891
0.935326191593299
0.572677508870286
0.119322474584233
0.635925118835154
0.609567258370904
-0.665490845413179
-0.93416758333937
0.452741800358583
-0.539618495598782
-0.986603926481622
-0.429350609933771
0.461781232825221
0.797334218043069
-0.824851180140811
-0.871649321487859
0.654800370792551
0.656194014783991
0.72996064516103
0.510029046656621
0.734784290304819
-0.127847358956846
0.0101700621603339
-0.55783411357006
0.189840605677022
0.503810982105185
-0.66247740660263
0.798446649317667
-0.288089461945683
-0.138708943366166
-0.866487079470663
0.416197631453684
0.43551921154048
0.6322655619905
-0.914444301255885
-0.584997706066486
0.0473403267524105
0.843000231821555
-0.725480807191485
0.468113484188012
-0.622331949729277
0.754512289252132
0.588479144984607
-0.513014675410658
-0.719041179757306
-0.00821255466223046
0.684815058917998
-0.148907120032863
0.0213860086531279
-0.78674487280035
-0.617223913222256
-0.72773316576451
-0.793840983072064
-0.368569161831981
-0.31723967550504
-0.757894434355385
-0.27206208005044
-0.0382508564700976
-0.15854743646851
-0.855544291360612
-0.0836596115066641
-0.211553874566327
-0.543209216060858
-0.666050590519837
0.536333704478073
0.596267942988319
-0.43636635701079
-0.60540562592962
0.388540105606195
-0.0213240726256545
-0.204270348756512
0.287877666520632
-0.864024495837306
-0.280336893373924
-0.406061016568569
0.13095419060076
0.52835765940672
-0.604810404043706
0.357306388134279
-0.429702697081211
0.925333012483967
-0.740764752512229
-0.700980020377572
-0.704224164291755
0.104559523128828
-0.52678376782763
0.752170551577744
-0.549526506919076
-0.50365391576999
0.482407819102126
-0.87889143646905
-0.788055605654921
-0.977263966558808
-0.863936758272223
0.779856650427149
-0.144851128481409
0.070091529867026
0.506700202757743
-0.467713310289483
-0.0311509916706258
0.550576422023309
0.183832933465314
-0.439354281277425
0.0399349563085668
0.40622407368934
-0.993113521820923
0.205298152230164
0.280626963712102
0.499069224019443
0.563075017138833
0.32837194415457
-0.958822128109318
0.277058126208939
0.0589900239169404
0.225934901401822
0.617441372406756
-0.753919572529834
0.931035987945726
0.890867088341595
0.545561395581214
0.516879661886448
0.281814712827103
-0.565678596721546
0.827768735828849
0.258618481192896
0.161916226535948
-0.274012450583638
0.745135874687272
-0.782351181198191
-0.0679247373344057
-0.513838030555859
-0.0727451969683894
-0.209543414748095
-0.736034019240376
0.687685535482494
-0.0161617502189801
0.546050053093754
-0.208782846059727
-0.776485321730503
0.842807212957856
0.980024514426291
0.245555452580487
0.357437794968751
0.142139731196831
0.251803103898489
-0.257954181634898
0.580733614768089
-0.430242689135291
0.762817687381715
0.896041684964414
0.895393072612796
-0.868768171246401
-0.413661671126978
0.35812500131356
0.490814464934619
-0.262177197753024
0.172811578407691
0.608812325205855
-0.137324093866733
-0.670109049280435
