-0.291774816963515
-0.828844295128503
-0.326870433958953
0.576922739268835
-0.567327879603874
0.145414722216142
-0.61944241809528
-0.474300520713182
-0.720610198398741
-0.534942891285233
0.0345712802598519
0.691682186346825
-0.457041310410724
0.506589223894837
-0.546076420194439
0.136298167204262
-0.0531017654216571
0.968612041729512
-0.993507546050266
0.600296012283304
0.938876203534621
0.757364450780365
-0.446707828755764
0.0989861805879584
-0.646720976155188
-0.979731852897906
0.906384912095415
-0.579002135882593
-0.290060158378747
0.911564550534676
0.905350200895514
-0.54478886758685
-0.835190362376878
-0.378531754578302
-0.965880970679664
-0.162218883975339
-0.234327307211995
0.946047591974109
0.602906902285406
-0.254436032022274
0.0788505650466503
0.0147233352866793
-0.246559178755758
-0.719285560024608
-0.269519099316543
0.472860038262118
0.696114304915206
0.115617837702877
0.891439096055472
0.177604265637983
-0.375177001942798
0.0202980658474437
-0.986078893246595
-0.767233530682329
0.928751002167615
0.714748289084466
0.50987782770994
0.430709381832333
0.217882499967413
0.551626107283691
-0.927611870584769
0.0182465792448425
0.827881592601678
-0.223695839170618
-0.543486218034523
0.613998549406699
-0.340680257567439
0.404759983243196
0.146874453257835
0.291547077088957
0.315783513873507
0.761052220202864
0.959915089837417
0.929196198124824
0.691175200031742
0.72680154616948
-0.622426224899837
0.0756676783939087
-0.0867704700958605
-0.174843629023081
0.540003724009482
0.693890533321672
-0.511055964631924
0.932250242013678
0.0962217030595195
-0.405176419766338
0.23069587762297
0.518746559730606
0.36937421607337
0.654444193570963
0.357281985992869
0.311255793070268
0.898011486876121
-0.395575809248285
0.0824831176010894
0.565515077479163
-0.183169521532973
-0.399808950245249
-0.212704620408284
0.282297178189192
0.299334763437495
-0.884611548445216
0.240380478256288
0.919766461570603
-0.452421990292679
-0.762158842468609
0.651947798966041
0.774242768948585
0.0305280421081297
0.668656999580543
-0.925233618053231
-0.0781762394040167
-0.809505036970279
-0.359820293855656
-0.26472212034945
0.634258721246018
-0.800579566425893
0.59515856833646
0.693559440849508
0.0460367946961967
-0.314493949081621
-0.389815463480485
-0.527568944987925
0.287678789224272
-0.520272833306119
-0.30257123748238
0.977227099222324
0.273677250673555
0.800841920119379
0.0945014504879325
0.9932566970173
0.934594516246921
-0.856595480594514
-0.766284650065681
-0.225485037918272
0.0257445796098762
-0.384104133035716
-0.822862392608728
-0.286503595443931
0.400918890688382
-0.878923410100107
0.506935382431078
-0.858249724674756
0.601056338699187
0.602775425663568
-0.368250481184417
-0.583176558400188
-0.927594333681818
0.296734977407068
-0.522053550474298
-0.146736891446817
-0.374154926543048
0.557004107412772
-0.0770244508186887
-0.112152596983021
-0.0282744248934032
-0.14355300180666
-0.959683750718611
0.201425271979845
0.822714266823181
0.227279078643831
0.694351367182905
-0.0307870841262858
0.450120554352897
-0.989119284930565
-0.285912674102496
0.665858487633075
-0.956144311954109
-0.961365813330229
-0.089346667782863
0.626714222398391
-0.173482062875204
-0.10002177644463
0.301753625656484
0.700049917576335
0.775636489364525
0.657270583005395
0.884342466059768
0.415612432478453
0.610497952380107
-0.882180491462639
-0.408548941826895
0.722747269147918
-0.843783779622827
0.525539697568531
0.528378737816152
-0.89597388977313
-0.235532562738247
-0.204952351659708
-0.647520559518347
-0.978717998787561
-0.10141113512413
0.810180471970552
0.668198716923588
-0.920758103605376
0.581387400037213
-0.137289066865018
0.803018188172146
0.738060793276145
0.960242139230461
-0.328162266349968
-0.923452567774636
0.845049402058861
-0.878326416568416
0.0868753872384447
0.487338206644518
-0.127116065832121
-0.65244816845311
-0.434818008589257
0.684876923686525
-0.880455704427579
0.644120014203523
0.982599920615775
-0.449563713521816
0.237947000096163
0.287122575715836
0.508157845131964
-0.795835982709136
0.728552520120632
0.943642271369954
0.355369737235851
0.818988033487841
0.552733408632401
-0.293833366510568
-0.294596588340034
-0.856975294838916
-0.707469231296912
0.611419320464342
-0.287228458023753
0.504448767677197
-0.393925766724551
-0.699070429310266
-0.888885534405743
0.0336433547610519
0.194110222472788
0.362155129826736
0.991404109383581
-0.91177233153682
-0.686582308066841
-0.301489429547807
0.231175067893997
-0.288337813988679
0.312724582439888
-0.520431498104772
0.315302496671758
0.0639913048557939
-0.737933145385367
-0.732567084307286
-0.493464718229207
-0.746256801836083
0.0137962983456546
-0.509367473509866
0.980859206355673
-0.0554962518214432
-0.348441907737881
-0.604245889365872
