0.865765145089636
-0.170816143044356
-0.0802933893941141
-0.40126588151377
0.671401599250688
0.392714832389657
-0.424016149209421
-0.364416293139531
-0.892375836212461
-0.143816012159768
0.185222777192496
-0.701099737849958
0.0208235652631314
-0.218800208997872
-0.00633892464085146
0.0449659576500308
0.132636039309157
0.803485739944705
-0.336170133861433
0.290172720880457
-0.0539875462588167
-0.644645066854755
0.103536996222914
0.460689264491151
0.694468563055145
0.713598463683826
-0.380576837779083
0.0723927562756428
-0.891675440671437
0.817081660374927
-0.333456932609373
0.200568225153874
0.65025119205853
0.938462101978471
0.83596449286308
-0.602326154392807
-0.799644389898928
-0.764916927624804
0.0986339324638783
-0.286521597359512
0.714288968704579
-0.577993249000151
-0.872359281826257
-0.745555547304408
-0.989884746603827
0.5735153214883
0.563489931383733
-0.381505009812282
-0.163179996822475
0.00302968364785908
-0.142641061906795
-0.838799134291161
-0.536462308310768
0.966693143598875
-0.38871241764131
-0.574315040155332
-0.821443281866137
0.397366920431023
0.278851328254171
-0.206852886073645
0.742701424229909
-0.180141331095028
-0.112571013374672
0.662413652363596
0.904676769563202
0.570665073560828
0.434310476482862
0.988524186906717
-0.597648144217647
0.452163232167226
-0.763678453752444
0.231143063731032
0.770277275399551
0.475065501409541
0.755820660140362
-0.8080396155356
-0.650968449397554
0.639185548739629
-0.279103566391808
0.00840643148418985
0.156706227462428
-0.483130784763436
0.702164169160663
-0.030139578407833
-0.172398685670822
-0.178188729652929
-0.820765613252053
-0.544890260070775
-0.214585725073581
0.28880285096356
0.734069444144044
0.942511299139432
0.62897593367727
-0.777512504386997
-0.147761496742833
0.691126775465775
-0.176127090800913
0.354934805170421
-0.800305604318574
-0.100778093100733
-0.0317750556962521
0.756164879236704
0.632890391346163
0.646136169913703
0.60798906853404
-0.757679043311387
0.150853391566492
-0.532724351608137
0.172881331321233
-0.0971811546988547
0.688617085262999
-0.165467042036524
-0.61249837679252
0.774170429174292
0.18428285709252
-0.472109786168682
0.913191843364653
-0.559543340877299
0.642518328393414
-0.358578972583018
0.43115649580013
0.645808630492441
0.573263746245161
0.685211995440429
-0.837070331072782
-0.897361177689619
0.229834664024468
-0.600578115351324
-0.117811435633069
0.682816755524051
0.121385392147853
0.479304603367497
0.336221288834366
0.0832349802739578
-0.113441716507782
-0.107990772103456
0.255616122564941
-0.935874283922912
0.124907241271068
0.600225718037076
0.324735602129639
0.714454348544034
-1.05886761294768
-0.17852254623697
0.364846245339167
0.644688457398001
0.49917380466908
0.5769740440981
0.532386723982337
0.991602865583125
0.43831710494853
-0.652661414604187
-0.712624351345706
0.476397783850801
0.852583226964022
0.943670435099626
0.406550517907402
0.279370239238513
0.76865454802598
0.661162174883177
0.796677473762488
-0.568313482951538
0.193564905115129
0.423689051109869
-0.952980990334447
0.672453723352676
-0.27734793203736
0.0109989856228255
0.718638655014222
0.270489878350699
0.909607549830465
0.629656392547775
-0.340311719569234
-0.701105354314291
0.0649424743337905
0.700068087740931
-0.671214259401547
-0.872448174880521
0.996747989635367
0.764793360495616
0.202694738094008
-0.970871042134791
-0.618896742137556
-0.210036863023979
-0.288582520317707
-0.404674635761019
0.167112305201629
-0.693593314502309
0.873706155558734
-0.390558726897406
-0.396942852594892
-0.133384403717239
0.429788211716524
-0.117582848244227
0.710625792620483
-0.236657119540682
0.24158065808958
-0.158448745222226
0.0211549856287972
0.71939444623791
0.527099760209818
-0.398610765298507
0.650950046818717
0.696682466909203
-0.829396112532906
0.115040078866131
-0.25149211594398
0.455255364966525
-0.314982412807685
-0.687436062908587
-0.547991868233848
-0.496378008763069
0.0985409513801051
-0.581830314195935
-0.857375594711969
-0.45741548846991
-0.0105980888158792
-0.223952025697234
0.453817159282772
0.591162518470998
0.0460778059767962
-0.278986674638038
0.396757881320424
-0.806905612164256
-0.529695679847617
0.251738435757419
-0.783668292864408
-0.481406202628733
-0.497419240964716
-0.622457875352836
-0.373787634670562
-0.936746012207739
-0.291805877964023
-0.72144762865994
-0.833301735619373
0.67081349709961
0.811098002429241
-0.277807812277834
0.478700306192226
0.487960683691996
0.114695119695928
0.992267529369214
0.311996695516374
0.16216728792238
-0.37266606905737
0.566424071492041
-0.366357770969052
0.712969274460301
0.88805725710704
-0.166873914420231
0.644517111711255
-0.639876057628364
0.626932667801068
-0.188805497308277
0.561667160922887
0.433532557153705
