0.902015847245403
0.691794999772751
-0.321471520352326
-0.815292098233693
-0.8462533907633
-0.945126679435899
0.960420870744634
0.286053334372093
0.652528307423682
-0.52260213309056
0.332250701889017
-0.359210356414175
0.115786794555498
-0.00627841505372645
0.524796836589277
0.792334323602853
0.175727063756117
0.79167016193512
-0.0472581964188722
-0.759881734559629
-0.758639521897101
-0.781205764351493
0.664191193446434
0.785999554884445
-0.114452943042162
0.425002892933599
0.27683770659751
-0.896715221607002
-0.154079746217742
-0.44783281602044
-0.154866528372746
0.912791658406118
-0.809134007259602
-0.166402443368623
0.239582973996311
0.459403396532207
-0.669013256276822
-0.0821247925310142
0.329676343546673
-0.474585202789285
0.837680659404232
-0.506370697824681
-0.693734127038883
0.280705188606605
0.366790077214256
0.438723192130225
-0.470297487037659
-0.285005446012666
-0.49339420105777
0.831982496351947
-0.244978676808715
0.409812442627638
-1.03299149866004
-0.263954270288245
-0.492661160375896
-0.98691199871384
-0.375866070185395
0.576945304708559
-0.279547328477357
-0.884763525689259
-0.96357337005161
-0.860513599304387
-0.796667404704875
-0.611520564826355
0.323879894400515
0.184393827975348
0.87737189031123
-0.00742598200316924
-0.246259985482963
-0.636856558625286
-0.694410368149225
0.565691966785005
0.479814584389569
0.296552913576491
0.911803551959332
-0.425017050133044
-0.649406021023854
-0.531689125945392
-0.463945848418825
0.920441200038113
-0.333312051690058
-0.334333536177255
-0.468774859361637
-0.0987005747686493
-0.877305342901321
0.133062929099728
0.612496408209396
-0.770541071045754
0.879298453009055
0.412383107277533
-0.507504825226568
-0.719891876567141
0.761851889816873
-0.578285806976365
-0.0762015855447475
-0.320851754944915
-0.515109716341312
0.413861220915497
-0.856664987535103
0.891825785659251
-0.198076989754527
0.687365252478427
0.913121592037721
-0.333840774516259
0.269510950926012
-0.000815732297875559
0.0128346894202985
-0.311299186700388
0.0211012581402044
-0.00908030676352127
-0.0627374136113657
-0.0394172353236507
-0.839560136816443
-0.381883501760805
-0.957449184507525
0.445042895488195
0.663394582804492
-0.262131199349098
0.107626379357708
0.484419277190116
0.235170284149274
0.927774625151636
-0.620522507433605
-0.110052011752047
0.877931691364994
0.56105232235208
0.0428720939089892
0.132989352752714
