-0.0292496409513622
0.567913139330028
-0.406939709905772
-0.716404738630371
0.766763766740414
-0.13384208626602
0.223461512600372
0.984246655820937
-0.794522393750017
-0.736393271280639
-0.666509657759292
0.741657141039089
-0.800090310372416
0.624762672091433
0.418395501681012
-0.52545878284442
0.920057899837134
0.406778869729877
-0.632734747661527
-0.138169845059634
-0.066465949688246
-0.160825613530766
-0.0496205922462599
0.40763415296221
0.647680056212152
-0.409508489623215
0.182135294138722
-0.121671450909964
-0.107387883902675
0.675775230817045
-0.362618906807206
0.0867927306761105
-0.468495612037064
0.414776729726952
-0.335137839861372
-0.167306345013628
0.142749576862434
-0.547196539115302
-0.308320358152978
-0.0460119328704378
0.877022871534314
-0.293741348718164
-0.858997034164894
-0.39700211406062
-0.136345699920531
0.239865666958074
-0.891157627172946
0.855853050166321
-0.885580506359619
0.0112565857039771
-0.00998690972837201
-0.0786928163869713
-0.929546376839662
-0.784005547061106
0.321560249592055
0.442355390300561
0.000696232182833655
-0.841096175600998
0.210905401667176
0.606015255277142
0.450933794022281
0.257654757668396
-0.895796102497653
0.398928464359081
0.63482023163224
0.660518841916896
-0.711869507516466
-0.838891333387853
-0.450159039215677
0.58995253233938
-0.243977693861127
0.279818199024381
0.632360381557791
0.067979241311394
0.778876117218705
0.682748898813213
-0.225988833783748
0.815770108799871
0.280474975934014
-0.713350770692473
0.210317030130781
0.233418890088104
-0.338907049059547
0.132753036664835
0.0671592584498306
0.00430066422890573
-0.306499002131926
0.103443730251757
0.293843068049655
-0.801030678675809
0.0264259569639808
-0.799545988482715
-0.894592033099853
-0.0032735444302243
-0.679331229227224
0.992479008314124
-0.120822223389341
0.949139821869293
0.651273909170609
0.180487327949658
0.786933857179873
0.716284809703296
-0.704590036471943
0.500946953110137
-0.786330791658388
0.748907547467358
-0.175103315129174
0.77494535135967
-0.306365384851976
0.296954063644018
0.798856762846634
-0.515425581278451
-0.435922269252741
0.0961188711224736
-0.271913691690772
-0.133150763838511
-0.601912178227968
-0.642826015954728
-0.666481582629811
0.928760850181755
-0.119953473325904
-0.479070046081795
-0.21635134290032
0.0289957052615097
0.312408106095364
-0.299613437438757
-0.549087441494214
0.23411088999056
