-0.476025202794167
-0.582054982186318
-0.531336200839519
0.14192706678995
-0.251590834381954
0.981419252690377
0.149727693125317
-0.502241185742529
-0.704829539963368
-0.445255968047526
0.56161847189019
-0.527473323508306
0.835337874143724
-0.951087761060416
-0.901730347429662
-0.354613979362695
-0.443703870409687
-0.469236594499452
-0.0893254517426695
0.755020359932014
-0.239035943269406
-0.933864225433686
0.0256341700121658
0.658479727424867
0.740910860552892
-0.80905270697134
0.550994890544432
-0.0250767775002993
0.240205967201902
0.0513039049770689
-0.134080763255063
-0.436323429776117
-0.0654361225191242
-0.751757202913734
-0.990515805026448
-0.00763641096580067
0.77101751667045
0.0330198861937027
-0.364998962021119
0.260376048507086
-0.986880554097013
0.508789770703358
-0.708819653715618
-0.103094135261688
0.342999513993143
0.117056120730379
-0.306823096171174
-0.212600666204592
-0.909558114769371
-0.598381966013544
0.616759510527337
-0.660896899430762
0.101510822142067
0.104423828353383
-0.157419129219808
0.601875862889142
-0.675609540721002
-0.347611306769387
0.716497801342583
-0.211011402402918
-0.582403146606246
-0.469527973885647
-0.881647316278421
0.346925759245706
0.451859834490759
0.743722273703307
0.15766566870786
0.812358174016821
0.133716053025335
-0.438115050583529
0.00609180355376672
-0.453226481352372
-0.487517690553187
-0.712588578492323
0.391681935976164
-0.684948269985986
0.239314615648945
-0.329770258493659
0.714669746717118
-0.0617681591000893
0.997664455251362
0.333997238088668
0.942595405838772
0.01516632014788
-0.919712271837203
-0.942264837967334
-0.307148936437365
-0.316917894972323
-0.94727485667471
-0.601633045548263
0.917079376866266
-0.599289504924332
0.0553537349762345
-0.282900054482877
0.383414130047217
0.662705298617549
0.117786403311348
0.0861540223564718
0.198658282085472
0.0228819611649091
-0.304370300593375
-1.00489388264186
-0.81063917313792
0.463485629665526
0.542513558893506
-0.00153932268367624
-0.418277245889916
-0.470940167679616
-0.290403158301655
-0.785813107225478
0.538672258130366
-0.250866803066677
0.0568560770269483
0.817594088157072
0.244901649926321
0.570555075257476
-0.143676272794768
0.297535357084746
-0.192388953786692
-0.891880922461869
-0.15116548890453
-0.502631039079629
0.858121576972632
-0.834304370736448
0.391393489646456
-0.648770968213962
-0.256944082432484
0.167779540759992
0.487534157616066
-0.38719218568333
-0.334313045046833
-0.816000710723515
0.818492730880766
0.837033168624929
0.383625870112757
-0.334905548066057
-0.805054371226171
-0.548384467379626
0.516207119382501
0.0419903645864983
0.995384958557826
0.524785471456341
-0.282559964581135
-0.947920466233508
-0.344526872256028
-0.00909545100353706
0.986636494261178
-0.431384975901792
-0.427855795928699
0.31721900315121
0.0487025769984685
-0.270905564865169
-0.756275262001595
-0.51986282482279
-0.0486777938928568
0.439018988510909
-0.712918630916912
-0.371667539109781
0.0653200656939916
-0.718636935664172
0.471235132805525
0.605072051164905
-0.892531049171505
-0.343975529697032
0.579815751727676
0.740184807860536
-0.885396381305288
0.898649118275233
0.0114557738600803
-0.0691051121712108
0.691996146155311
-0.432966520049219
-0.425297995955906
-0.52266598249894
0.157566209269122
-0.461188591400649
-0.500566375821071
0.42699660897274
-0.950518574782237
-0.896222914619147
-0.263950259483279
0.910298436424196
0.680431508227767
-0.957082216265211
0.541035373820439
-0.436824352121394
0.0498349900005162
0.0789184266399611
0.63029897854017
-0.844319991565576
-0.182523507285405
-0.20509453654294
-0.749961263102005
0.38626376033889
-0.91115326862133
-0.90638105816041
-0.538945126701918
-0.268472517809114
-0.404963835647852
-0.335122723128367
0.891647160640774
-0.0944093196738233
-0.978955292761423
-0.431372091934902
0.333956569205842
0.119484351682993
0.798691778530213
-0.276510622061817
-0.0576456665955579
-0.267452827202983
-0.764488782124032
-0.390062220057494
0.884945332311704
-0.741218797405347
0.172501508757697
-0.0272658668522539
0.994583279724005
-0.505529778258464
-0.0722277136497861
-0.97725855724068
0.953873110779714
0.403231912671727
-0.92236785872371
0.13292784975252
0.279506886059953
-0.631227332285538
-0.124314259139371
0.717804447054929
0.8736123888453
0.65827389900565
0.0130966381863952
-0.570652504476114
-0.0474933732547696
0.797188482103477
-0.296367710100433
-0.39271259092543
-0.210618517266667
0.0971862593615785
-0.0453892580592243
1.01787603769104
0.569841873559681
0.987463468335915
-0.744434975026734
0.701774855904629
0.250237978728185
0.00214864537636717
-0.562626109304276
-0.438340301958094
-0.866026439518631
-0.201230246728361
-0.673594674450671
0.92504340323941
0.0032922977112797
-0.426286022464478
-0.298833395447865
-0.0308717198092303
