-0.281885805954411
-0.0377394165728515
-0.991284163850178
0.0425133588501388
-0.914485944723047
0.573829166943127
-0.373862289633171
-0.343888790774361
0.606839219655777
-0.202207352140952
-0.564362629236563
-0.0305223139059827
0.420109578372104
0.198879542511496
-0.239077193511579
-0.561684407659477
-0.463174405493105
0.76043437301549
0.154161332105428
0.734619385247139
0.932769859755034
0.803256200511293
-0.571283025175305
-0.865875150461232
-0.924776240457345
0.0791186312831449
-0.0653512582413656
-0.487786388002059
-0.370883779643051
-0.665248217563747
-0.830945228513472
-0.85664112892949
0.705728133484801
0.538350579837964
-0.490350054230905
-0.384261094295331
-0.77142959274518
0.576154282548279
-0.267922377360663
0.374808920265434
-0.512840731783974
0.449283423446939
0.815166453614006
-0.569441904979156
-0.767424053592328
-0.47901372646921
-0.721699503963146
-0.729065640536086
0.533763943275964
-0.239545472834763
0.575646732198519
0.772693522432105
0.593027749777699
0.373033026383506
-0.719459915892801
0.30058728700769
0.338852627641545
0.562184597982189
-0.231116661829681
0.957037990210668
0.569708881192988
-0.993777757589396
0.766586320415807
-0.11842836324015
0.900408755323271
0.953751804021414
0.817085387662312
0.147719774737062
-0.690393439060701
0.749609094884883
-0.908184207651283
0.50292943145041
0.916368040289287
-0.777021842657118
-0.179626543876907
-0.0185232280343084
-0.986220184902911
-0.32398000041776
-0.257038756234361
-0.26681255247256
-0.157783880068644
0.762783482135269
0.926082755545988
-0.605912994874894
0.563621150147095
0.418620580147453
-0.303081967384822
-0.342256066408672
-0.174874741336283
0.0993056086463479
0.487560000399731
-0.407011654344937
-0.426643176529309
0.512733450570889
-0.57853610556738
-0.643231406992771
0.0029842976657033
-0.109590025395493
0.394134841977738
0.00465325940275345
0.666947460414487
0.0469147552771422
-0.672529277330145
0.577325825958015
0.647736125772767
-0.315481049956801
-0.904002276761258
0.0940340016326983
0.854897092967994
0.774998304733012
0.271611240978734
0.546619031915432
0.950099225453211
0.598253461069177
-0.262346067916389
-0.975865370101062
0.373303122912869
0.264669687718658
0.530024430397243
-0.0953501517068949
0.0395098012670051
0.323860109666326
0.660750689370937
0.279023953178161
-0.959667844657433
-0.911627051612373
0.787468481119355
0.226476984004133
