0.564512900127774
0.924001486805217
-0.600650793696723
-0.931285413308429
-0.797990099118413
-0.361552991611388
0.278072460883603
0.115095349312825
-0.0644947816550972
-0.964722337618274
0.202510542962381
-0.901802061101643
-0.981077687208466
0.672006430003769
-0.668828073734349
0.814367545437776
0.219921242890144
0.812259562517227
0.271795149984127
-0.475482793740485
0.881517292654477
-0.879599116562549
0.253072481621358
-0.628518648392239
0.904797254384291
-0.935283927603987
-0.12879287119131
-0.0664436365367372
0.315522789522963
0.228075200209854
0.167044413937735
-0.307705641108361
-0.227130117657953
0.126929783454217
-0.341147722339523
-0.0368772766148719
-0.758775425843057
0.039035673711118
0.0169694421985982
0.940112481138574
-0.301534764198923
-0.540098311570806
0.391872278713636
0.514151612391033
0.0318167071838339
0.859674265007689
-0.973323773209394
0.808668129549939
-0.0664786351561386
-0.367596898372462
-0.384673342683489
0.109349667509073
-0.502715223516286
-0.105056724479574
-0.771429765537533
0.861792996854624
-0.196203369220388
0.871477994812646
-0.468833798876237
0.547608196677367
-0.236208097282864
-0.98910122795367
0.271061427934683
0.728724385587665
0.110715625707786
0.682520081642537
-0.953437041072848
-0.047367216707838
0.709556441408618
0.388283311272628
-0.855882620712899
-0.30277539681152
-0.970089242850764
-0.423881533352155
0.660795615703821
-0.324560629668526
-0.640515992636977
0.11207867797352
0.0866959138274493
0.31775100108512
-0.450971436933879
0.347966921952625
-0.658566357020465
-0.502709018526286
0.0110452440277538
0.895066682220988
-0.625570914596277
-0.0444536070250534
0.798381265150789
0.184554147889177
-0.763128730120481
0.449607226511558
-0.905044436339176
-0.00732933619032746
0.246985536296436
-0.505696776122989
0.805896836063593
-0.18493756975607
-0.917321014980689
-0.392595782143057
0.442816453761242
-0.0440220845804624
0.421114016568692
0.264764042829142
-0.543940369229108
-0.297820628643351
-0.336600867767444
0.0583548133741047
-0.44304884452836
-0.972169069054999
-0.209497639853118
-0.744641944636674
0.137162559648101
0.796762215952537
-0.497679009719377
0.68877243040468
0.631759536951078
0.0209910536799211
0.259149561114345
0.587163522921814
0.624196873596693
0.0221507644026045
0.857848393705531
-0.422780798451838
0.716962900890817
-0.505880541018642
-0.793466617222319
0.960644689271968
0.757487435962997
-0.255065863127083
0.103327112411707
-0.163432443491455
0.265007493793025
-0.943433221679236
0.0886998393954529
0.188267813952733
0.790520267139189
0.446405971566316
-0.0224526314135792
0.513577613025101
-0.336193372528686
0.454321956493288
0.315925980222566
-0.742104536873143
0.940274098981113
-0.330106021404437
-0.480010345511754
0.0825252594783789
0.665580714642097
0.0400095846079953
-0.595325711153161
0.602773510745204
-0.735432077775054
-0.694716584735954
0.666072979038988
0.239376431155338
0.21377400164353
-0.257546406611204
-0.949009127333056
0.0142045265629623
0.609484726774661
-0.21923050173895
-0.428336861145527
0.807143964674698
0.224558914445793
0.94923111642089
0.694186769980998
0.978865687198567
-0.872231118868078
0.806800951826111
-0.218203532631441
0.815782869942634
0.162352880455074
0.26835394526537
-0.439697681862746
-0.683913676724705
0.510511089158675
0.976318864823191
-0.208254213049918
-0.975402917508178
-0.276160116303781
0.0854817137969653
0.792751063818616
-0.642808363755507
0.510947671556328
-0.614726759382241
0.915178312530112
-0.802505591544705
0.793502828319343
0.791410389153573
-0.43306493451764
-0.164319446914703
-0.554802778356758
-0.581638828874419
0.559351951043689
0.188479055295841
0.237720602926216
0.915153985909871
-0.0187829801371824
-0.344124786642412
0.929117374885021
-0.577444821914762
-0.194675974176218
-0.34578470495068
0.662212449344697
-0.147329884500728
0.601551419365106
0.771820478028184
0.706135061882078
0.996725457107649
0.437930164555396
-0.515763277618174
-0.452549586289185
-0.738179637399001
-0.631222652427661
-0.823079965230003
0.757505234302724
-0.251133871072217
0.920764271698603
0.983622375894671
-0.421673334017236
-0.855872801760535
0.538871199727526
0.761935070506641
-0.361598940537928
-0.943376700075748
-0.0848678358653718
0.0975680055221669
-0.426043266694242
-0.795226141918285
0.108557063786832
0.667195054106538
-0.787327944693809
-0.0810049367992534
-0.554912771879397
-0.908242854114212
-0.791510087456458
0.164741077335975
-0.222166899125561
-0.0170316925082409
0.46735691708664
-0.623034795688616
-0.174345131042408
-0.15197540890688
-0.736367495605969
0.241494445199928
-0.258865988002377
-0.233789615700071
0.222854844888951
0.972527342994498
0.524719848732655
-0.275943707084896
-0.306868804611199
0.909925141575724
-0.914126848095831
-0.0359512098936643
