-0.325789306404979
0.199128006902284
-0.619749872983544
-0.85544406901297
0.455768743238918
-0.233120895946118
0.889834878081832
-0.398820704290873
0.157753514574374
-0.155338223135396
-0.879269772147601
-0.300967204186011
0.0313184177608435
0.128534780962797
-0.951542433114509
0.447483087528253
0.94083531793398
-0.519999434912675
-0.223871862823509
-0.238173108203435
0.788407118763883
0.113430342504691
0.457185905100807
-0.523986279976663
0.971208738422186
0.0862259390880045
-0.287153666294306
0.920563907695878
-0.442861183855346
-0.456871596729913
0.493662547572863
-0.113288718302616
-0.609807668072477
0.205493371809735
-0.824074689065853
0.982423869949262
-0.951747243815941
-0.480923616677442
0.447112385262674
-0.870798719279457
-0.346538200565693
-0.829738907793876
-0.987758991618425
-0.687859590720644
-0.786017451135001
-0.113371179335152
-0.123257118591202
-0.206296966624541
-0.538677999543288
0.411718303256462
0.839024441582464
-0.468916095499618
-0.219623865447344
-0.224032845955709
0.161245053622545
0.534980147695248
0.767698363913704
0.891324585557668
0.0135563603435369
-0.775672548552722
-0.874300527502387
0.517995685286769
0.978753012829978
-0.771473886287974
-0.921946111116395
0.323926118951494
-0.301622393751971
0.898723533497583
0.225459797735551
0.0534786388459431
-0.192429379983087
-0.972607106642604
0.658303269408013
-0.153730012924727
0.335635883929568
0.075439185956507
0.472034065607913
0.784626570750761
-0.0959873040212158
-0.888803615724614
0.947093031095128
-0.0590300570529334
0.500703563177606
0.43263021581297
0.348280416719123
0.0397090237374535
-0.146099619527719
0.179960677420666
0.95764557233278
0.348906146550766
-0.882955889381272
-0.140553573183545
-0.129477236986216
-0.570157992983999
-0.291701974285629
-0.623755748816891
-0.109201328616855
-0.42977602344135
-0.419723733806661
-0.0357921574215814
-0.155716479512901
0.0900847955102538
0.0533431489640883
0.936029813070616
0.451557440706789
-0.907045775342499
0.447725899213187
-0.713367288873683
-0.829135278448352
-0.795292130381527
0.0265765921031558
0.46800569851297
-0.343071977324671
0.757733437544151
-0.691225950081146
0.5312182085447
0.365648892616945
0.536286968667406
-0.226049768285107
-0.291645145251319
0.7269721076245
-0.647599753427012
0.0163013228069219
-0.361243506324801
-0.186608481389847
0.527353019313823
-0.766250660156455
0.519769594765151
-0.0530347358059475
-0.757334989758572
-0.181643865340964
0.632583530269555
0.0550045209476915
0.80307639344517
-0.724945065700094
-0.703392078920483
-0.87823179514713
-0.320771388303216
-0.358598928320568
-0.244135700250552
0.508179598323774
0.973450529739779
-0.898972797089423
0.483594333684284
-0.290380420824299
0.931440901346845
0.265088084812197
-0.913261079117394
-0.644451023733247
0.291578537581808
-0.995348994399347
-0.20680677011414
-0.861547597222117
-0.992933123023001
-0.114810081729359
-0.735300124529187
0.761194937510002
-0.826387415879711
0.63166388184735
-0.674270889771729
-0.646137986492366
0.708983514446899
0.406253162355901
-0.962258253912435
-0.590777029633478
-0.126931880095515
0.377278445488451
0.147430993957357
0.586366881891886
-0.497217958778714
0.848025077391055
0.330111621716899
0.23986636950558
0.495066587310266
0.637558028453946
0.775413717225247
-0.737367652261762
0.406261974614827
0.774157708259081
0.702065484111228
-0.0134938411613937
0.157525891894667
0.856608584522942
0.265911060428595
0.0684659565699635
0.586447253710564
-0.0686594796501158
-0.453456350503311
0.165946127452883
0.299938069411743
0.563187914974365
0.813477592908003
-0.387844493204295
-0.856683958697583
-0.10717630696509
0.035457350457768
-0.485246729170473
-0.860012561723175
0.896588345607373
0.943642565274987
0.922034358807722
-0.845526840061479
0.895164350639414
-0.383915204893631
-0.364584411691063
-0.464138523268738
-0.191571621196903
-0.10369562514803
0.905658490998026
0.884982527037768
0.218221338146958
-0.930601875794093
0.182421575940419
0.472202321530201
0.197779929906389
-0.864084940088065
0.278105970428799
-0.442367264007165
-0.417492061095141
0.965813523636218
-0.305682577832066
0.539912831207352
-0.294188363271557
-0.632190741528629
-0.661670310921404
0.37000302833239
0.658695164855671
0.618968029858644
-0.614341878585128
0.40562805879653
-0.777053842620042
-0.752021291150028
-0.45731774046149
0.660789418895051
0.95148272037475
0.231099809716077
-0.917509875706139
0.80189976599605
-0.00332007062653144
0.0901644516067116
0.177612415294603
-0.813467989189914
0.166462637994843
-0.816770530580497
-0.86798610496376
-0.631720795420421
0.888246480744177
-0.404727169264305
0.449751488787039
0.20327753920473
-0.925541233316558
0.00794341995031172
-0.673646566921053
-0.829735997613284
0.123117293490835
-0.145859490283497
