-0.388643217928105
-0.0654977533483293
-0.364122652460157
0.325687961623039
0.146285453283735
0.683417354122971
-0.590447593492183
-0.747965691155324
0.992659817667917
-0.479782648307507
0.992499426457281
0.0436562521090656
-0.129124320704142
-0.279974709175767
-0.322530763230241
0.369701717620706
-0.406107529421173
0.675645582396893
-0.912384884569818
0.706865672599056
-0.657126487817182
0.252070721497631
0.303387949868126
-0.792403478571349
-0.948829795700369
0.169073820711369
-0.0952335530651488
0.210188704337454
0.612609054116802
0.797744643990158
0.67348383069605
0.576564887449196
-0.385137106316899
-0.926716814422494
0.487222109651347
-0.587968041840794
-0.165924389590332
-0.0702539744990898
0.976417518240627
0.216972502817344
0.876538998310808
-0.245916047868552
-0.571631096973275
-0.220782879180056
0.115952875155955
0.737825630566231
0.713629705341476
0.256524322268525
0.0792735203729756
-0.873103414387106
0.474663122872254
0.173257201187667
-0.412698556542185
0.533981109132021
-0.502922018154366
-0.0195192752938488
-0.140402201340386
0.849195052492117
0.588778543203059
-0.786362525565854
-0.514714040118799
-0.0593046628819075
-0.617876304539285
0.449110528259143
0.597589653160792
-0.0476581175993791
0.00592476187068111
0.391071414355529
0.30689364950438
-0.694004333203005
0.779789123342272
0.967857707389553
0.270330876821913
0.11557643133804
0.242083876548174
-0.521679699974281
0.916371929549469
-0.277529496267988
0.231969050768701
-0.235351569806042
-0.180996474957276
0.895723636235641
-0.636021510902585
0.704680994730196
-0.795367079323256
0.0801598156322028
-0.434503850036209
-0.17664870030026
-0.92052387090671
-0.480516951832523
0.758880225589652
0.599831103229544
-0.362305713713755
0.340070679040791
-0.442286328342743
0.904705545889357
0.325623839089174
0.555514101256622
-0.770548058037661
-0.929567700815252
0.706261719168934
-0.642479061453488
0.97567732129853
0.102866269839378
0.803824377224245
0.602802396507558
0.943084262833436
-0.918163479669729
-0.516918084208636
0.974431743374978
0.86776583619612
-0.690966694654625
-0.678296585525705
0.137002603050237
-0.292135187147177
-0.0231105151712633
0.77886544756972
-0.943326303935737
-0.681121439063554
-0.175996222998205
-0.231250547479937
-0.759491046568962
-0.243610744005033
-0.0546459599297002
-0.936272681711794
-0.159703277267582
-0.606004494807187
-0.145971623162766
0.957929734430742
-0.0841220763012447
0.189212196784242
-0.855101990155036
0.656084064496578
0.851252138134788
-0.14205553571342
0.419906221555763
-0.19692873817327
0.518162790266974
0.4205107392651
0.910479097787
-0.672702625442807
0.880950378230435
-0.0178088240084678
-0.583491222880372
-0.164359158027908
-0.0350837282360208
-0.466068865561699
0.210791723118881
-0.428215201345694
0.0191532897070709
-0.104565657350328
0.954730321450253
-0.281611754831349
0.83187749533865
0.768451052612711
0.384626955747641
-0.885570697960835
-0.775330897909742
0.809841093022738
-0.635086131120416
0.680415109394164
0.75479966099527
-0.273387328958911
-0.422969129604569
0.76376926096389
0.515294067940241
-0.268782187903202
-0.270993244318221
0.0585439109802732
0.0563797713571961
-0.053743861171043
0.267837277084264
0.165450651466592
-0.948144035295919
-0.544856320043856
-0.977904446454642
0.660265641898365
-0.551174797041582
0.432915337468381
-0.528420543040934
0.742577658995574
-0.00731105949532939
0.672816892602486
-0.68452364970843
-0.302689257944746
-0.736470483222526
-0.425999737382549
0.88598702560729
-0.0859895801389448
0.383624017162894
-0.296304406786213
-0.465150905870641
0.0263158042327133
-0.0418132976593983
0.366934438949998
0.733564875193434
-0.664602642697923
0.360376631536206
-0.596173446044669
0.46951527125576
0.831137889949948
-0.0224599827440906
0.281926342045351
-0.811357466685899
-0.878194767228379
0.393336836671169
0.666401138507637
0.287670593771429
0.79084350484671
0.00417851707671017
-1.01941673899905
0.0959549718620825
-0.931700325918061
0.373827422243786
0.69129868667775
-0.911609007561316
0.171699731577889
-0.653571666311931
-0.0564729832022543
0.970166426045842
-0.711891358922584
-0.805607441757379
-0.253180278657108
0.558372118990096
0.00747488211336216
0.0765845458705189
0.548699294090636
0.223072533380238
0.396385465085313
-0.495337963105338
-0.412336652566537
0.704062713870415
0.415448797703275
0.173721982117339
-0.646325294714695
0.382281308243141
0.251631954020625
0.851308850537502
-0.507164763706072
0.736414685803759
-0.210448120828888
0.146202331779876
-0.0464707726205862
0.318768691109325
-0.992960609543906
-0.720931086465137
0.333839248863633
0.831026590433951
-0.0673069815762019
-0.172065713069377
0.40599341313617
-0.185843375997288
0.649907454825008
-0.211526884144974
-0.96825134996551
0.342097121469289
