0.419288802079158
-0.876340316702859
0.599084814781017
-0.331651168103792
-0.757526476712072
-0.280351917595277
0.209305665507162
-0.7328399093197
-0.106955018275841
0.432331127087275
0.221204526767889
0.342298578881603
-0.978174656889587
0.377761851580147
-0.280966176158346
-0.657807281891169
-0.444919344271003
-0.638600335440886
0.85701411792654
-0.537225011563452
0.374404798805522
-0.0740473908864769
0.018158037836531
-0.382982512269526
-0.0220843084824197
-0.683490153472603
-0.934226611956629
-0.64378769410903
-0.436864019346904
0.439694863205617
0.923172240333493
0.91016595944028
-0.542156331081861
-0.221982897123695
-0.56183565863842
-0.651300134620981
0.289385896860408
0.68558100380748
0.607350422704762
0.145482469593857
0.313362404379016
0.329916945501612
0.732793765077366
-0.460746803842814
0.528636605186842
0.566036945180631
-0.58819490967782
-0.580824294759817
-0.581709275281303
-0.556420482295099
-0.323822096156842
-0.912841862049857
-0.00593458153234667
0.573902392269243
-0.922229594779879
0.905247122108384
0.467387900825482
-0.67863058007959
0.693904909430489
0.368080501600371
-0.475997389224325
-0.859056510522293
0.26826408104225
0.324450268174298
0.40121130848049
-0.418169487051869
-0.926292388751038
0.848207848833279
0.347516582305039
0.980194415439066
-0.399171986400383
0.927146389134412
0.605887324348312
-0.841373447778078
0.837948302419166
0.368039012016818
-0.206811432075285
-0.00253116597839531
0.862764668112666
0.652417714288849
0.394968309064576
0.176273298102015
0.638519790603074
-0.894381521773423
-0.62028521599026
-0.800065096262567
-0.180037782482307
-0.382647770206899
0.977707483857252
-0.1069002462347
0.035293034880215
0.266713072657706
0.953003052931514
-0.674158692862064
0.285149132990491
0.876538302221221
0.57857835255857
-0.953854955897186
-0.678618409075461
0.91880419231992
0.515206108292914
0.83185032030917
0.00689294267534305
0.756713680069177
-0.992953298121151
0.770245670095772
-0.23166812068879
-0.318934825757253
0.130280970491759
0.684141895710841
0.117741928854016
0.623827380755947
0.169507753482544
-0.175333015850627
-0.262495472601679
0.967431923221321
0.909837471747006
0.402614014489646
-0.594003902043176
-0.207031329001636
-0.188595809140191
-0.927585680096393
0.265785984837432
-0.601130016926186
-0.0303936116463664
0.428529942840164
0.667188799134695
0.0880553772939716
