0.705185241508917
0.317605650890609
0.0246937481817706
-0.474945069711128
0.808344654843457
0.605715842423331
-0.532202444863128
-0.806117778816603
-0.582264217600838
-0.706876052371535
-0.903074710182541
-0.339556646478611
0.891904647194979
0.475449554195781
0.440684143085631
-0.117150086135464
-0.350895234047864
-0.995325419348046
0.471039266755873
0.729515842604033
-0.384703799782162
0.25595233465425
-0.421959572557527
0.15414226709766
-0.66150316536999
-0.854697627631417
-0.590373331315521
0.171393569201996
0.260167021359985
-1.0030213577615
-0.446050717615424
-0.263459900593839
-0.989247787151576
-0.0145924430041414
0.501662205502885
-0.807286092619403
0.75449841359414
0.57677039969621
-0.0800177376164078
-0.608423994509149
0.00539085222733412
0.485731306982966
0.145863608308635
0.501685563436994
0.280297202065867
0.059839959972904
-0.00693935331080632
0.777714629032588
-0.121897901938562
0.980546259921607
0.181096727982521
0.44518685106089
-0.29527174815329
0.0120093685158753
-0.516982416274272
0.3064201227985
-0.190319562778197
0.0663322314000022
0.405242783291291
0.882436120075085
-0.435805806586272
0.537402893902263
0.878014774837762
0.12335299551068
-0.74723016522204
-0.428227462613523
-0.850874857478987
-0.529824323645172
0.543935302112765
0.75784278339382
-0.557478861229621
-0.337014186479838
-0.564877139611275
-0.454610099764451
-0.621856119161919
0.412822375945033
-0.172926055533904
-0.600557415967805
-0.957259433980368
0.0798044344750484
0.411997648230023
-0.387044898764468
0.525908309634864
-0.28105236945484
0.929899146742182
-0.589223660807176
-0.315809369020692
0.079028487835287
0.000360256586924003
-0.703512848392588
-0.845804495497326
-0.37024046070975
0.310427904449532
-0.617150036515283
0.403534686935849
0.00111730251962833
-0.100191239992751
0.149323770047144
-0.832449227712907
0.723240462247919
0.152397876477585
-0.789518598794566
-0.853621437423704
-0.677916811331609
-0.217765283616306
0.403700698841475
-0.456823077325995
-0.710636730443754
0.296640835611069
0.84638672634548
-0.392561767329264
-0.335018520904911
-0.16106861650481
-0.640458678427416
-0.198059182350946
0.830248785780023
0.10112476289116
-0.314456259153059
0.0707979470272345
0.924174145764401
0.00190745898516136
-0.0949332862924966
-0.826894207164872
0.752572904374025
-0.713016891994017
0.50295220066015
-0.193682489340893
0.517964890712883
0.74995717478568
0.619615040538373
0.619405506823933
0.700095490179321
0.46828547268961
-0.84952554998204
-0.0815673455389251
0.495566337989351
0.3582259783989
-0.711877589918109
0.381494615398716
-0.279338614282789
-0.522986260002471
0.551986657602364
0.686005423903294
0.64972826063153
-0.890904127286845
0.728037525265486
-0.00155173414431208
0.141913393405142
0.380403225580727
0.667191975365041
0.627320995331257
0.45692037946666
-0.273087237698028
-0.97174635691382
0.784207874850586
-0.597437024029056
0.711371826897116
-0.0711409011818306
0.242998275278306
0.843963841410087
-0.212856967023501
-0.487512158682911
-0.000252447007217771
-0.517290511558713
0.207440875941161
-0.133037505034601
-0.29101028070379
0.893603264259717
0.320653900489602
0.70133444134309
-0.81392688915051
-0.318239914782874
-0.47307303492656
-0.449664090720492
-0.0287982055743044
0.226968734641814
-0.169537867727874
0.514936876660443
0.197569242464249
0.209180900611619
0.491241376944908
-0.783659198587687
-0.74236779046444
-0.177341834291914
0.730526010504035
-0.902491811586892
0.00731867450048847
-0.0103934414741446
0.337907930580127
-0.0304366505065432
0.166946803465689
-0.241494586270862
0.182236823518607
-0.324537432393255
0.545749561854446
0.312131810251572
0.492936203115035
0.064128913544657
0.0903554554080893
-0.0781112644073956
-0.729947796732989
0.938377529341826
-0.322196190772255
-0.558994613231358
-0.908498911377705
-0.962255975641895
-0.519610489556461
-0.879160908942331
-0.812966471528752
-0.394233246134183
0.791026539072575
-0.957477032310507
0.785799155113189
-0.0217235743590464
-0.169161681437238
0.650601389421013
-0.114979713124059
-0.391661423761397
0.626954836091528
-0.270500023697726
0.0729802585010962
0.834071283377182
0.933709673464325
-0.929170067412171
-0.597937138475775
-0.502469161562952
-0.744618489403108
0.497220135203502
-0.191005765094431
0.5145098475086
-0.922250564343671
0.995176309065085
0.0089842108264794
-0.121564420608065
-0.0507028887188568
0.0920779994066018
-0.851413662627185
0.633956345456804
-0.670109759587339
0.0769739115527794
-0.247822614442716
-0.122073846069167
0.262763662386715
-0.035247829759695
-0.421277284296128
-0.691183657647856
0.0144631983387886
0.834322119361851
0.820170156451121
0.0317786271468215
0.590988212311417
0.820851992188118
-0.878363972447841
-0.890103108040297
0.39714871273319
0.915423272459372
