-0.862783055909072
-0.0540541346873097
-0.606514542248816
-0.384128112765533
-0.293597637249584
0.518508460423351
-0.546559821957986
0.425976963285993
-0.522742764472268
0.763273245540879
-0.291213160647526
0.788244689718133
-0.356154478714269
-0.25444062949121
0.29125367098274
-0.865763044460146
0.475992670764855
-0.815233397440923
-0.010317082675129
0.928077344836132
0.0648037981365397
-0.50068655737797
0.341942677206522
-0.689466890150553
-0.153446488020922
0.425838780875991
-0.587735875255242
0.362461210229395
0.441249033072015
-0.266679393237354
0.0902756906055573
0.228617813945529
-0.765146967493692
-0.68319966000572
0.19362221709017
-0.618841898617843
0.0986286342401635
-0.997519339387604
0.283187497239644
0.277701907742512
-0.77002926006788
0.898719505812832
0.840916757093139
-0.234706567355617
-0.163705886405184
0.129862230401092
-0.429654223110767
-0.623317561574291
0.866968072810171
-0.558073225824478
-0.644247052503946
-0.798914539322549
-0.395233761385345
0.0632840455593201
0.192794936882386
-0.894305892748685
-0.693522904941385
-0.984951411193061
0.621461983805234
-0.557998784679984
0.766619096530199
0.46152357635594
0.825398588185465
-0.0412710585485925
-0.252409689807539
0.818605932355516
-0.760445139029787
0.564819713441593
-0.0902234950786267
-0.686808272690237
0.0485001727826069
-0.228365816769904
-0.989915466506137
-0.162164095731794
0.954686234963295
-0.0529257617897865
0.26937215023927
0.193002161128233
-0.374715542369399
-0.273046584867831
-0.126575320963581
0.746045522932889
0.96007386655753
0.556123782670525
0.58968196583704
0.0350085780431623
0.174866193660805
-0.926283080103246
0.878263935536671
0.781796056674174
0.892238271386289
0.769664644410995
0.0267649460305923
-0.838008921693592
-0.974061934103323
-0.682349612218275
0.296737536521505
-0.685131158616273
-0.907524817863301
0.656571207964418
0.831404197006013
-0.235801843328835
0.509691448606993
0.775959713209138
-0.0912168312978055
-0.409495001267413
-0.00347976058248731
-0.881162051955868
0.651311704956711
0.317263436937486
0.257544974809636
0.512819125594507
-0.373313425986224
0.699738014775773
-0.349427503073391
0.86195535096665
0.231653560509178
-0.620615101433373
0.595617565821301
0.561695724653741
-0.526689115787136
0.355160054135487
-0.503450211544696
-0.214065062668484
0.981105120833339
0.45538656468325
-0.0110181961889108
-0.229762396594576
