0.454248600200766
-0.27247088883924
0.271852724454019
0.340212339750689
-0.0454413457759716
-0.285808803901771
0.910414301189781
-0.544248453919174
0.25951570061198
0.73510617080133
0.134018992921008
0.353908276111671
-0.963002936702746
0.329691541197874
-0.569059325944818
-0.445549954968928
0.852204942155088
-0.400822128257263
-0.864625835201214
0.214516728707507
-0.79006593878149
-0.667378584675046
0.397369492661779
-0.544950665958175
-0.340124909372759
0.303785880450564
0.431740053040909
0.376583024432856
0.830523931470167
-0.2029919622284
-0.207005262063183
0.670013730444871
0.649718457170181
0.0948366814574917
0.574237330144135
-0.434373198823967
0.936722784407585
0.457827145339049
0.869668009119189
-0.0776029398237133
0.711333126437662
0.737178535054979
0.511175486095653
0.456412660719579
0.863316106106814
0.676840123747186
0.834122571999356
0.692841981893852
0.959066126968298
0.317278723380997
0.484642389945863
-0.853578129854992
0.167851832030479
0.285296675299182
0.392620294918547
0.00832040924164615
0.147090950655569
-0.112823222877584
-0.363101413300234
-0.133213666798725
-0.561190938720083
-0.515968777777943
0.691723482745587
-0.3802317201909
0.634573134248224
0.887392725615788
0.419510054673444
0.393902598731048
0.610465985608003
-0.420631410784296
0.467158269537257
-0.0286851513039832
0.394325110315035
-0.199348479231025
-0.95575837447555
0.724886485309745
-0.66847754328664
-0.758300373061028
0.465091111016483
0.176096410513421
0.0566206949447694
-0.423867123786048
-0.0394302398394466
-0.672862141768101
0.487661514559842
0.594658264221926
-0.966369072979512
0.80677340987892
0.76391834268727
-0.814136115247791
-0.0854073734178516
-0.231032190631019
0.793452238903561
-0.852004761909322
0.0725932281086939
-0.325328169312195
-0.487970936900561
-0.828751866427115
0.841257966605724
-0.13572823659307
0.525869391266073
-0.694084559849351
0.513842778290337
-0.961245299396994
0.611175318858902
0.656162171051378
-0.973262697861437
-0.62885181924989
-0.0588375840147971
-0.780145422325908
0.124115123114091
-0.193621315963768
0.637772856418648
-0.473144333708263
-0.328061720662361
0.388055678570424
0.698948690888885
-0.235201096828006
-0.304179530328303
-0.0165565077807548
-0.205687954513103
0.0556420728319238
-0.941540338139351
-0.424252625656423
0.214264015157275
0.185549429325092
0.710022511817536
0.126584906586515
0.106392522672382
-0.0483969398298407
0.0815297741547057
-0.330333790062238
-0.219413648544945
-0.29616640924328
-0.855024230645949
-0.767128873301671
0.738363450099894
0.239226441389649
-0.510198589740473
0.202615251855119
0.361033180458885
0.864038857814218
0.36747995359196
-0.473135722978615
0.926969261489549
0.484132860275339
0.749055027917912
0.373717465052385
-0.497238403948898
-0.53767114079628
-0.334269191398158
0.903197580082871
-0.624340879980361
0.376871170350367
0.852939474843796
-0.289946619381708
-0.439052180749767
0.429769681774037
0.382585931062375
0.714714751897291
0.547228695722674
0.384453371105593
-0.244559957598158
0.582633794576224
-0.459164718758494
0.437084660291019
0.671614365196262
0.498155032795283
-0.912775350692814
0.272065467216445
-0.906463043107687
0.781395318340355
0.050410623629102
-0.209218060354173
0.674754358121885
0.23389035686399
0.648026602112177
0.730237012542291
-0.66474106083655
-0.900451148641126
0.615128698434846
0.981124803840068
-0.763423522800702
-0.155718041093487
-0.799803178846059
0.87567579081633
0.854551776637615
0.685283302273553
0.0497823905085961
0.352802471144541
0.617692294918924
-0.324904152400449
0.670831158297204
0.826305919962265
-0.294133110953539
0.637964699164441
-0.991606111642201
-0.441515208877625
0.786500443043
0.577480656593967
-0.335664745479639
0.109050957443726
0.0182678292144944
0.9424022167053
0.522401463315669
-0.306491643460159
0.0946103478149687
0.402311254647417
-0.355996492717875
-0.844135662378483
-0.422519240946203
-0.725439345640065
0.0563139576757686
0.73636926145146
-0.900295684154969
0.0284304661891629
-0.161093584860774
-0.455279785721217
0.887520839234709
0.107587590698578
-0.825806694736398
-0.152278675828747
-0.709697615227839
-0.347681629460158
0.512862440095062
0.140854945249901
-0.192309915963702
-0.552818946780022
0.00165047289477305
-0.300521690995018
0.114217421799747
-0.59981951708483
-0.103800175476267
-0.288271726721634
-1.03412029717862
0.354352861142043
-0.822208263089975
-0.371285148044478
-0.686711875333293
0.840146110723879
-0.116435364206559
-0.400224087747776
0.62269834841952
-0.729217178258104
0.786646316702242
-0.158218802242433
0.439693111459032
-0.89871979970601
0.031467774566663
0.137060349277205
-0.888225253633242
-0.314818556500334
-0.927798734861131
-0.160363743292208
0.330913306720508
0.974665918650446
