-0.570007633836361
0.0779502356362664
-0.260259019859207
-0.23375543181304
0.855584352142339
0.901701600383081
-0.198616865491815
0.765178582931778
-0.936286254859239
0.446467047450524
0.172124667574327
0.667776148048754
0.0562390781660141
0.269326140485238
-0.172157009206508
0.52620744229802
0.483389224859851
-0.952047692897816
0.235083755595831
-0.104939609881984
-0.983944584006065
0.0343574023654815
-0.983337418633249
-0.178317832566293
-0.71134365170509
0.109741938116877
-0.966020192137868
0.00902822680204273
0.347003836716094
0.504482575107368
-0.0761070539647281
0.147392868463285
0.371061331762379
0.736569872929648
-0.0785665614930195
0.930614501744414
-0.320280697595026
-0.595661868374018
0.231504094121087
0.577827317045994
-0.218521422075556
-0.806544086016368
-0.803049765405221
0.117488504865115
0.117954235217964
-0.620543312681548
0.814643316023218
-0.101245986164439
0.99622180366902
0.958194168996479
0.584668293228347
-0.66896438283995
-0.546016819929837
0.406039633064809
0.159643953813145
-0.360797680703507
-0.671217652156143
0.0514018536860135
-0.673323065401546
0.0994065182859627
-0.494134258241589
0.0800270742594574
-0.86074720452724
0.88662738638988
-0.716913248725819
0.927418770379853
0.589345966292162
-0.418226453687083
-0.702906942823177
-0.566901299818347
0.730094505038314
0.131249398088536
0.60382230257564
-0.481497009231796
-0.0673146283246159
-0.326020906981221
0.897073941875108
0.346211241587486
-0.458842792709781
-0.29020102617123
-0.566449353429705
-0.084993235012684
0.782370453955006
-0.380348254236144
0.599158681776198
-0.771933692950857
0.325257339524639
-0.706505988764427
0.657264082119345
0.13720130027073
-0.561975476613586
-0.493792653182232
0.734465440324001
0.125071862720158
-0.468924889149546
-0.5329132689759
0.376775100667411
-0.694673747272025
-0.037486842704182
0.881267641069067
0.830220468747143
-0.94418134973768
-0.739144709790941
-0.933252184882659
-0.662330310954683
-0.708018180014329
-0.20815194788033
-0.878481687182419
-0.840822749978127
-0.0728226974793895
-0.726181521093641
0.971885269479403
-0.227904276301974
-0.0712386057638386
0.771986923813681
-0.910535662109758
0.315888681735954
-0.466245992108151
-0.821863811144903
-0.676216662007899
-0.950571995355816
0.747949126619075
-0.881838602130521
0.14617510860467
-0.152134506841686
-0.250867193648336
-0.0138383729672699
0.380639441754634
