0.331633829855437
0.88366027776893
-0.0117187363103683
-0.674396358860721
-0.189950667612038
-0.745802080152199
-0.858471668499422
-0.0949621155173356
0.928707682421151
-0.706044382133774
0.361046387507887
-0.519908085711653
-0.373687556942382
0.222643752393449
-0.78454866046204
0.742046401627507
-0.2480202025438
0.454969605623841
-0.675467356732066
-0.0461656180116188
0.374151159563515
-0.452376193201022
-0.657140842906499
-0.438283108859478
0.260856805457545
-0.626178621069658
0.755391954208497
0.202171469524093
-0.568687662647744
0.506961665192884
-0.46467948511809
-0.169764707628585
0.49540698579184
0.758175400528536
0.406324105285627
-0.76437043768748
-0.298444762323358
0.611239554129052
0.878836637947744
-0.0786301876981583
-0.399061622256561
-0.905884124430075
0.171012151050129
0.427936753503769
-0.693975649902496
0.39295439193579
0.254130814626016
-0.493583322885844
0.704661380999558
-0.702861015356688
-0.30087919083658
-0.0423842963312772
-0.371653787908881
-0.607231481448175
0.681955627958563
0.13019826409797
-0.132983267242252
0.198294656305509
-0.459344113153816
0.466909065005893
0.751529798305906
-0.12264569987294
0.416121051840966
-0.0716707157063153
-0.85778169627041
0.666500265006888
-0.767141260944187
-0.256783455758803
-0.937988818066003
0.258559908492263
-0.54226079914115
0.559223424279579
-0.177667090161726
0.397677919167356
-0.644750197070894
0.184468155201275
-0.861213840498323
-0.940893471432586
-0.0382145479658186
-0.214554140102744
0.0631865291984593
-0.877600467922945
-0.769894276132944
0.579422175488897
0.977528066835035
0.514620778761596
-0.101216280367967
-0.817933311676758
-0.189679442725129
-0.633971464190938
-0.79298570906611
0.991514875053279
0.00950372601218677
0.386324064088973
-0.888039864093995
0.0596347365737694
0.760553303885557
-0.0570436156942812
0.860895191362107
0.3733688471612
-0.164262081901128
0.268130172097622
0.572739695367875
0.764781752450917
-0.688407330242632
0.575674063573721
-0.653484520363801
0.59179758653725
0.215605120321456
-0.674581632759294
-0.940662202785462
0.684469162877846
0.997888211757933
0.30244782334777
0.628674478796474
0.902064317242522
0.498928726275147
0.139815275180276
-0.106083754092454
0.612477084415323
0.784793046968333
0.905169182784139
-0.757009566904624
-0.444319846455247
0.356064196503989
0.41951112737806
-0.400693043318447
-0.0306549512772784
0.340372567142859
0.942370274661317
0.271993255737505
-0.104064003645906
-0.327678673745797
-0.0599274764018092
-0.860159608017845
-0.433103179267681
0.350245933731244
0.408114149579011
0.400397578590957
-0.97955872083451
-0.811468070434517
0.155520496382
0.225791425619892
-0.92140820147658
-0.743509007504936
0.232025908063059
0.794549528035891
-0.404967251532081
-0.593981644702664
-0.84735506505557
-0.108249061985772
-0.851715438435844
0.548506486879811
0.0463914713892984
-0.640839360596084
0.811849824238278
-0.239821893968012
-0.359082652189386
0.598438749463521
0.658821473148401
-0.101136351966738
-0.577916639232644
-0.239024380573967
-0.34697878290268
0.18974644851277
0.473382234163543
0.48519130057365
0.310494349907247
0.733598777779601
-0.999940970484392
-0.17816658008427
-0.860412169233778
0.165507723616693
0.773457877457309
0.298431818238487
0.613422098301795
-0.320091978529463
0.280655183681947
0.206496666950323
-0.911965725896451
0.778383908883261
0.835893886334206
-0.450713862984663
-0.283426812662586
-0.481591351704915
0.658023466812732
-0.94440654456753
-0.523675842059579
-0.578456083877979
0.123322329285193
0.206713113515515
0.781440415508556
0.336446554744417
-0.306436945052533
-0.353821568917512
0.895324024963057
-0.79865964602965
0.110515403102648
-0.668696992164813
-0.485036370856021
0.0246988492768354
-0.419023043112828
-0.681124006718228
0.0533167798846101
-0.575404270667067
0.374391354338066
-0.290516350026607
0.602333003129678
-0.913558742105964
0.492828277563128
-0.139570762662076
-0.182572461497572
0.0795568706627805
0.808424628231768
-0.726603250317612
-0.351457464040078
-0.395649981840778
0.372530327210823
-0.561218056577804
-0.741144320293341
-0.459766493743691
-0.734412170413234
0.605542039895003
0.513339863272734
-0.0486037092991231
-0.253688319996845
-0.171474041427957
0.999219596122263
-0.790188959867348
0.850888837815006
-0.219286989727218
-0.0155795780491787
0.436307171024458
-0.205644942087548
0.914187603760709
-0.116253160438315
0.740681204209234
-0.247232309405718
-0.829033120381129
-0.213238496704505
-0.0672220557181051
-0.588464754414091
-0.956806544498308
-0.591098521661889
-0.639061223717089
0.849225880683126
0.365796391480681
-0.696667917755117
0.0455335844050949
-0.897684812415153
0.791568022149492
-0.780318333557741
-0.782262225747127
0.839077374530715
-0.844386215280847
-0.317230622907337
