0.192594185418268
0.422564838980228
0.319463411319515
0.231263290209723
-0.0783697611071518
-0.218025065234367
0.589038388737414
-0.806602617766891
0.21396107382578
0.760654837884466
-0.589324894746071
0.999057295566832
0.32752202360811
0.409671096450387
-0.141150950296513
-0.395295352721859
-0.241193809862767
-0.302921069092726
-0.157159967620115
0.932179884655465
-0.581093602286151
-0.395598885434376
-0.166946399708537
-0.624893132852484
-0.675638541897976
-0.552073195161031
0.82142858373346
-0.029388880617235
0.159609884490694
-0.664493220507828
-0.633526370520247
0.276499250103875
-0.221018542834176
0.548870690934722
-0.532503766293976
0.242890386475926
0.678746389676974
-0.954644655063394
0.787502557337972
0.316476707202351
-0.569763342578085
0.881875897774421
0.287930492000378
-0.767661649843375
-0.322170938577827
0.808213321175714
-0.898857250197661
-0.21822153715743
-0.966867228990381
0.717345450548123
0.236670560322228
0.565810665919125
-0.985646493692551
-0.551665581277431
0.0339085927478236
0.73587612386533
-0.631633306716992
-0.846017727175112
-0.0183896706638521
0.261951621230577
-0.030677092130403
0.286714410808548
-0.728627258174104
-0.0113171474227822
0.935745267987285
-0.959958028746158
0.77079868692515
0.517075275782228
0.622648860699243
0.101034968903998
-0.187010644391468
-0.324527689400391
-0.239634816653556
0.776235050542531
-0.123736279205398
0.695687337134273
0.473885747081585
-0.435398974227221
-0.311617871144491
0.842062040000727
-0.766819204326191
0.187327843743195
-0.711483965914853
0.25357622015044
-0.255495146565529
-0.352911692513484
-0.0268809527953117
-0.515177654319173
0.451644053524232
-0.604133896840207
0.212793345629563
0.412459439176055
0.497523828102939
0.813737140281211
-0.649061352683194
0.405236507641264
-0.858227363948683
-0.138871380909155
-0.600558467886006
-0.83883089686367
0.522361841341668
-0.679860582749008
0.977808316019832
-0.154396098823424
-0.0865366480787879
0.493059134364055
-0.369740984330744
-0.21096689618852
-0.315204173754365
-0.386748384867761
0.146549872087666
-0.596355307133756
0.162489799307952
0.0528139071023016
0.721996954266164
0.148128969752827
0.578849113529701
-0.776421528985852
-0.102158203238144
-0.191872165710126
0.934570414496822
-0.319847173958059
0.0357469899737995
-0.166998332125295
-0.578399045490352
-0.493195255885315
0.379397922893566
0.197289142050916
