-0.180319194205406
-0.442720561585648
0.13812328160691
0.208532895433088
0.824062248972258
-0.767057153130414
0.841521694239596
-0.26395292537903
-0.431893943086809
0.839111437572863
0.0908133451903777
-0.0306918000428403
-0.415479432788361
0.414329160823023
-0.665580666632075
-0.823947697816466
-0.629130840143594
-0.857841819249816
-0.991548896994185
0.743123440882429
-0.909213406817591
-0.967198521324549
-0.356411186074163
0.595920033579424
0.629141599445167
0.932572134650086
-0.547419714024765
0.36119884934841
-0.14279306304053
0.467199840821909
-0.112419851569542
-0.432312650165538
0.373860093167315
0.754078838293453
0.00586341218994486
-0.517330303133587
-0.905618961950312
0.151544097089453
0.0225150353403437
-0.979804428139351
0.514260988730511
-0.643136593292961
-0.587979729193751
-0.650155646574685
-0.813979247154045
-0.386058647917511
0.0261859956899924
-0.95589616965531
-0.486897020961038
-0.446818268002872
-0.257322892702495
-0.652328449014672
-0.675515942274941
0.575598600133581
0.505843441396993
0.151339890184914
-0.268636568101757
-0.738597247878421
-0.370940519789006
-0.99333312526873
0.687480139356122
0.264146187474117
-0.972857123023752
0.778589687007523
0.123509194952616
0.0113085434441639
0.79536354705712
0.286063948260889
-0.808786490471572
-0.0590245433145051
0.520112218895693
-0.659585080693537
0.136891979184641
-0.166645215266432
0.361267406691243
0.1259038629203
-0.829606524736694
-0.875372910225965
-0.636303829092921
0.163098453780143
-0.0350669566875206
0.322417367487075
-0.0654444022791508
-0.811237842939906
0.833953513947529
0.961092120839134
-0.296722489477894
0.359638745314224
0.868256227499001
-0.45577615035409
0.33169733057263
-0.808122776470603
-0.29558232379075
-0.663332458531938
0.72304433829915
0.275621430956894
-0.990372845979487
-0.0717904566973192
0.435320680809459
0.783093061258649
0.881550133040463
0.385292878864231
-0.151570257885357
-0.21774939895672
0.638264902872834
0.671595940607119
-0.46731177136986
0.764058533526776
0.16841598211352
0.258481261366172
-0.820405974171594
0.809754705089145
0.203699856958743
0.48214597845575
0.0753956619327334
0.185871484338361
0.738434677001335
-0.0608231507657107
-0.473317960969933
-0.390032470564805
-0.339964292519201
-0.438032119079943
-0.26675761587884
-0.584752146467637
0.689566768389278
0.807805903502794
0.426639407731507
-0.746711856769406
