0.740697484771203
-0.377038049005573
-0.362306312763248
0.482416302541785
-0.138886642206119
-0.328387953743318
-0.782795278168331
-0.925777920839489
0.936712442217301
0.0374282421810028
-0.971167761651726
0.0790376797542074
0.0616841100868888
0.827405693775618
0.508060976523901
0.124351498501205
-0.480723391740493
0.084235745124599
-0.733878448806153
-0.19057129300946
-0.975740119049721
0.687881221746179
0.729615293539518
-0.842305114955258
-0.647411115335215
-0.201684972911401
-0.549318864296295
0.974147271238003
-0.264905402124884
-0.394817656962522
0.0711198960993891
0.301551691305402
-0.733617836911942
-0.666231977828969
-0.369130815763418
0.448611413525136
0.568173577693793
-0.945913545186835
-0.171907452819396
0.64392378974353
0.911177268928374
0.517414667852008
-0.495489134894595
0.466644101846355
0.156186205090602
0.014769838682732
-0.0964803442815914
0.218167138301798
-0.254583577111126
-0.474645046983469
0.536444838623763
-0.679036849913007
-0.363941757039458
0.278442293556187
-0.813423484895124
0.785408566683715
-0.731181442800962
-0.361968909497287
-0.626774891087593
0.522999270038527
-0.0218987148918006
-0.43691492279734
0.71433872019501
0.468631404896193
-0.517722751712382
0.487559868395048
-0.536346646783721
0.720694905611086
0.349492001725679
-0.870861235836527
-0.763126929440606
-0.849360414752914
0.153405699161185
-0.588655149329069
-0.951100682043792
-0.550674163797362
-0.625708647109332
-0.418957025887848
-0.0936092324668396
0.117820327547854
-0.459495174989649
0.15982812961663
-0.621665378494122
-0.463009321229403
0.195653761397484
0.840131576506423
-0.494556950072906
0.659378316388673
-0.597154447537612
-0.16701241717189
0.366803451032458
-0.355316573557857
-0.492797834972629
0.971346755777373
-0.368774986016321
-0.424119270293174
0.868338690508014
-0.133813215656079
0.426223869054404
-0.626213783905156
-0.0277213825947666
-0.386993179366525
-0.996605598575603
-0.0622522039226177
0.79239541378408
-0.355951117323188
-0.956320538040027
-0.212549323111431
-0.410533409051492
-0.330099245031606
-0.867293268831318
0.609860197548415
-0.101331365115942
0.251403635174171
-0.423324384915851
0.35114845403712
-0.335052096852347
-0.0820059266629001
-0.690468200508322
0.141210927747684
0.312491268885551
0.0202506096250525
-0.985127617279284
0.0715738917558288
0.767331614832735
0.0752099649186642
0.86773964551624
-0.634877978346827
