-0.836670708490403
0.250184988985614
0.8159568440123
0.00497702179932147
0.000710609131117971
0.842082341113919
-0.243354285818219
0.771083989813662
-0.854538512480458
0.739392872313067
0.524677531579896
-0.514664235257105
-0.381575829394129
-0.122398436440502
-0.157349727899978
0.637159854943571
0.36683523332863
-0.0266245083768701
0.944870678520537
-0.958807482318102
0.634620536265803
-0.802747147802144
-0.865692278907744
-0.385150774626508
-0.829129005321841
-0.0766004938723443
0.202893880934669
-0.51214626860248
-0.786537962056167
-0.954340768520871
-0.304215943694336
0.854375942371524
-0.238052342720709
0.0310715193579588
-0.411609962153084
0.317207697553347
0.394220067020872
0.455553799913501
-0.33230413050204
0.0030767718937883
-0.150803079547474
0.906964959227969
-0.621607873838871
-0.457558893511103
-0.28741694611414
-0.957018633231885
0.173624666789237
0.362407950541846
-0.0359454809756878
-0.315394740641453
-0.126197022324995
-0.632626917223297
-1.09369959147442
0.571181395907661
-0.175990030677354
-0.397195657741812
0.749652608537538
0.679779057098229
-0.0261595554405398
0.473641385817131
0.767948689923492
-0.985689889279157
-0.961235475790271
0.222834007187567
0.578745264823644
0.4334444923198
-0.0565397830133836
0.064061325666749
-0.206245077556933
-0.779973132882999
0.121391638671374
0.498151213632796
-0.268973720372448
-0.165274121852153
-0.1815556704062
0.0203918572081233
-0.594979134279827
-0.894599704377521
-0.390299154364695
-0.128953989470667
-0.989434524227791
0.883098335061058
-0.661689814222272
-0.0555604297493946
0.602795139669023
0.676681265457895
-0.668667005274631
-0.125319371684206
-0.182124943899298
-0.931308095062163
0.267025207231412
0.618148597515854
0.87641885529168
0.434520404985004
0.165805469957791
-0.463271506796054
0.419250098288128
0.433861543007831
-0.350949439662472
0.074927885176115
0.81291484884565
-0.227629139255048
0.246294042477628
0.332195368952665
0.0825125214234782
0.296477240286399
0.799274749464127
0.225292895168086
-0.702875818075407
0.256159024325253
0.279232397766442
0.720667139176245
-0.963686176385697
-0.139350805319784
-0.423642870762307
0.205318277238757
-0.994153468603582
-0.306772837932201
-0.757226133412329
-0.168253157804303
0.641409559688289
0.719120276088485
-0.37947891713969
-0.331717266989752
-0.929965628933998
0.391395231817465
-0.213338754891048
0.539315133715858
