-0.83608952726601
-0.521739931631304
-0.267627461571256
-0.580525822270304
0.174843935007258
-0.207678787308562
0.712775035201913
-0.0661256574717235
0.487243121743633
0.778889408232631
0.800290607168223
-0.420325552091972
-0.111970650939695
0.593404816039856
0.945158863299029
-0.485623505912238
-0.135264964206368
-0.660508139503913
-0.373073052451595
-1.01490499696222
0.499566554055651
-0.87023046790554
-0.15641599737026
0.913777335851656
-0.433892858309464
0.266350461193763
-0.550084680387173
0.207628981632159
-0.936544468668607
0.572183869697666
-0.833324405107443
0.189933922453415
0.513276601107764
0.956486425912116
-0.851428329635386
-1.02167033858894
0.10976394130025
-0.305109254075134
0.780593848532103
-0.486800987959063
-0.615120166465825
0.0996081932631815
-0.696383425458679
-0.235707146012129
-0.96743005474346
0.906534020904181
0.547221083706569
-0.244887670598473
0.813230665503931
-0.0751503779535719
0.876187050481573
-0.983678504939653
-0.577209446384059
0.00440158335632179
0.507175838498663
-0.720002540794184
-0.706331353663228
-0.344001431313263
-0.710953089649816
0.351105831078344
0.960066359248074
0.205395770833928
0.425517733268521
-0.94685357265783
-0.12378963073485
-0.681804787988865
0.848945792497644
-0.46239598094797
0.751218108051971
0.771036951069841
-0.68752755471216
0.904349996997164
0.971233036911123
0.497794078902253
0.694166839183229
-0.391632856528074
-0.162456027188349
-0.738193310539093
0.96748341026991
-0.363048392041059
0.19653679036396
0.00863733104045421
0.247056933084488
-0.259431123882668
0.292544641189416
0.321143735041856
-0.251935090913719
0.381554380804421
-0.269951175898978
-0.991922120146748
0.68265462939927
0.766295779718897
-0.63077976229544
0.737117650384562
0.0145372083700687
0.105673071897077
0.700321413441756
-0.107918402239103
0.519912765783564
-0.382487643160859
0.815921105026844
-0.817705625343942
0.554564802104126
0.0132292679223755
-0.476163790829917
-0.670829835537448
-0.256137319586161
0.272622589190614
-0.232643420852304
-0.0868759016133236
-0.857018496563787
0.609228033949806
-0.366990562364973
-0.589164942459263
0.479642282683224
0.897075930923596
-0.796662419430189
0.756341914425244
-0.0200681351448364
0.774217979723681
-0.761978448929258
0.734285172467873
0.850549015598194
-0.833130840749276
-0.444944485855371
0.435442873091954
0.0735219093585254
0.794196286157727
