0.286977455909445
-0.251885624195338
0.371113608725821
-0.0672766882886611
0.75880874964454
0.255052657368653
0.2082347663925
0.365739528729882
-0.0721732810844828
0.278054262969852
0.759449481356368
-0.993669530398852
-0.907606657991718
-0.595585902734232
-1.08240547807818
-0.0767501416714344
-0.0221875470641292
-0.372342726371921
0.639941855930171
-1.02602597454078
-0.719645184007082
0.624916397462003
0.532647842374386
0.0729864160535119
-0.689585315416702
0.413885709249438
0.433452678505583
-0.503414676380463
-0.121386582220983
-0.139098091440388
0.568721360800529
0.606870031704661
0.54013145819357
-0.309129588589765
-0.238591306490064
0.434550625559112
0.156496957430478
0.833553443088045
-0.294597478891839
0.695071614545819
0.916299435029534
0.499112998812491
-0.26334556251614
-0.0788575936677086
0.140259938245952
0.0311705419819813
0.321089313903212
-0.804486083468126
0.111638064945668
-0.257355363374158
0.670706277251748
-0.259603315670012
0.878462357107931
0.50066706108034
0.668004094178783
-0.851053287292328
0.171617364582228
0.70132063336608
-0.248791541396824
0.404501431764802
0.928532470226233
0.599568585425048
0.522446703208307
0.553281708007899
-0.36440942256303
-0.0202090920926973
-1.00647403804005
-0.726907474479566
-0.718722044668597
-0.196253741049489
0.859820515362269
-0.13386534332288
-0.611857929591823
-0.448369068364875
0.110532260814691
-0.468585116385521
-0.575219146410772
-0.548533761357848
-0.876334916215552
0.194506668525045
0.462866518482963
0.258750081425714
-0.718120449633372
0.592616917261922
-0.610339171425453
0.642719847640199
-0.828733650107811
-0.0872646630557302
-1.02253513590092
0.915141664247234
0.0778739973515139
0.442038255920334
-0.33538902600159
-0.369674139861805
-0.0926881952155618
-0.468821493531002
0.0192252806860716
0.10619827359669
0.354107810686366
-0.0560441568436987
0.963269855754896
0.592741657267653
0.847259501092346
-0.510611316505349
0.587969252878328
0.370666057494536
0.219642869178306
-0.653258220955793
-0.2869494486823
0.667566794409345
-0.577413572051695
0.799261360681096
-0.393470031708257
-0.42552933979765
0.80553235614895
-0.991278509758175
-0.271560219519381
0.0722286025490987
-0.173481570483949
-0.0744792221432491
0.00118164869683618
-0.313193047371295
0.658789106295455
-0.572743974298906
0.969080654624372
0.712751096097883
0.9181993111188
0.360232160965653
