-0.67897996160038
0.0890267971268737
-0.00938289139030762
0.778086727855843
-0.784098500156349
0.322286841751688
0.46878348322489
-0.965424299905549
0.330327385108448
0.62340480237516
-0.951499998212478
-0.501344837544375
-0.573197939432783
0.716888504252562
-0.334097392077613
0.427105028385936
0.621140389502408
-0.113342831200358
0.549770866323186
0.180614327092741
0.329462171004051
-0.693573817520377
-0.962350297622253
-0.703225551190124
-0.252688119917134
0.922805664944988
0.419812689588938
0.769985871939027
-0.0189456388312987
0.702103953258871
0.64704996849818
0.322453180983451
0.559689597962231
0.155916474069829
0.0685478072256002
-0.0712856799450255
-0.695431034045387
-0.484765974857052
-0.193847234850536
-0.654110865800401
0.0885794543968779
-0.0340991395564926
0.918419919293373
0.635976971821343
-0.513227256332658
0.203220878631641
-0.797116398378226
0.996602441493195
-0.434002947472975
0.167339357997978
-0.27424150788422
0.129454474494837
0.370697877433587
-0.915195293539774
-0.801329173158915
0.181843750678074
-0.346130757930937
0.788668503231289
0.59875292874738
-0.938636352692682
0.666061819344037
-0.647870730222938
0.340974187410485
0.692629961541811
0.218250765753814
-0.944786348654437
-0.297133685669434
-0.775535100229077
-0.0271922517754435
0.948681839595869
0.382874936953018
-0.0281015600539316
-0.455221705750418
-0.211466870463606
0.808273503077441
0.0057088913963954
0.443389777786472
0.592506100836164
-0.184573937890267
0.198666697559637
-0.279353625143096
0.331331436720776
-0.109812255018435
-0.317262907334389
0.040380558897673
-0.575739610937824
0.728604734880898
0.29673661259092
-0.364562903339089
-0.606833930241622
0.737471366031945
0.0461043430098385
-0.381923900069324
0.0766221075784772
0.905165621380608
-0.156772192324645
-0.265711805291759
0.947477863560204
-0.738246937261261
-0.208855932198189
-0.284060865707224
0.60063546696931
0.349203316621771
0.302862552606609
-0.225970611670473
-0.131772052897195
0.00290499714669154
-0.358007417252872
0.423345384316483
0.0965674767467762
0.594648843409512
-0.38294267267816
-0.252770123552404
-0.407808240844657
-0.636529856250025
-0.309306429843397
-0.344372756938278
0.171441314019204
-0.652192753467383
0.772895313449254
0.546242320016121
-0.848280321498413
-0.30988621675432
-0.471898703778859
-0.282522011291662
0.529787035029744
-0.540643093070745
0.622607511588931
0.811692002204193
-0.649122903112096
0.884185352870765
0.750211813877811
-0.998206161142501
-0.29317542387591
-0.0846517756710393
-0.48203070499644
0.984619070858764
-0.324489023332149
0.269616128951709
0.304827899061749
-0.738522905521242
0.00428326484247399
0.385833868333217
0.452910410999968
-0.467739488001072
-0.432483735811555
-0.913889449129586
-0.917372222620894
0.720925545209164
0.52379004121115
-0.136156816286898
-0.097253507258773
-0.900366740265486
0.0513868810229283
-0.118531146588639
-0.895392636420752
-0.0228320674040086
0.925483451583112
0.371220621433806
0.544091993901501
-0.925907757201121
-0.244041973557929
0.368201098303841
0.732003099588423
-0.649487899402677
0.226470510983642
-0.89727374883517
-0.791815454297211
0.742235007377067
0.627093444669843
-0.222410636394874
-0.595649829624191
-0.674662351707274
0.642580617043362
-0.898678918286531
-0.606309377341873
-0.778150650799627
0.0437598349427811
-0.413512870536807
0.181677329267747
-0.184541940994161
-0.340778540983913
0.288200751677822
-0.0231879988025631
-0.0915737506339788
0.441912252938993
-0.182380403772683
0.209441463203173
-0.37379568117123
-0.319754337483329
-0.0341158297580371
-0.795673437495342
-0.152712127498552
0.0883904663669176
0.439901971972559
0.917853981683401
-0.203929486014
0.0236883572057112
-0.783847662861681
0.534522196697319
0.31555349589121
0.186087189206047
0.0534929043787624
0.165213222302305
-0.468620704875799
0.397297642440988
-0.920254559522851
-0.413262838937952
-0.396123551133008
-0.334571826195377
0.0351552407993713
0.223804783943644
-0.637638196764667
-0.685280632390694
0.726518366567285
0.442477038523561
-0.587472102791269
-0.11856642903292
-0.118423009649323
0.89151709822207
0.89527588877149
0.769570589993222
0.69344685659812
0.590608756500304
0.509726049625755
0.0865148734443168
0.379973997200206
-0.250498733823521
0.26405097604904
0.602802914473148
-0.880334484132949
0.589357961811166
-0.954243568354587
-0.305033880899088
0.897587902805287
-0.197975306574413
0.467453515055525
0.685809352305901
0.175847406062562
0.0253708073931146
0.698228415781283
-0.52447042450489
-0.732652502323479
-0.432888224474544
-0.894804562838041
0.526839716107987
0.308413385257605
-0.30191502841303
0.741636582645303
0.70721547237362
0.777208198883953
-0.130447594076897
0.261153523299053
0.845835257000437
-0.934860341725128
-0.464524813766971
