-0.222181778927327
-0.43568097496087
0.0538873214168392
0.000875353367085036
0.216232727621411
-0.116250156122678
0.48336943901461
0.099895369879802
0.436402907516314
-0.289978811725456
-0.117212493445044
0.797888769867547
-0.647239604929387
-0.588036182288202
-0.150540066393728
0.713831365368527
0.403545456539649
-0.230800451089098
-0.941467939910667
-0.169377616252827
0.0772934402685169
0.308039767663157
-0.123692316743837
-0.922371071027149
0.673016441977885
-0.0918783859062537
-0.927967978869604
0.122847483121284
0.163397461756838
0.225185910623587
-0.76328594227285
0.696448050280495
-0.353654496206779
-0.601742246230798
-0.745424196990708
-0.92104419561779
0.605649755155679
-0.50794706405105
-0.748613087656754
-0.208847689354737
0.700995507016986
-0.890205147494821
-0.054305239870393
0.694621250239927
-0.965248704102797
-0.350452231754348
-0.342532547544271
-0.680687643491148
0.461010362963676
-0.176695908157817
0.932423258086316
-0.824882636987304
0.449361721889773
0.646973561650301
-0.293586788094285
0.925713094600532
-0.990435930847181
-0.82237627278972
0.0282588620774214
0.944600455953299
0.975180313230993
-0.0612901717482019
-0.351768442223178
-0.596462634784197
