-0.768371772613055
0.114040458068054
-0.428348808545507
0.449437723867072
0.289197588278046
0.650180448895218
0.396593703550712
-0.812487889323676
0.253806333497596
0.625875923111265
-0.571357653401471
-0.312462218268079
-0.934856143254948
0.641858995819357
0.781789802355915
0.868730618762172
-0.825011931019752
0.379391244873987
-0.395703584862925
-0.233889481226427
0.263770018780652
0.727204010598203
0.278335001781444
0.640069623403096
-0.73740190929503
0.156199155966494
0.334436244893335
-0.837207199312541
0.413720076935402
0.85708461287554
0.0348835207126332
0.808986543764777
-0.0297279218456742
-0.934572444996637
0.0313511938670959
-0.196600546535148
0.665343394515886
-0.488875320042855
0.372065722402972
-0.659827555903221
-0.559957182088405
-0.0650384123054257
-0.594767400107301
0.390989964214192
-0.210293408154976
0.426069649378178
-0.015439690338066
0.595155861627326
-0.307890123576481
-0.885342989111797
0.172211516348847
0.667795957231119
0.13868302050332
-0.916168695720328
-0.533161055485861
-0.373329790905762
0.875206432983359
-0.0116208730116554
-0.971508359588434
-0.0970647835528707
-0.703792013670382
0.846905430363766
-0.0777732711541068
0.578683776858899
