-0.628961332695061
-0.191623544745333
-0.853064409345027
0.706771999781023
0.675244698683035
0.679832045732083
0.181937593325327
0.41188190940784
0.00302593684936874
0.545588956304381
1.00562335944537
0.286062985758074
0.382780754768949
0.578544153602603
0.938181249125335
0.0868758973796467
-0.937819678590688
-0.42010302008052
1.11316402839304
0.645755297360567
0.25930328257944
0.439684732660074
-0.333593476380632
-0.610868349078781
-0.548149252460741
-0.547851617670559
-0.219156197995167
-1.08824817421844
0.270459215149184
-0.286455218720702
-0.105385175934998
-0.0467282881344541
0.131042985519207
0.370846652854811
-0.0358222999731162
-0.315746743431263
-0.238168101498159
-0.115077222245366
0.904359231056718
-0.0559429102696229
-0.815052414488151
0.787763136819484
-0.438134735085331
-0.168926572772044
-0.764098492226229
0.40426730081276
0.45331599875087
1.03694911134921
0.584841386264526
0.379283035641526
-0.782040245581907
-0.526317807890819
0.287349830327555
-0.242310522070296
0.558134162308582
0.449327749645947
0.380133119398906
-0.598199249696258
-0.262123253897849
-0.597907556275716
0.0808518108098319
0.474532592636852
-0.704813694289606
0.829766724601735
0.169146880780353
-0.624991819654988
-0.462435795024861
-0.665357575077842
-0.47860461969384
-0.684575657545441
0.979718436703019
0.291745695105145
0.620478260454785
-0.247500797050691
0.67075710775233
0.454214637691289
0.268059047313373
0.0436159660709395
-0.716951442218608
-0.144974651885672
-0.0685580884447237
-0.113714327066943
0.922220370525237
0.498011275912622
-0.576823748228862
-0.31815432719327
0.883145857530007
0.449696204994409
0.00977123930219748
-0.0323485920775306
0.249386570563932
0.161086360445967
-0.0575866146087927
0.623498386932069
0.268009556345551
-0.674827827636424
-1.19353866530869
0.663957742707787
0.217548354459316
-0.802944871667859
0.48070834258927
-0.877568612646954
0.820248676108296
0.505239515849714
-0.360251185936985
0.19925753059012
0.01602377773845
-0.641349697976895
-0.691909959066864
0.316839095015992
-0.61345541086844
-0.498325875958284
-0.980433975891309
-0.0701949685540457
-0.430513212721979
0.227979400719215
-0.900856715182316
-0.0367664353272753
-0.0136512224787788
-0.123851979407239
-0.315780314789116
-0.0221577397965308
0.295597415233897
-0.306436151956732
-0.359972874974902
0.233125126894772
-0.869668243095504
0.385491689611869
