0.715219902060353
0.66428053952999
0.643886464771891
0.509393716841052
-0.532887447208775
0.157787463926999
-0.237007000830275
0.36692531903129
-0.455303200895693
-0.656608390128593
0.0573005520166288
-0.536425607425226
-0.514724463412176
0.152286241617189
-0.868035093653441
0.812207358459639
0.224288577412024
0.687107565393133
-0.553690094308904
0.36699074520665
0.980984627287967
-0.295403356235104
0.44110575407674
0.740011110289331
0.421771015165861
0.136688689231107
-0.246481960470221
-0.756815221524138
-0.294249866773558
0.63078746638208
0.69224068274345
-0.830439589245089
-0.443997699839846
0.381589170272607
0.495404111794829
0.236256875635921
-0.933156394691535
-0.317039952231884
-0.167472636113025
0.663495801439169
-0.358630935216556
-0.138870396261388
-0.585512763772804
0.888532860604465
0.731810078378453
-0.673004383925288
-0.574340794289918
-0.516677811168508
0.32176106508602
-0.029865132322584
0.837715944131197
0.764532360718766
0.824400801746755
0.015104511081341
0.433042245218866
0.401264965077271
-0.582062153118165
0.12962244870905
-0.707927819652374
0.107756329612829
-0.0812132967570215
0.38420822923528
0.478799853546123
0.521378417521579
