-0.5593462258573
0.946977164637877
0.698216420430505
-0.0624739819564678
0.0601795499082851
-0.907937944610111
-0.0599410126528848
0.421662919936283
-0.315331266308864
-0.802943074655764
0.699759606975194
-0.485231024946695
-0.935369593621887
-0.403011505009667
0.511036297732294
-0.350231776633623
-0.424010814881735
0.242400460331027
0.97272808341691
-0.403834591372208
0.699454992018404
-0.500694086055648
-0.447760864094419
-0.37883866625899
0.222709634884636
0.31284515109739
0.830431969265091
-0.264901962941844
-0.56103773486208
-0.341602935090807
-0.606087731184608
0.157294680531256
-0.548934474124886
0.540451509647958
0.600540630229926
-0.774995252289991
-0.158362267962069
0.915978464762964
0.328600415863474
-0.283548197670339
-0.102115862895064
0.535297696975577
0.847933233554437
-0.284462914173938
-0.750977385825879
0.831041870453237
-0.102343274882729
0.128978568159702
0.984916068008187
-0.194085644957083
0.224664316224668
-0.913288169581306
-0.695872786445835
-0.650919152257327
0.606556332953105
-0.510895490277701
-0.867405326828747
-0.106249549438153
0.924709694412159
0.452776012912332
-0.967623979571451
0.463676182237008
0.608695184257216
-0.683703942609529
