0.224372114052533
-0.769481278854999
-0.446195394007971
0.266858099021058
0.804799564119935
0.574366302447912
0.352469612472202
0.822134471575135
-0.678861027977097
0.916715847721482
-0.822933591291326
-0.496305557048401
-0.610397694332683
-0.586503728828613
0.326254128844108
-0.683002255280048
0.0485680054114246
0.684654670325972
0.786059995012677
0.548202609312035
0.499576678571697
0.376277947573201
-0.969036580345057
-0.53478511093953
-0.182579538876121
-0.977074632825929
0.609948238910362
0.139837273385904
0.773944987970654
-0.554448045980479
-0.496012164430623
0.697487651727603
-0.262126356957439
-0.623586047823118
0.717522828307359
-0.926239675997212
-0.533474419054283
-0.572314927319734
0.306066302907415
0.894655456808587
0.541757531329563
-0.808133523689368
-0.0594947999510068
-0.0920894220983782
-0.524288662318514
0.868467604048911
-0.49767197374102
0.295082713540225
0.212303046855992
-0.81117515904716
0.43365756198059
0.781492112950972
-0.601731874099924
0.629116296876422
-0.725749676999995
0.483744532973804
-0.647173780251059
0.343618435110327
0.0199314997024932
0.997572269488382
0.449481150618892
0.0212132685701498
0.656080957376736
-0.466911303855145
