0.780754497049739
0.799515066463979
-0.771706929353406
0.861384494139021
-0.548844789409187
0.875840930202048
-0.0431553867308953
-0.674921250637157
0.68248984216762
0.0349937131212955
0.144728496376979
-0.183002304509521
0.0894104293088736
-0.343069854127432
0.725244368852588
-0.614313508105272
0.591689405849154
0.388159062195197
0.652929391715584
0.302661826031729
0.595951685136508
0.255860693861036
-0.291088039009334
-0.863231063721548
0.60044075008111
-0.518807208158207
-0.667883127329069
-0.203832458819158
0.524769040471106
0.362545801716583
-0.544733695097666
-0.904696859985578
0.500104717651185
-0.475811643398227
1.10408031879145
0.821760104260623
-0.810377973982881
0.859014427834579
0.587716181553344
-0.540593705329977
-0.919666669270479
0.71971611032978
0.866641163169856
-0.19896179252339
-0.142446190957068
-0.487400854244059
-0.699982580197602
-0.0789655382917446
0.361025439268718
-0.996345405271476
-0.88847689291379
0.220509491132036
0.700861766350874
0.70407464270402
0.250413962623154
0.474174595529385
0.714363822810921
0.70009387768222
0.612802085348372
0.61127501168007
-0.140447957275544
-0.389549551691163
0.541931898213582
0.031213399920422
