0.361512430497752
-0.705657762026528
0.262922225449999
0.220284109979414
-0.481371124010201
0.431463540328728
-0.444599161774812
0.332908697373312
-0.667271914970349
-0.489626098201749
-0.886384857529316
0.701423611800531
0.999042005641962
0.387662288349109
0.496893400527642
-0.323022789489446
-0.181012190157528
0.150586385401463
0.338330536022095
-0.206414839451499
-0.422184267459478
0.949197536811528
0.322361083359893
-0.75898068225904
-0.777910602314662
-1.00648157265276
0.00258115201278323
-0.611696933011268
0.283581073892702
0.187548659001213
-0.0976726770834336
0.71409820916487
-0.508984882085762
-0.024389443935779
-0.965827088550724
0.536812602437134
0.391807787587204
0.0943775712634915
-0.13867236845249
0.771240067786911
0.338772082088818
0.452300479268847
0.120611945787137
0.949214671659607
-0.549385540428536
-0.133195338587861
0.599456494813356
0.288073365694228
0.683703873262544
0.360081943461817
-0.581546359836745
0.541501787032005
-0.148664530463788
-0.937076878152256
-0.450075647997662
-0.26065316729823
0.28220108892059
-0.596598145103447
0.31714930754107
0.27838604861125
0.480013775370909
0.18311988621244
0.370045866902028
-0.718868283922561
