0.0510966490794866
-0.835205877663666
-0.287998291705827
-0.0402731264389326
-0.237814439276463
0.150527399124003
0.551229757463042
0.815375812371393
-0.718375083014594
0.326497906708041
-0.948257347655447
-0.986835236469527
0.447343384425799
0.440373870164656
0.55363352774972
-0.348677650223208
-0.834597607785919
0.376691638228245
-0.707845321366472
0.980342525840182
-0.538351155862399
0.790503930193236
-0.384639658813207
-0.563949346378744
-0.0484993178809844
-0.287881646011391
-0.86471521651728
-1.00755358336094
-0.821049949922105
0.358106473190484
0.262931991939228
-0.835310788142149
-0.744616614144551
-0.89662219168459
0.528714588720226
0.719560126044934
0.792865430519889
-0.941798497059459
0.0336821134123572
0.112738101341603
-0.269498203396287
0.0770035269059013
-0.0197329671729278
0.362529724734456
-0.649249307344909
0.074723631416339
0.353835824717749
0.421368127241987
-0.230311332994328
-0.0836267876657691
-0.569261512250878
-0.283909928033632
-0.499671153681947
0.497063603636562
-0.432314763113383
0.407539452699118
0.127522348950434
-0.417950973212461
0.733424200789569
-0.986567238859411
-0.097415547129047
-0.678806748840588
0.807107125664503
-0.166938371608766
