-0.490389844051794,0.216884672913481,-0.0689079780187331,0.469935649005028,-0.609563673392545,0.111733286911259,-0.0819572906460984,0.944995741880742,-0.351580139183412,-0.595731734856283,0.134515068047253,-0.0323828808481337,-0.416372750084767,-0.19340756790207,0.00551676984033134,0.578607018129711,-0.814319581520045,-0.597030479175598,-0.956785036382237,0.35348052025435,0.470939746442961,-0.704933787446036,-0.377198605654306,-0.341488101506343,-0.632211682204138,0.377335288562613,0.127890041190412,0.0884138968662107,0.867100779207802,-0.927103662310136,0.322484437505601,0.550345897505672,0.291730808424389,0.969455254257506,0.909179015430156,0.490483360958716,-0.806806510879647,-0.0593616740929214,-0.796481262792482,-0.257586027286634,-0.855625308087534,0.822609645838249,0.198940475048767,0.960759388909743,0.814880147688297,0.00450955879823633,-0.909150593862229,0.399085197380793,-0.851933574729875,0.0651230680605033,0.259164868183033,0.704572131368182,0.256172122543487,-0.845782255404822,-0.410190772219286,0.766458803310886,0.46098389928987,0.180133613305937,0.248752515613313,0.519597715222004,-0.50540070637054,-0.554275088894854,-0.440770205774246,0.548627330586014
