-0.727049385629041
0.419223435278476
0.301408402432674
0.540942019245111
-0.442690169689379
-0.692311895802702
0.00545255887827868
0.707420590785553
0.832801359145198
-0.447176452759295
0.168846588307459
-0.971989490552768
-0.526883271019729
-0.567709302388773
-0.550094925857847
0.826793687406949
-0.0232528636656674
0.136965654652073
0.152952829093446
0.811267010326996
-0.0482575773332972
-0.147754157935232
-0.929342851440192
-0.138501314187871
-0.380059456483683
0.678473143788377
-0.444084290019717
-0.0922566559244064
0.568286799823475
-0.173601477974503
-0.523242004847985
-0.346420418924235
-0.175707542991202
0.00930129344075059
-0.528648473304577
-0.883011961480651
-0.564819515270236
-0.516627616979069
-0.180208047536704
-0.0798323625101317
-0.386288751177578
-0.918588033713153
-0.0524821744384535
0.572489364120076
-0.29677120315573
0.276018307442963
0.741868047110452
0.432075456520726
0.286508935461602
-0.396863316107209
-0.594221167890779
0.791888320060856
-0.0117083507294666
0.687703738479693
0.226807029975369
-0.716395868752928
-0.0906327644503709
0.54509150415842
-0.303417866747999
-0.608182472534748
-0.138576157469322
0.233853045072533
-0.492075538893762
0.678184797881754
0.477003111630971
0.543835675741288
0.714195693440405
-0.604208758560108
0.565393379131282
-0.364750826885017
0.596666308611329
0.0779176956080607
0.247197882199527
-0.162808041596912
-0.786670369756506
0.847406283031475
0.0278055363429401
-0.486904246876745
0.590211768946685
-0.347970269120199
-0.76289384992818
-0.0573651221739538
0.673107438894831
0.451693245744333
-0.33080144209744
0.0100593989167204
0.675833584024269
0.661152779608684
-0.424061113137299
-0.919479009091984
-0.756215698437415
0.319195381120482
0.268642680476441
0.0416684764590111
-0.443713573065548
-0.700862572037797
0.856279490536874
0.607166299703252
0.369235408210491
0.133942337572145
0.774000901805465
-0.471556286602743
-0.308357606844526
0.269275363447738
-0.682751741441301
-0.349562641148167
0.757616722106675
0.982385446728231
0.784047002351173
-0.654245515657463
0.273893253332295
0.170444080715232
0.289561358916534
-0.947547525226956
-0.0331765359258283
0.0191835826680528
0.27072459414725
-0.424050097522727
-0.519371059021184
0.423376422885507
0.068937347459981
0.723250872899752
-0.064156957393043
-0.97045506919095
-0.387646876562609
-0.702501769054894
0.121762855417447
-0.89972786918304
