0.632563836901165
-0.369684930687717
-0.453973845210156
0.973131425345119
0.355874494535825
-0.838377476075164
-0.965734766981924
-0.171148201768121
0.866630890180007
-0.228311278857621
-0.541598258528915
0.474031951148094
-0.641283696770073
-0.0523828724832407
-0.0505449006833013
-0.0799848174492137
0.857512496285459
-0.307294189906021
-0.41691956110607
-0.501378418226919
0.0218855747920839
0.87068514891202
0.63903042317542
0.434669655164998
-0.172932225278418
-0.0148497997020498
0.403254941881283
0.776609503679662
-0.0640000966054639
-0.299214726669593
-0.896441882286359
0.720778498098394
0.381506700288558
0.49823179298781
0.379785121391163
-0.239167762309307
-0.0698617719698813
0.130736119450646
-0.927720096423537
0.140604904116875
0.279221632515758
-0.289312970576629
0.979798763879307
0.120210022730328
0.36173755176634
0.0811645212250733
0.155248737022111
0.185636607300993
0.34901523660757
0.790517949682151
0.673568637271773
0.387325211951821
-0.254219246069513
-0.453620527924029
0.682564096685245
0.723873012429255
0.493335643660489
0.771159542505823
0.425588242668673
-0.675704411484902
-0.201273495108912
0.772172704359523
0.719557850979669
0.593035963656953
-0.549994644200856
0.294528972650155
-0.863533234572862
-0.88065347225328
0.191677863443075
-0.94293308550185
0.3847703340961
0.341157700137384
0.761969203184602
-0.866065897520878
0.415510783274882
0.248686266240904
-0.266521831888276
-0.776187429356894
-0.252045209133722
0.265112223963693
-0.403529562925206
0.575548860301565
0.863959181185833
0.720371023589511
0.144800113931484
0.521787864616418
-0.233762740976977
-0.945785036420037
-0.0862590595846781
0.718512426232125
-0.260037991290031
-0.555460762828391
0.151656423817741
0.937774292092278
-0.922469380606235
-0.495639856503786
-0.114847912414799
0.886285431669294
-0.433513635379721
-0.454239722358733
0.390029123436252
0.211896718918691
0.534521610053917
-0.698294554102872
-0.523158536244871
0.243171258688477
0.881038346466452
-0.14521969854337
-0.346619082169907
0.876121207861858
0.51248012548792
-0.517457063764375
-0.970256199270533
0.235780466521988
-0.273459800085206
0.662445289295821
-0.348345767241479
-0.334397687131051
0.114191870346138
0.161075561872357
0.00811549386281452
0.158472674310928
-0.347452485635774
-0.465471819658891
-0.161340213364486
-0.602820938097674
-0.619557963898276
-0.394950651549443
