0.350736694761764
0.109278936017722
0.910502380589079
0.0826196288971619
-0.468580377189655
-0.8076010405272
0.0431074209799225
-0.750250080632347
0.0178455710243196
-0.532149193691262
0.372620642431432
0.806790054171249
0.957251659703729
-0.170778390695896
-0.614374217395131
0.685172039037205
0.867751215930215
0.567610463097828
-0.974865571391099
0.0223666975254797
0.724888274869991
0.769721641916839
-0.327791197441777
-0.115778360732965
-0.623063319510164
0.787490858714902
0.978685572551904
-0.373398401921261
-0.278834665494125
0.375099523589154
0.753648334032901
0.688133249911766
-0.781445948901169
0.997882315790481
-0.415712502812247
0.503377581714316
-0.871909115017566
-0.808982677412509
0.709573917762732
0.730386612458176
0.325912833850918
0.0523740698509436
0.574692708054459
-0.451363661340253
-0.742902306777099
0.979987834037473
0.513188743661224
-0.911450299769278
0.0345136081680574
0.329333308302729
0.667621226985796
0.204364610678591
-0.496629493716892
0.155230189940414
0.460928479687889
0.612073715112834
-0.571904580344021
0.594082317324125
-0.0838117100235747
0.962547035213615
-0.469062654162039
-0.546805128591002
-0.981216755512866
-0.0876749603651701
0.760801152956442
0.599660795453872
-0.425642306468322
-0.0879257119981298
0.628030134557623
0.379021553107541
-0.103862857085274
0.627163326937088
0.951035542287332
-0.815449614237707
0.83627333656516
0.435509946976757
-0.356646779191116
0.567049767007579
0.811202007079902
-0.467859095429168
0.612988550348492
0.00558879508858779
-0.752693548624093
-0.0153112201168531
-0.657067874883786
0.443153691808136
0.925506612656813
0.587964850984816
0.816546982976582
-0.363006564108215
0.370384028294727
-0.206409745033062
-0.896296629227415
0.0869955969441503
0.979757009925728
0.66380454048471
0.740237454704497
-0.889107479167053
-0.848420896535295
-0.659150156593496
-0.116559182215436
0.41438523846935
0.00333048243524078
0.511285523211089
-0.0593798679809698
-0.0306154970675302
-0.751807307508574
0.00652940252449752
-0.639918438310194
0.348352282708225
-0.675037413156109
-0.187086141629034
0.685940799315992
0.721450502312113
-0.244741306321002
0.473164711470104
-0.862288466676011
0.541649881348616
-0.582852466783859
-0.748830800998452
-0.587298805285869
0.374621680336529
0.305028070677438
0.241700211214093
-0.822516415310183
-0.291934109393534
-0.621599212223096
-0.560124104369637
