0.597516697558678
-0.536353421961546
-0.0615254979974185
0.511572851296646
0.840249219534904
0.836715928694381
-0.782723013408486
0.173640278337679
0.332289360265492
-0.0252802386949947
0.721670139589729
-0.0533978787440838
-0.318167571838621
-0.903774845379239
-0.595187624724686
-0.64527788334161
-0.286661322685339
0.735193562459459
-0.240187263965137
0.5175762570094
0.0636713524014845
0.733236273106554
0.720231495261765
-0.939400676685631
-0.871514453446683
0.403768041291701
0.557536419305508
-0.262263814641521
0.639942648420157
-0.895483473339309
0.455132641165375
-0.189767843146004
0.130372928594173
0.115115664340358
0.603798338454792
-0.223536547926939
0.587185651907254
-0.28223458088538
-0.053809873342851
-0.532643490506465
-0.641309763447136
0.142469128928142
-0.461209234306933
0.0867596729086382
0.639420872623483
0.122255424259695
-0.691009633564292
0.698555448915192
-0.452316336798565
0.646861007590551
0.845772418134969
0.68164876375835
0.0885490586375976
0.763064552793709
0.663750513728468
-0.826940930635975
-0.295447105051379
-0.243189153905752
-0.561621920795555
0.685577534264924
-0.255536619445573
-0.151770514378175
0.271066319207402
-0.465702852639922
0.813162076430382
-0.165752931986277
-0.232712054254642
-0.380453537039125
0.876332862293933
0.74902487966294
0.369640079090154
0.653480965944299
-0.776487087728467
-0.639380724726646
0.808840765377845
-0.510174535635804
-0.29403907013677
-0.843760490700645
0.15749517646929
-0.449248859230653
-0.0668150008322104
-0.992224851675234
0.394176730324646
-0.308606796900953
0.779772291366246
-0.060855829117048
0.939826309174058
-0.230811999697051
-0.0776853186804294
0.590347661909236
0.678242480288231
-0.128972360274424
0.325722106427989
-0.353187539411056
0.161491933261995
0.510927496653989
-0.136954531693019
-0.96453595424161
-0.12377928273924
0.155524905221983
-0.121738332454987
0.0189102875207914
-0.254303685396225
0.210982041491463
-0.973510070637066
-0.180425238207855
-0.0261799707506195
-0.906104608543914
0.393838050070699
-0.242297601411253
0.515496726280983
0.0211256720965696
-0.998200498681511
-0.521854372221213
0.16871537638781
-0.831122739478241
0.165006413996375
0.222415387718836
-0.937724146742907
-0.348450688781259
0.437059220469398
-0.090960634152138
-0.663336413005063
0.800392179390975
-0.0598546927763694
0.531575629050388
0.0150359785449703
-0.24339872045564
