0.824940172335883
0.836943100419944
0.0767455558963103
0.750504546677845
0.520016831122671
0.325223862088742
0.0800453258626432
0.687139299229848
-1.06789160424799
0.702444822509534
-0.349952729836582
-0.620330898797893
0.543282863778738
0.443614227162196
0.353114328263652
-0.0993824594211302
0.867214067595365
-0.13613996628954
0.984805171513847
-0.599876813929732
-0.40782969510079
-0.882327853476259
0.88584524802012
-0.724290247533362
-0.401206403685531
-0.260439106266326
0.615234172308808
0.854786835484291
-0.720300946091021
0.011447440386798
0.10989851821681
0.078984724145834
0.886866064486858
-0.952896393035373
-0.00739871596878102
0.0525172903799263
0.823669627135813
0.23768414211069
0.349766981800063
-0.710267637998372
-0.128835524392092
0.320939588936999
-0.742832413010881
0.887381314399608
0.326043193032107
-0.928183292478917
0.536177778963767
-0.653281131261875
0.112564718183372
-0.203247850431329
-0.10355316041948
-0.986731362987313
0.678738588340906
-0.805882645062967
-0.352862455784653
-0.448266719440538
0.81898769662007
-0.745630711375665
-0.103264288323546
-0.435276355317593
-0.0581932689719294
-0.789422319250152
0.89683586843194
-0.525309989572015
0.475445888163736
-0.181403445009631
-0.991288725982058
0.0733110646824233
0.510767691003814
0.0329758453299164
-0.605597660362249
0.289359254471516
-0.979784542476751
0.189270231843067
0.385722190453565
-0.00548552869257541
0.618391993267229
-0.917410308192228
0.0598939983299045
0.666550199664415
-1.04203342578151
0.591746905274398
0.241376541771052
0.0210892222846972
0.127458012986711
-0.277143812836181
-0.66100948204613
0.62646335726902
0.47811719790884
0.263502340069912
-0.180195037238703
-0.364130501787586
0.92494624045233
0.234595005945271
-0.556249242359593
0.798782983716947
