0.866708176131511
0.90775145235667
-0.799326482974192
-0.937044309100742
-0.0812613024088511
-0.508696788442743
0.676614092432942
-0.263494385330679
-0.928875754815835
0.8570880466703
0.807824911143921
-0.285508922163831
-0.822688988364236
-0.904180857741996
0.0563104370689361
-0.872479323140792
-0.718983516142904
0.312949456134323
0.971654134396931
-0.453902620148384
0.380639162243425
0.084642346650769
0.48510196492385
0.338136162119771
-0.186515507975383
-0.181506814676944
-0.931633558304298
-0.258823252717833
0.175389593806449
-0.690106071574116
0.118021706634178
-0.720466378320344
0.610458584623898
-0.83061450882075
-0.661069431197753
-0.5972682059831
-0.816418995259979
0.420449763437147
-0.0431964209341117
-0.377819889125342
-0.225883356913751
0.251768359320047
-0.617928598393715
-0.817809198409652
-0.627226878330687
0.713825521557659
0.246621739599838
0.840657487110103
0.769410705411238
-0.905843504871123
-0.250758182641856
0.010089358865204
-0.579139207638958
-0.974813221160655
0.367157699473894
-0.279521904488235
0.129180457603563
-0.783506651794805
-0.771683120177669
-0.977190984725342
0.24444325610894
-0.705923383189143
0.767118906262725
-0.412231226171087
-0.213838026475736
-0.512443149212814
-0.22713321176795
-0.928726235952876
0.386465235476622
-0.524698882457252
0.346915194218653
0.696105970030406
-0.297471574657872
-0.901787207236044
-0.860070809711323
-0.243817431882548
-0.214087388866873
-0.40896976017143
0.671394054336825
-0.600152790842884
0.549074940866439
-0.469901599866412
0.714294883127493
-0.38492595962412
0.60323076328238
-0.230228180364952
0.18623316685438
0.210671683785551
0.615934818331922
0.0560613134631351
0.247244979445121
-0.746186927968133
0.269223201122219
0.592664593785589
-0.344141586082843
-0.212027551294769
-0.677814137862202
0.553561446334146
0.614756962657363
0.713567192722976
0.472113154887013
-0.354536449574031
-0.288126938240659
0.836771062950661
0.156429140322653
0.678730820371814
0.771160033286753
0.793815461667003
-0.692438803712935
0.636668429732486
-0.572983579137629
0.760312694583524
0.359140158165281
0.838402524176122
-0.118158373056404
-0.428227684450782
-0.788916861612911
-0.0747989708426112
0.247213874273725
0.602998389868483
-0.51899665910223
-0.482988617139072
0.342560900361337
0.871642902704591
0.117793463718994
0.839311056420596
0.456804269283433
-0.910797598251531
