-0.0900562610780138
-0.437531831123167
-0.879185132758173
-0.631625195978541
0.489755431590011
0.155382827052016
-0.180138130410455
0.176212509020734
0.418008816798156
0.289587290311983
0.952711253463995
0.556591511674832
0.236197420110396
0.0859386220500286
0.658725243670545
-0.146324956149799
-0.647139882809359
0.460865482382928
-0.711945859848342
-0.254291261841299
0.428364191697565
-0.673395302345656
0.563051184318057
-0.33412291186421
0.875189852355277
0.536526919693258
-0.324187570868022
-0.30650214694971
-0.821885996474508
0.536035324630938
0.667890946994563
-0.838925136472826
0.0854351300925222
0.540235848009953
-0.175694821812137
0.939561630319315
0.537196512938612
0.114315293198021
-0.279712034318922
-0.37401519861216
-0.866644191180302
0.595102802468688
0.94343652944295
-0.71170915948821
0.538071907304149
-0.00606593010878371
-0.199423527671119
0.103363049732929
-0.872809007840468
-0.636426492199796
0.644837771594509
-0.954063284582356
-0.388718109751465
-0.176248998545474
-0.0474545446857865
-0.488116700504556
0.660314645734276
-0.0452983264710187
-0.890272156375464
0.939676107452767
0.120279422872321
0.232626923797189
0.654615380756867
0.786354344036022
-0.0849434387312223
-0.0778058134097193
-0.253617116985762
0.0346975119322116
-0.258810525290856
-0.342483059836936
0.124032611264825
0.949859105514144
0.503979773724758
0.636856834969923
0.431596742368778
-0.250389186969388
0.931919107736407
0.629876180028818
0.132125349196276
0.147597595132059
-0.149117324514542
0.855870735043059
-0.884334710650576
0.24197036434864
-0.415955982091559
0.239206544610542
-0.0118755697236988
-0.323204791234701
-0.601463981522976
-0.520970211246011
-0.692755492363892
-0.100262920990581
-0.357424544034123
-0.954368004143406
0.510321699461723
-0.567156730561155
0.383757705697093
0.628088792875871
-0.687587870494084
-0.428159323656957
-0.776229489070516
0.405086725884156
0.151289511734265
-0.339770914748544
-0.691322981942835
-0.0969246668248236
0.149810121267207
0.234793491178202
-0.336223879201703
-0.532036563387339
0.259397552843733
0.866139777386053
-0.696196092898628
0.22809746575098
0.976687478289937
-0.644244679974858
0.613006835536751
0.845904941471961
0.204360362403836
-0.897844869311542
-0.0189238981415147
0.326896762819549
0.167035556262333
0.252913503124206
0.739052335675668
0.635201278659316
0.448737304821141
0.50053621694203
