-0.370186944157531
-0.440259410014512
0.899229660041375
-0.561959024609162
0.258105888213529
-0.619907525698869
-0.620760026585052
0.356050942198961
0.781322950230702
0.64739414638557
-0.424673882807509
0.0857866957409932
0.658826557607959
-0.485086293310904
-0.940837491304496
-0.566121245416248
-0.935959645456396
-0.15859241150602
-0.669577404263914
-0.263722652316949
0.530242074220237
0.0875465417442063
0.843051766374922
-0.96853808743869
0.246125868399225
0.386546471741706
-0.385209634942165
0.62368452568407
-0.391288007708848
0.0877296197843211
-0.462175197870909
-0.335643471061814
0.214595279715223
0.940175732573315
-0.0799327241156933
0.347079195932523
-0.0272141518026256
0.273769178827574
-0.695092841432924
0.584646420078582
0.18043560633666
0.977025812906453
-0.0915329571749754
-0.582476647801962
-0.515733012308317
0.0436210239768657
0.508379911996678
-0.359539173701877
-0.00825620324438629
-0.266456743827101
-0.824161266334963
0.84969386941907
0.146156237941155
0.0753460813637463
0.238631963772466
-0.215363284082531
-0.795509541997538
0.969762509833764
-0.367865548742854
0.375637230558
-0.761994692728106
0.573307105877956
-0.302311021494255
-0.824718195564584
-0.0482355500245987
0.202309128632365
0.346375301598447
-0.654698758919431
-0.4970198120234
-0.404252277878644
0.891585011390098
-0.367745383021655
0.773178508340904
-0.00381888314633549
0.454582259471843
0.485990785400979
-0.930234133495508
-0.0336543616784853
-0.123446438484942
0.495929094203953
0.16671173060811
0.316079504497491
-0.67633987713272
-0.65545782975588
-0.453213041960776
0.407606694369373
-0.499360820420543
0.0238172758107928
0.795740282654869
-0.747952617756069
-0.477275120330765
0.650271937350246
-0.822365451027456
-0.628884227049751
-0.886440747532683
-0.0501151944318123
0.416866245181632
0.0257247350668715
0.353923425882536
-0.944953721418386
-0.148261816223565
0.390864129674219
-0.843714440230951
0.239790089612789
0.649223720799522
-0.764456747335157
0.45232437559823
-0.963720465682242
0.123420926882455
-0.674637885859564
0.468015630428388
0.0361720676222459
-0.875957002122003
0.107442445450454
-0.603924784978487
0.549542536091555
-0.612877302516454
-0.701315096999891
0.949389840103123
-0.21186455974624
0.293239872229306
-0.103663139634024
-0.547362934874593
0.0751034721950711
0.0254829190185286
-0.0181547706402906
-0.577547606167162
0.696830831253224
