-0.182471232059675
0.708654756961686
0.283414382080532
-0.257856186819177
-0.57515420121637
0.981259551275502
0.667467630275901
-0.293705766583011
-0.760050397971451
-0.772803442005282
0.603756287603041
-0.676263143703159
0.320961947334175
0.0649959164008037
0.454338928924637
-0.102384226703495
0.769965195743679
0.222732537902734
-0.82162173628898
-0.0256644178081671
-0.689678881915463
-0.223916809131642
-0.630955465968125
0.175810740882431
0.0432590792956528
0.874771793198779
0.747655671291146
0.679763659031804
-0.787168511485105
-0.982768722226079
0.22992859031273
-0.259846694791467
0.25880153450879
-0.181362600947476
-0.260877045829064
-0.172757604096203
-0.395106170559006
0.179103354074445
-1.05188319762598
-0.0978062470873361
-0.430119057853993
-0.870805533043012
-0.357466459171329
-0.3471267156267
0.658102041922648
0.249729177613106
0.679376038158798
-0.0299430310889138
0.534083336592554
0.625760166471977
-0.661760682245323
0.495386711107337
-0.236044403633083
0.519944152568867
0.259445718819634
0.697056849176933
0.715633638399198
0.280989084314863
0.6882899301882
-0.937658568634729
-0.0539213009469355
-0.38439053312168
-0.873687219882084
0.089517363516799
