-0.608548238992812
-0.737266384438823
-0.685669538106828
-0.736138953057911
-0.0969601963246316
0.305374427405173
0.165867302116756
-0.539443101717113
0.103622543739291
0.77347125144674
0.360022081656724
0.055792782316362
0.209361075514453
-0.141197919161064
-0.690929725774594
0.455502062027898
0.591452739841652
0.642544298586962
0.227813247827792
0.489767654703918
0.0412063221198655
-0.993063455070871
-0.0781177802118138
-0.895625988604682
0.255633304304336
0.000989673780195544
-0.217830622988258
-0.0199746709308646
-0.99750500573925
0.825234430234364
0.885363775838174
-0.208349880816256
-0.556154901881239
-0.978605988956452
-0.788003976656971
0.821802201175223
-0.496934423078143
-0.844612247704548
-0.138596902636816
-0.146932565986899
-0.389664677909265
-0.742391323998299
-0.826293753532462
0.557755327018008
-0.384577539945775
0.550355375952428
-0.990329402049733
-0.997972384746492
-0.816267955933443
-0.412112002612382
-0.209510764069203
0.173481349828725
0.010289333201954
0.779623895865776
0.719481506549629
0.479849567151585
0.51375286930407
-0.619446604989789
0.210418155185796
0.758825916088829
0.684366819386905
-0.268386881981158
-0.52836141476063
-0.689862773575419
0.811428601952879
0.857099751448135
0.793145918715432
0.749302400793646
0.408176930343791
0.307415661279583
-0.0533786440533839
-0.992181423509599
0.0495165785423963
-0.27848993309488
0.815842864872147
-0.325416066616306
-0.0913099723583943
0.777470886598774
-0.214870507717867
0.945033795857611
-0.122948200385013
-0.383593248732819
-0.718961351673728
0.127341751934978
-0.0761568613795618
-0.0476779723386351
0.79694066540889
-0.28616043373497
0.869700739867835
0.496812838775018
0.290982795497835
0.0446995246798545
-0.441634900629234
0.538872248227063
-0.510308298674327
-0.842679801230759
