-0.770138831352242
-0.663829647808334
0.385826934371977
0.392037641740986
0.995115089513237
-0.233595755646325
-0.318263572072671
-0.330459825031392
0.722169825381658
-0.117738765062611
0.58674106861701
-0.933159151379908
0.424155774112369
0.249130329051339
-0.409096165804396
-0.388705151787989
0.371021127483326
0.482989744084131
0.680779667491789
0.0368374993108076
-0.0715781802642384
-0.467464710571584
-0.650824968492335
-0.339723263265814
0.362516296442202
-0.236943036397261
-0.104041493568675
0.0605356653206913
-0.838067630986162
-0.76841976749928
0.384450080088223
-0.0581394035645978
-0.64283273250374
-0.712088236199065
0.152277001956038
0.551252919088321
-0.953503567930999
-0.394730488990057
0.20129318455094
0.156429489384209
0.772521129238298
-0.529397502899841
-0.405636683472962
-0.930615849446204
-0.656903206269667
-0.732745437508034
-0.401012239231326
-0.13543802849179
0.511213530848002
0.585591496205363
0.262727029101314
0.423712896669694
-0.535507283517975
-0.0507390394918034
-0.890815462386522
0.459876891697093
-0.645158474423277
0.798196268640266
-0.735785809270894
-0.390054361381049
-0.74764536326427
0.227093481528496
0.705969011624762
0.950032703670832
0.888103725297174
0.758969662949037
-0.358716292920132
0.642379082405272
0.251990580291235
-0.941548391367418
0.0105374617838988
-0.2851832887409
0.82337876710692
-0.149026936293125
0.227974259284885
0.25843548193997
-0.205340024498808
0.2116427815858
-0.0918406023558712
0.775833418647855
-0.052901737065893
0.298570863898716
-0.639511671318632
-0.603304396895114
-0.556032959844335
-0.612502858740285
0.659885398060168
0.0211271184307788
-0.902642843178897
-0.511351891954523
0.860249125044726
-0.717123601561823
0.152273350184012
0.745876651420065
0.619806440584158
-0.813681417905672
0.363658871238466
-0.0138106564832689
-0.522282134348844
0.43066637179206
0.0341804712930702
0.914217040801216
-0.144522551108489
0.155707956720718
0.41082574397983
0.0157347023151465
0.193202469067039
0.306660129630958
-0.548595744563268
-0.85005990027373
0.946157021985881
-0.98112046918469
-0.486785246347097
-0.632934244235796
0.219536317275404
0.0436862868868576
-0.514138050591412
0.749817747565368
-0.349263243667188
0.526673900662907
0.68697478625006
0.0126114879009759
-0.29653966313424
-0.985403723292391
-0.45607975626333
-0.206734357482081
-0.623170108309821
-0.0951276362452079
