-0.0437798708844175
0.538085379333893
-0.906782960490193
-0.962880964402943
0.233219055290878
0.29972338811765
0.0448512640406222
-0.305498524149267
-0.785644779404538
0.436385168257492
0.875575136591691
0.43795513835688
-0.0183115937082134
-0.106059608818531
-0.950937366092941
0.867801153001141
0.382119396718993
0.766715342722996
-0.206553214158628
-0.847171115993181
-0.777062500688586
0.877737503763383
0.0292851555155278
0.0888455158280483
0.0707181662665719
-0.528173185127081
-0.558579732774219
-0.201304783577294
0.884443909735511
-0.193133274634986
0.648395732669046
-0.821866328196141
-0.110825360359056
-0.444704278845981
-0.0168208304384017
-0.212233887915954
-0.609013341944638
0.970348652607726
0.0305531013773095
0.404070891701526
0.198949200093125
0.102464660233386
-0.945656970518092
0.933678430781571
0.143922966778848
0.470585362926677
0.123124331178109
-0.901683853604414
0.575811382848884
-0.510565263979023
0.069656460980613
-0.133959489246764
0.0213697870659604
-0.861188392583391
-0.893164645764313
-0.460588185578211
0.120909305004193
0.462758032898177
-0.643109590145627
-0.583627325836946
0.253317424332047
-0.0343832495566758
0.257116515018179
0.954261617695177
-0.282052672452132
-0.166870363973336
0.396860716685969
-0.668368623431056
0.472697756735212
-0.275551597315496
-0.898658745368749
-0.823367395903498
-0.234079497444804
0.644265913703773
-0.70812645018157
-0.566707383838096
0.371775538330284
-0.173076161818741
-0.341616064728136
0.963182794273464
0.639125674654432
-0.737787591639402
-0.790325298794214
-0.842669567896947
0.735935565387289
-0.583533271357505
0.47863540476634
-0.856332527341485
-0.755177654730098
0.172283215310165
0.0500151555261934
0.60094747190968
-0.947200819643373
-0.735751913377883
-0.946947127184883
0.76327514847173
-0.341580758458186
-0.304042933467088
-0.533324596146216
-0.677925648838506
0.956400756755928
-0.338118860799646
-0.516797504464031
-0.22926404943024
0.0906898230705713
-0.363689336255935
0.504833972487195
-0.183700320724405
-0.462439356318576
0.151467717688997
0.930448525566762
-0.597640758886335
-0.447863549377694
-0.813141897785848
-0.578470981715267
0.683741592729126
-0.466856035109943
0.228974824740814
0.730483909034205
0.265718225970386
-0.525185212748561
0.69755388300841
-0.592268325687681
-0.788450445661843
-0.385541171620456
0.827781912580514
-0.670883019696629
0.42806400603416
