-0.775183273164019
0.339231860103697
-0.82127115115369
0.797837865436725
0.599544505295433
0.259374201443654
0.836529357828187
0.691769400041878
-0.582474019940239
0.854115505351643
0.352404522358154
-0.634167075025366
0.630927336651017
0.884093445836169
1.02014062101329
-0.703720504778027
0.449662447265708
-0.591133786540158
-0.253240679041443
0.585369287993202
0.291014969117869
-0.778021732010869
-0.274650130645252
-0.736949393877541
-0.404759356055592
0.439955851677988
0.665137437534258
-0.320570728632894
-0.971759608305647
-0.258747789907474
0.567613750388482
-0.223304511419176
-0.365443616007794
-0.443681895860537
-0.572291854090117
-0.366197753642551
-0.425448751921646
0.972593150944436
0.199682868484809
-0.556176454594099
0.151414567325769
-0.211902933821133
0.583122891279783
0.47978517939372
0.678507563752002
-0.000771659458311304
-0.634689198450851
0.560460468467042
0.704554471046031
-0.081609377586905
-0.305971108648099
0.952639067834508
0.681226963174922
0.484662451864275
-0.679379707351479
-0.0368191486245521
0.0943293337281029
-0.869322354024666
0.448612683781333
0.81012625243671
-0.38321425205794
-0.835802881097478
0.395862793213782
0.805310235737078
0.292170291967001
-0.901137641527652
0.366167670468591
0.25292996346116
0.757645719209556
-0.76292774277854
-0.209058886896946
-0.5787112962356
0.822147486198601
0.890826715367818
0.299284789906864
-0.467254801027561
0.716286644754101
0.547656492666105
0.132649727454662
0.230321508722546
0.963688899604143
0.8242228836804
0.655369874060281
-0.528380733338093
0.108538253596016
-0.968890690726758
-0.119971342642519
0.861511014187319
0.918496057118639
0.975200105430292
0.778261151230442
-0.26834368656718
-0.107245310772809
0.269520602324657
0.967717285968927
-0.522098313879328
