-0.0162583853005802
-0.0859042627427326
-0.25707725175673
-0.677466622554352
0.122601664504961
0.919856302832415
0.940101862292548
-0.435742638575017
0.0874206773161206
-0.857682189841228
-0.326107636514809
-0.547897023418798
0.491364052552952
-0.682749223095824
-0.859439313733264
-0.390916973681022
-0.470773898098642
0.529256160877119
0.336985497580817
0.223219619152451
0.117876458349298
-0.40666844025246
0.764556731581013
-0.207552181280694
-0.875655155240001
-0.13735715730008
0.284899479299331
-0.725033638778921
-0.252693121993754
0.434766181600803
0.587860352825282
0.887019073653445
-0.696805263456109
0.0269653278703379
0.685233378476844
0.986170733170629
0.228738352576033
-0.0630238856779395
0.0181831018023299
-0.929958331397738
-0.919128617817804
0.443967239787349
-0.321427166572528
0.626079174770156
0.984540695290648
-0.76772338029853
0.518045246644863
0.651117180774856
-0.930188555720965
0.500525797310137
-0.143579242981577
-0.517731344843406
0.556225739755768
-0.619098327435622
0.309509843593275
-0.618630057634084
0.797118528557734
0.404202333235559
-0.0549802739867821
-0.72691045683758
-0.281934562129278
0.295460954729892
-0.631063606161858
0.710517117166071
0.816903256311661
-0.798206137375528
0.0609476330975318
-0.985350937404104
0.782184715295753
0.644179069560415
0.587285176611056
-0.701908515621082
0.470924862847386
-0.61526828546024
0.745295855040609
0.258212161421835
-0.503952571248657
0.667513462548463
0.0187922852136404
-0.422853312238326
0.535172811597933
-0.588061383140708
0.759482439742881
0.530115440987822
-0.00104926893611919
0.374870884170982
-0.527983285718904
0.90822609753691
0.282911772021063
0.0971336703846443
-0.212714379555924
0.615623050411242
0.748395652282302
-0.162024475811759
0.633423802601447
-0.080003116708852
-0.0561669913582062
-0.591681862485705
-0.458054138437999
-0.932957165000981
-0.424834809668322
-0.448725216233798
-0.349754865399856
0.0569448770051223
0.434007171753362
-0.383418807509271
-0.289575303075493
-0.181244884936935
-0.78531024320575
0.692242525251684
-0.0188111008792791
0.432712042919497
0.0961754111449448
-0.421510333116654
0.718161980699094
-0.146308557726181
0.222536435120595
0.257934802433083
-0.562342187277168
0.678706099349526
-0.517873677425422
0.51183339991405
-0.591204495365218
-0.506000892447544
0.860099718116585
0.622619320794744
-0.818963923101791
-0.00317664753866173
