-0.616535945784989
-0.660561061834801
-0.807638041085866
0.524407040902896
0.631365004539848
-0.517922717747831
-0.55987126937044
0.233409727420965
0.879352571874687
0.022735968465743
-0.795145505131749
0.469415747896526
0.598973233841232
-0.480138939699181
0.538876418062154
-0.93929919515
0.807354810951087
0.696496667731788
-0.241018488062554
-0.916281471515272
-0.773123422990391
0.390544999796746
-0.0337269640260042
0.133312186242697
0.504941948615813
-0.458255139724533
0.924837097792556
0.329162020497211
0.0889496677953708
0.561236624069693
-0.712378630132022
-0.915490380954307
0.931940815796555
0.279649355321888
-0.313902193487627
0.870077936245177
0.485072833370469
0.845294170642878
-0.8908716958048
-0.16048194577971
-0.152107295296533
-0.103834223055865
0.564022028251442
-0.805075230719719
0.122869169243445
-0.325556022327247
-0.0454718236148836
-0.259620669121843
0.605965215592661
-0.676794314370775
0.692618242311547
0.754218574378847
0.763798830230848
0.981639809206907
-0.739416474599135
-0.0575082521782959
0.872652078873297
0.309537239442087
0.209293641529096
-0.86773496608219
0.76976083255137
-0.258414003277803
0.30617017904849
-0.682262178717498
0.247140303318485
-0.605518075667364
-0.376587992537919
0.327098310592698
-0.491977397786659
0.236200052125101
0.965246486577394
0.122107568070805
-0.0495591996205134
0.803458434352022
-0.741429118142613
-0.899097663212323
0.0547184736112369
-0.378061017049169
0.371960323179946
0.00567723940859944
-0.285269076554927
0.491490646747723
0.669070477511666
0.543504459110654
-0.138846142360773
0.42659515191141
-0.283875718451562
-0.22564704121689
-0.58228398517288
-0.0956572723705601
-0.42287255297946
0.717242435808509
0.197888127321052
-0.811027308901734
0.448159907578618
-0.593675001935974
-0.61493991428212
0.595396996803636
0.0214717007582184
0.433859183885289
0.295500048040686
-0.604684397977936
-0.268710947093742
0.854558214332733
-0.307356973130219
0.809849194857667
-0.0540077352429204
-0.925075473555254
0.239848046001945
-0.808251838867584
0.194055073606533
0.865531165553762
0.106347736357168
0.718729600928397
-0.614436969752307
-0.38491607591381
-0.330419753849529
-0.831216656138995
0.528641185504727
-0.00806754987475064
-0.205422397309482
-0.0955843887397017
-0.361417093090935
-0.588620535507193
0.573561942397674
0.315267106168791
-0.187701166479969
0.641210783304973
