-0.295462229527877
-0.528630814888783
0.581525827359979
-0.943231833454912
0.278763478121891
0.106599987070657
-0.707291596425263
-0.247292500324851
0.520947739377002
0.883758636284495
-0.202113336371071
0.607513341066378
0.700579556603644
0.987134412553869
-0.638430636217657
-0.327445689830467
0.746820318564879
0.811918940342176
-0.946008791168151
0.475314947766789
-1.01073669974913
-0.939521638873757
0.732614432805151
0.801540756259017
-0.0841612327539999
0.190025094463891
0.656575764949956
-0.419209011674083
0.277247227052614
-0.777130266239455
-0.846442695963759
-0.778156062172329
-0.848418261825214
-0.148602560563822
0.132008994100448
-0.511433329618913
0.311365541977126
0.0717525616992957
-0.641842187917511
-0.989307827666734
-0.126239911929869
-0.128701339464767
0.140103183280559
-0.16688032040716
0.726186657828375
-0.546343983141064
-0.934935490276054
-0.322815453917259
0.125295933460653
-0.645691165753312
0.557596406815058
-0.699376477061777
0.498325503880875
-0.518708493226975
0.0755119263680137
-0.57522871392814
-0.877988856458506
-0.751485575190953
0.729548637307142
-0.64197332794409
0.546751070398095
0.47121764250844
0.325648994695522
-0.161737398244912
0.315444723592167
-0.329165862216181
-0.279090686725473
0.0128280173253824
0.479963737766987
0.308982587939024
0.828065611590531
-0.455405506466871
-0.462996589108284
0.759409896765448
0.351314602328654
-0.196201460049458
0.990083117250981
0.788847821162245
0.163885478883974
0.788048879589357
-0.0797314632004454
-0.0472053159235402
-0.298248362924867
0.137905856480596
0.954028118817818
0.48152519587609
0.416321369573922
-0.40376768098639
0.941296087371887
-0.577515205920984
-0.20948521231823
-0.579432379253571
-0.520575292303227
0.672765686733625
-0.166768723399375
0.750459865439056
-0.172779693696419
-0.977127365489355
-0.811306087962825
0.642741191795475
0.583608559879762
-0.829745165195147
-0.498800469355015
0.764738327765692
0.425543327380814
0.845978708991337
0.939039191041522
-0.115177679082112
0.122819371615669
0.274663060684726
0.760207838138576
-0.913702576179411
0.854063543230173
0.155239730667999
0.455357648213852
0.239367341778204
-0.587480896393387
-0.58123816033505
-0.539467095423881
0.478719519648001
0.120142240372589
-0.93931396340627
-0.1500866057227
0.323134494324569
-0.128690569560024
-0.468670388535179
-0.542030794527492
-0.56148671623333
