-0.152732763441552
-0.442844954339122
-0.208673058226175
0.855745036877121
0.785225461987694
0.0234426269747227
-0.634758473001628
0.982277394176003
-0.303523696294681
0.251050809622418
-0.372579351683847
0.713419856311124
-0.88490088642744
0.679500108663562
-0.260102097213646
0.779012775853032
-0.510198831889987
-0.134967102283212
-0.380632456864506
0.0175729461927081
-0.185713191030996
-0.492956002719723
0.716844801352391
-0.793325231630831
0.606995497006618
0.817376540482271
-0.947984591855014
-0.978318992999744
-0.91514092718607
0.670409270698312
0.9550059977565
-0.134663181419037
0.474907468061916
-0.383870682703308
-0.788715050910592
0.152317815038276
0.228795921614503
-0.873183615009312
0.923293479010373
-0.373226412096901
0.314696803917051
0.335229955518707
0.627086828101804
0.658457602598328
-0.0771301406724812
0.783273109045065
-0.750685829570531
0.908755952832718
0.470587950707425
-0.196109630256791
0.943619190837401
0.402407266379809
-0.14245316965786
-0.258282851579383
0.161978190155155
-0.932542925830444
-0.176574792131783
-0.775897616958242
0.0230826682722947
-0.666268898022613
-0.847831814172043
0.90571912914605
-0.290737617865951
0.254493375057717
0.298635740506904
-0.860270873029291
0.359069007277084
0.941015349652629
-0.0921859308717006
-0.246933991230453
0.926054958975826
0.903377475205093
-0.250674161591142
0.33736783866958
0.200199454602864
-0.790047021170479
-0.063108081831037
-0.545079628173049
0.707761233989744
-0.174846890304523
-0.481769451217222
-0.44960448955666
-0.611183685516414
0.860048319961435
-0.506843681782977
0.557705306928114
0.74045005721825
0.440804721422518
-0.535036572045846
0.144574024631809
-0.768603267072687
-0.568330488409885
-0.650927851972949
0.502742117338627
0.663250437912701
0.821811946379147
-0.170609361318238
-0.780856489303608
-0.374830882440229
-0.661687322697393
-0.875920531690781
-0.57253865559065
-0.708306343123512
-0.770080999055392
-0.666296007641561
-0.398527787625777
-0.660586462671252
-0.85821989483766
-0.987019677440501
-0.061484641623723
0.361885146281198
-0.588499901666813
0.206250485875198
-0.605804845805244
-0.655058607026354
0.199118280480566
0.395067885496159
-0.209048769592217
0.0566997215388829
-0.169943712057559
0.219470195389011
-0.28231148299385
-0.927273258749343
0.238007533927943
-0.0618363160426541
-0.488202004816553
0.924205496177517
-0.482798968045834
