0.906130402838738
0.0567674856892042
0.105351979669821
0.800632250512306
-0.26449453578397
0.986856878211042
-0.80422497666835
0.589571173985221
-0.547034867732212
-0.432687270684904
0.935464617381339
-0.571047637196643
0.0477655870932678
-0.20636150508798
-0.839348841485017
0.694945882311369
-0.44335463274476
-0.459884123728953
0.0954274730439503
0.88425478092828
-0.927064842341914
-0.22031747299177
0.193667625899563
-0.960585861726699
-0.797370054113476
-0.825463921341459
-0.694748895863134
0.0637570868156678
0.130038973142566
0.0361159991733227
0.277994089504586
0.00779527603611056
-0.467525380293581
0.70270655700073
0.812151194794996
-0.322784877107197
0.153540623024744
0.791518739030778
-0.147671610226424
-0.896436018498631
0.797439881776538
0.0908539037620393
-0.703018898375108
0.0950633189289574
0.785962360083174
0.356255095225087
-0.669794599927849
-0.020290019327403
0.384578038184404
-0.196977830709186
0.79497555923239
-0.166017434156372
-0.19160612517419
0.146945705021043
-0.53281641856075
0.158906861903175
-0.55832708362983
0.220921980659868
0.818499875874072
-0.900054105161668
-0.962959088859943
0.120219854838555
0.626706741746471
0.665336154093899
0.255458623451446
0.452229441706789
0.852660311170224
-0.277810784638669
-0.997825372636556
-0.833512484033619
-0.420568682888543
-0.599504951255533
0.693567160307942
-0.914205796369028
-0.0758831223854567
0.481665952672685
-0.556275443975326
-0.295877256164815
0.319687263547783
-0.0837498637861455
-0.449496068325887
0.760155035344723
0.563388827456268
0.900310856432286
-0.566408404518678
0.879754004891911
0.878968801194238
-0.806661391535346
0.053267757193368
0.469620180452899
-0.390571017352185
-0.187897968142845
-0.0161989687747362
-0.834001436843
0.782722108901704
-0.80770144350611
0.191255602328261
-0.511925457972024
0.953478458393611
0.428303380355024
-0.587927401330761
0.174560974551272
-0.776744408829154
0.104397153466227
-0.237026183941136
-0.615333492332576
0.50667577698475
0.249174843986944
-0.600868385909113
0.234010954030032
0.761827062316878
0.782861280918405
0.944888258651918
0.269831989031675
-0.279470894470783
0.189087094731891
-0.514220028972869
-0.763392292943499
0.600632602358404
0.0922106838368814
-0.476467255000644
-0.0452277279776402
-0.266931154096597
-0.449671045952801
0.891957146195253
-0.0463549546806715
-0.704832584277364
-0.987392361865102
