-0.17290989599799
-0.30214597716972
0.866291703688338
0.909801593850987
0.504199315809744
0.753203605579191
-0.714298768652734
0.95831273614381
0.0454234011675399
0.0489343971268741
-0.755736025444635
-0.327016420749203
0.869212997900985
-0.0475410095699149
2.88421604520668e-05
-0.339557209689171
-0.571011845257189
-0.901494544358128
-0.559120565908977
0.925279253598952
0.933195073201618
0.155127741711391
-0.0252152273282327
-0.0971093420840663
0.911971153490618
-0.412595394302716
-0.304864758705645
0.54203308634784
0.915060348749846
0.602401522937353
0.350590652955726
-0.657713011133078
-0.596102927606248
0.439146808737032
-0.891952957990726
0.291522620820386
0.48959209537087
0.681535036483773
-0.518687465287695
0.569777750075286
-0.728265210167046
-0.345283549628569
-0.699519302274836
0.0145112295176668
-0.213710427501885
-0.136794564419836
-0.971964984585934
-0.865709549526354
0.74385804417853
-0.668086186676495
0.824240876415219
-0.818478034808144
-0.562453643412355
-0.484545306672129
0.104290845663839
-0.280401643253742
-0.599925639240244
-0.128940992059674
0.11215695143584
-0.18882537420126
0.218304186648282
0.72627461679182
0.636957820418637
0.640131303453809
0.606262313872954
0.968620898343634
-0.500047623547361
-0.483929061611418
-0.467576036167605
0.524922353094624
0.445424195688724
-0.408017444978238
0.188607067843306
0.332853397936802
0.745891967518998
0.392996066701963
-0.644677824816926
0.989846434058642
-0.000818641209200816
-0.683017651375456
-0.939586527748158
-0.0220777412948502
-0.430157050335774
0.589350627319854
-0.850075715186749
-0.453776957030552
0.142717255285573
0.159998076408787
0.48240602011932
-0.0730408810982536
0.252485365552477
0.498939234256723
0.831442542342919
0.301982088002857
0.479084612567832
0.0331168705765095
0.22078524673894
-0.413870671863731
-0.599499523562951
0.870514230583716
0.813226582381389
-0.823623949867497
0.103418569259564
0.672748876480678
-0.896749272157994
0.318712695989748
-0.741362998486705
0.658510385426935
-0.216637996611669
-0.996485191325752
0.808899802269368
-0.330086466521506
0.0976245938529053
-0.105232736166669
0.775894304227885
-0.911078761370629
0.468733144529679
0.822691962494755
-0.984662522642082
-0.468270610187901
-0.312786246821191
-0.939848212830516
0.598920882796114
-0.292557166200891
-0.473837825773042
0.256240411902267
0.73054909753303
0.173103090862367
