-0.0868301388547053
-0.781110516744642
-0.256969995185645
-0.337211290240052
-0.925742464981994
0.317590516532784
-0.539435313460941
0.18985794310745
0.113241667758596
-0.565103967185885
0.633312144712217
-0.939700650469884
-0.012629372297115
0.934092899787029
0.734463244940942
0.386629710392065
0.267923969681059
-0.137804275663662
-0.445978304147089
0.306659586768868
-0.714110832056635
-0.420425296358132
-0.819472212984034
-0.88012451254575
0.063836654432269
0.314985981660861
0.663313717239944
-0.633347797890738
0.467819102540999
0.123708317004738
0.844951273439873
-0.349721958682112
0.555051269501882
0.783230880214184
0.416336984723913
0.848530107339568
-0.666795804566218
-0.888790593594163
-0.398689673389668
0.627370488612546
-0.664427493235408
0.942283667407436
0.190899327861448
-0.889419286397392
0.61877864142973
-0.569388972759621
-0.405251543737475
0.16632133871736
-0.752148026650204
0.977823462897585
-0.34645058859381
0.797858000664501
-0.290154197904241
-0.556483440436007
0.673839655776125
0.655135142650243
0.812974514328124
0.273779220433901
0.0558306999258364
0.946250157923275
0.556826246940979
-0.751769273995116
0.381167103721468
0.106126284233881
5.15109628213663e-06
-0.497807128736316
0.194412964105762
0.347338971244155
-0.305305940228537
-0.233306200450541
0.195124004170346
-0.454008157927648
-0.322346483344576
0.218123483892017
-0.49001126879493
0.845074761933349
0.929189657112951
0.435416602745585
-0.406773664837305
0.398818644717154
-0.78248266102775
0.883610680790374
-0.508691348906844
-0.42713451297519
0.399662026176811
-0.658206634089799
-0.496384684765356
0.406471856570791
0.590829168816741
0.53027402798773
-0.294063221449589
-0.561253776983407
-0.827790350040591
0.817507238719713
-0.663431220016132
0.572287067385675
0.813862086255015
-0.261811468576658
0.420026683418692
0.402995953725787
-0.364082941216698
-0.977820499383934
0.734324756613516
0.536231702381522
0.902195823904474
-0.904551761519359
0.163592011483301
0.0606241103250138
-0.327755527384257
0.307223978967377
-0.99738490575672
0.741685161903252
-0.558763470244591
0.221298000232689
-0.173826932965062
0.716964518158777
-0.604531474330431
0.493726318354718
0.720661298267658
0.640950521679389
-0.93131599410421
-0.552323556990526
-0.965360485871736
-0.604844897498624
0.349843409392701
0.34776988185427
-0.660159434085016
0.47434162199788
