-0.120085169982575
0.879197309514664
0.194393223285699
-0.123838283850609
-0.1906703858156
0.313104569414199
-0.816902013611698
-0.57391318975568
-0.178141075792181
0.660544227304833
0.799086000879068
0.659467498304056
-0.307712002280626
0.265556749492403
0.227503756985714
-0.487937085758453
-0.837766459381997
-0.0532904108140977
0.562596151959018
0.667780002607916
-0.110681908908344
-0.168436722650951
0.382123063773505
-0.238319468100963
-0.450819191584516
0.841441766896046
-0.0735514909766562
0.692475357971183
-0.460442352543594
0.692178756283576
0.454836020656811
-0.450276317161385
-0.684455690519475
0.043344346112612
0.420745317916226
0.702473803142861
0.0970924746428447
0.630564502925813
0.872600377536243
0.707383960480084
0.116641917185791
0.569743265529432
-0.0884000871478643
0.978556126493016
0.788923869259763
-0.398188417689195
0.601503650525164
0.423960846166272
0.24273431507095
-0.604343977048107
-0.396597496848089
-0.541989752210878
0.695538288084412
0.941715890464385
-0.511025006926079
-0.793644430213923
0.564580302530492
-0.0616547743436265
0.615865163591098
0.610284942545286
-0.566292462855868
0.570912762721064
-0.22627094858609
-0.216695658850732
0.751664245926854
-0.0339674107396192
0.347297582259839
-0.900145919267872
-0.275751269546446
0.330949954366744
-0.132667096403843
0.73012863413151
-1.02030018937513
0.164810668535886
0.0168380190311106
-0.747931417004757
-0.0787236371653191
-0.849697950707165
-0.557791021349269
0.566060434823817
-0.360983048544138
-0.649828952722679
0.324041042381749
-0.224042506161172
0.620259904346119
-0.495216732447185
0.555264631835954
0.0404134621519924
0.0162523383583793
0.773019359622184
0.136690755338199
-0.863555212523224
-0.78563885276072
-1.13662343509654
-0.738342830820104
0.0618509076532204
