-0.745464299817301
0.59543804830249
0.713658885016344
0.340358901864022
0.675856203632962
-0.235494716343347
-0.341226234903391
-0.541530928139738
-0.733876370768272
-0.432146874823574
-0.322698925050706
-0.774699929307789
0.119977673018227
0.445445719106172
-0.576175667862027
0.886628820978136
0.676326362051317
-0.665415380628281
0.937396263670662
0.304728856189577
-0.500040622997657
0.556828242929462
0.462755593403968
-0.214723290923039
0.660056572173195
0.850721950709516
-0.80986870270035
0.905266253133995
0.0970526983166406
-0.788066178533188
-0.464969407259565
0.950109259828451
0.35922319709553
-0.134442974039609
-0.121306625822005
0.502837670126704
0.975809509571837
-0.664801000344671
0.867838463702351
-0.414525313273963
-0.319110168285027
0.756801998129669
0.391709167914532
-0.211091325859165
0.361275399425156
-0.66580462912888
0.790426314828552
-0.910357729734793
-0.698636268963918
-0.453265187755896
-0.0215185287514277
-0.834101310892975
0.607620634947931
0.537929269084001
0.817656144372655
-0.604837657277964
0.242116855448705
-0.740971211433574
-0.533779548477148
0.582956999763552
-0.292316790501498
0.735427851093826
0.208112000038187
0.931233804204319
0.324261182790942
0.610167841395291
0.570585061364031
0.303160364398321
0.302086610935897
-0.268292032051644
-0.919552268902971
-0.774844226915371
-0.539555239263865
0.354337746718773
0.681057971521446
-0.26523750938218
-0.671185672685287
0.455174443200048
0.87543429839939
0.503641514916055
-0.605830001982375
0.918264954272111
0.144658457859557
0.835199248241923
-0.120039451398438
-0.635458338299884
-0.200474797601409
0.517402291015348
-0.901775357191839
0.00108756182964366
-0.410619340103866
0.709360441432755
-0.72993358219142
-0.490480185836813
-0.532157592178195
0.0505763368976166
