-0.120289210479462
0.302337262251343
-0.60164656192701
0.301541657787357
0.814512813462751
0.229816150912718
-0.804319952127317
0.426383741263567
-0.794790969132949
0.496857565439608
0.178330593300918
-0.207107138504661
0.920720234004711
0.833459205615661
0.895728831307669
0.303104663435247
0.532322844591064
0.114125251263111
-0.654102171532522
0.0455947031656012
0.246015073467372
0.559764161074172
-0.120670652605756
0.580939977965353
-0.67113945584331
-0.360631136807954
0.221659727821063
-0.516133335583865
-0.84907568088439
0.0856149627253296
-0.25074795904033
0.0230305924281479
0.213853930705314
0.537888375336486
0.935018008041333
-0.240181590047397
0.940770175281337
-0.395967122357271
-0.85994128293015
0.654517332024021
0.766461023222563
0.324298735605831
-0.0345155391066381
-0.746156301964587
0.772838965499219
-0.492980081384537
-0.30142218386029
-0.356363507980263
-0.85150918264068
0.431106839391368
0.614211522038659
-0.210163799497761
-0.593015176932595
0.416706359233807
-0.76706086004079
-0.710911501595828
-0.87885444504635
-0.563707591978196
-0.304374147549099
-0.856827058489561
-0.850998438900922
0.602422068910946
-0.324089172689847
-0.79487998306385
0.153706722801807
-0.14711755272737
0.657514711535249
0.168824573842564
-0.477998929322339
-0.52585368446585
-0.148838017079556
0.87969970000159
0.109343433245751
-0.588081834987417
-0.362944572521405
0.0920238524820771
0.560257807328777
-0.22988738799008
0.12048455103053
-0.373453160841148
0.169904097470646
0.579287408537916
-0.179095529315046
-0.571335449597716
0.192124622664709
0.738284774160667
-0.875382386296745
0.935286617604774
-0.44859493234552
0.386207706095772
0.693384650142675
0.0157407529279345
-0.639403036515116
0.202478943960799
-0.108876447700573
-0.959595130938049
