-0.758877627689493
-0.917161497121449
0.523465037121664
0.208363960691154
-0.206370742653395
-0.068828050793975
0.0893223564676202
0.738621469837655
0.235252129858866
-0.0776908940362854
-0.79311231447117
-0.0987664342619594
-0.0899968006692706
-0.712034364754693
0.1254162581267
0.968161045575192
-0.80196952371609
-0.164025330571245
0.826631590843075
-0.0427466563117445
-0.309780567935382
0.805134539863943
0.780941688933147
0.0905172946958008
0.764085850352273
0.829073269328488
-0.947697607264931
-0.117852915449619
-0.83302535031489
-0.981095896465922
0.933133449406622
0.0849231617724563
0.759253137665187
-0.181396502635046
-0.706031471177318
-0.423984302855462
0.695835779841205
-0.874772133587979
0.792378274728538
-0.850704013016785
0.862690855524918
0.426972197879076
0.378307229057858
-0.36933502257138
-0.0926855983621482
0.418157466242331
-0.393646558496942
-0.99908614714926
0.506029653067692
0.408443210643445
0.721431242210931
-0.958185018704733
0.252964875479184
-0.559366668325361
-0.757243331595175
0.34154987388103
-0.794512672303095
-0.41799105930496
-0.852376766323323
-0.931727448502368
-0.526327266677422
-0.151260682695276
0.0775424591910716
0.689885696919449
0.444175717376681
-0.0778062410425679
-0.54570754271104
-0.247284848136327
0.229815230946593
0.468895074658603
0.345886689800193
-0.930823602036367
-0.518840574549979
0.601098790260036
0.724713743174061
0.615655935574334
0.14603097486711
0.567935367873587
0.181563333072454
0.836756891971755
0.596581872963157
-0.167895593662059
0.665036561309473
-0.763148329703754
0.301631962584597
0.952198984141391
0.962213010503613
-0.867024041538828
0.95068446010278
0.881800953062373
0.956333007341375
0.258202007644597
-0.0447150748865998
-0.346965093495126
-0.833037423756417
0.0695281239629685
