0.900500611841849
0.908078241197288
-0.0382017533168693
0.680683796494721
-0.233809748766997
-0.0124059869982458
-0.906441018605117
-0.271187163120373
-0.909259304695676
0.0843310324627998
-0.774514160366589
-0.481440894923575
-0.357957635947352
0.66607167265265
-0.905416705287535
-0.784148729990179
-0.237059934226196
-0.366150621013553
0.958781984507268
-0.997903893144091
0.499348919736695
-0.921856739702023
-0.827524209383145
-0.848375864692469
-0.145148083582485
-0.94682267078808
-0.129544669613654
0.181189305459683
0.698377612639102
-0.313430872355484
0.383877323396345
0.487642490830518
-0.450447552703632
-0.689494060930748
-0.267526559020028
0.613475135841222
0.100383527872462
-0.964064126102132
-0.343446138941391
-0.393563920274261
0.740104707563432
0.474690528455397
0.266312075340899
0.904238913959361
-0.103323092057195
0.180507684252177
0.717675356298421
0.279286448615345
0.367325216892201
-0.00272494015932406
-0.75314712484308
0.839639431549535
0.259068197241949
-0.148671372510607
-0.751356406970904
-0.761515217957632
-0.26984908179637
-0.272772709106779
-0.233293539491357
0.58685571530812
-0.0705327115183048
-0.336336127958463
-0.848913642371076
-0.98578520828897
0.437970088759619
-0.992633919863074
0.859222223932076
-0.498346494159358
-0.54222728266405
0.769108855740057
0.14429117476089
0.614114775896923
-0.649058770003309
0.157005768322947
0.12749672369883
0.144090782682909
-0.0449107229029243
-0.657815591483726
-0.257431148444088
0.478582748364798
-0.938809368099863
0.840085871655557
-0.143030380975539
0.436537838430928
-0.160869087943949
0.00315882040328708
0.0111217535818776
-0.0055347876785286
-0.883152702925047
-0.0921684067649825
0.57382595840168
0.597637548975341
0.424859369827544
-0.760312384058087
0.0332411927733841
0.128052726821719
0.559203585651135
-0.0449756290572134
-0.360433020537394
0.541419645612095
0.374190464158008
0.175791722474355
-0.198745843701418
-0.181511925521623
-0.489222592971343
-0.288031857604551
0.0196761027667891
-0.228867377859901
-0.246318756376843
-0.458521873370672
-0.784808875697607
0.551901206184995
-0.671301280702698
-0.794391683135119
0.684744995898188
0.0419022421126183
-0.338539602476779
-0.739599949447169
0.742488075843721
0.0490714998369667
-0.892585662790884
0.775049836195991
0.282108911831492
-0.754397475184788
-0.0217559297767009
-0.8007062588375
0.160824250719021
0.668320743768144
