-0.556553671898563
-0.172199489644712
0.638836987785409
0.181165209068392
-0.773600205459418
0.897409854171173
-0.662496039932541
0.0901686097504562
-0.501752689909752
-0.241628313481905
-0.776081307166143
0.682481948887542
-0.693185580929111
-0.656726235951394
0.947599949960964
-0.769360324831307
-0.896172754343177
0.379146779348022
-0.398961352059551
-0.232437393826108
0.810835173957536
-0.148417044900078
0.0766247669771666
0.0291899273232903
0.642672526853676
-0.785064892942182
0.284916567791621
-0.448525856432754
0.567295214731387
0.318551903795516
-0.973100967344653
0.730288282478549
-0.636273430597758
-0.378464014509794
-0.884945804800612
-0.337559758210341
-0.799780428885447
0.00913590362121505
-0.277710939568924
-0.920669640817724
-0.028508587542542
0.402405293882182
-0.538466934649414
-0.0586295014469283
-0.558358286459963
0.52170504049218
-0.746433031132938
0.730320806451503
0.811728801494962
0.0899255159714537
0.548895668229864
-0.161158114674397
0.298392584903155
0.0683703941441163
-0.864787144683153
-0.798048627280559
-0.654321091639926
-0.345035772784445
-0.982630419394689
0.352004642922859
-0.158810855688686
-0.933735065421373
-0.221018342590311
0.776127801324168
-0.414168877895611
0.552004562632217
-0.00463529469883482
0.352377767906206
-0.965556513948125
-0.571338342672877
-0.703265978953265
0.52526306037719
-0.595839126558867
-0.0679303175699316
-0.251655484393545
-0.256447907430763
0.12086030036679
0.709956774954864
-0.0268972567197913
-0.603077545398162
0.405835387804921
-0.621214286283992
0.53713680203763
0.737522965177332
-0.598250360968736
0.00911536235216253
0.87270157567327
0.258037342638753
-0.884275267958335
0.122261084505685
0.997287568001054
-0.557807293827745
0.261888594335203
0.527561617635821
-0.202478483769438
0.236002959205842
