-0.601387098723874
-0.408812178659117
-0.681794509376059
-0.776706525844529
-0.439473015710484
-0.210179864466072
0.56912723431759
-0.303286208234774
-0.299867129150129
-0.225490508248805
0.140939276535013
-0.22724515028823
0.488502468845424
-0.202787403944884
0.517281935148175
0.865431690914306
0.107025320793145
0.836164903225098
-0.808463166890775
-0.898577831264088
0.276372736373926
-0.928093515453638
-0.639707704467388
0.607074216032525
0.135547159819237
0.771812468396567
-0.721592704609967
-0.104406307764467
0.355092596676263
-0.662349453487274
-0.676845232494692
0.788830326096351
0.466402709892304
0.621093007300444
0.290990413216037
-0.335531462370711
-0.24062773768227
-0.338403400065485
-0.281539457522716
-0.76438171847051
0.124382692059778
-0.374769134113898
0.295325869154209
-0.954037813017815
0.365224420834829
-0.411736486012241
0.540810660098605
0.507573568482569
-0.774060911247076
0.813897088254307
0.502365284975702
-0.798652251639238
0.863339440824693
0.625715240865477
0.134920615472596
-0.415807114324874
-0.228858785990594
-0.910836580318494
0.487341687130772
-0.922350952111792
-0.701381591673668
0.281161318249627
0.21502607392064
-0.402048873835223
0.0406177853990155
-0.946769065439577
-0.46076901192024
0.067297791096347
0.141350485159353
0.527554626918757
-0.770739482419472
0.512370385986413
-0.0416782329060903
-0.789537329286011
0.720712382060682
-0.478987340307743
-0.647025195865629
0.320755308930242
-0.971019035796856
-0.213882923791832
-0.243844203898671
0.0398369331155377
-0.322438877232164
-0.688544493264686
-0.14342883896775
-0.967479368606387
-0.296005407906612
0.00677872225005616
0.169330726951619
0.862244260162146
-0.145698488659188
0.242380146136547
0.0148217680975455
-0.774959317827225
0.66372405402646
-0.921741587610438
0.0508855594950783
0.384840621386194
-0.0113490349045577
-0.981168416176283
-0.197804402600088
0.195784633439072
-0.400305673323499
0.477308789402307
0.216060297132558
0.784930553043461
-0.861569166062656
-0.478397317178048
-0.59463626610509
0.554797535470272
-0.483457671359763
-0.921818316700744
0.289001190883925
-0.240920258909805
-0.372534011373342
0.996339349518296
0.731773265699146
-0.750207419384045
-0.71005658933685
0.367319293375593
0.617457122967944
-0.342840952209832
-0.628907163427029
-0.360151679925258
0.285254065719425
0.400341411393179
0.717566856493757
0.368780351197131
