0.875737881174521
-0.623149827935241
0.0979555469499631
-0.478958797807359
-0.662110577014168
-0.50631701866292
-0.224497429760867
0.750029449493848
0.840205297440787
0.881255647262183
-0.249294094083257
-0.119743345548932
0.139218222834609
0.193264709213836
0.475286672419895
0.347774594535872
-0.0716619537101805
-0.526474014109381
-0.536099417782848
0.726484011667299
0.707457373481139
-0.163998671676645
-0.204683102786235
-0.758989014389298
0.753920848389805
0.499636748669931
0.373249604182802
-0.458881795316889
0.907198828009671
0.124688058849585
-0.0746161489541782
0.702405540973
0.472164657956459
0.164554439667644
-0.505177087956387
0.701385246339901
0.743914926461553
-0.662594266478076
-0.0816562458819998
0.627762298045636
-0.58145817379943
0.949923615938399
-0.817880293266749
-0.483009116749053
-0.475453363015095
-0.00810875809122495
-0.763337561701497
0.554673115514068
-0.716503030313351
-0.186589635951485
-0.689702632305886
0.224725919120341
-0.351877610184868
0.253722681456002
0.0204759979713993
0.324086197069195
-0.553961092443879
-0.414922895521911
0.708782228717478
0.625760323375449
0.74871909248736
0.155398849626126
-0.401467728145404
-0.0260255440143038
-0.44229936904333
0.292747208044139
0.823176515480935
0.336935279915572
-0.255571225306839
0.109178758982306
-0.863355622999248
0.278797315828661
-0.576089380608284
0.0790309518079012
-0.33476725431768
-0.858721393271518
-0.252133173180217
0.352278008952906
-0.4688604423573
-0.415291507226059
-0.274438601329944
-0.213860911458043
-0.271808172250002
-0.744110940718956
-0.628784697364928
0.0227395406237472
-0.410143788552025
0.458605614179836
-0.495015281470979
0.400690275862396
-0.289960339443288
-0.130438527260433
0.933667693654211
-0.70877547210033
0.404836231701778
-0.729897394374735
-0.406058473388747
-0.292459662270807
-0.363748050078068
-0.105033341988051
0.126244490213668
0.772947152482374
0.26318834470523
0.680494933881363
0.592879899328477
0.434476222699643
-0.0210163320325802
-0.723729440712624
-0.612088932208927
-0.366025093104198
-0.214411539676789
0.790356281557282
0.228440523171653
0.841988468084562
-0.444936496400252
0.68227722984362
-0.560728042649648
0.121409510160651
-0.317785799374073
0.337931831556411
0.626766903735232
-0.311549439961856
0.0473476150224599
0.40237042803106
-0.266562194123802
-0.143132447283023
0.789297750532178
-0.335068472027147
