-0.0373311720824371
-0.0661571511293391
0.687590733825729
-0.559971587903054
-0.778416710592582
-0.221560556167712
-0.877715899678338
-0.278007053568707
0.521361215014029
-0.029301128858647
0.695226393786861
0.956795836950599
0.265735096151356
-0.824199662995739
-0.169793460554227
0.412507298964639
-0.202970700555716
-0.349498886482216
0.65255047944664
0.187469728852995
-0.878741644468465
-0.312376712119111
0.318789619179407
0.328724440280639
0.262629594949909
-0.0396579247127175
0.232592433415942
-0.292545109245086
0.901606530334169
0.851918954426875
0.714237807750751
-0.376786067101731
-0.548779130081838
-0.205276411101388
-0.704819845360471
0.642479907440788
0.279397006231916
-0.881588046186569
-0.304550777062883
-0.0288442451885165
0.770264067189182
-0.515057527061164
-0.220334106296327
-0.691469392085888
0.858394576351755
0.853724428977872
-0.2947466450305
-0.0144455729340199
-0.486182575802221
0.0754053138312352
0.544870132282279
0.319387198067277
-0.0610980869678354
-0.0168428703323187
0.0274751252716898
0.566793840124089
0.66035456754117
0.556325165573877
0.741053538152397
0.794141749386292
0.115263347569809
0.541234678503979
0.766141290818242
0.192225940064629
-0.401131492481713
-0.208843361329171
0.987017759937954
-0.679413469592566
-0.305618554600613
-0.235565760072385
0.746467020974679
0.260205559377219
-0.752864356819077
-0.70768066180074
0.1865825965061
0.932052385599269
0.0178439679827494
-0.527768781708056
-0.50442564125418
-0.999619352268119
0.568867914621644
-0.725939069741228
-0.582939791132504
-0.87731340840955
-0.00509743504683811
-0.908563372988182
0.66288303478403
0.653397733945349
-0.0496838587682041
0.441551746689099
0.351056753340298
-0.399704563988837
-0.930409101547336
-0.381390083578858
0.519947329897889
0.236513278268453
-0.186795413154106
-0.517460265178972
-0.750576029608492
0.9927211298913
-0.286696895752432
-0.516708201853867
0.752684453556617
-0.0698081640163019
0.692454796524145
-0.594855410948942
0.0106501589309727
0.129085834879882
-0.672092254223976
0.898070360362612
0.832012020600487
-0.388006857530622
0.810229778900209
-0.374444287349942
-0.815216982474615
-0.157338883409945
-0.843239723235944
0.599015258095505
0.849573316743245
0.143316547292188
-0.0869367412351452
-0.729529593764104
-0.967254254299465
0.805842401247964
0.149139601678375
0.231714334287121
-0.835180498817134
0.545169659881241
