-0.753206128402414
-0.239170391833767
0.0457020986380829
0.279610613580431
0.873860594776699
0.588753881294809
0.191829275879886
0.77065250087786
0.0426964368949597
-0.640295443375334
0.221121069696911
-0.773425927815126
-0.523714168265955
-0.287636686954587
-0.666703222104248
0.337890721250053
0.278693366480037
0.908476608713324
0.850068399539759
0.848915645225385
-0.183084981967249
0.0671895650412555
-0.255741133644854
0.589763367362981
-0.38543848676072
-0.0868058959792063
0.328208894575565
-0.712694891092111
0.56018205276796
-0.842080377923958
-0.749665824508902
-0.339109025225754
0.831856080012699
0.623216455344477
-0.513708748995474
-0.901931493747314
0.325744930931841
-0.694534518099234
0.989728035404534
-0.708185904634608
-0.410745777572971
-0.443261523602636
-0.717148915593496
-0.570980158228002
0.0859353972171132
0.448163444317412
-0.124460000322326
-0.120490654423535
0.399350125070509
-0.694790590187612
0.0575191777614354
-0.247293287741901
-0.648616423051233
-0.473302163102056
-0.793315148353179
0.19705004721481
0.755301041384752
0.714644425243185
-0.975419695031488
-0.253369196335393
0.795307596153516
-0.49710563899787
0.467830321497115
0.427798507498107
0.253085528242675
-0.68273781837932
0.764086743358943
-0.18685497564367
-0.904745392097377
0.720740817477252
0.799762079082832
0.333344812651051
-0.237533074978169
-0.331579413352043
0.73366539569885
-0.259568354048698
0.835031203416503
-0.418273703201582
-0.917970856845396
0.636325195225412
0.883131508134918
0.462979703345228
-0.655437924949773
0.74892111809194
-0.246574836921432
-0.74147822712084
-0.202556597263178
0.260873842416161
-0.790278221380002
-0.696244821775867
0.937582949280001
0.73272689347647
-0.920803151638905
-0.732483729641723
0.037941044036341
0.612630167286862
-0.223764980731317
0.898928080883042
0.307512145030876
-0.149666100324662
0.00943839210523655
0.980991760518124
-0.934487091634106
-0.0951564476039501
-0.640923736507769
0.668441279104063
-0.846236196019178
-0.87216792233328
0.387254999090171
0.443685144277914
0.200030680844721
0.603151383289278
0.662889002081376
-0.698294806207176
0.0953027815396446
-0.905159053344091
-0.983900515346673
0.979457711332964
-0.906996037238796
0.527561551361942
0.682249745321012
0.73362848930574
-0.930524998881613
0.96088209235015
-0.520722507519613
-0.836903540005832
0.5543487190315
-0.629384245888977
