-0.395272575421285
-0.00865363922605657
-0.122718905162056
0.0111567758193377
-0.831625453638432
0.271759216039746
-0.21715628166499
-0.0377035515770912
0.498937908712901
-0.968698230866744
-0.85259470383674
-0.474258766505348
-0.607013633255467
0.3454245918558
-0.759244908361359
0.951489439948451
0.648650225731936
-0.108692435984986
-0.703903046066046
0.596260113924874
0.677055650786622
0.440984684642434
-0.113815594117134
0.577893752111402
0.849130922165837
0.771833441803905
0.551560657402474
-0.446364557485699
0.49480387667693
0.142764072349881
-0.0389579754680822
0.607328571220946
-0.489460058736824
-0.0513419387437715
-0.771226189098267
0.775757801393106
0.603797757259337
-0.0511301567997343
-0.610377620782026
0.757471178012222
0.16324205508755
-0.282312093146787
0.592515340406859
-0.0757418411516209
-0.877866064950833
-0.590474256784278
0.700923397741265
0.125583943452125
0.273493042533058
-0.673858405044555
-0.320155962665816
0.731181467883619
0.617928038283805
-0.886054305399201
-0.383738910807863
0.692612363853633
-0.903754471041443
0.198139456462211
-0.430143193872209
-0.879852911150264
-0.0248951157352153
0.579049861606704
-0.458193551230169
-0.349276988256512
0.150560375080346
0.705342402982523
0.9211379075211
0.66686185235438
-0.370560689345783
-0.667207472681867
-0.430802190314013
0.0688705970347649
-0.42613101246688
-0.0640126399283317
0.644261906133385
-0.00544938992477497
0.547392763360505
-0.784571521033602
-0.84581764450689
0.929914118437415
-0.253592902284536
0.686347708437611
0.0460936083741004
0.628719158442992
-0.939615038217516
0.581302324283272
-0.94821990000086
-0.577760196724167
-0.557688723681532
0.918037033461653
-0.851723853989968
-0.965491850590872
-0.257256371774497
0.0292254159721169
-0.697248834244036
0.0911659144453588
