0.497946185368092
0.454626059105723
-0.408676553333219
0.16173886263186
0.889171294004577
0.673297067173804
0.0636108012760029
0.916910007443629
-1.04054124231502
0.0239257317521476
-0.326771063192806
-0.288481432811634
-0.42501804765312
0.39590600176011
0.94796164756967
-0.429357761538384
-0.550105363288981
-0.827573899852885
-0.424899624450989
0.504451764858906
0.505448890032629
-0.538592944329141
0.604259874658162
0.558777281318336
0.798322734851491
0.0756664823506022
0.193833053070892
-0.0723146911908147
-0.584401830823064
-0.0371578110601258
-0.800931690379377
0.882698170726654
-0.117089514695299
0.769761188077898
-0.382271507731374
-0.759919852665918
-0.076362016424512
-0.81988366464355
-0.287124050724009
0.615647394646139
0.0201502272038152
0.0208842717773051
0.22102172088727
-0.406728208147395
0.7858746597291
-0.816288919703537
0.597728281728323
-0.954215522646581
0.507264360193002
-0.586204025264216
0.165522189376155
-0.124451226339538
0.493939712897503
-0.941278223048714
0.607377737417119
0.907516915004518
-0.480511465366152
0.00620608839916942
-0.0890269860676521
-0.118541497952485
0.733874923095884
0.904349976494465
-0.341549158926637
0.902495868834126
-0.461618963954222
0.573314488444467
0.0323227501340964
0.319345788198731
0.677767074995406
0.310279986590541
-0.445520095348359
0.306198525222629
0.592861033555838
0.367534340122221
0.301894291071611
0.977064895901706
0.75049769796881
-0.587673712438066
0.4972269567222
-0.40803548519404
-0.17235659314738
-0.00585610218711144
0.704207976449583
-0.856596634813703
-0.975132529613771
-0.343384463736478
-0.106339028685225
0.361423855509512
0.716419838868424
0.215427304807626
-0.510264968662067
-0.129936702615644
0.309105800230356
-0.13579725152994
-0.315417755444865
0.917837435803053
0.285411302947641
-0.546498290507233
0.615281859506981
-0.0134198962854714
0.768428578670085
-0.796511592219058
-0.0137281506281039
-0.407404123574762
-0.937236584221975
0.166795978397344
-0.347034487341197
0.829854307251128
-0.39873056319353
0.279233680736901
0.495579523701984
-0.411701597019021
-0.114092724256114
-0.453651857341288
-0.0846705049832374
0.0351635966314872
0.570102729748863
-0.742373889912258
0.0467272722723837
-0.555153035258914
-0.018122741162953
-0.358071707568239
0.721079159777641
0.564844392298102
-0.807495336497013
0.00662627218421769
-0.134521988819633
0.873151604703117
