-0.445425005835535
0.72580444042031
-0.511336150965696
-0.560128034639276
-0.423542997354584
-0.796085777094862
-0.877510380129319
0.912487826488797
0.846462562792249
-0.233267534575033
-0.119556285919501
0.799502102368326
-0.0277838769161943
-0.565164916348506
0.862400027114027
0.522206541032957
-0.74186187142011
0.926161601372882
0.881600041541561
0.0324368256893444
0.752665072915395
-0.774336785968631
-0.478993227879589
-0.0270017869262669
-0.544773438163675
0.342863796730687
0.689013157201471
-0.380712999946603
0.158877302973242
-0.0649167279217429
0.672422261361633
-0.178776170968718
0.297826201708911
0.843686294734898
-0.393564167282211
0.657912688690405
-0.71687115735001
0.509271809124135
0.594878267464072
-0.213782631360178
0.0183945539124649
-0.163180649490533
-0.352009079759887
-0.103500581791201
0.936081546421481
0.94031243710195
-0.34221623557997
-0.243423460094602
0.437340290560912
0.316229847816197
0.818721600308095
-0.652605646745666
0.294715230864525
0.623961313038663
0.0377227924026988
0.675365942209765
0.702332878848112
-0.886630163080063
0.367837115178157
0.342925247701278
-0.3241593311926
0.532671849619411
0.90380381895907
-0.730735531980536
-0.767208508689731
-0.471738315018415
-0.346918830368142
-0.286415972415386
-0.988782829783907
-0.250577794807889
-0.519172344827748
-0.97209734112605
-0.877229543018375
-0.724450479456684
-0.835139036831876
0.269595009514856
0.760830991001001
-0.500990918700228
0.823760532908646
-0.879473139935022
0.283932409085567
0.220547183976345
0.589466533127543
-0.776160815527004
0.742378449881113
-0.378477451029597
-0.266727924811138
0.88951886404217
0.856104190166478
0.448239910343959
-0.499087935832332
-0.67729308847542
-0.0232865178983598
0.393274219495353
-0.990676162239354
0.387993436573855
-0.040252739294158
0.168972406847241
0.606906175970306
-0.568393623114469
0.663143709475846
-0.149195629301041
-0.129689397795244
-0.6292542875364
-0.592056015130423
-0.762891640762504
0.741436202864249
0.287513603197921
-0.588341240731691
0.619567375959224
0.951754745208028
-0.313556093421361
0.097415465078254
-0.12899852792522
-0.548638385432023
-0.044706888223494
-0.842443501762044
-0.665744903171984
0.269886269353805
0.0959115972572313
-0.306640513761651
0.37885526741045
0.667496695004754
0.389998291466889
0.277806042700665
-0.376949240459104
-0.884174555925183
-0.893361966999097
