0.877741856339102
0.794974677661394
0.185151840615817
0.367394814301991
-0.805622700713603
-0.937934647808776
-0.232758945850107
0.971417227342352
-0.531214835099273
0.941179634112191
0.772046552666553
-0.255437202040376
0.152996989336188
0.60941068251569
-0.484597169844381
-0.169224434273282
-0.49527835730314
-0.987972017232792
-0.763428709244052
-0.187563151482575
0.284085634978735
-0.958008582167517
-0.118618519464974
0.930123442687439
0.845023167556756
-0.721768680930587
0.309881173917287
-0.985106467991046
0.114457044120974
-0.213778824458307
-0.716311083373988
0.127752162805354
0.803818955807812
0.0418372875707012
-0.236313589063548
-0.997853678286934
-0.178783141743313
0.541422999595538
-0.532490023128437
-0.03781719895196
0.639968949480293
-0.963830999607186
-0.843950423747926
-0.974645076759711
-0.47677344728048
-0.480738189490054
0.0352834050528936
-0.852291977577283
-0.794000028051083
-0.539900021488594
-0.0266124929573495
0.562842821743752
-0.208765874616543
-0.637990561382594
0.383709980585637
-0.50162701610362
0.707452257979735
0.392353820545625
0.617080624050516
0.492378034093152
-0.744604765747233
-0.247068637500383
0.997124711752677
-0.804426968778678
