-0.123842225402458
0.949075259311861
0.965929506502655
-0.814905139406122
0.395255676553768
-0.344415751052363
0.177176842216098
-0.335286154650402
-0.118877580177553
0.189668359199599
0.826384787131144
1.0222477784552
0.470869350557664
0.455595826407621
-0.649819875068131
0.574103919031405
-0.326988674146922
0.467454995464279
0.52029070420774
0.750358195118064
-0.0380154871230427
-0.470978466910684
0.218267393178526
0.0361622542706095
-0.231054954270798
0.326386408301566
0.489123973320842
-0.879908901394698
0.754367587269123
0.660520605574115
0.392235617410705
0.813355631402424
0.101947673825203
0.817819643531187
-0.195055146753258
-0.986383497389303
-0.267377725398986
0.800254313668137
-0.00926576742610551
-0.654781581201682
-0.719963799079695
0.111749559798115
-0.533742558211103
0.579661899390684
0.161313076120163
-0.369736871668142
0.213974290694863
0.572500837550435
-0.802355233962993
-0.0624497009172629
-0.586724424925992
0.0207977290164903
-0.917127361494153
0.00887702597225903
-0.416083737607465
-0.420816939403554
-0.809046181195669
0.386766250591475
0.23138501127125
-0.588125840231903
0.381171573443831
-0.654244604178438
0.0772908332683926
-0.628309501158073
