0.972268475209507
0.0752086091715186
0.181693745233983
-0.300671665913175
0.303641430316845
-0.0503281554850438
0.243342862536862
-0.434735202305866
-0.399787875615832
-0.968200515807777
-0.902530231784378
-0.904444775803762
-0.179886943267789
0.106622652207871
-0.188682215609061
-0.943168746145741
-0.845548170321443
-0.259705190789599
-0.0255269026655327
0.354753099891733
0.616656664851835
0.993599815625108
0.661693746146583
-0.50448027599742
0.556121920553189
0.632457072129848
0.689213433192692
0.550293861486692
0.677355886139401
-0.0590365786547079
0.119758896930035
0.0715970714503324
0.88355759056254
0.112130654365477
0.0514465687950695
0.761273935068509
0.553860216087618
-0.862154549869029
0.0885499998433726
-0.926630602604925
0.942489650834886
0.470092020259253
0.306561379722999
-0.557863110633873
-0.435883349096484
-0.969130356921698
0.74402976950117
0.511861183888205
-0.874370235038057
0.111481036043455
0.828028163076406
0.780314079760416
0.238153060311823
0.907337424574599
-0.986433410329677
-0.73403195504973
0.632345474194283
-0.585423535221361
-0.763978340054455
0.627078880754614
0.614682603069773
-0.962041955353119
0.600606259593683
0.137912964774211
