-0.342167055056393
-0.0180556307679363
0.555306617135545
0.114986641090158
-0.248741649975063
0.787244767713018
-0.135395272932166
-0.544899757345712
0.382754406085904
0.166421653767261
0.684102690087704
0.363871771573299
-0.28520095162171
0.862495815026411
-0.203210989026408
0.75601609869012
0.953397595295334
0.950043537643494
0.190556251158678
0.48227661092458
0.571502994324666
0.887543598609535
-0.338702965176377
0.699390585951534
0.665704515892039
0.622117152145283
0.601159817602535
0.67142365888481
-0.251162565932414
-0.580235658868978
0.651695790096978
0.253736468833874
-0.0534854988482859
-0.0698741731214265
0.163928027391513
0.698642046635858
-0.320660486284289
-0.59205702650297
-0.88211482195855
-0.864772413936238
-0.129099571245875
-0.330681963281799
-0.0385957284661096
0.750638932790572
-0.0890033095543537
0.450577274108188
-0.460052292845896
0.41333142788872
-0.416454267542816
0.46568263401572
0.290059756493345
-0.406033906771472
0.20124418448362
-0.878163830207783
0.908776705576066
0.0631848918709712
-0.0528551145801169
-0.810282348535202
0.0425806315451839
-0.45768630743408
0.164446378684727
-0.411408623821582
0.687415624670522
0.892906906443631
