0.103038861431915
0.267238128016029
0.22092772330192
-0.0173349253392387
0.460410656905296
-0.0175946996933541
0.332033243605718
0.7296391024572
0.85402219279894
0.670592116825142
-0.789188105009393
0.81379628173869
-0.692628471731331
-0.611624187706346
0.933723083042898
-0.052314184388424
-0.974071175784294
-0.403699802369311
0.856669042386247
0.852415963616954
-0.817747024708576
0.964988478715551
0.485265951133303
0.39325770522312
0.288777067989059
-0.497325595901702
0.660949061097544
-0.973123879134822
0.313010191533278
0.0813392435102171
0.130545784249502
0.11145822998026
0.497608689534796
-0.709215990960158
-0.11825133703994
-0.942277063438617
-0.189558953389574
-0.106833923914489
-0.349937088489048
-0.963381989840581
0.154028536530222
-0.998306078476078
-0.172659495442464
0.882812840533407
-0.211731968726743
-0.614608622343532
-0.33189820379765
0.648333838385305
-0.387976189986505
0.216191841835527
0.479079171638582
-0.145689803008932
0.965841681350376
-0.156746119091852
-0.715376169920552
-0.0988154520827042
0.660059253916652
0.458249446702876
0.74087505106759
-0.862060163330637
-0.663214953744286
0.575348098592932
-0.574211710420401
-0.73095820799274
