0.709618654836265
-0.413287784839024
-0.780754200182972
-0.631607801000896
0.623420228530533
-0.696280411069282
0.191486037972362
-0.968765173776167
0.990725440486361
0.195406865805566
0.992932136133676
0.517448268238963
-0.38387949124503
-0.0197682074293781
-0.016384959891323
-0.857169788074705
-0.961104866971629
-0.23896649741436
0.399969328151933
-0.899862295406173
0.888900148505067
0.987420665191502
-0.917197881749962
0.0717016523644487
-0.433292281993654
0.71040634722552
-0.817495325470323
-0.17090970614713
0.719819396432462
-0.388154922147394
0.339947888028526
-0.866301135987171
-0.729799359660639
-0.44784938816715
-0.93631244235218
-0.546870934612966
0.237669278795693
0.253070256734868
-0.689653634902635
-0.342390041944017
-0.451735708944054
0.159808727037778
0.228099781732995
0.199287202824967
0.124214291442995
0.982940441939143
-0.92828872616272
-0.677993864909823
0.604248874759021
-0.672698716240844
-0.341107999271634
-0.777822851150083
0.367063030652419
-0.594717512545605
-0.347074869897724
-0.293427497489467
-0.694293623457829
-0.447967668558491
-0.537133512929741
0.202607547654419
-0.0140912026195572
-0.165004576322463
-0.535487559721832
-0.921311191158101
