0.113745091048347
-0.590422291031284
0.297136473567713
-0.501581273387139
0.109017223598192
-0.416355113626498
0.982527040022745
-0.0699219806501282
0.405418809301859
-0.87729918514726
-0.165794917670695
0.280040607063576
-0.393884617527445
0.648160875156336
0.771063405679269
0.314179608354641
-0.653721528871353
-0.547960164625873
0.739426412794149
-0.134404074572242
0.269055119870628
-0.130726075835296
0.373873080195753
-0.212002091526772
0.836970251320872
-0.0890183336884868
0.529015871352505
-0.0548937051858275
-0.639748197080416
0.459304821025554
0.881388923577977
0.515911159792007
-0.982650794260392
-0.632523785514646
-0.36701856323881
0.70846597678667
0.521010082512773
-0.866572251712663
0.228754222511468
0.954008291164751
0.105635334506294
-0.425432042612919
0.566028595609058
-0.842157609252521
0.708476968404707
0.988570824781496
-0.266448261288449
-0.87610601653774
-0.964350837715921
0.156135098436927
0.0943905806047356
-0.728941517629724
0.397137370319103
0.270777592000702
-0.188826571284673
0.811299774006255
0.311121595554605
0.381604133199475
-0.836177530752683
-0.786210021503072
-0.987366668565141
-0.696938587244385
0.269245208465783
-0.408128598683497
