0.337485661029687
-0.263710217232863
0.14225365541468
0.962584142049677
0.271096301271589
0.807871745715068
-0.943206889053083
0.467434398948313
-0.821831233954257
-0.89890063404219
-0.176332859529118
0.79785631599179
0.317045913825345
0.335814115579601
-0.920847607243937
-0.127211132087439
-0.596804535454963
-0.455621798106147
0.0813433835879859
0.733914915074145
-0.0376531363661616
-0.303018011172067
-0.427252123603172
-0.139399818365319
-0.0283709138469554
0.901544095033244
-0.943406079171392
0.434553846658115
-0.234899792325636
-0.117886401415482
-0.0515672819407582
0.537293024130624
0.962840568846758
0.345353493422451
0.610727903959951
-0.78025975452051
0.145848536492237
-0.173820320371161
0.284949887331214
-0.804760082281121
-0.480953972497129
0.159986600078372
-0.503480098331525
-0.0470903052238108
0.566250215120442
-0.816671516609973
-0.600584263983566
0.194680847622227
0.582354072766178
-0.938226195367265
-0.332438119415387
-0.168053780678407
-0.855813967498111
0.267766875302932
-0.875804575859283
0.399158753883031
0.993594452389634
-0.926248130096881
0.928454615229986
0.702374176382508
0.881106482146855
0.461010749986992
-0.405326298401341
-0.540766990705733
