-0.513163803101685
-0.677127758566405
0.0844038492551774
0.00223968462802276
0.353112985908667
0.515085686683017
-0.307702123502754
0.175801378872546
-0.202107922039724
0.458130169308178
0.341520024044723
-0.533248493303289
0.471167690383083
0.14140800455641
-0.0233156944196859
-0.850456343768935
0.670282095811919
-0.656658637357644
-0.827676515658988
-0.672754443856639
-0.837931928909039
-0.625669156164149
0.657998890539443
0.904755493050743
0.965646938619771
-0.685165051036317
-0.800501946475739
0.9278305926732
-0.160833553784565
0.0754626169621831
-0.738073152880925
-0.399614894921224
0.942712574150907
0.266316974395132
0.221047691641381
-0.013483017449195
0.0787479648355689
0.212513135223167
0.0965768902170804
0.622884728413678
0.370142848466857
-0.61369282667061
-0.600666238830623
0.0394443318786399
-0.652233749342229
-0.0674278264208147
-0.436621604710191
0.601027317439158
0.928009433678401
-0.641767463465248
-0.642988665723255
-0.322658725175186
-0.985167974593029
-0.465801716835377
-0.999453856266403
0.390432289226789
0.396774918465259
0.922227489742869
-0.265567095016701
0.730511074429164
0.234664424175368
-0.0952052583409494
0.166602865927687
0.995110938548227
