-0.84293277855693
-0.784147623536812
0.587978271648302
-0.977070309401281
-0.523928700268268
0.836057360259685
-0.914623981218763
-0.759187831108978
-0.0819962315807935
0.190597282658395
-0.26831097116731
0.36874062191246
0.282118060802071
0.649173479655334
-0.770729316987828
0.054399819033297
-0.123876494275761
0.0325540680948688
-0.289690243922376
-0.879478876099755
0.0829733167405398
0.637771737019849
0.148216121459686
0.532697059194998
-0.632185734970397
-0.152581541956337
0.402424635285493
0.313252561175483
-0.0849788565096406
0.425242924652944
0.3304161844342
-0.272539014977629
-0.790398759656424
0.315761757274439
0.0847338567563657
0.858206693012919
0.941475363196702
0.0998674928255866
0.94572746256439
0.108933339266452
0.555445709683227
0.324606668910802
-0.781792317972827
-0.169276763311018
0.902298708791787
-0.81764500386075
0.940639420953362
-0.0869630368908603
-0.953899167081965
0.37706507730512
0.936634816416042
-0.966551898735069
-0.437475143556359
-0.368439720143081
-0.352131912357014
-0.569724147188506
0.955121448524878
-0.00511152263289413
-0.756025704067529
0.874234806233448
-0.316532120247562
-0.53960565481355
-0.459030035874673
0.289915556735034
