-0.714273918137475
-0.225150441339642
-0.309377576526004
-0.894815307038525
0.668396160867491
-0.345474080981202
-0.57203990940352
0.677556573026337
-1.25145657799001
-0.271235105746067
-2.10354703649519
0.463672429149319
-0.022321155325315
-0.737668228353027
0.542901243069642
-0.117585833237744
-0.0198472861263019
-0.0858735424658247
-0.2922752766333
0.210076081836383
0.445014125288657
-0.534450242973021
-0.00784507145840409
-0.0209907495425592
-0.175584345890658
-0.679178930296161
0.179155804175044
0.419509878894803
0.218542680977589
1.08807739142291
0.0505208279268653
0.860054465418992
-0.766278281535888
0.479204708357405
-0.515117541704454
0.824693975080905
-1.40757099732063
0.260430224622701
0.0682405893467416
-0.756082106049556
-0.90003366131404
0.239316700202271
1.23284153660376
-0.733968332311395
0.367375373289465
0.110917392952148
-0.925553342693905
0.508623049021441
0.796003066389677
0.0957584697407511
-0.446508480261174
-0.299686373061872
-0.399973719681509
-0.00803193167052211
1.48054664690807
-0.657564264625058
0.283900339228871
0.497303001393772
-0.454237936198549
-1.5004117675023
-0.125633624073497
0.000539616317527336
-0.242038133668944
-0.205831110808975
