-0.57945828225925
-0.644631600912391
-0.979814727528048
-0.197190733588475
0.219806218182834
-0.583877835716576
0.0921602456856576
-0.535827631740319
-0.802340297379312
-0.276116717461174
-0.0868433757955478
0.867182596567799
-0.670838607217763
-0.127673991045706
0.394978362836705
-0.0285692560773152
-0.170123881571432
-0.480022562919816
0.323936144880677
0.708197780778258
-0.66924374519569
-0.0229467170283839
0.077993606331848
-0.809583359511892
-0.347703754061136
-0.361866175204214
0.0894536067449292
-0.243922175360752
-0.991111570915242
-0.696934898049216
0.941719719240592
0.106399085156759
-0.793226334470866
-0.825071489487889
-0.717145696377742
-0.888365004337818
-0.788745817062098
0.411317694727973
-0.0324056667639481
0.047928978650366
0.737052504356178
0.270324241821009
0.0456802967109136
-0.259979875116511
-0.627671808267519
-0.721173734894159
0.750030731998539
0.477198025623372
0.73984142866668
-0.839947818489038
0.163077807765591
0.707037788986807
-0.826892208447197
-0.646888738417043
0.576354968908324
-0.525135946196971
-0.623409273540498
0.33353469867771
-0.726030383117919
0.0961938588592508
0.972444981566399
-0.702681779164074
0.244916897957053
0.326238663517878
