-0.238599374229824
-0.28209554616814
0.720545093973471
0.268192945876619
0.409615724911757
-0.466864928075866
0.93011396413962
-0.398950158081997
0.507186335735064
0.0675459868365852
-0.840424850400235
-0.912752201357811
-0.229181217408586
0.782020379484104
1.00973149453368
-0.656936311949307
0.472968043371953
-0.524298653981967
-0.064215013783723
0.532510114511333
0.90079246682497
-0.489255181035841
-0.0971962283727826
-0.835946836517351
-0.557965743161185
0.389129222721676
0.580857172725765
0.096442485564662
-0.242705783978086
1.02729345293745
0.438265933889972
0.881767274853827
0.757725924109866
-0.613886402865334
-0.30856522475103
-0.801891777431817
-0.887401814014829
0.522444356037391
-0.574565247634976
1.07419786453537
-0.262809785871048
-0.742234098471313
-0.326467200887178
-0.29788532550033
-0.357720999459944
0.667101997847285
0.0982245277129544
0.820402032601642
-0.658936786432289
-0.0748458846893044
0.709736910247437
-0.0421266494661247
0.661503168730176
0.284069245732928
0.989159016941781
-0.186810948754454
-0.943971402751905
-0.537011899383924
-0.31192215063138
-0.69930430633992
-0.369264610087528
0.261798315727646
0.163184095709851
-0.0732392704384815
